[{"layer1": {"weights": [[-0.6586902404185869, -0.6157572628595144, 0.08307424945897143, 0.37660450013999, -0.401506700708, -0.04838219912190556], [2.674683390164473, 0.5564090592899886, 1.3907042633671391, 0.2794019265876711, -1.714776029239781, 0.04798763255946345], [1.2925037206447592, 1.3420502381116401, -1.6852515746074814, -0.18157860685952948, 1.4113241152679055, 0.41166405858935373], [0.43603307590883345, -0.2552081682746198, -2.0327398705195714, 1.6224675652570941, -1.1730424645632445, 1.3423312406029722], [-1.532757821194082, -1.5208852317048294, 1.2555367706836895, 0.3651890705368467, 0.5692695060593469, 0.35821274238224976]], "biases": [[0.11089559414708741, -0.06815458369394324, 0.1927250631255758, -0.03348049544767705, -0.12814891141981705, -0.10726189264031984]]}, "layer2": {"weights": [[-0.2507960821631194, 0.5589278146836951, -0.3725381058877726, 0.285132273083919, -0.37693239941840634, 0.9213393201926633], [-0.3060680659607198, 1.1184841739055016, -0.829260218715537, 1.4660901154007002, -1.8496559720907244, 1.0488558499140224], [0.9792731576830978, -0.24109907764225402, -2.221740067271518, 0.32862003536691714, -1.2276098393398842, 0.8759510740675336], [0.38008013640186483, 1.8283678898679723, -0.8460366747966626, -0.024309696485044097, 1.3576206750023763, -0.1939807127042845], [-0.3616837027249745, -0.6627946848017292, -1.3472544869383651, -1.341484074136666, 0.330569666435654, -0.5707026171437592], [-0.36318886431108116, -0.3758077623224611, 0.5750140971209688, -0.20668945250908677, -2.2910286105910744, 1.8450447200009141]], "biases": [[0.19712574129698257, 0.08898032912610915, 0.09999218490415238, 0.0581635631296933, -0.25463421764120414, -0.04371607462326201]]}, "layer3": {"weights": [[1.0858452466894117, 1.70907972208982, -0.21904348327744916], [-0.4700817763231022, 0.38608436267716595, -0.28757282358085795], [1.223093465539461, -0.07943556427172477, 0.8122913983874611], [-2.1696444455939337, 1.447866786301867, -0.1254577166473731], [1.8613232470236645, 1.0176695676734304, -0.8416547692720793], [1.0214023821586404, -1.6174516798616079, 0.565313417652802]], "biases": [[0.14414915397593336, 0.15148368686549918, 0.4812940125586221]]}}, {"layer1": {"weights": [[-0.5949017458795476, -0.6158030131637386, 0.09285701553822472, 0.3790974702749574, -0.4012804662492893, -0.04834594408079773], [2.6557653192485366, 0.5579969126101738, 1.424182552269121, 0.3008703876531935, -1.718062281404368, 0.03774303756999849], [1.304466073158069, 1.3417287075156707, -1.6837911409733313, -0.21293058671910164, 1.4113246358690694, 0.411387720019116], [0.43825310697712616, -0.25505824469092053, -2.0365131147687565, 1.6226260149852578, -1.1726926526584949, 1.3418816431503895], [-1.4654759334467926, -1.542858879904103, 0.9768458192562471, 0.3255125898117038, 0.569237051910682, 0.3579218257294947]], "biases": [[0.11283048446543284, -0.06811526645506188, 0.1942215032473566, -0.03360098291899738, -0.1275304314391702, -0.111782626451166]]}, "layer2": {"weights": [[-0.26492541638348016, 0.5601079615039399, -0.3545264122780618, 0.2851302796078258, -0.5675994050219009, 0.9253228008925799], [-0.28079710643184486, 1.0973399651515894, -0.8575523564238573, 1.4671235507669553, -1.6778865644617345, 1.0483106210446294], [0.9705485505530562, -0.24212508145457115, -2.287452950968844, 0.3286349438446541, -1.1834988063732834, 0.8389294799425362], [0.363219462225025, 1.8239245954248053, -0.8482359329482783, -0.024035111310484893, 1.3577866398207128, -0.19081715579674058], [-0.36727901660915696, -0.6594857461020859, -1.3616587676947707, -1.3415947920845734, 0.33220093628299274, -0.5749715896815205], [-0.3847254534052832, -0.2930349862837277, 0.7409828054980513, -0.20624633338881687, -2.2698958494947465, 1.8449840091579084]], "biases": [[0.1974241501181636, 0.08865750785262327, 0.09882165663510589, 0.05780673230099684, -0.26216971431326175, -0.045251451749410816]]}, "layer3": {"weights": [[1.0913572763378399, 1.7346926484079386, -0.22875800999311247], [-0.4700825470259103, 0.3899277011697356, -0.2882722369854479], [1.2327631277115154, -0.22678749157828706, 0.7661917742830631], [-2.1679003974269166, 1.3915236144720153, -0.12378673960709896], [1.8401376220170227, 1.018661572698726, -0.7343009976465368], [1.0211472737684013, -1.6915565063170488, 0.5644928566459019]], "biases": [[0.1436889450602682, 0.14981157820851737, 0.48129557377669696]]}}, {"layer1": {"weights": [[-0.6163337381699806, -0.5848960799386266, 0.08278119622666266, 0.3810828843116675, -0.4014469688655391, -0.04810191950225905], [2.6706045610218054, 0.5571585781428245, 1.4015842041604913, 0.23542200459829088, -1.7129076419938247, 0.15289251627150896], [1.3159026293027984, 1.3443717040208483, -1.6845706981903241, -0.2144555755606336, 1.4119477743670927, 0.4116224909090921], [0.4490028358498756, -0.25518479292971097, -2.0647480005229975, 1.67715177286441, -1.1729560287518934, 1.3422670839852833], [-1.539143475075139, -1.54840740445841, 1.0810628591771114, 0.40218149365974043, 0.5694467199740642, 0.35067532471726703]], "biases": [[0.11763784533059832, -0.06814771476464941, 0.193000282643976, -0.04055795418617772, -0.1278788019154162, -0.10818986619729513]]}, "layer2": {"weights": [[-0.2252085690923757, 0.5537607540250532, -0.3652908645247994, 0.285131944989563, -0.4104382363495685, 0.9097820838763503], [-0.29126978267911374, 1.1114082511442256, -0.8494831884205752, 1.4689027214948367, -1.7241901250385367, 1.0467470643597643], [0.9619392486784072, -0.22421813087246428, -2.272322346782131, 0.32861160085863134, -1.3415932031529676, 0.8684031594596351], [0.37926465011951266, 1.7122406286974685, -0.8478660153250548, -0.024262298163840505, 1.3598499566734166, -0.19797092371696795], [-0.39193822743709505, -0.6290650311130017, -1.3593250096465321, -1.341511561119289, 0.3699129940528993, -0.5723460821210486], [-0.36758470003847216, -0.3149874173460301, 0.6285213145449284, -0.20614768359896993, -2.318599920316302, 1.8463294107607424]], "biases": [[0.19720083528083288, 0.08892360502763608, 0.06706080140563327, 0.05417654432650059, -0.255236422245243, -0.04234729814142013]]}, "layer3": {"weights": [[1.086032693941723, 1.600116365359714, -0.2031653945148722], [-0.47055530683003016, 0.38519854999555014, -0.28775730242922565], [1.222914572932068, -0.20112475992876444, 0.7831242234920816], [-2.1653433142487035, 1.4111158556425147, -0.13170435970535155], [1.8657633350910698, 1.018979909338528, -0.8343086537877065], [1.0213364982199837, -1.6208358249150954, 0.5651824468132275]], "biases": [[0.14403354248869052, 0.1504654079609431, 0.48103933666319676]]}}, {"layer1": {"weights": [[-0.5999671974084215, -0.6159045172885915, 0.08140451153576594, 0.37818918881609676, -0.40140615935456203, -0.04822631716315746], [2.66698199137547, 0.555503107187068, 1.39385696781055, 0.2662414376840429, -1.7141259777726123, 0.045988877073806375], [1.3188044920204902, 1.3430818985550328, -1.720862708276139, -0.21475976667995675, 1.4113243584385322, 0.4115338826209657], [0.44266606909897965, -0.2551377363878017, -2.033587615875397, 1.6225545244954358, -1.1727177277554717, 1.3421186317113643], [-1.5252947773768895, -1.5421711812946, 0.9991602205816499, 0.3038346760346391, 0.5693458290339191, 0.357115057082956]], "biases": [[0.11347328849412408, -0.0681362864224562, 0.19341823447374076, -0.03349107262147535, -0.12777643125194005, -0.11094167937946214]]}, "layer2": {"weights": [[-0.25289068190957587, 0.5569666146349191, -0.3613202759437085, 0.2851313406341135, -0.3732195603820413, 0.9231420139777871], [-0.292682613221008, 1.1188175885785017, -0.8432951665669088, 1.4678976995281499, -1.6718467276160989, 1.0495273961132394], [0.9701915666790999, -0.23517818667353313, -2.2867388485475058, 0.32868924539887895, -1.2122490357229205, 0.8557053585711734], [0.3725127818288756, 1.828740905101065, -0.8456680318911522, -0.024181776812596978, 1.3587932128791778, -0.19716598695102297], [-0.3638403705352026, -0.6586998029232395, -1.3078488552718959, -1.3415858476169062, 0.3369953258783017, -0.572526979617982], [-0.35261850198381406, -0.2935455228924924, 0.8500327218392975, -0.2064925106778557, -2.286474714622133, 1.8469621206373963]], "biases": [[0.19725922472680454, 0.08883017247884531, 0.07773104509233546, 0.056193853814521216, -0.2558753071456035, -0.04360967023234264]]}, "layer3": {"weights": [[1.0862364014557824, 1.709847648481507, -0.2266823673942872], [-0.4700821366358716, 0.3892515560419293, -0.2878836947715755], [1.227224381345568, -0.22615520268573985, 0.7992003107731593], [-2.1670703930253024, 1.442378145985171, -0.12869682011242425], [1.8559536691014127, 1.0214314648987166, -0.8430218493548778], [1.0212886635537783, -1.619048466562421, 0.5649286420338508]], "biases": [[0.14394324782049156, 0.14861936052194383, 0.4811670728316372]]}}, {"layer1": {"weights": [[-0.6025761501416084, -0.6159254263675975, 0.09581262730940499, 0.3775899758543425, -0.40145957257300163, -0.048200915773539244], [2.671569880092128, 0.5620068385492223, 1.4157356893340929, 0.2463187828965424, -1.7129874743810327, 0.04755665452097129], [1.303917282042558, 1.343457810500586, -1.6933917536251637, -0.21449676859468556, 1.4119478022274468, 0.4116024087046586], [0.44367472805096264, -0.2551748281258722, -2.063867936703869, 1.6225097429430382, -1.1727962732830917, 1.3328458776100502], [-1.4754490881572584, -1.541852765664372, 1.0109845899437437, 0.37095983538141863, 0.5693766545928105, 0.35694640541901085]], "biases": [[0.11894785910963923, -0.06814593640579375, 0.19305239136829516, -0.04053078272931193, -0.1279078724080786, -0.10852022158595309]]}, "layer2": {"weights": [[-0.2491445435176525, 0.5560102004436471, -0.3427612966135025, 0.28513183202116077, -0.3916407347220876, 0.922204959054507], [-0.2840819774806967, 1.0984165076582393, -0.875153181128286, 1.467973356607079, -1.7330931627251527, 1.057362268240654], [0.971317271035445, -0.212837660820459, -2.2851038078414576, 0.32868608948836364, -1.2319645849885579, 0.8645880965523406], [0.3772961773146787, 1.823883363345747, -0.8763597728771717, -0.024249230667828383, 1.4186204474744453, -0.18510042740714788], [-0.3696427150699272, -0.6579273412782731, -1.3560420929906472, -1.323992392006878, 0.33811547414034016, -0.5595866250459578], [-0.38612251749056603, -0.38416973713933533, 0.7473553576668022, -0.2065971360256972, -2.2712871648085273, 1.8471749893070033]], "biases": [[0.19718838503662156, 0.08890937135922594, 0.08406628149763673, 0.055795257252271815, -0.262795952997005, -0.043028134632904454]]}, "layer3": {"weights": [[1.0847369749916527, 1.702586703233206, -0.2029533284017394], [-0.4705553496190476, 0.37593678733516955, -0.28771854623097237], [1.2246332347804567, -0.2078949407686595, 0.7796477372262547], [-2.169456681832406, 1.3830910363322872, -0.1253402778588688], [1.8614771128423664, 1.0368810205535264, -0.8352578627270099], [1.0213490477077478, -1.6268053350268616, 0.5651313351197329]], "biases": [[0.14405251829416485, 0.15099534148342716, 0.49720685310790436]]}}, {"layer1": {"weights": [[-0.5959571281894411, -0.6163003022000404, 0.1657623915673264, 0.3788930387024425, -0.40133070885658667, -0.04780669285756404], [2.6621294314082347, 0.5581334238347229, 1.421763815470002, 0.28310281570481843, -1.7108704022615169, 0.046883366766570525], [1.2979762816548366, 1.346574661681103, -1.6827140693210476, -0.23482170098003807, 1.4113244689089144, 0.4114811234861938], [0.4618000749057024, -0.25510807922960044, -2.0342961750009056, 1.6225189033391825, -1.1725525363885376, 1.3420371528326738], [-1.4626843304120227, -1.5436025708640115, 0.9679597768828812, 0.42662754669146835, 0.5696129642698435, 0.35417000104855634]], "biases": [[0.11521275870722161, -0.06812758163271565, 0.19376684426069923, -0.03348137764937565, -0.12739520518688774, -0.11030179247500668]]}, "layer2": {"weights": [[-0.2526799129043046, 0.549226775937097, -0.35091995974667467, 0.28513092460438594, -0.40477283491924837, 0.924511710448161], [-0.27529297585228635, 1.0977196858418445, -0.8413943174401691, 1.4720781298017727, -1.7019015940671438, 1.0449439502158548], [0.9560720963767773, -0.19904681754966508, -2.300546659213555, 0.32869858465219565, -1.2098611031482847, 0.8486129513749784], [0.37652139276518615, 1.8237624976203437, -0.858133658534342, -0.024121703355936344, 1.3621287735964431, -0.18927166260785414], [-0.36236362701069, -0.6568059870832321, -1.3603887197745195, -1.3416379684291653, 0.3556027928726692, -0.5746148916561487], [-0.37494168847225917, -0.296181101107754, 0.7489389292160185, -0.20634480430443242, -2.270010900321031, 1.849324293669829]], "biases": [[0.19735410971168207, 0.08875829167737426, 0.10015743478027934, 0.05028073077665633, -0.2558360270071122, -0.041493270605222204]]}, "layer3": {"weights": [[1.174357991152796, 1.7038239055092714, -0.2356565670322541], [-0.47008229846215, 0.38294271809503166, -0.28811672139887323], [1.3542381151236438, -0.22962041261419633, 0.7838332781667366], [-2.1699074480247718, 1.3720143039851995, -0.13682733994791174], [1.8619759582835063, 1.0326533043597945, -0.7583429508265348], [1.0212054301656548, -1.6342836392412265, 0.564762515875918]], "biases": [[0.14379716527163133, 0.15147276916065588, 0.4807849315257292]]}}, {"layer1": {"weights": [[-0.6027491860282339, -0.615762498274356, 0.09890361896604077, 0.37791966082632455, -0.40148160414350254, -0.04837032643097598], [2.673025671962366, 0.5592867513574235, 1.4195696353271443, 0.27685026136394775, -1.7138206143325148, 0.04653745120932669], [1.303195177095626, 1.341963678356584, -1.6840084454789115, -0.20560802994486255, 1.411324238739369, 0.4115924008370021], [0.43530970782448136, -0.25517036681961736, -2.0318667416757807, 1.6225772035445223, -1.1726974584727379, 1.3422101184347626], [-1.465618027383519, -1.5412663987100004, 1.002575104179611, 0.3370323511044636, 0.5692620919337998, 0.3581423628359037]], "biases": [[0.11381639696668158, -0.0681456352546192, 0.1930476436740552, -0.03344117562593992, -0.12800170178334622, -0.1078358887544468]]}, "layer2": {"weights": [[-0.2472761642037905, 0.5595096699289995, -0.3670424865808397, 0.2851317930241782, -0.4900522220544069, 0.9218185319493746], [-0.2781238943863574, 1.0939680141449761, -0.8686316760301125, 1.4663441993808206, -1.7321122095211168, 1.0466026377170037], [0.9753699598377845, -0.206859636446016, -2.2815112301226446, 0.32874394677433133, -1.2229863165816037, 0.8631219902254685], [0.3716400611743682, 1.8230798597804112, -0.8778308808690423, -0.024246453430456505, 1.3576498409342825, -0.19158499329979126], [-0.36387302631500446, -0.6577057642156676, -1.3560664980616206, -1.3415913639179138, 0.3301097462984052, -0.5705877493235598], [-0.39378443631207094, -0.2925985946373105, 0.7505002422505878, -0.2032415394686918, -2.269056260870049, 1.8473384674983708]], "biases": [[0.19716366882160757, 0.08890728151783212, 0.10049689818213423, 0.05836446587386821, -0.2529561963689651, -0.04406121163386534]]}, "layer3": {"weights": [[1.0839242222060481, 1.7004020000112856, -0.222941492466001], [-0.47008196089622867, 0.3785574386249295, -0.28765065187487787], [1.226298703880421, -0.22640520356763938, 0.8001291756313802], [-2.1422607596402914, 1.386551238076544, -0.12121775798422782], [1.856882217674963, 0.7056319430573729, -0.8459853977866749], [1.0213721607577977, -1.6240436886858993, 0.5651104844129107]], "biases": [[0.14409040165077053, 0.1491258927988814, 0.4812940266318826]]}}, {"layer1": {"weights": [[-0.5973335397772491, -0.6159121993571852, 0.09881409067353808, 0.34428208122025467, -0.4013684688355367, -0.06870401724088965], [2.6639955881851876, 0.5551325350537207, 1.395419463455168, 0.2855695536376729, -1.7141784787029608, 0.04473773644882556], [1.3019219435946434, 1.3430092473223907, -1.6831980402280622, -0.2901320156928785, 1.4113244698154768, 0.4114724686425541], [0.33132988803385865, -0.2551048203942134, -2.033731848090124, 1.6226154450692418, -1.172544623983438, 1.316825528180017], [-1.5212570056322985, -1.5424033235518868, 0.975123241743791, 0.43072844782506914, 0.5693389919682558, 0.34591893540665786]], "biases": [[0.11481045084126507, -0.06812801610284952, 0.19372625719464315, -0.033491388622238966, -0.1348231329466306, -0.10995927595486883]]}, "layer2": {"weights": [[-0.19999297313693015, 0.5573323287044388, -0.35700795700239485, 0.28513091142719904, -0.406265024225278, 0.9238196534740435], [-0.29522578706940716, 1.1184548866277715, -0.9252043885057886, 1.468122160441477, -1.6950239517605312, 1.0501791269579421], [0.9676372915958522, -0.22246664670148353, -2.3889212828362867, 0.32873757573637635, -0.9691318313961708, 0.8471541991378468], [0.3422352593347867, 1.8288623185649306, -0.8578657664372465, -0.02412373752030673, 1.3588248957059348, -0.19283783712141936], [-0.36955268734318014, -0.656377840366011, -1.3634209580648216, -1.3191326643871626, 0.3370267645577508, -0.5730175257526273], [-0.34910269676342554, -0.29371891171459225, 0.8409143569004588, -0.20556898809549726, -2.2867461610972333, 1.847814687093567]], "biases": [[0.19731074865118653, 0.08876242696655569, 0.10002185624198834, 0.056224588489999755, -0.2561879862525211, -0.043931018752087485]]}, "layer3": {"weights": [[1.1083700076588776, 1.7097951184918216, -0.21989188093375123], [-0.470082302188645, 0.30695945364282023, -0.28800030705740665], [1.2615067774152449, -0.22960332812434187, 0.7937900428242748], [-2.1622213989985095, 1.441265501908855, -0.12689796348371052], [1.8508206267524177, 0.9434824911528951, -0.8193625670202531], [1.0212454419796821, -1.6253806795554882, 0.5647499719430291]], "biases": [[0.14386368958409734, 0.1499697764230769, 0.4811672732613692]]}}, {"layer1": {"weights": [[-0.6142740638779, -0.6161568602963152, 0.1276807769024655, 0.377516097537583, -0.40141239733846534, -0.04795955356288649], [2.6682543242875765, 0.5580729048318865, 1.4124364317996685, 0.26284947747190157, -1.7117943080757343, 0.048410573839774575], [1.3075567491103313, 1.3455162070213795, -1.6839971732701384, -0.22156396679813256, 1.4113242691217178, 0.4115882712403954], [0.45535208430458063, -0.25516601748444356, -2.037164621624551, 1.6224451482448543, -1.1728481222042482, 1.3422122952698998], [-1.4842404748521285, -1.537691093816929, 1.0638910041709422, 0.4153983203276155, 0.5695339367828827, 0.3552434432934538]], "biases": [[0.11279630522004708, -0.06814260246762924, 0.193198376256016, -0.03348084109818738, -0.1277161453563775, -0.10876147724718159]]}, "layer2": {"weights": [[-0.25176275767621153, 0.5512863215542267, -0.36063681522326285, 0.2851316909311836, -0.3985921526030545, 0.9230409733880303], [-0.28406850585675114, 1.135268005548304, -0.8367611633556347, 1.4703566652881774, -1.7313783021262075, 1.0452701942956941], [0.9565025086489122, -0.2136623156904705, -2.277795004049797, 0.3286306169933786, -1.2215459873513648, 0.8639986414814438], [0.38268369115677203, 1.824792432218385, -0.8507986255031574, -0.024226740930503532, 1.3609700661211694, -0.19477707496156532], [-0.5192013039593086, -0.6606251240700849, -1.3566361364811712, -1.341545421444584, 0.3493130725839664, -0.5731462768934059], [-0.3755192876523532, -0.31591437758933094, 0.6302030231628194, -0.20650481954230765, -2.274993881413442, 1.8474018337964297]], "biases": [[0.1972454936836252, 0.0888815465518476, 0.07782531116159472, 0.052220704189437035, -0.25522289555871763, -0.041727623089987315]]}, "layer3": {"weights": [[1.1300961988338545, 1.705190389644094, -0.22882722680838802], [-0.4700820023746146, 0.3920448139591829, -0.2878641346585382], [1.2871695566579215, -0.18862607508997642, 0.7963580761708022], [-2.169497580437521, 1.3920900686406825, -0.13461638957383096], [1.86653609620884, 1.0289740742199494, -0.8028301877725457], [1.0212978897379972, -1.62195611365769, 0.5650789114109607]], "biases": [[0.14396472068410104, 0.15134688381485234, 0.4809120013542204]]}}, {"layer1": {"weights": [[-0.6106774609985022, -0.6158886127603282, 0.09623006179020636, 0.3090124478166891, -0.4014847079113611, -0.04823988626322627], [2.6638128537850876, 0.5590092801016662, 1.4149475132232403, 0.25282809143588925, -1.7131499872478249, 0.04805634339238556], [1.3144695992460007, 1.343199895389738, -1.7029969404182963, -0.20996080916621143, 1.411324169470878, 0.41163495269675554], [0.48079237049323725, -0.25519243609757675, -2.032439008897809, 1.6224880031334528, -1.172877457485035, 1.3436364652532418], [-1.4773148491115564, -1.5390706536155698, 1.0495784595062974, 0.36708113260506525, 0.5693575738491674, 0.35722082674383426]], "biases": [[0.11246322470222633, -0.0681505107236655, 0.1928790985312539, -0.03345582510875238, -0.12800099245004787, -0.10848164674804087]]}, "layer2": {"weights": [[-0.2486208935810384, 0.5565005004558412, -0.36801112622697874, 0.2851320651336121, -0.4384593787990072, 0.9217542856082259], [-0.3007039849905361, 1.0983331539899892, -0.8526570165710108, 1.4675214605752165, -1.7239329706831925, 0.9462414996880179], [0.9696256047175981, -0.21759334841631192, -2.275748684860733, 0.32866878698037316, -1.2275306537232393, 0.8696495254264307], [0.3123864992502039, 1.8237901095374738, -0.8606780387048902, -0.024281210585940162, 1.3587342455315774, -0.19563427538197226], [-0.36170160045838806, -0.6604388975630449, -1.3555765270151288, -1.3415355304116146, 0.3365090592796782, -0.5711183472495867], [-0.3887651080723828, -0.3037219783934654, 0.6891310642188452, -0.20494703269221137, -2.2717700179728224, 1.8466956391478826]], "biases": [[0.1971550141791661, 0.0889469105210419, 0.07805813202226988, 0.05628768458106484, -0.257294823307593, -0.04305473573063429]]}, "layer3": {"weights": [[1.08463918630006, 1.7023947216352844, -0.22295694067383043], [-0.4700818566632948, 0.38891130871760227, -0.287640828433293], [1.22360050582893, -0.20538967547868728, 0.8029857470586139], [-2.1548478310042425, 1.3916940921581893, -0.12686530434792576], [1.8636389605403312, 0.8653998253487694, -0.8471927398169401], [1.0213774773589632, -1.615852354044359, 0.5652275290244706]], "biases": [[0.1441039948330253, 0.1492678208110785, 0.48116655066645464]]}}, {"layer1": {"weights": [[-0.6186057359687706, -0.6160147272463005, 0.09355650461437195, 0.3764679465443071, -0.40148781167921965, -0.04810944609547655], [2.654600035607809, 0.558731808845909, 1.4103253911193363, 0.24195822293305394, -1.7124793601631352, 0.04957523557544444], [1.3257440213963756, 1.3444361124228918, -1.7219854353576813, -0.21431358838756032, 1.411324100202387, 0.41167750455650903], [0.5024227009898776, -0.25521450537553614, -2.0330112761198373, 1.6223988027223832, -1.173057456497332, 1.3450628120717207], [-1.4890116708395937, -1.536874908521139, 1.0965818148329838, 0.39712991410566684, 0.569453055764535, 0.3562992906517648]], "biases": [[0.11111005243777107, -0.0681553861927118, 0.1927105533884526, -0.033470474591564825, -0.12800028311674952, -0.10912740474163493]]}, "layer2": {"weights": [[-0.24996562295828625, 0.5534913309826828, -0.3689797658731178, 0.2851323372430461, -0.38686653554360745, 0.9216900392670773], [-0.32328407559471484, 1.1026982938350023, -0.8366823571119091, 1.4686987217696124, -1.7157537318452682, 1.0450331353262787], [0.9638812495974116, -0.22832706038660786, -2.2699861395988217, 0.32859362718641505, -1.232074990864875, 0.8761770606273929], [0.38673597074148375, 1.8245003592945364, -0.8435251965407381, -0.02431596774142382, 1.3598186501288723, -0.19968355746415323], [-0.3595301746017716, -0.6631720309104221, -1.355086555968637, -1.341479696905315, 0.3429083722609513, -0.5716489451756135], [-0.38374577983269464, -0.3148453621496202, 0.6277618861871026, -0.20665252591573094, -2.274483775075596, 1.8460528107973946]], "biases": [[0.1971463595367246, 0.08898653952425169, 0.05561936586240555, 0.05421090328826147, -0.2541902587922633, -0.04204825982740325]]}, "layer3": {"weights": [[1.085354150394072, 1.7043874432592832, -0.22297238888165988], [-0.4700817524303609, 0.399265178810275, -0.2876310049917082], [1.220902307777439, -0.18437414738973518, 0.8058423184858476], [-2.1674349023681936, 1.3968369462398345, -0.13251285071162372], [1.870395703405699, 1.0251677076401657, -0.8484000818472053], [1.0213827939601288, -1.6076610194028187, 0.5653445736360305]], "biases": [[0.14411758801528007, 0.14940974882327562, 0.4810390747010267]]}}]