[{"layer1": {"weights": [[0.24990846637101954, -0.5894980072311324, -0.767947565162143, -0.4893186651498549, 0.11559172600840634, 0.8096819240604376], [-0.20800951145196403, 0.0035384461937548422, -0.25145494417864767, 0.112150234464976, -0.018344579185837106, 0.09960351951960861], [-0.28236289137407855, 0.5750703405632597, -0.6251202366643314, -0.41397416415061405, 0.14152618700263603, -0.3437449684120315], [0.15795417877378715, 0.050341312184493454, -0.0361059524151239, 0.18150596954918313, 0.4542463359631839, -0.03083694806435419], [-0.6830066484642402, -0.5206566605313854, 0.14003411558286744, -0.18757911109209113, 0.30123454899505403, 0.3455942966264454]], "biases": [[-0.08422161982653228, -0.07609909688682508, 0.07488994274123204, -0.063956641330811, 0.08704126620237823, -0.010732205541182125]]}, "layer2": {"weights": [[-0.8247434166291455, 1.2551140726139778, 0.11537338942198419, 0.7474899236787809, -0.26033786229695666, -0.5797558221619743], [0.7988201682339671, -0.7858900794086439, -0.5866349481776348, 0.28663374037809686, 0.494744945347827, 0.9433391489497776], [-0.5515807342864987, -0.42257042977760406, 0.21669974961290828, -0.05859327864480306, -0.09733410428898859, 0.005315374368376209], [1.2406829962243648, -0.8109549476063747, -0.22947804719542023, -0.5624759326378719, -0.9523804978249728, 0.13736556606501954], [-0.5173689398195171, 0.2828821386129408, 0.21225771287949502, 0.5714259610893201, -0.22654928447162126, 0.04388624727547346], [-0.17542655223801937, -0.01519157833769554, 0.14873211082985233, -0.4504451248487519, 0.1831793925870362, -0.4880349902451795]], "biases": [[0.02261917816334337, 0.0052507328912816086, 0.0020060349030896697, 0.08601638752142286, 0.061024623401778, 0.05597643766574444]]}, "layer3": {"weights": [[-0.3988129804593182, 0.18713717104550293, -0.37062025984131797], [-0.28937106963680564, -0.5852327717972725, -0.81810295638384], [1.1666150892580545, 0.43307347194923496, -0.5641510022119229], [-1.415074824095833, -0.23584138100558888, 0.7514508666415156], [-0.15560909754480884, -0.4799524322252888, -0.1255249855022593], [0.538470957725053, 1.328129560704916, 0.09529028323460882]], "biases": [[-0.01361259095412479, -0.02688247922244888, 0.044667691065931645]]}}, {"layer1": {"weights": [[0.3046466779114985, -0.5894976835207295, -0.7550919136888474, -0.4904092347109189, 0.1162450959964593, 0.8094594683436054], [-0.20578717376065891, 0.00041064408638777226, -0.24487967646141917, 0.11314959959610846, 0.05157137400173392, 0.10019066061147121], [-0.2724664488739873, 0.5750706030068645, -0.5791435092106819, -0.411939889315444, 0.14155094031197957, -0.3439811621182586], [0.1547019142974989, 0.045746403806006884, -0.040910529967161165, 0.1455654878660741, 0.43648839860935423, -0.09083142992159497], [-0.6775030512787338, -0.5506689780729046, 0.10637007794476955, -0.25213880986762705, 0.30123318823160894, 0.34688466942704743]], "biases": [[-0.08485447224710366, -0.07609971941999955, 0.07479927952099796, -0.0639620074095392, 0.08220920479244022, -0.010732434418010355]]}, "layer2": {"weights": [[-0.796583346458988, 1.2509861120607495, 0.09859604284759974, 0.7362146743021332, -0.25601088533484606, -0.5609831034718327], [0.787362341086447, -0.7620618995375229, -0.5866179144030828, 0.2895372035048165, 0.4510290014345395, 0.947701724767389], [-0.5544386652607005, -0.45393572762077683, 0.22758122625855415, -0.05866761673443058, -0.08798972933784911, 0.02921253945545751], [1.2511786588105818, -0.8113847261617564, -0.20657693368630337, -0.6018946748033512, -0.7712388540334941, 0.16417774732393325], [-0.5160251629977562, 0.35022812292880384, 0.19425683018827206, 0.5714261372815289, -0.17911807675683106, 0.03909145157972141], [-0.17352958208638833, 0.055172643087739726, 0.1495196551544996, -0.4554746705652529, 0.18531370690895166, -0.4785613167574445]], "biases": [[0.04221825047999396, 0.0052526357569095405, -0.0001829882238059341, 0.08616782555301207, 0.05798068159364879, 0.0565399856911067]]}, "layer3": {"weights": [[-0.3681118399312854, 0.18687623462479086, -0.32858958930129034], [-0.24246084518102373, -0.5653650352319263, -0.8109537667208355], [1.171907841439796, 0.42757127487819907, -0.5540227727379914], [-1.4238717667140888, -0.23284188891207525, 0.7442045710207636], [-0.1573737441910928, -0.494690080561502, -0.12552621799727812], [0.5450655485701604, 1.251390548171059, 0.10447468631290183]], "biases": [[-0.013792396561477422, -0.026880601027077934, 0.044667752258739535]]}}, {"layer1": {"weights": [[0.3036441787734213, -0.589497661940036, -0.7548179316933844, -0.49734171771521546, 0.11628865399566284, 0.8094446379624832], [-0.20707721798838666, 0.0013854009352037438, -0.25145227141765414, 0.13744275320744426, -0.01842899265421112, 0.10023763331548341], [-0.2794068921317489, 0.5750706205031049, -0.5772494041518945, -0.41164852773394955, 0.14155259053260247, -0.34399690836534036], [0.15423870031264927, 0.0503414194140597, -0.0457716867266642, 0.13666836448313352, 0.4237144505695565, -0.08769108783558513], [-0.6883737012859585, -0.5723893241756888, 0.1387500381032266, -0.25153662219720063, 0.3012330975140459, 0.34697069428042093]], "biases": [[-0.08422161311610653, -0.07609976092221118, 0.07478498136238207, -0.06396236514812108, 0.08220954458763233, -0.01073244967646557]]}, "layer2": {"weights": [[-0.8217222578551411, 1.2504977305569236, 0.09841427606991231, 0.7262598177618906, -0.22811537328590975, -0.5748042421459475], [0.7974934816072504, -0.7702691226179008, -0.5866167788181127, 0.2897013307750209, 0.5037325002844449, 0.9498110536649593], [-0.5395120372903904, -0.4870592322136962, 0.2151785959149945, -0.05867257260707241, -0.11637748890346386, 0.04535479770922179], [1.2472007664277092, -0.8114133780654484, -0.21906168308206656, -0.5644358087720125, -0.8711514501260679, 0.16425504142423353], [-0.5162510472723607, 0.3133760537188989, 0.17440733247795293, 0.5714261490276762, -0.226037631948289, 0.03894549420548616], [-0.1750750940727127, -0.01674283435339143, 0.14951524031819585, -0.45070328812147625, 0.18721568859012572, -0.4694631256720973]], "biases": [[0.02297958478883991, 0.0052527626146180685, -0.0003289230989323077, 0.08618945955840068, 0.05754582965272458, 0.056577555559464185]]}, "layer3": {"weights": [[-0.39773195259965943, 0.18685883886341004, -0.3708706645824764], [-0.29842333870487714, -0.5645788238938021, -0.8098716817895688], [1.170806095261761, 0.427176568240629, -0.5496847596213352], [-1.4268098808214174, -0.23583993071334602, 0.7516826594334568], [-0.15558935098955445, -0.4948094929382012, -0.12552630016361271], [0.5385063019974179, 1.2325825178636207, 0.1044374967606703]], "biases": [[-0.013817627063232496, -0.026880475814053204, 0.044667756338260055]]}}, {"layer1": {"weights": [[0.2767763225722204, -0.5894978345855842, -0.7613827484277638, -0.4933301914325352, 0.1159401900020346, 0.8095632810114604], [-0.20754336472017534, 0.002461923564479293, -0.2514536077981509, 0.12479649383621014, -0.018386785920024115, 0.09992057641754601], [-0.11527970559017062, 0.5750704805331823, -0.6011848204081129, -0.4128113459422818, 0.14153938876761923, -0.34387093838868593], [0.15609643954321822, 0.050341365799276575, 0.05976868802981548, 0.15908716701615833, 0.5041200216437111, -0.05926401794996966], [-0.6856901748750994, -0.5465229923535371, 0.139392076843047, -0.21955786664464588, 0.30123382325454995, 0.34628249545343315]], "biases": [[-0.0842216164713194, -0.07609942890451812, 0.07483746205180705, -0.06395950323946603, 0.08462540539500528, -0.010732327608823847]]}, "layer2": {"weights": [[-0.8232328372421434, 1.2528059015854507, 0.10689383274594824, 0.7368748707203358, -0.2442266177914332, -0.49613428026505285], [0.7981568249206088, -0.7780796010132723, -0.5866258634978738, 0.2881675355765589, 0.49923872281613596, 0.9465751013073684], [-0.5455463857884446, -0.4548148309956501, 0.2159391727639514, -0.058632925625937735, -0.10685579659622622, 0.025335086038799], [1.243941881326037, -0.8111841628359115, -0.2242698651387434, -0.5634558707049422, -0.9117659739755204, 0.15081030374462653], [-0.5168099935459389, 0.29812909616591987, 0.19333252267872397, 0.5714260550584982, -0.2262934582099551, 0.04141587074047981], [-0.17525082315536605, -0.015967206345543484, 0.1502941318280192, -0.45057420648511404, 0.18519754058858096, -0.38369711394381456]], "biases": [[0.02279938147609164, 0.005251747752949839, 0.000838555902078681, 0.09004213760119567, 0.059285226527251295, 0.05627699661260431]]}, "layer3": {"weights": [[-0.3982724665294888, 0.18699800495445648, -0.3707454622118972], [-0.2938972041708414, -0.5749057978455373, -0.8139873190867044], [1.1687105922599077, 0.430125020094932, -0.5569178809166291], [-1.464267208234041, -0.23584065585946745, 0.7515667630374863], [-0.15559922426718165, -0.487380962581745, -0.125525642832936], [0.5384886298612355, 1.2803560392842683, 0.11590543735858713]], "biases": [[-0.013715109008678644, -0.02688147751825104, 0.044667723702095846]]}}, {"layer1": {"weights": [[0.2394937837333646, -0.5894977051014231, -0.7899906190005941, -0.48347675170662247, 0.11620153799725577, 0.8094742987247274], [-0.20449712953293114, -0.0005641127624281992, -0.151296803722552, 0.1556195656446812, -0.017116771013116355, 0.100143687907459], [-0.2038130545135341, 0.5750705855106243, -0.5888374560932916, -0.41223125089693846, 0.14004362663892003, -0.34396541587117674], [0.15516512828234857, 0.045746397104158995, 0.014304380592696633, 0.1315026974187273, 0.48183216083782243, -0.07661789594440407], [-0.6666324012715091, -0.523899354496492, 0.16628245239540984, -0.2355745092186893, 0.30123327894917196, 0.346798644573674]], "biases": [[-0.08485447266650525, -0.07722336443747553, 0.07481357767961384, -0.046807308671289745, 0.08220886499724811, -0.01073241915955514]]}, "layer2": {"weights": [[-0.8232767927909105, 1.2514744935645754, 0.11006092919654585, 0.7461695308423758, -0.27845297592156115, -0.46997575910330147], [0.7839507243212758, -0.762078283433054, -0.5866190499880529, 0.289373076234612, 0.4331947481101005, 0.9469558602755875], [-0.5609938868316093, -0.4734451360175891, 0.2399838566021138, -0.05866266086178874, -0.08371080309143246, -0.08305942654229678], [1.2551565511934544, -0.8113560742580642, -0.19409218429054015, -0.5798159665503482, -0.8923769398378728, 0.15768726078503056], [-0.46571976442674534, 0.31281711318182287, 0.2141063278985912, 0.5714261255353817, -0.26183818433213596, -0.031665293667518676], [-0.17198407010006395, -0.05161159221639443, 0.15010929811780094, -0.45529225862390643, 0.18341172522777757, -0.4347395429750104]], "biases": [[0.022934533960652842, 0.005252508899201012, -3.7053348679560484e-05, 0.0881157985782654, 0.05841553353457301, 0.056502415822749216]]}, "layer3": {"weights": [[-0.3764091125205724, 0.18689363038617166, -0.37083936398983164], [-0.28480659639525874, -0.5705847202465901, -0.8109078090668789], [1.1730095876178315, 0.42796598151576914, -0.5629357948676206], [-1.5717590691267622, -0.23584011199987637, 0.7516536853344642], [-0.1450469643796197, -0.4945706681848028, -0.12552613583094352], [0.6116841324817658, 1.286128106160058, 0.2687384105848243]], "biases": [[-0.013767166059722346, -0.026880726240102664, 0.044667748179219]]}}]