[{"layer1": {"weights": [[-0.47347466631428964, -0.7007152890527238, -0.9155419919938156, 0.3263573935723115, 0.977572643053418, 0.8909105469636326], [1.9360726517438922, 0.8994923979806445, 1.4023910218759459, 1.8661537159160937, -0.8832659713022636, -0.5848347599791847], [0.2150065204012271, 0.20596256466563406, 0.23792949458742035, 0.42740462553900527, -0.13880537203631857, -1.634989339418407], [-0.7217596452417682, -1.2121000792465897, -0.23602481488862218, -0.11263001244644379, -0.6530306718081118, 1.24143691268308], [0.8866146467961409, -0.10522731393921848, -0.86629241209229, -1.0058067311435184, 0.9984638879440939, 0.25791229052647185]], "biases": [[-0.009942562398494201, -0.028206658739046334, 0.11931761577022237, -0.14327850291946517, -0.031989049367529346, 0.15894686342867204]]}, "layer2": {"weights": [[-1.5855740892274548, -1.0875965718982687, -0.1981026889056659, -0.1696735144715943, -0.24191728863408982, -0.6568118615869225], [-0.27505433362648474, -1.1724473579122903, -1.5209657808758592, 1.5862103662177969, -0.25872494012636194, 1.2697956532915415], [-1.7928441817319278, -0.43033557711071363, 0.2983997897709399, 0.9587593193518719, -0.4028265282613794, -1.626336598308546], [-0.5137551736288539, -1.1238920466524631, 1.293305205021156, 1.2882265760990166, -0.806630936139672, 1.9176145165472316], [-0.5693416309254343, -0.4977167832385399, -0.28913823283702134, 1.206153173086846, 0.4172594181338008, 0.8160842209503737], [2.0464415149174764, -0.07221731355285649, -1.0800367301165867, -0.5849421196971207, 0.29654342569369996, -1.8316348838481324]], "biases": [[-0.07542712355620472, -0.06863641970987179, -0.17756133732980336, 0.1837166966086461, -0.019965359916612836, -0.060849286430059324]]}, "layer3": {"weights": [[-0.600989233539288, 0.11035886371607687, -0.8589044034646], [0.5172769379513302, 0.7608902887187957, 0.6577383771005856], [0.978553940372336, -0.8942857977923127, -0.2631174845979693], [-0.0880577648723806, -0.7273105662509822, -1.9969964257284072], [-0.951395216534153, 0.4535820956595263, -0.917329042914315], [-1.8946671707083782, -0.19752541178155947, 0.9136957711577571]], "biases": [[0.06367072784960946, -0.012937431402951272, -0.1040264208319794]]}}, {"layer1": {"weights": [[-0.6883942218969488, -0.43445797736876457, 0.032574418483136025, -0.015724126843912917, 0.2164430214668191, 0.8511066836170883], [0.3400389828962265, -0.18058745160037554, 0.10609596784489642, -0.339626633571127, -0.6674831567454489, 0.024966678948855174], [-0.08633881209010937, -0.5005569155447245, -0.24872280674876346, 0.6720531835548459, 0.20422113255440327, -0.8172897341123679], [0.882642692446804, 0.1716240818353927, -0.6181705580390481, -0.3094972565308719, 0.5199139129368027, -0.18962603057822616], [-0.6290394053249762, -0.45745268934207806, 1.3531085461310433, -0.3448689575628723, 0.4433385872114992, 0.6419945386526316]], "biases": [[-0.014741864848487368, -0.06031571377657964, 0.09800516788463823, -0.022339009171018318, 0.03946719933102645, 0.10925767934697261]]}, "layer2": {"weights": [[-0.6074853923110282, 1.2097938911826303, -0.7382015058041655, 0.9594779645485558, -0.38305758736239004, -0.22839103780677852], [-0.45483106020267217, -0.058970660084000065, -0.6735843558263152, 0.005777681965671412, -0.3469195139077322, 0.5286783680541367], [0.4591097491420648, 0.5118981510020475, 0.75006483055555, 0.4010412656768017, -0.06709241522989007, 0.13551030024808053], [0.1901153322696134, 0.250471516568056, -0.9223835334318933, 0.17540202187551818, -0.26369355384468307, 0.2042456060630418], [-0.20196216271223752, 0.6616882125910786, 0.18717461775519062, -0.27743558612246927, -0.15777971714353503, -0.19278419982075232], [0.5109418372075742, -1.4735500250779963, 0.832675627220184, -0.675203301982852, 0.28554973085547863, 0.7076286748660149]], "biases": [[-0.012111570704027791, 0.037948160729638775, -0.0340932302202657, -0.023963133867965773, 0.0004919632405371932, -0.04650741263763764]]}, "layer3": {"weights": [[-0.5638617953557117, 0.35572297915020945, 0.0669032322889694], [-0.22518340095932313, 0.22467567794733462, -0.25371159397043785], [0.30472760570734814, 0.5462186244868852, -0.6557861549688446], [-0.6834185602877256, -0.17879099694062478, -0.36588923727967887], [-0.20503823598595794, 0.9022751640735213, 0.1772332837341427], [0.3869696552934644, 0.8408270123130416, 0.49669217872979093]], "biases": [[0.05942396815474216, 0.010868942747589492, -0.06347307089674453]]}}, {"layer1": {"weights": [[-0.5691728186279438, -0.47937558553573556, -0.46450056306018317, 0.22285298666786438, 0.6292196381265892, 0.8737822981036167], [1.0846867617556781, 0.3541368320945508, 0.7108813711971036, 0.7005035498951471, -0.8037832385045529, -0.25099863288043966], [0.10472881203211931, -0.10134730231150019, 0.010906121785018374, 0.6659222758756461, -0.10395645220057108, -1.0945727541258252], [-0.04858564862475162, -0.5235239355182149, -0.39992453059652067, -0.17596218033221822, -0.0826086949049914, 0.551022570016508], [0.17293893122192955, -0.07945040164322606, 0.2265033679075225, -0.6179148275160573, 0.6764170467654318, 0.4649981188251988]], "biases": [[-0.012296246512343963, -0.04705688946940335, 0.11271842257434542, -0.08719926825171283, 0.0038384728112195073, 0.12532806306756072]]}, "layer2": {"weights": [[-1.0323152616199163, 0.006675110140860974, -0.47529335334327116, 0.3991285393064236, -0.3710084093386038, -0.42549275960864], [-0.23970848617941104, -0.560596453597496, -1.212318669538199, 0.7864662678226709, -0.30092937510647133, 0.9443076786283329], [-0.6749432442538041, 0.0005169744293515299, 0.5420308319897496, 0.64202470098499, -0.2714854946359204, -0.7716276621937932], [-0.20336981112944238, -0.3064663675208677, 0.16736434348277557, 0.8270239176639236, -0.5321105049992707, 1.015297649196369], [-0.4520173221547742, 0.06326197892887273, 0.01184272566448391, 0.42582179855924557, 0.15027559823796374, 0.27024446081015435], [1.2760236865942554, -0.8524322407144573, -0.18750857031572077, -0.6403305928020344, 0.27278886433616545, -0.6475744975178943]], "biases": [[-0.04094900538220476, -0.02311416814128969, -0.09432314380399216, 0.08272881434755823, -0.025257058065759008, -0.05240121675777195]]}, "layer3": {"weights": [[-0.5931910833313753, 0.22476807723834608, -0.41806700021371596], [0.15039954232684485, 0.6312636800297571, 0.17549392111327755], [0.6540917062386714, -0.14184992924795475, -0.44445794944252215], [-0.3715218941526475, -0.4402317417623672, -1.211290247420378], [-0.5705932130169522, 0.7022340089615671, -0.362459399594133], [-0.6924459722162554, 0.3075650000086666, 0.6049836641758791]], "biases": [[0.06777846343985636, -0.0018179186847715311, -0.1120734407566552]]}}, {"layer1": {"weights": [[-0.6084986897759069, -0.30995548375322446, -0.001379730537273964, 0.12048021242442995, 0.2812326862986227, 0.717871179860019], [0.2806628889866547, -0.10711061966256717, 0.014258678909437612, -0.2999293504142373, -0.6818690478665554, 0.11788436386781433], [0.018402318454325856, -0.42949618866968053, -0.21726959440509216, 0.48508893441119616, 0.25761878688305523, -0.7102933117082739], [0.6815299576877548, 0.09866593242972928, -0.558707097076836, -0.22918238008318442, 0.4887371320150363, -0.13179989906236828], [-0.6082674844536429, -0.2771118492868788, 1.309885823295852, -0.2461966108782596, 0.360946853543283, 0.6382953341879137]], "biases": [[-0.01489138083072188, -0.11007066944837764, 0.16614769310302116, -0.03121375005849296, 0.03926623298328528, 0.09185038985132646]]}, "layer2": {"weights": [[-0.4781093267700859, 1.2269934882138092, -0.7475112678142586, 0.9548512408901488, -0.4360757706695011, -0.276313080742122], [-0.2798787566058373, 0.13995388447220075, -0.8682943116322047, -0.0070639803374015694, -0.2601338801264794, 0.6228030421925377], [0.4568896119480874, 0.523018530633607, 0.7033121620068945, 0.3258069303765809, -0.14009665181224337, 0.08428152650605068], [0.10155003703077106, 0.2995542526386409, -0.9150141199784401, 0.3274186093044363, -0.1814027700385341, 0.11494390103990038], [-0.36135370057340854, 0.6181455170048633, 0.3139390335038097, -0.33457622020746824, -0.09870398089049931, -0.27320508095683593], [0.5047947552217451, -1.4219641200695876, 0.7052145886229131, -0.697582057454526, 0.25179650705975354, 0.5988973668805623]], "biases": [[0.011357398889859129, 0.02321319385479726, -0.02403197716182494, -0.01989367253064348, -0.025115269794278153, -0.04398572900882525]]}, "layer3": {"weights": [[-0.5693839992797863, 0.27901276593547997, 0.0903984006495132], [-0.21841629744234856, 0.3666645791781987, -0.30515542173660437], [0.3314225517331345, 0.4255521485288268, -0.6246899740934], [-0.6406113297063689, -0.15268401476709453, -0.3970477802785337], [-0.18809858758570847, 0.9625211704924748, 0.19399187472351967], [0.48742287216995916, 0.7768049180769312, 0.35828197865409017]], "biases": [[0.07189754273831528, 0.009833331410269704, -0.06841240333792326]]}}, {"layer1": {"weights": [[-0.5413539056781195, -0.5029193510417602, -0.45242115947090633, 0.2239846193288771, 0.6295856912254514, 0.8029812466025773], [1.121793509779367, 0.3541341950159246, 0.8560431993070923, 0.9090395622794794, -0.3860490421551232, -0.23535171054970616], [0.12868002682343366, -0.12218632169254626, 0.009753778397309815, 0.4557362162951772, 0.01960502158187165, -1.1678954618206308], [-0.013393175899605037, -0.5823797333875289, -0.3948073813689375, -0.16585021219740997, -0.08168484488808408, 0.5586144436042038], [0.17252217420927163, -0.18928638506230283, 0.21709004329603948, -0.6340885145057207, 0.682993694721945, 0.5329479272014271]], "biases": [[-0.012537696716872116, -0.0469968490366631, 0.11255327611688733, -0.0872929847262453, 0.0034387108045364247, 0.12546919021243777]]}, "layer2": {"weights": [[-1.0313681543776243, 0.07040698975245951, -0.4703206033766534, 0.39046383115375066, -0.3378329585595633, -0.46669665825688494], [-0.315224604052911, -0.4718970198425935, -1.158942508487277, 0.7926801180577244, -0.25049160112203905, 0.9482910168557465], [-0.6773777040752849, 0.04615399277387458, 0.4596811197880849, 0.5885950230693032, -0.27143768543770236, -0.7665762513860833], [-0.20883532546864048, -0.41489637150358816, 0.21092674155994035, 0.7847153082302194, -0.48797209491919674, 1.017260768390763], [-0.4786780093440687, 0.05716675483745062, 0.01295807500230442, 0.4457551543201322, 0.16827983900533772, 0.2726346791833834], [1.1806197217198662, -0.7449277298714281, -0.1873135711779529, -0.6421935843496123, 0.27555106841728805, -0.5851630194496759]], "biases": [[-0.023120719284140834, -0.022309057713784837, -0.10727017068763614, 0.08109420973044437, -0.01982357164513198, -0.05243379868111262]]}, "layer3": {"weights": [[-0.5848400960567859, 0.22218289987743672, -0.4238255359109169], [0.14846109818213682, 0.5469869372306521, 0.17708903425070363], [0.6558847858667991, -0.33652045973973305, -0.4433495092488472], [-0.35714720042610204, -0.4397628392557096, -1.2135702869334954], [-0.5689005911029092, 0.6941201591819641, -0.36087776859666243], [-0.7147983263221637, 0.2717145062867051, 0.6669940856359682]], "biases": [[0.0677898071480684, -0.0012861813079100368, -0.08656856662208764]]}}]