[{"layer1": {"weights": [[-0.13769090444449494, 0.558394398581366, 0.9783432694279008, 1.1974326021556256, -0.845241269384562, -0.2324379059431761], [-0.09187904015258824, 1.3976584171071953, -1.08971512150022, 1.4435717115077478, -2.2321616328197202, 1.3487928276419778], [-1.4854511712316671, -0.8604344432608807, -0.11822081416233468, 1.0346434225621701, 0.8096196316202509, 0.6220950539085175], [-1.741191903426722, -1.177170465204791, 1.1444218346110255, 1.6022908154863704, -1.453307268637153, -0.20889088257717875], [-0.1343047270832794, 1.2087352830469993, 0.92315880151565, -0.6780845311529877, -1.4247311993685634, 1.6988036947954472]], "biases": [[0.2888713780895571, 0.09078419818262995, -0.2210613075196039, -0.102757211131186, -0.33472500874105504, 0.09601271525064203]]}, "layer2": {"weights": [[-0.8015982950408584, -0.06091056909679628, 0.3686733738020972, 0.6448335908816585, 0.44584680666344606, -0.3972065724311794], [-1.8873053042411216, 0.40992015679222893, 0.6196281342903011, 0.20574742695435594, -2.451671584410923, -0.8305883326956562], [1.4600417672740642, 1.3393255918888518, -0.19842707507518195, -0.6753354256434632, 0.016419291140127718, -1.086193723568397], [0.4460784562648932, -2.741488851194167, -0.03443902773908541, -0.657753832371182, 2.2590603807695575, -0.17202362506126007], [-0.6520251385815973, -1.5060914209219116, -0.64421092125975, -0.28527020624875615, 0.35767657652690443, 1.8927264676129234], [0.07039156551222125, -1.4408630078901283, 2.6198873294574065, 0.41884258623500764, -0.7160898476034647, -0.28402772095002105]], "biases": [[0.0340102104698073, -0.0019197901764832978, 0.377372856268293, 0.033880233336199626, 0.034456237230750454, 0.17462385929252006]]}, "layer3": {"weights": [[0.9170584907452831, 0.7996135069129524, -1.033634838169584], [1.0928607600799498, -0.6993779936210738, 1.8623737426421716], [1.5531241429863534, 0.6742210188571098, -0.3003052889698955], [-0.2669242049708257, -3.2064746059362443, 1.022713819084174], [-1.1493049633739965, 0.3608625737003222, 2.028089991742039], [-1.566660457257245, -1.4840716613680445, -1.2665805469285378]], "biases": [[-0.19556813136395002, -0.2716700512035273, -0.0317320612979894]]}}, {"layer1": {"weights": [[-0.13760741245965247, 0.5583920445121662, 0.978389379481078, 1.1974326989075994, -0.8499383060635914, -0.3127423641976475], [-0.09933810486527875, 1.369898458670837, -1.089725133993077, 1.4435715815451118, -2.2679261759402576, 1.349049171351985], [-1.4864907099182147, -0.861521446309457, -0.1163415119732395, 1.0285981036670144, 0.8172110534429889, 0.622097116229415], [-1.7906640961766958, -1.1765150594485947, 1.1548017964079094, 1.6691027080754337, -1.4410158371150492, -0.20889088277372703], [-0.12373637997585132, 1.1992545797928666, 0.9155393508903221, -0.9210640717781038, -1.4221986241617088, 1.6988040830512956]], "biases": [[0.28399362904843584, 0.09078325688726432, -0.21855029552561284, -0.10275720995283533, -0.36879433433835795, 0.0960127172115534]]}, "layer2": {"weights": [[-0.868848605302262, -0.07165566472315404, 0.3839511577574719, 0.6447500734936951, 0.4150650716238063, -0.3967916979993592], [-1.8907947079754233, 0.4202128386950544, 0.6163335787822958, 0.200354105544887, -2.472645999350748, -0.8305535876368852], [1.455636823702351, 1.3409868480940093, -0.2320498775525651, -0.6939705721378592, 0.01695185156709393, -0.9779894826870489], [0.44796983884568975, -2.7224862213662897, -0.033179092740506774, -0.6775954653631311, 2.259065756973593, -0.11775192084072891], [-0.653026373389152, -1.506083698988104, -0.6441041925578401, -0.31229632134931856, 0.35666101200422656, 1.8714500398242828], [0.07045272631975634, -1.443003578053855, 2.6171210219131327, 0.4334019188198942, -0.7169567424584793, -0.17861660929471884]], "biases": [[0.11684167671592563, -0.02540571710073947, 0.3839189152861288, 0.033689020854796956, 0.034456456830585, 0.1787015549010161]]}, "layer3": {"weights": [[0.9318931264818169, 0.799626731931034, -1.0336407136525865], [1.05999776782582, -0.6928962295600825, 1.854790686902779], [1.5484353975175937, 0.6742522437829589, -0.3006504311844118], [-0.2369886975835468, -3.2103038380093047, 1.0227278098701995], [-1.2509412657715027, 0.3602381547027882, 2.0280854228595855], [-1.5672509102344443, -1.4934931784399872, -1.1682967040059]], "biases": [[-0.19556896481455716, -0.2726687475649088, -0.031167217227485826]]}}, {"layer1": {"weights": [[-0.13732353971118794, 0.5585282115177974, 0.9784548716801662, 1.1974330278643104, -0.8499419973831313, -0.3127444719991815], [-0.10182022515546468, 1.3693415795997983, -1.0890217857276663, 1.4972656290816821, -2.2759718895274688, 1.3487619674271834], [-1.487141150003318, -0.8618482103355813, -0.11355230636221395, 1.0346501929239593, 0.8411851170173071, 0.6221041281204662], [-1.7655341781356508, -1.1771704577405313, 1.1609814694728082, 1.668560630838372, -1.435233207533456, -0.20786210083115958], [-0.12049465051190902, 1.1999370570562324, 0.9077053771661812, -0.929955793048939, -1.418155035513767, 1.713967966767925]], "biases": [[0.276123010049729, 0.0907800564830212, -0.21854995482577477, -0.10275720594644303, -0.3745739917381174, 0.006769531058802167]]}, "layer2": {"weights": [[-0.8776823336615136, -0.09639126480452959, 0.41646994409351645, 0.636170435659866, 0.4947831253377639, -0.3950490120680321], [-1.8792258521511367, 0.4224987464357379, 0.5919290809571434, 0.195469434421873, -2.473711248656791, -0.887602003346833], [1.4556291802511225, 1.341570775855723, -0.23009523745982652, -0.6964220147654987, 0.018579455478993374, -1.082130913559928], [0.45132920662194553, -2.7181226181708094, -0.03405773103808993, -0.6978648150992968, 2.2590840360673132, -0.058884778015502716], [-0.6551913399005609, -1.5060574444131571, -0.6830817210474903, -0.30252160182544485, 0.35598761371164034, 1.8631278339762218], [0.1420477711372219, -1.4434326364084016, 2.6084353414331574, 0.4164267945958282, -0.7172457063115352, -0.17833586810426694]], "biases": [[0.11684491156286393, -0.03270186647987952, 0.43918323493483524, 0.0336614501823631, 0.03445720347002247, 0.1901255679667635]]}, "layer3": {"weights": [[1.0718340873731727, 0.7996716969925113, -1.0336606902947953], [1.0294923166726067, -0.8464105645237939, 1.8500662649636024], [1.545391177919224, 0.6743584085308458, -0.3006463800636535], [-0.21303892258441176, -3.211546599231234, 1.0180669483790994], [-1.1844373231442364, 0.35992365011173666, 2.0280698886592434], [-1.5717676369850069, -1.5029030827023657, -1.1776097243930495]], "biases": [[-0.1955717985466214, -0.27293386337988634, -0.03753342097223218]]}}, {"layer1": {"weights": [[-0.3016065977598849, 0.5584601280149818, 0.9891062961085012, 1.197432863385955, -0.7147017311933269, -0.3127434180984145], [-0.13273411507923394, 1.5354681870265738, -1.1008301221627974, 1.4260775249085247, -2.214637191559122, 1.3489055693895842], [-1.4868159299607664, -0.8616848283225191, -0.11494690916772671, 1.0346475771023589, 0.829198085230148, 0.6221006221749406], [-1.7575111899705014, -1.1768427585945629, 1.1578916329403586, 1.66961961054444, -1.4381245223242527, -0.20837649180244328], [-0.08129731610964175, 1.1995958184245497, 1.076981810586274, -0.9130033556167467, -1.420176829837738, 1.6988047430862379]], "biases": [[0.2800583195490824, 0.09078165668514276, -0.22560072494362654, -0.10275720794963918, -0.33436173215560583, 0.09601272054510272]]}, "layer2": {"weights": [[-0.8370779386785276, -0.1518525475064114, 0.39981354562521915, 0.6704013288099113, 0.4641408355712675, -0.3959203550336956], [-1.9937878399716416, 0.4213557925653961, 0.6041313298697195, 0.16778935145611837, -2.4540175184062756, -0.8304945210369747], [1.3666060685723267, 1.3397892992290361, -0.2310725575061958, -0.6783650190625767, 0.017765653523043653, -1.0895264683105625], [0.44964952273381764, -2.7203044197685493, -0.03361841188929835, -0.6877301402312139, 2.259074896520453, -0.08459986911233902], [-0.6541088566448565, -1.5060705717006304, -0.6530754846160758, -0.30740896158738173, 0.3563243128579334, 1.8819136284164644], [0.07042204962103951, -1.4432181072311283, 2.5625512382471416, 0.44393035441231254, -0.7171012243850072, -0.2850162929472262]], "biases": [[0.11684329413939477, -0.029053791790309494, 0.3900325157197031, 0.03367523551858003, 0.034456830150303736, 0.18441356143388982]]}, "layer3": {"weights": [[0.936886823012346, 0.8440263972384041, -1.033650701973691], [1.0538657931360835, -0.6902231827065219, 1.8524284759331908], [1.5469132877184089, 0.6743053261569024, -0.3006484056240326], [-0.2993469388065516, -3.2109252186202695, 1.0203973791246495], [-1.2507979451377165, 0.3600809024072624, 2.0280776557594145], [-1.5709691877124774, -1.4981981305711765, -1.1975041514861462]], "biases": [[-0.19557038168058927, -0.27280130547239756, -0.03435031909985901]]}}, {"layer1": {"weights": [[-0.1373819841005777, 0.5584577739457821, 0.9784682356337993, 1.1974329601379288, -0.8546371884023907, -0.31274403804004214], [-0.10803822972306222, 1.3966409960683084, -1.0893834723532283, 1.443571230645994, -2.218360131142299, 1.3491619130995913], [-1.487855468647314, -0.8627718313710955, -0.11306760697863151, 1.0346491158209474, 0.8367895070528861, 0.622102684495838], [-1.7658074883491313, -1.1761873528383666, 1.1682715947372424, 1.6674983842377435, -1.4258330908021488, -0.20837649199899155], [-0.11154716813645209, 1.190115115170417, 0.9035994198188927, -0.9344385079189975, -1.4176442546308836, 1.698805131342086]], "biases": [[0.2751805705079611, 0.09078071538977714, -0.21603911318170277, -0.1027572067712885, -0.33110862687027687, 0.09601272250601409]]}, "layer2": {"weights": [[-0.8776880183178533, -0.0947685603901996, 0.4146943242803188, 0.6403767371888172, 0.4682848367297727, -0.39550548060187546], [-1.8693326747119388, 0.43164847446822163, 0.5795933456564565, 0.19251844857391104, -2.4558308277486067, -0.8304597759782039], [1.4512280584050234, 1.3399610426883637, -0.22946485741882033, -0.6801688911678706, 0.018298213950009867, -1.0884730539216363], [0.4515409053146142, -2.719115121185218, -0.03235847689071972, -0.707571773223163, 2.2590802727244883, -0.02660968457603105], [-0.6551100914524112, -1.5060628497668225, -0.6438160250626839, -0.33443507668794414, 0.35530874833525555, 1.870681739924593], [0.07048321042857458, -1.4453586773948552, 2.6100118741288707, 0.4154856700585463, -0.7179681192400218, -0.2861452355396572]], "biases": [[0.11684424556496487, -0.031030657833814555, 0.396578574737539, 0.03348402303717736, 0.03445704975013829, 0.18849125704238587]]}, "layer3": {"weights": [[0.9517214587488798, 0.7996624394798542, -1.0336565774566935], [1.0301235517688239, -0.6837414186455306, 1.8448454201937983], [1.5422245422496492, 0.6743365510827515, -0.3009935478385489], [-0.19734773229542363, -3.21475445069333, 1.020411369910675], [-1.2516579850149205, 0.35945648340972836, 2.0280730868769608], [-1.5730195547924288, -1.5076196476431194, -1.1825304543480528]], "biases": [[-0.1955712151311964, -0.27380000183377906, -0.03765389175772825]]}}, {"layer1": {"weights": [[-0.13714820654301868, 0.5587395242338432, 1.0211514619307835, 1.1974332310434554, -0.835856424325353, -0.3127457738765995], [-0.08316621145267203, 1.3970052009329663, -1.0879367258509802, 1.4435708667506129, -2.2195597999840135, 1.347562130409959], [-1.4849981940713297, -0.8590773472290388, -0.11500640451296121, 1.0346534242329948, 0.8543719469105702, 0.6221084589943509], [-1.7647142474952098, -1.1801197724470252, 1.1391110936795052, 1.6717473706402572, -1.4634335577273776, -0.2063189273276636], [0.015935698898673883, 1.2294028827136794, 0.9200232492080469, -0.8664813412516648, -1.419687378162417, 1.6988062184584614]], "biases": [[0.2789503286750328, 0.0907780797627534, -0.2542848788297217, -0.1027572034719066, -0.3556803628111115, 0.09601272799656592]]}, "layer2": {"weights": [[-0.8166855050463047, -0.10125937804751958, 0.42020878233200926, 0.7433158280055358, 0.5083089430930168, -0.393679606466502], [-1.8705713662974448, 0.3950495623382868, 0.6289362868592037, 0.20432239196575888, -2.450708088991367, -0.8303624898136454], [1.4688325457894198, 1.340441924374481, -0.23198637758284504, -0.6778562880019743, 0.019423180065943894, -1.0631044924748025], [0.4506941105439395, -2.715145109127584, -0.039155493480200546, -0.6687439407276982, 2.259095326095787, -0.14083613707081055], [-0.6554350852450102, -1.5060412283521605, -0.6801281081032651, -0.20678117723794712, 0.35802420984079475, 1.8989648821959568], [0.07011586040356693, -1.4376545134490404, 2.603705743346018, 0.419250168207674, -0.7150784675260753, -0.28106798278902934]], "biases": [[0.11684690955656113, -0.037715492418074426, 0.3948487404004928, 0.034193731617920324, 0.03445766462967503, 0.19502850073989636]]}, "layer3": {"weights": [[0.9123577019248614, 0.7996994695304825, -1.0336730288091007], [1.0640816149314363, -0.6989762874752545, 1.865728799273015], [1.554891084927948, 0.674423980875129, -0.2996048767389672], [-0.26465135264882256, -3.201923044844947, 1.0110336837843725], [-1.2476445429709582, 0.36132515021776146, 2.0280602940060906], [-1.5738515399737487, -1.4887533878801045, -1.2610512836747256]], "biases": [[-0.19557354879289637, -0.27033544801820814, -0.03717200861574399]]}}, {"layer1": {"weights": [[-0.2193774021514518, 0.5585998261244125, 1.0051288790196424, 1.1974330472147052, -0.7143355490751664, -0.31274459598750703], [-0.10795016326595298, 1.46623669397977, -1.0943834240068888, 1.4348241958295689, -2.217098495771568, 1.3482338498997715], [-1.485907062016048, -0.9189046563319275, -0.11497665684034396, 1.0346505006676767, 0.829589868426346, 0.6221045405846457], [-1.7611127187328557, -1.178481265520794, 1.148501363309932, 1.6706834905923487, -1.4507790400258151, -0.20734770956505344], [-0.03268080860548393, 1.2144993505691146, 0.9985025298971605, -0.8897423484342057, -1.4199321040000776, 1.5272997008848794]], "biases": [[0.2795043241120576, 0.09077986822394808, -0.23994280188667413, -0.10275720571077289, -0.34502104748335866, 0.09601272427083432]]}, "layer2": {"weights": [[-0.8719124237086214, -0.12655596277696549, 0.4100111639786142, 0.7068585784077235, 0.48622488933214214, -0.3947999807500988], [-1.9321796031345433, 0.40820267745184147, 0.6165338083644616, 0.18605587171093863, -2.452362803698821, -0.83042850542531], [1.4177193071808731, 1.3401156118017585, -0.23152946754452042, -0.6781106535322755, 0.018594416794493772, -1.0763154803926827], [0.45017181663887856, -2.7177247644480667, -0.03638695268474945, -0.678237040479456, 2.25908511130812, -0.11271800309157479], [-0.6547719709449333, -1.5060559000263956, -0.6666017963596704, -0.2570950694126644, 0.3571742613493641, 1.8904392553062106], [0.07026895501230322, -1.4404363103400843, 2.5831284907965797, 0.4315902613099933, -0.8607133439147658, -0.5454717432265894]], "biases": [[0.11684510184797794, -0.03338464210419196, 0.39244062806009794, 0.03393448356825018, 0.034457247389989384, 0.1897210310868931]]}, "layer3": {"weights": [[0.9246222624686038, 0.7749670656468913, -1.0336618653913958], [1.05897370403376, -0.7351147208756414, 1.859078637603103], [1.5509021863231784, 0.6743646535160157, -0.3001266411814999], [-0.16735428405285038, -3.206424131732608, 1.015715531454511], [-1.2492212440543373, 0.36070302631251194, 2.0280689748827525], [-1.572410363843113, -1.4934757592256405, -1.229277717580436]], "biases": [[-0.1955719652367428, -0.2715683767453029, -0.035761163857801495]]}}, {"layer1": {"weights": [[-0.13720665093240844, 0.5075659011274997, 0.9997964848286583, 1.1974331633170738, -0.8405516153446124, -0.3088654700130996], [-0.08938421602026958, 1.3695236820321273, -1.0882984124765422, 1.4435709577244582, -2.276571723948326, 1.347962076082367], [-1.4857125127153257, -0.8600009682645531, -0.11452170512937879, 1.0346523471299829, 0.8499763369461492, 0.6221070153697227], [-1.7649875577086902, -1.1791366675448605, 1.1464012189439394, 1.670685124039629, -1.4540334409960702, -0.253619967034606], [-0.14259785878763553, 1.2195809408278637, 0.8718387755050656, -0.8959772097152727, -1.4191765972795336, 1.6988059466793675]], "biases": [[0.27800788913326485, 0.09077873866950933, -0.23767283764978425, -0.10275720429675209, -0.3868598597085347, 0.09601272662392796]]}, "layer2": {"weights": [[-0.8471810770257393, -0.09963667363318959, 0.4192271731193617, 0.6876399810682252, 0.5147951785193859, -0.39413607500034537], [-1.8798451979438897, 0.4041992903707705, 0.6166005515585169, 0.20137140611779691, -2.4711498792781708, -0.830386811354785], [1.4644314239433207, 1.3418112166987815, -0.2313559975418389, -0.6952657131825506, 0.019141938536960387, -1.0694466328365109], [0.4822447080071439, -2.7161376121419925, -0.037456239332830335, -0.6784508988515643, 2.259091562752962, -0.11599800426289247], [-0.6553538367968604, -1.506046633705826, -0.6618973564916376, -0.23869465210044638, 0.35734534446440996, 1.792282447039676], [0.07020769790981884, -1.439580554435494, 2.6052822760417307, 0.4183090436703921, -0.7158008804545619, -0.175797241728953]], "biases": [[0.11684624355866206, -0.03604428377200946, 0.39528119898475433, 0.034016304472734585, 0.03445751090979085, 0.19339418981551873]]}, "layer3": {"weights": [[0.922198641130866, 0.7996902120178255, -1.0336689159709989], [1.0464713482539127, -0.7116014426531194, 1.8605079545032108], [1.5517244492583733, 0.6744021234270345, -0.2999520445138626], [-0.2466907327611112, -3.205130896307043, 1.013378105315948], [-1.2486479034819489, 0.36085798351575316, 2.028063492223808], [-1.5721836295756666, -1.6174147159926882, -1.216870139056386]], "biases": [[-0.19557296537747137, -0.2712015864721009, -0.03729247940124006]]}}]