[{"layer1": {"weights": [[0.07589506406840746, 0.4991887745452709, 1.0130823772552886, 1.1769418117302022, -0.9105431544643141, -0.41889456136884023], [-0.2609714275720008, 1.0480635505138318, -1.0908298905053901, 1.4904602485565754, -2.194924418852613, 1.508211056592227], [-1.051155016777486, -0.5181059543187709, -0.1153958775256686, 1.2846649151561922, 0.5335245254244635, 0.7894226819646346], [-1.2074494778749654, -1.1861073296102265, 0.9557254735492877, 1.549185415758535, -1.263206817456307, -0.3445414518327614], [0.6737769092181438, 1.2784493640358194, 0.8656050530976986, -0.8634782052459797, -1.7151492916145992, 1.8112377538236368]], "biases": [[0.2077134087179539, 0.09137824062315647, -0.27216740197266165, -0.24488385184703115, -0.0685864185058187, -0.09704545033973748]]}, "layer2": {"weights": [[-0.7941022757040098, -0.2754523698253518, 0.7362037934688478, 0.9029400711180935, 0.25855822175429605, -0.312568583294648], [-2.007702894471872, 0.4099278582517327, 0.41562938899753704, 0.6991720558292076, -2.16789264624037, -0.6840697813162866], [1.3433749779155182, 0.26727273074229335, -0.21087445497939789, -0.705254580954142, 0.21306758617157165, -0.923355807057866], [0.708557149272848, -2.131785048610844, -0.19459059364354864, -0.4902018520217147, 2.2468640633705155, -0.9792437235083944], [-1.1218156128446954, -1.3026966181094688, -0.3993301961223103, 0.40547075982344327, 0.10437579893036203, 1.585471321174896], [-0.01710581647311911, -1.6263319897006252, 2.2734590848488425, 0.45369661221605007, -0.4276122325312386, -0.9697681001757003]], "biases": [[0.1269951870991422, -0.02560816456983149, 0.2523322598800208, -0.07313558027830921, -0.10371247594997313, 0.0651418823829947]]}, "layer3": {"weights": [[0.5516925213987647, 0.8281902827777287, -1.1002212724208786], [1.2089702065563888, -0.4617182913054534, 1.7582963640338116], [1.3497241014607235, 0.9960681537516112, -0.38333018123743035], [0.047245060633473925, -2.9645217384496636, 0.8924796694071842], [-1.5877411238968309, 0.4155373808449634, 2.113409063653414], [-1.1694662310767316, -1.4906179032423665, -1.2500052547059983]], "biases": [[-0.08404931048288868, -0.18504648813131003, -0.2337531727428656]]}}, {"layer1": {"weights": [[0.04442189038118954, 0.4915650662004263, 1.018627829161115, 1.17414687606958, -0.9110106163677566, -0.38613781986018053], [-0.24141833800957976, 1.0474955831439428, -1.0858977392978733, 1.4898286136579533, -2.157265558508337, 1.5082112751480636], [-1.0514383195993182, -0.515148011502726, -0.11720556489501749, 1.3200872550734584, 0.5283292568291165, 0.789422817284722], [-1.4938490305362926, -1.1859333964867602, 0.9550957189807836, 1.5492898312699661, -1.2448276573112893, -0.3436455256394608], [0.670154054863875, 1.2756113326912228, 0.9327355176657937, -0.9076878637305256, -1.7142032936434481, 1.8199024145396172]], "biases": [[0.2284733199318412, 0.08921415324489235, -0.272167624059281, -0.24427276554546173, -0.06796064353195112, -0.09703366204656097]]}, "layer2": {"weights": [[-0.7463678822088123, -0.3449673417252578, 0.7461248666706126, 0.9067649637466484, 0.2554517547902124, -0.33110941750350936], [-2.0401027109945495, 0.40984836028464033, 0.43389703697490056, 0.7007172098888585, -2.167788100940917, -0.6845815141607381], [1.3543873477031392, 0.270866998871684, -0.24565567806301133, -0.610769620821898, 0.2057367268186402, -0.7892630004284578], [0.711927378691813, -2.132255830076014, -0.19460190780145667, -0.4891390230293975, 2.246845006282867, -0.8345641141643676], [-1.0965228094608257, -1.3048323143760507, -0.3991989475493035, 0.4071352628298258, 0.10422112747985682, 1.5899247479689267], [-0.0171056481892503, -1.622589773879811, 2.27349806261318, 0.42798996382587656, -0.4215968886821684, -0.9698082188166885]], "biases": [[0.1280758851803072, -0.026225590029124276, 0.2534013696953914, -0.06086153925188027, -0.10307913497667645, 0.06874981479177494]]}, "layer3": {"weights": [[0.5606796317009762, 0.8272935391694625, -1.1002814274433506], [1.2058677688880923, -0.47773895436443325, 1.6640370712844872], [1.3498526875323915, 0.9927988591257757, -0.3784963168182299], [0.08432565703222139, -2.9641378989205585, 0.8923226573628189], [-1.5855669974172844, 0.4173520129119573, 2.1123935794250244], [-1.127628719087733, -1.506574838922134, -1.4182759156259366]], "biases": [[-0.08653674354345792, -0.18504586791227834, -0.23402286153250113]]}}, {"layer1": {"weights": [[0.08120079630694192, 0.5068124828901155, 1.0075369253494624, 1.1797367473908245, -0.9100756925608717, -0.4113225258582427], [-0.308125714023761, 1.0486315178837207, -1.095762041712907, 1.4910918834551978, -2.1561459395265494, 1.5082108380363903], [-1.0508717139556536, -0.5210638971348157, -0.1135861901563197, 1.3200368906272775, 0.5387197940198105, 0.7894225466445473], [-1.4808447846702972, -1.1862812627336927, 0.9563552281177917, 1.5490810002471038, -1.2815859776013248, -0.345437378026062], [0.6773997635724125, 1.2812873953804158, 0.9249431700839115, -0.8550987669474133, -1.7160952895857502, 1.8025730931076565]], "biases": [[0.1869534975040666, 0.09354232800142061, -0.27216717988604233, -0.24549493814860057, -0.0692121934796863, -0.09705723863291399]]}, "layer2": {"weights": [[-0.8092897355132717, -0.3483142601089458, 0.726282720267083, 0.8991151784895386, 0.26166468871837967, -0.32948311717967754], [-1.975303077949194, 0.41000735621882506, 0.4049735006332913, 0.6976269017695567, -2.167997191539823, -0.6835580484718351], [1.3323626081278974, 0.26367846261290273, -0.17609323189578446, -0.6015031932468893, 0.2203984455245031, -0.7846938656343884], [0.7051869198538828, -2.131314267145674, -0.19457927948564058, -0.49126468101403187, 2.2468831204581634, -0.9793113204024483], [-1.1471084162285652, -1.3005609218428869, -0.4007356983912671, 0.40380625681706067, 0.10453047038086724, 1.5810178943808655], [-0.01710598475698792, -1.6300742055214394, 2.2734201070845055, 0.4794032606062236, -0.4336275763803088, -0.969727981534712]], "biases": [[0.12591448901797722, -0.0249907391105387, 0.25126315006465016, -0.08540962130473814, -0.1043458169232698, 0.06153394997421445]]}, "layer3": {"weights": [[0.5427054110965532, 0.8290870263859949, -1.100161117398407], [1.212072644224685, -0.4456976282464736, 1.6614114149195691], [1.3495955153890553, 0.9993374483774466, -0.38816404565663076], [0.06355579195667406, -2.9649055779787687, 0.8926366814515495], [-1.5899152503763772, 0.41372274877796944, 2.114424547881803], [-1.2113037430657303, -1.5047645121197313, -1.2465618951059128]], "biases": [[-0.08156187742231943, -0.1850471083503417, -0.23348348395323013]]}}, {"layer1": {"weights": [[0.04634641434367076, 0.47699347292350425, 1.0327146864760148, 1.1712612490312067, -0.95997477535643, -0.3752172760520051], [-0.22111175085361987, 1.0474490778004264, -1.0838441285845861, 1.4851867100664133, -2.1591067552190704, 1.5082116248374025], [-1.0567702841262858, -0.48522407774201026, -0.11754924356199747, 1.3200683216608071, 0.5143915917257991, 0.7404619895943646], [-1.4947607865436687, -1.190500972457531, 0.9674281072877752, 1.5494981772878338, -1.2792261529872961, -0.3422120437301799], [0.6741798622353382, 1.271042961857655, 0.9729318862343743, -0.8740296579611556, -1.714542865594412, 1.794114923811686]], "biases": [[0.18753702969354924, 0.08487679217540983, -0.27216797939787196, -0.24103567466698136, -0.0665336910271537, -0.09701480077747857]]}, "layer2": {"weights": [[-0.7430966037081277, -0.3416334164860041, 0.7334034987753093, 0.9218655128861613, 0.2693788891221095, -0.31798829228883124], [-2.056117157676635, 0.40962501092335113, 0.4225851511812635, 0.6673162529890153, -2.1675810569630936, -0.802986196576274], [1.3810944550808963, 0.2726097148478649, -0.27502518759279365, -0.6020974075226899, 0.19904783696272677, -0.7922944375244905], [0.7175496675509635, -2.13310015543888, -0.1431970877775241, -0.5000151970419346, 2.2468145149426295, -0.9790722928277782], [-0.9986686923416945, -1.311101895929234, -0.39815455882737494, 0.4106061512315514, 0.10392383970289698, 1.6138981048722372], [0.02426802278699215, -1.6623495646336073, 2.2735604270361196, 0.41196328304595076, -0.3975762770447745, -0.9698269267788235]], "biases": [[0.129588363013081, -0.02709800988375093, 0.2555394700699152, -0.04910074844010198, -0.10184961803060105, 0.07551531007838677]]}, "layer3": {"weights": [[0.5571230608144242, 0.8230661581575911, -1.1072462947856385], [1.1912034172005965, -0.472488966844, 1.6663812698819562], [1.3313801051065455, 0.986221325942132, -0.33825549955169154], [0.06445641718901542, -2.9640531024572603, 0.8920714380918343], [-1.5811483487934441, 0.41734872546384916, 2.11039518557378], [-1.2307685121468275, -1.5101589649457736, -1.2345573435901342]], "biases": [[-0.09432803712397853, -0.18311325034932197, -0.23445436359591795]]}}, {"layer1": {"weights": [[0.06377360532530635, 0.49190297790680987, 1.0201258059127385, 1.1754989982110156, -0.9399837426828836, -0.39326990095512393], [-0.26461873243869044, 1.0480402978420735, -1.0898030851487466, 1.4881392967608056, -2.15762634737281, 1.5082112314368965], [-1.0538209990409697, -0.5031439874384129, -0.11556771685915859, 1.3200526061440423, 0.5265556928728048, 0.764942268119456], [-1.4878027856069829, -1.1780637371740066, 0.9618916677027834, 1.549289588767469, -1.2804060652943106, -0.34382471087812094], [0.6757898129038753, 1.2761651786190353, 0.9489375281591429, -0.8645642124542845, -1.715319077590081, 1.7983440084596714]], "biases": [[0.18724526359880792, 0.08920956008841521, -0.27216757964195715, -0.24326530640779098, -0.06787294225342, -0.09703601970519628]]}, "layer2": {"weights": [[-0.7761931696106996, -0.3668562170765422, 0.7298431095211961, 0.9104903456878499, 0.2655217889202446, -0.3237357047342544], [-2.0157101178129144, 0.40981618357108807, 0.4137793259072774, 0.682471577379286, -2.167789124251458, -0.7432721225240546], [1.3567285316043969, 0.2681440887303838, -0.22555920974428906, -0.6018003003847896, 0.20972314124361494, -0.7884941515794395], [0.681604617771399, -2.0424752261398273, -0.16888818363158234, -0.49563993902798326, 2.2468488177003962, -0.9791918066151133], [-1.0728885542851299, -1.336766814779253, -0.399445128609321, 0.4072062040243061, 0.10422715504188211, 1.5974579996265512], [0.04395161661741529, -1.6462118850775234, 2.2734902670603123, 0.4456832718260872, -0.41560192671254165, -0.9697774541567677]], "biases": [[0.1277514260155291, 0.045906334630091535, 0.25340131006728267, -0.06725518487242006, -0.10309771747693543, 0.0685246300263006]]}, "layer3": {"weights": [[0.5499142359554887, 0.826076592271793, -1.1037037060920227], [1.2016380307126409, -0.45909329754523676, 1.6638963424007627], [1.3711297640277809, 0.9927793871597893, -0.36320977260416115], [0.06400610457284474, -2.9644793402180145, 0.8923540597716919], [-1.518197587598704, 0.4155357371209093, 2.1124098667277913], [-1.2210361276062789, -1.5074617385327524, -1.2405596193480235]], "biases": [[-0.08794495727314898, -0.18408017934983184, -0.23396892377457404]]}}]