[{"layer1": {"weights": [[-0.346432060206761, 0.39172899277187406, 0.972269103489918, 1.1058778902063566, -0.8727885118242793, -0.31307567741823805], [-0.28994234580183764, 1.4148292099973088, -1.0069491787462543, 1.2707211333288082, -2.133581704530294, 1.445895507231485], [-1.4284839702604524, -0.8078557609662107, -0.005778708001899856, 1.2450050828272041, 0.5835536814443231, 0.7519666467137598], [-1.6018115365870753, -1.0568510016115997, 1.0266651689003385, 1.6818064121116012, -0.8141395609727908, -0.2165012136525126], [0.053902805861946027, 0.887904739957223, 0.8894857941760901, -1.0770788145873922, -1.7708415508207356, 1.5258440638681825]], "biases": [[0.2606633521243703, 0.10155912791094769, -0.23910513232105202, -0.18255831725925104, -0.09778569316881142, -0.03249062118699808]]}, "layer2": {"weights": [[-1.1389749004366947, -0.39697475325770704, 0.8331341121596401, 0.8903188116907437, 0.37236300911784825, -0.40625012963516505], [-2.036059370656621, 0.10126335833137434, 0.5416710734622068, 0.2268733091204012, -2.084291378713634, -0.8601874518480797], [1.2498814384674293, 0.31166393192644704, -0.0688816376475926, -0.697855784582601, 0.2454050031138395, -0.8302190853334193], [0.5049256439114921, -2.5808169867419464, -0.11232561784265202, -0.6546207196324425, 2.2097509955697183, -0.8791707159838724], [-1.3763914120001612, -1.1169108775320344, -0.432335349810808, 0.26604530680309524, 0.23024759504284598, 1.4931863162034957], [-0.07879794543652005, -1.5453462409983372, 2.361505015149479, 0.6067019354860539, -0.6928656186854386, -0.8476571344197404]], "biases": [[0.1462658678956797, 0.05972830749907121, 0.3714332107582948, -0.05362955769726423, -0.0788674819428268, 0.08542193063824176]]}, "layer3": {"weights": [[0.7270706299166809, 0.7829378464393222, -1.135406839198811], [0.9894442307287894, -0.4902151540072821, 1.7986962736966805], [1.4271751975083302, 0.824095975016009, -0.32502376005688305], [0.03497124134217955, -2.6668190502380265, 1.1505097016751806], [-1.1777808340395908, 0.3800613770649517, 2.0718531801488], [-1.358949357138815, -1.573854882069118, -1.1321738531093741]], "biases": [[-0.15714427273675471, -0.1572067012543436, -0.07311877993623153]]}}, {"layer1": {"weights": [[-0.33657212607057907, 0.38816508653762, 0.8845658040996494, 1.1320889461145587, -0.809886731038622, -0.315150989563653], [-0.08332447364236018, 1.41458282036048, -0.998993354958297, 1.2680104916248072, -2.1530294737202818, 1.4364997617937931], [-1.5044603590899999, -0.8061767629958618, -0.005778919649421167, 1.2450011206594165, 0.5722615285835131, 0.7519649910725137], [-1.6593655026306686, -1.12654807259069, 1.0193485071803814, 1.6783566578675622, -0.8205553000423147, -0.2180523522832034], [0.05254554777939639, 0.8838443250563099, 0.8862243619573245, -1.0751510794986743, -1.7707490116222773, 1.5263342647422042]], "biases": [[0.2607202087993382, 0.10146555803685395, -0.24081858917846805, -0.1901401841021717, -0.025644133549805326, -0.03163301460142168]]}, "layer2": {"weights": [[-1.134484842962741, -0.397955231376265, 0.8213708924570914, 0.9105546446450813, 0.37239403386902714, -0.3787998361185821], [-2.0363283861665664, 0.10185491154321066, 0.6062777049951276, 0.22378541108333255, -2.2277274959313256, -0.8436880705560122], [1.2581855886885154, 0.3215236505613708, -0.06873481469964256, -0.6923659689522214, 0.23852528988822344, -0.7891731448847684], [0.504941127258146, -2.5707923555150876, -0.11231531393360289, -0.6956263376870099, 2.220183604076089, -0.8550250586376582], [-1.0927378110859713, -1.1334425465039453, -0.43610335799842476, 0.25091646038077753, 0.23423172008132756, 1.4999121573657812], [-0.0811638118402718, -1.5765514032743593, 2.359067598536507, 0.5811559192416925, -0.6928699804697707, -0.8624140252583534]], "biases": [[0.14675666411310653, 0.059526592415931924, 0.3714577071474695, -0.053510133518879066, -0.0789286785078151, 0.08511306069805633]]}, "layer3": {"weights": [[0.7247311315214257, 0.8757772517002377, -1.1355317040585302], [0.8000103801004099, -0.4285329661787326, 1.7883874125300787], [1.4666202164837436, 0.8214056617633747, -0.3372953422201291], [0.02824981858996141, -2.6670927767246093, 1.1944951349984896], [-1.2806015978391905, 0.39942969235910547, 2.0716561641213707], [-1.3700053099678622, -1.5733929530776258, -1.1492956884936398]], "biases": [[-0.16247963426834355, -0.15531630656632842, -0.07284900430967903]]}}, {"layer1": {"weights": [[-0.3373072571324663, 0.3881712952478097, 0.8822054812969016, 1.1316728045857645, -0.8099181700509065, -0.31308783764722387], [-0.08236411692227456, 1.4149850157769754, -1.0087387200722027, 1.2688210398887647, -2.1507448840761065, 1.4369720241462227], [-1.5032738037868854, -0.8061765860880757, -0.005778776452956934, 1.2449883954351757, 0.5889010927199271, 0.7519649715309309], [-1.5815800476383504, -0.980558701910299, 1.028130594603963, 1.679995413399753, -0.8206134580800123, -0.2169339039988274], [0.05246016102017817, 0.8895914847321612, 0.8897453138912595, -1.086610556858652, -1.770688178989642, 1.5260071448764647]], "biases": [[0.26067645313062326, 0.10243870647365412, -0.24059569710626405, -0.17361402190490016, -0.09781026953441188, -0.02948739786472606]]}, "layer2": {"weights": [[-1.1343444060308376, -0.3980272076204642, 0.8213340274835055, 0.8485464029549925, 0.3723737398290903, -0.3786316389972935], [-2.0361135929208816, 0.1018451224400301, 0.6058857069167252, 0.22288423921251121, -2.2280178232557164, -0.8432213676632351], [1.249191165885871, 0.308737477880645, -0.0688432882190596, -0.6925843520220708, 0.23927129111472717, -0.7894086001096426], [0.5049308068646076, -2.5680910218310706, -0.11232228558605373, -0.6674564963492022, 2.220439201636416, -0.9122344398788886], [-1.4009767414716636, -1.1214071252611948, -0.4362056248825346, 0.26412730784276917, 0.23309276892995828, 1.4931569861361207], [-0.07880245988673767, -1.5743742879476534, 2.3588761611783764, 0.6152121262084252, -0.6929104969813662, -0.8631673017149913]], "biases": [[0.14637838285216714, 0.059729233029101186, 0.3714443505168097, -0.05360202341810341, -0.07869936235966549, 0.0842654222503667]]}, "layer3": {"weights": [[0.7263404950027852, 0.8757789887414233, -1.1355703782731525], [0.9896247242130958, -0.4902966345637293, 1.7880986441791122], [1.4002662821651377, 0.8214218544873515, -0.3372949743440681], [0.034903697100009186, -2.6668909817687907, 1.191438833532592], [-1.2805937842913049, 0.3800185743079801, 2.07165157123391], [-1.3473082335801136, -1.573659265977351, -1.1336969976999676]], "biases": [[-0.1584030477262178, -0.15594834631460847, -0.07281067695760382]]}}, {"layer1": {"weights": [[-0.3460644946758174, 0.39172588841677924, 0.8788267726981751, 1.1060859609707536, -0.8099362023279835, -0.3141072533764526], [-0.08450498375151738, 1.4146281122890612, -1.0020764961893014, 1.2703158591968293, -2.1347239993523814, 1.44565937605527], [-1.5184255699783038, -0.8078558494201038, -0.005778779600131972, 1.2450114454393244, 0.5752338993761161, 0.7519666564845513], [-1.6407042640832346, -1.1298456869517954, 1.0222741251885479, 1.6809870343455058, -0.814110481953942, -0.2170604377947006], [0.053945499241555145, 0.8850311601192973, 0.7277612235054263, -1.0713490759074034, -1.7708719671370532, 1.526007623801052]], "biases": [[0.2606852299587278, 0.10107255369254761, -0.239216578357154, -0.1908213983578868, -0.06170262517650814, -0.033563429555345886]]}, "layer2": {"weights": [[-1.1390451189026463, -0.39693876513560744, 0.833152544646433, 0.9213229325357881, 0.37237315613781674, -0.40633422819580933], [-2.0361667672794637, 0.10126825288296462, 0.6074014180209426, 0.22265243658193645, -2.227842091609012, -0.8604208032944682], [1.2543786498687512, 0.31805701826681, -0.06882740088788408, -0.6977465930476763, 0.24503200250058765, -0.7962930838356137], [0.5049308041082613, -2.5821676535839546, -0.1123221320164266, -0.6687056403013463, 2.209623196789555, -0.9278687382795913], [-1.222271946807315, -1.12292858815341, -0.43228421636875314, 0.2594398830720994, 0.2308170706185306, 1.4965639018183259], [-0.07997862141328711, -1.5464347986616902, 2.3616007338285443, 0.5896738320026875, -0.6928453604296408, -0.8472804961914215]], "biases": [[0.1464550085261494, 0.059626987192486575, 0.3714398890736247, -0.053583612747652054, -0.0789821400169016, 0.08584574986208657]]}, "layer3": {"weights": [[0.9472333379437886, 0.8758123385074466, -1.1353875020914999], [0.8106230469555077, -0.45933331981478376, 1.7988406578721636], [1.4603521646676332, 0.8240878786540206, -0.3250239439949135], [0.031644302087155664, -2.666919947715936, 1.1520378524081294], [-1.2450872617704787, 0.3897669360905144, 2.07185547659253], [-1.3702978953326892, -1.5737217256192555, -1.1399731985062103]], "biases": [[-0.1591825660078176, -0.1568906813802036, -0.07313794361226914]]}}, {"layer1": {"weights": [[-0.3011386269160624, 0.3739707256494746, 0.8992370025990203, 1.1315421891898327, -0.8099631724285321, -0.31307162400857613], [-0.08457836821454125, 1.4147772747374199, -1.0010338274766446, 1.2621621315384493, -2.14548352380329, 1.4369605986869733], [-1.5014287018074826, -0.7994591409918745, -0.00577868518488083, 1.2450106452912135, 0.6438284723761514, 0.7519672051080362], [-1.6611097449697283, -1.1274826859356781, 1.04647170612699, 1.6759667751818748, -0.8076871194307583, -0.21635698353707433], [0.04669245048336529, 0.9077334216735493, 0.9042687309239232, -1.1243738819435107, -1.7699796113108823, 1.5257897035320882]], "biases": [[0.260658985122286, 0.10697681858523772, -0.24596357736854513, -0.1913328504206637, -0.09777750104694459, -0.030854214652535517]]}, "layer2": {"weights": [[-1.1150147677734412, -0.4023440822631264, 0.8283759972400363, 0.9095523476996421, 0.37235943221410095, -0.3243084685166119], [-2.036041296568534, 0.09445128012658853, 0.6076453230034135, 0.22773184894706144, -2.227977065943038, -0.842925191595363], [1.2465982903455992, 0.32101125079897314, -0.06889442079043692, -0.6720794510717434, 0.23963822165773047, -0.7714285837379184], [0.5049239229271203, -2.5966542847533733, -0.11232672859485145, -0.6945116055020861, 2.22054144057717, -0.873508307341338], [-1.3783959552189722, -1.115412128288981, -0.43104525812023253, 0.24866865369424043, 0.23258475417463254, 1.493196092892621], [-0.07879644061978083, -1.5687309247452554, 2.3584174638026845, 0.5811968947031116, -0.6928506592534628, -0.8637700523884897]], "biases": [[0.14622836291018387, 0.05972799898906121, 0.37142949750545645, -0.053638735790317825, -0.07759853022321045, 0.0858074334342001]]}, "layer3": {"weights": [[0.7261138100572326, 0.8753799428723636, -1.1141574514495463], [0.9893840662340205, -0.49018799382179973, 1.7459070386794566], [1.389189413161793, 0.8110982486738918, -0.3355789633150306], [0.03499375608956967, -2.666795073061105, 1.1813674613359266], [-1.28058421866813, 0.38007564465060883, 2.0719203831204296], [-1.3753103392984167, -1.5739200874330406, -1.1696748639316046]], "biases": [[-0.15672468107360035, -0.1519281297023102, -0.07147904956611731]]}}]