[{"layer1": {"weights": [[-0.06195437199411784, 0.34079689641419997, 1.0011306340335309, 1.0842583912533055, -0.9521719147225132, -0.3519687820325949], [-0.2131468995790515, 0.9139499113498871, -0.814962005267934, 1.5601617751539905, -1.6464263847407636, 1.5066799820312136], [-1.2249204329769532, -0.435389838481534, -0.1791783904149101, 1.3416276691531432, 0.6151015637571631, 0.836999302066145], [-1.4513212220360234, -0.8699132291986054, 0.8116114534559098, 1.5980143518294325, -1.3336077244353444, -0.3545208305714033], [0.4363074575380301, 1.2476874887888303, 0.9164015270107275, -0.8030694896395436, -1.6775358869919517, 1.6163449927865874]], "biases": [[0.21939001557314905, -0.08843024678996168, -0.27324034173833245, -0.2533013573475426, -0.10775313566817453, -0.13439388845489578]]}, "layer2": {"weights": [[-0.8789293843648958, -0.7597796426928485, 1.1259233440959258, 0.8885637721815334, 0.2555519293366798, -0.3101278299684424], [-2.1346377374222065, 0.27386391636201435, 0.5776095656478323, 0.6144708327594772, -1.9459688574209673, -0.6625748357462938], [1.181696343070084, 0.3856879061295248, -0.08010553147306358, -0.29509659255032633, 0.30392819050840764, -0.8621760892988763], [0.6978214233362687, -2.0322167608919592, -0.25579092349092597, -0.4234024856457981, 2.177387301265255, -0.8974607679034406], [-1.1024848492454609, -1.6888152426660943, -0.08786237884798251, 0.10721740819140776, -0.269129619807993, 1.633389080828743], [-0.013112779438880728, -1.6835113889902136, 2.290777265744434, 0.3185327240864705, -0.4929605867219399, -1.1834943165755583]], "biases": [[0.1276113810453992, 0.00341418855663469, 0.26549863919436617, 0.00028061855291501553, -0.16469984162701257, 0.10440848783620307]]}, "layer3": {"weights": [[0.6401054092228047, 0.8874230657683999, -1.183817857047658], [1.261898048969167, -0.3125523237709588, 1.652059337128577], [1.4037957589643484, 0.908715964497856, -0.3460134272019193], [0.2638535137892669, -2.9182717198718477, 0.9691268120277303], [-1.4296887761402857, 0.39129898938364494, 2.0529310281999287], [-1.123302564631413, -1.5250564807747258, -1.1158526255334067]], "biases": [[-0.1461083226883273, -0.20138906475464688, -0.2636309897606458]]}}, {"layer1": {"weights": [[-0.06587641260598939, 0.3446411134272697, 0.9981980037879781, 1.1388751971447402, -0.8532969541632041, -0.3519556688436727], [-0.22458211664564115, 0.9096139391801497, -0.814962005306127, 1.5483826537878456, -1.6468890956464564, 1.5094079515613728], [-1.2255027029944094, -0.42955466935568937, -0.1741833775099269, 1.3401423406115, 0.6224966952638501, 0.8370601492175952], [-1.4245697263926667, -0.8668374552141347, 0.8104111773651114, 1.5648009335091193, -1.3658031537431845, -0.3545207085427412], [0.507842174563613, 1.1909305488787472, 0.9584191291723364, -0.7982964016144716, -1.670801512330622, 1.623104935533112]], "biases": [[0.21954108677311196, -0.08163474092792855, -0.2732379150969812, -0.25330139300778265, -0.10573612814286074, -0.1343943113828267]]}, "layer2": {"weights": [[-0.8844964771294612, -0.751752474986946, 1.04515757800322, 0.8811338883659148, 0.25555210959309865, -0.31012781313972065], [-2.128267588067885, 0.28168351530846797, 0.5809883235702774, 0.6129634247663571, -1.8310934724037384, -0.6625787689448668], [1.181673459511448, 0.38672025490131223, -0.05866013208874071, -0.30483351994291474, 0.2548146401508513, -0.8663286957719157], [0.6978200255804682, -2.0274156971402038, -0.25579082131446357, -0.39211235672327016, 2.1773744417779444, -0.8157142294469069], [-1.1225108181282257, -1.6857831687924245, -0.0964027522383908, 0.11289106210857361, -0.27017653749434456, 1.617455936930624], [-0.07073565513357229, -1.6835113871501273, 2.290777185627441, 0.3190209033587428, -0.47497761436666697, -1.1775609557095834]], "biases": [[0.12959654193826442, 0.0034215197208289135, 0.2617949010860165, 0.0002806143603561659, -0.16469983982074654, 0.10435384050598234]]}, "layer3": {"weights": [[0.6456254377431825, 0.8872912589398525, -1.1810413443274634], [1.2783803114665946, -0.3144713155323327, 1.6366237122880365], [1.3979295664999005, 0.90793497991343, -0.4361184990874768], [0.2686212482981311, -3.0894252327098544, 0.9710210450182142], [-1.4342169612469795, 0.3910652942010138, 2.052931006664523], [-1.1261667035486242, -1.5526976232173033, -1.0569072112067321]], "biases": [[-0.14672264368132576, -0.20058481651014876, -0.17891341318892534]]}}, {"layer1": {"weights": [[-0.058032331382246276, 0.33695267940113016, 0.9894347724851505, 1.1373604767681402, -0.8682218155669219, -0.3519818952215171], [-0.20171168251246185, 0.9182858835196246, -0.814962005229741, 1.5497021798903146, -1.6459636738350711, 1.5039520125010544], [-1.224338162959497, -0.4412250076073786, -0.1841734033198933, 1.3431129976947864, 0.607706432250476, 0.836938454914695], [-1.47807271767938, -0.8729890031830762, 0.8128117295467081, 1.5647886109354823, -1.3658162363302382, -0.35452095260006544], [0.51262182956479, 1.1928358524823421, 0.8743839248491185, -0.751616644292146, -1.6842702616532812, 1.6095850500400628]], "biases": [[0.21923894437318614, -0.09522575265199482, -0.27324276837968375, -0.25330132168730257, -0.10977014319348832, -0.13439346552696485]]}, "layer2": {"weights": [[-0.8733622916003303, -0.767806810398751, 1.2066891101886317, 0.8700001540909905, 0.15093088644455044, -0.31012784679716415], [-2.141007886776528, 0.2660443174155608, 0.5742308077253871, 0.6159782407525973, -2.060844242438196, -0.6625709025477209], [1.18171922662872, 0.3846555573577374, -0.10155093085738645, -0.2853596651577379, 0.25759730048984875, -0.8580234828258371], [0.6978228210920692, -2.0370178246437143, -0.25579102566738837, -0.45469261456832594, 2.1774001607525655, -0.8563759546242564], [-1.082458880362696, -1.6918473165397638, -0.0793220054575742, 0.10154375427424192, -0.2680827021216414, 1.6493222247268622], [-0.005945494686249234, -1.5904118362107176, 2.290777345861427, 0.3180445448141982, -0.43494763770360173, -1.1894276774415333]], "biases": [[0.12562622015253397, 0.0034068573924404665, 0.26920237730271585, 0.00028062274547386516, -0.16469984343327856, 0.10446313516642379]]}, "layer3": {"weights": [[0.6345853807024268, 0.8875548725969472, -1.1865943697678527], [1.2454157864717394, -0.31063333200958493, 1.6674949619691177], [1.4780482966606863, 0.909496949082282, -0.4175292104389998], [0.25908577928040266, -3.085992334121875, 0.9672325790372465], [-1.4251605910335918, 0.39153268456627605, 2.052931049735334], [-1.1247254923211523, -1.4974153383321482, -1.1747980398600815]], "biases": [[-0.14549400169532883, -0.202193312999145, -0.1789133480600143]]}}, {"layer1": {"weights": [[-0.05999335168818205, 0.33887478790766506, 0.9952827032593408, 1.1108094340107229, -0.9101968651447175, -0.351975338627056], [-0.2074292910457567, 0.9161178974347559, -0.8149620052488376, 1.5549319775221524, -1.6461950292879175, 1.505315997266134], [-1.224629297968225, -0.4383074230444563, -0.1816758968674017, 1.3423703334239647, 0.6114039980038195, 0.83696887849042], [-1.4646969698577017, -0.8714511161908407, 0.812211591501309, 1.5814014813824575, -1.3497119803827913, -0.3545208915857344], [0.47446464355141005, 1.2202616706355862, 0.895392725929923, -0.7773430669658448, -1.6809030743226163, 1.612965021413325]], "biases": [[0.2193144799731676, -0.09182799972097824, -0.2732415550590081, -0.2533013395174226, -0.10876163943083142, -0.1343936769909303]]}, "layer2": {"weights": [[-0.876145837982613, -0.7637932265457997, 1.1663062271422788, 0.879281963136262, 0.20324140789061512, -0.3101278383828033], [-2.137822812099367, 0.26995411688878757, 0.5759201866866097, 0.6152245367560373, -2.003406549929582, -0.6625728691470074], [1.181707784849402, 0.40968182570530437, -0.09082823116522501, -0.29022812885403215, 0.28076274549912816, -0.8600997860623567], [0.697822122214169, -2.0346172927678365, -0.25579097457915717, -0.439047550107062, 2.17739373100891, -0.8769183612638485], [-1.0924718648040783, -1.690331279602929, -0.08359219215277836, 0.10438058123282484, -0.2686061609648172, 1.6413556527778026], [-0.009529137062564981, -1.6369616126004656, 2.2907773058029304, 0.31828863445033434, -0.46395411221277083, -1.1864609970085458]], "biases": [[0.12661880059896657, 0.0034105229745375783, 0.267350508248541, 0.00028062064919444037, -0.16469984253014558, 0.10443581150131342]]}, "layer3": {"weights": [[0.6373453949626158, 0.8874889691826735, -1.1852061134077554], [1.2536569177204533, -0.3115928278902719, 1.6597771495488474], [1.4409220278125172, 0.909106456790069, -0.3783602990211738], [0.2614696465348348, -3.002132026996861, 0.9681796955324884], [-1.4274246835869389, 0.3914158369749605, 2.0529310389676314], [-1.1240140284762825, -1.5112359095534371, -1.145325332696744]], "biases": [[-0.14580116219182807, -0.20179118887689595, -0.22127216891033005]]}}, {"layer1": {"weights": [[-0.05999335168818205, 0.33887478790766506, 0.9952827032593408, 1.1108094340107229, -0.9101968651447175, -0.351975338627056], [-0.10129482848290942, 0.9161178974347559, -0.8149620052488376, 1.5549319775221524, -1.6461950292879175, 1.505315997266134], [-1.224629297968225, -0.4383074230444563, -0.1816758968674017, 1.3423703334239647, 0.602466736229116, 0.83696887849042], [-1.4646969698577017, -0.8714511161908407, 0.812211591501309, 1.5814014813824575, -1.3497119803827913, -0.3545208915857344], [0.47446464355141005, 1.2202616706355862, 0.8100260851540955, -0.7773430669658448, -1.6809030743226163, 1.612965021413325]], "biases": [[0.2193144799731676, -0.09182799972097824, -0.2732415550590081, -0.2363552615477021, -0.10876163943083142, -0.1343936769909303]]}, "layer2": {"weights": [[-0.876145837982613, -0.7637932265457997, 1.1663062271422788, 0.879281963136262, 0.21355833388837808, -0.3101278383828033], [-2.137822812099367, 0.26995411688878757, 0.554963392349402, 0.6152245367560373, -2.062713858841626, -0.6625728691470074], [1.181707784849402, 0.38517173174363106, -0.09082823116522501, -0.29022812885403215, 0.28076274549912816, -0.8600997860623567], [0.697822122214169, -2.0346172927678365, -0.25579097457915717, -0.439047550107062, 2.17739373100891, -0.8769183612638485], [-1.0924718648040783, -1.690331279602929, -0.08359219215277836, 0.10438058123282484, -0.2686061609648172, 1.6413556527778026], [-0.009529137062564981, -1.6369616126004656, 2.2907773058029304, 0.31828863445033434, -0.46395411221277083, -1.266212981329273]], "biases": [[0.12661880059896657, 0.0034105229745375783, 0.267350508248541, 0.00028062064919444037, -0.16469984253014558, 0.10443581150131342]]}, "layer3": {"weights": [[0.6373453949626158, 0.8874889691826735, -1.1852061134077554], [1.2536569177204533, -0.3115928278902719, 1.6597771495488474], [1.4409220278125172, 0.909106456790069, -0.38177131882045956], [0.2614696465348348, -3.002132026996861, 0.9681796955324884], [-1.4274246835869389, 0.3914158369749605, 2.0529310389676314], [-1.1240140284762825, -1.5112359095534371, -1.229569500223933]], "biases": [[-0.14580116219182807, -0.20179118887689595, -0.22127216891033005]]}}, {"layer1": {"weights": [[-0.06195437199411784, 0.3388370630679442, 0.9989397876930488, 1.111188114104873, -0.8693624937355866, -0.3519687820325949], [-0.2131468995790515, 1.098601241467778, -0.814962005267934, 1.5546020959965352, -1.6464263847407636, 1.5066799820312136], [-1.2249204329769532, -0.435389838481534, -0.1883910674320774, 1.3416276691531432, 0.5664615674040105, 0.836999302066145], [-1.4472008331864685, -0.8699132291986054, 0.8116114534559098, 1.5814045620258668, -1.3497087097360279, -0.3915167275861006], [0.7030357408236794, 1.2197853447346874, 0.9044047602849966, -0.7925421582866784, -1.6852489660790448, 1.6163449927865874]], "biases": [[0.21939001557314905, -0.08843024678996168, -0.27324034173833245, -0.2533013573475426, -0.10775313566817453, -0.13439388845489578]]}, "layer2": {"weights": [[-0.8761623755553178, -0.7597796426928485, 1.1664542090685421, 0.8607861428855352, 0.22939671367775216, -0.2682627841552923], [-2.1346377374222065, 0.27386391636201435, 0.5776095656478323, 0.6446332202538296, -2.0013844779284007, -0.6625748357462938], [1.181696343070084, 0.4592805602486096, -0.09190424515440282, -0.29509659255032633, 0.28006708041437883, -0.9120070937688328], [0.6978214233362687, -2.0322167608919592, -0.25579092349092597, -0.439676336891858, 2.177387301265255, -0.8667529299695111], [-1.1024848492454609, -1.6888152426660943, -0.08786237884798251, 0.10721740819140776, -0.269129619807993, 1.633389080828743], [-0.025726677174395744, -1.6602365003353179, 2.290777265744434, 0.3185327240864705, -0.4739616063785371, -1.166010006992929]], "biases": [[0.1276113810453992, 0.00341418855663469, 0.26742200607720734, 0.00028061855291501553, -0.16469984162701257, 0.10440848783620307]]}, "layer3": {"weights": [[0.6401054092228047, 0.8874230657683999, -1.1904466656886152], [1.252538307562467, -0.3125523237709588, 1.6332316971176561], [1.4208923452723208, 0.908715964497856, -0.38641864098257883], [0.2638535137892669, -3.0029902516438565, 0.9691268120277303], [-1.3900862024713905, 0.39129898938364494, 2.0529310281999287], [-1.1617354995163005, -1.439820657453022, -1.145474665012316]], "biases": [[-0.1461083226883273, -0.20138906475464688, -0.2212721851925578]]}}, {"layer1": {"weights": [[-0.05999346132062468, 0.3464712320760203, 1.0025968611225353, 1.11080942492762, -0.8978994269951333, -0.35196035212543064], [-0.22532045427646089, 0.9071647547823292, -0.8149620052924866, 1.5525243220120069, -1.6456736912509804, 1.51083600618645], [-1.224629201606061, -0.43830740527143724, -0.18167600591595323, 1.3402010064050052, 0.633143689757968, 0.8369688754386998], [-1.470010627097961, -0.8611364779475612, 0.8094425361769956, 1.5814085228531072, -1.3497045046187606, -0.35452075212440626], [0.5234625696921898, 1.2172967469785, 0.8952265584308196, -0.805438430003361, -1.6663473934937705, 1.6263077745639707]], "biases": [[0.29247904187333323, -0.09182798373769527, -0.2732606882337929, -0.2533013802719826, -0.10472722287188835, -0.13439416033713708]]}, "layer2": {"weights": [[-0.8760867714499604, -0.6042913531431718, 1.2092559950697401, 0.8769367065111238, 0.2555520452158062, -0.35475584495236945], [-2.1376293709823004, 0.2856000293422832, 0.5824148521349544, 0.5760925565542366, -2.003406551191862, -0.6625773642310907], [1.1834989065242372, 0.3856178004089992, -0.09463808851047689, -0.3097019670687089, 0.2807622304388161, -0.86010812409189], [0.6978205247789684, -2.030440305847943, -0.25579085780605726, -0.4156565876259031, 2.177489879263696, -0.890015348132024], [-1.108434941742027, -1.6826940890715885, -0.08358722336338634, 0.11322458809280207, -0.27027855179176363, 1.641626447134644], [-0.04192421750032449, -1.6835113878073011, 2.2907772142406526, 0.3192533730716992, -0.5020085233395433, -1.1746547357632982]], "biases": [[0.1211568814161455, 0.003418901447902405, 0.26735039245988634, 0.0002806158576986122, -0.16469984046584155, 0.08934970565510511]]}, "layer3": {"weights": [[0.6549024357804796, 0.8874891687731962, -1.179647576206129], [1.2476906387569873, -0.316559596029485, 1.6582282393638261], [1.4066975932591206, 0.9077521318870985, -0.3817735280053069], [0.26535906330912584, -2.9988626900926203, 0.9719680606071537], [-1.4364810329048736, 0.3911487567662392, 2.043054245708893], [-1.1277995067532376, -1.4721180895287094, -1.184252968840446]], "biases": [[-0.14665278660512432, -0.1996468998684628, -0.22127220612685064]]}}]