[{"layer1": {"weights": [[-0.003997120440126674, 0.48781256358585723, 1.0176999001031306, 1.157057278310786, -0.8027197744264238, -0.3416664975393714], [9.489526214865717e-05, 1.310792094291111, -1.1278447400610943, 1.3557425636093732, -2.2067850608458865, 1.5159491954462427], [-1.3481699373450686, -0.7191374944521494, -0.048949055889754324, 1.3255539619915673, 0.5656589831695045, 0.7573542190712199], [-1.6232531325594246, -1.2033296656712653, 1.0380808759531936, 1.6499048364533624, -0.9286965245795137, -0.2728771787795016], [0.4277553587676316, 1.2587327890657882, 1.0580540980351152, -0.8193988986032477, -1.7568477114969077, 1.696095403131884]], "biases": [[0.32278571100502385, 0.10611217380904474, -0.2692708832720766, -0.23594872412392015, -0.1751862026885225, -0.08809229029938845]]}, "layer2": {"weights": [[-0.7222058484566524, -0.3490793173164899, 0.5760541528005465, 1.0139155545478395, 0.41637959279273795, -0.6012902615910061], [-1.9857105797933818, 0.16883369064054335, 0.5914063925682973, 0.398639979882919, -2.1629558359256595, -0.654447270328745], [1.2462894613498205, 0.301690944465827, -0.049312274793460224, -0.5441522148260904, 0.29572112137405715, -0.7237072213921332], [0.5693329774871161, -2.4895700808321566, -0.21049890427015822, -0.4852519301893135, 2.149771500742726, -0.904551134201762], [-1.2243509275612463, -1.123187100366157, -0.36456650788942346, 0.1896878319426338, 0.3331666338460627, 1.6374627923232263], [-0.09963011747592879, -1.535142372350323, 2.3834484311239126, 0.5372777140068531, -0.47189762030925736, -1.0362271488663704]], "biases": [[0.11257976855194933, 0.07784757869639941, 0.2867641053525537, -0.09611328643014999, -0.08849676320522405, 0.02928945761702352]]}, "layer3": {"weights": [[0.49184956686372194, 0.9324776215874093, -1.1062872845946976], [1.4118024953226385, -0.51469730048886, 1.9399220688450767], [1.242762287013543, 0.9355077786253123, -0.38764796509828825], [0.05959368477259752, -3.0383275436114574, 0.773247067435238], [-1.420998154613324, 0.4189153181784618, 2.1049807415237307], [-1.3006370954548578, -1.7147512473188007, -1.2542060745787602]], "biases": [[-0.15314668065689063, -0.18541801418955833, -0.25773035579993187]]}}, {"layer1": {"weights": [[0.0008977034634711026, 0.4888948407880863, 1.0176475997116223, 1.1659136197657243, -0.8025461151734086, -0.3395408070443131], [-0.00017163580354616868, 1.356085523275523, -1.13849926958155, 1.386796900805102, -2.2089568289074766, 1.5213642367095837], [-1.3546921452411562, -0.7248717852758815, -0.04909491875617359, 1.3310958901542311, 0.5645798772112661, 0.75798956691849], [-1.5891548702474563, -1.1695441561981113, 1.0343228472138182, 1.6291481529399268, -0.9336733560955579, -0.27222944268157767], [0.41736008900778954, 1.283872564669465, 1.1134910503880255, -0.784965545076592, -1.7318745869011571, 1.7126427362405483]], "biases": [[0.23877227127807077, 0.11403119217909269, -0.2693593861557886, -0.23756175466582163, -0.11647561254016803, -0.08581713299755075]]}, "layer2": {"weights": [[-0.7244459760951136, -0.3400365574060577, 0.502774092926594, 1.0092436209376632, 0.2672167463901294, -0.5837299378330063], [-1.9841296806509174, 0.15471346962131718, 0.5701545179725781, 0.43501198662016727, -2.1583463721904073, -0.6486689107810366], [1.2418148156101734, 0.3300673067490969, -0.025940391088534867, -0.5517546397381853, 0.3014456902636541, -0.6822596808284107], [0.573315946405174, -2.3939876989910167, -0.20876556673926433, -0.45758771300481826, 2.15203392151156, -0.9212066004445256], [-1.2739614274380613, -1.1105726176023838, -0.3170577687272128, 0.23487666772688, 0.28086160476353333, 1.5064844912171549], [-0.10367454379171481, -1.5134725200433614, 2.346355030303136, 0.533135944384562, -0.47599305847991746, -1.0891974170276848]], "biases": [[0.11651639210658188, 0.07400755041901745, 0.32564127482788346, -0.09613013039335111, -0.08741962256315161, 0.03284690769118007]]}, "layer3": {"weights": [[0.507822629396511, 0.9314241340857716, -1.1062178290824656], [1.411798522924288, -0.4413197078739012, 1.945524715153042], [1.2432978096333784, 0.9358885780974839, -0.38787378122705163], [0.03397893852335335, -3.02137169808446, 0.7012695132346971], [-1.4326796315919685, 0.4189162589085451, 2.1048278824500555], [-1.2945831116332076, -1.7377161537529677, -1.284280426498976]], "biases": [[-0.15308583691371536, -0.18570218586735965, -0.2524931718426162]]}}, {"layer1": {"weights": [[-0.003997120440126674, 0.48067805702795496, 1.009967745147906, 1.157057278310786, -0.8027197744264238, -0.3416664975393714], [0.1283550960970513, 1.310792094291111, -1.1278447400610943, 1.409272702631467, -2.257752986201802, 1.5159491954462427], [-1.3618451099229807, -0.7191374944521494, -0.055511729775181026, 1.2377530812461066, 0.55473079311425, 0.7573542190712199], [-1.6232531325594246, -1.1649347059110506, 1.0380808759531936, 1.482574570089024, -0.9537097589840928, -0.27569042725747134], [0.4277553587676316, 1.2587327890657882, 1.1119107726604538, -0.8067413703395037, -1.7568477114969077, 1.696095403131884]], "biases": [[0.2486698305688597, 0.10611217380904474, -0.2692708832720766, -0.23594872412392015, -0.09466246402531096, -0.08809229029938845]]}, "layer2": {"weights": [[-0.7222058484566524, -0.3484512950098829, 0.5760541528005465, 1.0139155545478395, 0.2514070681312971, -0.6012902615910061], [-1.9857105797933818, 0.16883369064054335, 0.5914063925682973, 0.398639979882919, -2.1629558359256595, -0.654447270328745], [1.2462894613498205, 0.3091680161496078, -0.049312274793460224, -0.5248990949373447, 0.29572112137405715, -0.8017567656663825], [0.5693329774871161, -2.4895700808321566, -0.21049890427015822, -0.4852519301893135, 2.215608468205928, -1.1878015328236662], [-1.2953799967404327, -1.1148102977397094, -0.3271351626466548, 0.1896878319426338, 0.3331666338460627, 1.582860368546028], [-0.09963011747592879, -1.5343907350993864, 2.34707841676961, 0.5213937469749179, -0.47189762030925736, -1.0933527046691123]], "biases": [[0.11257976855194933, 0.07784757869639941, 0.3195632607707455, -0.09611328643014999, -0.1347515816728061, 0.10306863383365078]]}, "layer3": {"weights": [[0.49184956686372194, 0.9324776215874093, -1.1062872845946976], [1.347440543478156, -0.51469730048886, 1.9399220688450767], [1.242762287013543, 0.9355077786253123, -0.38764796509828825], [0.05959368477259752, -3.051730492217258, 0.773247067435238], [-1.4202736966780616, 0.4189153181784618, 2.1049807415237307], [-1.3006370954548578, -1.7033880646244763, -1.2542060745787602]], "biases": [[-0.15314668065689063, -0.18541801418955833, -0.25773035579993187]]}}, {"layer1": {"weights": [[-0.014356614099169218, 0.4853932911082573, 1.0178085709272664, 1.1524278815102746, -0.8030863317445179, -0.33378546672849196], [0.058359715857992746, 1.2652063354992769, -1.1326696048320477, 1.2895646612190097, -2.1989123838214537, 1.504411888439519], [-1.3406041555416508, -0.7057536907456066, -0.04864540909142406, 1.331111816307228, 0.5679460221210821, 0.7563153749916849], [-1.6545199466334335, -1.1507093791234184, 1.086526271674288, 1.6279908957044276, -0.9167100130827326, -0.2744922470198005], [0.45189499537010247, 1.2048871779251544, 1.1088654906665276, -0.7756845292030393, -1.7334997311388012, 1.6596590325558478]], "biases": [[0.23984766423717846, 0.085322312657024, -0.2690933560479527, -0.2371798764660575, -0.05042884579586308, -0.09036742764587236]]}, "layer2": {"weights": [[-0.717420371537317, -0.3301389470012992, 0.6536787452621604, 1.0238561583371122, 0.2622910169934628, -0.6396649616461825], [-1.9895598444624114, 0.1972737224941618, 0.6127494994248464, 0.41183950040304695, -2.176042582472621, -0.6794074438839768], [1.2566936254952519, 0.28064200073910395, -0.07275558012478689, -0.5345557699222859, 0.2849138722096232, -0.7668369477799954], [0.5573829502428345, -2.5476368348222556, -0.21428373428243885, -0.5443207592292459, 2.142963334053576, -0.9443552266070105], [-1.3428291910036152, -1.1174088217601712, -0.42519210751845693, 0.151509171565057, 0.38975571542946064, 1.6572322402967663], [-0.0888234320134776, -1.5152243740988558, 2.360743046792815, 0.5461263377566837, -0.49515297328801533, -1.1020313069061132]], "biases": [[0.10380085512572637, 0.08165658293912362, 0.306408823869399, -0.09607189689710635, -0.09077827071001268, 0.021485070090968363]]}, "layer3": {"weights": [[0.47598321612933125, 0.9345716434397571, -1.1064330760007832], [1.4120508535622425, -0.6271422669955118, 1.9388420279621998], [1.2439633526281852, 0.9346838194745217, -0.38713563844762666], [0.023229980739945623, -3.0807455934002026, 0.8429796684649051], [-1.393707740586784, 0.4189132822732786, 2.1053200544644266], [-1.2910178869306508, -1.6726692275330837, -1.1887676117068013]], "biases": [[-0.15327808831754966, -0.18481522288475744, -0.2491784029710203]]}}, {"layer1": {"weights": [[-0.00889194434372445, 0.48673028638362814, 1.0177522004946387, 1.1482009368558475, -0.8028934336794392, -0.3437921880344297], [0.000361426327843483, 1.2621111543832064, -1.2193364991559097, 1.3246882264136441, -2.204613292784296, 1.5105341541829018], [-1.3416477294489813, -0.7134032036284172, -0.04880319302333506, 1.3200120338289034, 0.5667380891277429, 0.7567188712239499], [-1.657351394871393, -1.1603252556239902, 1.0418389046925691, 1.670661519966798, -0.9237196930634695, -0.27352491487742553], [0.3337383611256488, 1.2335930134621114, 1.1105570628326242, -0.8538322521299034, -1.7818208360926584, 1.6795480700232197]], "biases": [[0.2585673898596486, 0.09819315543899679, -0.2691823803883646, -0.23433569358201867, -0.0728493155104539, -0.09036744760122613]]}, "layer2": {"weights": [[-0.7199657208181911, -0.3568660326137082, 0.649334212674499, 1.018587488158016, 0.2643240546118091, -0.6188505853490057], [-1.9872914789358465, 0.1829539116597695, 0.6126582671640166, 0.3622679731456707, -2.251005231315583, -0.6602256298764533], [1.2507641070894677, 0.2733145821825571, -0.07268415849838558, -0.5365497899139955, 0.2899965524844602, -0.7651547619558556], [0.5653500085690581, -2.585152462673296, -0.2122322418010521, -0.5129161473738088, 2.147509079973892, -0.8763205480165569], [-1.4270441362424107, -1.1358015831299304, -0.4120752470516341, 0.1444989961583876, 0.3854716629285921, 1.6592362458749015], [-0.09558569116014277, -1.5568122246572844, 2.3478018032360843, 0.5414194836291442, -0.46780218213859726, -1.0975079923105397]], "biases": [[0.10864314499731678, 0.08168760697378138, 0.31348524671360745, -0.09609644246694887, -0.17432851771428265, 0.025732007542866964]]}, "layer3": {"weights": [[0.47587650433093287, 0.933531109089047, -1.1063567401069294], [1.411806467720989, -0.5880748931038189, 1.9838829571452965], [1.2422267643937075, 0.9351269791531406, -0.38742214896952487], [0.0852084310218417, -3.055283389138455, 0.8452246216357788], [-1.4093166776346795, 0.39510682492127547, 2.105133600597406], [-1.3066910792765083, -1.6917863408846334, -1.2241317226585444]], "biases": [[-0.15320752440006588, -0.18513384251175702, -0.26296753975724757]]}}, {"layer1": {"weights": [[-0.00889194434372445, 0.47246127326782367, 1.0022878905841899, 1.1482009368558475, -0.8028934336794392, -0.3437921880344297], [0.2568818279976488, 1.265498665306699, -1.1171902105406386, 1.3246882264136441, -2.204613292784296, 1.5105341541829018], [-1.3689980746048054, -0.7134032036284172, -0.061928540794188455, 1.3200120338289034, 0.5448817090172338, 0.7567188712239499], [-1.657351394871393, -1.1603252556239902, 1.0418389046925691, 1.6622155525606568, -0.9737461618726276, -0.27352491487742553], [0.43815062852747366, 1.2335930134621114, 1.110330494932882, -0.8285171956024153, -1.7818208360926584, 1.6795480700232197]], "biases": [[0.2585673898596486, 0.09819315543899679, -0.2691823803883646, -0.23433569358201867, -0.0728493155104539, -0.09036744760122613]]}, "layer2": {"weights": [[-0.7199657208181911, -0.3568660326137082, 0.649334212674499, 1.018587488158016, 0.23559738987246484, -0.6188505853490057], [-1.9872914789358465, 0.1829539116597695, 0.6126582671640166, 0.3622679731456707, -2.1675652996609114, -0.6602256298764533], [1.2507641070894677, 0.28826872555011873, -0.07268415849838558, -0.49804355013650403, 0.2899965524844602, -0.9212538505043544], [0.5653500085690581, -2.585152462673296, -0.2122322418010521, -0.5129161473738088, 2.147509079973892, -0.8878956679589983], [-1.316798566042804, -1.119047977877035, -0.33721255656609683, 0.1444989961583876, 0.3854716629285921, 1.6592362458749015], [-0.09558569116014277, -1.5553089501554112, 2.3478018032360843, 0.5096515495652738, -0.46780218213859726, -1.0975079923105397]], "biases": [[0.10864314499731678, 0.08168760697378138, 0.31348524671360745, -0.09609644246694887, -0.0895739038472965, 0.1732903599761215]]}, "layer3": {"weights": [[0.47587650433093287, 0.933531109089047, -1.1063567401069294], [1.283082564032024, -0.5880748931038189, 1.9343194225371114], [1.2422267643937075, 0.9351269791531406, -0.38742214896952487], [0.0852084310218417, -3.0820892863500564, 0.8452246216357788], [-1.4093166776346795, 0.41891437744837845, 2.105133600597406], [-1.3066910792765083, -1.6690599754959847, -1.2241317226585444]], "biases": [[-0.15320752440006588, -0.18513384251175702, -0.26296753975724757]]}}, {"layer1": {"weights": [[-0.00889194434372445, 0.4795957798257259, 1.0100200455394144, 1.1482009368558475, -0.8028934336794392, -0.3063132755131742], [0.12862162716274614, 1.265498665306699, -1.1171902105406386, 1.3246882264136441, -2.136796488368804, 1.5105341541829018], [-1.3553229020268933, -0.7134032036284172, -0.05536586690876176, 1.3200120338289034, 0.5558098990724883, 0.7567188712239499], [-1.657351394871393, -1.1987202153842047, 1.0418389046925691, 1.6664385362637275, -0.9487329274680485, -0.27352491487742553], [0.43815062852747366, 1.2335930134621114, 1.0564738203075434, -0.8411747238661593, -1.7818208360926584, 1.6795480700232197]], "biases": [[0.2585673898596486, 0.09819315543899679, -0.2691823803883646, -0.23433569358201867, -0.0728493155104539, -0.09036744760122613]]}, "layer2": {"weights": [[-0.7199657208181911, -0.3568660326137082, 0.649334212674499, 1.018587488158016, 0.2969494886001463, -0.6188505853490057], [-1.9872914789358465, 0.1829539116597695, 0.6126582671640166, 0.3622679731456707, -2.1675652996609114, -0.6602256298764533], [1.2507641070894677, 0.2807916538663379, -0.07268415849838558, -0.5172966700252497, 0.2899965524844602, -0.843204306230105], [0.5653500085690581, -2.585152462673296, -0.2122322418010521, -0.3927742792003642, 2.147509079973892, -0.8878956679589983], [-1.316798566042804, -1.0679930123111914, -0.3746439018088655, 0.1444989961583876, 0.3854716629285921, 1.7138386696520995], [-0.09558569116014277, -1.8390961611177854, 2.3478018032360843, 0.525535516597209, -0.46780218213859726, -1.0403824365077978]], "biases": [[0.10864314499731678, 0.08168760697378138, 0.31348524671360745, -0.09609644246694887, -0.0895739038472965, 0.09951118375949423]]}, "layer3": {"weights": [[0.47587650433093287, 0.933531109089047, -1.1063567401069294], [1.3209515400838892, -0.5880748931038189, 1.9343194225371114], [1.3285186130292013, 0.9351269791531406, -0.38742214896952487], [0.0852084310218417, -3.0686863377442557, 0.8452246216357788], [-1.4093166776346795, 0.41891437744837845, 2.105133600597406], [-1.3066910792765083, -1.680423158190309, -1.2241317226585444]], "biases": [[-0.15320752440006588, -0.18513384251175702, -0.26296753975724757]]}}, {"layer1": {"weights": [[-0.00889194434372445, 0.4581922601520192, 0.9868235806737409, 1.1482009368558475, -0.8028934336794392, -0.3437921880344297], [0.000361426327843483, 1.265498665306699, -1.1171902105406386, 1.3246882264136441, -2.204613292784296, 1.5105341541829018], [-1.3416477294489813, -0.7134032036284172, -0.04880319302333506, 1.3200120338289034, 0.5230253289067246, 0.7567188712239499], [-1.657351394871393, -1.1603252556239902, 1.0418389046925691, 1.670661519966798, -1.0237726306817858, -0.27352491487742553], [0.43815062852747366, 1.2335930134621114, 1.1101039270331396, -0.8538322521299034, -1.7818208360926584, 1.6795480700232197]], "biases": [[0.2585673898596486, 0.09819315543899679, -0.2691823803883646, -0.23433569358201867, -0.0728493155104539, -0.09036744760122613]]}, "layer2": {"weights": [[-0.7199657208181911, -0.3568660326137082, 0.649334212674499, 1.018587488158016, 0.2643240546118091, -0.6188505853490057], [-1.9872914789358465, 0.1829539116597695, 0.6126582671640166, 0.3622679731456707, -2.1675652996609114, -0.6602256298764533], [1.2507641070894677, 0.2733145821825571, -0.07268415849838558, -0.4595373103590125, 0.2899965524844602, -0.7651547619558556], [0.5653500085690581, -2.585152462673296, -0.2122322418010521, -0.5129161473738088, 2.147509079973892, -0.8878956679589983], [-1.316798566042804, -1.1022943726241394, -0.34768111154141, 0.1444989961583876, 0.3854716629285921, 1.6592362458749015], [-0.09558569116014277, -1.5568122246572844, 2.3478018032360843, 0.5414194836291442, -0.46780218213859726, -1.0975079923105397]], "biases": [[0.10864314499731678, 0.08168760697378138, 0.31348524671360745, -0.09609644246694887, -0.0895739038472965, 0.025732007542866964]]}, "layer3": {"weights": [[0.47587650433093287, 0.933531109089047, -1.1063567401069294], [1.411806467720989, -0.5880748931038189, 1.9343194225371114], [1.2422267643937075, 0.9351269791531406, -0.38742214896952487], [0.0852084310218417, -3.055283389138455, 0.8452246216357788], [-1.4093166776346795, 0.41891437744837845, 2.105133600597406], [-1.3066910792765083, -1.646333610107336, -1.2241317226585444]], "biases": [[-0.15320752440006588, -0.18513384251175702, -0.26296753975724757]]}}, {"layer1": {"weights": [[-0.003997120440126674, 0.45734182856636235, 1.009967745147906, 1.157057278310786, -0.8027197744264238, -0.3416664975393714], [0.1283550960970513, 1.310792094291111, -1.0952162097291702, 1.3557425636093732, -2.2067850608458865, 1.5159491954462427], [-1.3618451099229807, -0.7191374944521494, -0.055511729775181026, 1.3255539619915673, 0.55473079311425, 0.7573542190712199], [-1.6232531325594246, -1.1649347059110506, 1.0380808759531936, 1.6530018366947294, -0.9537097589840928, -0.2728771787795016], [0.4277553587676316, 1.2587327890657882, 1.1119107726604538, -0.8436013666970374, -1.7568477114969077, 1.696095403131884]], "biases": [[0.2486698305688597, 0.10611217380904474, -0.2692708832720766, -0.23594872412392015, -0.09466246402531096, -0.08809229029938845]]}, "layer2": {"weights": [[-0.7222058484566524, -0.3484512950098829, 0.5760541528005465, 1.0139155545478395, 0.2514070681312971, -0.6012902615910061], [-1.9857105797933818, 0.22820377819625176, 0.5914063925682973, 0.398639979882919, -2.1629558359256595, -0.654447270328745], [1.2462894613498205, 0.5678247943861615, -0.049312274793460224, -0.4491377319665524, 0.29572112137405715, -0.9378494923911325], [0.5693329774871161, -2.4895700808321566, -0.21049890427015822, -0.4852519301893135, 2.149771500742726, -0.904551134201762], [-1.2953799967404327, -1.1148102977397094, -0.3271351626466548, 0.1896878319426338, 0.3331666338460627, 1.582860368546028], [-0.09963011747592879, -1.5343907350993864, 2.34707841676961, 0.5213937469749179, -0.47189762030925736, -1.0933527046691123]], "biases": [[0.11257976855194933, 0.07784757869639941, 0.32853215552158166, -0.09611328643014999, -0.08849676320522405, 0.10306863383365078]]}, "layer3": {"weights": [[0.49184956686372194, 0.9324776215874093, -1.1062872845946976], [1.347440543478156, -0.51469730048886, 1.9399220688450767], [1.242762287013543, 0.9355077786253123, -0.38764796509828825], [0.05959368477259752, -3.051730492217258, 0.9297709925999433], [-1.420998154613324, 0.4189153181784618, 2.1049807415237307], [-1.3006370954548578, -1.7033880646244763, -1.2542060745787602]], "biases": [[-0.15314668065689063, -0.18541801418955833, -0.25773035579993187]]}}]