[{"layer1": {"weights": [[-0.09499851329718903, 0.5636450439428222, 1.0950495825534219, 1.1256607005840051, -1.136596754241069, -0.16735963268222015], [-0.23787972349180322, 1.3757584410776926, -1.085571749752503, 1.456196163392573, -2.1900902327124028, 1.2609257038650792], [-1.8327281318916482, -0.9073083389522343, -0.015076784018598596, 1.0880652760837464, 0.7453246529412878, 0.5472372351017087], [-1.5550595835114263, -1.172806029351133, 1.1008559330348109, 1.7789117606939109, -1.338720205560389, 0.0056872698110405975], [-0.20845678014898084, 1.0163631272928546, 0.9116173617749066, -0.7073215856197674, -1.344812944240042, 1.7270987696578215]], "biases": [[0.19936281369739478, 0.0007173428141931445, -0.3560115927212373, -0.05161525805028021, -0.39258010470837224, 0.09124785693458157]]}, "layer2": {"weights": [[-0.866777493391073, -0.26347659263442225, 0.29149708298806387, 0.4211937396952805, 0.5119817257755863, -0.08397875009766131], [-1.8780210220321205, 0.6869306564618871, 0.6488240983829392, 0.06136609022536062, -2.621968177166493, -0.6879975151572391], [1.3735662050264255, 0.9228406398761922, -0.2927752112232137, -0.6232839806428874, -0.08850584101155817, -0.7523629675465351], [0.5051257249051087, -2.581565121083532, 0.026871207302232327, -0.4815378514338201, 2.1988068945742367, 0.4817973615681703], [-0.6881916135524953, -1.699352813351353, -0.6946674488076071, -0.19281088606011706, 0.3517938487090175, 2.1168279393787683], [0.13671588867478573, -1.4970370950893783, 2.3953146947528037, 0.3015925938834588, -0.7522561722706376, -0.34897887283346635]], "biases": [[0.06075939974401953, 0.014290350715188535, 0.44233421859889954, 0.17479194438952142, -0.015006332274754144, 0.34760481718671127]]}, "layer3": {"weights": [[0.6334784995420717, 1.0271444196694361, -0.9050780747213135], [1.122653187849206, -0.9613960040764092, 1.925279021460403], [1.5196318382486824, 0.6532044461338962, -0.2623183943196672], [0.21387850059102334, -3.6961421226766116, 1.2216643252011927], [-1.119842563479588, 0.28593338063949725, 2.093760700478429], [-1.3497258157708671, -1.4757601966909313, -1.1676066821397793]], "biases": [[-0.18688792610068997, -0.31843379960912105, -0.013933861374456359]]}}, {"layer1": {"weights": [[-0.09412067308408006, 0.5641546127875844, 1.0948515172292672, 1.1256605592590834, -1.1305279453662878, -0.1678822944485383], [-0.24231880284229673, 1.3633296007693496, -1.0848363505317022, 1.4307123524514784, -2.1947279067478815, 1.2532194268579784], [-1.8325825532013458, -0.9016802829273274, -0.015903417675598566, 1.090111604033963, 0.7268142527182048, 0.5472434743680058], [-1.5382823085141912, -1.1724317618204871, 1.1006164843676003, 1.7788632329857128, -1.385890405729383, 0.00568374056073432], [-0.21467632856196675, 1.0207600415468212, 0.9089862876975716, -0.7001973275530117, -1.3225417640041184, 1.746879866369512]], "biases": [[0.2001642074197198, -0.004471904555738119, -0.3559830180603967, -0.05411588150131893, -0.39604963385552816, 0.09134409048258466]]}, "layer2": {"weights": [[-0.8760176359984813, -0.2636975186077466, 0.2945292326209846, 0.37007726588091316, 0.5334292898363059, -0.10421296371006276], [-1.857943949354079, 0.473040111665771, 0.6298476151076218, 0.06637572206102078, -2.6219720071095383, -0.6873947806099261], [1.3721515361415322, 0.9236579730780512, -0.2929695893245198, -0.6306225073217917, -0.09103710390481606, -0.8856053683488124], [0.5051998893414478, -2.6199057745850283, 0.03376538317042488, -0.5492569712214075, 2.198546488661208, 0.4732832444186572], [-0.6957237239284813, -1.6902067888950345, -0.6649970415333368, -0.20112156599451056, 0.31122178189721933, 2.1318406163024095], [0.13686798746240303, -1.5394555402038392, 2.3954589925583356, 0.30947080707042873, -0.7522450821847035, -0.34200975505742015]], "biases": [[0.04799872215966701, 0.023709564071863795, 0.4417150847759306, 0.1716539417644874, -0.01345700694563211, 0.34768912240898087]]}, "layer3": {"weights": [[0.6334953889917355, 1.0347060638241081, -0.9058748831179044], [1.1262206706071998, -0.9680714748484407, 1.9313842239235797], [1.5341899168010937, 0.6539720774138275, -0.2680672929534456], [0.2114371265991586, -3.651380408487392, 1.211961822938912], [-1.1843697117173848, 0.2816276156829983, 2.0944592515783027], [-1.3442672134058105, -1.4759643590077314, -1.0320288773710558]], "biases": [[-0.1867735691193434, -0.3182936988106949, -0.01632752013171935]]}}, {"layer1": {"weights": [[-0.09496497131788095, 0.564127900857924, 1.0950395126490766, 1.1249568526085354, -1.148639746386812, -0.16672121788765357], [-0.21549432067014662, 1.3751557507895793, -1.0649170443106355, 1.4567070757744602, -2.14859233301971, 1.2597326133887279], [-1.8327252417138833, -0.9071231182746817, -0.01550484124364214, 1.0881397690395482, 0.7113005126378232, 0.547237443077252], [-1.5551415683818364, -1.1722661179960365, 1.1029265931904657, 1.7789106367196421, -1.4036175761360292, 0.005687163167825443], [-0.13770803657140535, 1.0346707751047055, 0.911525990016555, -0.706985353609614, -1.3628767218973827, 1.7403475167791607]], "biases": [[0.19939469454915454, 0.0006309093435276115, -0.35601065978560464, -0.05170618993845063, -0.383738597267504, 0.09125132772713399]]}, "layer2": {"weights": [[-0.8871154198589769, -0.2790864208374461, 0.30643034359059407, 0.42243787487335993, 0.4970353486232596, -0.08670988253976449], [-1.871447850808857, 0.5768343773193824, 0.6488285537891084, 0.06153114896510935, -2.5611872925656947, -0.6879530584020765], [1.3750864767459023, 0.9024263304334856, -0.29298697073602803, -0.6212665875617438, -0.08899522045937676, -0.7472686604003895], [0.5051282879666956, -2.5972306361096007, 0.026872000937815638, -0.4954312939663843, 2.1987942620051655, 0.4823429407023306], [-0.6382611750644768, -1.7011340028090034, -0.6932869153938481, -0.15849541982034368, 0.35656951321007924, 2.116624797140235], [0.13671699332368203, -1.5018783575829056, 2.395317422621612, 0.30175920544952267, -0.7522557926724223, -0.34695831605648253]], "biases": [[0.05796429047710557, 0.018878587693522353, 0.442321188207506, 0.17479307899007113, -0.014931017781459726, 0.34760761337514234]]}, "layer3": {"weights": [[0.5632359376482301, 1.0179502713631798, -0.9051167793389312], [1.1227503389607518, -0.9606916535257166, 1.922177544426323], [1.5166454285437552, 0.6532045232626411, -0.26656979980571094], [0.2137817066491719, -3.6658423193594243, 1.2216290967972823], [-1.1232877820973153, 0.28686348053113886, 2.0950623000384487], [-1.3419141197904043, -1.4765861700717327, -1.1676740976459785]], "biases": [[-0.18688343647381572, -0.3184338063548725, -0.014029518972377496]]}}, {"layer1": {"weights": [[-0.09560801767583338, 0.5669983304188739, 1.0951670886428149, 1.1200300581051676, -1.2390095002817945, -0.16172965255936936], [-0.2346179045306694, 1.383365759081128, -0.9210695054383629, 1.4857672733887652, -2.2043649424531337, 1.25908725706137], [-1.832850589159832, -0.9114546295567207, -0.017674608161946978, 1.086614891779944, 0.7598957653119234, 0.5472326596397576], [-1.5724927374719417, -1.1688610060410065, 1.1176606629472596, 1.7789512966079597, -1.232006820658855, 0.005689945915625638], [-0.24501466984431539, 1.0139968336386318, 0.9135174617854285, -0.7117559876052961, -1.4552677621358068, 1.7747206223005016]], "biases": [[0.19881646678914783, 0.005215122418800146, -0.3560327038970168, -0.049842089704604846, -0.31837851603427036, 0.09117938972699785]]}, "layer2": {"weights": [[-1.0202407625268957, -0.38813429228528873, 0.28959698485710306, 0.4822632949342833, 0.370963144496253, -0.08559359602208523], [-1.8902126600359397, 0.4644414030661805, 0.6678362249076106, 0.05767692830769033, -2.627149564553598, -0.6882445956632521], [1.3871430476671331, 0.9091098720118764, -0.29427490922442234, -0.5998063093148347, -0.08988961370084897, -0.6207454174423096], [0.5050720649614648, -2.690302166557575, 0.019983380518706247, -0.5249662719067464, 2.1989662399346934, 0.4946761117909656], [-0.701642837303154, -1.7227483534688757, -0.6291098808795079, -0.18098304581800873, 0.3928558575720146, 2.1001901245468604], [0.13657262707833884, -1.4933487499231366, 2.395192219897736, 0.2950472732249998, -0.7522642255708487, -0.33978353639364234]], "biases": [[0.06231727268336809, 0.04157703318518381, 0.4428491092907201, 0.17793902381895307, -0.015953141657520833, 0.3475428814718906]]}, "layer3": {"weights": [[0.5737890954204392, 0.9460295890647124, -0.9045909032656635], [1.119862913983578, -0.9490857288988368, 1.8943620027245855], [1.4811824820568535, 0.6524374318839246, -0.2905807395742388], [0.21554552304807648, -3.601520218180284, 1.23108500023219], [-1.0828771641836101, 0.3036515363679929, 2.1034749458587125], [-1.2926908502922203, -1.4821638214205421, -1.303723810958097]], "biases": [[-0.18696636606704267, -0.3185739543735585, -0.012305463400562457]]}}, {"layer1": {"weights": [[-0.09496497131788095, 0.564127900857924, 1.0950395126490766, 1.1249568526085354, -1.148639746386812, -0.16672121788765357], [-0.21549432067014662, 1.3751557507895793, -1.0649170443106355, 1.4567070757744602, -2.192454280684429, 1.2597326133887279], [-1.8327252417138833, -0.9071231182746817, -0.01550484124364214, 1.0881397690395482, 0.7113005126378232, 0.547237443077252], [-1.5551415683818364, -1.1722661179960365, 1.1029265931904657, 1.7789106367196421, -1.4036175761360292, 0.005687163167825443], [-0.12997629398464267, 1.0346707751047055, 0.911525990016555, -0.7504339370119028, -1.3628767218973827, 1.7403475167791607]], "biases": [[0.19939469454915454, 0.0006309093435276115, -0.35601065978560464, -0.05170618993845063, -0.383738597267504, 0.09125132772713399]]}, "layer2": {"weights": [[-0.8979305209771952, -0.2790864208374461, 0.2916385894258089, 0.42243787487335993, 0.4970353486232596, -0.08670988253976449], [-1.871447850808857, 0.5768343773193824, 0.6488285537891084, 0.06153114896510935, -2.5611872925656947, -0.6879530584020765], [1.343576259414612, 0.9024263304334856, -0.29298697073602803, -0.6212665875617438, -0.08899522045937676, -0.7525660738837916], [0.5051282879666956, -2.5972306361096007, 0.026872000937815638, -0.4954312939663843, 2.1987942620051655, 0.4823429407023306], [-0.6382611750644768, -1.7011340028090034, -0.6713848638106756, -0.15849541982034368, 0.35656951321007924, 2.116624797140235], [0.13671699332368203, -1.5018783575829056, 2.395317422621612, 0.30175920544952267, -0.7522557926724223, -0.34695831605648253]], "biases": [[0.05796429047710557, 0.018878587693522353, 0.442321188207506, 0.17479307899007113, -0.014931017781459726, 0.34760761337514234]]}, "layer3": {"weights": [[0.6307676514960758, 1.0179502713631798, -0.913695431023925], [1.1227503389607518, -0.9606916535257166, 1.922177544426323], [1.5166454285437552, 0.6532045232626411, -0.26656979980571094], [0.2137817066491719, -3.6658423193594243, 1.2216290967972823], [-1.1232877820973153, 0.28686348053113886, 2.0950623000384487], [-1.3419141197904043, -1.4765861700717327, -1.1676740976459785]], "biases": [[-0.18688343647381572, -0.3184338063548725, -0.014029518972377496]]}}, {"layer1": {"weights": [[-0.09475653268909834, 0.5637734165917508, 1.0950178594226958, 1.125660656886906, -1.122453436178076, -0.17030586079877105], [-0.28437966948969273, 1.3735007270905872, -1.082880826448857, 1.4439460898678214, -2.191530369914121, 1.2581627433829965], [-1.8326635696926303, -0.8984911205341061, -0.015600762673890586, 1.0886631525995871, 0.7381514691222464, 0.5472392331524634], [-1.5438242106801197, -1.1730423189368167, 1.100796737738678, 1.7788917072124577, -1.3305932622236174, -0.00708039446188009], [-0.21513002970903408, 1.122666703492357, 0.910808339410073, -0.705943045563733, -1.3376156005760431, 1.7368729668713367]], "biases": [[0.19957220270061582, 0.0021206314786609147, -0.3560022632554245, -0.05234677044390699, -0.3945685739180253, 0.0912762699416042]]}, "layer2": {"weights": [[-0.8702428449375063, -0.24182428459766495, 0.2988071112192454, 0.41628026082238256, 0.5427417376234424, -0.10399069249904783], [-1.8874734824059805, 0.5792154742426511, 0.6447295344389429, 0.0629880016449455, -2.6793026907218653, -0.6880272678266539], [1.3810628260962345, 0.9229009260977572, -0.29641960632727976, -0.628380754870653, -0.08924401374590782, -0.8025588639871817], [0.5051486439718833, -2.656673891733572, 0.03117281112309099, -0.49843225612889924, 2.1987596386529615, 0.4793446565972981], [-0.6866671886050009, -1.684811777648443, -0.6775466329163855, -0.18875010151596894, 0.33857773193531904, 2.102946725191601], [0.13315967328821587, -1.5116575397899916, 2.3953799403664453, 0.3049931713784454, -0.7563537657056504, -0.31165104217754336]], "biases": [[0.051600444871303844, 0.015458327497028152, 0.4420663949665706, 0.172820319258135, -0.01472659359703041, 0.3476319427992596]]}, "layer3": {"weights": [[0.6422213824717752, 1.0287745463159217, -0.9060723837934603], [1.1239946258388198, -0.9407085646034941, 1.9289202478652419], [1.521618391206747, 0.6509446463144241, -0.2749700279291236], [0.21323761502874972, -3.629455524213087, 1.1940994329946932], [-1.1393649439230602, 0.2845671278406567, 2.0939756995367036], [-1.3463599490563798, -1.4758304355223963, -1.1414434958680868]], "biases": [[-0.18685750100448423, -0.31373417056043296, -0.014555314345323912]]}}]