[{"layer1": {"weights": [[-0.24064888342591517, 0.29405964568222004, 0.8265406414459268, 1.2526376067889555, -0.9661778392877213, -0.40611824584457834], [-0.20144819476945397, 0.8429332641415722, -0.9138555811871996, 1.8304200882467994, -1.7075372242112583, 1.7004814728684505], [-0.9801376270957295, -0.5035985651414051, -0.2511830649310371, 1.1878035733693568, 0.4960310422726002, 0.7981723196964893], [-1.660248368436307, -1.1069871411621843, 0.7161337006757211, 1.7644471460802502, -1.303667126906058, -0.39162069194890925], [0.39764477046432456, 1.4607145021202887, 0.504107748308636, -0.40463925854684274, -1.329430446978931, 1.6017286982494396]], "biases": [[0.18906087250232803, -0.12456586048416415, -0.22284167097414045, -0.25172439769455646, -0.009494960289485745, -0.09751837448199593]]}, "layer2": {"weights": [[-0.5548304653404443, -0.6623288868080836, 1.5365481506478684, 0.6012334223527063, 0.16359978660276697, -0.510661347225264], [-1.999225337566915, 0.6251154696563772, 0.4256088051390769, 0.22195776232503966, -1.7965913808631904, -0.7514749873216918], [1.375981128776293, 0.4990151778292977, 0.06851553552492531, -0.22632460818766584, 0.12015795824653203, -0.6493806751653863], [0.7192251157791094, -2.212772399634729, -0.3640636684447509, -0.23001500932745386, 1.9134931600171097, -0.6921842800205604], [-0.8314238664653152, -1.2699387325645888, -0.16257524308885088, 0.353395109837881, -0.1763919339217443, 1.7002103808315951], [-0.014424938242617218, -1.5722789985730818, 2.2819955931325566, -0.0407764274786557, -0.372918933169167, -1.2716320392175908]], "biases": [[0.16908218995779462, 0.010797737290603494, 0.13002298300764015, -0.02324486569656445, -0.028663133035962372, 0.20978252795478353]]}, "layer3": {"weights": [[0.9657503843983342, 0.9020701162943628, -1.0999425630891362], [0.8932592559398989, -0.6526705728098477, 1.2193076496470687], [1.183580628038997, 1.0824287392286709, -0.3695436535550643], [0.08956243308432563, -3.086969376960968, 0.9269682726485448], [-1.3854774274396484, 0.384642434564623, 1.9918419760366637], [-0.8403394327499056, -1.0616202687630532, -1.1042593110413597]], "biases": [[-0.18735977556845446, -0.21091130723288837, -0.10593323193829084]]}}, {"layer1": {"weights": [[-0.23900012923465574, 0.2832079760488324, 0.6204300303490392, 1.202952352552038, -0.9659688612269031, -0.4061184485522426], [-0.20327784282705696, 0.8271941434937744, -0.9076591176087077, 1.830816595899161, -1.7438407379388485, 1.700727267785892], [-0.8082933160214145, -0.48383332931206524, -0.1218167221815491, 1.1875826675817511, 0.4939438320843518, 0.7976892275509807], [-1.6408703935984796, -1.114381504831269, 0.7116953673377537, 1.7645836334118172, -1.3039722301729133, -0.38378750603387346], [0.3731892341413639, 1.4606448493279083, 0.49715181716455886, -0.40846183509321154, -1.3772757514398293, 1.6036629818588233]], "biases": [[0.18865066288130944, -0.1255065189722407, -0.22141050567641585, -0.24082605313149574, -0.0031816592447436237, -0.09738030330947553]]}, "layer2": {"weights": [[-0.7145055213477242, -0.6018392095901279, 1.5058159326738019, 0.5976096878994409, 0.19646847940964368, -0.5104055652806376], [-2.0185335067865355, 0.624915654794594, 0.42318303247510447, 0.22210241827782679, -1.6918286210479037, -0.7831625124506134], [1.3682395974328174, 0.4982636199610384, 0.06638544672367222, -0.197714100784385, 0.17680723740081739, -0.6480999099603976], [0.7192243755786787, -2.215404473572017, -0.3541073561090404, -0.2057515404683123, 1.9163358322240955, -0.6728309002289046], [-0.8344731574042334, -1.270300463974232, -0.18107683061589205, 0.3316076196329103, -0.17517250231663767, 1.7070513068864848], [-0.013992571884310374, -1.5697306007325773, 2.2579987214945385, 0.016585717545914914, -0.317916106525054, -1.3292528275108606]], "biases": [[0.14508765945727287, 0.011053174581343018, 0.14285883187701126, -0.0734294339973013, -0.028654862058349516, 0.2091768583836324]]}, "layer3": {"weights": [[1.0111549162039246, 0.952791210552367, -1.1209860824726883], [0.8952649890616188, -0.7023659831444742, 1.2466660815495525], [1.2908468910354682, 1.1330006049823451, -0.37419320533180755], [0.1037326110137956, -3.065694939453722, 0.9797159718927649], [-1.3888278830097804, 0.38481859158005033, 1.9917690910260109], [-0.7902194072386536, -1.1176855506064833, -1.108960665212991]], "biases": [[-0.2217416923645211, -0.23174992578010623, -0.10602099025122327]]}}, {"layer1": {"weights": [[-0.23900012923465574, 0.2832079760488324, 0.7877534504591368, 1.3575118330257805, -0.9659688612269031, -0.4061184485522426], [-0.20327784282705696, 0.8599197815867291, -0.9076591176087077, 1.830816595899161, -1.6779054888560738, 1.700727267785892], [-0.9113619543696583, -0.5036732702266373, -0.21103486314440784, 1.187582667581751, 0.4939438320843518, 0.7976892275509808], [-1.6612022275594636, -1.114381504831269, 0.7116953673377537, 1.7570086819164192, -1.3039722301729133, -0.3985890049772915], [0.40101626171941585, 1.4606448493279083, 0.49715181716455886, -0.39567745010126043, -1.2892286388486103, 1.5828855296335536]], "biases": [[0.18865066288130944, -0.1255065189722407, -0.22141050567641585, -0.24082605313149574, -0.009357467643614573, -0.09738030330947554]]}, "layer2": {"weights": [[-0.7253470052329359, -0.6018392095901279, 1.5698451110570601, 0.590587537328354, 0.16280385733398445, -0.5104055652806376], [-1.9994271130628736, 0.5635052310470896, 0.43325146764294276, 0.22210241827782679, -1.6935318200557945, -0.7831625124506135], [1.3742926684934538, 0.4982636199610384, 0.06638544672367222, -0.25375535676964833, 0.12605249049803374, -0.6480999099603976], [0.7192243755786787, -2.215404473572017, -0.37390614543052647, -0.26268359051191653, 1.910650486903696, -0.7593291069576179], [-0.8344731574042334, -1.270300463974232, -0.18107683061589205, 0.3769134127382694, -0.17517250231663764, 1.7070513068864845], [-0.015507083712962685, -1.5697306007325773, 2.281907220066238, -0.097885777749753, -0.4279242766115742, -1.3292528275108606]], "biases": [[0.1450876594572729, 0.010344628554149802, 0.1171065510327739, -0.022933602376889253, -0.028654862058349516, 0.2091768583836324]]}, "layer3": {"weights": [[0.968503635189987, 0.8511909696312928, -1.1209860824726885], [0.8154286734418562, -0.6536939262050824, 1.1917313837687797], [1.1910521341730824, 1.1330006049823451, -0.3741932053318075], [0.07595518667622582, -3.065694939453722, 0.926950600304616], [-1.424283555536523, 0.38481859158005033, 1.9917690910260109], [-0.8928900579030282, -1.000719298039661, -1.108960665212991]], "biases": [[-0.18722639429176685, -0.20860689513591069, -0.10602099025122327]]}}, {"layer1": {"weights": [[-0.23900012923465574, 0.33400121322794224, 0.7877534504591368, 1.202952352552038, -0.9659688612269031, -0.4061184485522426], [-0.20327784282705696, 0.8271941434937744, -0.9076591176087077, 1.876667413383144, -1.7438407379388485, 1.700727267785892], [-0.8082933160214145, -0.48383332931206524, -0.28068371829871874, 1.1875826675817511, 0.4939438320843518, 0.7976892275509807], [-1.6408703935984796, -1.114381504831269, 0.7116953673377537, 1.7621847114646327, -1.4083165682871293, -0.38378750603387346], [0.3731892341413639, 1.4606448493279083, 0.49715181716455886, -0.5196239019810885, -1.3680698272022709, 1.6036629818588233]], "biases": [[0.18865066288130944, -0.1255065189722407, -0.22141050567641585, -0.24082605313149574, -0.0031816592447436237, -0.09738030330947553]]}, "layer2": {"weights": [[-0.725347005232936, -0.6018392095901279, 1.5058159326738019, 0.5976096878994409, 0.19646847940964368, -0.5104055652806376], [-2.036291293256755, 0.624915654794594, 0.5077749760256425, 0.22210241827782679, -1.6918286210479037, -0.7403810833243285], [1.3682395974328174, 0.4982636199610384, 0.06638544672367222, -0.197714100784385, 0.17680723740081739, -0.6480999099603976], [0.7192243755786787, -2.215404473572017, -0.3541073561090404, -0.2057515404683123, 1.9163358322240955, -0.6128798654926955], [-0.708649018654018, -1.270300463974232, -0.18107683061589205, 0.3316076196329103, -0.17517250231663767, 1.7070513068864848], [-0.013992571884310374, -1.5697306007325773, 2.281907220066238, 0.016585717545914914, -0.317916106525054, -1.3292528275108606]], "biases": [[0.14508765945727287, 0.011053174581343018, 0.14285883187701126, -0.022933602376889253, -0.028654862058349516, 0.2060048168423448]]}, "layer3": {"weights": [[1.0111549162039246, 0.952791210552367, -1.1209860824726883], [0.8154286734418562, -0.6536939262050824, 1.2466660815495525], [1.1696486191689488, 1.1330006049823451, -0.37419320533180755], [0.21692538513639192, -3.065694939453722, 0.9622819629491557], [-1.3888278830097804, 0.38481859158005033, 1.9917690910260109], [-0.7902194072386536, -1.1866920951136188, -1.108960665212991]], "biases": [[-0.2217416923645211, -0.23174992578010623, -0.10602099025122327]]}}, {"layer1": {"weights": [[-0.23961017964973425, 0.2892999734604587, 0.7854851011476822, 1.1835438990601315, -0.9410042938577166, -0.40611778334058307], [-0.19778001240199328, 0.825200655367297, -0.9217453867140739, 1.7871559072045355, -1.7370320764612033, 1.699849323849962], [-0.8282328669087244, -0.503465770724792, -0.27983472519980024, 1.1882452390281215, 0.5000467690570501, 0.7989615364364289], [-1.657756132404041, -1.2668290054133426, 0.7249745965546864, 1.7753755368390007, -1.3055727665391617, -0.38588584862283914], [0.37288023274563664, 1.4608113772901548, 0.4618560813080936, -0.41350832264088816, -1.3708994948452955, 1.6238524295642531]], "biases": [[0.19015431415133677, -0.12268406198532773, -0.2242110081906413, -0.24635419242279818, -0.0037913456790592305, -0.09786716977057328]]}, "layer2": {"weights": [[-0.639918309929697, -0.6320860360663717, 1.504695546703612, 0.6016345288063749, 0.25090456701850433, -0.42896618593998326], [-1.9985112411112558, 0.7177820288385154, 0.42190029708094173, 0.22160559022494106, -1.7762881576836742, -0.7728915791494304], [1.3816854709547746, 0.43555467616346566, 0.06149910273181422, -0.20206805833203306, 0.18675003913727936, -0.6519995394222777], [0.7192268538897715, -2.209543516602036, -0.3542871946067471, -0.1937031439173439, 1.9163358337117464, -0.6308633111129298], [-0.8305211394364778, -1.2689749242610335, -0.19954114945680007, 0.3292720153842527, -0.17060921373840288, 1.7008653733572754], [-0.013017825785385965, -1.5775488039593046, 2.2821850410408233, 0.016087513767312742, -0.3179119762235672, -1.3342261521842804]], "biases": [[0.1410050097444429, -0.03389952723002987, 0.1429406662903092, -0.02385775825729567, -0.028682002920610166, 0.21094533247349537]]}, "layer3": {"weights": [[0.8971143964356979, 0.953070000693919, -1.1104924579081539], [0.8104515954655825, -0.650626682813727, 1.2489085897224403], [1.1718197482545158, 1.1328192901831022, -0.36019858085197265], [0.10317931916836606, -3.264045127203234, 0.9623399959133994], [-1.3220974212156635, 0.38429038913028235, 1.991987677763344], [-0.7857671936697683, -1.0834967952001073, -1.071019417884843]], "biases": [[-0.22184266940607358, -0.21289654664874053, -0.12707549309074284]]}}]