[{"layer1": {"weights": [[-0.014544867879963588, 0.5012329548518417, 1.0096458482766177, 1.203130082055876, -0.8521922771693073, -0.29752945658761176], [0.01726395764448578, 1.2333008687500218, -1.1918892840943642, 1.4221789803507694, -2.151994594600482, 1.662217300355477], [-1.1737408359442427, -0.6637232680755752, -0.07854178200522194, 1.3093493827539509, 0.5337681934457403, 0.7981743351709994], [-1.436957443746885, -1.238270743524889, 0.9805568228187682, 1.6112504746435117, -1.2375897702746224, -0.2565580611213975], [0.5143671109924668, 1.0425547987201562, 1.0780200056439142, -0.7499545385627899, -1.5973719390409435, 1.8577508204928117]], "biases": [[0.22865961645350852, 0.10784402515784142, -0.27970734176659795, -0.2481894871287135, -0.0843359586342069, -0.08196179159546836]]}, "layer2": {"weights": [[-1.055107471374943, -0.33528104741268255, 0.7317545655026121, 1.0168756173631832, 0.2641711596699794, -0.3342728459867247], [-1.9453023992304106, 0.39910246639819663, 0.3849710835652947, 0.6295514369374168, -2.160088996481904, -0.7999561741169684], [1.237483739737469, 0.30689008001262374, -0.1867727275797814, -0.5271168051963679, 0.1920281547098721, -0.741730755159827], [0.6331632614916645, -2.244607962235712, -0.16657057281455862, -0.44157428602713295, 2.2401058910940668, -1.0309021361223065], [-1.0956337472375097, -1.2477156244352734, -0.45921976100158957, 0.006089114469653822, 0.28967179831935164, 1.7237180664188045], [-0.09506903616876317, -1.6418251701782842, 2.253362752589289, 0.4304956372410919, -0.4216884386563069, -0.9206305177191183]], "biases": [[0.12626799890914467, 0.06417128436091998, 0.246250214541317, -0.12046521651009617, -0.09575642000607569, 0.07635998638068422]]}, "layer3": {"weights": [[0.43768072658560975, 0.8867800743215338, -1.0651023690010402], [1.204307473932362, -0.3360446637799271, 1.8332540136976552], [1.284249715763011, 0.9619960158540888, -0.377049252528547], [0.22865473315036636, -2.761629096212441, 0.9124164905068838], [-1.5210964404627818, 0.4132353013425246, 2.0825887348286036], [-1.294001111642418, -1.5195462328377678, -1.1681246127021656]], "biases": [[-0.09327970231621122, -0.17720864654567609, -0.23168905700840464]]}}, {"layer1": {"weights": [[-0.023296981100719677, 0.5042573768488043, 1.0102215576205729, 1.2035658863114675, -0.8549515137576105, -0.2975302828600732], [0.016575725655490654, 1.232351617336116, -1.095236671091518, 1.419122190550684, -2.14141536710156, 1.5909356227542653], [-1.1732982948321324, -0.7029195486532434, -0.07401825562957993, 1.3087879434508363, 0.5266143448232815, 0.79817438154631], [-1.4645556518757494, -1.1806735346568167, 0.9791255041584734, 1.6238803442485565, -1.2409406149716316, -0.256559927898944], [0.5166234234423179, 1.0422240784580203, 1.0132913610062113, -0.7396584774147424, -1.5966875188639849, 1.8679857678861511]], "biases": [[0.2284163352203975, 0.10607734038897157, -0.27979449582544486, -0.25092992051280816, -0.0852474718925295, -0.08197981968719556]]}, "layer2": {"weights": [[-1.0226445088528058, -0.48626983765101495, 0.7309785450505407, 0.8379513485468532, 0.1883752261016476, -0.3480045992762161], [-1.9467077197736438, 0.4217723623273075, 0.37556219517231204, 0.5238961922289148, -2.227680070136212, -0.7324077360931235], [1.2448952757270417, 0.3179764702546911, -0.18718988914567847, -0.5304112101308984, 0.19587525678817952, -0.7589908185770777], [0.6320882334032123, -2.2403789866599038, -0.1667190507499003, -0.44181700369939514, 2.2401056161409434, -1.0277822257281002], [-1.1169668801080124, -1.2767112811231816, -0.45689806401220556, 0.1950798258485284, 0.29647178766007654, 1.7241447550598634], [-0.10522021534648479, -1.6527311096796466, 2.253304720166698, 0.43713909703689163, -0.4221804812883394, -0.9208255697008016]], "biases": [[0.11595728634210993, 0.06066492117686691, 0.2459266125755621, -0.12047096602803209, -0.07545592975651966, 0.07634812005877822]]}, "layer3": {"weights": [[0.4241684765146533, 0.8927127606366483, -1.0691812234322988], [1.1943718895710278, -0.3368292929665475, 1.8228012147827002], [1.3825531125192965, 0.9619098134746791, -0.37704882985313715], [0.22578594108096556, -2.752992271986873, 0.9174201878952075], [-1.5172775917709223, 0.4132394180439054, 2.0826000152266024], [-1.2787113369103582, -1.562573856280347, -1.1433515744515828]], "biases": [[-0.09550676978498912, -0.17075903176052937, -0.23584170123558493]]}}, {"layer1": {"weights": [[-0.029394362321370222, 0.7292803089978287, 1.0104974183478848, 1.2037747091839386, -0.9150095208618306, -0.29753067878229433], [0.016130634515320985, 1.231896767700286, -1.1872496544195141, 1.4158348747018623, -2.1368406156034165, 1.663726971915408], [-1.2157485727121367, -0.7029302459353418, -0.07175741769994601, 1.3085189204514271, 0.5254769596495357, 0.798174403767813], [-1.4865903563381622, -1.2135264388020452, 0.9655668045712901, 1.6236697009223633, -1.2896447515749259, -0.25656082239651834], [0.5214662028355223, 1.0420560471118783, 1.0780275647627873, -0.7199607543490354, -1.5964005232233864, 1.849388284915721]], "biases": [[0.22829976296286514, 0.10532649761120896, -0.2798387868446949, -0.25640269187664666, -0.08406172439970319, -0.08198845814781484]]}, "layer2": {"weights": [[-1.005218919981356, -0.2093390043175163, 0.7302192529054836, 1.019952916790378, 0.23292091627742428, -0.36139119813019305], [-1.9485840406459705, 0.4288412338296901, 0.36806164428550653, 0.626499763449894, -2.1614819768494318, -0.7239442321694112], [1.2446390240532903, 0.4120015575089103, -0.18738977906267082, -0.531714266500684, 0.1977992784959566, -0.769994891254916], [0.6299894636742188, -2.1986189040419095, -0.1667901964272515, -0.44193330591735414, 2.240105484392572, -0.9841191476296905], [-1.0695211695189624, -1.2426846529993254, -0.4558391349773444, 0.19386858548535366, 0.31124350789485467, 1.720568046536775], [-0.10522895562419585, -1.6541914419858266, 2.253276912964206, 0.4305061565924563, -0.42241625171618835, -0.9212911446638714]], "biases": [[0.11595680181521686, 0.05906747778579342, 0.21935900933151417, -0.12047372100537637, -0.08643723249994838, 0.07634243411286493]]}, "layer3": {"weights": [[0.38525137063086373, 0.8956991921760659, -1.0773242824384963], [1.1843418851292284, -0.3372052611184698, 1.8225855267874422], [1.2308933961874136, 0.9618708288321853, -0.37704862732116995], [0.22320471430720826, -2.748853793712122, 0.9277291198876687], [-1.4927994838378065, 0.4132413906299837, 2.08260542041731], [-1.2507760779175328, -1.6065847465342924, -1.1430243762649939]], "biases": [[-0.09775028182816528, -0.1578575557044391, -0.2316894020223922]]}}, {"layer1": {"weights": [[-0.021969615100666903, 0.502704307032344, 1.010071633312251, 1.2034523956199072, -0.8539358261548841, -0.29753006768495305], [0.016697296079903383, 1.195140872747999, -1.1895694692569392, 1.4190069275263157, -2.1444176051019492, 1.6629721361354424], [-1.1947447043281898, -0.6118921856435371, -0.07514959985258396, 1.3089341516026889, 0.5296225765476381, 0.7981743694694062], [-1.4756776895841157, -1.2258985911634672, 0.9730618136950291, 1.6174600877829373, -1.2636172609247742, -0.25655944175895795], [0.5179166569139945, 1.0423054229160171, 1.0780237852033507, -0.7349576464559127, -1.596886231132165, 1.8535695527042664]], "biases": [[0.22847968970818683, 0.05030024661836753, -0.2797730643056464, -0.2522960895026801, -0.08419884151695506, -0.0819751248716416]]}, "layer2": {"weights": [[-1.0301631956781494, -0.3204397295004816, 0.7309869092040477, 1.0184142670767806, 0.18473793683066966, -0.34783202205845887], [-1.9469432199381904, 0.4502177028453055, 0.3765163639254006, 0.6280256001936554, -2.160785486665668, -0.7601491927780051], [1.2410613818953795, 0.3381810954277323, -0.1870812533212261, -0.529415535848526, 0.19491371660291434, -0.7572783356622237], [0.6315763625829416, -2.2216134331388107, -0.16668038462090506, -0.4417537959722435, 2.2401056877433194, -1.0075106418759985], [-1.0825774583782362, -1.2452001387172995, -0.457529447989467, 0.19601223942941273, 0.30045765310710315, 1.7221430564777898], [-0.10521546519555486, -1.6480083060820556, 2.2533198327767474, 0.4305008969167741, -0.4220523451862476, -0.9209608311914949]], "biases": [[0.11595754967194313, 0.061619381073356704, 0.2474096095106527, -0.12046946875773627, -0.09109682625301203, 0.07635121024677458]]}, "layer3": {"weights": [[0.41146604860823677, 0.8912396332487998, -1.0712133257197682], [1.2311211763276408, -0.33662496244919843, 1.8279197702425487], [1.2575715559752123, 0.9619334223431371, -0.37704893992485844], [0.2259297237287873, -2.755241444962281, 0.9200728051972763], [-1.5069479621502944, 0.41323834598625414, 2.0825970776229568], [-1.2723885947799753, -1.609338422803027, -1.1555744944835797]], "biases": [[-0.09551499207218825, -0.1675331011250576, -0.23168922951539844]]}}, {"layer1": {"weights": [[-0.005792754659207497, 0.49820853285487904, 1.0090701389326624, 1.2026942778002843, -0.8494330405810043, -0.29752863031515037], [0.017952189633480907, 1.2342501201639275, -1.1934698170438232, 1.425235770150855, -2.1625738220994037, 1.588894376701401], [-1.1741833770563532, -0.6245269874979071, -0.08306530838086393, 1.3099108220570654, 0.5409220420681993, 0.7981742887956889], [-1.4580869343434162, -1.1700627282128173, 0.981988141479063, 1.5986206050384666, -1.2342389255776132, -0.256556194343851], [0.5121107985426155, 1.0428855189822919, 1.0780148952536899, -0.7602505997108373, -1.5980563592179025, 1.8757416961744666]], "biases": [[0.22890289768661953, 0.10961070992671126, -0.279620187707751, -0.24544905374461884, -0.0834244453758843, -0.08194376350374116]]}, "layer2": {"weights": [[-1.0573713987691993, -0.349821643543771, 0.7325305859546833, 1.06312837258631, 0.24693444744832826, -0.3205410926972333], [-1.9438970786871774, 0.37643257046908574, 0.39437997195827734, 0.6310756275697271, -2.22579660372378, -0.7135494082732898], [1.2300722037478962, 0.2786451497157823, -0.1863555660138843, -0.5238224002618375, 0.1881810526315647, -0.7511143229224004], [0.6342382895801166, -2.259938568975582, -0.16642209487921694, -0.44133156835487075, 2.24010616604719, -1.034022046516513], [-1.074300614367007, -1.2835025345487567, -0.46154145799097357, 0.20123196089841522, 0.28287180897862674, 1.7232913777777457], [-0.10518373418734298, -1.6309192306769218, 2.2534207850118806, 0.43048852556693007, -0.4211963960242744, -0.920435465737435]], "biases": [[0.11595930871522886, 0.06767764754497307, 0.24657381650707189, -0.12045946699216026, -0.08786657397947054, 0.07637185270259024]]}, "layer3": {"weights": [[0.45119297665656627, 0.8808473880064194, -1.0610235145697815], [1.2142430582936963, -0.33526003459330667, 1.8437068126126104], [1.3812018646746589, 0.9620822182334984, -0.3770496752039568], [0.23152352521976716, -2.7702659204380087, 0.90741279311856], [-1.5249152891546416, 0.4132311846411438, 2.082577454430605], [-1.3092908863744777, -1.5699169671100202, -1.1928976509527485]], "biases": [[-0.0910526348474333, -0.18365826133082278, -0.22753641278122438]]}}]