[{"layer1": {"weights": [[-0.04596421502422345, 0.357874528847746, 1.0584469993086274, 1.1201080825009004, -1.0093102114336778, -0.34149066273634976], [-0.14991016071540358, 1.0842386173957792, -0.7434272304199678, 1.4229024079603287, -1.8054830873388013, 1.5190429747433742], [-1.208942953998797, -0.4114160111320762, -0.19510662395547884, 1.3458839085101761, 0.5686670292256418, 0.7915382691465945], [-1.4615488503770024, -0.9155109750492436, 0.8764892209378687, 1.5818071470013986, -1.3382823004240376, -0.31840123121751496], [0.5737812656185672, 1.1229844110502025, 0.826167183960852, -0.6671989751719523, -1.6105393800157444, 1.6835088996011338]], "biases": [[0.23071547948391963, -0.08108063148903069, -0.2904844211457758, -0.276911361992808, -0.1597811212582246, -0.10202165022479723]]}, "layer2": {"weights": [[-0.8415468088196039, -0.6180271866629572, 1.1211601450080508, 0.8849224478677895, 0.12366536958380901, -0.33455067717991266], [-2.1172723174877275, 0.2797698246470406, 0.47216142787683174, 0.6499566583715382, -1.9683205614368675, -0.4090404935536548], [1.2768026702211133, 0.34953045246741354, -0.17920968798861514, -0.3317108001705076, 0.2820860606000394, -0.7669386054960097], [0.7149154240333631, -2.0677672110640737, -0.2638665886483406, -0.4586756162228907, 2.1903212948251762, -0.8913789359626176], [-1.1305907567144238, -1.6163388311666238, -0.19727681450577894, 0.17529730480340433, -0.19590309298232064, 1.6221965373111877], [0.002823424188018807, -1.5840151037017518, 2.2632147830042477, 0.3195747704307912, -0.4554831160989401, -1.2839088763895856]], "biases": [[0.13023682973439227, -0.020306012895066, 0.2707338961503031, 0.008226826705108516, -0.16469984284643888, 0.10343440741409281]]}, "layer3": {"weights": [[0.6348024001112873, 0.8694249380593475, -1.1518237358823666], [1.3284989520232724, -0.38848117556818185, 1.5766345773450428], [1.5123053519713021, 0.899944832156599, -0.3948005995544466], [0.29588883480935957, -3.0184347245901177, 0.9824765217215197], [-1.406543953554186, 0.371363826464832, 2.0371948102544053], [-1.0671572481853235, -1.5741676114646008, -1.1264073632695109]], "biases": [[-0.24025482147309224, -0.18405894529039385, -0.20433701510883773]]}}, {"layer1": {"weights": [[-0.06092018004296815, 0.3616546196139777, 1.0582345612953865, 1.1201077516458064, -1.0032327155930847, -0.3424133959997632], [-0.15577916613622417, 0.9824758273857762, -0.7641311337292142, 1.4640152936366977, -1.8172065552020407, 1.5190950143296689], [-1.2178916902849029, -0.4114774811306191, -0.19652611686252613, 1.3458909874540173, 0.605739788269454, 0.7916528364859032], [-1.4615318313234114, -0.9133605314016477, 0.876481925812961, 1.5844530058614823, -1.3421249028548152, -0.3184340147394486], [0.5899681666242989, 1.1491332160439531, 0.8318518451353971, -0.7675706978668035, -1.6146840646975287, 1.6853972067311676]], "biases": [[0.23191078595223522, -0.0792785659031035, -0.29047539795780297, -0.2744583811422331, -0.1487762731761689, -0.14338495672103896]]}, "layer2": {"weights": [[-0.8401411795523199, -0.6179883038545418, 1.1042548359624678, 0.8890712549601967, 0.12081846172723615, -0.1644202229073851], [-2.1172701907122704, 0.276894963220905, 0.5044694911193266, 0.669340848186725, -1.9685251707234044, -0.43860624864454273], [1.2911746899152852, 0.35171773982227095, -0.18976280228862244, -0.3328021070952709, 0.27967045276443586, -0.767193272370019], [0.7148766582631642, -2.0665038779493425, -0.2670089245645719, -0.4590870700407137, 2.19374629871601, -0.8922849525654892], [-1.1273582124215116, -1.6173225784985963, -0.1934010895447312, 0.1767438578801659, -0.1820463486038682, 1.6217658342466126], [0.00033082447065073796, -1.6630452977079953, 2.264414065209525, 0.3203759046138246, -0.4578404740230992, -1.2481341347436834]], "biases": [[0.1302480954040071, -0.02146620161605696, 0.2707227807591097, 0.008228107804027522, -0.16469984284642764, 0.10344551151044312]]}, "layer3": {"weights": [[0.6150645354320514, 0.8697223713542453, -1.1502440949784924], [1.3347680098982782, -0.40680307673656213, 1.5773672867015183], [1.5156933348240216, 0.8996736307430939, -0.3950842512271552], [0.24034761357528803, -3.02915471838775, 0.9680433146016487], [-1.3989817932500015, 0.374631575418822, 2.035948282556033], [-1.0676989323677226, -1.5777204930701378, -1.1220220929736349]], "biases": [[-0.1932842149646624, -0.184068040795287, -0.20635059254146917]]}}, {"layer1": {"weights": [[0.12400202813268696, 0.35545221845132186, 1.0590385753707758, 1.1201089542966547, -0.9821722425623205, -0.34320237663322095], [-0.1728269064102923, 0.9716573400322668, -0.7708379641149997, 1.5068915584548397, -1.8113060828321164, 1.518900665889062], [-1.222078573101138, -0.4112446598873507, -0.1912161563672928, 1.3458640546354839, 0.5901499552041299, 0.791218727646414], [-1.4616644723469223, -0.9233029657868189, 0.8765092044856001, 1.5780591118250626, -1.319348553665658, -0.31828979153105674], [0.5485357536692251, 1.174999805611805, 0.8115436887796448, -0.7785309245996792, -1.6557986050547782, 1.6784809423347762]], "biases": [[0.22885668774033907, -0.08571196314898516, -0.2905087235978336, -0.27891798808762147, -0.1461858301865157, -0.10052379990786448]]}, "layer2": {"weights": [[-0.8452966880769448, -0.6178951404949009, 1.1475783704493456, 0.895501256761696, 0.11332592344222, -0.3415775521995192], [-2.1172779845786143, 0.2750434483019456, 0.46494563843466197, 0.6888108745317518, -1.9683166285928122, -0.5029973396012116], [1.2543922132356409, 0.22584383886922055, -0.1895937717326865, -0.32890507742181185, 0.27725043847292724, -0.7662420760087623], [0.7150236470299529, -2.071015933840438, -0.2579187196554601, -0.4575475459960114, 2.185714761609722, -0.889008676673498], [-1.1160467141480819, -1.6148459193163274, -0.18271365852538615, 0.1712580268446584, -0.21611068366672875, 1.6230332432645462], [-0.0021639865702495435, -1.5174382391152264, 2.265893610721407, 0.31541201140979536, -0.4518173631031752, -1.2123613157409956]], "biases": [[0.13020785717675845, -0.0058570706146812675, 0.2707644862674683, 0.008223337235669665, -0.16469984284646852, 0.10340398384051994]]}, "layer3": {"weights": [[0.7075686018787954, 0.8684422560190947, -1.1571983574076894], [1.3395343507591906, -0.3559251458765371, 1.5746607886924233], [1.5000135100755616, 0.9006419584907754, -0.3943596680343144], [0.22517123090917093, -3.000180627756394, 0.9519120875379098], [-1.3976993984077937, 0.3738321015817072, 2.0413494171470274], [-1.0699374089411404, -1.5627062339988314, -1.1382285220064892]], "biases": [[-0.14693990308967372, -0.18403443991456025, -0.20836062169261782]]}}, {"layer1": {"weights": [[-0.07587614506171285, 0.36543471038020936, 1.0580221232821456, 1.1201074207907125, -0.9971552197524916, -0.3433361292631767], [-0.16164817155704472, 0.9587532973606708, -0.7586404832273386, 1.5051281793130666, -1.82893002306528, 1.5191470539159635], [-1.226840426571009, -0.41153895112916195, -0.1979456097695734, 1.3458980663978584, 0.6428125473132662, 0.7917674038252118], [-1.46151481226982, -0.9112100877540519, 0.8764746306880533, 1.587098864721566, -1.3459675052855928, -0.31846679826138224], [0.6061550676300304, 1.1752820210377037, 0.8375365063099423, -0.7448934802072384, -1.6188287493793132, 1.6872855138612013]], "biases": [[0.2331060924205508, -0.07747650031717633, -0.29046637476983017, -0.2720054002916581, -0.1377714250941132, -0.10292043037064415]]}, "layer2": {"weights": [[-0.838735550285036, -0.6179494210461265, 1.0873495269168845, 0.8932200620526037, 0.1179715538706633, -0.3291400614044222], [-2.1172680639368138, 0.27402010179476943, 0.49303692249334174, 0.6887250380019119, -1.968729780009941, -0.46817200373543066], [1.305546709609457, 0.3539050271771283, -0.20031591658862974, -0.33389341402003425, 0.27725484492883234, -0.7674479392440283], [0.7148378924929653, -2.065240544834611, -0.2701512604808032, -0.4594985238585366, 2.1971713026068436, -0.8931909691683608], [-1.1241256681285992, -1.6183063258305685, -0.18952536458368346, 0.17819041095692745, -0.1681896042254158, 1.6213351311820372], [-0.002161775246717331, -1.6192657730376387, 2.265613347414802, 0.321177038796858, -0.4601978319472583, -1.2123593930977812]], "biases": [[0.13025936107362196, -0.022626390337047924, 0.2707116653679164, 0.008229388902946527, -0.16469984284641637, 0.10345661560679344]]}, "layer3": {"weights": [[0.5953266707528156, 0.8700198046491432, -1.1486644540746185], [1.3410370677732841, -0.4251249779049424, 1.5780999960579936], [1.519081317676741, 0.8994024293295889, -0.39536790289986384], [0.18480639234121649, -3.039874712185382, 0.9536101074817777], [-1.391419632945817, 0.37789932437281204, 2.0347017548576605], [-1.0682406165501215, -1.5812733746756749, -1.1176368226777589]], "biases": [[-0.14631360845623254, -0.18407713630018013, -0.20836416997410062]]}}, {"layer1": {"weights": [[-0.04596421502422345, 0.357874528847746, 1.0584469993086274, 1.1201080825009004, -1.0093102114336778, -0.34149066273634976], [-0.14991016071540358, 0.8530930957186277, -0.7656287941666399, 1.5231419418252137, -1.8054830873388013, 1.5190429747433742], [-1.208942953998797, -0.4114160111320762, -0.19510662395547884, 1.3458839085101761, 0.6140212218348698, 0.7915382691465945], [-1.4615488503770024, -0.9155109750492436, 0.8764892209378687, 1.5818071470013986, -1.3382823004240376, -0.31840123121751496], [0.5737812656185672, 1.1229844110502025, 0.826167183960852, -0.763438526083031, -1.6105393800157444, 1.6786366971630868]], "biases": [[0.23071547948391963, -0.08108063148903069, -0.2904844211457758, -0.276911361992808, -0.1597811212582246, -0.09900608666477438]]}, "layer2": {"weights": [[-0.8415468088196039, -0.7503292063312968, 1.1211601450080508, 0.8849224478677895, 0.025468695424231372, -0.33455067717991266], [-2.1172723174877275, 0.2797698246470406, 0.47216142787683174, 0.6499566583715382, -1.9683205614368675, -0.4090404935536548], [1.2768026702211133, 0.34953045246741354, -0.17920968798861514, -0.3317108001705076, 0.2820860606000394, -0.7669386054960097], [0.7149154240333631, -2.0677672110640737, -0.2638665886483406, -0.4586756162228907, 2.1903212948251762, -0.8913789359626176], [-1.1305907567144238, -1.6163388311666238, -0.19727681450577894, 0.17529730480340433, -0.12140185407445718, 1.6221965373111877], [0.002823424188018807, -1.5840151037017518, 2.2632147830042477, 0.3195747704307912, -0.4554831160989401, -1.2839088763895856]], "biases": [[0.13023682973439227, -0.020306012895066, 0.2707338961503031, 0.008226826705108516, -0.16469984284643888, 0.10343440741409281]]}, "layer3": {"weights": [[0.6348024001112873, 0.8694249380593475, -1.1518237358823666], [1.3284989520232724, -0.38848117556818185, 1.5766345773450428], [1.5123053519713021, 0.899944832156599, -0.3948005995544466], [0.20737411032805736, -3.0184347245901177, 0.9824765217215197], [-1.406543953554186, 0.371363826464832, 2.0371948102544053], [-1.0671572481853235, -1.5741676114646008, -1.1264073632695109]], "biases": [[-0.1466827483829548, -0.18405894529039385, -0.20433701510883773]]}}]