[{"layer1": {"weights": [[-0.21177075463704587, 0.23075998592968577, 0.8093497915315295, 1.17154076815206, -1.0375285873431896, -0.4326952140673953], [-0.15250586074693306, 0.7052426144027135, -1.084073619853259, 1.7399427289617755, -1.8211466188173415, 1.727472322075802], [-0.9416576104077004, -0.38348055808154075, -0.30270434912044175, 1.2143697155511055, 0.6499397772685651, 0.8019683906148025], [-1.7758234953788858, -1.0775861556336226, 0.942591848380007, 1.8057866943168368, -1.0152716196096554, -0.13819004526188344], [0.3148913630152954, 1.6338345948861184, 0.2251521257893696, -0.29521005417326923, -1.3506190990656286, 1.3418965640820608]], "biases": [[0.12391888307430463, -0.1020712047544143, -0.1892770529768816, -0.1973353313655498, -0.07056101935391736, -0.1460501004247524]]}, "layer2": {"weights": [[-0.6550393689760262, -0.7628258034785412, 1.4343582379688669, 0.9123755302221832, 0.06886586945800752, -0.5727366807610306], [-1.997708244264637, 0.23414452909291036, 0.45863094456722575, 0.08886392122107321, -1.420384230123409, -0.8441884607016192], [1.2968064558295518, 0.6273708561461365, 0.22265265354840727, -0.19874473617908225, 0.1898394452204449, -0.5455326820834795], [0.6905354742059786, -1.8410585575528273, -0.3109820282485021, -0.06413928940162672, 1.864336633164454, -0.875518066261985], [-0.7608605415460686, -1.0439833496147082, -0.0412544396762245, 0.3254378736155512, -0.0005648141552524952, 1.7672433130476568], [-0.12712052604341237, -1.477039024718126, 2.2913298401141278, -0.13061104792338796, -0.31473331482241057, -1.1910704524882305]], "biases": [[0.16206108444157272, -0.024823720570526536, 0.03161462232830721, -0.014519596410755231, -0.024985117136946223, 0.22036150839873295]]}, "layer3": {"weights": [[1.0212041232046944, 0.8939555167371936, -1.1323484722757773], [0.6236978196067193, -0.5874752182212477, 1.1458129590321973], [1.1562326572388204, 1.3080395631559183, -0.4197611425668004], [0.1497734707961748, -2.707799802776116, 1.1209883965999434], [-1.197542851519772, 0.42596923116458896, 1.9187115767897076], [-0.8359710266078337, -1.3031393907576692, -0.8988258229217679]], "biases": [[-0.10621335690013155, -0.20564108117762137, -0.06235866343581073]]}}, {"layer1": {"weights": [[-0.22021938933243845, 0.23076030366511935, 0.7889014069822637, 1.171530497039507, -1.0269705947176395, -0.4327360792724203], [-0.14779313299521246, 0.7429551662927493, -1.1113373246838902, 1.7307921006298845, -1.821575856614599, 1.6906971209154382], [-0.9482230252937043, -0.3584736035889998, -0.30246746791421375, 1.2427888074980666, 0.6857988564243431, 0.8019533849760748], [-1.7765146844264144, -1.0711520427179786, 0.9424079159978385, 1.8062069904797589, -1.015369926124876, -0.13213715713383672], [0.2463254482982839, 1.6299804431829834, 0.225034570946309, -0.29688704673713684, -1.3791992777912365, 1.341953419793031]], "biases": [[0.1239215228361958, -0.1071696912030427, -0.18927485428939297, -0.18789567947849778, -0.060484821110415365, -0.13775967481208534]]}, "layer2": {"weights": [[-0.6550072857335636, -0.7949384830318849, 1.4343582337032648, 0.7898834486300188, 0.06892005678418782, -0.6356553223269163], [-2.0202175513133414, 0.3163282723269833, 0.4195913197329051, 0.1173185431911763, -1.4091102921430327, -0.8439720522502449], [1.2966631524027927, 0.6307378271778026, 0.2816587305294519, -0.1661470863285665, 0.18979931140252343, -0.5452986157029182], [0.7195306017726302, -1.8410624602797552, -0.31098360268862446, -0.060282116388806525, 1.8643416592825472, -0.9146416875276031], [-0.8704363153151307, -1.0471774219616672, -0.03789240747298886, 0.31480275186428064, 0.0003960584580520184, 1.7683227175131346], [-0.11742520209014971, -1.4766630426178273, 2.291636352522584, -0.135591071810152, -0.32335845902663607, -1.07859793421179]], "biases": [[0.14673120516417357, -0.03680857767465796, 0.03257370359820755, -0.014548812294272115, -0.025419830584135057, 0.22036149025186763]]}, "layer3": {"weights": [[1.01757581883609, 0.8384184387473202, -1.1301542066259227], [0.6313445405108826, -0.5777042973929414, 1.196728721854123], [1.1562323208402254, 1.3080051746469874, -0.41959006325085724], [0.19057719503864332, -2.7057636446316256, 1.0189914553297073], [-1.2311425676167125, 0.42596860717240304, 1.876775437803744], [-0.8360495420637232, -1.3457692785234094, -0.8987891230898939]], "biases": [[-0.1061965879964314, -0.20678609589500374, -0.06202370534614857]]}}, {"layer1": {"weights": [[-0.22054619584107815, 0.23075998592968577, 0.733583356330239, 1.17154076815206, -1.0400951987978466, -0.4202189784211362], [-0.15250586074693306, 0.7052426144027135, -1.0937718550753925, 1.7546618698913723, -1.8211466188173415, 1.727472322075802], [-0.9877512718387157, -0.38348055808154075, -0.2999667744335588, 1.2103640615296962, 0.6499397772685651, 0.8019683906148025], [-1.7758234953788858, -1.0688062165075047, 0.9425918483800069, 1.8057866943168368, -1.0152716196096554, -0.13819004526188344], [0.25327738606728933, 1.6338345948861184, 0.2251521257893696, -0.29521005417326923, -1.2077956057752859, 1.5107382943124512]], "biases": [[0.12391888307430463, -0.11263800251479436, -0.18680848320725457, -0.1878222158488393, -0.06039838333621268, -0.13776082902612455]]}, "layer2": {"weights": [[-0.6550393689760262, -0.829643561399349, 1.4343582379688669, 0.7264512401989093, 0.06886586945800752, -0.5727366807610306], [-2.0205307510741153, 0.29439429939070194, 0.4195918495948713, 0.2025770206471727, -1.4091484078184815, -0.8441884607016192], [1.2874337361428583, 0.6273708561461365, 0.22138448355285656, -0.16309574741973246, 0.1898394452204449, -0.5876226225876092], [0.719651302714315, -1.8410585575528273, -0.3109820282485021, -0.06413928940162672, 1.864336633164454, -0.9138547412574476], [-0.7608605415460686, -1.0471712176470984, -0.0412544396762245, 0.3148028204177906, 0.04626991780991929, 1.7672433130476568], [-0.11743151404541757, -1.4765828318892913, 2.2913298401141278, -0.1191790429831337, -0.31473331482241057, -1.1910704524882305]], "biases": [[0.14662958799219622, -0.024823720570526536, -0.04031748107375108, -0.014519596410755231, -0.02498511713694622, 0.22036150839873295]]}, "layer3": {"weights": [[1.0212041232046944, 0.9055002798520659, -1.122598753674429], [0.6826954486677509, -0.7229115399584344, 1.1676641186113605], [1.1905528858795669, 1.3080395631559183, -0.4197611425668004], [0.1467404681148995, -2.7741121793896584, 1.1072097756581114], [-1.167875321888041, 0.42279886768915775, 1.9187115767897076], [-0.8359710266078337, -1.378244604762148, -0.8988258229217679]], "biases": [[-0.10621335690013155, -0.20448183229283845, -0.06235866343581073]]}}, {"layer1": {"weights": [[-0.21177075463704587, 0.28588666004271146, 0.8093497915315295, 1.17154076815206, -1.0375285873431896, -0.5680034107473244], [-0.15250586074693306, 0.7052426144027135, -1.084073619853259, 1.7399427289617755, -1.8211466188173415, 1.727472322075802], [-0.951363682390651, -0.38348055808154075, -0.30270434912044175, 1.2143697155511055, 0.6499397772685651, 0.8019683906148025], [-1.7758234953788858, -1.0775861556336226, 0.942591848380007, 1.8057866943168368, -1.0152716196096554, -0.13819004526188344], [0.25327738606728933, 1.6338345948861184, 0.2251521257893696, -0.29521005417326923, -1.3506190990656286, 1.486682321431897]], "biases": [[0.12391888307430463, -0.1020712047544143, -0.1892770529768816, -0.1878222158488393, -0.07056101935391736, -0.1460501004247524]]}, "layer2": {"weights": [[-0.6550393689760262, -0.6663321219846507, 1.4343582379688669, 0.7336303471507694, 0.06886586945800752, -0.5727366807610306], [-1.997708244264637, 0.12366302408753743, 0.4195918495948713, 0.08886392122107321, -1.420384230123409, -0.8441884607016192], [1.2968064558295518, 0.6273708561461365, 0.22265265354840727, -0.19874473617908225, 0.1898394452204449, -0.5455326820834795], [0.7196513027143149, -1.8410585575528273, -0.3109820282485021, -0.06413928940162672, 1.7497070851995506, -0.875518066261985], [-0.7608605415460686, -1.107028732197382, -0.0412544396762245, 0.3254378736155512, 0.04626991780991929, 1.7672433130476568], [-0.11743151404541757, -1.4663336143982226, 2.2913298401141278, -0.13061104792338796, -0.31473331482241057, -1.1910704524882305]], "biases": [[0.16206108444157272, -0.024823720570526536, 0.03161462232830721, -0.014519596410755231, -0.024985117136946223, 0.22036150839873295]]}, "layer3": {"weights": [[1.0212041232046944, 0.8939555167371936, -1.1323484722757773], [0.6236978196067193, -0.5874752182212477, 1.1458129590321973], [1.1562326572388204, 1.3080395631559183, -0.4197611425668004], [0.1497734707961748, -2.707799802776116, 1.1072097756581114], [-1.197542851519772, 0.42596923116458896, 1.9187115767897076], [-0.8359710266078337, -1.5534836674834778, -0.8988258229217679]], "biases": [[-0.10621335690013155, -0.20564108117762137, -0.06235866343581073]]}}, {"layer1": {"weights": [[-0.13161754030915435, 0.23045641523879798, 0.9431592793860084, 1.1715819119073392, -1.0611379572951827, -0.5222739597073415], [-0.15422293464199466, 0.7052246721644883, -1.0743183658814064, 1.7281617084458216, -1.8625174217339835, 1.5822786557636785], [-0.9877530509900523, -0.38337598475690504, -0.30277204554966564, 1.1984642668159324, 0.6499794459636745, 0.8019669502295178], [-1.7573105510136475, -1.0877975650492744, 0.8463272428359381, 1.8125374066270217, -1.0032253219949698, -0.1381358076224845], [0.2540024608868127, 1.633637661820773, 0.2250249497827533, -0.2953742515295948, -1.2046028077955389, 1.3439643960207697]], "biases": [[0.12391624567325915, -0.10209675839368937, -0.2508529614766349, -0.19012090756412925, -0.08070349687080135, -0.16293619914267712]]}, "layer2": {"weights": [[-0.655081974244006, -0.8298884177068859, 1.4343582404951511, 0.7422933306815129, 0.06875979251299269, -0.697496293597986], [-1.9750354348998762, 0.31225933437260966, 0.419381377848348, 0.1452032341132936, -1.5432443310948825, -0.728050346369425], [1.3063152342126234, 0.6266653739196761, 0.18717410986338828, -0.23439687393094516, 0.1712494275116421, -0.5876145968275372], [0.7194841920004148, -1.8480487846925415, -0.31097924639301117, -0.06418118402919776, 1.8643241619182995, -0.8363934623375896], [-0.7601021849160536, -0.9790572006772202, -0.04117596695227603, 0.3360501593264069, 0.06992654580051696, 1.8600024685868628], [-0.1174394865697172, -1.4540563442145977, 2.2246059208507085, -0.061590246046176814, -0.31794714619445663, -1.1864136552659343]], "biases": [[0.17744534013243432, -0.02493907441120717, 0.030941858218878876, -0.014490686451065233, -0.02498535710969916, 0.22036156402473522]]}, "layer3": {"weights": [[1.0334557465953702, 0.8725445876298711, -1.1337743547572505], [0.6055458131517109, -0.6413888311361522, 1.1233931521373663], [1.190553640393853, 1.3080688835581504, -0.4725164831439259], [0.15312781271866177, -2.808604064087066, 1.1117667734942085], [-1.1979939889300328, 0.4291183051261096, 1.9187027326243564], [-0.7741126887699249, -1.2280325681635365, -0.8987375942563726]], "biases": [[-0.10623010552875578, -0.20614725388523664, -0.0623585015511781]]}}]