[{"layer1": {"weights": [[0.054911113150918886, 0.36806338856897425, 1.0958078974777528, 1.2468607620255976, -0.8700201307579467, -0.4233819682525768], [-0.22521514189970424, 0.8575486904988829, -0.9239203809964518, 1.9410284639487105, -1.6627020062670859, 1.7417564825391787], [-1.1541401256069108, -0.455185614722579, -0.062492324543526254, 1.2724499961645768, 0.6663485617825979, 0.7997206874470351], [-1.6971981266594969, -0.8971056601288359, 0.6669805606543733, 1.756164957340275, -1.400232979226264, -0.29802535839685634], [0.7211365070126136, 1.2843365170965806, 0.6620024879284718, -0.7689713212682368, -1.6206191932641347, 1.6765944023582224]], "biases": [[0.20072865300922396, -0.08378421909004807, -0.23038252878766088, -0.21605589796355945, -0.00976765442631848, -0.11372041257580898]]}, "layer2": {"weights": [[-0.7323170029575305, -0.8193001405982141, 1.4724721679544504, 0.8834744545986152, 0.37207449526353786, -0.382581669870795], [-2.1683869647501073, 0.2813355064078246, 0.3726198765165726, 0.4554525788715569, -1.9700369097279287, -0.6973549127721383], [1.2591309814374188, 0.5041788566741361, 0.066869116199281, -0.38849440868623236, 0.2124752520627779, -0.7784801882196661], [0.6997906961897242, -2.039101499585173, -0.35490805063476993, -0.286095748280647, 2.098384530467359, -0.792844136621103], [-0.9637969404065967, -1.3961141697029884, -0.16178659142582016, 0.192291014909732, -0.30255405949293934, 1.6961237815388954], [-0.03197179096409505, -1.7027559686207505, 2.3513666715768426, 0.22153810228036971, -0.41882265289701825, -1.1766411194917086]], "biases": [[0.12855175148057824, 0.03401605788661103, 0.23730135232421745, -0.03528767585433363, -0.12517001693346014, 0.13235531815277352]]}, "layer3": {"weights": [[0.8318962596301884, 0.8950419814038477, -1.160849311227734], [1.2134362134370198, -0.5824224542231788, 1.5247297954968566], [1.5689179809700007, 0.9712329773849079, -0.3607142396538835], [0.24216981464720427, -3.1462315659191704, 1.0201481140200275], [-1.4586884141410312, 0.40681226060888226, 2.023265552724619], [-0.9024445894217538, -1.3453762394408217, -1.2996580749029634]], "biases": [[-0.22339255075697584, -0.20681744359920914, -0.13827290271343368]]}}, {"layer1": {"weights": [[0.046717359976649046, 0.44055505638954473, 0.8699819417661883, 1.2465910646797624, -0.8725075888319835, -0.42148321870971056], [-0.223524311228191, 0.8579409788400111, -0.9246578780263175, 1.8784158894410758, -1.6628611096908437, 1.741730834343771], [-1.1482271151605197, -0.5413976519334409, -0.061901836859750384, 1.261463243995804, 0.6662781893053907, 0.7996743479786244], [-1.699435100797382, -0.8970982291418579, 0.6056551066854792, 1.6898109208309995, -1.4017998601567885, -0.2980141437061822], [0.717030749221214, 1.2834268086447893, 0.856066821387529, -0.7700961567602514, -1.6177097057947376, 1.4859980039606]], "biases": [[0.20050486435706624, -0.08451255532347217, -0.2303824892852057, -0.20613734983949622, -0.006855685767556071, -0.10379377798057937]]}, "layer2": {"weights": [[-0.684558289586593, -0.8192302077181693, 1.4722366160241975, 0.8912135756778653, 0.32719872098855896, -0.4299437927845488], [-2.169177937532507, 0.2815588382935764, 0.4189553255351283, 0.4474642281425582, -1.9001646287793208, -0.6962659156520173], [1.2590862223000703, 0.5064395616896904, 0.07296873668420611, -0.38990937453748215, 0.16305945762115326, -0.778703007439209], [0.7007493520083351, -2.0417742182409846, -0.35490778026888226, -0.27938552643509895, 2.0993469748487392, -0.776133633577527], [-0.9661677102868759, -1.396473951598825, -0.12790313748451732, 0.18674633900646392, -0.3149286239673268, 1.667997106417881], [-0.08585801697994284, -1.6615138509043446, 2.3510296287761974, 0.23524305083926003, -0.4208304212346093, -1.225158678975935]], "biases": [[0.12845955682766058, 0.04057999891308044, 0.2359656975296327, -0.0349748834498073, -0.12518844904015694, 0.13422922871103038]]}, "layer3": {"weights": [[0.8275325115413594, 0.8950112881955783, -1.1635915946846396], [1.257569833549734, -0.5805896806430794, 1.560330249844571], [1.5813897120964313, 0.9702660932354132, -0.41495493053870147], [0.2017228986163596, -3.2189635248906154, 1.0281679167311912], [-1.5037476735588933, 0.4206552451373923, 1.974942403501888], [-0.863580855241324, -1.3396288917340322, -1.2863686575452369]], "biases": [[-0.22342362926442275, -0.20285707352743643, -0.13827290271997905]]}}, {"layer1": {"weights": [[0.05528001552482053, 0.2125809163113806, 0.8696301677876415, 1.2467410910736954, -0.9557199403912572, -0.42243260112126], [-0.22439849375441837, 0.8576298201191257, -0.9247503109642939, 1.9342105960220661, -1.6627815621244633, 1.741744222407472], [-1.1076991612704272, -0.45816984215229856, -0.06231520636269375, 1.260199703052886, 0.6664570071257444, 0.7204393426795856], [-1.6982099345446513, -0.8971019534983048, 0.5872519856456659, 1.8049222191633232, -1.400019891322801, -0.2980197510090843], [0.7312084728171873, 1.380885893486428, 0.7729031112996093, -0.7688236261547541, -1.618198324775586, 1.6759797223477924]], "biases": [[0.200630745527173, -0.08414868497233838, -0.23038250955620243, -0.21642097519826103, -0.009767654514511573, -0.10302252743493616]]}, "layer2": {"weights": [[-0.7538025187895359, -0.8205730542206428, 1.4778135404987465, 0.8836422851603958, 0.41983180621994637, -0.38820216312424993], [-2.166356626034022, 0.2815737995699389, 0.3621840860820068, 0.4016509071924713, -1.9699000029176612, -0.6958177585826526], [1.2591086018762776, 0.5040789010659696, 0.0673278341607228, -0.3890821822633095, 0.15176762012019213, -0.6040973060649215], [0.7001121361073821, -2.0358157560101, -0.354907919009272, -0.16976569263065597, 2.0988657526579093, -0.7917100072990818], [-0.9741277039381646, -1.394729863564196, -0.21048427255320387, 0.19183754907634537, -0.3037481483902143, 1.6904058006220972], [-0.0327015427146672, -1.7029155814551524, 2.3512839309812614, 0.2124140576513242, -0.42198282812947896, -1.289743872048473]], "biases": [[0.1263115188620476, 0.0273971988160846, 0.23668548596559072, -0.0340746810355651, -0.12517838600105669, 0.13272679895132045]]}, "layer3": {"weights": [[0.8297394388950846, 0.8950274238494735, -1.1619426071098726], [1.2095359591539714, -0.5815060503473137, 1.5028428457279892], [1.5578927677772316, 0.9707956320135054, -0.41648360426930103], [0.25206405804287757, -3.237742837140927, 1.0010972475656799], [-1.4275118139896708, 0.4069365704583088, 1.9591477601048717], [-0.9027623130380407, -1.319297563255616, -1.2998359838090712]], "biases": [[-0.22340809008802362, -0.20238504419253156, -0.13827290271662024]]}}, {"layer1": {"weights": [[0.055642053520139304, 0.3680311896390449, 0.8697840929648905, 1.246680380189635, -0.8704053426674324, -0.42243257056079453], [-0.22428342499253534, 0.8580898783204112, -0.9229055851526569, 1.9342106540053994, -1.6627815455424688, 1.7417419665434837], [-1.1482732499163169, -0.4701680441186702, -0.06184270371847203, 1.2621581541780187, 0.6658824807987442, 0.8013685203842025], [-1.698636651279804, -0.897101918046473, 0.6056464224810754, 1.6911126586242702, -1.404006004797702, -0.2980197511788243], [0.6922345476458736, 1.2838858466960459, 0.664614562640998, -0.7716640775927142, -1.629876626340957, 1.675986386163669]], "biases": [[0.20057479815106138, -0.08414749391002538, -0.23038250747712585, -0.21788111752268155, -0.009767654524045962, -0.10581055488256819]]}, "layer2": {"weights": [[-0.7013235585423525, -0.8153415339708385, 1.4559769464610564, 0.8984492050717736, 0.3186760515027035, -0.3740440961914421], [-2.1663579072273498, 0.28106729069298547, 0.3663850421551238, 0.40500209410169247, -1.969857764930826, -0.6997883811003535], [1.2591086018461453, 0.5090001335297443, 0.07769220328480583, -0.38956101965750056, 0.22832943468461583, -0.7385864473918672], [0.7007436880739725, -2.054304167622016, -0.3549079047794884, -0.27193026899883543, 2.098865752658469, -0.7912626372890981], [-0.9642785687387193, -1.4009866519110379, -0.1256040724897633, 0.18256206060335572, -0.3237209217498893, 1.7097156697614782], [-0.03013631413130198, -1.7011928322402097, 2.3509408077622953, 0.2468629115474845, -0.4133576638748183, -1.1774551034681704]], "biases": [[0.13508806003033477, 0.041012752862631896, 0.23647764181092812, -0.038301075501586554, -0.12518177394406405, 0.1349886968736465]]}, "layer3": {"weights": [[0.829639225657842, 0.8950242676504316, -1.1630539904951294], [1.226722492532622, -0.5815061186905753, 1.5459947591943723], [1.5800013701134914, 0.9706112452001261, -0.4164836046653385], [0.23227565970029254, -3.2391236003800747, 1.028129277246543], [-1.551144061659756, 0.40664031042867504, 1.9749423972549685], [-0.8764248584442963, -1.3192715700723947, -1.2991205782085191]], "biases": [[-0.22340808977872637, -0.19317757368537092, -0.13827290271696474]]}}, {"layer1": {"weights": [[0.054911113150918886, 0.36806338856897425, 0.8693553563977192, 1.2468607620255976, -0.8700201307579467, -0.4233819682525768], [-0.22521514189970424, 1.040560575783331, -0.9239203809964518, 1.9342100596762342, -1.6627020062670859, 1.7417564825391787], [-1.1541401256069108, -0.455185614722579, -0.062492324543526254, 1.2724499961645768, 0.6663485617825979, 0.7997206874470351], [-1.6971981266594969, -0.8971056601288359, 0.6452465416968917, 1.756164957340275, -1.400232979226264, -0.29802535839685634], [0.7211365070126136, 1.3600024708106342, 0.6620024879284718, -0.7689713212682368, -1.4842467855799024, 1.6765944023582224]], "biases": [[0.20072865300922396, -0.08378421909004807, -0.23038252878766088, -0.21605589796355945, -0.00976765442631848, -0.11372041257580898]]}, "layer2": {"weights": [[-0.6874673254789193, -0.8193001405982141, 1.4724721679544504, 0.8834744545986152, 0.37207449526353786, -0.382581669870795], [-2.1683869647501073, 0.2813355064078246, 0.3726198765165726, 0.4554525788715569, -1.9700369097279287, -0.6973549127721383], [1.2591309814374188, 0.5041788566741361, 0.066869116199281, -0.38849440868623236, 0.2124752520627779, -0.7784801882196661], [0.6997906961897242, -1.8447598239346226, -0.35490805063476993, -0.286095748280647, 2.098384530467359, -0.8957489360202893], [-0.9637969404065967, -1.3961141697029884, -0.168902434735136, 0.192291014909732, -0.30255405949293934, 1.6961237815388954], [-0.03197179096409505, -1.7027559686207505, 2.3513666715768426, 0.22153810228036971, -0.41882265289701825, -1.1766411194917086]], "biases": [[0.12855175148057824, 0.03401605788661103, 0.23730135232421745, -0.03528767585433363, -0.12517001693346014, 0.13235531815277352]]}, "layer3": {"weights": [[0.8318962596301884, 0.8950419814038477, -1.0816864471280572], [1.2134362134370198, -0.5824224542231788, 1.5247297954968566], [1.5689179809700007, 0.9712329773849079, -0.3666244146365214], [0.24216981464720427, -3.1462315659191704, 0.9046787345158889], [-1.4586884141410312, 0.40681226060888226, 1.9447738935936556], [-0.9024445894217538, -1.3453762394408217, -1.2996580749029634]], "biases": [[-0.3107696159852852, -0.20681744359920914, -0.13827290271343368]]}}]