[{"layer1": {"weights": [[0.064001532803943, 0.4073812164380264, 0.910269468277531, 1.1582234569473837, -0.8847269696269511, -0.32724432251338714], [-0.005431116461238594, 1.6236310423229259, -1.127652032888727, 1.3709477552534421, -2.0347046784650527, 1.369709899706349], [-1.32996631699074, -0.8687301360056521, -0.06563789361014269, 1.1756533435524281, 0.6812153023608707, 0.6912246190485122], [-1.5804277909041171, -1.2785917815999843, 1.1306915525461119, 1.7729697553108132, -1.0668854408254835, -0.22183141105179183], [0.001103047611936428, 0.9699623494709833, 0.948569464818861, -0.9978315587845585, -1.522758523536789, 1.6171153809950993]], "biases": [[0.2675557318401086, 0.07997542035570812, -0.21433190895257148, -0.1289885209506401, -0.1457589897535999, 0.04190815354876981]]}, "layer2": {"weights": [[-1.2470698855827256, 0.031641161207067094, 0.7680950884779402, 0.6027939817898276, 0.24822668298706616, -0.397463342000792], [-1.9799788042276822, 0.10614231096201959, 0.5625703861598792, 0.1489546800824572, -2.3356459128834346, -0.9051804196750544], [1.0767007258722492, 0.9773092581983553, -0.021007641854830682, -0.5005329246601943, 0.05256182590128258, -0.8615080144008955], [0.5400334350103203, -2.4235656755960573, -0.06814295142563614, -1.1084747029114879, 2.2525807212852715, -0.7931962541682616], [-0.6349051558352841, -1.3582512822844994, -0.4862095769467399, -0.004957733836690728, 0.27185769629631035, 1.8898970572147116], [-0.08941994780623447, -1.5146136814382407, 2.4315995759397184, 0.33159146039840925, -0.626713074440008, -0.6367501930496164]], "biases": [[0.131727844664926, 0.04449489457773222, 0.38574020162362066, -0.0031375386177583675, -0.048683419252211674, 0.11297003150078402]]}, "layer3": {"weights": [[0.7375938251165588, 0.9139298297075085, -1.031453865991999], [1.149987435930088, -0.4782924328428063, 1.8270433780909512], [1.3996697374140457, 0.839554578946842, -0.3213972043777465], [-0.36181708633315496, -2.9211505908868323, 1.0875330588150762], [-0.9595682088681159, 0.4151798758400465, 2.018566782987523], [-1.471251127457013, -1.4865508065260946, -1.072810293894444]], "biases": [[-0.17169311119133762, -0.22543224820999136, -0.10414703998672417]]}}, {"layer1": {"weights": [[0.1460752947921034, 0.40697285771565705, 0.9767860911844973, 1.135409932294269, -0.8814978715268932, -0.343792887191265], [-0.03966388567810487, 1.6249805433772107, -1.124523934939134, 1.3710280482336556, -2.050432817640031, 1.3796283813166035], [-1.3312967084744298, -0.8861135540264272, -0.059742160327868395, 1.1600800609347663, 0.6600208316263744, 0.6912197214136064], [-1.5856841911064756, -1.217624806397757, 1.1377858221477721, 1.7559165404606007, -1.0496649505716933, -0.22673936589966964], [-0.04365939461227452, 0.9632190837284709, 0.9507356083551369, -0.9984115858022446, -1.5226812200851025, 1.5176147802403195]], "biases": [[0.2766535825093476, 0.08135800606852839, -0.21444306038969246, -0.12790053683924046, -0.2504481042573495, 0.04221512814435186]]}, "layer2": {"weights": [[-1.246594494935344, 0.030228951925971994, 0.7664663983399147, 0.6679107647630356, 0.2193569988915246, -0.39652328920113644], [-1.9812880111282574, 0.036928012917291295, 0.5870516654995289, 0.1485127826396982, -2.338038700836968, -0.8596930014230455], [1.0954242264836034, 1.002178853069155, -0.024281702166792617, -0.5218818263665318, 0.12946345863483052, -0.8618350246298843], [0.5400334762605175, -2.4412180168271185, -0.07147612953222404, -1.130969916533707, 2.252482532300473, -0.7926838108561929], [-0.7981896403742007, -1.3663942655538523, -0.6079331841764927, -0.010851216046166054, 0.22365653974056487, 1.892428468113142], [-0.0945652777629854, -1.4792616505897513, 2.433870812231053, 0.3660970837719433, -0.6351696118449415, -0.6932166359192422]], "biases": [[0.17568882962189877, 0.07128235172359625, 0.38574020296560374, -0.001548680300215097, -0.048007947880039176, 0.08346176552134867]]}, "layer3": {"weights": [[0.7048809936676914, 0.9133426446968095, -1.0230061739977785], [1.1470644139106048, -0.6017520381618592, 1.8270603561918364], [1.3923946578231505, 0.8489988568725488, -0.32139720539076067], [-0.3186822757877236, -2.910903075940375, 1.1322057250104136], [-1.171060917442981, 0.41175639075496384, 2.0190181867457238], [-1.470696132408278, -1.4440997120609331, -1.1366423001580426]], "biases": [[-0.17153940380724392, -0.2253969858478539, -0.09774189744582559]]}}, {"layer1": {"weights": [[0.07236478817399707, 0.40764828794394764, 0.9080738513330318, 1.1353928786193839, -0.8818414375968334, -0.3245996758529242], [0.009606857662146924, 1.6348236209713045, -1.113960624953891, 1.3708987595546902, -2.0128178800758905, 1.3709393028694892], [-1.3293299499168918, -0.8762923002024213, 0.03525741955132859, 1.285061975390398, 0.6910912663759792, 0.691227595153354], [-1.6138606062377447, -1.252818452079312, 1.1309265707492744, 1.8785748773749509, -1.0555016978142382, -0.22665607383185593], [0.014476563749471672, 0.965599283426121, 0.9476672270663393, -0.997468120381537, -1.5449800905294921, 1.6011465306753636]], "biases": [[0.26686981822088895, 0.07984509922843949, -0.21426444049314725, -0.12937734518831295, -0.16082672322539143, 0.04172180163389441]]}, "layer2": {"weights": [[-1.2390208032454295, 0.024924222034908045, 0.7850006890008789, 0.6073945782629251, 0.21770008783235842, -0.3980386117717667], [-1.972465112811413, 0.05581157423066223, 0.5812111644089761, 0.1631205917131333, -2.3280208106263496, -0.8632764576185545], [1.085424821479626, 0.9610908470554865, -0.03325928909642667, -0.4976205872510132, 0.04691072155309009, -0.861304528130147], [0.5400334098890245, -2.4145403216746137, -0.06697654338529038, -1.1271812148384126, 2.253764366713724, -0.7983355942573236], [-0.6367863737894808, -1.354850919653559, -0.6095188281433208, 0.024951487505148612, 0.21436416078982765, 1.8894286494831096], [-0.08729374065904086, -1.5112921090000115, 2.41338574634542, 0.32170046631633, -0.6541849563949715, -0.6519536007919513]], "biases": [[0.1279090723608913, 0.02459331076381295, 0.38349772805952875, -0.011643940356682559, -0.049095055003187976, 0.11302357746372318]]}, "layer3": {"weights": [[0.737593825072344, 0.9142856981297818, -1.025493325673554], [1.1364883526625458, -0.47608631322016387, 1.8047773142041952], [1.3887178898588493, 0.8433452261617979, -0.32139720376262476], [-0.3076311055389971, -3.039110951553285, 1.177452467051928], [-1.0878828707434511, 0.41633012530834324, 2.018541102094868], [-1.4636856037380057, -1.3951024066587954, -1.1154465483018272]], "biases": [[-0.17776686758258411, -0.2254537977600266, -0.10380272138380336]]}}, {"layer1": {"weights": [[0.0599609004456074, 0.40714559100447345, 0.9152287498324412, 1.1582292172818114, -0.8853624611169955, -0.33926695231722614], [-0.007037434601362193, 1.603812482213645, -1.1370507577889444, 1.3709923263478714, -2.056846726540665, 1.3790838279474027], [-1.3306170983985866, -0.8692949084124613, -0.06291925462402474, 1.160080061020379, 0.6697377793796303, 0.6912219065873648], [-1.5858723422989576, -1.2444217773834136, 1.137958624694933, 1.7724656250153554, -1.078341321976029, -0.21700394729676198], [-0.02366698316306174, 0.9742168689443137, 0.9495621195791907, -0.9981582847404908, -1.508511528420954, 1.6110518632315118]], "biases": [[0.2711214530747637, 0.0803862273475475, -0.21439343104156383, -0.12852211280395376, -0.13091181791826506, 0.04207807315510303]]}, "layer2": {"weights": [[-1.2509755790895283, 0.03846479918971702, 0.7510603108097673, 0.6053194951850894, 0.18912704042817796, -0.3969406939153907], [-1.9840629516609607, 0.09634996930983657, 0.5422156491951456, 0.14469207720368243, -2.343140355117984, -0.9016585481667331], [1.0770195532213993, 0.9914710769230802, -0.008194899580215027, -0.5037418248106273, 0.1385868420702825, -0.861691510093517], [0.5400334578835175, -2.435363946965799, -0.069559449972456, -1.1090024587181553, 2.2513994823018946, -0.7879995585245793], [-0.6477324305736984, -1.3619872094173078, -0.5543893544291235, -0.035145517765314035, 0.27608114290133007, 1.8904705329240845], [-0.091769383869019, -1.4644459610405853, 2.422742557247505, 0.3637649113088975, -0.630242053719456, -0.6976070535918975]], "biases": [[0.13555290057891228, 0.06437944513502807, 0.3879826751155929, -0.002517745771146075, -0.04830873353368039, 0.11292129909698713]]}, "layer3": {"weights": [[0.7048809936303064, 0.9136050992436971, -1.030489697016741], [1.1247765624052648, -0.4808090912713936, 1.8493084762152812], [1.410705056208017, 0.8445609865204349, -0.3213972049385609], [-0.40952911680553294, -2.9141133103784416, 1.0372412889368787], [-0.9218571857362361, 0.4137488798346275, 2.0186924743734007], [-1.474895140554333, -1.4970556971076094, -1.03549686992475]], "biases": [[-0.1656274379250429, -0.22541265784443937, -0.09740149421392244]]}}, {"layer1": {"weights": [[0.10525741133669507, 0.40748072229745624, 0.9123859009132379, 1.1582213852836425, -0.8830151121035541, -0.33532269272248094], [-0.00894845778205957, 1.5901691758406533, -1.1216573358989088, 1.3709299484857507, -2.018760136144353, 1.3803288196021803], [-1.3297589994107901, -0.884635265733776, -0.06639128816883587, 1.160080061168575, 0.6806643086036974, 0.691225698964691], [-1.5858578875140488, -1.256414551982797, 1.1382581565978158, 1.7730705813635175, -1.0541645661273948, -0.22667613927746216], [-0.01661838428851362, 0.9553482290894074, 0.9482988579039564, -0.9976981751678549, -1.5245122078091473, 1.6187618376452304]], "biases": [[0.2647685752304243, 0.08002547526814216, -0.21430743734261942, -0.1290922677268599, -0.12624294778756906, 0.041840558807630615]]}, "layer2": {"weights": [[-1.2430057285267957, 0.03961966966476217, 0.7518877499446495, 0.5761605262730026, 0.21809818224704725, -0.39767263915297474], [-1.9763310590945955, 0.11640206727486606, 0.5591822680501812, 0.14916221408397495, -2.34128384310389, -0.9017090021968643], [1.0947213840373675, 0.9707781621729259, -0.03157598924151892, -0.49010234915557305, 0.12879194525287696, -0.782286350662319], [0.5400334258871888, -2.424034871528346, -0.06783751224767892, -1.1051190781757945, 2.251469754515245, -0.7882264762900514], [-0.6309691832466687, -1.3572296829081418, -0.6178725376672031, -0.031773654799231756, 0.2681979068517558, 1.8889930616140063], [-0.08878562172903358, -1.3500515294475919, 2.4130417600231633, 0.35642649264411874, -0.6260029409622045, -0.7154753772328595]], "biases": [[0.13542717217947825, 0.06420908572592507, 0.38798267407669823, -0.00322771202518957, -0.048832947846685446, 0.11298948467481115]]}, "layer3": {"weights": [[0.704880993572871, 0.9140588318344203, -1.0320454924837508], [1.1903436001029475, -0.47766057257057376, 1.8492952259565054], [1.3894885764960412, 0.8441218753527644, -0.3213972041546035], [-0.39555491319283564, -2.9247720330797375, 1.0343651625143906], [-1.1457326626595161, 0.415469710150438, 2.0185915595210457], [-1.4674221160101149, -1.4740228369137482, -0.8686585470402018]], "biases": [[-0.16574607576434225, -0.22544008445483085, -0.09694327282580972]]}}]