[{"layer1": {"weights": [[0.07498086619353672, 0.4969904060850324, 1.032566568921835, 1.1385894063771091, -0.7524581195438711, -0.3166695406269544], [0.071987964291857, 1.3272484910431224, -1.1398704069088423, 1.3435032905102058, -2.215161661108567, 1.5487336908922194], [-1.237562012233516, -0.6512185018591885, -0.06297438882039395, 1.3281641986585262, 0.5852172780989148, 0.7898401820839099], [-1.5715115601285574, -1.265653166489848, 1.036226487700692, 1.6457400929430348, -1.2428266090937543, -0.2799958982639771], [0.577774538415833, 1.265705118986436, 1.1158179687487735, -0.8881518020114911, -1.5275428523457486, 1.7158076380763352]], "biases": [[0.21237013270903274, 0.07858278615459516, -0.2793145456826155, -0.21874529308934065, -0.10382542786743924, -0.0880137838164773]]}, "layer2": {"weights": [[-0.6636740879045234, -0.3381267159169626, 0.5987377571228276, 1.1028976979312328, 0.11339432654393818, -0.4424003584013783], [-1.9676126695472944, 0.2829068335628533, 0.5318685986728864, 0.4609982396476181, -2.1343825848232116, -0.7687554363036633], [1.244608507480201, 0.2523117312044937, -0.05145941193372408, -0.3870081749933145, 0.2546050738390713, -0.6046927389569621], [0.595181249808381, -2.3611011790757472, -0.18098099315404242, -0.4393013835210685, 2.2093868804452175, -1.0189582453554573], [-1.15988102680567, -1.2535958242506315, -0.4324129274943237, 0.22878860154321293, 0.3476873258148149, 1.6306431420465266], [-0.1648134040525531, -1.6177586772383243, 2.3104058168031925, 0.5214130342803968, -0.4351111586343318, -1.0993428027922407]], "biases": [[0.08815111772737372, 0.05286609128290262, 0.3553277313813152, -0.115177089959577, -0.05512362413681411, 0.09796479738408664]]}, "layer3": {"weights": [[0.4859481835812222, 0.8630001122125, -1.0784146322645998], [1.2679626912636586, -0.44711304736476787, 1.8590412020130742], [1.268593830871886, 0.9590600376892264, -0.39125048190024014], [0.31773858749679096, -2.7266012075349604, 0.783668713910961], [-1.3986963268264274, 0.42200023628436656, 2.09305696648393], [-1.3165271668081058, -1.5916433064455409, -1.2346739122027874]], "biases": [[-0.1271543024810605, -0.22022576684915401, -0.236099135242399]]}}, {"layer1": {"weights": [[0.0788482598970035, 0.4784959043554632, 1.0339688742683697, 1.138732596539474, -0.7495155520554498, -0.3166802363281954], [0.07669100982946071, 1.2239973070337633, -1.1398595816658732, 1.3405143285996557, -2.1760076599025124, 1.548923861330494], [-1.2216918534337329, -0.651047361973836, -0.18827700681173254, 1.3284951527449254, 0.5845905910218392, 0.7898443934955122], [-1.5717173213853113, -1.266109599624977, 0.9494971575616205, 1.6450189649492382, -1.2040306635110172, -0.27984733358810204], [0.5778397467641718, 1.2709228128229508, 1.1159046016301533, -0.9516936397962311, -1.523669391704377, 1.722558651873498]], "biases": [[0.21236922064849756, 0.0791225856531682, -0.2793683361294369, -0.21851777037597864, -0.10385435587110659, -0.08626809501606625]]}, "layer2": {"weights": [[-0.6668335854105796, -0.33812711689482766, 0.5986180981155397, 1.107762224148557, 0.20536903287250421, -0.43418546043058925], [-1.9719547174233119, 0.26047212761386596, 0.5318477268578333, 0.46099829405391307, -2.0885068064777546, -0.7702035251397246], [1.2555113750970794, 0.2549475836297504, -0.051459646392804786, -0.3918366005396288, 0.25460507287980383, -0.5968761854462211], [0.607091875066375, -2.361911326286794, -0.18098661474286054, -0.4666393224181391, 2.209389639114453, -1.0186610647254675], [-1.1446790873132113, -1.231224259990666, -0.4330576518826841, 0.21728018649704978, 0.35968001404061545, 1.6302692529971141], [-0.16409457795189492, -1.6017909977330769, 2.3103984428123603, 0.5214404064974221, -0.5139965561992519, -1.1721100224348542]], "biases": [[0.0881510197111336, 0.05310311695807959, 0.3429340197320725, -0.09288727192994248, -0.05512467769028453, 0.09864103190526963]]}, "layer3": {"weights": [[0.48522270807371914, 0.8633286584719767, -1.0780631800459086], [1.2232740174646841, -0.44847321326637135, 1.8556664967272436], [1.2669776877328949, 0.9590343978185596, -0.3912375034270833], [0.31518499304067915, -2.72664640730964, 0.8051371357958379], [-1.4049322498364774, 0.4220746729036672, 2.093062251604642], [-1.3161199620839912, -1.6186894957645128, -1.233822441000028]], "biases": [[-0.12713848653604792, -0.2202405447778146, -0.23726211909634373]]}}, {"layer1": {"weights": [[0.09189192817686268, 0.42527259531808465, 1.0381757903079738, 1.139162167026568, -0.7523406409617736, -0.31671232343191835], [0.09080014644227184, 1.3169509012758436, -1.1398271059369653, 1.3315474428680059, -2.2160475804951068, 1.5494943726453183], [-1.245838712779733, -0.6505339423177785, -0.06308737123064145, 1.3294880150041228, 0.5827105297906123, 0.7898570277303189], [-1.5723346051555727, -1.2674788990303634, 1.0096233007225242, 1.642855580967849, -1.050241413594877, -0.2794016395604769], [0.5779762327024442, 1.2865758943324956, 1.116164500274293, -0.88821909684184, -1.5120490097802626, 1.7428116932649866]], "biases": [[0.21236648446689205, 0.08074198414888732, -0.2795297074699011, -0.21783520223589253, -0.10394113988210862, -0.08103102861483305]]}, "layer2": {"weights": [[-0.6763120779287479, -0.33812831982842284, 0.5982591210936758, 1.1223558028005296, 0.1563886134155825, -0.3605622220342344], [-1.984980861051364, 0.26768852164507495, 0.5317851114126741, 0.460998457272798, -2.166418763282525, -0.7745477916479087], [1.2435609771305975, 0.2727830402161507, -0.05146034977004692, -0.3149117934906722, 0.25460507000200117, -0.5734265249139981], [0.5949535269836479, -2.364341767919936, -0.18100347950931486, -0.4166808580770156, 2.2093979151221608, -1.0177695228354984], [-1.259147014694586, -1.2206117242746704, -0.4349918250477651, 0.22301489096279845, 0.40468464911160124, 1.6291475858488764], [-0.16193809964992045, -1.621243213202821, 2.3103763208398647, 0.5215225231484981, -0.4359049992160594, -1.024322921510598]], "biases": [[0.08815072566241325, 0.05381419398361049, 0.30575288478434426, -0.11519423874166634, -0.05512783835069577, 0.10066973546881855]]}, "layer3": {"weights": [[0.48304628155121, 0.8643142972504069, -1.0770088233898347], [1.267966203990439, -0.4525537109711819, 1.8455423808697522], [1.2621292583159218, 0.9589574782065593, -0.39119856800761277], [0.30752420967234373, -2.7267820066336785, 0.9538990615132661], [-1.3769061800001599, 0.4222979827615691, 2.0930781069667788], [-1.3148983479116478, -1.637914408039938, -1.2271468018083618]], "biases": [[-0.12709103870101018, -0.22028487856379633, -0.24075107065817788]]}}, {"layer1": {"weights": [[0.0827156536004703, 0.460001402625894, 1.0353711796149043, 1.1388757867018384, -0.7523993802528224, -0.3166909320294364], [0.08139405536706443, 1.3371354862766265, -1.1398487564229038, 1.3375253666891058, -2.215604620801837, 1.5491140317687688], [-1.2417003625066245, -0.6508762220884835, -0.06303088002551771, 1.3288261068313245, 0.5622585077325989, 0.7898486049071144], [-1.5719230826420652, -1.2784953288213412, 1.022924894211608, 1.6442978369554417, -1.16523471792828, -0.279698768912227], [0.5779049551125106, 1.2761405066594658, 1.1159912345115333, -0.8881854494266656, -1.5197959310630056, 1.7553018407779577]], "biases": [[0.2123683085879624, 0.07966238515174123, -0.2794221265762583, -0.2182902476626166, -0.15142762174585617, -0.08452240621565518]]}, "layer2": {"weights": [[-0.6699930829166356, -0.3381275178726927, 0.5984984391082517, 1.112626750365881, 0.12260232824058781, -0.42597056245980025], [-1.9762967652993293, 0.2380374216648786, 0.5318268550427803, 0.4953769355408345, -2.1423570394481968, -0.771651613975786], [1.2440847423053993, 0.2575834360550071, -0.0514598808518855, -0.3966650260859431, 0.2546050719205363, -0.5890596319354802], [0.5950673883960145, -2.3627214734978415, -0.18099223633167866, -0.43353579238207474, 2.209392397783689, -0.8972642869142486], [-1.185452210448572, -1.2088526957307004, -0.4337023762710444, 0.2259017462530057, 0.2766595296014292, 1.6298953639477016], [-0.16337575185123676, -1.6195009452205726, 2.3103910688215286, 0.5214677787144475, -0.4355080789251956, -1.0618328621514195]], "biases": [[0.08815092169489348, 0.05334014263325655, 0.33054030808282975, -0.11518566435062166, -0.055125731243754944, 0.0993172664264526]]}, "layer3": {"weights": [[0.48449723256621613, 0.8636572047314535, -1.0777117278272172], [1.1785853436657097, -0.4095938926974561, 1.8522917914414132], [1.265361544593904, 0.9590087579478929, -0.39122452495392646], [0.31263139858456734, -2.7266916070843195, 0.8266055576807148], [-1.4111681728465275, 0.4221491095229678, 2.0930675367253544], [-1.3157127573598768, -1.611135720840271, -1.2329709697972684]], "biases": [[-0.12712267059103532, -0.2202553227064752, -0.23842510295028846]]}}, {"layer1": {"weights": [[0.0846493504522037, 0.45075415176110945, 1.0148026842835254, 1.1389473817830207, -0.7523846954300601, -0.3166962798800569], [0.08374557813586628, 1.3396072350850026, -1.1398433438014193, 1.3360308857338308, -2.215715360725154, 1.5492091169879063], [-1.2786724874629494, -0.6507906521458073, -0.06304500282679865, 1.328991583874524, 0.5727978623001434, 0.7898507106129156], [-1.4378129248487503, -1.272758897358288, 1.019599495839337, 1.6439372729585435, -1.1458367451369114, -0.2796244865742895], [0.57793755928668, 1.2787493535777232, 1.1160345509522234, -0.8881938612804592, -1.5178592007423197, 1.7456812601228908]], "biases": [[0.2123678525576948, 0.07993228490102776, -0.279449021799669, -0.21817648630593556, -0.12766991681214873, -0.08364956181544965]]}, "layer2": {"weights": [[-0.6715728316696636, -0.33812771836162525, 0.5984386096046077, 1.1150590134745433, 0.16858968140487085, -0.42186311347440575], [-1.978467789237338, 0.2268200686903849, 0.5318164191352537, 0.47818766920366873, -2.1443506531044427, -0.7723756583938166], [1.2495361761138386, 0.2589013622676355, -0.05145999808142586, -0.39907923885910024, 0.2546050714409025, -0.5851513551801096], [0.6081738533073375, -2.4773606119014753, -0.18099504712608772, -0.44720476183061003, 2.4074013821504945, -0.9576654951898684], [-1.1778512407023427, -1.1976669136007176, -0.4340247384652246, 0.22014753872992412, 0.3301624600468229, 1.595350480062094], [-0.16301633880090768, -1.6199365122161349, 2.3103873818261125, 0.5214814648229602, -0.43560730899791156, -1.0524553769912142]], "biases": [[0.08815087268677343, 0.05345865547084504, 0.3243434522582084, -0.10404075533580441, -0.05512625802049015, 0.09965538368704407]]}, "layer3": {"weights": [[0.4841344948124646, 0.8638214778611918, -1.0775360017178715], [1.1562410067662223, -0.4303937188835173, 1.8506044387984981], [1.2645534730244083, 0.9589959380125594, -0.39121803571734803], [0.31135460135651144, -2.7267142069716592, 0.8373397686231532], [-1.4142861343515527, 0.4221863278326181, 1.9061881762322008], [-1.3155091549978195, -1.624658815499757, -1.2325452341958885]], "biases": [[-0.12711476261852905, -0.22026271167080547, -0.2390065948772608]]}}]