[{"layer1": {"weights": [[-0.25294964156187527, -0.5300941114049912, 0.0691330440107731, 0.3773896722766964, -0.17777018725337282, -0.5297429281839164], [0.8936608158767836, 0.08287032296803556, 0.27932555593100805, 0.8466698965194346, -0.030521198512611387, 0.6652131279815187], [0.9457494246281859, 0.24075472187451014, 0.2118334714464284, -0.701263733461278, 0.3716100097192653, 0.3854661738089754], [-1.2506105920958772, -0.11215878637190407, 0.10300871172906347, 0.16909553420741022, -0.023504494953227942, 0.06793093158733671], [-0.7605141497567909, 0.21497419938646484, -0.0404894649573842, 1.8543105672705424, -0.7711394776464955, 0.11350300871891277]], "biases": [[-0.020842651778854922, -0.0012868483482714598, 0.13825595835038668, -0.0892629664469081, -0.08019201477014126, -0.044396395381827866]]}, "layer2": {"weights": [[-0.9375091267965796, 0.19164135578831387, 0.29301091829126946, 0.17734639864135593, -0.09056548590881178, 0.5131975711876897], [-0.2075100734307341, 0.8980948683894496, -0.5106624440745904, -1.5473780287326535, 0.09113636919349533, -0.2842648252419907], [0.7922131636964969, 0.043589013282421665, 0.041006890033980586, -0.6870110179728695, 0.18925138670941516, -0.6967072103792111], [0.4297799654073082, -0.4667290822854114, 0.7130654911745549, -0.26222377405464553, -0.13866566236967032, 0.6906108763428842], [1.316906735672283, 0.3237457851422132, 0.36474724082616183, -0.4885327820688763, -0.0897842484307365, 0.388934444679209], [-0.1597277746948979, -0.2215437101617999, 0.10305621094833989, 0.19824791274466777, 0.1778881210705703, -0.4306030909113591]], "biases": [[-0.024313197581125816, -0.017260863410093932, -0.06818157385329396, -0.06265265239413037, -0.013197322238752151, -0.10644717953685776]]}, "layer3": {"weights": [[-0.0861425586790939, 0.19950125769899327, -1.1914754231537663], [-0.3754149606319841, -0.1423635445380324, -0.36678087838812706], [-1.3957134986926003, 0.6965105357621378, -0.30570267651091976], [-0.5123907399754164, -0.33851758970073975, -0.18362680398888803], [1.0616007845300164, 0.4855700263481313, -0.5783466932530494], [0.032112369310183714, 0.8886157257092215, 0.49323664600838013]], "biases": [[0.16281118380903137, -0.0029182412596651035, -0.08793173084475528]]}}, {"layer1": {"weights": [[-0.24328479511785972, -0.48830229666338376, 0.0696002679100686, 0.38748927878712414, -0.1798517543335063, -0.5203320107614561], [0.8878870539164307, 0.2312903558862637, 0.26432290101183564, 0.8487431374951542, -0.022980642065522992, 0.7069136220301633], [0.9177692457424342, 0.24049391230702005, 0.40937021277146945, -0.7090652434471632, 0.3710495358177355, 0.27502405667584345], [-1.1928251172095783, -0.1597914233030586, 0.10301172636444497, 0.16300462004508776, -0.004422261629064065, 0.06426243506779059], [-0.7630943213032211, 0.20779589639222687, -0.05645335731156441, 1.8506524825693367, -0.7709504701700002, 0.07436771365869074]], "biases": [[-0.020329933730983372, 0.00207413321357813, 0.13792238939662352, -0.08922924108375954, -0.08188982919331561, -0.03975777267468424]]}, "layer2": {"weights": [[-0.9585666993954989, 0.19141005519472742, 0.2933522993831346, 0.19535749087605267, -0.15286037099897165, 0.5379920560745101], [-0.2226553768066089, 0.8947977747426007, -0.44949780651130855, -1.5474925003449473, 0.0664936205357902, -0.336054498680356], [0.8749776047272091, -0.02822348340232029, 0.0440019069931777, -0.7012750486022559, 0.1879095518560424, -0.674016223563858], [0.43042348062707914, -0.4690087652807732, 0.7260569535903627, -0.2943943499615377, -0.2058659442214331, 0.6649988291266445], [1.3199988799088533, 0.32522506516897537, 0.36990170543649614, -0.4952667244585767, -0.011327799127111654, 0.36594413483471844], [-0.15410847432800995, -0.4982943501276599, 0.12913307939922083, 0.24838317110743893, 0.17926066640417215, -0.3742811010667283]], "biases": [[-0.02443508685976362, -0.019313982760623124, -0.06786874783344539, -0.0626713518190562, -0.013735689931463103, -0.11919947997168627]]}, "layer3": {"weights": [[-0.07943795896818881, 0.3123467150472492, -1.1906928412052726], [-0.44479770081483727, -0.1564953279095533, -0.3858497891500251], [-1.3970610078480465, 0.6959237322316121, -0.28746684082116053], [-0.40347531008071513, -0.335766636414502, -0.18324817124434797], [0.8927072739004158, 0.493003013657916, -0.6023675902798744], [0.03349485792505588, 0.888660190165582, 0.4940828249622392]], "biases": [[0.16179959056122223, -0.0014940328435128936, -0.08793164656732255]]}}, {"layer1": {"weights": [[-0.24328479511785972, -0.5312389973455204, 0.0696002679100686, 0.3786327446653521, -0.225403394326887, -0.5203320107614561], [0.8878870539164307, 0.10725402930607136, 0.26432290101183564, 0.8487431374951542, -0.012451808483771311, 0.6659560683607457], [0.9565721253666425, 0.24049391230702005, 0.21315810647442335, -0.699896159622476, 0.3710495358177355, 0.386746170314985], [-1.1928251172095783, -0.1597914233030586, 0.10301172636444497, 0.158894677591567, -0.06518096215616373, 0.06426243506779059], [-0.7630943213032211, 0.16971094426610706, -0.038106313538282845, 1.8508956233914242, -0.7465324157279416, 0.07849414341322067]], "biases": [[-0.020329933730983372, 0.00207413321357813, 0.13792238939662352, -0.08922924108375954, -0.08188982919331561, -0.03975777267468424]]}, "layer2": {"weights": [[-1.061585541819639, 0.19141005519472742, 0.22470102253675975, 0.19535749087605267, -0.09907363067174534, 0.5379920560745101], [-0.2226553768066089, 0.9378103647241465, -0.5148704430402176, -1.5474925003449473, 0.12820285376973373, -0.336054498680356], [0.7851711220624404, 0.0426720799881296, 0.0440019069931777, -0.6806305808775568, 0.21849965916245118, -0.7138891880527212], [0.43042348062707914, -0.4690087652807732, 0.6985767587026125, -0.26768490114488275, -0.2058659442214331, 0.7843919058743206], [1.3199988799088533, 0.32522506516897537, 0.36990170543649614, -0.4952667244585767, 0.019799839261558816, 0.36594413483471844], [-0.15410847432800995, -0.4982943501276599, 0.10397085571224308, 0.19846685287063576, 0.17926066640417215, -0.28214446394516257]], "biases": [[-0.02443508685976362, -0.019313982760623124, -0.06786874783344539, -0.0626713518190562, 0.014198789694966789, -0.11919947997168627]]}, "layer3": {"weights": [[-0.07943795896818881, 0.3123467150472492, -1.1906928412052726], [-0.4130345420065831, -0.1564953279095533, -0.3858497891500251], [-1.3970610078480465, 0.6979885932427301, -0.306158197501267], [-0.5126148732318011, -0.335766636414502, -0.22187811100102064], [0.8927072739004158, 0.493003013657916, -0.6080238381613623], [0.03349485792505588, 0.888660190165582, 0.4940828249622392]], "biases": [[0.16179959056122223, -0.0014940328435128936, -0.08793164656732255]]}}, {"layer1": {"weights": [[-0.24328479511785972, -0.345413927801842, 0.0696002679100686, 0.38748927878712414, -0.1798517543335063, -0.5203320107614561], [0.8878870539164307, 0.08274887857847468, 0.26432290101183564, 0.7085149178222314, -0.022980642065522992, 0.7069136220301633], [0.9177692457424342, 0.24049391230702005, 0.21315810647442335, -0.7090652434471632, 0.3710495358177355, 0.386746170314985], [-1.1928251172095783, -0.1597914233030586, 0.10301172636444497, 0.16300462004508776, -0.004422261629064065, 0.06426243506779059], [-0.7630943213032211, 0.20779589639222687, -0.05645335731156441, 1.8506524825693367, -0.7709504701700002, 0.07436771365869074]], "biases": [[-0.020329933730983372, 0.00207413321357813, 0.13792238939662352, -0.07206009696238386, -0.08188982919331561, -0.03975777267468424]]}, "layer2": {"weights": [[-0.9585666993954989, 0.19141005519472742, 0.2933522993831346, 0.19535749087605267, -0.09907363067174534, 0.5379920560745101], [-0.2226553768066089, 0.8947977747426007, -0.4238510350334249, -1.5474925003449473, 0.0664936205357902, -0.336054498680356], [0.77940398511792, 0.0426720799881296, 0.020952189141361724, -0.7012750486022559, 0.1879095518560424, -0.674016223563858], [0.43042348062707914, -0.4690087652807732, 0.7260569535903627, -0.2666074509642088, -0.2058659442214331, 0.6950573248249245], [1.3199988799088533, 0.32522506516897537, 0.36990170543649614, -0.4952667244585767, -0.08770020268786252, 0.36594413483471844], [-0.15410847432800995, -0.4982943501276599, 0.10397085571224308, 0.15561344297548058, 0.17926066640417215, -0.3742811010667283]], "biases": [[-0.02443508685976362, -0.019313982760623124, -0.06786874783344539, -0.0626713518190562, -0.013735689931463103, -0.07799743282313605]]}, "layer3": {"weights": [[-0.07943795896818881, 0.3123467150472492, -1.1906928412052726], [-0.4130345420065831, -0.1564953279095533, -0.3858497891500251], [-1.4203781252658956, 0.6959237322316121, -0.306158197501267], [-0.5126148732318011, -0.335766636414502, -0.18324817124434797], [0.8927072739004158, 0.493003013657916, -0.5271281579332849], [0.03349485792505588, 0.888660190165582, 0.4940828249622392]], "biases": [[0.16179959056122223, -0.0014940328435128936, -0.08793164656732255]]}}, {"layer1": {"weights": [[-0.24328479511785972, -0.48830229666338376, 0.0696002679100686, 0.38748927878712414, -0.13296106603801872, -0.3669869496801337], [0.8878870539164307, 0.08274887857847468, 0.26432290101183564, 0.8487431374951542, 0.04493520190619473, 0.7069136220301633], [0.9177692457424342, 0.24049391230702005, 0.21315810647442335, -0.8300481035300412, 0.3710495358177355, 0.386746170314985], [-1.1928251172095783, -0.1597914233030586, 0.10301172636444497, 0.16300462004508776, -0.004422261629064065, 0.06426243506779059], [-0.7630943213032211, 0.20779589639222687, -0.05645335731156441, 1.8506524825693367, -0.7709504701700002, 0.07436771365869074]], "biases": [[-0.020329933730983372, 0.00207413321357813, 0.13792238939662352, -0.08922924108375954, -0.08188982919331561, -0.07201100180329106]]}, "layer2": {"weights": [[-0.8108360980053992, 0.19141005519472742, 0.2933522993831346, 0.19535749087605267, -0.2886121839025233, 0.5379920560745101], [-0.2226553768066089, 0.8947977747426007, -0.39014965910395194, -1.5474925003449473, 0.0664936205357902, -0.336054498680356], [0.77940398511792, 0.0426720799881296, 0.0440019069931777, -0.7012750486022559, 0.1879095518560424, -0.674016223563858], [0.43042348062707914, -0.4690087652807732, 0.7260569535903627, -0.2943943499615377, -0.2058659442214331, 0.6649988291266445], [1.3199988799088533, 0.32522506516897537, 0.36990170543649614, -0.4952667244585767, -0.08770020268786252, 0.36594413483471844], [-0.15410847432800995, -0.4982943501276599, 0.10397085571224308, 0.15561344297548058, 0.17926066640417215, -0.3742811010667283]], "biases": [[-0.02443508685976362, -0.09638975414669243, -0.06786874783344539, -0.0626713518190562, -0.013735689931463103, -0.11919947997168627]]}, "layer3": {"weights": [[-0.07943795896818881, 0.3123467150472492, -1.1906928412052726], [-0.4130345420065831, -0.1564953279095533, -0.3858497891500251], [-1.5674552286121122, 0.6959237322316121, -0.306158197501267], [-0.5126148732318011, -0.335766636414502, -0.18324817124434797], [0.6376695261177239, 0.493003013657916, -0.6023675902798744], [0.03349485792505588, 0.888660190165582, 0.4940828249622392]], "biases": [[0.16179959056122223, -0.0014940328435128936, -0.08793164656732255]]}}]