[{"layer1": {"weights": [[-0.28744200231018985, 0.3922131345194662, 0.8758234595614399, 1.1101259957797116, -0.9167960220893139, -0.32400611874015395], [-0.08794990577348502, 1.4203015361008402, -1.0120065394385698, 1.2213102951006167, -2.152114400067038, 1.436105056815276], [-1.236486862400239, -0.8069394519047742, -0.01623016656290536, 1.22085928968027, 0.5788105248781812, 0.7423070180996246], [-1.7254977738231139, -1.0324777066858137, 1.062701941009023, 1.7459671443144131, -0.8666746471982666, -0.16676883901424264], [0.08079808677126828, 0.6901870523547535, 0.8920039562723041, -1.089174049508181, -1.7722256485156387, 1.761954403402894]], "biases": [[0.28788002032464644, 0.12181697639067361, -0.22417638046342767, -0.1800996941279669, 0.01379078627462604, -0.02089330986867967]]}, "layer2": {"weights": [[-1.163382853120758, -0.3721855372095286, 0.7678840694960614, 0.8854992333016215, 0.17853982579591915, -0.44521283389060795], [-2.0328474270648678, -0.08120927558314428, 0.5380981118622642, 0.06750370876381012, -2.167702416603784, -0.5758617471980507], [1.233263323210938, 0.27771956240561857, -0.1517939755429137, -0.7535756669487581, 0.1885137138488342, -0.8238532944198438], [0.525359980796194, -2.480983098925785, -0.1331608253486476, -0.5081387582976075, 2.2737491347497687, -0.8388885436353238], [-1.2546949015563753, -1.2109465999010114, -0.5116111620920669, 0.23760620250923647, 0.4468955757602168, 1.6083909992203087], [-0.0816140904879033, -1.521348791303974, 2.3562180219626603, 0.5753669988040666, -0.6781702951346344, -0.771847743352469]], "biases": [[0.1538724152003343, 0.04412273946546666, 0.3744200763232822, -0.06329469740631904, -0.06214851145486832, 0.13151342736066884]]}, "layer3": {"weights": [[0.6249938838047713, 0.8750833926994744, -1.0940709168062714], [0.8291910250585981, -0.5193573923278154, 1.760384287261386], [1.4314754639497063, 0.8222379068002696, -0.3158644882056624], [-0.06130276748784358, -2.8347639401714657, 0.8889039882845822], [-1.3366538945328272, 0.40283034669098194, 2.0717600194301875], [-1.3057892337386794, -1.4593564645930286, -1.221176755032787]], "biases": [[-0.18694196043736241, -0.15633405560953512, -0.08226081507957209]]}}, {"layer1": {"weights": [[-0.28743382848503196, 0.39571645720275817, 0.8759599404837641, 1.110572600589718, -0.9194018834193356, -0.32395210526622187], [-0.12731224932151852, 1.4344107949094305, -1.0120394451549959, 1.2203757820950871, -2.1496133058206377, 1.436074560359339], [-1.2311858864518939, -0.8051784011298585, -0.03712164535574972, 1.2205015989692192, 0.5894223434189843, 0.7068791028870645], [-1.727044793362206, -1.032850016875111, 1.0624756173380314, 1.7460251565677147, -0.7745773500091181, -0.22503336466530222], [0.08110208361188764, 0.9975456539315259, 0.8862271549827303, -1.0928069524089699, -1.768367904569791, 1.5656979089125143]], "biases": [[0.2878747055847536, 0.11906704587689221, -0.2205270913286132, -0.18010266003459652, -0.03165785867592942, -0.020884594556091318]]}, "layer2": {"weights": [[-1.1711201674530658, -0.3718502468894609, 0.7489091817036144, 0.8733387535901473, 0.17802602872379455, -0.42136175137524456], [-2.0331453921255616, 0.05920563167135198, 0.5737291689299606, 0.12479170476351815, -2.162987671891056, -0.5753207536193586], [1.2199598494161197, 0.2777224833786112, -0.15507279382495703, -0.7452320070064248, 0.1709837782189309, -0.8267325146260807], [0.5478936398391974, -2.467476763104451, -0.1333587873632882, -0.5691044626025696, 2.1999440731105193, -0.837555128515356], [-1.2547602824485269, -1.229584538420613, -0.5008411467670587, 0.22687898452938138, 0.35210822947060993, 1.629788180335936], [-0.08159068911162647, -1.5169833533368902, 2.342098330389772, 0.5750126563402314, -0.6782050644930753, -0.7713876202570478]], "biases": [[0.15387245654628018, 0.04409414701551109, 0.37417687726052123, -0.05178974650858208, -0.06214994263536608, 0.13238343577155295]]}, "layer3": {"weights": [[0.6399827881970157, 0.8751174847948444, -1.0934689424387782], [0.9999732758121058, -0.4241958532052982, 1.7587749549633038], [1.4321385179129589, 0.8223744251327194, -0.3158565973622767], [-0.05718920664037237, -2.853841329585839, 0.9030580914205704], [-1.3287319796031642, 0.40304416721240044, 2.071760019429981], [-1.326162635009752, -1.466036276715426, -1.211298756003683]], "biases": [[-0.18510142855604295, -0.15633403775777344, -0.0801771235918717]]}}, {"layer1": {"weights": [[-0.287429741572453, 0.39746811854440417, 0.8760281809449262, 1.1107959029947212, -0.9207048140843466, -0.3239250985292558], [-0.10849614506318175, 1.422796846806651, -0.9030247726282261, 1.2228808862745717, -2.150311899872831, 1.35278474450891], [-1.2285353984777214, -0.8042978757424006, -0.03738245806115047, 1.2325668033847852, 0.5866013597395481, 0.742245948425948], [-1.727818303131752, -1.0330361719697596, 1.0623624555025355, 1.7460541626943655, -0.873488032090448, -0.2245341691327144], [0.26256279445566455, 0.7167542225420405, 0.8833387543379434, -1.094623403859364, -1.8040316409789083, 1.6028395518583196]], "biases": [[0.28787204821480716, 0.1176920806200015, -0.2296183100452387, -0.18010414298791133, 0.013961773255976771, -0.020880236899797143]]}, "layer2": {"weights": [[-1.3221906729556234, -0.371682601729427, 0.7992254177428042, 0.7684198017969843, 0.17776913018773227, -0.36414095145615977], [-2.0332943746559087, -0.08814946395139797, 0.5100347616378238, 0.1476480157895742, -2.1688709338196897, -0.667883575820873], [1.2264259840431166, 0.27772394386510757, -0.1567122029659787, -0.7498236831033955, 0.17744517920395597, -0.8281721247291991], [0.5279930827363211, -2.4607235951937843, -0.13345776837060852, -0.5385470798759242, 2.2001543405502693, -0.836888420955372], [-1.2547929728946026, -1.1450951176130881, -0.49545613910455455, 0.22151537553945383, 0.24225757959996982, 1.6881670186915623], [-0.08157898842348804, -1.518938076006088, 2.3492082991301553, 0.5748354851083137, -0.6838835911533532, -0.7711575587093371]], "biases": [[0.15387247721925312, 0.04407985079053331, 0.3740552777291407, 0.011823035396521978, -0.06215065822561496, 0.132818439976995]]}, "layer3": {"weights": [[0.6444427308428731, 0.8515206876031134, -1.0931679552550317], [0.8338621057755866, -0.5136378036877565, 1.7579702888142628], [1.4324700448945853, 0.8224426842989443, -0.3158526519405839], [-0.07116835639309156, -2.884476671595154, 0.9101351429885645], [-1.224011405336509, 0.4031510774731097, 2.0717600194298775], [-1.3497501698887655, -1.469376182776625, -1.205756081998179]], "biases": [[-0.1841811626153832, -0.15633402883189257, -0.07913527784802149]]}}, {"layer1": {"weights": [[-0.287425654659874, 0.3992197798860502, 0.8760964214060882, 1.1110192053997245, -0.9220077447493574, -0.32389809179228973], [-0.13156249661469036, 1.4485200537180205, -1.012072350871422, 1.2969445148934875, -2.151010493925024, 1.4360440639034022], [-1.2258849105035488, -0.8034173503549428, -0.018034745660943513, 1.2201439082581684, 0.5909934381469986, 0.7422255918680558], [-1.728591812901298, -1.0332223270644083, 1.0622492936670396, 1.7460831688210163, -0.8649608811186613, -0.22403497360012656], [0.15616702310901232, 0.6892309523196135, 0.8804503536931565, -1.0964398553097585, -1.7645101606239435, 1.639981194804125]], "biases": [[0.2878693908448608, 0.11631711536311079, -0.2241219935743206, -0.18010562594122617, 0.014018768916427015, -0.02087587924350297]]}, "layer2": {"weights": [[-1.1610484782590567, -0.37151495656939315, 0.7299342939111675, 0.6635008500038214, 0.17751223165166996, -0.4435430933788708], [-2.033443357186256, -0.0904628600741492, 0.4887203164953612, 0.13332905423159275, -2.158272927178328, -0.5747797600406666], [1.2328921186701134, 0.27772540435160387, -0.15835161210700038, -0.7544153592003662, 0.18390658018898104, -0.8296117348323175], [0.5259426963012607, -2.4539704272831173, -0.13355674937792883, -0.5079896971492788, 2.2003646079900196, -0.836221713395388], [-1.2548256633406782, -1.229433896860129, -0.49007113144205044, 0.21615176654952628, 0.13240692972932971, 1.6203683854130326], [-0.08156728773534963, -1.5167553570225458, 2.356318267870539, 0.5746583138763962, -0.678239833851516, -0.7709274971616265]], "biases": [[0.15387249789222607, 0.04406555456555553, 0.37393367819776024, -0.05932461513387734, -0.062151373815863845, 0.13325344418243706]]}, "layer3": {"weights": [[0.6489026734887304, 0.8279238904113825, -1.0928669680712852], [0.8578096889245339, -0.5117312741410701, 1.7571656226652217], [1.4328015718762117, 0.8225109434651692, -0.3158487065188911], [-0.05307564579290116, -2.865717676940451, 0.9172121945565584], [-1.1192908310698537, 0.40325798773381893, 2.0717600194297745], [-1.3058880902223402, -1.4727160888378237, -1.200213407992675]], "biases": [[-0.18326089667472345, -0.15633401990601173, -0.0780934321041713]]}}, {"layer1": {"weights": [[-0.28743382848503196, 0.39571645720275817, 0.8759599404837641, 1.110572600589718, -0.9194018834193356, -0.32395210526622187], [-0.10975620119408769, 1.4195248814114554, -1.0120394451549959, 1.2591274049970522, -2.1515624469960306, 1.436074560359339], [-1.2311858864518939, -0.8051784011298585, -0.017132456111924436, 1.2205015989692192, 0.5849019815125899, 0.7422663049838403], [-1.727044793362206, -1.032850016875111, 1.1579161459638085, 1.7460251565677147, -0.8658177641584639, -0.1954019063071846], [0.11848255494014029, 0.6897090023371835, 0.8862271549827303, -1.0928069524089699, -1.768367904569791, 1.7009677991035095]], "biases": [[0.2878747055847536, 0.11906704587689221, -0.22414918701887415, -0.18010266003459652, 0.013904777595526528, -0.020884594556091318]]}, "layer2": {"weights": [[-1.1622156656899074, -0.3718502468894609, 0.7489091817036144, 0.8358341300169244, 0.17802602872379455, -0.44437796363473936], [-2.0331453921255616, -0.08583606782864675, 0.5134092141788127, 0.10041638149770143, -2.162987671891056, -0.5753207536193586], [1.2330777209405257, 0.2777224833786112, -0.15507279382495703, -0.7539955130745621, 0.18621014701890762, -0.8267325146260807], [0.5256513385487274, -2.467476763104451, -0.1333587873632882, -0.5080642277234431, 2.2370568713698944, -0.8325875387374269], [-1.2547602824485269, -1.2201902483805702, -0.5008411467670587, 0.22687898452938138, 0.28965125274477327, 1.6645695055702965], [-0.08159068911162647, -1.5190520741632598, 2.3562681449165996, 0.5750126563402314, -0.6782050644930753, -0.7713876202570478]], "biases": [[0.15387245654628018, 0.04409414701551109, 0.37417687726052123, -0.06130965627009819, -0.06214994263536608, 0.13238343577155295]]}, "layer3": {"weights": [[0.6369482786467509, 0.8515036415554285, -1.0934689424387782], [0.843500356991566, -0.5205935524821657, 1.7587749549633038], [1.4321385179129589, 0.8223744251327194, -0.3158565973622767], [-0.05718920664037237, -2.8502408085559585, 0.9030580914205704], [-1.2279723628013404, 0.40304416721240044, 2.071760019429981], [-1.3058386619805098, -1.466036276715426, -1.210695081512731]], "biases": [[-0.18510142855604295, -0.15633403775777344, -0.0801771235918717]]}}]