[{"layer1": {"weights": [[-0.17356000845664238, -0.5257965166527039, 0.1069180761089645, 0.21641917245763986, -0.32611304129303403, -0.48934880116408963], [0.8696581313967153, 0.2678992968713253, 0.158281632840446, 0.9136435724915197, -0.07790410128925943, 0.6509314987746546], [0.9162173568257876, 0.20594479067765423, 0.11704864297184062, -0.7080501766542664, 0.2968389328190984, 0.42832201977070244], [-1.1777090379754764, -0.19246100533725174, 0.07514191433921985, -0.18966171780153934, -0.09683050482708956, 0.012659903530268654], [-0.7648531899469342, 0.13667727084049397, 0.2023812260216997, 1.7489286259658532, -0.5536528235366538, 0.08670886649437709]], "biases": [[-0.006951733351269498, -0.014722539558724632, 0.10308557174859084, -0.09178658710007975, -0.07023648688527753, -0.033044012166220715]]}, "layer2": {"weights": [[-0.6766959763687062, 0.20762122218312307, 0.25076189850887426, 0.24187049189297502, -0.3628886429700538, 0.585136818248324], [-0.29432393832571946, 0.8420081265883465, -0.6793493100559331, -1.476581411782211, -0.1649695935093508, -0.47459218655456314], [0.754954052113104, 0.1050180007450361, 0.14777520930904206, -0.5221260869131105, 0.08685537968491737, -0.769151027172186], [0.3921066302068268, -0.40851561309394346, 0.6589330460646514, 0.02105217343339666, -0.24035340296656643, 0.653548719183233], [1.357164346985801, 0.09291138889496442, 0.41814452478929126, -0.5272259752167415, -0.007111003952999857, 0.4836827774445798], [0.17888272184966594, -0.6395363490707537, -0.01412301942177534, 0.1988150570241528, 0.18985367216803598, -0.20821490427929987]], "biases": [[0.021201900059069446, -0.056596258839324814, -0.06024054082638834, -0.08432517981005529, 0.0012616718111352731, -0.10674701905520789]]}, "layer3": {"weights": [[-0.12214663133926915, 0.3480653397036389, -1.1255586080995164], [-0.3233629348507131, -0.10467498444416427, -0.4874757253956936], [-1.2527487565682722, 0.8088636071354639, -0.30965497487436167], [-0.507622999779155, -0.3050956294465658, -0.16494479632283682], [0.8551558461104374, 0.5303195788057499, -0.727518393119901], [-0.08571223923790544, 0.8408363425529319, 0.27618653935922666]], "biases": [[0.13728747814204845, -0.007484026343354421, -0.1280091836890217]]}}, {"layer1": {"weights": [[-0.18225869051512594, -0.5259307533781075, 0.09806825559154139, 0.23892561639354012, -0.33333666417449026, -0.483522024335266], [0.8746024011659561, 0.2096566328821103, 0.16600714402515515, 0.9080671836122498, -0.07828610926402149, 0.649852118509261], [0.9193545762379134, 0.17688803755848448, 0.2087092950346671, -0.7212547385001588, 0.29684673326338323, 0.4172633544698213], [-1.1818514942010219, -0.12918955380189398, 0.06580557710638574, -0.1888829818705598, -0.0961889605283279, -0.05184681783089061], [-0.8205082917777968, 0.17896469769457013, 0.20254813520905002, 1.7634847739759, -0.5555966156840234, 0.13425274721788905]], "biases": [[-0.019541533895315863, -0.01474680930666253, 0.10308561443704534, -0.09194546593917705, -0.06985690630702637, -0.03301790767581023]]}, "layer2": {"weights": [[-0.7119403295959117, 0.09207098716185685, 0.3049207234145033, 0.23996026167827156, -0.4602412397479438, 0.6013960726011424], [-0.29874323309792494, 0.8176320246768823, -0.6203131719697313, -1.4864813785888962, -0.16424549084282025, -0.4562903396593182], [0.7724739715421324, 0.10911568138429001, 0.13256008250630802, -0.6616492676246211, 0.09811482799042125, -0.7780188002554289], [0.3876329932880197, -0.3933829793842384, 0.6484191525856842, -0.24021581910944445, -0.2156476237660586, 0.6440667588873409], [1.3602033937663172, 0.09288746506262113, 0.3498605828144538, -0.5280639713570465, 0.004259832240258962, 0.5563393812114394], [0.1808158255465082, -0.6464725989961913, -0.019876589760456267, 0.2121851301373549, 0.19211541293315593, -0.22464132889091568]], "biases": [[0.021230868828738668, -0.05657553969560583, -0.05945169683034113, -0.12404862838927852, 0.0024532487748547254, -0.09542308019632409]]}, "layer3": {"weights": [[-0.12238659977793163, 0.3561368800918512, -1.4311892659396093], [-0.44129566544508747, -0.20455610040555178, -0.5160784709199511], [-1.3100381500493448, 0.5786753294214738, -0.3132720895342997], [-0.5421089348249037, -0.3112540968126947, -0.1844330365346508], [0.8333513758408619, 0.5300867374544056, -0.7156930623253477], [0.012721428545859139, 0.8266244180201796, 0.25031427169003695]], "biases": [[0.1375314145436452, -0.007486974538507057, -0.1453389043638244]]}}, {"layer1": {"weights": [[-0.17627049304536255, -0.5264646280003722, 0.10283228047626986, 0.2343381053533951, -0.328665087715044, -0.47407671918684935], [0.8652397517442141, 0.2721440696860774, 0.16663615431432643, 0.9127015802441273, -0.07089059812412724, 0.6690384986615757], [0.9159731930317032, 0.2942415170125605, 0.11945838127205223, -0.7038994312036887, 0.29754169376433787, 0.40202068668855095], [-1.1802827891299703, -0.15896052030951965, 0.06891971978448637, -0.18890263728326814, -0.11864572909909651, -0.03563804063254841], [-0.8200282507101153, 0.17856407935717267, 0.1986967257375979, 1.7549289008295235, -0.5728532635400887, 0.17441217015307375]], "biases": [[-0.04483116302865602, -0.014795348802538326, 0.10308569981395432, -0.09250773212868134, -0.06981319590829257, -0.03307041870845325]]}, "layer2": {"weights": [[-0.7119235739450815, 0.091938982093757, 0.2743429118923887, 0.2439290814221729, -0.362848226858405, 0.5785760600047268], [-0.30330015919076225, 0.8417411501965402, -0.640136274821046, -1.381026688712883, -0.1633994706042749, -0.47122067840470583], [0.7637670073855761, 0.1084575672191187, 0.140998887364134, -0.6615704593032812, 0.1353250714112756, -0.7796415186325578], [0.3864549103834053, -0.4073474781298693, 0.6581458121991678, -0.2588780607888305, -0.1369260998329655, 0.6440666933133377], [1.3574262164302433, 0.09288034260344402, 0.3501027345077082, -0.47757257551367316, 0.18974198025711256, 0.4786891419478443], [0.1189070896646609, -0.6153084885362148, -0.07658948031609729, 0.2111240491818538, 0.19219698545442954, -0.2577085545902431]], "biases": [[0.02130755913371756, -0.05650839425512509, -0.05931983898119443, -0.08934570966345931, 0.0024301950174814005, -0.1067521586679572]]}, "layer3": {"weights": [[-0.12293420645372503, 0.33726977218498877, -1.1306969017395807], [-0.4058529682892648, -0.13815334187135384, -0.47340846152497157], [-1.3115112541770304, 0.7676288301351434, -0.30963941535697026], [-0.5422789813612715, -0.31138814927228387, -0.18409511867433231], [0.8369409488763013, 0.48444604030372596, -0.730766639359671], [-0.0819809023609165, 0.8323997744823539, 0.2513372273655867]], "biases": [[0.13742926610358538, -0.005427794087556186, -0.09600927330046591]]}}, {"layer1": {"weights": [[-0.17954820592640575, -0.5252626420304392, 0.09950368747304189, 0.2325200230670708, -0.33078461775248025, -0.48912078995202934], [0.8790207808184574, 0.35190618440880694, 0.15765262255127477, 0.8821047402231877, -0.08335846335112038, 0.6413407428864163], [0.916423961293772, 0.14411532736180177, 0.11816791998897751, -0.7097339608913729, 0.29614397231814377, 0.4198572483211076], [-1.1923500552440993, -0.18967895468841567, 0.0731775639223175, -0.19434855920349195, -0.10023329798991448, -0.010729838370503786], [-0.5863121509308387, 0.13707788917789143, 0.2062326354931518, 1.7577052909525004, -0.7183774253422255, 0.12513860605308902]], "biases": [[-0.019495664878757358, 0.0701979773595797, 0.10308548637168186, -0.09122432091057545, -0.07028019728401133, -0.0329915011335777]]}, "layer2": {"weights": [[-0.7172356249813503, 0.20775322725122292, 0.317294548370863, 0.23790167214907365, -0.36211264377940255, 0.6079568308447395], [-0.28976701223288204, 0.9419266635918653, -0.6429944843837638, -1.5325176401017129, -0.1658156137478962, -0.4904378042164675], [0.7636610162696602, 0.10567611491020741, 0.2040556736927468, -0.6615943768596564, 0.08214447181857251, -0.7675283087950568], [0.3932847131114412, -0.39455111434831247, 0.6492063864511677, -0.2356355786081513, -0.2499088107088338, 0.6535487847572362], [1.3599415243218749, 0.09291851135414153, 0.4179023730960369, -0.5246169815417014, -0.01849707580207847, 0.4852560530953212], [0.15162843556544392, -0.6395109250825881, -0.037732767282042876, 0.19987613797965392, 0.18977209964676237, -0.20819906378389458]], "biases": [[0.02112520975409056, -0.056663404279805554, -0.0504688110867618, -0.08704457052031421, 0.0012847255685085985, -0.10679127684792161]]}, "layer3": {"weights": [[-0.09699879810465367, 0.3669324476105013, -1.1305176596729734], [-0.4130023816356953, -0.12312791474523081, -0.5268160969064141], [-1.2301195743067543, 0.6419605613939313, -0.3132876490516911], [-0.5551256843428507, -0.28566063220141885, -0.173411198143737], [0.851566273074998, 0.37302587457142744, -0.7124448160855776], [-0.03508030567877338, 0.8350609860907576, 0.24971638784671119]], "biases": [[0.13738962658210824, -0.009543206794305294, -0.1277672084628262]]}}, {"layer1": {"weights": [[-0.17356000845664238, -0.5257965166527039, 0.15922151414293714, 0.22793251202692577, -0.32611304129303403, -0.48934880116408963], [0.8696581313967153, 0.2678992968713253, 0.158281632840446, 0.9136435724915197, -0.0759629522112261, 0.648701980118378], [0.9130425780875618, 0.19198484033713434, 0.09924000033406412, -0.7080501766542664, 0.2968389328190984, 0.40461458053983723], [-1.190781350173048, -0.21944992119604134, 0.07629170660041813, -0.18966171780153934, -0.1226900665606831, 0.005478938827838412], [-0.7648531899469342, 0.13667727084049397, 0.10879555697968649, 1.7491494178061235, -0.5711462397729052, 0.16529802898827373]], "biases": [[-0.044785294012097514, -0.059053236306832735, 0.10308557174859084, -0.15533381545095742, -0.07023648688527753, -0.033044012166220715]]}, "layer2": {"weights": [[-0.7172188693305201, 0.20762122218312307, 0.2867167368487483, 0.24187049189297502, -0.3628886429700538, 0.585136818248324], [-0.29432393832571946, 0.8565605827787962, -0.6628175872350784, -1.4484521422244452, -0.2608787630022645, -0.5053681429618551], [0.754954052113104, 0.16620726881118825, 0.14777520930904206, -0.6615155685383165, 0.05279151445071677, -0.769151027172186], [0.3921066302068268, -0.40851561309394346, 0.6589330460646514, -0.25429782028753734, -0.13639703895954547, 0.653548719183233], [1.357164346985801, 0.09291138889496442, 0.41814452478929126, -0.6488698389783192, -0.007111003952999857, 0.4836827774445798], [0.1515580527896088, -0.6083468146226116, -0.03282374763222677, 0.21476882296833474, 0.18985367216803598, -0.20821490427929987]], "biases": [[0.021201900059069446, -0.056596258839324814, -0.05033695323761511, -0.05234165179449501, 0.0012616718111352731, -0.11812035531955473]]}, "layer3": {"weights": [[-0.09754640478044707, 0.3480653397036389, -1.1255586080995164], [-0.37755968447987265, -0.10467498444416427, -0.526851418955177], [-1.2315926784344402, 0.8088636071354639, -0.30965497487436167], [-0.5552957308792185, -0.285794684661008, -0.17307328028341853], [0.8551558461104374, 0.48514456435775893, -0.727518393119901], [-0.129782636585549, 0.8408363425529319, 0.15035318956333055]], "biases": [[0.13728747814204845, -0.08441017160454779, -0.07843757739946769]]}}]