[{"layer1": {"weights": [[0.13653694860302218, 0.4193953017797117, 1.0736951534275128, 1.0925069107912577, -0.920454697550535, -0.35534882617856456], [-0.028213542292916546, 1.0593749149123277, -0.8204516116714944, 1.4787430173656024, -1.7287139416420194, 1.51816234764813], [-1.1290876863870958, -0.40996062597832894, -0.24500068937173566, 1.352888770011023, 0.5253192106983647, 0.8172219211150691], [-1.5663578979116868, -1.0159844760794965, 0.8195424678210896, 1.5647601850977244, -1.4023837634430465, -0.2621207781796181], [0.640803051084843, 1.026959192925701, 0.8341876708451423, -0.7605645207459895, -1.6540045905144052, 1.7366440092640374]], "biases": [[0.16954461602562193, 0.010960289934098331, -0.2639295823314777, -0.2230072401248168, -0.13508140285551612, -0.06827717164183075]]}, "layer2": {"weights": [[-0.6880122419056561, -0.6309732913179358, 1.0479482745202588, 0.8845522152430578, 0.20492989450655885, -0.3460670285238897], [-2.0519021285672734, 0.2312538030806634, 0.35367029253825344, 0.6765477703090734, -1.9661471876630374, -0.5264255420906607], [1.2143676592043469, 0.3335666866868269, -0.2009846457903008, -0.4944409008524909, 0.24077002679127368, -0.7740947125651509], [0.7069140641314114, -2.075342156177001, -0.24128991269888617, -0.47319230842682825, 2.1767103218740544, -1.0319129072277522], [-1.1900543037646107, -1.488336832532077, -0.3001436098887461, 0.2736321424049304, -0.20252479129037856, 1.6251937013560558], [0.03614742657806805, -1.4762962858567803, 2.251079886458607, 0.3252082307676012, -0.44500742418046624, -1.164381521825673]], "biases": [[0.1566836953474124, -0.006959001436118242, 0.3065149959858712, -0.06957093145281845, -0.14127716121038078, 0.139322617083705]]}, "layer3": {"weights": [[0.5629493470726311, 0.8147740844535155, -1.1164489554172525], [1.3087880803139047, -0.2841979401583742, 1.466707562960911], [1.3810680809585425, 0.8793186498055354, -0.3713226756963849], [0.11290721802430533, -2.9348907231762915, 0.9168264407249986], [-1.539364009436621, 0.3870746735189705, 2.039348119600369], [-1.063231896680887, -1.5225994795106133, -1.2300451151080278]], "biases": [[-0.12998555497294262, -0.16850044677285309, -0.21101053467771658]]}}, {"layer1": {"weights": [[0.13758560820773652, 0.412956433602685, 1.0711541752048102, 1.0827424243865367, -0.9865259647189921, -0.354894189907208], [-0.09778062623285667, 1.0612177266889464, -0.8206125398423484, 1.4833854763023555, -1.7651005617801063, 1.5218571628113882], [-1.1081604862040235, -0.4591527004577918, -0.24487140495139886, 1.3530168902939224, 0.527366308321545, 0.8190150329318562], [-1.5861258115605845, -1.0292700561444772, 0.8084146669989107, 1.5647657205337586, -1.335969899375462, -0.25413288628011854], [0.6682252244731557, 1.112236452324446, 0.8261893763507808, -0.7499698297034795, -1.6792389911618932, 1.735856808454113]], "biases": [[0.16915371944656704, 0.012711240792634849, -0.26062625442320114, -0.2234793155789921, -0.13286500300455795, -0.06910116467595784]]}, "layer2": {"weights": [[-0.6934792444251778, -0.631293378751835, 1.144990304293908, 0.8562055389171637, 0.1902817984598225, -0.3274293278115158], [-2.0593444921831523, 0.25214353555108115, 0.3555418772845017, 0.6904589431061874, -1.9661185411857147, -0.5174839574407194], [1.2007118205578124, 0.32042102121668886, -0.2002637798939228, -0.4370038603881555, 0.24129538629074132, -0.7780482310867836], [0.7066038270571773, -2.069276008851558, -0.24064008033581646, -0.47405995235655474, 2.1755624181962157, -1.0295138240377169], [-1.189813099570654, -1.4340225623670781, -0.29233868918334477, 0.15317103020188677, -0.15433784412602652, 1.5992149351264242], [0.036217089340272415, -1.5362921084681131, 2.2386208236095326, 0.33296776959270924, -0.4463229254218632, -1.0675162688959263]], "biases": [[0.15672779024363298, -0.008780890308521742, 0.3042436863608037, -0.024397826009055573, -0.13834383208511403, 0.11641637574803677]]}, "layer3": {"weights": [[0.6071529294046245, 0.811922967910865, -1.116457906985918], [1.3122738048587457, -0.24007024903092172, 1.468488517932074], [1.3853775658944, 0.8773970517658646, -0.3713234354142425], [0.09376357699246593, -2.895282877489544, 0.8042273869856851], [-1.4767473173169139, 0.39614547806972294, 2.037002887710713], [-1.0502126699127747, -1.5467401359381894, -1.2291351367823062]], "biases": [[-0.12998083571801744, -0.16848702659070391, -0.2130997812567199]]}}, {"layer1": {"weights": [[0.13653694860302218, 0.4193953017797117, 1.0736951534275128, 1.0925069107912577, -0.986567974039613, -0.35534882617856456], [-0.028213542292916546, 1.0593749149123277, -0.8204516116714944, 1.4787430173656024, -1.7256109230814833, 1.51816234764813], [-1.1290876863870958, -0.40996062597832894, -0.24500068937173566, 1.352888770011023, 0.5253192106983647, 0.8200226293785589], [-1.5780515346728543, -1.0159844760794965, 0.8195424678210896, 1.5647601850977244, -1.3280805992824622, -0.2621207781796181], [0.640803051084843, 0.9521975026001128, 0.8341876708451423, -0.7605645207459895, -1.6540045905144052, 1.7366440092640374]], "biases": [[0.16954461602562193, 0.010960289934098331, -0.2639295823314777, -0.2230072401248168, -0.13508140285551612, -0.06827717164183075]]}, "layer2": {"weights": [[-0.6880122419056561, -0.6309732913179358, 1.0708291629037883, 0.8845522152430578, 0.23770181940295465, -0.3460670285238897], [-2.0519021285672734, 0.2312538030806634, 0.34716879067384454, 0.6765477703090734, -1.9661471876630374, -0.5264255420906607], [1.2239972181163477, 0.3209493414654512, -0.2009846457903008, -0.4944409008524909, 0.24077002679127368, -0.7740947125651509], [0.7069140641314114, -2.075342156177001, -0.24230525031909558, -0.47319230842682825, 2.1767103218740544, -1.0495827577155399], [-1.1900543037646107, -1.488336832532077, -0.3001436098887461, 0.18159417232443897, -0.20252479129037856, 1.6251937013560558], [0.03614742657806805, -1.5314151918602052, 2.251079886458607, 0.3252082307676012, -0.44500742418046624, -1.2253496854963555]], "biases": [[0.1566836953474124, -0.006959001436118242, 0.3065149959858712, -0.02439782572232739, -0.14127716121038078, 0.16224037593933605]]}, "layer3": {"weights": [[0.5173501049314924, 0.8147740844535155, -1.1164489554172525], [1.3087880803139047, -0.2841979401583742, 1.466707562960911], [1.3810680809585425, 0.8793186498055354, -0.3713226756963849], [0.11290721802430533, -2.9348907231762915, 0.9168264407249986], [-1.4727377537350814, 0.3870746735189705, 2.039348119600369], [-1.063231896680887, -1.5225994795106133, -1.2300451151080278]], "biases": [[-0.12998555497294262, -0.16850044677285309, -0.21101053467771658]]}}, {"layer1": {"weights": [[0.13653694860302218, 0.5143538633257972, 1.0736951534275128, 1.0925069107912577, -0.9819902712367083, -0.3547996307191363], [-0.039041291620086516, 1.0593749149123277, -0.8204516116714944, 1.4817343504430616, -1.8816789351652092, 1.51816234764813], [-1.1290876863870958, -0.4077440137882981, -0.24500068937173566, 1.352888770011023, 0.5251710913773391, 0.8200226293785589], [-1.5780515346728543, -1.0136487622306196, 0.8195424678210896, 1.5647601850977244, -1.1831958545836623, -0.26037180021777], [0.640803051084843, 1.015975998904309, 0.829899198234836, -0.7564396445280349, -1.6515843451874241, 1.740092725042809]], "biases": [[0.16954461602562193, 0.010960289934098331, -0.265109193087895, -0.22427965327433466, -0.13508140285551612, -0.06838200283825227]]}, "layer2": {"weights": [[-0.6880122419056561, -0.4690036071140032, 1.023528206038088, 0.8845522152430578, 0.1804992655902436, -0.34170363787154284], [-2.1104299934571786, 0.2312538030806634, 0.38121721397723674, 0.6817559757352258, -1.9661471876630374, -0.5256258907201192], [1.2115484936183414, 0.32041552533466333, -0.20015726933058836, -0.47892581104256304, 0.24077002679127368, -0.7512820143657967], [0.7069140641314114, -2.073284554094649, -0.24027457507867672, -0.4395809989177175, 2.1767103218740544, -1.0142430567399643], [-1.1841859199066482, -1.488336832532077, -0.3163126420278267, 0.21125346017076202, -0.32521686981852244, 1.6212113529335808], [0.03614742657806805, -1.5314151918602052, 2.251079886458607, 0.3252082307676012, -0.44480645781797123, -1.187769037531233]], "biases": [[0.15535283676741718, -0.012472520180446063, 0.3065149959858712, -0.02439782572232739, -0.13600359739839815, 0.11640485822807395]]}, "layer3": {"weights": [[0.6081458892693673, 0.8147740844535155, -1.1164489554172525], [1.3087880803139047, -0.28582754338773103, 1.4659495073983482], [1.3810680809585425, 0.9063472593081641, -0.3713226756963849], [0.10928349326383044, -2.915650980943414, 0.8208554259739209], [-1.4754246078853677, 0.3915007747557625, 2.039348119600369], [-1.062990946223702, -1.5360390527040024, -1.2300451151080278]], "biases": [[-0.12998555497294262, -0.16850044677285309, -0.21101053467771658]]}}, {"layer1": {"weights": [[0.10257288385373575, 0.40945065702276123, 1.0722126833560786, 1.0869977917709874, -0.9842581500260736, -0.35468596271278247], [-0.08858007473651047, 1.0602980555596915, -0.8204918493613078, 1.482465779963093, -1.7517959960955034, 1.5204803300761078], [-1.1167186066016377, -0.45464982029173806, -0.24496765689633143, 1.3527944985084177, 0.5268013655317965, 0.8193309645285465], [-1.5815781378537057, -1.0215064506407465, 0.8139833679898563, 1.5647649632004592, -1.3359494401587024, -0.2577832128134275], [0.6500140365925853, 1.106411832324918, 0.8321994095950098, -0.7579158122486007, -1.6656563681230083, 1.7371306186454536]], "biases": [[0.16932793464974083, 0.011823701025949753, -0.26369606441498794, -0.22375970761937602, -0.13401901958661078, -0.06876768057705615]]}, "layer2": {"weights": [[-0.692220404649332, -0.6311396981929961, 0.9698573244652149, 0.8688014210913764, 0.18502497078247426, -0.33643822301630866], [-2.054592982909014, 0.24203431200150724, 0.36669521529332494, 0.6860685800609321, -1.966129609142861, -0.5165139057636314], [1.217051865731284, 0.3330277594618888, -0.25875960361181405, -0.4602004391612481, 0.24107520633367127, -0.7860339554190368], [0.7067420848837394, -2.0712638904207994, -0.24047741925455052, -0.4736738638638661, 2.176132966409965, -1.0202244015381228], [-1.1669054491842656, -1.4341827722940255, -0.29421780435199285, 0.18825631368639947, -0.12373163263440547, 1.6565804704790617], [0.03617169650057419, -1.4941092040783022, 2.2407149783852107, 0.32970525429839653, -0.44533193587750924, -1.1445986061065594]], "biases": [[0.15179638998757242, -0.012827692976759817, 0.3052844758632347, -0.024397826378535364, -0.14244605931978555, 0.11641127913552032]]}, "layer3": {"weights": [[0.6231869919416064, 0.8367747739172466, -1.1164513422447178], [1.2780972066675558, -0.26284609920842106, 1.4268610474831855], [1.383357333671417, 0.8783868541183668, -0.3760677850617208], [0.09178052625229352, -2.924600709622718, 0.8619145434225487], [-1.4734620015031366, 0.38945019832003663, 2.0381755039195717], [-1.055794724901916, -1.5278628391550617, -1.2296395134886948]], "biases": [[-0.12998224908158484, -0.16849282513680944, -0.21153042061359212]]}}]