[{"layer1": {"weights": [[-0.0639378129316121, 0.37196784080048423, 1.0150270766957281, 1.1797734959216286, -0.881836919578654, -0.41495467706233913], [-0.06535468218131461, 0.9586176405962045, -0.880051802813288, 1.7967733014014455, -1.6801768718285057, 1.6527588307117278], [-1.0390868856456552, -0.40460891146204814, -0.14572466647187396, 1.2311613379784925, 0.6039995166401617, 0.8095389444978855], [-1.655263404287945, -0.9500983848404183, 0.7551710527511257, 1.7169557159415103, -1.3339043128935135, -0.29345233494669515], [0.6644354469485778, 1.1522372725282846, 0.7684514039356392, -0.7711049806655532, -1.5857219622805743, 1.6517392045420944]], "biases": [[0.21228495060928596, -0.10493677797328503, -0.2627489935141528, -0.2375832393397923, -0.0635567170697036, -0.08791161547038268]]}, "layer2": {"weights": [[-0.6638683225770992, -0.9683911442989588, 1.190864519373082, 0.8654994845870627, 0.3720554973147979, -0.35573315357588603], [-2.0166866647808614, 0.2117275100854531, 0.41596374686886, 0.49695552259333436, -1.961473389827347, -0.6909250552914963], [1.1639685346956545, 0.48323309618963806, -0.09024730592091168, -0.3442793921505638, 0.16714273884152508, -0.8843288039364536], [0.7003185367277066, -2.0522214178353693, -0.2789876572295691, -0.3833068459625045, 2.1640968228834656, -0.9540991228861349], [-1.1047337935331036, -1.4428456960047868, -0.21819554214877418, 0.1541113424579052, -0.09196370704382908, 1.738755994739236], [-0.05665413098417495, -1.7147753042722165, 2.315763587509916, 0.2684997702481751, -0.4416176366602782, -1.2975575790883338]], "biases": [[0.10999201384314308, 0.05834177940858203, 0.2636822164985682, -0.06712643056908929, -0.14928916822380195, 0.09204334957290887]]}, "layer3": {"weights": [[0.8431610086542007, 0.9079794881399179, -1.1826143132917148], [1.3072283296726348, -0.4519661215974886, 1.500069557983949], [1.392060459540923, 0.9614445701653738, -0.3841734648083262], [0.13695487978113993, -3.170062138307486, 0.9694939653364187], [-1.4441600052273882, 0.3975837977013962, 2.0399360211151585], [-0.959886576619615, -1.4194341372993013, -1.289757855437064]], "biases": [[-0.22851734041670357, -0.18616875001274782, -0.15182088777024735]]}}, {"layer1": {"weights": [[-0.06038719781614328, 0.3936645963028018, 1.0152263935195172, 1.1680336578280153, -0.8209684044596464, -0.4333302442382626], [-0.1633554783350463, 1.072301460840305, -0.8179147178964253, 1.8515119689906707, -1.6140374874592553, 1.6629684073733588], [-1.036545915516033, -0.41444056891382225, -0.17153332655586126, 1.233364850664107, 0.6741863072851675, 0.8172497850562188], [-1.7702274913223095, -0.972622448519236, 0.6835038485082494, 1.641882684774401, -1.3153305358130667, -0.291971757768049], [0.6936713322512759, 1.2463511471170792, 0.7393837639375667, -0.7721784546198519, -1.6011465751820828, 1.655810617887313]], "biases": [[0.20615501921462753, -0.10097610339515584, -0.26620555396745516, -0.23046690943754541, -0.06364125515079463, -0.13342091533112338]]}, "layer2": {"weights": [[-0.6756475570960542, -0.9696643866307211, 1.1957040132768577, 0.8234871596064033, 0.38292916904091856, -0.34823734571250864], [-2.0254909471559523, 0.22349462078086757, 0.48256344913306204, 0.44042837759564346, -1.9671791791517261, -0.7212752645831215], [1.1665452900975268, 0.48582344877874095, -0.052219115451992024, -0.30630432637731875, 0.15876832601574056, -0.9007218010716707], [0.6979842614352225, -1.9913223518203997, -0.2695266267301263, -0.29038672767480594, 2.170143654028119, -0.9935294579056677], [-1.1036771907891993, -1.4455698272417539, -0.18987686920929264, 0.0899968219454916, -0.23853880757160803, 1.6443473922308876], [-0.052945748071519805, -1.7252342936882539, 2.3332495793945145, 0.25772310441138735, -0.4552192463468361, -1.4046832420952635]], "biases": [[0.11378800944861078, 0.06297650590341458, 0.2574920067513836, -0.033750993635551965, -0.14909568270270046, 0.16162525739108846]]}, "layer3": {"weights": [[0.8504760886978956, 0.8799800910233788, -1.1946552688363286], [1.3072873528855609, -0.47260308199020046, 1.4340800997716696], [1.3933591982927283, 0.9611574198323765, -0.3990924579472682], [0.11342793629483029, -3.245509733967765, 0.9789871958503953], [-1.4327069907297343, 0.40562177102553143, 2.0399365867424515], [-0.9589886713703784, -1.3432077555381343, -1.3275234253415258]], "biases": [[-0.21976528620067115, -0.1861682642697821, -0.152763859582239]]}}, {"layer1": {"weights": [[-0.06464793595470587, 0.3508495484765356, 1.0136432936250839, 1.1821214635403512, -0.8844932598546252, -0.4149548141566398], [-0.06428178034808293, 0.9459967027249716, -0.8779235378112904, 1.7705790243849022, -1.7035371659959808, 1.6489931595094807], [-1.0295395636240763, -0.4026425799716933, -0.13912163495937002, 1.2307206354413696, 0.6011946812422011, 0.8083265179421493], [-1.6639323927686793, -0.9510320237322146, 0.785738287210243, 1.64250347826754, -1.331852508996874, -0.29497069006507426], [0.6644378922103258, 1.1521513508662853, 0.8028193771031138, -0.7708902858746935, -1.585541402550737, 1.6506855078665341]], "biases": [[0.21841932414205745, -0.10572891288891087, -0.26274822715498636, -0.2390065053202417, -0.06353980945348539, -0.08906555233703423]]}, "layer2": {"weights": [[-0.6575948040790685, -0.9683358160431161, 1.1855696107779372, 0.8324875509336898, 0.3698807629695738, -0.3563030301024477], [-2.009987243177103, 0.22387669158225712, 0.35139810244377034, 0.552917326911858, -1.9627245828585886, -0.7309239413072406], [1.16345318361528, 0.4825639370989444, -0.09625640251964118, -0.380895573117846, 0.17724265998276528, -0.9045547261596625], [0.7007853917862035, -2.1123543950149424, -0.28156793965637555, -0.39207261270242355, 2.161922526505893, -0.9596263705151868], [-1.10832548304897, -1.4423008697573936, -0.18987598537944864, 0.15706458212847305, -0.22469971746604306, 1.638782074419638], [-0.05413210126211936, -1.7148409908149205, 2.315430874286938, 0.27065510341553267, -0.43731289845934734, -1.25727455697748]], "biases": [[0.10686672690666119, 0.05741483410961552, 0.26492025844800515, -0.09625395488438988, -0.1494949651412331, 0.08359339201042532]]}, "layer3": {"weights": [[0.9109852708703193, 0.9079907055682823, -1.1822442283866534], [1.3072165250300498, -0.47151851452507326, 1.5012459226148938], [1.414748484721625, 0.9615020002319732, -0.3858930567313419], [0.1447941966185945, -3.1676299747576606, 0.9758817338941357], [-1.447344340333013, 0.3879171244900676, 2.0399359079897], [-0.9604968692545154, -1.4872799418179752, -1.276157043269356]], "biases": [[-0.22851739228533297, -0.18616884716134097, -0.1516784894297022]]}}, {"layer1": {"weights": [[-0.06109732083923705, 0.3935199805082096, 1.0138426104488731, 1.1703816254467378, -0.858056103039561, -0.4333303813325633], [-0.12003920978496577, 1.0165617885889453, -0.8157864528944276, 1.851722871215979, -1.5223166294462447, 1.66641109988575], [-1.0263015654106802, -0.41247423742346745, -0.16493029504335732, 1.2329241481269841, 0.6398349022189632, 0.8160373585004825], [-1.709248452533077, -0.9609074004022822, 0.7353536349192412, 1.641986150356591, -1.3380189127970996, -0.2934901128864281], [0.6936737775130237, 1.1994230923156808, 0.7373171433671191, -0.7719637598289921, -1.6009660154522456, 1.7559698317199128]], "biases": [[0.20615390868009925, -0.10176823831078168, -0.2662047876082887, -0.23189017541799478, -0.06362434753457644, -0.11635124194680897]]}, "layer2": {"weights": [[-0.6693740385980234, -0.9881811054756864, 1.2673103270479051, 0.8256708665639452, 0.3807544346956944, -0.34880722223907035], [-2.018791525552194, 0.23564380227767162, 0.482054934673284, 0.4405697127654353, -1.9684303721829677, -0.7213065152884461], [1.1660299390171525, 0.4851542896880473, -0.057281464975005594, -0.3039964502144106, 0.15833694893687666, -0.9006518901844497], [0.6984511164937193, -1.9915138740292488, -0.3355289079004824, -0.299152494414725, 2.1416463640936603, -0.9990567055347197], [-0.9970509994683114, -1.4195404929595852, -0.18987672190431865, 0.11965682385409918, -0.2573274457122108, 1.6445453343983867], [-0.050423718349464214, -1.7199062691661793, 2.332916866171537, 0.2598784375787449, -0.4509145081459052, -1.3933537178059852]], "biases": [[0.11066272251212889, 0.06204956060444808, 0.2587300487008205, -0.03500910887751468, -0.27279518804738523, 0.13099748839244785]]}, "layer3": {"weights": [[0.8798036858188529, 0.8799913084517432, -1.194285183931267], [1.3072755482429756, -0.4921554749177851, 1.4656007251710061], [1.4160472234734303, 0.9612148498989759, -0.397383894001413], [0.12126725313228484, -3.24307757041794, 0.9853749644081122], [-1.4358913258353592, 0.4055965148010734, 2.0399364736169927], [-0.9595989640052789, -1.3567131794489709, -1.3139226131738182]], "biases": [[-0.21976533806930054, -0.18616836141837526, -0.14631390198866792]]}}, {"layer1": {"weights": [[-0.061807443862330814, 0.39337536471361734, 1.012458827378229, 1.1727295930654607, -0.8951438016194756, -0.433330518426864], [-0.07672294123488525, 0.9608221163375856, -0.81365818789243, 1.851933773441287, -1.6607580757942055, 1.669853792398141], [-1.0160572153053276, -0.4105079059331126, -0.15832726353085338, 1.2324834455898612, 0.605483497152759, 0.8148249319447463], [-1.6482694137438445, -0.9491923522853285, 0.787203421330233, 1.6420896159387808, -1.3607072897811325, -0.29500846800480723], [0.6936762227747717, 1.1524950375142826, 0.7352505227966716, -0.7717490650381325, -1.6007854557224084, 1.653703224536193]], "biases": [[0.206152798145571, -0.10256037322640751, -0.26620402124912224, -0.23331344139844418, -0.06360743991835822, -0.09928156856249457]]}, "layer2": {"weights": [[-0.6631005200999927, -1.0066978243206517, 1.1923258791105509, 0.8278545735214871, 0.3785797003504703, -0.349377098765632], [-2.0120921039484356, 0.24779298377447567, 0.48154642021350585, 0.4407110479352271, -1.969681565214209, -0.7213377659937708], [1.1655145879367779, 0.48448513059735365, -0.06234381449801917, -0.30168857405150246, 0.15790557185801274, -0.9005819792972287], [0.6989179715522161, -1.991705396238098, -0.40153118907083857, -0.30791826115464405, 2.1131490741592014, -1.0045839531637717], [-1.1108605698209324, -1.3935111586774163, -0.18987657459934465, 0.14931682576270675, -0.23821611301920112, 1.6447432765658858], [-0.04790168862740862, -1.7145782446441047, 2.3325841529485594, 0.26203377074610246, -0.44660976994497437, -1.382024193516707]], "biases": [[0.10753743557564699, 0.06112261530548157, 0.25996809065025744, -0.0362672241194774, -0.1495072765375628, 0.10036971939380726]]}, "layer3": {"weights": [[0.9091312829398104, 0.8800025258801077, -1.1939150990262055], [1.3072637436003904, -0.5117078678453697, 1.4971213505703425], [1.4387352486541325, 0.9612722799655754, -0.3956753300555578], [0.1291065699697394, -3.240645406868115, 0.9917627329658293], [-1.439075660940984, 0.4055712585766153, 2.0399363604915344], [-0.9602092566401794, -1.3702186033598074, -1.3003218010061104]], "biases": [[-0.21976538993792993, -0.1861684585669684, -0.15247906290114868]]}}]