[{"layer1": {"weights": [[0.15943058925521053, -0.3988026064124296, -0.4750777570131985, 0.24711364909718375, -0.6733711667627098, -0.30441033151040237], [0.26135303634525986, -0.04285644050985987, 0.3204873099558331, -0.13922523773607554, -0.513619280260368, -0.22119091691859452], [1.165293424351017, -0.4186002951564052, -0.9939191695639148, 0.12626914689268598, -0.5994995622228392, 0.29680415074262834], [-1.1636531612112728, 0.6045007211712459, 0.1624830731355383, -0.14834083617386312, 0.033906189334323655, -0.463052815899077], [0.0410442162441072, -0.30414109239307807, -0.32383623948515416, 1.0526706811667077, -0.8198539612637881, 0.24869622941113925]], "biases": [[0.054722980752476086, 0.05595596990848807, 0.13604346760463465, -0.1269351577730917, -0.021432801062772625, 0.03928488759215058]]}, "layer2": {"weights": [[0.37603110346978164, -0.30835175224550343, -1.1076007518317348, -0.10402341902850137, 0.06437499867404967, 0.8375816556939024], [-0.6267129028587846, 0.5086014766538077, -0.08203340515739105, -0.3617786437074746, -0.08516515824773715, 0.4099982022303237], [0.6025687751277515, 0.024600522720883103, 0.15189978826205597, -0.05946336777130762, -0.18779635164794667, 0.30351588207141633], [0.40949831818387605, 0.06273483916745269, -0.48535184428087064, -0.13597827647998073, 0.19792020478506103, 0.5752592706510693], [0.29286609662116303, 0.025613754663334008, 0.08396549906689987, -0.21052092202555778, 0.5957647779606159, 0.48767380407610317], [0.5243790491395586, -0.38799394539387594, 0.24094467999009206, -0.1263852239212499, 0.6337012757881746, -0.6848868536914232]], "biases": [[0.03136304065518797, 0.08351430311019084, 0.05108826952393232, 0.05987413931666356, 0.07911043948913404, -0.08465608001051253]]}, "layer3": {"weights": [[-0.6973503259950695, 0.20072593919408338, -0.5752314124648896], [-0.06307890168870212, 0.46640053085890354, -0.4407689422651154], [-0.7704982956732149, 0.861320741380621, 0.2633339303710191], [-0.6465985452123282, 0.1733533024039385, -0.12307272996276233], [0.9603714893648447, 0.685371699921154, -0.4108324913256379], [-0.2991512421871606, 0.22595902812675686, 0.029259672460262343]], "biases": [[-0.013239621577493482, -0.03785201351178369, -0.03753465438136694]]}}, {"layer1": {"weights": [[0.15043236552413902, -0.392883355757184, -0.47527089190149174, 0.2825389940066466, -0.6438545249964319, -0.22166115158651353], [0.07204832849973125, -0.04015904650875861, 0.32936322646843375, -0.27672514538869497, -0.48544642400691673, -0.20709535897186548], [1.139870628027419, -0.4132559969036278, -0.8452368228966249, 0.18518515227884372, -0.6068840317481221, 0.28385282162012493], [-1.142536562556874, 0.6043765307975271, 0.14159365952773495, -0.22683122134096717, 0.03390601298986402, -0.4630537519910927], [-0.21364915561640455, -0.3041222417946722, -0.316821267294754, 1.0627991518199305, -0.8406660252116632, 0.24885076567206627]], "biases": [[0.03789131353994817, 0.04445696991178325, 0.1809583386776333, -0.1268882395208002, -0.026642097489356035, 0.03925782628490944]]}, "layer2": {"weights": [[0.37574944442578895, -0.3553875418316539, -1.1142484536161705, 0.1335208710895339, 0.02986333713349127, 0.8524895498304057], [-0.7547143223149095, 0.5092034645444234, -0.09586289078767915, -0.34460745291347145, -0.088906574143176, 0.41003745602049346], [0.5986016715665987, -0.013600430777743599, 0.15049849012421562, 0.10116626534999915, -0.0362625602750378, 0.3035033151904028], [0.44947481838115777, 0.05581593333498089, -0.3520798223881993, -0.0670953810803879, 0.1727485295586456, 0.5763397100657739], [0.29266969897805317, 0.02561184444884999, 0.05664965645709394, -0.20854318868910682, 0.5725162198905308, 0.4523858365372497], [0.49354753062929185, -0.3265230682318455, 0.2894315408633086, -0.06819853317096927, 0.5546469119800522, -0.6850841940141805]], "biases": [[0.03141189755914675, 0.08356013617708505, 0.04037539894309003, 0.05987447349175043, 0.09645448943392823, -0.08474151579073563]]}, "layer3": {"weights": [[-0.6866048528700182, 0.26530887039647477, -0.5373533508535443], [-0.0005698212689986375, 0.3762046910642325, -0.36993363960536224], [-0.7636573397775619, 0.8606742845491748, 0.2504576369545085], [-0.6463416090508564, 0.11656919222069195, -0.12502982611839927], [0.8189548270867216, 0.6859058037906478, -0.29058661669232055], [-0.2949572746591553, 0.224615981646819, 0.02919049138175868]], "biases": [[-0.024735488153187053, -0.03785076705492816, -0.03762113255887092]]}}, {"layer1": {"weights": [[0.15335377980041953, -0.4227981607799711, -0.47488462212490523, 0.2941274773514947, -0.6709112958092067, -0.2942507008191123], [0.2530701963159643, -0.035149940863592785, 0.296813745879086, -0.14458891084657996, -0.4715182301991303, -0.2291203309955449], [1.1273320170002141, -0.4401882649075381, -0.8464970361433847, 0.16098720106746656, -0.6032593445892458, 0.2771747134098905], [-1.1640162273630765, 0.5406889270991155, 0.16259064908809615, -0.22588225614191892, -0.16366026951393214, -0.4630518798070613], [-0.12571529355741912, -0.304159942991484, -0.3211826911999943, 1.0252034487995063, -0.8308329497055036, 0.3204421861835256]], "biases": [[0.03789140616654478, 0.04748901233391584, 0.13586015457006373, -0.1269820760253832, -0.00903776986694312, 0.03931194889939172]]}, "layer2": {"weights": [[0.359503166174364, -0.3555329951382814, -0.9809981306689612, -0.058729263379765605, 0.052231179940511394, 0.834823037012335], [-0.7519359296534001, 0.5115675909681194, -0.10283119489667139, -0.3596569999834775, -0.03236190479188145, 0.4163310228747656], [0.6048647569897965, -0.02015045970651195, 0.14466720655974316, 0.07712727046869018, -0.036249424106461925, 0.330941883480827], [0.4332875399749604, 0.049503489504729464, -0.3456833421667231, -0.136026166736826, 0.1578940119933194, 0.5779853525026403], [0.29306249426427283, 0.02561566487781803, 0.09758256468600024, -0.2225693509117571, 0.6422824913214338, 0.471584910956878], [0.5451917582484482, -0.33413866682446536, 0.29393180580804845, -0.05909411953169863, 0.6393036749241392, -0.6855542365075254]], "biases": [[0.038919956574250056, 0.08346847004329665, 0.03491086116286024, 0.0598738051415767, 0.09567841803980436, -0.0843597163292977]]}, "layer3": {"weights": [[-0.6717445021169384, 0.2682408433357113, -0.5467929720740384], [-0.01334990010086184, 0.3835017351365433, -0.3565371115029379], [-0.7672417484362418, 0.8283190087618754, 0.21335770177317087], [-0.6468554813737999, 0.18546418961257763, -0.11944588567896516], [0.8231368950342651, 0.6848375960516602, -0.29060418801881044], [-0.10390677289533087, 0.18171924677986662, 0.004777456292210144]], "biases": [[-0.026998393952956064, -0.03785325996863921, -0.037448176203862954]]}}, {"layer1": {"weights": [[0.1467760088342447, -0.38389829585879587, -0.4937355573159068, 0.1924645044117081, -0.6768807696330434, -0.3145671748627257], [0.26903740604891146, -0.09250231402575168, 0.33647686902807866, -0.1433986483199508, -0.3530557354249154, -0.2084745590243785], [1.1413960669874235, -0.4051692906111206, -0.8449217695849349, 0.24537207722056228, -0.6043992942115382, 0.26517890190683796], [-1.1527317957322696, 0.608134676734454, 0.15660329846724613, -0.29041309376852414, 0.03390592481763421, -0.4630542200371006], [-0.23681252050133816, -0.30411281649546923, -0.32251056100175435, 1.084415668909919, -0.7963470957819645, 0.22020100180122126]], "biases": [[0.05472291128252864, 0.0471644737040416, 0.15596534415115787, -0.12686478039465443, -0.02982902640069467, 0.03924429563128887]]}, "layer2": {"weights": [[0.32625779440826486, -0.3968753615310877, -1.17406588698973, -0.1008019481119684, 0.05298533580027256, 0.8464895098257852], [-0.7485559373911254, 0.5338651917530752, -0.08892672345499582, -0.35324980187505717, -0.09077728209089542, 0.4079330581040411], [0.5971751603523916, -0.013474390302968408, 0.15515228773576115, 0.07923999047677358, -0.024951017779674355, 0.30349703174989606], [0.42036183214596123, 0.06078753906276746, -0.35685920881922334, -0.13304297833861417, 0.1862418391527007, 0.5485690494518723], [0.25078766208211256, 0.025610889341607983, 0.07861057772073181, -0.2058335271242291, 0.5814205074481854, 0.4580512773542744], [0.5097407706611944, -0.34635154018545383, 0.2894508549736781, -0.08032862357664025, 0.6424241599094549, -0.6848946231292727]], "biases": [[0.027614812673893586, 0.08985097816230868, 0.037641708368930674, 0.05987464057929386, 0.08817050015859308, -0.04714270182926166]]}, "layer3": {"weights": [[-0.7157126840607808, 0.27273164065908617, -0.5376689147287369], [0.012335511102953436, 0.46254123866505414, -0.44861393853289633], [-0.7853512216357594, 0.8508526495996424, 0.27742704270723223], [-0.6410061459187706, 0.2030395499655456, -0.1265649569056045], [0.8151700685225745, 0.6861728557253948, -0.4000291506048409], [-0.324279651942882, 0.22394445840685007, 0.029155900842506847]], "biases": [[-0.025248590060017007, -0.029555626905309454, -0.037664371647622916]]}}, {"layer1": {"weights": [[0.16239853022931977, -0.41074729163844054, -0.47488462212490523, 0.26115180808598515, -0.6800735855864909, -0.29831678296680175], [0.26845044555899905, -0.035404771288555806, 0.3089357091398878, -0.1399258724055838, -0.49962779272500585, -0.22477476399720941], [1.1299067590750884, -0.2628835338554937, -0.8464970361433847, 0.1584120770917108, -0.5982920649967816, 0.2863826800525794], [-1.1640162273630765, 0.5961458670640695, 0.16259064908809615, -0.22762444829959377, 0.033906365678783294, -0.4630518798070613], [-0.2131786301312158, -0.304159942991484, -0.32165443187335396, 1.042542210513485, -0.8132518975305877, 0.24510646801146238]], "biases": [[0.05472302706577439, 0.052894066134471056, 0.13586015457006373, -0.1269820760253832, -0.015641223938142285, 0.04485418497798201]]}, "layer2": {"weights": [[0.3707095637339709, -0.3084244788988172, -1.097157005697694, -0.09314390361751741, 0.06478648161458375, 0.8361277486302714], [-0.7497395140828558, 0.5602890574948074, -0.08898028474884401, -0.36172189014289047, -0.03537140420599282, 0.41208297325169113], [0.6059788381225351, 0.005121924547244182, 0.0002336404766055955, 0.07712727046869018, -0.036249424106461925, 0.3035284489524298], [0.40308413137295024, 0.05779342334700727, -0.3541238287539794, -0.136026166736826, 0.18397315920058221, 0.5754476716584566], [0.29306249426427283, 0.02561566487781803, 0.08724077750272982, -0.2303700188845346, 0.610541969866489, 0.471584910956878], [0.5390443561912265, -0.373618956753971, 0.29393180580804845, -0.1263863938634662, 0.6364304301991794, -0.6849777544149525]], "biases": [[0.03127692989978495, 0.08346847004329665, 0.03491086116286024, 0.0598738051415767, 0.07916205673592673, -0.08450033492995887]]}, "layer3": {"weights": [[-0.6870787384556387, 0.27639660683313183, -0.5510597623965163], [-0.01334990010086184, 0.4668220711742914, -0.281907882544401], [-0.7693640006737531, 0.8603588150556275, 0.26076307794418796], [-0.6468554813737999, 0.14504282861866083, -0.12055905109773865], [0.818146190967633, 0.6848375960516602, -0.3202749591144224], [-0.29472224994375706, 0.18171924677986662, 0.02932885353876601]], "biases": [[-0.0174482491448504, -0.03785325996863921, -0.037448176203862954]]}}, {"layer1": {"weights": [[0.1467760088342447, -0.38389829585879587, -0.471369256236199, 0.2672759971958686, -0.7304507513051957, -0.3145671748627257], [0.26903740604891146, -0.09250231402575168, 0.33647686902807866, -0.1433986483199508, -0.4994695584060667, -0.2084745590243785], [1.1413960669874235, -0.4237548868608768, -0.8449217695849349, 0.24537207722056228, -0.6043992942115382, 0.26517890190683796], [-1.1527317957322696, 0.7542436134049632, -0.00020226425184918795, -0.21761869328110056, 0.03390592481763421, -0.4630542200371006], [-0.23681252050133816, -0.30411281649546923, -0.32251056100175435, 1.0678633871465415, -0.7963470957819645, 0.22020100180122126]], "biases": [[0.05472291128252864, 0.0471644737040416, 0.15596534415115787, -0.12686478039465443, -0.02982902640069467, 0.03924429563128887]]}, "layer2": {"weights": [[0.32625779440826486, -0.32584033347839825, -1.17406588698973, -0.1008019481119684, 0.05298533580027256, 0.8464895098257852], [-0.7485559373911254, 0.5338651917530752, -0.08892672345499582, -0.35324980187505717, -0.09077728209089542, 0.4079330581040411], [0.5971751603523916, -0.013474390302968408, 0.15515228773576115, 0.07923999047677358, -0.024951017779674355, 0.30349703174989606], [0.42036183214596123, 0.06078753906276746, -0.5356758444443561, -0.13304297833861417, 0.1862418391527007, 0.6100814923616535], [0.29257150015649824, 0.025610889341607983, 0.07861057772073181, -0.2058335271242291, 0.5814205074481854, 0.4580512773542744], [0.5097407706611944, -0.34635154018545383, 0.2894508549736781, -0.08032862357664025, 0.6424241599094549, -0.6848946231292727]], "biases": [[0.006626628489132553, 0.08985097816230868, 0.037641708368930674, 0.05987464057929386, 0.1294000162087279, -0.04714270182926166]]}, "layer3": {"weights": [[-0.7157126840607808, 0.27273164065908617, -0.5376689147287369], [0.012335511102953436, 0.46254123866505414, -0.44861393853289633], [-0.7853512216357594, 0.8508526495996424, 0.27742704270723223], [-0.6410061459187706, 0.2030395499655456, -0.1265649569056045], [0.8151700685225745, 0.6861728557253948, -0.4000291506048409], [-0.324279651942882, 0.22394445840685007, 0.029155900842506847]], "biases": [[-0.025248590060017007, -0.029555626905309454, -0.037664371647622916]]}}]