[{"layer1": {"weights": [[-0.11936769190395706, 0.5918046776893722, 0.9736088031330382, 1.182008289259548, -0.7645759161872068, -0.3113831310414286], [-0.1039899096287519, 1.4304394979838388, -0.9275965988276996, 1.4693949042662289, -2.3029227944925275, 1.31744005315074], [-1.4887021128149482, -0.8654219055174217, -0.11408793838933734, 1.0283974390699533, 0.7307775997419466, 0.5989075862661275], [-1.7480617498702617, -1.2052528442686774, 1.1148550935271786, 1.671094673283637, -1.490512327259813, -0.16995275946091154], [-0.04571183315906085, 1.2454136628664194, 0.8817476642949076, -0.8876469666943758, -1.1828711462478703, 1.9127085186942392]], "biases": [[0.27164612550995215, 0.01758802390365493, -0.2666695151945654, -0.12402954109575118, -0.3532647698101891, 0.11119996508016028]]}, "layer2": {"weights": [[-0.9634985801492191, -0.22196151823887478, 0.40472040694145084, 0.5892128252328624, 0.29290220841501635, -0.4477328181523583], [-1.8393680024502395, 0.4552885427991378, 0.5959786901637407, 0.033280420954708456, -2.451734545142332, -0.9837360142662945], [1.4789663000346984, 1.434061286697982, -0.21109310252149616, -0.7972118648815314, 0.009721829721175718, -0.987684129650592], [0.45543054162153856, -2.6564229547473275, -0.060937964332041634, -0.7000637802741335, 2.2078256466100763, 0.03940061970986802], [-0.6370070533634675, -1.5058045989625903, -0.7055711999535113, -0.2747384746197584, 0.3165476618511393, 1.8737824346762926], [0.05152943004289971, -1.5264623957365653, 2.613204030082392, 0.4416350655723256, -0.6435025063216648, -0.09101210564332221]], "biases": [[0.10105458253022324, 0.004568225187465115, 0.40200196722729054, 0.009656374788708703, -0.00785509705240824, 0.18233986609145014]]}, "layer3": {"weights": [[0.964702641728415, 0.8745383628611184, -0.9698893604897074], [1.0374267298829625, -0.6073655967391393, 1.827092495829508], [1.511700661755642, 0.6746849407346226, -0.30157369152776164], [-0.2097088929875605, -3.353568793384347, 0.9809709426287939], [-1.2254993426241896, 0.3533678364452378, 2.089926351529358], [-1.5695055018106048, -1.4134588550942744, -1.3311290358442929]], "biases": [[-0.1783089427006354, -0.2877605254973511, -0.0026971543949521073]]}}, {"layer1": {"weights": [[-0.1361972297804227, 0.5864174743608179, 0.9736088031330382, 1.182008289259548, -0.7609466639736618, -0.34896653407904454], [-0.1039899096287519, 1.4304394979838388, -0.9359213215157312, 1.4693949042662289, -2.3029227944925275, 1.31744005315074], [-1.4737685851559563, -0.8654219055174217, -0.11408793838933734, 1.0283974390699533, 0.7307775997419466, 0.5989075862661275], [-1.7874710755029253, -1.202953878529021, 1.1148550935271786, 1.671094673283637, -1.490512327259813, -0.16995275946091154], [-0.04571183315906085, 1.2454136628664194, 0.8817476642949076, -0.8858489687880478, -1.1905234868484258, 2.0136753445647715]], "biases": [[0.27930679836755445, 0.01758802390365493, -0.2666695151945654, -0.12402954109575118, -0.3532647698101891, 0.11119996508016028]]}, "layer2": {"weights": [[-0.8692686679569046, -0.226405795117331, 0.40472040694145084, 0.5892128252328624, 0.29290220841501635, -0.4477328181523583], [-1.8393680024502395, 0.4552885427991378, 0.5959786901637407, 0.04753919013777695, -2.451734545142332, -1.076073548334978], [1.4789663000346984, 1.434061286697982, -0.21109310252149616, -0.7972118648815314, -0.025780226533011166, -0.987684129650592], [0.45543054162153856, -2.7620626807646143, -0.060937964332041634, -0.47563754887687537, 2.2078256466100763, 0.01678554022395371], [-0.6467505221204939, -1.5058045989625903, -0.7055711999535113, -0.2747384746197584, 0.3165476618511393, 1.9125413453087776], [0.05152943004289971, -1.5200200998976772, 2.613204030082392, 0.4416350655723256, -0.6489697139698727, -0.2810773779454752]], "biases": [[0.10105458253022324, -0.008510475791524617, 0.40200196722729054, 0.009656374788708703, -0.00785509705240824, 0.18233986609145014]]}, "layer3": {"weights": [[0.964702641728415, 0.8570374998875567, -0.9698893604897074], [1.0374267298829625, -0.6073655967391393, 1.827092495829508], [1.511700661755642, 0.6746849407346226, -0.30157369152776164], [-0.0880994893657618, -3.353568793384347, 0.9615236012572567], [-1.2254993426241896, 0.3533678364452378, 2.089926351529358], [-1.5695055018106048, -1.4637489324043371, -1.2866034436635232]], "biases": [[-0.1783089427006354, -0.2877605254973511, -0.0026971543949521073]]}}, {"layer1": {"weights": [[-0.1586366136157102, 0.5850563223289003, 0.9736088031330382, 1.182008289259548, -0.7609466639736618, -0.3113831310414286], [-0.1039899096287519, 1.4304394979838388, -0.9359213215157312, 1.4693949042662289, -2.2668025723889476, 1.31744005315074], [-1.4538572149439672, -0.8654219055174217, -0.11408793838933734, 1.0283974390699533, 0.7307775997419466, 0.5989075862661275], [-1.7874710755029253, -1.202953878529021, 1.1148550935271786, 1.6525106126597537, -1.490512327259813, -0.16995275946091154], [-0.04571183315906085, 1.2454136628664194, 0.8817476642949076, -0.905706837477168, -1.2007266076491665, 1.9127085186942392]], "biases": [[0.27164612550995215, 0.01758802390365493, -0.2666695151945654, -0.12402954109575118, -0.3532647698101891, 0.11119996508016028]]}, "layer2": {"weights": [[-0.8096413566589085, -0.23233149762193928, 0.40472040694145084, 0.5892128252328624, 0.29290220841501635, -0.35133482627029644], [-1.8393680024502395, 0.4552885427991378, 0.6202229117317422, 0.05254600265020616, -2.451734545142332, -1.0677160132259158], [1.4789663000346984, 1.434061286697982, -0.21109310252149616, -0.7972118648815314, -0.025780226533011166, -0.987684129650592], [0.45543054162153856, -2.8099255073698943, -0.060937964332041634, -0.7000637802741335, 2.2078256466100763, 0.01678554022395371], [-0.6467505221204939, -1.5058045989625903, -0.7055711999535113, -0.2747384746197584, 0.3165476618511393, 1.9125413453087776], [0.05152943004289971, -1.5264623957365653, 2.613204030082392, 0.4416350655723256, -0.6562593241674831, -0.09101210564332221]], "biases": [[0.10105458253022324, -0.025948743763510924, 0.40200196722729054, 0.009656374788708703, -0.00785509705240824, 0.18233986609145014]]}, "layer3": {"weights": [[0.964702641728415, 0.8570374998875567, -0.9698893604897074], [1.0374267298829625, -0.6073655967391393, 1.827092495829508], [1.511700661755642, 0.6746849407346226, -0.30157369152776164], [0.07404638212996982, -3.353568793384347, 0.9615236012572567], [-1.2254993426241896, 0.3533678364452378, 2.089926351529358], [-1.5695055018106048, -1.4134588550942744, -1.1147771512715705]], "biases": [[-0.1783089427006354, -0.2877605254973511, -0.0026971543949521073]]}}, {"layer1": {"weights": [[-0.23591670291321876, 0.5915332480030941, 0.9734564653462893, 1.1820395211602908, -0.7637411627358043, -0.3113912717186186], [-0.10342019802500645, 1.430449880737846, -0.9200507422799036, 1.5591788281388126, -2.3033236038748655, 1.2851539525153757], [-1.4813240360741806, -0.865405351921505, -0.1142394546033617, 1.0283936317696662, 0.8216368571243566, 0.5997328361525456], [-1.836109232381181, -1.2071163180236064, 1.1148301463879293, 1.6694779270826716, -1.604376309404355, -0.1708787930986075], [-0.050069686672770855, 1.244808369335297, 0.8818246526795211, -0.8857148389825075, -1.3519189362023978, 1.9009413470808831]], "biases": [[0.27164852909002213, 0.02373318093374427, -0.2712701289751815, -0.1240603478289176, -0.3532658885325206, 0.12304194114830921]]}, "layer2": {"weights": [[-0.8828928959171871, -0.4253526045251025, 0.3628354857268191, 0.5703662574932861, 0.29289235656139584, -0.4481156940714074], [-1.8388285986256447, 0.4553092204929049, 0.5959797981100969, 0.04983064577522939, -2.449171356985003, -0.9779928445352912], [1.4791576172685081, 1.3962959346442323, -0.21059461230772825, -0.807307598972764, -0.008027404085335175, -0.9691680473769884], [0.4554163790480035, -2.726042159163033, -0.06094176744313651, -0.7000577916924402, 2.2078357857397592, 0.02762741074100131], [-0.6325587624387884, -1.5057354572238082, -0.7567483897332695, -0.2747555162499019, 0.31623706567832655, 1.8932369327762135], [0.05153627306119521, -1.526390212012739, 2.61321333185586, 0.4414855058791112, -0.6504342947541677, -0.09100468733154826]], "biases": [[0.1010398491793319, -0.010618556635513324, 0.4021846918446492, 0.010184521157282907, -0.004689789281493832, 0.1823462906586699]]}, "layer3": {"weights": [[0.9647888283317738, 0.9165609777911143, -0.9698281400848693], [1.0137296784647765, -0.6089990360452933, 1.8285060574422531], [1.511607369234096, 0.6746820603999437, -0.30157295440327825], [0.036957192114897786, -3.3568811447219966, 0.971411339964944], [-1.2255926148424208, 0.35334019918118087, 2.0883991305327876], [-1.4209279145563716, -1.4198983822391895, -1.279176606460763]], "biases": [[-0.17830952756558247, -0.28778027624334035, -0.001640006474296722]]}}, {"layer1": {"weights": [[-0.15831131640123763, 0.5901720959711765, 0.9734564653462893, 1.1820395211602908, -0.7637411627358043, -0.3113912717186186], [-0.10342019802500645, 1.430449880737846, -0.9200507422799036, 1.4693982119012947, -2.3033236038748655, 1.2851539525153757], [-1.4614126658621915, -0.865405351921505, -0.1142394546033617, 1.0283936317696662, 0.7307778639766558, 0.5997328361525456], [-1.7713365228445255, -1.2071163180236064, 1.1148301463879293, 1.7004108719253026, -1.4903223744534926, -0.1708787930986075], [-0.050069686672770855, 1.244808369335297, 0.8818246526795211, -0.8833175084407366, -1.2351782403298301, 1.9009413470808831]], "biases": [[0.27164852909002213, 0.02373318093374427, -0.2712701289751815, -0.1240603478289176, -0.3532658885325206, 0.1093902757107983]]}, "layer2": {"weights": [[-0.823265584619191, -0.28040324776577286, 0.3628354857268191, 0.5703662574932861, 0.29289235656139584, -0.4481156940714074], [-1.8388285986256447, 0.4553092204929049, 0.5959797981100969, 0.06884233801932071, -2.449171356985003, -1.0259814153693605], [1.4791576172685081, 1.4339869992543979, -0.18905605695232858, -0.807307598972764, -0.008027404085335175, -1.049367996826938], [0.4554163790480035, -2.773904985768313, -0.06437611274012213, -0.7000577916924402, 2.2078357857397592, 0.02762741074100131], [-0.6325587624387884, -1.5057354572238082, -0.7055197661847784, -0.2747555162499019, 0.31623706567832655, 1.8932369327762135], [0.05153627306119521, -1.526390212012739, 2.61321333185586, 0.4579140494762903, -0.6577239049517781, -0.09100468733154826]], "biases": [[0.1010398491793319, -0.02805682460749963, 0.46114828860303014, 0.010184521157282907, -0.004689789281493832, 0.1823462906586699]]}, "layer3": {"weights": [[0.9647888283317738, 0.8849287669106733, -0.9698281400848693], [1.0137296784647765, -0.6089990360452933, 1.8285060574422531], [1.511607369234096, 0.6746820603999437, -0.30157295440327825], [0.013211026676910494, -3.3568811447219966, 0.971411339964944], [-1.133979869620067, 0.35334019918118087, 2.0883991305327876], [-1.5694424762404076, -1.4198983822391895, -1.219809150219737]], "biases": [[-0.17830952756558247, -0.28778027624334035, -0.001640006474296722]]}}]