[{"layer1": {"weights": [[1.1555269179766259, 0.8030560855130884, 0.2951930547313357, -0.36901678732562454, -1.7112731678728759, -0.6225434541024163], [-0.06599033813097031, -1.9867476538028013, 0.469152078755128, -1.0157782632613392, 0.26528462217403787, -0.3974478848079497], [1.2496086243653632, -0.11232820554997676, -1.8104305760917667, -0.6533590400759999, 0.6849822675562557, -0.33043903591842827], [-2.69621310813273, -0.7425591770857047, -0.21561235647461602, 0.4675297176419037, 0.12164031983816784, 0.4280269398155919], [-0.3040288597580232, -0.6240699439990993, -1.0945649137131828, 0.6157945376430422, 0.36558349801864065, 0.8741342680083425]], "biases": [[0.037010422431357756, 0.09588430063618741, 0.07895438584388545, -0.03737481941827339, 0.02827511236592032, -0.1398461750390029]]}, "layer2": {"weights": [[0.4473439641521267, -0.5817685268473436, 2.3773176505254434, 0.4847482694633767, -1.5833902845369277, 0.5408400871222904], [-0.7249086404468564, -0.2326345466246468, 0.8092662496859352, -0.2657966941459482, 0.2764272265854962, 0.9177703281178523], [-1.2086818122906078, -0.22575980435587356, -0.033903624098242796, 0.5439461309210301, 0.06115708972333547, 0.5133065897426683], [-0.05480998723092775, -0.48144998333869116, 0.6754242092624775, -0.8060757007718037, -0.38479518889159564, 1.2504873468712452], [-0.8244665646325201, -0.39528186113634595, 1.564967531258089, -1.3473428879784044, 0.1484677435053101, -1.2485363515732606], [0.6427704643596941, 0.9112552046933248, -0.22249731796572586, -0.19834219899862607, -0.6903943306514476, 1.095296768335125]], "biases": [[-0.0702893640208995, -0.04444277825184548, 0.003567406259271983, -0.14083352108177608, 0.12272522808254434, -0.11299019589066994]]}, "layer3": {"weights": [[-0.25146081793472047, 0.5839579583910609, 1.920009249159368], [-0.9214696996325903, -0.3046808041350609, -0.9132631514972027], [-1.2938468668472085, 0.6667337163554934, -0.5115534699503277], [-1.925423559722301, 2.3951125441138026, -1.0616105351147984], [0.1937714866945556, -2.514423044864961, 1.1262723936598409], [-0.44369398776969976, 1.7478501489764238, 0.28546464449392756]], "biases": [[0.042245377897605824, 0.04892612658266415, -0.03824155759275427]]}}, {"layer1": {"weights": [[0.2806677697144585, -0.5653090815806744, -0.63383262233022, 0.23822930785241786, -0.7033328599898996, -0.30990266821175944], [0.2112254288136609, 0.24019060298571693, 0.16831339399410988, 0.10699981509780443, -0.36276561485849257, -0.40991367885952223], [1.1520968663734796, -0.49000545558994, -0.7198179567060168, 0.25741279631306413, -0.7606915181549454, 0.47846185679299813], [-1.0133055294169835, 0.673244650809396, 0.2288815446842091, -0.21470129613398017, 0.057703669493279736, -0.4286599375135093], [-0.11537528267622837, -0.22666071796503387, -0.2336090297917574, 1.028111736241266, -0.8938076627291388, 0.27815088726977344]], "biases": [[0.05259677650969901, 0.044307034934515016, 0.0605371159326807, -0.12099427540374134, -0.013344591108614322, 0.040209532027295554]]}, "layer2": {"weights": [[0.49620161059983064, -0.12302210762737965, -1.1956401057363157, -0.1596158684532266, 0.34976517853807876, 0.838931203018123], [-0.7233538469684824, 0.5915416934517108, 0.0017837901364539158, -0.457402747712486, -0.28932937949224513, 0.39525358937777155], [0.5263424041309752, -0.03696560178074449, 0.15602535778473187, 0.01145441721422023, -0.14228204511194825, 0.1679050019642131], [0.3881463423350453, 0.048039405589807904, -0.3038886275267143, -0.14917857957899497, 0.30419378794297514, 0.5808066464968384], [0.46625965787247503, 0.04954423788640025, 0.3311901230349321, -0.027975476963666656, 0.34613535843794435, 0.48240068092225163], [0.3779099210176445, -0.5446285727381028, 0.17543029515245637, -0.020929043763564546, 0.5851471530398836, -0.7428347850652917]], "biases": [[0.012541957976053035, 0.07058217752888228, -0.003453128681692407, 0.07141293069195831, 0.09411125894516653, -0.09362743278346325]]}, "layer3": {"weights": [[-0.5391624589234134, 0.35515842295993694, -0.8476703071531497], [-0.08572942827452358, 0.653839241678916, -0.32780867152546733], [-0.6487404660771872, 0.9209918658341728, 0.3800000492126104], [-0.5305088691656983, -0.004432502663336454, 0.0035345427643350275], [0.7354198817752406, 0.8585615240054202, -0.3679525980379025], [-0.2925014706221406, 0.1085417969801267, 0.11561940986920508]], "biases": [[-0.035193355190595035, -0.02471076719312233, -0.03317544829423504]]}}, {"layer1": {"weights": [[0.10052769958759734, -0.5582869943861715, -0.6450283388529088, 0.255648864311497, -0.7395980462724752, -0.31072054981615965], [0.2100799816450289, 0.3105392094305879, -0.01714333589921027, 0.11508080452105993, -0.3681994587716869, -0.4185309764509022], [1.1476064496414549, -0.45289170210141133, -0.7990189367964183, 0.12505026826708399, -0.7609880046002282, 0.449953150359072], [-1.0126965228087155, 0.6813652441974936, 0.17800044528325476, -0.13757139009984876, 0.028024542624517, -0.5337879684235856], [-0.11480479020959868, -0.22503918669973558, -0.20435603023699622, 1.0284345291879, -0.8900172109210647, 0.25494729038956226]], "biases": [[0.05381557142364744, 0.044266208934023055, 0.060508224243906866, -0.1209940647131687, -0.01331635218448989, 0.042962470521857726]]}, "layer2": {"weights": [[0.48436369779452143, -0.12576368668377452, -1.1964365312303271, -0.15931399965957505, 0.3404656746999881, 0.8364290791616946], [-0.7127065549783961, 0.5861317143714975, 0.06486477413522464, -0.4017415101412585, -0.2783511238615184, 0.4142113415808282], [0.35812602726707754, -0.03909060266767673, 0.08856453962643615, 0.009592196058791925, -0.16342307730331293, 0.13671188224546713], [0.3818480471464678, 0.07585258284473789, -0.2912173105054699, -0.11884639778460512, 0.30448653355871613, 0.5892604629116474], [0.47174536577922777, 0.0368332212389148, 0.3693868740668314, -0.015217007533367766, 0.3734837534369546, 0.49257179011928864], [0.6811083810104648, -0.5334420425653744, 0.20094911213668987, -0.02109947589982529, 0.637821913935976, -0.7419033581267462]], "biases": [[0.012592626964481362, 0.07058216677252621, -0.0034551767071100865, 0.07130405228113662, 0.101571175620601, -0.0888228268264721]]}, "layer3": {"weights": [[-0.3499523580507851, 0.3446367489688196, -0.8466237529256161], [-0.0857192828913885, 0.636612930808732, -0.3277917438331944], [-0.6533998199648186, 0.9186342828236784, 0.385659734854762], [-0.524331032057481, -0.004168073941002653, -0.01123929205583133], [0.7389871775125123, 0.8507814238244255, -0.3851543363211903], [-0.29165947229588046, 0.10852899493771868, 0.139740741082535]], "biases": [[-0.03619008807918187, -0.010881243637148359, -0.03543501114247245]]}}, {"layer1": {"weights": [[0.6672456848822386, 0.12099313535518574, -0.16283441821145628, -0.0652625736030698, -1.2073055898396312, -0.6416949261319109], [0.0725508091383314, -0.8759481236462208, 0.31859090869272905, -0.45568796453261284, -0.048747793112679544, -0.4036205214893411], [1.1910291374099224, -0.3074832271220004, -1.265009536818194, -0.21596215552079115, -0.03790403970689199, 0.08815710798121162], [-1.8546578176734787, -0.03469037166487432, -0.018695262175480565, 0.12807816092610538, 0.08967770065666145, -0.006508262439624074], [-0.20953094921554752, -0.42509507577118355, -0.6494782827196128, 0.8220069357665931, -0.26919053304491086, 0.5703131674362607]], "biases": [[0.04541909503888127, 0.05880956567713449, 0.06974093560682076, -0.07918451229591193, 0.00747376677292444, -0.04981849892117486]]}, "layer2": {"weights": [[0.47159107346834317, -0.3537423458808714, 0.5907060348122286, 0.16261651197068364, -0.6191645764252807, 0.6885601468401337], [-0.7214683267354207, 0.16126609699220945, 0.4033192690780027, -0.3892859675451156, -0.0027157495424007527, 0.5508645971730761], [-0.34042119310465546, -0.13042911192699225, 0.029034655745285104, 0.2838652062549147, -0.049807564567586934, 0.34758076752699985], [0.16399354002425645, -0.2163700377224707, 0.14496942441521096, -0.447261804441624, -0.056201407912350815, 0.91293047068099], [-0.17651112352165918, -0.18786056509215443, 0.967383236479078, -0.6876261491762133, 0.23044109342849922, -0.3831244741803956], [0.66185360989346, 0.1889073344978796, -0.017145108988441515, -0.10957980901075669, -0.026272078205689664, 0.17660982687193316]], "biases": [[-0.02886525819101851, 0.013069697845792393, 0.010898451715635702, -0.04070388411027593, 0.10841962652041617, -0.10210747435429056]]}, "layer3": {"weights": [[-0.30314942944382794, 0.4638609907733178, 0.5308347767486543], [-0.5035978730563677, 0.1644497357486355, -0.6205330902292896], [-0.9739239767690113, 0.7928898899444647, -0.06578095367461784], [-1.1405368275388896, 1.1953963716373937, -0.5114358101245228], [0.39768608874274247, -0.8293669993550666, 0.37636546321302666], [-0.36722046834235955, 0.9444084801694164, 0.20316748807368581]], "biases": [[0.0009528259383665555, 0.01210767008181181, -0.01622460278996541]]}}, {"layer1": {"weights": [[0.13956024552117832, -0.5610698148027169, -0.6208618911542483, 0.25133524342894753, -0.7033380118063863, -0.3101752954132262], [0.21109195640763312, 0.23485140651035985, 0.1680297386303301, 0.10440233419611353, -0.36278020839939695, -0.4097931581707325], [1.1324496504544816, -0.45521268085935984, -0.7195884975446211, 0.22143472903441758, -0.7607903469700397, 0.47840752895648], [-1.0131025272142276, 0.6731784337559561, 0.1782218321236549, -0.21137339578969294, 0.05771508147515506, -0.44104346469484007], [-0.11503303867307187, -0.22612020754326778, -0.20439165172604287, 1.028219333890144, -0.8966371546598944, 0.2664920668641788]], "biases": [[0.05382776764640479, 0.021734830718081563, 0.06052748536975609, -0.12099420517355047, -0.01332757882007144, 0.04020917719665318]]}, "layer2": {"weights": [[0.42518408917098116, -0.12571616491439924, -1.1959055809009862, -0.1595152455220094, 0.3450611316863664, 0.8362802065579769], [-0.7180280130239851, 0.5551667406090657, -0.0026277115299297785, -0.45733056162762836, -0.2818587256702977, 0.4124728177214745], [0.5859807512680629, -0.035098419498110926, 0.091972935588813, 0.02378428158879928, -0.05576726047052544, 0.15056734889400458], [0.42392701237440716, 0.07796479187660824, -0.38548536043205556, -0.1189029070661084, 0.1922484338865178, 0.5753735944907347], [0.47144431758920174, 0.019560730952037093, 0.18561436088070118, -0.02790941037402227, 0.31241444335168833, 0.48228740321246943], [0.6809367554272258, -0.5334405356975656, 0.18820709998884283, -0.18782736400741237, 0.5783573118592251, -0.7420771145912586]], "biases": [[0.012558847638862478, 0.07058217394343026, 0.01822949717199942, 0.059425752861224215, 0.10367113521722351, -0.09122475281791118]]}, "layer3": {"weights": [[-0.424684469618694, 0.34376402315557475, -0.8583396956620595], [-0.08572604648014522, 0.6335802756323319, -0.32780302896137636], [-0.654001086690814, 0.919046063533436, 0.379991562601092], [-0.5269466830593835, -0.004319800839015186, 0.1646945850836487], [0.6983004927507257, 0.8556890461548277, -0.3724047683396126], [-0.29074694891501934, 0.10853752963265736, 0.12087033165344407]], "biases": [[-0.04033972602087271, -0.024710786419040533, -0.024657521414873478]]}}, {"layer1": {"weights": [[0.6255688953436422, 0.11675386857722825, -0.37587579013548633, -0.06552490587013687, -1.2073004380231445, -0.23174410522358482], [0.21690048422755467, -0.8706089271708637, 0.33244142580897446, -0.45309048363092197, -0.04873319957177516, -0.40374104217813084], [1.2106763533289204, -0.29485043401791644, -1.2652389959795896, -0.17998408824214457, -0.037805210891797725, 0.059865712893358236], [-1.8548608198762349, -0.03462415461143442, -0.012311668841305773, 0.12475026058181815, 0.0014249446323855997, -0.14947752519135907], [-0.20987319321870404, -0.4256355861929496, -0.6501768769994252, 0.8218993381177151, -0.2590336316655873, 0.5819719878418553]], "biases": [[0.04418810390217549, 0.08138176989356793, 0.06975056616974537, -0.0791845825261028, 0.007456754484381557, 0.0018239653294328806]]}, "layer2": {"weights": [[0.47195450128361416, -0.35104828859385184, 0.5909715099768991, 0.16251588903946645, -0.6144605295735682, 0.6912111433002797], [-0.726794160679918, 0.1976410498348546, 0.4077307707443864, -0.33391347431331864, -0.010186403364348229, 0.6479023445759604], [-0.28119060347583774, -0.1322962942096258, 0.03888419570241385, 0.2715353418803356, -0.031317390821025845, 0.3336308241798815], [0.16934281507986115, -0.3431539188057193, 0.22656615732055224, -0.4927649764318426, -0.02439999303626969, 0.9183635226870936], [-0.1816957832383859, -0.15787705815779127, 0.9287744178139432, -0.6876922157658577, 0.26416200851475524, -0.3830111964706133], [0.6617677971018403, 0.17771929745734227, -0.029921913824827978, -0.10969143375143393, -0.07897509940587433, 0.17585215639790008]], "biases": [[-0.028882147853827953, 0.013069701431244411, -0.010784174138056124, -0.028716706279541836, 0.10841686050729468, -0.10451015431984262]]}, "layer3": {"weights": [[-0.3087199133092642, 0.47525539057768, 0.5415041652575641], [-0.44376737521780946, 0.18470870179521967, -0.6205387327933805], [-0.874424304718635, 0.7948356922452016, -0.06577246706309947], [-1.229747307497157, 1.1952836698130724, -0.5565260392100466], [0.48315537874715553, -0.8264945215044741, 0.38195433240891175], [-0.36897499004948087, 0.9281981066520099, 0.19791656628944682]], "biases": [[0.0060991967686442345, 0.012107689307730015, -0.011803195448707345]]}}, {"layer1": {"weights": [[0.09788345598258197, -0.5653090815806744, -0.63383262233022, 0.25107291116188046, -0.7033328599898996, -0.30990266821175944], [0.2112254288136609, 0.24019060298571693, 0.16831339399410988, 0.10699981509780443, -0.36276561485849257, -0.40991367885952223], [1.1520968663734796, -0.49000545558994, -0.7198179567060168, 0.25741279631306413, -0.7606915181549454, 0.4501161338686266], [-1.0133055294169835, 0.673244650809396, 0.18460542545782968, -0.21470129613398017, 0.057703669493279736, -0.4286599375135093], [-0.11537528267622837, -0.22666071796503387, -0.20509024600585518, 1.028111736241266, -0.8864802532805708, 0.27815088726977344]], "biases": [[0.05259677650969901, 0.044307034934515016, 0.0605371159326807, -0.12099427540374134, -0.013344591108614322, 0.017112141299463098]]}, "layer2": {"weights": [[0.4255475169862522, -0.12302210762737965, -1.1956401057363157, -0.21616558057086865, 0.34976517853807876, 0.838931203018123], [-0.7233538469684824, 0.5915416934517108, 0.0017837901364539158, -0.40195806839583137, -0.28932937949224513, 0.39525358937777155], [0.5844837293177413, -0.03696560178074449, 0.10182247554594176, 0.01145441721422023, -0.03727708672396435, 0.13661740554688623], [0.3881463423350453, 0.0772942895726664, -0.3038886275267143, -0.14917857957899497, 0.30419378794297514, 0.5808066464968384], [0.46625965787247503, 0.04954423788640025, 0.35774282200861784, -0.1334778407380075, 0.34613535843794435, 0.48240068092225163], [0.6808509426356062, -0.4651022872827974, 0.17543029515245637, -9.588453135637998e-06, 0.5851471530398836, -0.7428347850652917]], "biases": [[0.012541957976053035, 0.07058217752888228, -0.003453128681692407, 0.07141293069195831, 0.08040013294098121, -0.09362743278346325]]}, "layer3": {"weights": [[-0.36040852481837166, 0.35515842295993694, -0.8476703071531497], [-0.08572942827452358, 0.653839241678916, -0.32780867152546733], [-0.6487404660771872, 0.9209918658341728, 0.3800000492126104], [-0.5305088691656983, -0.004432502663336454, 0.0035345427643350275], [0.7354198817752406, 0.8585615240054202, -0.36681589914372753], [-0.2925014706221406, 0.1085417969801267, 0.11561940986920508]], "biases": [[-0.035193355190595035, -0.02471076719312233, -0.03317544829423504]]}}, {"layer1": {"weights": [[0.13956024552117832, -0.5610698148027169, -0.6208618911542483, 0.25133524342894753, -0.7033380118063863, -0.3101752954132262], [0.21109195640763312, 0.23485140651035985, 0.1680297386303301, 0.10440233419611353, -0.5726056524819124, -0.4097931581707325], [1.1324496504544816, -0.502638248694024, -0.7195884975446211, 0.22143472903441758, -0.7607903469700397, 0.47840752895648], [-0.9123749747604428, 0.5324675207252002, 0.1782218321236549, -0.21137339578969294, 0.05771508147515506, -0.4754004903243848], [-0.11503303867307187, -0.22612020754326778, -0.20439165172604287, 1.028219333890144, -0.8966371546598944, 0.2664920668641788]], "biases": [[0.05382776764640479, 0.021734830718081563, 0.06052748536975609, -0.12099420517355047, -0.01332757882007144, 0.04020917719665318]]}, "layer2": {"weights": [[0.42518408917098116, -0.12571616491439924, -1.1959055809009862, -0.1595152455220094, 0.3450611316863664, 0.8362802065579769], [-0.7180280130239851, 0.6799225664434041, -0.0026277115299297785, -0.45733056162762836, -0.2818587256702977, 0.4124728177214745], [0.7425267759052178, -0.035098419498110926, 0.091972935588813, -0.0032178811726191157, -0.05576726047052544, 0.15056734889400458], [0.38279706727944063, 0.07796479187660824, -0.38548536043205556, -0.1189029070661084, 0.272392373066894, 0.5753735944907347], [0.4492426280189093, 0.019560730952037093, 0.3963516406737527, -0.02790941037402227, 0.31241444335168833, 0.48228740321246943], [0.6809367554272258, -0.5334405356975656, 0.18820709998884283, -0.020817419022887296, 0.6378501742400683, -0.7420771145912586]], "biases": [[0.012558847638862478, 0.07058217394343026, 0.01822949717199942, 0.059425752861224215, 0.10367113521722351, -0.09122475281791118]]}, "layer3": {"weights": [[-0.35483804095293536, 0.34376402315557475, -0.8583396956620595], [-0.0587251900771448, 0.6335802756323319, -0.32780302896137636], [-0.654001086690814, 0.919046063533436, 0.379991562601092], [-0.5269466830593835, -0.004319800839015186, 0.03873891486575294], [0.6983004927507257, 0.8556890461548277, -0.3724047683396126], [-0.29074694891501934, 0.10853752963265736, 0.12087033165344407]], "biases": [[-0.04033972602087271, -0.024710786419040533, -0.08098606328380967]]}}]