[{"layer1": {"weights": [[-0.3595174111052907, 0.4109520885524994, 0.9023337613584201, 1.1051992130637331, -0.8145016163431427, -0.31444239332595636], [-0.16336699354996917, 1.371987595762341, -1.0013743016245336, 1.247679859682346, -2.162371267536008, 1.4115860713854125], [-1.461126428768934, -0.7674562942112869, -0.0037431448762363898, 1.238837704050796, 0.561835584338637, 0.7519658606867448], [-1.6434724731638883, -1.01460126816447, 1.1051784075680264, 1.709331124349073, -0.85890014084644, -0.2385515818402164], [0.09914774258873835, 0.6700792328181402, 0.9104386677993607, -1.1285850970283522, -1.7379036522737765, 1.5261376174135597]], "biases": [[0.2606984627144452, 0.10336538522090989, -0.2425923399595991, -0.17999314929442928, -0.06728583665115201, -0.03247365637042965]]}, "layer2": {"weights": [[-1.1198174638813154, -0.3442695045651606, 0.8275308102770571, 0.9488244340731192, 0.2889739414993304, -0.41653959876270596], [-2.063560749332483, -0.09416209298117253, 0.571588700295546, 0.15060372223981935, -2.2394769785427604, -0.8009296719311877], [1.2512246293556717, 0.28967777981704435, -0.12424230026185634, -0.7666735684286458, 0.20483455364940623, -0.8299810243545728], [0.4986833627857146, -2.572917549866637, -0.08896760286666573, -0.5476946530760436, 2.2146797450490956, -0.8547909682023933], [-1.225460665447803, -1.1745587878925867, -0.43369970376668365, 0.1892840682123324, 0.23022607421403096, 1.6819857024146199], [-0.0803577166068212, -1.5315557557541446, 2.294123385790155, 0.6363858902527469, -0.6909100285613795, -0.8545572582330772]], "biases": [[0.14132582762789553, 0.022931719223789254, 0.3714473338908859, -0.05171760078977437, -0.05925213227127199, 0.09505257286961778]]}, "layer3": {"weights": [[0.7546908860958466, 0.8763456261213818, -1.1036679575313242], [0.8282631969804525, -0.4725127553394757, 1.7669622324624839], [1.4954654945011439, 0.822809969759595, -0.3135917933465688], [0.03661554568562486, -2.7971999469473174, 1.1296468369454846], [-1.2461360532483985, 0.39975509866286174, 2.071760059750753], [-1.3683692171680657, -1.5857957830426395, -1.1504993023991874]], "biases": [[-0.152752441534092, -0.1589655772458165, -0.07299712334549555]]}}, {"layer1": {"weights": [[-0.338615876450764, 0.3993465494189971, 0.8980868664704449, 1.0873584409730919, -0.8165290731055288, -0.3144416789629174], [-0.14494166432501687, 1.3101535322123006, -1.0013781039661152, 1.2465038711550447, -2.338282493970734, 1.4276331607209463], [-1.4760741570261036, -0.8202407436382311, -0.004037592893093151, 1.238801430301661, 0.5701977130563428, 0.743651362319614], [-1.6422785194768363, -1.0301587446604121, 1.1204194961706102, 1.7231954957612183, -0.8526421772355379, -0.2174072757193446], [0.09663927951724169, 0.7253626849731708, 0.8887216664793804, -1.1183301593929595, -1.7972108533093811, 1.5261375414948797]], "biases": [[0.28300088051591904, 0.11463630308019203, -0.24448305700042883, -0.18013571658451785, -0.07335569633106483, -0.013079202332576614]]}, "layer2": {"weights": [[-1.1407492948847355, -0.34018344489454755, 0.8172706066660383, 0.854372291064253, 0.2888808739766314, -0.40056270556948215], [-2.040574944965693, -0.06893887384752367, 0.5772520409983471, 0.14297141478679137, -2.195126149176149, -0.798683284487117], [1.255266727864616, 0.28996400630299546, -0.14353396840205063, -0.7198656375769256, 0.1882626423728101, -0.829692267020731], [0.499587602599677, -2.5725531411907756, -0.08147401973533391, -0.5669045056934191, 2.2146823108138896, -0.8516289798265109], [-1.2583484266852574, -1.1533333199458253, -0.38691218732595123, 0.16494357608021154, 0.24919680057486798, 1.6365898735727606], [-0.09705875652676471, -1.5166699545954525, 2.339672452813107, 0.6150298636540481, -0.6880146845183225, -0.9653249005693957]], "biases": [[0.15702859139474223, 0.044949299960956514, 0.3714473318294897, -0.054114484913571695, -0.059449626109293885, 0.1295763420244783]]}, "layer3": {"weights": [[0.7348011918199066, 0.8589392710456039, -1.0924085028256467], [0.7897473320534838, -0.5094726880240009, 1.754969720157971], [1.4714712799756595, 0.8204342499631625, -0.31609471884166224], [0.035329816973921735, -2.760145387994381, 1.0753149752775042], [-1.27112498365514, 0.39808254181669256, 2.071760011432773], [-1.2978934674119351, -1.5773967279187138, -1.1897744211779777]], "biases": [[-0.1523331865464561, -0.15593897888716662, -0.06682507215364733]]}}, {"layer1": {"weights": [[-0.33702853542894695, 0.4009226102889789, 0.8956421301678212, 1.085876958147301, -0.8162301740689522, -0.31444177597518197], [-0.15405369125112262, 1.2625545116921888, -1.0013775875987398, 1.2466635733007276, -2.2080747279402066, 1.438904163745942], [-1.4772796478105534, -0.8372356021849868, -0.003997606125371862, 1.2388063563663585, 0.5752287654199522, 0.7464228616972987], [-1.641120602347284, -1.0295506671138273, 1.0390832771938703, 1.7272209022044376, -0.8309681237003455, -0.18043360942149356], [0.09689379775740284, 0.676933814890625, 0.8790850187005557, -1.1331722810420173, -1.736501222052226, 1.526137551804824]], "biases": [[0.26384828443442504, 0.1028949073150138, -0.2425697627240914, -0.1801163555945058, -0.07944487507612547, -0.002305502460500704]]}, "layer2": {"weights": [[-1.0601756439842507, -0.3365072779451556, 0.8070135235588931, 0.779409971226152, 0.2888935127760103, -0.40202793498239786], [-2.0364343644130747, -0.06442586895748957, 0.5810060439044739, 0.11191966335517761, -2.183218226401617, -0.7918976523067338], [1.2540222376601027, 0.28992513603947123, -0.14784027157154428, -0.715723280383564, 0.19437768560141291, -0.8297314809796477], [0.49946480460025, -2.57381301287885, -0.07050604154429549, -0.5670540035034817, 2.2146819623766953, -0.8517050616320057], [-1.2670967587805166, -1.1552513458318843, -0.37734240962457966, 0.23800632207960004, 0.2512993154897376, 1.6362304483437586], [-0.11376072757017519, -1.5081660934137442, 2.3520952017074435, 0.6347675476354071, -0.6884078793883672, -1.0760881630013233]], "biases": [[0.15345228786456205, 0.05709992490839946, 0.37144733210943237, -0.054034092674255366, -0.059422805958451404, 0.09650384272226212]]}, "layer3": {"weights": [[0.7021044597677659, 0.8418039160240866, -1.0766769067104163], [0.7741466157035417, -0.5489611439802847, 1.7903767730060824], [1.472093617924724, 0.8201704327214637, -0.31575481537936556], [0.03544573400188953, -2.7644010073826633, 1.0175408659118497], [-1.2533363473058898, 0.3981451557740786, 2.071760017994474], [-1.2714701495684928, -1.5748606637353229, -1.209376405360955]], "biases": [[-0.1523901224089746, -0.15607561039892956, -0.0661393096073433]]}}, {"layer1": {"weights": [[-0.3498603142889359, 0.40436128855075737, 0.9014326820657443, 1.10631883505904, -0.8156647942426241, -0.31444198763830467], [-0.15491097564978645, 1.364870074247377, -1.001376460979012, 1.247012014345854, -2.1916770587682075, 1.4139741145406814], [-1.467997547505294, -0.7853510896513811, -0.003910362268525414, 1.2388171041438798, 0.5635011225156852, 0.7464228618143371], [-1.6434544548851386, -1.0226840451857337, 1.1534670613576883, 1.7142506068335361, -0.8666081858085852, -0.24646626192870602], [0.09776625193290944, 0.7219353939369284, 0.8692604505587415, -1.1160365673861268, -1.75718394689188, 1.5261375742992476]], "biases": [[0.28142596965592914, 0.11487154203314007, -0.24449434561818267, -0.1800741134344796, -0.0672761771185781, -0.028163279287541088]]}, "layer2": {"weights": [[-1.1705702048332678, -0.34406455820455, 0.8275292500251203, 0.9390795224877366, 0.2889210883382915, -0.4078185374596362], [-2.0541381374253973, -0.08380698585936515, 0.5725433691938833, 0.14209395456655843, -2.242017623977739, -0.8031992942993439], [1.2538679237124004, 0.289840328191782, -0.13173498274720669, -0.7453407815994664, 0.19349107639680674, -0.8298170387081935], [0.4991968816924093, -2.572105409684669, -0.09070480039651904, -0.5572248304797001, 2.2146812021500897, -0.8531719331117047], [-1.2375303800189006, -1.3045911743577796, -0.4150908343970032, 0.194263640393439, 0.23866017993701466, 1.6594675006081911], [-0.08035725104508772, -1.5283647857656528, 2.3106865448544625, 0.6158390349627181, -0.6892657591048286, -0.8545594481852726]], "biases": [[0.15096536127640897, 0.02786519711865141, 0.37144733272021646, 0.014338234724640048, -0.05936428926570418, 0.09600626448706978]]}, "layer3": {"weights": [[0.7610944049839469, 0.8762101260942514, -1.1059040282361006], [0.8168056226919392, -0.4712484937035964, 1.7756608384523913], [1.5727206513672698, 0.8217540184822282, -0.3150132078252639], [0.0359147228157894, -2.7765448577767087, 1.1313679607943217], [-1.2675248366263943, 0.3988875132610841, 2.071760032310913], [-1.3463430012117217, -1.582864287572372, -1.1685478057024303]], "biases": [[-0.2534114587195616, -0.1573839623106101, -0.07025397902272346]]}}, {"layer1": {"weights": [[-0.3560809072674916, 0.3993465494189971, 0.9295331852776484, 1.0966577076008241, -0.8165290731055288, -0.3144416789629174], [-0.1502543245003632, 1.3101535322123006, -1.0013781039661152, 1.2465038711550447, -2.2145287889703074, 1.4276331607209463], [-1.4743611026294077, -0.8202407436382311, -0.004037592893093151, 1.238801430301661, 0.5701977130563428, 0.743651362319614], [-1.6422785194768363, -1.0301587446604121, 1.1204194961706102, 1.7231954957612183, -0.8526421772355379, -0.2174072757193446], [0.09663927951724169, 0.7253626849731708, 0.8887216664793804, -1.1716179383488816, -1.8406024984074283, 1.5261375414948797]], "biases": [[0.28300088051591904, 0.11463630308019203, -0.24448305700042883, -0.18013571658451785, -0.07335569633106483, -0.013079202332576614]]}, "layer2": {"weights": [[-1.1407492948847355, -0.34018344489454755, 0.8172706066660383, 0.854372291064253, 0.2888808739766314, -0.40056270556948215], [-2.040574944965693, -0.06893887384752367, 0.4541928682019062, 0.14297141478679137, -2.249259341533909, -0.798683284487117], [1.255266727864616, 0.4741415133690535, -0.14353396840205063, -0.7198656375769256, 0.1882626423728101, -0.829692267020731], [0.499587602599677, -2.5725531411907756, -0.08147401973533391, -0.5669045056934191, 2.2146823108138896, -0.8516289798265109], [-1.2583484266852574, -1.1533333199458253, -0.38691218732595123, 0.2186247673270728, 0.24919680057486798, 1.6365898735727606], [-0.09705875652676471, -1.629884325000504, 2.339672452813107, 0.5523216165638247, -0.6775703935131174, -0.9653249005693957]], "biases": [[0.15702859139474223, 0.044949299960956514, 0.3714473318294897, -0.054114484913571695, -0.059449626109293885, 0.09673189941339194]]}, "layer3": {"weights": [[0.7348011918199066, 0.8589392710456039, -1.0924085028256467], [0.7897473320534838, -0.5094726880240009, 1.7873681087241906], [1.5121492304638111, 0.8204342499631625, -0.31609471884166224], [0.035329816973921735, -2.760145387994381, 1.0753149752775042], [-1.27112498365514, 0.39808254181669256, 2.071760011432773], [-1.2978934674119351, -1.5773967279187138, -1.1979863571833143]], "biases": [[-0.1523331865464561, -0.15593897888716662, -0.06682507215364733]]}}]