[{"layer1": {"weights": [[-0.08000044531281421, 0.3985617207838698, 1.0241982284147322, 1.2639288653369865, -0.8311109642385492, -0.41494720289505316], [-0.14205363205166222, 0.9280400932614439, -0.8248849730476273, 1.801956775310287, -1.6411448666363324, 1.6464550403640548], [-1.0526506556632411, -0.3584120235661594, -0.08160600196217258, 1.2430721014308208, 0.6875670353064467, 0.8002436989549113], [-1.6262955066829354, -0.9561227993780563, 0.6850922861850105, 1.6388330887007048, -1.3726378988243153, -0.28924134782240496], [0.664414063133423, 1.2513624557316247, 0.7121563451705268, -0.7396028188366706, -1.5939050540692001, 1.651966765216332]], "biases": [[0.20618241240382684, -0.024720291988855156, -0.26278934491948686, -0.2108217326405184, -0.06410504121006579, -0.10853759161790696]]}, "layer2": {"weights": [[-0.6608165737772966, -0.9577442856879792, 1.2116132338524208, 0.6822525651158573, 0.4132822408823973, -0.3989339071763158], [-2.0411740262728557, 0.2668193934900429, 0.488687850545142, 0.43856918818815893, -1.9855571797264855, -0.7205043682207688], [1.185270189984767, 0.44343012292906947, 0.040064947570700206, -0.32064778142952777, 0.16690831029206682, -0.8389429498160372], [0.6907770075997155, -1.9646811988020567, -0.29907580806918643, -0.3826368117763792, 2.1779635417898833, -0.8921827043632589], [-1.0942842712162664, -1.4494756670082056, -0.18990445733833458, 0.1274003793439017, -0.21547025636808492, 1.6376765661039507], [-0.03871305101999445, -1.711632437857987, 2.3221013949338127, 0.3026981860294348, -0.46958055050613823, -1.411678425674015]], "biases": [[0.12213009912736653, 0.07674042295880329, 0.24014439704847104, -0.030901630300836064, -0.14415188064680348, 0.16074555748214547]]}, "layer3": {"weights": [[0.9089299531126309, 0.902835692595095, -1.1834175343797784], [1.3076833229455471, -0.563200263364553, 1.4127588070698271], [1.516786299447805, 0.962329789311983, -0.4226988233119864], [0.11312368817953466, -3.1382675060829563, 0.993225267009515], [-1.4908671785870624, 0.40797483622087194, 2.0399628720590925], [-0.9527655613439294, -1.324547543485827, -1.3071362499942045]], "biases": [[-0.22852126626368108, -0.1861631253058058, -0.1518325943856354]]}}, {"layer1": {"weights": [[-0.08127803335722064, 0.38707170735676266, 1.0226784083391935, 1.3655908267959913, -0.8321329246251526, -0.49617391868003957], [-0.1702953309714984, 0.9161070712909476, -0.8455504991354434, 1.822593563439209, -1.6868324646964403, 1.467241542888096], [-1.0514120706931918, -0.3580869586666263, -0.02945652419610681, 1.101448029111056, 0.689305710970955, 0.8002436430958046], [-1.6248995520856822, -0.9432843588042419, 0.6823504068188384, 1.6452374003928598, -1.3736406512457116, -0.288469481934744], [0.6643137585011984, 1.2361288343454047, 0.7228210652056895, -0.7745774669364629, -1.5748952263823282, 1.6353718672553779]], "biases": [[0.2061350295806134, -0.0949411554255373, -0.2626861825948036, -0.20969954492346138, -0.06319672348120098, -0.10842749650013792]]}, "layer2": {"weights": [[-0.6276318305624984, -0.9566998170536057, 1.2425641082067607, 0.8325341935593855, 0.4208641197255177, -0.3456872807279031], [-2.0317860987008984, 0.2687184116966882, 0.4926670546443968, 0.405199091869476, -1.9855194214449616, -0.7218379141720015], [1.139230250936777, 0.4882603522255292, -0.08853532588481375, -0.31459033847541074, 0.15893963378237563, -0.8187537815643291], [0.6934621396659204, -1.9487027374246675, -0.29785227104059686, -0.2821324383426439, 2.067560980044439, -0.8927427955811181], [-1.1643151657829984, -1.4643625777964269, -0.23715465234088082, 0.09469295452785709, -0.1941436564147433, 1.6532751092317466], [-0.18456482929668155, -1.6138185875947115, 2.351499534778206, 0.22479070455058353, -0.431382396214357, -1.272092164235522]], "biases": [[0.12181253993202838, 0.07359369147937306, 0.24020448669165398, -0.0314703046604608, -0.14414029548721158, 0.16482977401410276]]}, "layer3": {"weights": [[0.8800714655332047, 0.9438930354176314, -1.1839261097227292], [1.3067605026903695, -0.526664634290023, 1.4763149309656045], [1.5186645561707726, 0.9632207131054253, -0.44737831680620527], [0.11408887737023056, -3.1205147573735132, 0.9917129391608144], [-1.4718460293039177, 0.44386074129635844, 2.0501708718051392], [-0.969324308998489, -1.3246325385338045, -1.2867340519170258]], "biases": [[-0.2602678351387975, -0.15706290020872105, -0.12565561787137566]]}}, {"layer1": {"weights": [[-0.08127803335722064, 0.38707170735676266, 1.0226784083391935, 1.263985585050945, -0.8321329246251526, -0.4149666803973441], [-0.17441186876374593, 0.9161070712909476, -0.8859353666604683, 1.822593563439209, -1.6868324646964403, 1.6351105448957446], [-1.0514120706931918, -0.3580869586666263, -0.08121117244392306, 1.2289224404428498, 0.689305710970955, 0.8002436430958046], [-1.6248995520856822, -0.9667235784382117, 0.6823504068188384, 1.6452374003928598, -1.3736406512457116, -0.288469481934744], [0.6643137585011984, 1.2361288343454047, 0.7254255131745267, -0.7745774669364629, -1.5748952263823282, 1.6353718672553779]], "biases": [[0.2061350295806134, -0.08983709262449588, -0.2626861825948036, -0.20969954492346138, -0.06319672348120098, -0.10842749650013792]]}, "layer2": {"weights": [[-0.6276318305624984, -0.9566998170536057, 1.2425641082067607, 0.8852090217041364, 0.41365507684903347, -0.3456872807279031], [-2.057295411891301, 0.2687184116966882, 0.4926670546443968, 0.43809117630975547, -1.9855194214449616, -0.7218379141720015], [1.139230250936777, 0.4882603522255292, -0.007012336497228183, -0.31459033847541074, 0.15850548960314104, -0.8187537815643291], [0.6934621396659204, -1.9487027374246675, -0.29785227104059686, -0.2821324383426439, 2.1790001289670533, -0.8927427955811181], [-1.0935805501325566, -1.4643625777964269, -0.18980235390071104, 0.12136010425284491, -0.1941436564147433, 1.6532751092317466], [-0.04105512538601171, -1.7192117262694078, 2.322036370184514, 0.22479070455058353, -0.431382396214357, -1.272092164235522]], "biases": [[0.12181253993202838, 0.07359369147937306, 0.24020448669165398, -0.0314703046604608, -0.14414029548721158, 0.16080390035353295]]}, "layer3": {"weights": [[0.8800714655332047, 0.9225583502186873, -1.1839261097227292], [1.3067605026903695, -0.526664634290023, 1.4763149309656045], [1.5186645561707726, 0.9632207131054253, -0.44737831680620527], [0.11408887737023056, -3.1205147573735132, 0.9917129391608144], [-1.4718460293039177, 0.406895823149262, 2.039864065818207], [-0.969324308998489, -1.3246325385338045, -1.3036526866209748]], "biases": [[-0.22850162085993717, -0.18617824084049492, -0.15152099656075518]]}}, {"layer1": {"weights": [[-0.08000044531281421, 0.3985617207838698, 1.0241982284147322, 1.0922209532042157, -0.8311109642385492, -0.41494720289505316], [-0.14205363205166222, 0.9280400932614439, -0.8845591582492327, 1.801956775310287, -1.6411448666363324, 1.6464550403640548], [-1.0526506556632411, -0.3584120235661594, -0.08160600196217258, 1.2430721014308208, 0.6875670353064467, 0.8002436989549113], [-1.6262955066829354, -0.9561227993780563, 0.6850922861850105, 1.6388330887007048, -1.3726378988243153, -0.28924134782240496], [0.664414063133423, 1.2513624557316247, 0.7549293731246451, -0.7753864199436965, -1.5939050540692001, 1.651966765216332]], "biases": [[0.20618241240382684, -0.08990258856036017, -0.26278934491948686, -0.2108217326405184, -0.06410504121006579, -0.10853759161790696]]}, "layer2": {"weights": [[-0.6442896011743819, -0.9577442856879792, 1.2116132338524208, 0.8656523922305546, 0.4132822408823973, -0.3446449058523182], [-2.0411740262728557, 0.2668193934900429, 0.488687850545142, 0.43856918818815893, -1.9855571797264855, -0.7205043682207688], [1.185270189984767, 0.4783642314255047, 0.040064947570700206, -0.32064778142952777, 0.16690831029206682, -0.8389429498160372], [0.6907770075997155, -1.9646811988020567, -0.29907580806918643, -0.2821004378860337, 2.1779635417898833, -0.8921827043632589], [-1.0942842712162664, -1.4494756670082056, -0.18990445733833458, 0.1274003793439017, -0.21547025636808492, 1.6376765661039507], [-0.03871305101999445, -1.711632437857987, 2.3221013949338127, 0.22846768524098116, -0.46958055050613823, -1.2708010183559142]], "biases": [[0.12213009912736653, 0.07674042295880329, 0.24014439704847104, -0.030901630300836064, -0.14415188064680348, 0.16074555748214547]]}, "layer3": {"weights": [[0.9089299531126309, 0.902835692595095, -1.1834175343797784], [1.3076833229455471, -0.563200263364553, 1.4127588070698271], [1.516786299447805, 0.962329789311983, -0.31102562059285743], [0.11312368817953466, -3.1382675060829563, 0.993225267009515], [-1.4734258020052555, 0.40797483622087194, 2.0399628720590925], [-0.9527655613439294, -1.324547543485827, -1.3071362499942045]], "biases": [[-0.22852126626368108, -0.1861631253058058, -0.1518325943856354]]}}, {"layer1": {"weights": [[-0.08127309177556039, 0.3800508990760638, 1.0212745709510973, 1.263979874301138, -0.8355654838195923, -0.41496475096554186], [-0.14753719627253925, 0.9176103418538505, -0.9415818968883518, 1.823614272512271, -1.6477414626482543, 1.6340766182719613], [-1.2041457581788628, -0.357636950113282, -0.08659214978231548, 1.2336759741754082, 0.6983053283378604, 0.8002436473410182], [-1.6262642763482427, -0.9435420335487501, 0.6768365802630164, 1.652076683221003, -1.3726381938946894, -0.2880324537509496], [0.6647270566371601, 1.2403644829957121, 0.712315254265786, -0.7747431875439208, -1.5707934086500321, 1.6320123138725204]], "biases": [[0.206040263984207, -0.0898183803038625, -0.26269125094617685, -0.20975696125390178, -0.06194086633413498, -0.10840189015289575]]}, "layer2": {"weights": [[-0.6072169137989393, -0.9506622689401127, 1.2611936305855764, 0.8902144494437478, 0.35277266298005816, -0.3419691712415818], [-1.973818481590201, 0.2699270942697527, 0.5005973557729205, 0.43735186147270516, -1.8958825095690943, -0.7245044585023188], [1.1384130991661665, 0.49143496416811583, -0.019762864976558048, -0.3149721095973321, 0.12513740499678191, -0.7656511997202016], [0.7060317191861103, -1.9482830844655943, -0.29907532177980956, -0.2821349976832767, 2.17800074509932, -0.8961804685889749], [-1.0930873435375885, -1.379737907341855, -0.1898856023016623, 0.11515563479210157, -0.19481780501404244, 1.6630131635438399], [-0.06402191908611846, -1.7200403153240873, 2.3222819653067397, 0.22186539171335687, -0.4611514810605164, -1.2726064209256673]], "biases": [[0.10066742171982085, 0.06939472098428397, 0.24019815449458864, -0.10538766626399736, -0.14410604700714927, 0.16865517294359555]]}, "layer3": {"weights": [[0.8707791511469853, 0.9042715234257466, -1.1848566527108457], [1.3061723286946476, -0.5400628241085061, 1.5075683778248918], [1.5189664317323301, 0.9630834737556357, -0.4473784846995174], [0.11369923851207558, -3.1382643979488973, 0.9899978246507486], [-1.468681676516418, 0.4047420394902428, 2.039948392000399], [-0.961969165002682, -1.3246170851748924, -1.4756030021717945]], "biases": [[-0.22852790544824336, -0.1861755603257283, -0.15785941033128154]]}}]