[{"layer1": {"weights": [[-0.06174358760173124, 0.4821665460925808, 1.0016348790997862, 1.1462051658241457, -0.7978621811449721, -0.32687292587370803], [0.0474673214832146, 1.2343877129026606, -1.0967793249042803, 1.3380227530657183, -2.196091554876114, 1.5172907250790362], [-1.358101351913748, -0.6999910973348464, -0.049176889776835556, 1.3290777249071324, 0.5476584917757557, 0.7792661738820408], [-1.6447991066123695, -1.2662498828868223, 1.0823223561860218, 1.633127601625731, -1.093814896759454, -0.2851359483475153], [0.3770282104536711, 1.2920128232287404, 1.0269879139276212, -0.9026218349907382, -1.7128435626827223, 1.7366211112866434]], "biases": [[0.23876183792558348, 0.07938158309978643, -0.27524984925514817, -0.23790273747354967, -0.06108541644845829, -0.09050489447510215]]}, "layer2": {"weights": [[-0.671425219969057, -0.3317754527668276, 0.5601900305796472, 1.0027627242359567, 0.26548733710511224, -0.48677696448006513], [-1.9988890555505252, 0.14128515496581878, 0.5421983074109148, 0.42382626696044196, -2.149339762686405, -0.6146685252450375], [1.2709765939110382, 0.24873043730003971, -0.05932980853214209, -0.5203659810959853, 0.2678468957671396, -0.6226869960695186], [0.5976802523697408, -2.364622715950231, -0.18099651031837202, -0.44040093133630237, 2.1952457684439497, -0.9813756935959332], [-1.262138859393933, -1.1232062352100756, -0.389474933733999, 0.15434448027101133, 0.3987523982166121, 1.6568818206448965], [-0.15692784018285239, -1.5856625937665942, 2.3272612236459116, 0.5214885892886677, -0.4703300114604302, -1.0642259728729964]], "biases": [[0.08580377719161777, 0.08111315707940432, 0.3129968121078778, -0.08920102301845058, -0.09783457820495157, 0.005395568467578015]]}, "layer3": {"weights": [[0.33698733666795366, 0.8917472749085281, -1.0929184394604836], [1.2468669560956722, -0.4743363541921022, 1.9297538064797943], [1.1283882898119604, 0.9445099733614639, -0.3912146576684725], [0.05946293378761319, -2.9437844503305914, 0.8838510921311492], [-1.3792888500740248, 0.4182111548703067, 2.108730659170565], [-1.324345151992853, -1.6759705538689813, -1.271431041226956]], "biases": [[-0.1563473289224074, -0.19664717553321243, -0.2064948048578753]]}}, {"layer1": {"weights": [[-0.06174358760173124, 0.4862697978146625, 1.0016348790997862, 1.1579793605644193, -0.7978621811449721, -0.32687292587370803], [0.0474673214832146, 1.2713318624513945, -1.060182635916835, 1.3380227530657183, -2.196091554876114, 1.5172907250790362], [-1.358101351913748, -0.6999910973348464, -0.049176889776835556, 1.3364971695787866, 0.5476584917757557, 0.7792661738820408], [-1.4981201872486554, -1.2370188602943721, 1.0434843325180987, 1.633127601625731, -1.145096986198669, -0.2851359483475153], [0.3842093663791669, 1.2920128232287404, 1.0269879139276212, -0.9046896879937713, -1.6308413990700257, 1.732356879211424]], "biases": [[0.2284147872723474, 0.07938158309978643, -0.27524984925514817, -0.23790273747354967, -0.06108541644845829, -0.09050489447510215]]}, "layer2": {"weights": [[-0.671425219969057, -0.3317754527668276, 0.5601900305796472, 1.0027627242359567, 0.26548733710511224, -0.48677696448006513], [-1.9818598507942333, 0.14404429905494795, 0.5421983074109148, 0.42382626696044196, -2.149339762686405, -0.644188602440326], [1.2709765939110382, 0.24873043730003971, -0.05932980853214209, -0.5203659810959853, 0.2678468957671396, -0.6226869960695186], [0.5976802523697408, -2.463961910454868, -0.18099651031837202, -0.44040093133630237, 2.1952457684439497, -1.019400466314121], [-1.262138859393933, -1.1232062352100756, -0.389474933733999, 0.15434448027101133, 0.3810992718803391, 1.6568818206448965], [-0.15692784018285239, -1.5856625937665942, 2.3272612236459116, 0.5214885892886677, -0.4703300114604302, -1.0642259728729964]], "biases": [[0.08580377719161777, 0.08111315707940432, 0.28549752629891306, -0.08920102301845058, -0.09783457820495157, 0.053310868808447216]]}, "layer3": {"weights": [[0.33698733666795366, 0.8917472749085281, -1.0929184394604836], [1.2468669560956722, -0.5026381600641097, 1.9297538064797943], [1.1687945185951878, 0.9445099733614639, -0.3912146576684725], [0.05946293378761319, -2.9437844503305914, 0.8838510921311492], [-1.3792888500740248, 0.4182111548703067, 2.108730659170565], [-1.324345151992853, -1.6759705538689813, -1.2654102871826804]], "biases": [[-0.1563473289224074, -0.19664717553321243, -0.24908941966325998]]}}, {"layer1": {"weights": [[-0.014349835268105088, 0.4837801253565617, 1.130990534765344, 1.146194240526512, -0.8235996422131209, -0.3253434139560074], [0.03282152607034796, 1.233954632728034, -1.095646303813035, 1.3374199178601538, -2.1964872381216702, 1.5511095520592324], [-1.3765611451316944, -0.7168283554263601, -0.053346320635867826, 1.3290777937972718, 0.5596766719985296, 0.7799693307854627], [-1.644996533618805, -1.2660388392519757, 0.9734596259065487, 1.6428680199134043, -1.0547414236882109, -0.28523316026674916], [0.39025940143412075, 1.2943741873315946, 1.0260798566109206, -0.902628765850547, -1.7021147886090136, 1.7366387843774342]], "biases": [[0.1970438268636234, 0.09780619150317708, -0.2837410752275372, -0.23382332379385198, -0.007153119792475203, -0.09004183046305375]]}, "layer2": {"weights": [[-0.7249325475036926, -0.3319035339578857, 0.5565834475530644, 0.9646941923791474, 0.2679608148063602, -0.5174517784407013], [-2.04034475392345, 0.191763550663064, 0.5584670370469734, 0.40362466770567784, -2.1508023756375114, -0.749098538052293], [1.2730772406801543, 0.23569075725214877, -0.0596939668611876, -0.5380566767052934, 0.25824308240815674, -0.6244531163214685], [0.6055525733071125, -2.3563062263235315, -0.18099651148854048, -0.4405174911425751, 2.224814220087578, -0.8372079976530431], [-1.2575062445572591, -1.1793697390244602, -0.3779194173315986, 0.20490600397950953, 0.39829770413827514, 1.6581806624416788], [-0.14512488674982507, -1.4561835252180744, 2.326180229603491, 0.5214885949863639, -0.4655014594777236, -0.9787040103138509]], "biases": [[0.08576265457648156, 0.08139962674576148, 0.31434113907612493, -0.09018715348045613, -0.0923535733346349, 0.0026563346252498994]]}, "layer3": {"weights": [[0.3356103462191258, 0.8851995041758421, -1.0904169383804323], [1.2256662664854123, -0.47461092811786365, 1.9434234793341045], [1.141719293217668, 0.947867241475578, -0.3912146549669231], [0.13427115753928046, -2.899637440647874, 0.7741006041203881], [-1.3857908139197634, 0.4183537475790846, 2.1076277788621436], [-1.3243768061159709, -1.672975537067364, -1.2231158286886132]], "biases": [[-0.1549052965636588, -0.1995065495942297, -0.20918018725757354]]}}, {"layer1": {"weights": [[-0.0498951495183247, 0.4866731926306577, 1.0039411501037627, 1.1462024344997372, -0.7987751627170803, -0.3264905478942829], [0.045545270318140436, 1.271223592407738, -1.0598993806440236, 1.3378720442643273, -2.1961904756875033, 1.5174697723390862], [-1.410659251995577, -0.7042004118577249, -0.05021924749159362, 1.3364971868013213, 0.5506630368314491, 0.7794419631078963], [-1.6448484633639784, -1.2369660993856606, 0.9900273256329528, 1.627436127807614, -1.1353286179308584, -0.2851602513273238], [0.38751716412427933, 1.292603164254454, 1.0286062807830245, -0.9046914207087234, -1.710161369164295, 1.6989734034013526]], "biases": [[0.20763823385362132, 0.0839877352006341, -0.27737265574824543, -0.23688288405362526, -0.05983613121190004, -0.09038912847209005]]}, "layer2": {"weights": [[-0.6709889290683894, -0.33180747306459213, 0.5592883848230015, 0.9932455912717544, 0.2661057065304242, -0.46407594811793984], [-2.0092529801437564, 0.15666389797925925, 0.5462654898199295, 0.41877586714675097, -2.1497054159241817, -0.7073161828374286], [1.2715017556033172, 0.13334959537501828, -0.05942084811440347, -0.5247886549983123, 0.2654459424273939, -0.6231285261325061], [0.5976803079016957, -2.362543593543556, -0.18099651061091415, -0.4215339381369762, 2.195877945738082, -0.9937978331145048], [-1.2609807056847646, -1.1372471111636717, -0.3865860546333989, 0.12857705812037248, 0.38098559836075485, 1.6572065310940922], [-0.15397710182459556, -1.5856106280680031, 2.326990975135306, 0.5214885907130917, -0.46912287346475356, -1.0695668890855028]], "biases": [[0.08579349653783372, 0.08118477449599362, 0.31333289384993956, -0.08944755563395196, -0.0964643269873724, 0.05262606034786518]]}, "layer3": {"weights": [[0.31838857596251063, 0.8901103322253566, -1.092293064190471], [1.2415667836931072, -0.50270680354555, 1.9331712246933719], [1.1721272694466147, 0.9453492903899925, -0.39121465699308516], [-0.20600439174848367, -2.932747697909912, 0.8775342169805065], [-1.3809143410354594, 0.41824680304750117, 2.1084549390934595], [-1.3243530655236326, -1.675221799668577, -1.2728271560958269]], "biases": [[-0.15598682083272025, -0.19736201904846673, -0.26548132356534027]]}}, {"layer1": {"weights": [[-0.0498951495183247, 0.4866731926306577, 1.0039411501037627, 1.1462024344997372, -0.7987751627170803, -0.3264905478942829], [0.045545270318140436, 1.271223592407738, -1.0598993806440236, 1.3378720442643273, -2.1961904756875033, 1.5174697723390862], [-1.3627163002182345, -0.7042004118577249, -0.05021924749159362, 1.3364971868013213, 0.5506630368314491, 0.7794419631078963], [-1.6448484633639784, -1.2369660993856606, 0.9900273256329528, 1.627436127807614, -1.1353286179308584, -0.2851602513273238], [0.38751716412427933, 1.087681840956241, 1.0286062807830245, -0.9046914207087234, -1.710161369164295, 1.7323612974841218]], "biases": [[0.20763823385362132, 0.0839877352006341, -0.27737265574824543, -0.23688288405362526, -0.05983613121190004, -0.09038912847209005]]}, "layer2": {"weights": [[-0.6709889290683894, -0.33180747306459213, 0.5592883848230015, 0.9932455912717544, 0.2661057065304242, -0.46407594811793984], [-2.0092529801437564, 0.15666389797925925, 0.5462654898199295, 0.41877586714675097, -2.1497054159241817, -0.7073161828374286], [1.2715017556033172, 0.32209383125784363, -0.05942084811440347, -0.5247886549983123, 0.2654459424273939, -0.7382882872403574], [0.5976803079016957, -2.362543593543556, -0.18099651061091415, -0.4404300712878706, 2.195877945738082, -0.9937978331145048], [-1.2609807056847646, -1.1372471111636717, -0.3865860546333989, 0.12857705812037248, 0.38098559836075485, 1.6572065310940922], [-0.15397710182459556, -1.5856106280680031, 2.326990975135306, 0.5214885907130917, -0.46912287346475356, -1.0695668890855028]], "biases": [[0.08579349653783372, 0.08118477449599362, 0.31333289384993956, -0.08944755563395196, -0.0964643269873724, 0.05262606034786518]]}, "layer3": {"weights": [[0.3366430890557467, 0.8901103322253566, -1.092293064190471], [1.2415667836931072, -0.50270680354555, 1.9331712246933719], [1.1721272694466147, 0.9453492903899925, -0.39121465699308516], [0.05184800528555522, -2.932747697909912, 0.8775342169805065], [-1.3809143410354594, 0.41824680304750117, 2.1084549390934595], [-1.3243530655236326, -1.675221799668577, -1.2728271560958269]], "biases": [[-0.15598682083272025, -0.19736201904846673, -0.27668746537795874]]}}, {"layer1": {"weights": [[-0.06174358760173124, 0.4862697978146625, 1.0016348790997862, 1.1462051658241457, -0.7978621811449721, -0.32687292587370803], [0.0474673214832146, 1.158166703773561, -1.060182635916835, 1.3380227530657183, -2.146290098459891, 1.5172907250790362], [-1.358101351913748, -0.6999910973348464, -0.049176889776835556, 1.3364971695787866, 0.5195423691500358, 0.7792661738820408], [-1.6447991066123695, -1.2370188602943721, 1.0434843325180987, 1.633127601625731, -1.145096986198669, -0.2851359483475153], [0.3842093663791669, 1.2920128232287404, 1.0269879139276212, -0.9046896879937713, -1.7128435626827223, 1.732356879211424]], "biases": [[0.2284147872723474, 0.07938158309978643, -0.27524984925514817, -0.20255945612628806, -0.06108541644845829, -0.09050489447510215]]}, "layer2": {"weights": [[-0.671425219969057, -0.3317754527668276, 0.5601900305796472, 1.0027627242359567, 0.26548733710511224, -0.48677696448006513], [-1.9988890555505252, 0.14404429905494795, 0.5421983074109148, 0.42382626696044196, -2.149339762686405, -0.644188602440326], [1.223355148270418, 0.24873043730003971, -0.05932980853214209, -0.5203659810959853, 0.2678468957671396, -0.6226869960695186], [0.5976802523697408, -2.364622715950231, -0.18099651031837202, -0.44040093133630237, 2.1952457684439497, -0.9973319614559161], [-1.262138859393933, -1.1232062352100756, -0.389474933733999, 0.15434448027101133, 0.3810992718803391, 1.6568818206448965], [-0.15692784018285239, -1.5856625937665942, 2.3272612236459116, 0.5214885892886677, -0.4703300114604302, -1.0642259728729964]], "biases": [[0.08580377719161777, 0.08111315707940432, 0.2646768818804817, -0.08920102301845058, -0.09783457820495157, 0.053310868808447216]]}, "layer3": {"weights": [[0.33698733666795366, 0.8917472749085281, -1.1528642975307262], [1.2468669560956722, -0.5026381600641097, 1.9297538064797943], [1.1687945185951878, 0.9445099733614639, -0.3912146576684725], [0.05946293378761319, -2.9437844503305914, 0.7746688532950112], [-1.3792888500740248, 0.4182111548703067, 2.108730659170565], [-1.324345151992853, -1.6759705538689813, -1.2654102871826804]], "biases": [[-0.1563473289224074, -0.19664717553321243, -0.24908941966325998]]}}]