[{"layer1": {"weights": [[-0.1959269980497596, 0.16327512323204368, 0.8019484364425944, 1.1776650897486003, -1.1322522947041995, -0.44368061155838706], [-0.3144847092735662, 0.6394199143588387, -1.1470852837303562, 1.7076063283043879, -1.77395098700817, 1.7385036418396775], [-1.1481728761110817, -0.3729768192007834, -0.296239947830964, 1.1931352284649157, 0.5895464821815661, 0.7955116904582108], [-1.7153399285907036, -1.0812790092173903, 0.8161372704219134, 1.797519627579748, -1.119865345576056, -0.2490198074422048], [0.242554225608004, 1.6436845687751727, 0.22826512489902284, -0.2796279362754829, -1.2645500406083856, 1.390187376767197]], "biases": [[0.20194127748721127, -0.12611231860163136, -0.20391897197842884, -0.1899528606050377, -0.06612937989022503, -0.12923374453073921]]}, "layer2": {"weights": [[-0.6546731479984882, -0.8189125042953329, 1.438242266673411, 0.6439131893182327, 0.054299200645658754, -0.49880658353098806], [-1.9810445436948776, 0.3078935074777281, 0.4798818101009535, 0.41927811337081533, -1.4534926136183666, -0.803094149453854], [1.35814533293531, 0.725411594867674, 0.21159378706844034, -0.12369043620306414, 0.16624004887213745, -0.6547715798205781], [0.7088471729967539, -1.8324066986571343, -0.3109813022859238, -0.11110826568378983, 1.9015854506928482, -0.8222958851536599], [-0.7697228720689118, -1.0052358796394762, -0.03076253155982127, 0.39347931047256945, 0.1793360193976417, 1.804152042177231], [-0.0878098181004909, -1.5127819450301354, 2.2818855820452795, -0.09549327236144622, -0.34584550079379195, -1.1821389505223245]], "biases": [[0.11639673966038755, -0.00862430912936682, 0.04721671647348511, -0.016958092667425734, -0.024985179761061325, 0.2161478794830875]]}, "layer3": {"weights": [[1.013626683658534, 0.9630986149408275, -1.076740191905233], [0.656893329468544, -0.5881090264697431, 1.1476400880815336], [1.2172757930559623, 1.265765211121733, -0.3967903890857467], [0.07422413343722828, -2.8197683631241266, 1.1426613393945295], [-1.2002168998334706, 0.4228214399862354, 1.9165830876021603], [-0.7868893668824699, -1.3117229898599436, -1.0951299712635847]], "biases": [[-0.13843075074346, -0.20298878539335447, -0.061099547861959966]]}}, {"layer1": {"weights": [[-0.1959269980497596, 0.16327512323204368, 0.8019484364425944, 1.1776650897486003, -1.2572992923975126, -0.44368061155838706], [-0.3144847092735662, 0.6394199143588387, -1.1006322248267364, 1.7076063283043879, -1.77395098700817, 1.7385036418396775], [-1.2152156803850074, -0.3729768192007834, -0.296239947830964, 1.1931352284649157, 0.5895464821815661, 0.7955116904582108], [-1.7153399285907036, -1.0812790092173903, 0.8161372704219134, 1.797519627579748, -1.119865345576056, -0.2490198074422048], [0.242554225608004, 1.6436845687751727, 0.2133373106247025, -0.2796279362754829, -1.2645500406083856, 1.390187376767197]], "biases": [[0.12428843988765725, -0.12611231860163136, -0.20391897197842884, -0.1899528606050377, -0.1114032886715578, -0.12923374453073921]]}, "layer2": {"weights": [[-0.6546731479984882, -0.8189125042953329, 1.438242266673411, 0.6439131893182327, 0.054299200645658754, -0.49880658353098806], [-1.9810445436948776, 0.2822651765173468, 0.4798818101009535, 0.16690244260670176, -1.4534926136183666, -0.803094149453854], [1.35814533293531, 0.6788527636836168, 0.21159378706844034, -0.12369043620306414, 0.16624004887213745, -0.6547715798205781], [0.7088471729967539, -1.8324066986571343, -0.3109813022859238, -0.11110826568378983, 1.9015854506928482, -0.8222958851536599], [-0.7697228720689118, -1.0052358796394762, -0.03076253155982127, 0.39347931047256945, 0.10531358133970697, 1.804152042177231], [-0.0878098181004909, -1.5127819450301354, 2.2818855820452795, -0.09549327236144622, -0.34584550079379195, -1.1821389505223245]], "biases": [[0.11639673966038755, -0.00862430912936682, 0.04721671647348511, -0.016958092667425734, -0.024985179761061325, 0.2161478794830875]]}, "layer3": {"weights": [[1.013626683658534, 0.9630986149408275, -1.076740191905233], [0.656893329468544, -0.5881090264697431, 1.1476400880815336], [1.2172757930559623, 1.265765211121733, -0.3967903890857467], [0.24646970943073393, -2.8197683631241266, 1.111247926084513], [-1.049437497100215, 0.4228214399862354, 1.9165830876021603], [-0.7868893668824699, -1.3117229898599436, -1.053557640075019]], "biases": [[-0.13843075074346, -0.20298878539335447, -0.061099547861959966]]}}, {"layer1": {"weights": [[-0.1959198126839427, 0.16581131722526837, 0.8020150575746967, 1.176724541963005, -1.1055772781932378, -0.4425368197956171], [-0.2962690425525883, 0.6365322928428405, -1.1039900098223898, 1.7562006223786817, -1.7706736167074906, 1.7357165599392028], [-1.1513817213439483, -0.37906641203906605, -0.29633819823044694, 1.1941208378647974, 0.6065174669444069, 0.7955116903290869], [-1.715277367096609, -1.0573881907994198, 0.8138650335011093, 1.7986292238245314, -1.130169447827758, -0.2518860007826141], [0.2480704697869367, 1.6479954191885886, 0.22825121063933956, -0.35396793661955933, -1.2637423959390184, 1.3907296989598001]], "biases": [[0.12423871055585547, -0.12690112445380827, -0.20392449197449874, -0.1899522138652331, -0.11140419789786718, -0.12900675064810477]]}, "layer2": {"weights": [[-0.6552648940634132, -0.8031685614191006, 1.4382422666736372, 0.6397363746229915, 0.05730248329881621, -0.4902480395303237], [-1.9971653305212198, 0.29078394000578817, 0.4801706770171006, 0.1654253242546021, -1.4681904964691217, -0.8512483405583002], [1.358146185353416, 0.5966529636524528, 0.20804695089328343, -0.10136967588476693, 0.16516624392088164, -0.5400738887424166], [0.7088973721345223, -1.8269495862201763, -0.3109813020365433, -0.1112326731161003, 1.902035206179074, -0.8370953805556036], [-0.8279156391530094, -1.027285457747043, -0.07111513223829236, 0.3975725370330832, 0.033806524804031915, 1.655128880251764], [-0.13272209425684833, -1.5131273957314817, 2.312881171569333, -0.1688160623382789, -0.31202492133028126, -1.1801285867864895]], "biases": [[0.1191515410753451, -0.010804170395049589, 0.03791684362776965, -0.01814233718598883, -0.024985179782573773, 0.2158873037422383]]}, "layer3": {"weights": [[1.013716718598678, 1.0087213694853232, -1.183090407007349], [0.6952687666439104, -0.5914381228642027, 1.1484638820246746], [1.1893760086486878, 1.2662159845938246, -0.40345920089222964], [0.23578121700218718, -2.8124360602529674, 1.1126842147579084], [-1.2127232040767462, 0.4239802517225171, 1.916623974909009], [-0.7935383459290127, -1.309528460027417, -0.9364324452654049]], "biases": [[-0.14120497388648384, -0.20370105470226973, -0.06007270778114511]]}}, {"layer1": {"weights": [[-0.19564822741763124, 0.11077619961318746, 0.8019314267918449, 1.176959675201437, -1.1305132416245307, -0.40352801816884765], [-0.3088445841812358, 0.6226089106944708, -1.101023893294127, 1.7076976064512719, -1.7754876374595092, 1.7355163063186465], [-1.1479404641321942, -0.3785573068471766, -0.29659394167942554, 1.237044171844678, 0.6075485994647927, 0.7965877445359608], [-1.7183996434162019, -1.0470151435983324, 0.8161417992923771, 1.798293681645553, -1.1551562428973434, -0.23372696394821085], [0.23703893962995642, 1.6332915891480395, 0.23095770212802133, -0.3560885504350333, -1.2707587292509095, 1.4054592694040626]], "biases": [[0.12608222800113336, -0.12698698984243417, -0.20391756261773017, -0.18995302573009418, -0.09649899349833717, -0.1308258566515123]]}, "layer2": {"weights": [[-0.6538933042553043, -0.7894306290677322, 1.4434690915238442, 0.6632784709974442, 0.1139090936742483, -0.4699504444814051], [-1.9810104240663577, 0.28930199631438136, 0.47556826264326935, 0.172570104060068, -1.3968782861911504, -0.8327833197984057], [1.3245737925742083, 0.6262288884187797, 0.20518865277125192, -0.1116111433010363, 0.16658548027855985, -0.6703926894006549], [0.7088170895159798, -1.701020106426659, -0.3109813023495954, -0.10782966335175316, 1.9014087281059444, -0.8404842701428723], [-0.7646628982327109, -1.0996430209673114, -0.07456279770805545, 0.39199071861747015, 0.08770746495507195, 1.8064105983812078], [-0.130349919258435, -1.5248015327827078, 2.283480758320295, -0.09575253095467057, -0.31203399629881823, -1.1829113362344874]], "biases": [[0.11943142188604484, -0.007824079691577002, 0.027371744561631696, -0.016704498293326063, -0.024985179755568784, 0.1973262805751147]]}, "layer3": {"weights": [[0.9567095325177841, 0.9505057704061084, -1.1188329413881317], [0.6965968018425656, -0.6110111858139643, 1.1913121477316022], [1.1825791071704734, 1.2661861579616165, -0.4001984922583071], [0.22489047196967937, -2.819760568019885, 1.1088481943530857], [-1.2110805940056308, 0.39546285798276726, 1.9118363344469544], [-0.7935269120113095, -1.3102156370060654, -0.9396967699554518]], "biases": [[-0.17003818981234586, -0.19989023000338957, -0.05939108553679139]]}}, {"layer1": {"weights": [[-0.19592363468703683, 0.19243151539521108, 0.6132877639289596, 1.1767245400011177, -1.1335069798451025, -0.4459597182740267], [-0.30991790476738856, 0.638115827196087, -1.0934406284090432, 1.7074704203670548, -1.7700334600452567, 1.7811560616010742], [-1.159032078640331, -0.3844481446021062, -0.2964994418609056, 1.193565194687601, 0.6001227549950443, 0.7998159065768985], [-1.715310644487085, -1.127784945584749, 0.8141965399114545, 1.8855333524244318, -1.127817037592239, -0.22090244602567746], [0.2355296248588018, 1.6153687375660806, 0.22825861184129875, -0.36307248624335714, -1.2668292727646924, 1.4204659290885078]], "biases": [[0.12420737337582269, -0.127519184335389, -0.20392155580637644, -0.18995255787576745, -0.08202322930482386, -0.1322282718854268]]}, "layer2": {"weights": [[-0.6529522352309651, -0.8157480692412493, 1.428189624823832, 0.6519063644726669, 0.048012860975037944, -0.4927555469471495], [-1.950363590496474, 0.2885120361994894, 0.48001702440212873, 0.17717510409257753, -1.4466907415841765, -0.8107585834956186], [1.3152950405007693, 0.5690286703950594, 0.20816075982139653, -0.09947936410383595, 0.16575487026283986, -0.6536644612314902], [0.7088664418908904, -1.8518087841323927, -0.31098130216919245, -0.11263167583566079, 1.9025724106077728, -0.8377228219731345], [-0.773404293935211, -1.08062089824775, -0.08470081772666145, 0.3952866734993483, 0.08754633773464866, 1.8045119367363538], [-0.1748221528640553, -1.5126236906205575, 2.2818827821982035, -0.07874022147652769, -0.3120287666559325, -1.1808596483529354]], "biases": [[0.11827753007110245, -0.009817754638058958, 0.009840097154571553, -0.01727588185381551, -0.02498517977113098, 0.21593292061819536]]}, "layer3": {"weights": [[1.0114992564066219, 1.1878974670981874, -1.1702711494578493], [0.6954333278447663, -0.6304174009716563, 1.1481896831592495], [1.1626152477584406, 1.266259829427589, -0.4067066774446957], [0.2106775156088441, -2.6522367233270305, 1.1073952115857464], [-1.22432653500264, 0.42001337194223726, 1.9166022263415363], [-0.762215125909487, -1.31076119878634, -0.9310751339603919]], "biases": [[-0.14080794228890603, -0.19122612711882764, -0.05826687085105182]]}}]