[{"layer1": {"weights": [[0.005778604630511592, 0.41704999587503433, 0.9087184839251778, 1.1633972583063417, -0.9142308909645774, -0.35924930445346], [0.12826040178022535, 1.5727822520910657, -1.1029273195265477, 1.3610181796619192, -1.9923028548772685, 1.390929513274195], [-1.4212973467592989, -0.8920963187553927, -0.07225496468987508, 1.1725824584076379, 0.6114523256865954, 0.6910814925054187], [-1.6290928641977283, -1.213621333357769, 1.1058911219521232, 1.7612164024287016, -1.0846972140566828, -0.2315999861411886], [-0.0034569498491780174, 1.0284595939946275, 0.9639278499576917, -0.9836684005097375, -1.4230751650069395, 1.6796445388572687]], "biases": [[0.2555125811851194, 0.08080391620159862, -0.21159517826534638, -0.1427045360174554, -0.17373097281056576, 0.043617459850555824]]}, "layer2": {"weights": [[-1.179030737111241, -0.04273274490943878, 0.7452218836907324, 0.6932516018588941, 0.2853290929289175, -0.4634278073935883], [-2.0035008571029485, 0.19645595510523262, 0.5704340493459676, 0.21377691068453333, -2.2870127885574774, -0.8977163950871949], [1.0625282592675491, 0.9607695310414078, -0.1601680279850517, -0.5841150145478896, 0.07711614086004108, -0.8600288297251546], [0.5407961818163891, -2.5500368266271423, -0.04912193602181933, -1.0919963078952069, 2.2520888409329167, -0.7761316233760576], [-0.6344895883753412, -1.383349259885789, -0.6135503404124529, -0.25475067083357034, 0.38946744555757795, 1.838622334653335], [-0.09726938621834838, -1.5017609604495028, 2.472392315809197, 0.3452588141705569, -0.6305816013787517, -0.5084928512804012]], "biases": [[0.12524182420657293, 0.07010284711321993, 0.3612477333306557, -0.004982463170081485, -0.042708569963296396, 0.14600409848764384]]}, "layer3": {"weights": [[0.7206543950682758, 0.9170612800027544, -1.033704700343513], [1.1772833012395671, -0.7188801685331478, 1.8221063409678688], [1.490998656407541, 0.8325026706154308, -0.32091774201607987], [-0.46267310049185245, -2.9129970131036735, 1.0564198377567116], [-0.9735772740114309, 0.4228172561082457, 2.0257814890004706], [-1.3684589606803172, -1.4974808860364281, -1.0829970092540329]], "biases": [[-0.18448137763568764, -0.20040714254424635, -0.11410541873567531]]}}, {"layer1": {"weights": [[0.008943956813392592, 0.41723846904932926, 0.8834019584880222, 1.1637371036247919, -0.9132677590228444, -0.3586633873469438], [0.126863043285811, 1.5701456448690312, -1.087953367410686, 1.3774977489905025, -2.0857484617602156, 1.3806225205963147], [-1.4930558105474705, -0.8928874798921043, -0.07175220714345151, 1.172561722069064, 0.5027974114143527, 0.6909951889521091], [-1.6521850620864797, -1.2270185130080182, 1.1246758593663493, 1.7412171171690856, -1.179973255550859, -0.23886560511089372], [0.19684708088310676, 1.1094714138012693, 0.9591831411355483, -1.027723452123736, -1.3066684423771087, 1.6770113244168074]], "biases": [[0.2567833602056949, 0.1639870192684102, -0.2083847699770268, -0.14302764274288235, -0.1733984653000541, 0.043604944324776615]]}, "layer2": {"weights": [[-1.1737309237761537, -0.01863417118102323, 0.7256520626606955, 0.6736275819996438, 0.2822705762938814, -0.46482132383409136], [-2.0133907545294827, 0.13511080497263306, 0.559894835706201, 0.21551046527775614, -2.3168969053509665, -0.8965904318430618], [1.1304013773079993, 0.961940628219063, -0.09980959563186959, -0.5168989097564607, 0.06156343942808821, -0.8979759536223366], [0.5469738513912881, -2.627473019039941, -0.05754641988366002, -1.1199587375719418, 2.2520904437128726, -0.8058601218475433], [-0.6983922681060206, -1.3855772266673738, -0.6065622627350968, -0.3050921737868114, 0.41854225787104987, 1.7980632985603724], [-0.0977015134359342, -1.4756047418541782, 2.468103387762417, 0.3613121377050033, -0.6305532020546802, -0.38622434494835733]], "biases": [[0.12528298437293856, 0.004424184954358656, 0.3615801960533973, 0.005991233197631321, -0.042759932329896014, 0.1316963768893472]]}, "layer3": {"weights": [[0.779486953641414, 0.8514869303463845, -1.0342959288105436], [1.1558825187521622, -0.7187558984640765, 1.6784141653308233], [1.5263679034251774, 0.8241525122752447, -0.31590031185294154], [-0.45815094616359964, -2.9182610144672747, 1.031670802550163], [-0.9804289156075754, 0.4231829557898857, 2.0243100592128767], [-1.3686451496331966, -1.4993831831826732, -1.0858953655223238]], "biases": [[-0.1807932856100315, -0.20740259162219682, -0.11325011965042427]]}}, {"layer1": {"weights": [[0.008519562658236895, 0.41762001260545323, 0.9086793777946032, 1.1636758519788324, -0.9204525411095016, -0.358574663619549], [0.1272554843687193, 1.5643504891879287, -1.099255017656064, 1.3609978859779934, -2.0840727227041946, 1.3784397762246972], [-1.4457096384205768, -0.8928101018216167, -0.07176420613023968, 1.1725622169697463, 0.5189019502972314, 0.6909972487027847], [-1.6247003247765495, -1.2337357744095836, 1.1257858604995696, 1.7436596344406796, -1.1425428270786067, -0.23765171084546344], [0.011112474808054834, 1.0244086980725637, 0.9597780061257168, -0.9838002811742534, -1.439149949265238, 1.6777194971468758]], "biases": [[0.25678672829289834, 0.080803654201075, -0.20975709811483434, -0.14302779470432636, -0.25850012944170037, 0.043605243024675874]]}, "layer2": {"weights": [[-1.1751636698922225, -0.00817922080048936, 0.69084561981624, 0.6709222462110188, 0.3190075208466431, -0.4640904217763626], [-2.002450226073349, 0.07862202411637582, 0.5954985186518345, 0.21411878830391495, -2.3419270942914725, -0.8941111444130381], [1.0636324132480675, 0.9527646051710208, -0.10525284597718584, -0.5272010910990989, 0.07853064907182572, -0.9641294138271513], [0.5461651876081057, -2.5487663305914476, -0.05608449975528079, -1.1005395081251952, 2.2520904054603674, -0.8000612365865503], [-0.7593421792907458, -1.3848559352665262, -0.6361607692555501, -0.29926032725934226, 0.3919464481777037, 1.8388155778030801], [-0.09751849047505927, -1.4894749590726835, 2.4680139057546575, 0.35912204578905926, -0.6305538798428442, -0.6096573013159382]], "biases": [[0.12601887702823492, 0.06812039028833528, 0.38992178375033465, 0.03765024544951645, -0.042758706497757606, 0.15981414714794273]]}, "layer3": {"weights": [[0.7829626733091518, 0.9169454361879366, -1.0347919514401402], [1.1582484379078708, -0.7186539521183393, 1.8226009168654294], [1.5214741832094427, 0.8252409436898923, -0.3209179487640651], [-0.4583676057314031, -2.9182611373586806, 1.0205900389128815], [-0.981134144237288, 0.4229875524667055, 2.024811179215916], [-1.3729606167299997, -1.4991392605956184, -1.0842516893238605]], "biases": [[-0.183650964660938, -0.2444317986723822, -0.1133513156135688]]}}, {"layer1": {"weights": [[0.00783432315130557, 0.4174775084228485, 0.9086891543272468, 1.1636062035607098, -0.9188971285732705, -0.3753168780693103], [0.13014324250155368, 1.566458429913713, -1.100173093123685, 1.361002959398975, -2.061130255747463, 1.3815622104870715], [-1.4396065655052572, -0.8926316560550607, -0.07188689577014853, 1.172567277329219, 0.5420395441445724, 0.6910183096534432], [-1.6257984596318442, -1.2889304810728768, 1.1208121758627079, 1.7762157012899131, -1.1280814238231258, -0.23613877966939473], [-0.059464561134255176, 1.0254214220530797, 0.9608154670837106, -0.9837673110081244, -1.4351312532006633, 1.7895457318448986]], "biases": [[0.25646819151595357, 0.08080371970120591, -0.21021661815246234, -0.1429469800326086, -0.23730784028391672, 0.043608297231145864]]}, "layer2": {"weights": [[-1.1761304366969771, -0.016817601827726715, 0.7044396857848632, 0.6765045851229876, 0.3105879138672117, -0.4718833477065016], [-2.002712883830749, 0.14579838192933411, 0.5892324013253678, 0.21403331889906954, -2.2028969748257343, -0.9444764272853841], [1.0633563747529378, 0.9547658366386176, -0.11898164147915231, -0.5190048152528781, 0.07817702201887956, -0.9381042678016522], [0.5448229361601766, -2.5490839546003716, -0.054343858821915426, -1.098403708067698, 2.2520900143285045, -0.7687883214986089], [-0.7281290315618947, -1.384479266421342, -0.6305081620447759, -0.2881329131528993, 0.39132669752267224, 1.8387672670156439], [-0.09745621441088154, -1.4925464594168882, 2.4691085082682926, 0.3556562378844337, -0.630560810226821, -0.5843661888070539]], "biases": [[0.1258246138228194, 0.06861600449455643, 0.41276948395936525, 0.026992068294616967, -0.042746172364142306, 0.156361634982868]]}, "layer3": {"weights": [[0.7673856037489328, 0.9116375943169476, -1.0345201386659835], [1.1630071537407949, -0.7187105062220414, 1.8224772728910392], [1.5138553015089673, 0.827056375421277, -0.3209178970770688], [-0.45944397942151544, -2.9169451062949285, 1.115240298598835], [-0.9792449266808236, 0.42294497837709055, 2.0250537566620546], [-1.371835202717579, -1.498724666955821, -0.937364403002156]], "biases": [[-0.1838585679046254, -0.23342563464034827, -0.11353984139409543]]}}, {"layer1": {"weights": [[0.007361280721952092, 0.4171442324621818, 0.8960602212066, 1.1635671809655668, -0.913749324993711, -0.35895634590020187], [0.12756172253301817, 1.5714639484800483, -1.0954403434686169, 1.3692579643262108, -2.0390256583187423, 1.3857760169352549], [-1.4571765786533848, -0.957863857162425, 0.01116150841167779, 1.172572090238351, 0.557124868550474, 0.6910383407287639], [-1.640638963142104, -1.2203199231828936, 0.9459693432369168, 1.7512167597988935, -1.132335234803771, -0.23523279562604116], [0.09669506551696437, 1.0689655038979484, 0.9615554955466199, -1.0056959263167367, -1.364871803692024, 1.678327931637038]], "biases": [[0.2561479706954072, 0.1223954677350044, -0.20998997412118658, -0.14286608938016887, -0.17356471905530993, 0.04361120208766622]]}, "layer2": {"weights": [[-1.1763808304436973, -0.030683458045231003, 0.735436973175714, 0.683439591929269, 0.28379983461139946, -0.46412456561383986], [-2.2152122721655263, 0.16578338003893284, 0.5651644425260843, 0.21464368798114475, -2.3019548469542217, -0.9263562448217049], [1.096464818287774, 1.1094884086981953, -0.12998881180846064, -0.5505069621521752, 0.06933979014406465, -0.8790023916737456], [0.5438850166038386, -2.588754922833542, -0.053334177952739675, -1.1059775227335744, 2.2520896423228947, -0.7909958726118005], [-0.6664409282406809, -1.3691445188967226, -0.6100563015737749, -0.2799214223101909, 0.6301710148719463, 1.8183428166068536], [-0.09748544982714129, -1.4886828511518404, 2.470247851785807, 0.35328547593778015, -0.630567401716716, -0.4473585981143793]], "biases": [[0.14296950728581004, 0.037263516033789294, 0.36141396469202647, 0.0005043850137749183, -0.04273425114659621, 0.13885023768849553]]}, "layer3": {"weights": [[0.7500706743548449, 0.8842741051745695, -1.0340003145770282], [1.1665829099958647, -0.7188180334986122, 1.750260253149346], [1.5086832799163592, 0.8283275914453377, -0.3184090269345107], [-0.460412023327726, -2.915629013785474, 1.0440453201534372], [-0.9770030948095032, 0.4230001059490657, 2.0250457741066734], [-1.368552055156757, -1.4984320346095505, -1.0844461873881783]], "biases": [[-0.18263733162285956, -0.20390486708322159, -0.11367776919304978]]}}, {"layer1": {"weights": [[0.08773624069492039, 0.4173350042402438, 0.9086989308598905, 1.1635365551425871, -0.9173417160370395, -0.34310210000431135], [0.12775794307447233, 1.5685663706394972, -1.1010911685913058, 1.3610080328199563, -2.0381877887907316, 1.384684644749446], [-1.4335034925899377, -0.8924532102885048, -0.07200958541005738, 1.172572337688692, 0.5651771379919134, 0.6910393706041017], [-1.626896594487139, -1.2236785538836763, 1.1158384912258463, 1.7524380184346906, -1.1136200205676448, -0.23462584849332602], [0.0038277624794384084, 1.0264341460335955, 0.9618529280417043, -0.9837343408419954, -1.4311125571360888, 1.6786820180020723]], "biases": [[0.25614965473900886, 0.08080378520133681, -0.21067613819009035, -0.14286616536089086, -0.21611555112613307, 0.04361135143761585]]}, "layer2": {"weights": [[-1.1770972035017317, -0.025455982854964067, 0.7180337517534863, 0.6820869240349565, 0.3021683068877803, -0.46375911458497543], [-2.0029755415881487, 0.1375389896108042, 0.582966283998901, 0.21394784949422413, -2.314469941424475, -0.8959137697501165], [1.0630803362578083, 0.9567670681062144, -0.13271043698111878, -0.6197067723829511, 0.0778233949659334, -0.912079121776153], [0.5434806847122474, -2.549401578609295, -0.05260321788855006, -1.096267908010201, 2.252089623196642, -0.7880964299813039], [-0.6969158838330435, -1.3841025975761576, -0.6248555548340016, -0.2770054990464563, 0.39070694686764085, 1.8387189562282076], [-0.09739393834670382, -1.495617959761093, 2.4702031107819273, 0.3521904299798081, -0.6305677406107979, -0.5590750762981698]], "biases": [[0.1256303506174039, 0.0691116187007776, 0.37558475854049517, 0.016333891139717484, -0.042733638230527005, 0.15290912281779329]]}, "layer3": {"weights": [[0.7518085341887137, 0.9170033580953455, -1.0342483258918267], [1.167765869573719, -0.7146298848968203, 1.822353628916649], [1.5062364198084919, 0.8288718071526615, -0.3209178453900725], [-0.46052035311162776, -2.915629075231177, 1.0385049383347966], [-1.0561860451467338, 0.4229024042874756, 2.0252963341081935], [-1.3707097887051585, -1.4983100733160233, -1.0836243492889466]], "biases": [[-0.1840661711483128, -0.2224194706083143, -0.11372836717462206]]}}]