[{"layer1": {"weights": [[-0.05869092836650344, 0.6011149552228998, 1.1806050488594273, 1.1547961055954157, -1.213849491530297, -0.226955324457018], [-0.4683069514572531, 1.4390808520371285, -1.1520519503715294, 1.3961652174036452, -2.105467256597989, 1.3064688081513984], [-1.9554042295738654, -0.8623370632369818, 0.037134672481553915, 1.0475236728890174, 1.023630541876234, 0.5471690033523928], [-1.641997900932246, -1.1694482630381176, 0.9800125419057865, 1.7787707918159466, -1.4237648648159884, 0.06985720236682039], [0.03965707184527262, 1.0636519267526208, 0.7861714298713876, -0.7845302324685953, -1.396625510618526, 1.767415032185598]], "biases": [[0.3205429338099177, 0.034241017673069404, -0.3456716104071627, -0.043326476303944365, -0.3884603425354092, 0.08301149692511439]]}, "layer2": {"weights": [[-1.0293180320448636, -0.3168683385176418, 0.07185036746845631, 0.3950963924188515, 0.686600477954437, -0.2139360589814917], [-2.068134157298439, 0.4924009850386449, 0.4762161454083545, -0.07977508950483926, -2.77408899009847, -0.7815580940770607], [1.3652764621971538, 1.1762454896305363, -0.31789637570171403, -0.43569165072855676, -0.1968965516370215, -0.5964369085953333], [0.4100773379793302, -2.698944014390587, 0.05112722491712968, -0.33901625622332054, 2.1394888454739514, 0.6131832632439642], [-0.5933016025568925, -1.8260544115198867, -1.0840359575699443, -0.1798071423520966, 0.3844909221301998, 1.6689461031727426], [0.1661069016465607, -1.4787362585637385, 2.330256690455366, 0.27582093815563496, -0.8962179893310431, -0.5016970083367767]], "biases": [[0.020655639546973914, 0.07937392454628081, 0.45380823432153045, 0.17850494945818557, -0.15251196035148962, 0.39173499834794906]]}, "layer3": {"weights": [[0.6611010262515803, 1.013065317405767, -0.860419189993212], [0.9638816851630488, -1.1554182403220614, 2.0180362518275694], [1.6580001739110761, 0.5957520576592743, -0.2305697956995093], [0.2750477025687579, -3.540904270709209, 1.2742162627309486], [-1.144589327156447, 0.2984736721792679, 2.132126578734696], [-1.5271752773414726, -1.6122660432758709, -1.064034835074444]], "biases": [[-0.11854675027925343, -0.25112101221615646, 0.09837629771784212]]}}, {"layer1": {"weights": [[-0.06134521326351762, 0.598614837655705, 1.1777410666892036, 1.1586624959366607, -1.2223889187634982, -0.2268947707236993], [-0.40292915046943845, 1.446085025423199, -1.1468418712890998, 1.3983069843333167, -2.108093137955919, 1.30519614122864], [-1.9839407995460414, -0.8623398397123042, 0.03297861478993769, 1.0480067065868521, 0.9907041617045791, 0.5470854926213612], [-1.5934620113771245, -1.169239509937748, 0.9819794527325478, 1.7734464022001708, -1.4240627811635391, 0.06801625198778105], [-0.01612988813173703, 1.0677814045927194, 0.7939810267928993, -0.7816210973554192, -1.4174062799483034, 1.7676496865108864]], "biases": [[0.31898905869912586, 0.03468443466459283, -0.345842549981874, -0.03848772878440361, -0.3884170017750962, 0.0833768701098323]]}, "layer2": {"weights": [[-1.0309913241919557, -0.3235293578187239, 0.06328681421949481, 0.31854250159395747, 0.6959292280249042, -0.22318622214035105], [-2.0663538524633127, 0.5517838356856711, 0.4704369379902661, -0.06481973402125207, -2.779097464805606, -0.7819273258302895], [1.362703094341093, 1.1674235242020363, -0.31368578271906933, -0.4612595359651372, -0.1962128554350106, -0.5986282694126135], [0.4102440793517952, -2.669457712432799, 0.050338074914092465, -0.4163691812698777, 2.1374273349685207, 0.6096404623029172], [-0.5942118055340814, -1.826115789841658, -1.0850848839108527, -0.19878895184178375, 0.3846453439768779, 1.6754982064655661], [0.16535432685111054, -1.4707650236203327, 2.331306793992737, 0.2747701872213465, -0.8958456560885426, -0.5092850235540056]], "biases": [[0.02055798705971252, 0.0729363542243828, 0.4537888803086577, 0.17858064494785336, -0.1525325868015323, 0.3942334544308597]]}, "layer3": {"weights": [[0.6653234122659324, 1.0130477995974558, -0.8593175451085442], [0.9634372902858706, -0.9417688851256742, 2.0579136948795247], [1.6787937524234433, 0.6044183705139279, -0.22664302039626172], [0.2631880220496374, -3.523264531973111, 1.2695736224981509], [-1.1414116137834305, 0.2999543735720944, 2.1319719499556404], [-1.529063392620781, -1.6020505929004962, -1.0561127673961543]], "biases": [[-0.11806232713737438, -0.25088557250208554, 0.09712989825822563]]}}, {"layer1": {"weights": [[-0.06056021530318699, 0.604723311187434, 1.1729361756953651, 1.1549430979302184, -1.2047877138011716, -0.2270158812775179], [-0.4033164506117254, 1.4335395214463449, -1.1602614170148373, 1.3956903186850211, -2.091830242412831, 1.303161404934073], [-1.9914840189789547, -0.8623391967981189, 0.03621608077866026, 1.0474637507306126, 0.9906815858201177, 0.5461896428566542], [-1.597573646595514, -1.1690833400243377, 0.9765762651968378, 1.7807742044098571, -1.4233647370103917, 0.0696897364391741], [0.03916690713069811, 1.0612552492895462, 0.7744335937230955, -0.784975145187035, -1.3699978416473126, 1.764957577229741]], "biases": [[0.32210966349994297, 0.03554070902171956, -0.34596554456656103, -0.055596061370440764, -0.3883776097611586, 0.08218313532823665]]}, "layer2": {"weights": [[-1.0502140395026256, -0.29937050666960874, 0.04274316322858689, 0.46731834492321367, 0.6943220899949173, -0.20459971868171606], [-2.067175776201234, 0.5659954263302907, 0.4813162498564515, -0.07557178849331533, -2.7677247505282585, -0.7813636432221328], [1.3649434906432516, 1.1815174109682705, -0.3223391965604323, -0.4381034871708391, -0.19627381855292667, -0.5802986567811063], [0.4106424156347274, -2.672132990880903, 0.0529587623071077, -0.4840697270281461, 2.135957328624749, 0.6139334609985589], [-0.5946321580511353, -1.82617857093389, -1.0847841041919954, -0.20211606543586383, 0.38452423200879954, 1.6633152564611184], [0.16609721045340137, -1.4875390246161428, 2.3306912266468376, 0.2770622008570979, -0.8957291793430404, -0.49393945780999643]], "biases": [[0.020287921391659462, 0.07878869674025202, 0.4538922803075875, 0.17815056830621678, -0.15242508468717697, 0.390318823316809]]}, "layer3": {"weights": [[0.6513901804378286, 1.0109679572137757, -0.8601370415619766], [0.9621625264229559, -0.9432231290532389, 2.0820324108768338], [1.6317495732938168, 0.5952817975198624, -0.23650984626834665], [0.377827463336437, -3.5471751292348186, 1.2777711406521939], [-1.1453618965348018, 0.3008992116013527, 2.132251211092668], [-1.530921844824095, -1.6099869162485758, -1.0720291412685496]], "biases": [[-0.11703801718664483, -0.2517878775216845, 0.1046722188605193]]}}, {"layer1": {"weights": [[-0.06048539254918142, 0.6007669854304359, 1.1772558394833, 1.1567660488497389, -1.1826175494343647, -0.2269401867954836], [-0.4193704257519638, 1.4411976060824678, -1.1569971627494533, 1.397117376188825, -2.0742270727471555, 1.33719546122821], [-1.9952046233707312, -0.8649593574325938, -0.0017271004288658756, 1.0477502091983335, 0.9989301127763774, 0.5378489958032406], [-1.5929976210894443, -1.1692526557344878, 0.98013692814193, 1.7766094501565364, -1.4181936369874537, 0.06889486069538915], [0.006796456696800381, 1.0651174963069014, 0.7871417692950704, -0.7831868930916172, -1.4003589780406114, 1.766917995609278]], "biases": [[0.3201576786770281, 0.034787649005993654, -0.34583056373436794, -0.04397449881079809, -0.38841798896169005, 0.08298709311825392]]}, "layer2": {"weights": [[-1.0353786799828502, -0.295938525968614, 0.060291789784008204, 0.37487493513249504, 0.6931952559997907, -0.21622705548597748], [-2.0680183169925592, 0.5480510741325284, 0.47460156781133456, -0.07124658651016469, -2.775002167559485, -0.8413496503070778], [1.3639065353806479, 1.1731524872507197, -0.3169017844250712, -0.497020275159889, -0.19639902026499234, -0.5934980260504166], [0.410301978079412, -2.6700319456485366, 0.05963624647066443, -0.4411947836189988, 2.1375752110089357, 0.5921670033811198], [-0.5940893429190477, -1.8261161405342732, -1.0847474573959113, -0.19487527786788197, 0.3845764605231888, 1.6708144431412484], [0.21101335187060727, -1.4769513326051367, 2.3308903762719195, 0.27560587836385647, -0.8959096202127922, -0.49312676672790284]], "biases": [[0.04413511644047777, 0.07600883243382461, 0.45381956881160834, 0.17845420191502726, -0.16911142237375193, 0.35390307092513557]]}, "layer3": {"weights": [[0.6607845078053184, 1.0125322184536136, -0.8597978304430692], [0.9632296980394365, -0.9411042221452472, 2.0645899222834556], [1.661834313012945, 0.5620844157296851, -0.23009142069009486], [0.2948128025011174, -3.5336521159725622, 1.2727836620948612], [-1.1431936128145275, 0.29982040773120233, 2.1320804224346612], [-1.5290559768517824, -1.5814594241464242, -1.0620723777838257]], "biases": [[-0.07763311701984907, -0.251170008685503, 0.09932707827370317]]}}, {"layer1": {"weights": [[-0.051513071635791545, 0.602506834392755, 1.1940018863639366, 1.1469163325781224, -1.2058324147930208, -0.22701587510315552], [-0.39947911412095666, 1.430613835855771, -1.1542626418930806, 1.3923565822629267, -2.1138525080672883, 1.3123215452142405], [-1.9945488807589875, -0.8623293767251996, 0.046365379567680026, 1.046617527651753, 0.9912437015561069, 0.548315385310195], [-1.590775630724086, -1.1702306922526373, 0.9795149969612125, 1.7790374798548432, -1.423569159926483, 0.07370656905254537], [-0.005958695009459711, 1.0577896485354978, 0.7822900721766561, -0.7899035899765078, -1.381691640930184, 1.7694031784908777]], "biases": [[0.3220839543414763, 0.03205449234137239, -0.34503579709834176, -0.04073438627652947, -0.38862975683028567, 0.0831091121525563]]}, "layer2": {"weights": [[-1.005075440292917, -0.32104413176351065, 0.11808467820624875, 0.4759822215642776, 0.6602213657730227, -0.20477207296354866], [-2.0726531480658963, 0.421001697612291, 0.48267445579643425, -0.11388910148353756, -2.77043628025441, -0.7810140814255311], [1.3707561694631776, 1.1886174991498026, -0.32187474080828515, -0.3821440438131137, -0.19888667712513813, -0.608192438775], [0.4091787775790031, -2.66526905164408, 0.05087398753322607, -0.4750760900644729, 2.1471433833340137, 0.6195186673714635], [-0.5901506411082714, -1.8258074954623404, -1.0811899582660762, -0.19327341481704513, 0.38414876855824387, 1.6614727432987197], [0.16762174243062034, -1.4858759623981452, 2.3277219471891524, 0.27668117732274905, -0.897451465804047, -0.49427852842909914]], "biases": [[0.021218662676811155, 0.09283429299610563, 0.4537628963612188, 0.1787079396308188, -0.1525575831157169, 0.3881542612132678]]}, "layer3": {"weights": [[0.6623671000366277, 1.0151977132143812, -0.8629046281937829], [0.9664896336574985, -0.9238630578010188, 2.0441397533558763], [1.6426636175036013, 0.5788896920893789, -0.23248329573716708], [0.19598730283931975, -3.5699128896557966, 1.279946665275299], [-1.150172184524125, 0.29308672997153007, 2.1323112039348358], [-1.5196524793002337, -1.6349760710539152, -1.0718846642369178]], "biases": [[-0.12102432965562013, -0.2509250263387701, 0.09457317549439795]]}}, {"layer1": {"weights": [[-0.09270314584091295, 0.5972088029523426, 1.182524284582077, 1.1600344642796085, -1.217608719846552, -0.22701589586333046], [-0.41047152116072844, 1.4564391458025447, -1.1157374959448283, 1.556304998397592, -2.198373082866479, 1.3031612017039562], [-1.9828523762565335, -0.8623384354065236, 0.006269667560773533, 1.054895063469118, 0.9885442608286293, 0.5419988941867097], [-1.617878951614273, -1.1661531135331074, 0.9917177771055499, 1.7798165074411687, -1.4263122607067076, 0.06305858269322083], [-0.03473125588382483, 1.1595528299827307, 0.8612699473494448, -0.7457990410402553, -1.3284278300991335, 1.847890264809262]], "biases": [[0.32993181364206314, 0.04046268452315727, -0.3489733890907641, 0.01904157150192384, -0.38754564916256384, 0.07812328585140757]]}, "layer2": {"weights": [[-1.0266603149143205, -0.24431432110177873, 0.12045713523452528, 0.49564821003007825, 0.7032252429500515, -0.23370691344549424], [-2.0166273301733475, 0.5019193363369254, 0.46079518800878927, -0.03681098833010584, -2.843458438824806, -0.7874956131630848], [1.3505191317572411, 1.158970880308821, -0.3283242729434016, -0.5096752527503831, -0.1957281404306349, -0.6298738116893847], [0.41395033386995506, -2.647560910201881, 0.05033938607366265, -0.541351763302563, 2.101785057294454, 0.5924849670201899], [-0.5806253461979392, -1.8289117127328662, -1.0945761754895567, -0.22726251217685525, 0.38950919148983415, 1.8106919176898013], [0.18667066332031548, -1.4002206198079894, 2.359601240836425, 0.26680919761710903, -0.8904568998381022, -0.49004439495258145]], "biases": [[0.017849973391054076, 0.055379402942098664, 0.4389788125254247, 0.1770682305539466, -0.14708129890297703, 0.40815490888573114]]}, "layer3": {"weights": [[0.6371949270897186, 1.0003824851872125, -0.8623152455309764], [0.9488048035735216, -0.9917094361486812, 2.0920887431419235], [1.692021614608221, 0.5803122745605704, -0.20014930651143897], [0.08204035000092008, -3.5602828714593833, 1.2680467711102053], [-1.162249346238859, 0.2971205163825903, 2.1296922068799713], [-1.5439752480186284, -1.5410607534555703, -1.0817648395661408]], "biases": [[-0.12106632253809306, -0.2542962194353302, 0.08160610824860323]]}}, {"layer1": {"weights": [[-0.06213021122384824, 0.5925063641239761, 1.1825459576830422, 1.1623818939431028, -1.1937208477761856, -0.2267736601698807], [-0.4025418503271515, 1.458630529400053, -1.1334223255633624, 1.4009236499816122, -2.1243560334990064, 1.3072308775232069], [-1.9763975801131282, -0.8623404826264895, 0.02974114880121511, 1.0485496624430917, 0.9907267375890404, 0.5479813423860682], [-1.5957470339053779, -1.1693956798511582, 0.9873826402682577, 1.7661185999904845, -1.4247608253166866, 0.066342767536388], [-0.07142668339417217, 1.0743075598958924, 0.8135284598627031, -0.7782670495238033, -1.4648147182492943, 1.7703417957920315]], "biases": [[0.31586845389830875, 0.033828160307466104, -0.3457195553971871, -0.02137939619836646, -0.38845639378903385, 0.08457060489142797]]}, "layer2": {"weights": [[-1.0117686088812858, -0.34768820896783903, 0.08383046521040273, 0.45781553397772934, 0.6975363660548911, -0.24177272559898608], [-2.0655319287253913, 0.4300048043530297, 0.4595576261240807, -0.05406767954918881, -2.790470179082954, -0.782491008438446], [1.3604626980389343, 1.1533296374358024, -0.3050323688777064, -0.4844155847594353, -0.1961518923170945, -0.6169578820441208], [0.4098457430688629, -2.666782433984695, 0.04771738752107724, -0.3486686355116093, 2.1388973413122923, 0.6053474636072755], [-0.5937914530170274, -1.8260530087494258, -1.08538566362971, -0.19546183824770363, 0.38476645594495623, 1.6876811564700138], [0.1646114432488197, -1.4539910226245225, 2.331922361338637, 0.2724781735855952, -0.8959621328340447, -0.5246305892980148]], "biases": [[0.020828052727765577, 0.06708401170851358, 0.45368548030972794, 0.17901072158948997, -0.15264008891588762, 0.39814808554491044]]}, "layer3": {"weights": [[0.6792566440940361, 1.015127641981136, -0.8584980486551119], [0.9647120541487852, -0.9403146411981097, 2.033794978882215], [1.7258379315530699, 0.6135549435079934, -0.2167761945241768], [0.14854858076283783, -3.4993539347114035, 1.2613761043441079], [-1.1374613310320592, 0.29900953554283616, 2.1316926888186134], [-1.5272049404174672, -1.5941142695524166, -1.0401963935237593]], "biases": [[-0.11908663708810394, -0.2499832674824865, 0.08958757765593195]]}}, {"layer1": {"weights": [[-0.059625571834845216, 0.6029191332051669, 1.1767706122773962, 1.154869601762817, -1.1269541513802732, -0.22698560286726793], [-0.43581170103448924, 1.4363101867417367, -1.1561566836931834, 1.3959277680443332, -2.020902251660528, 1.3048151065427356], [-1.97344412427641, -0.8623381300175503, 0.03667537663010709, 1.0474937118098149, 1.0071560638481758, 0.5466793231045235], [-1.6197857737638799, -1.1692658015312276, 0.9782944035513121, 1.779772498112902, -1.42356480091319, 0.06977346940299725], [0.03941198948798537, 1.0624535880210835, 0.7803025117972415, -0.7847526888278151, -1.3833116761329194, 1.7661863047076696]], "biases": [[0.32132629865493034, 0.03489086334739448, -0.34581857748686184, -0.04946126883719257, -0.3884189761482839, 0.08259731612667552]]}, "layer2": {"weights": [[-0.8948961484738712, -0.30811942259362524, 0.0572967653485216, 0.4312073686710326, 0.6904612839746771, -0.20926788883160388], [-2.0676549667498367, 0.5291982056844677, 0.5538885722298722, -0.0776734389990773, -2.7709068703133646, -0.7814608686495967], [1.3651099764202028, 1.1788814502994034, -0.32011778613107317, -0.4368975689496979, -0.19658518509497408, -0.5883677826882198], [0.4103598768070288, -2.685538502635745, 0.052042993612118685, -0.33973650484487045, 2.13772308704935, 0.6135583621212616], [-0.5939668803040139, -1.8261164912268883, -1.0844100308809699, -0.1909616038939802, 0.3845075770694997, 1.6661306798169306], [0.16610205604998102, -1.4831376415899407, 2.330473958551102, 0.27644156950636645, -0.8959735843370418, -0.4978182330733866]], "biases": [[0.020471780469316688, 0.07908131064326641, 0.45385025731455897, 0.25138512541237323, -0.1524685225193333, 0.39102691083237906]]}, "layer3": {"weights": [[0.6562456033447044, 1.0047853733744858, -0.8602781157775943], [0.9630221057930024, -1.0493206846876502, 2.050034331352202], [1.6448748736024466, 0.5955169275895684, -0.23353982098392798], [0.32643758295259745, -3.544039699972014, 1.2759937016915712], [-1.1449756118456245, 0.2996864418903103, 2.132188894913682], [-1.5290485610827838, -1.6111264797622233, -1.0680319881714968]], "biases": [[-0.11779238373294913, -0.2514544448689205, 0.10152425828918071]]}}, {"layer1": {"weights": [[-0.05908342734666876, 0.5980607184570352, 1.1830074943563464, 1.1566558045986366, -1.1995154560366408, -0.2268947691801087], [-0.4681133013861096, 1.4453536040255555, -1.1453421775086607, 1.397473550227793, -2.113598704369533, 1.3074861762986818], [-1.9847070149910495, -0.8623373846940744, 0.03551593948719263, 1.0477951508171373, 1.0236418298184646, 0.5476169282347464], [-1.5886353262721409, -1.1695263479948228, 0.9827141356736414, 1.7751068907111034, -1.424113886892562, 0.06902046014112387], [-0.027411288666776487, 1.0669150044042073, 0.7959451464062894, -0.7290623608709917, -1.3857995045187275, 1.7687610868261705]], "biases": [[0.3189826314095092, 0.03381288049450604, -0.34561011311481926, -0.03477231001092579, -0.388480038542378, 0.08360836431591223]]}, "layer2": {"weights": [[-1.0197066743895284, -0.4359400795941276, 0.08212219296391027, 0.46473290861073746, 0.6874040469694305, -0.2232293107108092], [-2.067723195429478, 0.46175168316216025, 0.4707764894752618, -0.07439906226880763, -2.779775347237144, -0.7818399353811389], [1.3641562640460745, 1.1691985462474195, -0.31356966878103254, -0.4472696751257058, -0.19686607007806345, -0.6056017149110869], [0.40987816983786407, -2.6677417276235933, 0.04981688122062206, -0.4141207720289594, 2.1561040506798204, 0.6110367638961434], [-0.5930914262983654, -1.8260230209737704, -1.084186347429373, -0.17814358555505655, 0.38455147811423895, 1.6750375781749665], [0.16573545984541527, -1.4703492580658333, 2.330564474128316, 0.27467493133775933, -0.8962762277037941, -0.5093697912087813]], "biases": [[0.020790672381000443, 0.0764477532883462, 0.45375653432206553, 0.17871998777900389, -0.15256571140866726, 0.3936923139049744]]}, "layer3": {"weights": [[0.6680676421656322, 1.0141052385976073, -0.8600094417664959], [0.7990681816076296, -0.9369288673126193, 2.0484405304992848], [1.6815222634758893, 0.6003203441563071, -0.22563638276346681], [0.2177279819253581, -3.5289489720783553, 1.2701175036539272], [-1.1426141857807612, 0.29800125316463877, 2.1319869481661824], [-1.526246051239816, -1.608297881601831, -1.0560766481382464]], "biases": [[-0.11905890525461821, -0.2506698597063569, 0.0946051374166953]]}}, {"layer1": {"weights": [[-0.06087789152934673, 0.5977127486645715, 1.1796582849802193, 1.1586257478529598, -1.1682835139407084, -0.22687963151857432], [-0.41917677568082035, 1.4474703580708947, -1.1502873898865846, 1.3984257090129728, -2.0823585205186994, 1.3060229920329713], [-2.1144659102408134, -0.8623393063220199, -0.0033458334232271646, 1.0480216871264534, 0.9989414007186082, 0.5382969206855941], [-1.5941401323535709, -1.1693307406911928, 0.9828385219097849, 1.7729455490516932, -1.4185426590640273, 0.06805811846969262], [-0.010535867146265645, 1.0067702438563082, 0.7969154858299723, -0.7815098691758092, -1.4240631971911069, 1.7682640502498506]], "biases": [[0.31859737627661955, 0.03435951182743029, -0.34576906644202443, -0.03542033251777951, -0.3884376849686589, 0.08358396050905174]]}, "layer2": {"weights": [[-0.8918958293923749, -0.3080179515431716, 0.07056361527946217, 0.4624044933708242, 0.6939988250147842, -0.22552030721529498], [-2.0676073551235987, 0.48716155846620773, 0.46916191187824186, -0.06587055927413306, -2.7000703222645246, -0.7819759385440214], [1.3627863372295685, 1.166105543867603, -0.3125750775043898, -0.5085982995570381, -0.1963685387060343, -0.6026628323661702], [0.41010280993794584, -2.6686943064244844, 0.04988019056659796, -0.40734451073986455, 2.1383102141808212, 0.590020504033299], [-0.5938791666605207, -1.8260847499881572, -1.0598489582188262, -0.19321172107084192, 0.3846370165072279, 1.6769059181434722], [0.21064191006946184, -1.4685643321072317, 2.3311981599448695, 0.27445987154598084, -0.8959678585855433, -0.5112244111857007]], "biases": [[0.04427014927450429, 0.07308266117588999, 0.4537678688121435, 0.17866924023584557, -0.16916517343092957, 0.3942992510880276]]}, "layer3": {"weights": [[0.6677511237193703, 1.0135721396454538, -0.8593880822163531], [0.9638670799708938, -1.1059147389663175, 2.052530564284801], [1.6853564025777583, 0.566652702226718, -0.22515800775405237], [0.23749308185771764, -3.5216968173417085, 1.2686849030178395], [-1.1412184714388418, 0.2993479887165732, 2.131940791866148], [-1.5281267507501255, -1.5774912624723845, -1.0541141908476281]], "biases": [[-0.11843951041052653, -0.22228374922242763, 0.09555591797255633]]}}, {"layer1": {"weights": [[-0.058856418314679575, 0.5997172432298196, 1.1136465787542074, 1.1663980659161306, -1.2072786791866923, -0.239362079235896], [-0.4651839213829713, 1.4394918025109031, -1.1502995187217568, 1.4042260620616902, -2.059757351067388, 1.3016434508158372], [-2.0062274185196927, -0.8552304538871645, 0.03504925750097848, 1.0518068454509544, 1.0073281308817732, 0.5472752905262661], [-1.5920714777457667, -1.1776032318525453, 0.983540648824867, 1.7769568822507145, -1.4241400239389124, 0.06901083885298581], [-0.03768438893190576, 1.069604033264119, 0.8139511482836919, -0.767522157046358, -1.3970560182956013, 1.768231946518037]], "biases": [[0.3200316102323611, 0.028800482618976362, -0.34611588206901556, -0.03469514263955782, -0.3894601852377084, 0.08302763792027561]]}, "layer2": {"weights": [[-1.0260039506483238, -0.33737350062801363, 0.10255557970846427, 0.43476741958933696, 0.7206369281284437, -0.2224423741787478], [-2.0772897603135645, 0.4814622063295023, 0.48117671421183683, -0.07969076507226056, -2.7825314904075027, -0.7776732323467026], [1.3648991484856938, 0.9268555533300117, -0.3045766510072647, -0.440156145069173, -0.19695238421115618, -0.6159490430689454], [0.41016688675059787, -2.7116820156105534, 0.04202644555977388, -0.44107934908244406, 2.1391796615611107, 0.6134233594314566], [-0.5339417482153722, -1.818488446939, -1.0840438291973886, -0.12579134691053986, 0.38117747464181395, 1.6344528277583454], [0.16634542461012614, -1.433041692835745, 2.344731773960238, 0.2759236400199462, -0.8955668519811997, -0.5012737128942069]], "biases": [[0.06786029755520956, 0.07820345310712323, 0.45376001520330256, 0.17578085195000068, -0.15243699409719488, 0.4058242130935542]]}, "layer3": {"weights": [[0.6601132654122455, 1.0133758392332337, -0.86028522122747], [0.9648388400175143, -0.9318334526894024, 2.0570882432732125], [1.6570044624035094, 0.6514996044789632, -0.22991472375196073], [0.21660449240135052, -3.540429480123576, 1.281944237973284], [-1.144800534975995, 0.2970246954311732, 2.1319399693659724], [-1.5272107854612917, -1.6032669323513358, -1.0227553349214322]], "biases": [[-0.11710556635328673, -0.25109679022785414, 0.04040975460591791]]}}, {"layer1": {"weights": [[-0.030102561271438465, 0.6015214212120867, 1.1824473524423578, 1.1378033727294457, -1.2027477903221295, -0.23939235764614597], [-0.4052181085875699, 1.4367211372155113, -1.1434084815267873, 1.4039886127023782, -2.173202816952917, 1.305452285512801], [-1.9912429903032267, -0.855231520667733, -0.06001100041833997, 1.051776884371752, 0.9908536528537151, 0.5467856102783968], [-1.5971118935395165, -1.1682174320405658, 0.9818225104703928, 1.7779585885476696, -1.423939960036114, 0.06892710588916268], [0.0031760453482748106, 1.0650673985174128, 0.8080822302095458, -0.7819770843686669, -1.4548938074571722, 1.7670032190401086]], "biases": [[0.19513503202007879, 0.02945032829330144, -0.3462628491487147, -0.04082993517280602, -0.3894188188505831, 0.08261345712183674]]}, "layer2": {"weights": [[-1.0228610395167952, -0.30781427974067055, 0.14050276734148137, 0.470878395841518, 0.7244977341486839, -0.21777420402885994], [-2.0786939843775354, 0.5031393200804072, 0.48372676643588536, -0.0775891145664986, -2.779349370622397, -0.7775760069192386], [1.3647326627087428, 1.1392249321138022, -0.3067980614366238, -0.4112852330154847, -0.1966410176691088, -0.6078799171618319], [0.41044942557829645, -2.6679699979925164, 0.0429422142547629, -0.4591286901424703, 2.1374139031365096, 0.613798458308754], [-0.5928032227128163, -1.8185505266460016, -1.0844179025084142, -0.2149763315304747, 0.3851312889920154, 1.6422067183483238], [0.16634057901354646, -1.4310967695099017, 2.3318358818354605, 0.27654427137067766, -0.9229039650061127, -0.49739493763081677]], "biases": [[0.020435973125626006, 0.07791083920410882, 0.45380203819633114, 0.17560366137401628, -0.15239355626503856, 0.4051161255779842]]}, "layer3": {"weights": [[0.6552578425053697, 1.012327159137238, -0.8601441470118523], [0.9639792606474678, -0.9346170225778211, 2.0678545044626593], [1.6438791620948798, 0.5959037567605266, -0.2328847490363794], [0.2679943727851901, -3.6110640918949075, 1.2837216769339066], [-1.1451868196651727, 0.2982374651422156, 2.1320022855449583], [-1.529084069202603, -1.6523855932075595, -1.0681260774966128]], "biases": [[-0.11635119980698241, -0.25143022288061817, 0.09656401028273442]]}}, {"layer1": {"weights": [[-0.06362205828358959, 0.5988793454462615, 1.17864152874672, 1.1571373733059813, -1.2033016157293166, -0.22687963034869213], [-0.40290081371948405, 1.4547094674666274, -1.1501449951287324, 1.611745012634852, -2.109153949255697, 1.2377281550981352], [-1.988026245545087, -0.8609188200116541, 0.034565790812265955, 1.0481398676650826, 0.990814754474503, 0.5468140801898247], [-1.5971260176880162, -1.1682303615155667, 0.9829130640674228, 1.7669265353087906, -1.4239933845170913, 0.06872209550329061], [0.0009109949140472702, 1.066913584335806, 0.7905589499557384, -0.7906291782021818, -1.3749010605495768, 1.767048196802918]], "biases": [[0.3474031566864013, 0.03464121191491758, -0.34628165733439364, -0.03936994204671237, -0.38893953964686034, 0.08045371749018804]]}, "layer2": {"weights": [[-1.0246372702663722, -0.30714355851855535, 0.08177339123208313, 0.495275740226244, 0.6949039974884287, -0.2086810846082694], [-2.0573493663642832, 0.5704075193372128, 0.47359112497929345, -0.07069340739297897, -2.7780542763950726, -0.7443809399337964], [1.3636196768624684, 1.1639342597929405, -0.31829780840569216, -0.4518770992622074, -0.19621078031368722, -0.59887759429393], [0.41038709205798396, -2.726339520515869, 0.04877692912956348, -0.45558860693879205, 2.135082325130021, 0.6113138134946974], [-0.6788416942921476, -1.884275291200449, -1.084137234528093, -0.20400580284648545, 0.42812609507501576, 1.6782149453521686], [0.16570721139919564, -1.4630279985093781, 2.3880130564474795, 0.27628073082051674, -0.8952725460690975, -0.5078026886613639]], "biases": [[0.02046337528081199, 0.07542359279359814, 0.4540361760409406, 0.1779080393520156, -0.15248329010699502, 0.39370445145099686]]}, "layer3": {"weights": [[0.6472711424466918, 1.0123246601372402, -0.8584021331497633], [0.9685597840574904, -0.9333023234899643, 2.054238082289139], [1.6691775910586801, 0.5928083599437137, -0.2881735539620388], [0.30182245300524435, -3.505880458785671, 1.2713610577984227], [-1.1424239472520255, 0.2990958855873293, 2.1323352031468237], [-1.534161852668464, -1.6041463395751183, -1.041098375770411]], "biases": [[-0.1364056996383704, -0.25050246666256226, 0.09672085543495568]]}}, {"layer1": {"weights": [[-0.05869092836650344, 0.6011149552228998, 1.1806050488594273, 1.1547961055954157, -1.213849491530297, -0.226955324457018], [-0.4683069514572531, 1.4390808520371285, -1.1740434914047762, 1.3961652174036452, -1.9888917726639528, 1.3064688081513984], [-2.021452875411887, -0.8623370632369818, 0.037134672481553915, 1.0475236728890174, 1.023630541876234, 0.5471690033523928], [-1.587492815008014, -1.1694482630381176, 0.9800125419057865, 1.7787707918159466, -1.4237648648159884, 0.06985720236682039], [0.02027869591997747, 1.0636519267526208, 0.7861714298713876, -0.7845302324685953, -1.396625510618526, 1.767415032185598]], "biases": [[0.3205429338099177, 0.034241017673069404, -0.3456716104071627, -0.043326476303944365, -0.3884603425354092, 0.08301149692511439]]}, "layer2": {"weights": [[-1.0293180320448636, -0.33277280553189725, 0.07185036746845631, 0.3950963924188515, 0.686600477954437, -0.2139360589814917], [-2.068134157298439, 0.5226411988284809, 0.4762161454083545, -0.07977508950483926, -2.77408899009847, -0.7815580940770607], [1.3652764621971538, 1.1762454896305363, -0.31789637570171403, -0.43569165072855676, -0.1968965516370215, -0.5964369085953333], [0.4100773379793302, -2.6690793668476456, 0.05112722491712968, -0.4479710449080936, 2.1394888454739514, 0.6131832632439642], [-0.5933016025568925, -1.8260544115198867, -1.0840359575699443, -0.1798071423520966, 0.3844909221301998, 1.6689461031727426], [0.1661069016465607, -1.4787362585637385, 2.330256690455366, 0.27582093815563496, -0.8962179893310431, -0.5016970083367767]], "biases": [[0.11513657025082656, 0.07937392454628081, 0.45380823432153045, 0.17850494945818557, -0.15251196035148962, 0.39173499834794906]]}, "layer3": {"weights": [[0.6611010262515803, 1.013065317405767, -0.860419189993212], [0.9638816851630488, -0.9376559892764016, 2.0604998884979397], [1.6580001739110761, 0.5577886696764104, -0.2305697956995093], [0.2750477025687579, -3.540904270709209, 1.2742162627309486], [-1.144589327156447, 0.2984736721792679, 2.132126578734696], [-1.5271752773414726, -1.5117495945361283, -1.064034835074444]], "biases": [[-0.11854675027925343, -0.25112101221615646, 0.09837629771784212]]}}, {"layer1": {"weights": [[-0.056036643469489264, 0.6036150727900945, 1.183469031029651, 1.1509297152541704, -1.2053100642970962, -0.2270158781903367], [-0.5336847524450677, 1.432076678651058, -1.157262029453959, 1.394023450473974, -2.1028413752400597, 1.3077414750741567], [-1.993016449868971, -0.8623342867616592, 0.04129073017317014, 1.0470406391911828, 1.056556922047889, 0.5472525140834246], [-1.5815236186389037, -1.1696570161384874, 0.9780456310790251, 1.7840951814317223, -1.4234669484684375, 0.07169815274585974], [0.0166041060606192, 1.0595224489125221, 0.7783618329498758, -0.7874393675817715, -1.3758447412887485, 1.7671803778603095]], "biases": [[0.32209680892070963, 0.033797600681545976, -0.3455006708324514, -0.04816522382348512, -0.38850368329572216, 0.08264612374039648]]}, "layer2": {"weights": [[-1.0276447398977713, -0.3102073192165597, 0.08041392071741782, 0.47165028324374564, 0.6772717278839699, -0.20468589582263236], [-2.069914462133565, 0.49349856197129083, 0.4819953528264429, -0.09473044498842645, -2.7690805153913343, -0.7811888623238319], [1.3678498300532147, 1.1850674550590365, -0.32210696868435873, -0.4101237654919764, -0.19758024783903239, -0.594245547778053], [0.40991059660686524, -2.6687010212624918, 0.05191637492016689, -0.4795729085463095, 2.1415503559793816, 0.6167260641850112], [-0.5923913995797034, -1.8259930331981153, -1.082987031229036, -0.16082533286240946, 0.38433650028352173, 1.662393999879919], [0.16685947644201085, -1.486707493507144, 2.329206586917995, 0.27687168908992343, -0.8965903225735437, -0.4941089931195478]], "biases": [[0.02075329203423531, 0.08581149486817882, 0.4538275883344032, 0.17842925396851778, -0.15249133390144692, 0.3892365422650384]]}, "layer3": {"weights": [[0.6568786402372282, 1.0130828352140786, -0.8615208348778798], [0.9643260800402271, -0.9335430934271289, 2.063086082116355], [1.637206595398709, 0.5870857448046207, -0.23449657100275687], [0.2869073830878784, -3.5585440094453076, 1.2788589029637465], [-1.1477670405294633, 0.2969929707864414, 2.132281207513752], [-1.5252871620621644, -1.6224814936512455, -1.0719569027527336]], "biases": [[-0.11903117342113248, -0.2513564519302273, 0.09962269717745863]]}}, {"layer1": {"weights": [[-0.044396744818970955, 0.6013181882174933, 1.1815262006508926, 1.1462997391624308, -1.2082986409262133, -0.23317384105158198], [-0.4367625300224115, 1.43790099462632, -1.1587259864657817, 1.4000769150530117, -2.081047294808435, 1.3059605468320998], [-2.006347932857557, -0.8587842919523574, -0.011438163968393027, 1.0496502786303847, 1.0072420973649745, 0.5469773068153948], [-1.5923023542737653, -1.242553640878289, 0.9809175261880896, 1.778364690181808, -1.4238524124260512, 0.06939215412799153], [0.01172737063412614, 1.0643596626350167, 0.7971268300404667, -0.7832536584186311, -1.425759659037849, 1.7672091256128533]], "biases": [[0.25783898291499824, 0.03184567298318542, -0.3459672297779387, -0.04207820573837519, -0.38893958069299617, 0.08281247702347556]]}, "layer2": {"weights": [[-1.0260895357808293, -0.2564729123824515, 0.10617656740496884, 0.4329873941301848, 0.7055491060515604, -0.21585513150517582], [-2.073414070837987, 0.512890259454444, 0.4799714559221199, -0.07868210203566893, -2.7767191803604336, -0.7795670504981496], [1.3650045624529483, 1.258526919093578, -0.3123472185691689, -0.4234884418720207, -0.19676878465306513, -0.6021584128785826], [0.41026338177881333, -2.668524682420081, 0.04703471958594629, -0.4535498675252819, 2.1384513743052302, 0.6134908607763592], [-0.5930524126348544, -1.8223024690829441, -1.0842269300391791, -0.19739173694128564, 0.3848111055611076, 1.655576410760533], [0.16622374033005358, -1.4562103461992444, 2.3310462861454133, 0.2761826047631563, -0.909560977168578, -0.4995459729837967]], "biases": [[0.06778627168822629, 0.07864238187519482, 0.4538051362589308, 0.17705430541610093, -0.1524527583082641, 0.39842556196296663]]}, "layer3": {"weights": [[0.658179434378475, 1.0126962382715026, -0.8602816685025321], [0.9639304729052582, -0.9361365059271114, 2.2451657967452325], [1.650939668002978, 0.5768462132184685, -0.23172727236794435], [0.271521037676974, -3.6518468797167563, 1.2789689698324276], [-1.1448880734108098, 0.29835556866074175, 2.132064432139827], [-1.528129673272038, -1.582067593871844, -1.0660804562855284]], "biases": [[-0.11744897504311792, -0.25127561754838734, 0.09747015400028827]]}}, {"layer1": {"weights": [[-0.05736378591799635, 0.6023650140064971, 1.182037039944539, 1.1528629104247932, -1.2095797779136968, -0.22698560132367734], [-0.5009958519511604, 1.4355787653440932, -1.1656527604293676, 1.3950943339388095, -2.045866573952006, 1.3071051416127775], [-2.007234662640429, -0.8623356749993205, 0.03921270132736203, 1.0472821560401, 1.0400937319620613, 0.5472107587179087], [-1.5845082168234588, -1.1695526395883025, 0.9790290864924058, 1.7814329866238343, -1.423615906642213, 0.07077767755634007], [0.018441400990298333, 1.0615871878325716, 0.7822666314106317, -0.7859848000251834, -1.3862351259536372, 1.6835126989768445]], "biases": [[0.3213198713653137, 0.034019309177307694, -0.3455861406198071, -0.045745850063714746, -0.38848201291556567, 0.08282881033275544]]}, "layer2": {"weights": [[-1.0284813859713173, -0.3214900623742285, 0.07613214409293706, 0.4333733378312986, 0.6819361029192035, -0.20931097740206203], [-2.11020569510131, 0.5080698803998859, 0.47910574911739867, -0.08725276724663286, -2.7715847527449022, -0.7813734782004462], [1.3665631461251841, 1.1806564723447863, -0.3200016721930364, -0.42290770811026657, -0.19723839973802693, -0.5953412281866932], [0.4099939672930977, -2.6688901940550687, 0.05152179991864828, -0.6977228883902102, 2.1405196007266665, 0.6149546637144877], [-0.592846501068298, -1.826023722359001, -1.0835114943994901, -0.17031623760725303, 0.38441371120686074, 1.6656700515263307], [0.16648318904428577, -1.4827218760354413, 2.3297316386866807, 0.27634631362277917, -0.8964041559522934, -0.5709250964263984]], "biases": [[0.06794493114253093, 0.08259270970722982, 0.4538179113279668, 0.17846710171335167, -0.15250164712646827, 0.39048577030649373]]}, "layer3": {"weights": [[0.6589898332444042, 1.0130740763099229, -0.8609700124355459], [0.9641038826016379, -0.9355995413517653, 2.057480119377891], [1.519952842781269, 0.5724372072405155, -0.2325331833511331], [0.2809775428283181, -3.5497241400772586, 1.2765375828473475], [-1.146178183842955, 0.29773332148285464, 2.132203893124224], [-1.5262312197018186, -1.5671155440936868, -1.0679958689135889]], "biases": [[-0.11878896185019296, -0.2512387320731919, 0.09899949744765038]]}}]