[{"layer1": {"weights": [[-0.06536707249640959, 0.47599514156542444, 1.0194207733255596, 1.1901345736359867, -0.916605528000472, -0.3674308836836706], [-0.1473379158092624, 1.0291384902636322, -1.0671496528521356, 1.4766152334353722, -2.186689717574176, 1.5084709158708558], [-1.092816790068817, -0.4110675147375268, -0.13821296238507397, 1.3348664040492295, 0.5522684613872586, 0.7815835220729009], [-1.5819324652875486, -1.086568707548759, 0.8821852339974288, 1.5432795767668002, -1.3164661089628615, -0.3077075184794763], [0.6819228245261861, 1.173227566728732, 0.9376608931213358, -0.828568105638809, -1.6513665076496795, 1.7326407139620605]], "biases": [[0.1792880192834143, 0.062395802469613335, -0.27541842923431203, -0.23877325969779484, -0.07417044493610411, -0.09230942926435703]]}, "layer2": {"weights": [[-0.827481721114903, -0.4802389168878923, 0.8079462694926951, 0.9739468173526197, 0.23529452259415967, -0.4295495238881092], [-2.056348290341561, 0.31959700359418713, 0.41512658848879513, 0.7300002111468518, -2.1616778222313653, -0.7557801492023266], [1.2825539112822706, 0.3165014574720446, -0.2612891844228509, -0.49276293700803975, 0.18657804206744907, -0.7327117560065839], [0.7375993386354869, -2.1375095780075366, -0.2127557451068594, -0.5276713367789825, 2.2438037385162817, -1.0054773483724948], [-1.1515580405150954, -1.3939315205002778, -0.2860692203876105, 0.32617271283964866, 0.0011294263468231524, 1.5793436613408356], [-0.01491841320675681, -1.7930390955391327, 2.2623151829295525, 0.3980019935520296, -0.45767482834797524, -0.9466158432706869]], "biases": [[0.1470708077360776, 0.009360803022473252, 0.31555371179544944, -0.06703209214601077, -0.10779716839716386, 0.07254949935629745]]}, "layer3": {"weights": [[0.5072004595386563, 0.7792586145185801, -1.157649746745026], [1.2884331876858963, -0.4847774602674494, 1.6521151878254645], [1.3669241082809642, 0.9781318889440009, -0.3467837015120482], [0.08831469696850704, -3.0061592394268724, 0.9145381101036163], [-1.5383063025851667, 0.40667715551268385, 2.0683600568326472], [-1.2799899244803075, -1.4299641371968188, -1.2924943184117523]], "biases": [[-0.09428103694501626, -0.15793743654004627, -0.24329420480740233]]}}, {"layer1": {"weights": [[-0.0329088506971299, 0.5061191237531961, 1.0198603878981711, 1.1836252341198878, -0.9309932215288277, -0.3674314698761062], [-0.16303331135061466, 1.0295030210700626, -1.1080705967007543, 1.4765379135111227, -2.032890737671508, 1.5543728456553527], [-1.092782138020497, -0.4155327871817295, -0.14142927957616125, 1.3352316711220569, 0.5532753967695235, 0.7815470656652816], [-1.539669354911099, -1.08393687382936, 0.9077417649725561, 1.5421326420902242, -1.3157962919970512, -0.30867141749596716], [0.7083548063812377, 1.1729004537197247, 0.9431100749182826, -0.8211707682282463, -1.6392102772922228, 1.732432236590248]], "biases": [[0.13457700586295035, 0.05394727657418351, -0.2656601900142885, -0.23920447253276383, -0.07412417776538253, -0.07058108135753463]]}, "layer2": {"weights": [[-0.8524164599057968, -0.4606130326795621, 0.8162862626146214, 0.978906065829371, 0.2352366317542333, -0.5263481768318371], [-2.0359374412831164, 0.31249752492666516, 0.40348597792306373, 0.7806121160620376, -2.1613692004858525, -0.7194592218892124], [1.28728728405374, 0.32223093839514405, -0.18345578152869474, -0.48634093426621167, 0.18657807589901979, -0.7410304722625354], [0.7375996176776636, -2.11379620122192, -0.21975833749271692, -0.5277031455082848, 2.248458314580774, -1.0359892016698742], [-1.3248173975162085, -1.3993240699523435, -0.30892781999567875, 0.35771898085594384, 0.010298247798165457, 1.5736269089753452], [-0.023269464318309882, -1.6253335118400303, 2.261833880621519, 0.38996892925665283, -0.4688245768234679, -0.9119371363993887]], "biases": [[0.1489449618613771, 0.009124869337394516, 0.2957725585501856, -0.06715699769408315, -0.11098324183943524, 0.07157071213120769]]}, "layer3": {"weights": [[0.47520023116938415, 0.779393271115629, -1.1213924054623607], [1.2862601072736508, -0.4962533818709602, 1.6491708112587218], [1.3340277701310743, 0.9590439958923898, -0.3454194874549998], [0.08757493842354801, -3.038611294841008, 0.859977551679389], [-1.566221830487387, 0.4065917231976066, 2.0683598487548274], [-1.2639940387234714, -1.428211637496975, -1.2812126165522193]], "biases": [[-0.0943222743715259, -0.19909687281383112, -0.21042652408530935]]}}, {"layer1": {"weights": [[-0.02590196260409508, 0.4575514260961351, 1.019266998680819, 1.1761524432843253, -0.9120203780075296, -0.36743067863693385], [-0.1661895631693162, 1.0290109794877205, -1.0545745697227342, 1.4765524078968937, -2.199760941156222, 1.5107645883108596], [-1.0928289111556782, -0.40950558816239413, -0.140223658341123, 1.3347126358465282, 0.5596384522449767, 0.7815962743142493], [-1.5175339853190084, -1.0874893078209766, 0.8740978676940645, 1.5437339527721485, -1.3167513444649546, -0.30612465789844356], [0.6831516394182577, 1.173341988974681, 0.9357548007232268, -0.8420813813064574, -1.6537182471583025, 1.7323223318410736]], "biases": [[0.17971975296416973, 0.05448476689377629, -0.2790196974258953, -0.23862242393247646, -0.0741866289258627, -0.09951073034280579]]}, "layer2": {"weights": [[-0.8220697164746708, -0.48542643827391363, 0.8120583304770925, 0.972212100807254, 0.23531477247643845, -0.42533747363054625], [-2.038829955133063, 0.3266244898098508, 0.40637056221128404, 0.7439035055104156, -2.1616513384839635, -0.740361720091419], [1.2748036726130305, 0.31468829371689894, -0.18993957172218395, -0.5023567766742021, 0.18657803023336056, -0.771893426727021], [0.7375992410281412, -2.1462669310610427, -0.2101969686926265, -0.5276602102687326, 2.24217559462541, -0.9957441041243772], [-1.146893842775614, -1.3811258269055435, -0.27782058404287163, 0.31245565563161404, -0.0016773834493026196, 1.581343348382262], [-0.011997263640987216, -1.6278195546774485, 2.262483539703967, 0.39965278424777867, -0.4535956221906223, -1.0384826513312124]], "biases": [[0.14641523942064366, 0.009443331266225072, 0.2964284093519603, -0.06698840090491551, -0.106682698263036, 0.0728918734885305]]}, "layer3": {"weights": [[0.5864556123253732, 0.7792115124167318, -1.1213560146515669], [1.289193318694295, -0.4807632490069621, 1.6490393715994864], [1.336098346275735, 0.9724993709495023, -0.3472608957295342], [0.08761836747215232, -2.9959215176243355, 0.930302606851076], [-1.546572117066086, 0.40690596123272016, 2.06836012961707], [-1.2858647550909643, -1.4305771514951182, -1.2928122147887549]], "biases": [[-0.09426661233080506, -0.19793610535521594, -0.21042655139936917]]}}, {"layer1": {"weights": [[-0.03908966444683759, 0.5605482257653274, 1.0197283226150409, 1.2180988343393095, -0.925775827986357, -0.3674312937771441], [-0.16373576983465493, 1.0293935118154558, -1.0922998191109379, 1.4767408845123295, -2.1605472704100848, 1.5038835709908482], [-1.092792547895095, -0.4141913678877921, -0.13419157047297586, 1.333884428667492, 0.5531303788534561, 0.7815580175902043], [-1.5590498922820712, -1.136622021864044, 0.8983599666041573, 1.5423708247561039, -1.315895637958675, -0.3108732396415418], [0.6794651947420431, 1.1729987222368339, 0.9414730779175537, -0.8015415543035123, -1.7657014003000215, 1.731208008420074]], "biases": [[0.1784245519219035, 0.07821787362128742, -0.26821589285114555, -0.2390749312284316, -0.05615491288381933, -0.10200388239148879]]}, "layer2": {"weights": [[-0.8383057303953675, -0.46986387411584957, 0.7997221475239005, 1.0415758144039133, 0.267358969401189, -0.34689370187889623], [-2.0365812019875253, 0.2907317894309929, 0.4326386410438174, 0.702193622419724, -2.1617307897261693, -0.7306742505884656], [1.2980543886207507, 0.320127784982336, -0.17810668493885856, -0.4735752576757152, 0.14548467938551013, -0.743407125785972], [0.7375995338501784, -2.1607645337307364, -0.21787329793532528, -0.5276935897994821, 2.2470600262980254, -1.0249438368687303], [-1.183205173053778, -1.419542907689746, -0.30256649307708827, 0.353606827255718, 0.006743045939074697, 1.5753442872579821], [-0.020760712338295996, -1.6760950661865976, 2.261978469380723, 0.3947004121605313, -0.46583324066268106, -1.049193859629734]], "biases": [[0.14838194436694557, 0.00919574653496961, 0.295918525344483, -0.06711947462820134, -0.11002610866541956, 0.07186475109183137]]}, "layer3": {"weights": [[0.5900758569092064, 0.7793528187222768, -1.1213843062880073], [1.286912925669099, -0.4928058827884241, 1.6582668202774207], [1.3305185494779166, 0.9893969249329984, -0.345829313077076], [0.08970735596121648, -3.0266346830319453, 0.8830091166086966], [-1.521774673623328, 0.4062195440726112, 2.0683599112638023], [-1.2682402632589942, -1.4287381086002204, -1.2918585256577473]], "biases": [[-0.09430988617343865, -0.19883853127578566, -0.18773034475811196]]}}, {"layer1": {"weights": [[-0.1048321823887241, 0.49443885703471374, 1.0195745479703002, 1.2041167039876481, -0.9211906779934145, -0.36743108873040736], [-0.1645537009462087, 1.029266001039544, -1.0797247359815367, 1.4766780589738508, -2.17361849399213, 1.506177243430852], [-1.0928046689819562, -0.41262944131265944, -0.13620226642902492, 1.335020172251931, 0.5448984705295407, 0.7815707698315526], [-1.545211256627717, -1.0856481072765412, 0.890272600300793, 1.542825200761452, -1.3161808734607683, -0.30929037906050905], [0.6806940096341146, 1.173113144482783, 0.9395669855194448, -0.8150548299711606, -1.6490147681410567, 1.7329590960830477]], "biases": [[0.17885628560265893, 0.07030683804545038, -0.2718171610427288, -0.23892409546311322, -0.07415426094634554, -0.08510812818590827]]}, "layer2": {"weights": [[-0.8328937257551352, -0.4750513955018709, 0.8038342085082978, 0.9756815338979854, 0.2352742727118809, -0.3250148226333337], [-2.0738666255500586, 0.31256951737852345, 0.4238826147663063, 0.7160969167832879, -2.161704305978767, -0.7711985783132342], [1.2903041499515107, 0.31831462122719034, -0.18205098053330035, -0.48316909734187746, 0.1865780539015376, -0.6935300852861468], [0.7375994362428326, -2.1287522249540305, -0.21531452152109234, -0.5276824632892323, 2.2454318824071535, -1.0152105926206125], [-1.156222238254577, -1.4067372140950118, -0.2943178567323494, 0.33988977004768334, 0.0039362361429489245, 1.5773439742994089], [-0.017839562772526404, -1.9005286715546497, 2.2621468261551376, 0.39635120285628045, -0.46175403450532815, -0.8547490352101614]], "biases": [[0.1477263760515116, 0.00927827477872143, 0.29608848668030874, -0.06707578338710606, -0.10891163853129171, 0.07220712522406442]]}, "layer3": {"weights": [[0.5888691087145954, 0.7793057166204285, -1.1213748757425273], [1.2876730566774977, -0.48879167152793673, 1.6551910040514426], [1.3977498702861935, 0.9837644069384996, -0.3463065072945621], [0.08901102646486175, -3.016396961229409, 0.8987736133561565], [-1.5300404881042473, 0.40644834979264755, 2.0683599840482247], [-1.2741150938696508, -1.4293511228985196, -1.2921764220347498]], "biases": [[-0.09429546155922745, -0.19853772263559577, -0.2761618582154355]]}}, {"layer1": {"weights": [[0.10206095074238476, 0.4818352749246656, 1.019563693289495, 1.1798888387021065, -0.9215067997681786, -0.36743107425652], [-0.16461143725996544, 1.0292570002788914, -1.0813225832117443, 1.4335236274008682, -2.116325839413865, 1.4429873747207584], [-1.0928055245880874, -0.4125191876720618, -0.14082646895864212, 1.3349721534842924, 0.5564569245072502, 0.7815716699897655], [-1.5286016701150538, -1.0857130908251684, 0.8909198163333103, 1.5429332974311865, -1.3162738182310028, -0.30739803769720536], [0.6957532228997477, 1.1731212213472029, 0.9394324378207547, -0.8316260747673518, -1.6464642622252628, 1.7323772842156608]], "biases": [[0.15714837941356002, 0.0542160217339799, -0.27233994372009185, -0.23891344823262015, -0.07415540334562262, -0.08504590585017022]]}, "layer2": {"weights": [[-0.8372430881902337, -0.47301973547673787, 0.814172296545857, 0.9755590833183125, 0.23527570211533588, -0.4758428252311917], [-2.0373836982080897, 0.319561007368258, 0.4049282700671739, 0.7622578107862266, -2.161510269484908, -0.7299104709903157], [1.2810454783333851, 0.31845961605602147, -0.18669767662543935, -0.4943488554702069, 0.18657805306619019, -0.7564619494947782], [0.7375994293529025, -2.130031566141481, -0.2149776530926717, -0.5276816778885087, 2.245316954603092, -1.0158666528971256], [-1.2358556201459112, -1.3902249484289435, -0.2933742020192752, 0.36139045451841256, 0.004310432174431418, 1.5774851286788036], [0.022086874420693833, -1.6265765332587394, 2.262158710162743, 0.3948108567522157, -0.4612100995070451, -0.9752098938653005]], "biases": [[0.1476801006410104, 0.0438200624866264, 0.2961004839510729, -0.06707269929949933, -0.10883297005123563, 0.07223129280986909]]}, "layer3": {"weights": [[0.5308279217473787, 0.7793023917661803, -1.1213742100569637], [1.287726712983973, -0.4885083154389611, 1.649105091429104], [1.3350630582034047, 0.965771683420946, -0.34634019159226703], [0.08759665294785016, -3.0172664062326717, 0.8951400792652325], [-1.5563969737767365, 0.4067488422151634, 2.0683599891859488], [-1.1869750709559082, -1.5084105741214493, -1.2870124156704872]], "biases": [[-0.09429444335116549, -0.19851648908452352, -0.21042653774233927]]}}]