[{"layer1": {"weights": [[0.03821991436294593, 0.525735645469336, 1.0374099696679853, 1.1791979489356086, -0.9246860137026895, -0.39621792974841497], [-0.25084567292503446, 1.0556513959628249, -1.0906198410552899, 1.4496911567733655, -2.1448493686879253, 1.5398198287832199], [-1.1079258177373177, -0.5253872554190493, -0.10126021245708945, 1.320052906526558, 0.582417198746267, 0.776135813105361], [-1.4491390433786355, -1.1963025893261454, 0.9744990973654448, 1.5750605626257141, -1.3651880033272783, -0.35788544437212494], [0.5843996638037907, 1.1602959507754322, 0.8496139695218036, -0.8492440452976808, -1.713378051812736, 1.7980764060387782]], "biases": [[0.19941437258351957, 0.08743186764311825, -0.27216750291878367, -0.2530909581134013, -0.0625188349135472, -0.0970400921489346]]}, "layer2": {"weights": [[-0.7793858632240133, -0.3543871618511888, 0.7637809227436728, 0.9323041610644354, 0.2744779211901587, -0.43181692225498625], [-2.0334373300987254, 0.3138278644959005, 0.33417157290239674, 0.6326811914390299, -2.1678312847701537, -0.6457863893658886], [1.3393879255342578, 0.13106822358054288, -0.19374369344838924, -0.5325001437295889, 0.22675844321262284, -0.7933272324342424], [0.6982873851492721, -2.112059293708964, -0.16596638375176617, -0.5078877537139903, 2.226424394507892, -1.0448563935847874], [-1.0846602434040553, -1.325784746400899, -0.4131382030202159, 0.3700856225552568, 0.09552937628215644, 1.693389958143382], [-0.009898923604958315, -1.6230055444017715, 2.261075320190524, 0.4498598929141656, -0.4004914306920079, -0.8501676904920824]], "biases": [[0.12741100352912643, 0.0028741334473284773, 0.2592268685139749, -0.08904595259543249, -0.0885381666646409, 0.07788703263367563]]}, "layer3": {"weights": [[0.5113453651598928, 0.8268107544137342, -1.0999705388861525], [1.0831462171236792, -0.40264737282356855, 1.6530357037421015], [1.4173255466609573, 0.9971367733861978, -0.36981948625700256], [0.15147613322115566, -2.9175245896952418, 0.8760766601247695], [-1.4993863049399767, 0.41535055366531914, 2.10897033513646], [-1.2438446646164416, -1.5219567651998194, -1.1691588706673186]], "biases": [[-0.07479629763444198, -0.18853145400041774, -0.2338757557131595]]}}, {"layer1": {"weights": [[0.173474065672368, 0.5253778839475629, 1.035519464032558, 1.1792202700509598, -0.9246895504612729, -0.39621880036378304], [-0.2509021696651477, 1.0010268767549388, -1.0906203177820784, 1.450640650398197, -2.1448561047316286, 1.508211155928149], [-1.1074748226346989, -0.5236037184453504, -0.10129725964863151, 1.3200529022969523, 0.5685490358007077, 0.7761274455240929], [-1.4490195988616013, -1.196257070538695, 0.9419798776791601, 1.5748485435492348, -1.4710623107111616, -0.35777624126438184], [0.5851114518228444, 1.1525872706792433, 0.9282576592626142, -0.8004863845556383, -1.7281194292637887, 1.7980737743974111]], "biases": [[0.19941326957045796, 0.0874318670824302, -0.27216750291336167, -0.25457422814373554, -0.06247685040525085, -0.09704009243673473]]}, "layer2": {"weights": [[-0.7793884976223275, -0.419280964638777, 0.7559551958992685, 0.9365425073754908, 0.381450608813507, -0.43120457115622757], [-2.033400707013108, 0.33958238419898157, 0.3866368259136743, 0.6320193177918246, -2.16783128489507, -0.7330041137031476], [1.3394056320148962, 0.13074281208797944, -0.18944450933350526, -0.5341492141660327, 0.22673704705567216, -0.7968048236726362], [0.6982836836403707, -2.112234651399337, -0.16597862607446817, -0.5078885472828377, 2.2263720413363792, -1.0554830903754908], [-1.084628193791763, -1.304492191058076, -0.41313823307161485, 0.3985502232453695, 0.09550886224905, 1.6085003313301698], [-0.009957091370822783, -1.6226015077879818, 2.2610725155017435, 0.4467543749602982, -0.41979087440936685, -0.8501302280560094]], "biases": [[0.12741096392229478, 0.0028829386139128544, 0.2594363090117256, -0.010128189833559901, -0.021378970118597698, 0.07788700514530095]]}, "layer3": {"weights": [[0.5050472872930793, 0.8268106058606461, -1.0999343828857029], [1.073022198139119, -0.40091955637230486, 1.652924056349766], [1.2937837985005165, 1.017857548225861, -0.3698176202237733], [0.04512783348775409, -2.875348803221697, 0.8761000701090231], [-1.4993277108836436, 0.41535033195196575, 2.10896360605149], [-1.2438070509749108, -1.5219222387112201, -1.1705466957004136]], "biases": [[-0.07388157128782366, -0.18732420099422986, -0.23387574912896053]]}}, {"layer1": {"weights": [[0.04763776208983085, 0.5038420612889226, 0.9776447619883745, 1.1792028683495044, -0.9716298085570291, -0.3962407286548436], [-0.25112334990630225, 1.0566032529697633, -1.1253374946758794, 1.4322270107765345, -2.146778231675971, 1.5082111555866555], [-1.1062887825891305, -0.5491071705122748, -0.09942914962167936, 1.3200528484905076, 0.48505255210293136, 0.7995702356352532], [-1.4154530557747105, -1.205825610966203, 0.962546942731706, 1.5777173925717516, -1.3695156697443172, -0.3582721937138593], [0.6084681266051293, 1.1992278639932068, 0.9043045586168753, -0.7813862524729689, -1.7119365113673455, 1.8137934444494181]], "biases": [[0.19941381486994747, 0.10356772974090887, -0.2716073979431431, -0.25309123835509206, -0.06251969804749419, -0.0966071239536573]]}, "layer2": {"weights": [[-0.7794562237803369, -0.3544190002495937, 0.7659407734812466, 0.9419655231436335, 0.30385800736821855, -0.44422801254127525], [-2.0330721721053218, 0.2769599551901112, 0.39113356690182066, 0.6404263583498315, -2.1821708845190795, -0.7284090418393308], [1.3395300093027465, 0.13219986732312625, -0.20007774497923267, -0.5331055928154339, 0.22657466987215347, -0.779240376985577], [0.698490791667798, -2.1119304017045257, -0.16547333952586196, -0.5096611740651769, 2.2260055956556624, -0.9975670434943285], [-1.073371802539829, -1.3256866547007808, -0.40989175651176657, 0.3986721669028152, 0.09391437266677699, 1.594628153605424], [-0.01034876436621622, -1.6470316724598937, 2.237616316760951, 0.4533422266117011, -0.4192995753150126, -0.8781139635144555]], "biases": [[0.1274092224411384, -0.054607286495183816, 0.2588531237150691, -0.037251102670448635, -0.08910651108425877, 0.08040114945598612]]}, "layer3": {"weights": [[0.48146443931376226, 0.8268113252375636, -1.099096641013775], [1.0411504097600708, -0.4204348598395326, 1.6561722826092702], [1.4120523035225907, 1.0031881850591673, -0.37074052468356156], [0.17222803656560737, -2.9412539611113377, 0.8776683531309117], [-1.491601015784139, 0.41567039655544136, 2.0966955886493572], [-1.2454233513683004, -1.507783278807132, -1.1736849653223393]], "biases": [[-0.07213721291474678, -0.1877444523006926, -0.2354455289281211]]}}, {"layer1": {"weights": [[0.12887936134360228, 0.5038420612889226, 1.0560523278162262, 1.1792028683495044, -0.9716298085570291, -0.3962407286548436], [-0.25112334990630225, 1.0566032529697633, -1.1253374946758794, 1.4322270107765345, -2.146778231675971, 1.5082111555866555], [-1.1062887825891305, -0.5491071705122748, -0.09942914962167936, 1.3200528484905076, 0.5702072006964386, 0.7760724580688727], [-1.4154530557747105, -1.205825610966203, 0.962546942731706, 1.5777173925717516, -1.3695156697443172, -0.3582721937138593], [0.6084681266051293, 1.1992278639932068, 0.9043045586168753, -0.7813862524729689, -1.7119365113673455, 1.8137934444494181]], "biases": [[0.19941381486994747, 0.10356772974090887, -0.2716073979431431, -0.25309123835509206, -0.06251969804749419, -0.0966071239536573]]}, "layer2": {"weights": [[-0.7794562237803369, -0.3544190002495937, 0.7659407734812466, 0.9419655231436335, 0.30385800736821855, -0.44422801254127525], [-2.0330721721053218, 0.4206180138402323, 0.39113356690182066, 0.6404263583498315, -2.1821708845190795, -0.7284090418393308], [1.3395300093027465, 0.13219986732312625, -0.20007774497923267, -0.5331055928154339, 0.22657466987215347, -0.779240376985577], [0.698490791667798, -2.1119304017045257, -0.16547333952586196, -0.5096611740651769, 2.2260055956556624, -0.9975670434943285], [-1.073371802539829, -1.3256866547007808, -0.40989175651176657, 0.3986721669028152, 0.09391437266677699, 1.594628153605424], [-0.01034876436621622, -1.6470316724598937, 2.237616316760951, 0.4533422266117011, -0.4192995753150126, -0.8781139635144555]], "biases": [[0.1274092224411384, -0.07235282299201062, 0.2588531237150691, -0.18787405287074532, -0.08910651108425877, 0.08040114945598612]]}, "layer3": {"weights": [[0.48146443931376226, 0.8268113252375636, -1.099096641013775], [1.1034694668052207, -0.4204348598395326, 1.6561722826092702], [1.4120523035225907, 1.0031881850591673, -0.37074052468356156], [0.17222803656560737, -2.9412539611113377, 0.8776683531309117], [-1.491601015784139, 0.41567039655544136, 2.0966955886493572], [-1.2454233513683004, -1.7018538390640003, -1.1736849653223393]], "biases": [[-0.07213721291474678, -0.1877444523006926, -0.2354455289281211]]}}, {"layer1": {"weights": [[0.04520304929983772, 0.5035737401475927, 1.0507534759547206, 1.1792196091860179, -0.9716324611259666, -0.3962413816163696], [-0.25116572246138713, 1.001978717138504, -1.1253378522209707, 1.4419534903842273, -2.146783283708749, 1.5082111555826536], [-1.1059505362621667, -0.5359519977261392, -0.0994569350153359, 1.3200528453183034, 0.5702821743251472, 0.7760661823829216], [-1.52484551763746, -1.2007997335782665, 0.9437067969788338, 1.577558378264392, -1.368710011171372, -0.3561900877650551], [0.5882025519349647, 1.1765003331009982, 0.9184808791145144, -0.7904964618944696, -1.711925517300822, 1.7475618154909416]], "biases": [[0.19941298761015125, 0.10356772932039283, -0.27160739793907657, -0.25420369087784267, -0.06248820966627193, -0.0966071241695074]]}, "layer2": {"weights": [[-0.7794581995790726, -0.3544210042359845, 0.7608129545834741, 0.945144282876925, 0.31136560950481534, -0.43627601049374654], [-2.033044704791109, 0.4382568854838416, 0.3686806097745402, 0.6376848608670017, -2.1821708846127663, -0.7292182326030738], [1.4254232413048626, 0.1319558087037037, -0.1968533568930697, -0.5329734737358804, 0.22655862275444044, -0.7854890578301487], [0.6984880155361219, -2.0573772684241534, -0.16548252126788848, -0.5096617692418124, 2.2259663307770277, -0.9996489458689369], [-1.080774834950425, -1.304393124794347, -0.4098917790503158, 0.3986721733976756, 0.09389898714194717, 1.609769000247054], [-0.01039239019061457, -1.6467286449995513, 2.197067391731313, 0.4510130881463005, -0.41937509657694433, -0.8780858666874007]], "biases": [[0.1274091927360147, -0.07234621911707234, 0.25901020408838205, -0.03673287321911171, -0.08910651278553748, 0.0804011288397051]]}, "layer3": {"weights": [[0.49974011464589757, 0.8268112138227476, -1.0990695240134378], [1.0947949573618674, -0.41913899750108485, 1.6560885470650186], [1.4115826563753524, 1.02088564321711, -0.3707391251586396], [0.14557786516971807, -2.9027919109976708, 0.877685910619102], [-1.4915570702418892, 0.4156702302704263, 2.1030803266720794], [-1.1730412286063154, -1.5141540356079415, -1.1747258340971607]], "biases": [[-0.07145116815478303, -0.18683901254605167, -0.23544552398997187]]}}, {"layer1": {"weights": [[0.08179531319680736, 0.5033054190062628, 1.0454546240932152, 1.1792363500225314, -0.9716351136949042, -0.3137628117490691], [-0.2512080950164721, 0.9579206674387031, -1.125338209766062, 1.4516799699919205, -2.146788335741527, 1.5082111555786517], [-1.1056122899352026, -0.5227968249400037, -0.09948472040899245, 1.372999803411486, 0.5703571479538556, 0.7760599066969707], [-1.4747494271738133, -1.1957738561903302, 0.9626473796702253, 1.5773993639570323, -1.3679043525984265, -0.3541079818162508], [0.7714036307153178, 1.15377280220879, 0.9326571996121534, -0.7996066713159704, -1.7119145232342983, 1.820388923185297]], "biases": [[0.199412160350355, 0.10356772889987681, -0.27160739793501004, -0.25531614340059333, -0.06245672128504966, -0.09660712438535748]]}, "layer2": {"weights": [[-0.7794601753778083, -0.35442300822237527, 0.7556851356857017, 0.9483230426102167, 0.3188732116414122, -0.4283240084462179], [-2.033017237476896, 0.398352619936722, 0.38624977265688487, 0.7267506018713273, -2.182170884706453, -0.7300274233668169], [1.3395565690237041, 0.13171175008428113, -0.19362896880690672, -0.5710659283905692, 0.22654257563672742, -0.7917377386747204], [0.6984852394044458, -2.1121934382400847, -0.16549170300991498, -0.509662364418448, 2.225927065898393, -1.0017308482435454], [-1.088177867361021, -1.3256925020824464, -0.40989180158886496, 0.3986721798925359, 0.09388360161711734, 1.594629532985], [-0.01043601601501292, -1.6464256175392091, 2.2610422503535235, 0.4486839496809, -0.41945061783887605, -0.8780577698603459]], "biases": [[0.12740916303089095, -0.07233961524213406, 0.2591672844616951, -0.03621464376777478, -0.0891065144868162, 0.08040110822342408]]}, "layer3": {"weights": [[0.483818122646847, 0.8268111024079314, -1.0990424070131009], [1.0861204479185136, -0.4178431351626371, 1.6560048115207668], [1.4111130092281137, 0.997141546941829, -0.37073772563371765], [0.11892769377382878, -2.918971542952069, 0.8777034681072922], [-1.4915131246996394, 0.4156700639854113, 2.109465064694801], [-1.2453669309060045, -1.520524792408751, -1.1757667028719818]], "biases": [[-0.07076512339481927, -0.18593357279141076, -0.23544551905182265]]}}]