[{"layer1": {"weights": [[-0.08571063383325347, 0.5634046446344663, 1.0928071693705648, 1.1482566519789552, -1.0867902004046668, -0.19630965307288006], [-0.47548835884858776, 1.3041774356144484, -1.0225397951048687, 1.502240000804469, -2.318807072675491, 1.371935224183241], [-1.7573102699189653, -0.9063141408212283, 0.011285380822352548, 1.0871589641829795, 0.7755334756075521, 0.5567729147022034], [-1.600207231801491, -1.1999623855337394, 1.1139321891808325, 1.7715048290084994, -1.4070476566615504, -0.018316618018641165], [-0.08488047819322883, 0.9823556699230973, 0.9211343757398398, -0.6996569252599975, -1.3372417532611605, 1.6745714192797794]], "biases": [[0.3032836768309649, -0.014407667140368941, -0.35301236082004206, -0.07655415985166183, -0.4250315649933937, 0.10444686100820505]]}, "layer2": {"weights": [[-0.8680184290758901, -0.3213875178693062, 0.12020230935664931, 0.4644914945159624, 0.6327927706631427, -0.17823851378332223], [-1.9699297015922774, 0.4715309007298346, 0.6459420387589084, -0.14878101186133524, -2.7569721284224737, -0.8154230132988528], [1.3178411377065409, 1.083163747398928, -0.3481181617438114, -0.5940925347967851, -0.21732509853305312, -0.6398341449474276], [0.49358496122338624, -2.6122617840641387, 0.03323592877449898, -0.6282939860169061, 2.1595265230140734, 0.5770232184401318], [-0.645885891451631, -1.83709889293522, -0.7732020817312484, -0.1597964686968591, 0.28484441066848915, 1.8694579312793804], [0.11015840517898612, -1.4191774471389353, 2.4032122784700416, 0.23300266635085615, -0.7520693461825481, -0.38456621153490056]], "biases": [[0.021793903291134394, 0.01457214327797486, 0.4856241384907057, 0.20838014140066558, -0.12766054882885786, 0.33636148308561215]]}, "layer3": {"weights": [[0.586792299523452, 1.0277526435843567, -0.8073648106835012], [1.0711685598711853, -0.8660430886249242, 1.987446466393776], [1.6093189894291187, 0.6381802960304412, -0.31197922318903826], [0.08270791335489712, -3.696915923599824, 1.241825780136168], [-1.1625603318338347, 0.3089050313674008, 2.0981655548180713], [-1.5379603530524932, -1.651085616003622, -1.09860768292104]], "biases": [[-0.11253924713368596, -0.31047354049941833, 0.019276968823251132]]}}, {"layer1": {"weights": [[-0.0851723027040048, 0.5637675039017507, 1.0927959589957257, 1.1485493214255307, -1.0872538249654005, -0.19960056181314864], [-0.34439749855177615, 1.304268654681811, -1.022987271961492, 1.4991900816398398, -2.3179623881273415, 1.3720901094865392], [-1.7689987126983948, -0.9060459672682809, 0.009990747172124219, 1.082293415370172, 0.7797889616692152, 0.5567729147022034], [-1.68110274465405, -1.194408075731086, 1.1143056607448951, 1.7715265215844043, -1.416309127544624, -0.01835873328235543], [-0.08790661169273167, 0.9714651280332256, 0.921257267167499, -0.7176524170329329, -1.337215052242335, 1.6747128599728205]], "biases": [[0.2900216635203519, -0.017080954414956977, -0.35301219157313046, -0.07650758330599543, -0.4250748991079535, 0.10441920468236503]]}, "layer2": {"weights": [[-0.8678205322749715, -0.32087227780577693, 0.12149970921300762, 0.4642861764406248, 0.6331758389177888, -0.08255495965494043], [-1.9698979453892367, 0.4958403813554317, 0.6458796843297092, -0.14722193095669614, -2.7944327494232404, -0.8157674149715599], [1.3181894570217487, 1.0739636198101734, -0.35023949019661477, -0.5900622429309161, -0.2174446601729066, -0.6400820262436688], [0.4934786633352094, -2.6125026732725845, 0.0331862912306154, -0.6279969739213662, 2.154652307292613, 0.5770634272814475], [-0.6391644901517599, -1.836856702711901, -0.7734874590765115, -0.12798710630137927, 0.2849378699054663, 1.8382987688836165], [0.10004208018880126, -1.4175220181498283, 2.4032163168479808, 0.23318370470131425, -0.7520685147522557, -0.3914635705789682]], "biases": [[0.01187162197925945, 0.014018858460666753, 0.48555491861985156, 0.20836567673564324, -0.13922430967371807, 0.3527296607704619]]}, "layer3": {"weights": [[0.5921559226165646, 1.0276985744111182, -0.8059524128041313], [0.9762175190471793, -0.8664050534259944, 1.991810320823821], [1.6268080229190027, 0.6382876165197727, -0.3119741734992279], [0.11100191915552801, -3.6961922830781946, 1.24094073934444], [-1.1624084142256013, 0.30582998847476867, 2.0984967944357855], [-1.555554163632809, -1.6501590223757767, -1.10013082663083]], "biases": [[-0.11250996999902886, -0.31047354049941833, 0.019322869119487857]]}}, {"layer1": {"weights": [[-0.13572525960565557, 0.562028289041957, 1.0928197810422589, 1.1479273988515577, -1.0950783146217864, -0.1880012629024509], [-0.3544564980271135, 1.416550935238599, -1.0179946454778621, 1.5068836266906047, -2.304730196468946, 1.3717609782170304], [-1.7625079202646452, -0.906615836068294, 0.012522901676590252, 1.0988094097298768, 0.7345506690069189, 0.5567729147022034], [-1.6733161702399084, -1.2106430142763491, 1.113512033671262, 1.7391866582653348, -1.4341145671952635, -0.020469610737632243], [-0.08799062884540408, 1.040397973345851, 0.8831403572018756, -0.7324848040081322, -1.355841448939163, 1.6882437353566022]], "biases": [[0.32494338475111917, -0.026318728061606466, -0.37171725093490515, -0.07668336369027408, -0.42436954527939763, 0.09154881341990469]]}, "layer2": {"weights": [[-0.8421921469967806, -0.3151459367296199, 0.09268315757191392, 0.4186899777193207, 0.6191854504322586, -0.09988673249765827], [-1.9750577966220415, 0.4113878567017728, 0.6372090755522213, -0.15999166538381687, -2.666044938763828, -0.8150355614170572], [1.2485516653566775, 1.1144546966804791, -0.34263705706089154, -0.5952544423662625, -0.22447425234793528, -0.6042983502334195], [0.4937045463475852, -2.4408865026107334, 0.03387403566861158, -0.629128800914857, 2.1720509693390384, 0.5710862195665645], [-0.6821049121379319, -1.8274185166813766, -0.8361295998535384, -0.11844615036236784, 0.2332540485848321, 1.8699782638977025], [0.13526972613081512, -1.4177157751626683, 2.4944734089904483, 0.23275524284438925, -0.7583587534095149, -0.3559023374679464]], "biases": [[0.04607528289178346, 0.015194588697446477, 0.48570201084541653, 0.20839641414881574, -0.09856864147872399, 0.3527296607704619]]}, "layer3": {"weights": [[0.5921041653175714, 1.0276507484021127, -0.811087069108999], [0.9996851711000918, -0.8764742525235028, 1.9838302176729767], [1.5866181632951732, 0.6380856070852472, -0.31295237827359756], [0.06563751899872595, -3.708895870474125, 1.2428214510268618], [-1.1298648740996748, 0.3121930438825432, 2.095235474660601], [-1.5226175843682348, -1.8051661114481463, -1.0935482761359068]], "biases": [[-0.1125721839101752, -0.31047354049941833, -0.012134696180768532]]}}, {"layer1": {"weights": [[-0.11259689606483221, 0.5632232150008241, 1.0928127745579843, 1.1481103172556675, -1.1046412980829359, -0.1913142948208352], [-0.4215793902290286, 1.3023961526812409, -1.022470305031635, 1.5070723463500424, -2.3075593772344423, 1.3718577815315918], [-1.7706952287043307, -0.9064482275977019, 0.011673210829962513, 1.0940838863221023, 0.7647868122617829, 0.5567729147022034], [-1.6412104874745785, -1.208178679204661, 0.9478915901450633, 1.771493982720547, -1.4227540883193635, -0.01829556038678403], [-0.08642434588829842, 1.0260907666119583, 0.8915269665670071, -0.7278157600823001, -1.3407635406722997, 1.688332135789753]], "biases": [[0.30660532390279377, -0.014035682518800798, -0.3676336478402468, -0.07657744812449505, -0.42500989793611377, 0.06420453038704688]]}, "layer2": {"weights": [[-0.8420643150082968, -0.36656877278215727, 0.09902370946071856, 0.41919755493825284, 0.6212253113392353, -0.14125158221801165], [-1.969945579693798, 0.4355253398175706, 0.6652019148900472, -0.2034814613213699, -2.7029631245657746, -0.8152508124624993], [1.317666978048937, 1.107309228897051, -0.3447545318068861, -0.5945740839190499, -0.2172653177131264, -0.6122427266941148], [0.4936381101674747, -2.604886733533662, 0.033766789340766205, -0.6284424920646761, 2.165882786893204, 0.5729432608065089], [-0.671704381288203, -1.8289178909373094, -0.824421019621236, -0.16869338199595796, 0.2730398430995577, 1.874645767840593], [0.12536003809170404, -1.418178993087004, 2.4032102592810722, 0.2329121471756271, -0.7520697618976943, -0.37406572988251546]], "biases": [[0.03653697513671347, 0.014848785686628913, 0.48565874842613277, 0.20838737373317676, -0.11018217647939783, 0.34454557192803703]]}, "layer3": {"weights": [[0.5980947881200869, 1.027779678170976, -0.8095536821209351], [1.0289414922311324, -0.865862106224389, 1.9863617122787327], [1.6066276541808115, 0.6381266357857756, -0.325761818290071], [0.07563360878323142, -3.704179842106415, 1.2422683005320319], [-1.1312209176422614, 0.31303613660441637, 2.0980827449136425], [-1.5361781147255007, -1.6515489128175447, -1.0964951836745505]], "biases": [[-0.11255388570101452, -0.31047354049941833, 0.01925401867513277]]}}, {"layer1": {"weights": [[-0.11286606162945656, 0.563041785367182, 1.0928183797454039, 1.1479639825323797, -1.104409485802569, -0.18966884045070093], [-0.35635033649847847, 1.3023505431475595, -1.0222465666033234, 1.508597305932357, -2.3079817195085166, 1.2634074774095339], [-1.7648510073146162, -0.9065823143741756, 0.012320527655076678, 1.0965166607285062, 0.7606158817248525, 0.5567729147022034], [-1.600762731048299, -1.2109558341059876, 1.1135587176167698, 1.7714831364325945, -1.4181233528778268, -0.04373340418097883], [-0.087968213583368, 1.0315360375568943, 0.8914655208531775, -0.7188180141958325, -1.3407768911817124, 1.6882614154432325]], "biases": [[0.3132363305581003, -0.01269903888150678, -0.36763373246370257, -0.07660073639732826, -0.4249882308788338, 0.09298192981860473]]}, "layer2": {"weights": [[-0.8421632634087561, -0.3219027579328354, 0.09837500953253941, 0.41930021397592165, 0.6210337772119123, -0.18909335928220256], [-1.9699614577953182, 0.42337059950477196, 0.6652330921046468, -0.15904852338813813, -2.6842328140653917, -0.8724610281133832], [1.3174928183913328, 1.1119092926914285, -0.3436938675804844, -0.5965892298519844, -0.3135742809656865, -0.6121187860459942], [0.49369125911156314, -2.612020894855693, 0.03379160811270799, -0.628590998112446, 2.1683198947539344, 0.5687138223830451], [-0.6750650819381385, -1.8290389860489689, -0.9444916352147887, -0.16462531403217193, 0.27299311348106914, 1.890225349038475], [0.13041820058679646, -1.4190067075815573, 2.403208240092103, 0.23282162800039807, -0.7520701776128405, -0.37061705036048165]], "biases": [[0.04149811579265095, 0.015125428095282965, 0.4856933583615598, 0.20839460606568794, -0.10440029605696773, 0.33636148308561215]]}, "layer3": {"weights": [[0.5954129765735305, 1.0278067127575952, -0.8102598810606201], [1.0764170126431354, -0.8656811238238539, 1.9841797850637102], [1.5978831374358697, 0.6380729755411098, -0.31198427287884867], [0.06148660588291596, -3.70454166236723, 1.2427108209278959], [-1.131296876446378, 0.3145736580507324, 2.0914619854397745], [-1.527381209435343, -1.6520122096314676, -1.0957336118196555]], "biases": [[-0.11256852426834307, -0.31047354049941833, 0.01923106852701441]]}}, {"layer1": {"weights": [[-0.13415387187077887, 0.5634046446344663, 1.0928071693705648, 1.1482566519789552, -1.0864001951640434, -0.19630965307288006], [-0.3447138749696318, 1.3552512380250752, -1.0222017109374304, 1.502240000804469, -2.318807072675491, 1.371935224183241], [-1.7573102699189653, -0.9063141408212283, 0.011285380822352548, 1.0871589641829795, 0.7734902881014531, 0.5567729147022034], [-1.6330182953473469, -1.1999623855337394, 1.1139321891808325, 1.7715048290084994, -1.4070476566615504, 0.005601673489636751], [-0.08793741263804983, 0.9823556699230973, 0.9211343757398398, -0.7024726174063193, -1.3372417532611605, 1.6745714192797794]], "biases": [[0.3032836768309649, -0.014407667140368941, -0.35301236082004206, -0.07655415985166183, -0.4250315649933937, 0.10444686100820505]]}, "layer2": {"weights": [[-0.8753499993829396, -0.3148712046780918, 0.12020230935664931, 0.49912949068417856, 0.6354221994055543, -0.13222586999882852], [-1.9699297015922774, 0.4715309007298346, 0.6286420582902744, -0.14878101186133524, -2.7569721284224737, -0.8154230132988528], [1.3178411377065409, 1.0719057135311443, -0.3481181617438114, -0.5940925347967851, -0.23350852427299346, -0.664624447585428], [0.49358496122338624, -2.6122617840641387, 0.03323592877449898, -0.6282939860169061, 2.1595265230140734, 0.5817263506332511], [-0.645885891451631, -1.83709889293522, -0.8199926203574053, -0.13982371953533315, 0.2912915105942392, 1.8181516309455148], [0.11015840517898612, -1.4182643628656928, 2.4032122784700416, 0.23300266635085615, -0.7769848413518562, -0.37334347109363475]], "biases": [[0.021793903291134394, 0.01457214327797486, 0.4856241384907057, 0.20838014140066558, -0.12766054882885786, 0.34454557192803703]]}, "layer3": {"weights": [[0.586792299523452, 1.0277526435843567, -0.8073648106835012], [1.0318699182611475, -0.878225368504205, 1.987446466393776], [1.6093189894291187, 0.6381802960304412, -0.31197922318903826], [0.09175211879915576, -3.696915923599824, 1.2582607745394028], [-1.1625603318338347, 0.297921808258107, 2.0981655548180713], [-1.4016677933582227, -1.651085616003622, -1.09860768292104]], "biases": [[-0.11253924713368596, -0.31047354049941833, 0.019276968823251132]]}}, {"layer1": {"weights": [[-0.1085698318094525, 0.5623911483092413, 1.1355169756747605, 1.1482200682981332, -1.0774590292238841, -0.16739435415865753], [-0.3428200364982668, 1.304166033231028, -1.0182878739794075, 1.5005263215627167, -2.3155555496359206, 1.3719158635203286], [-1.7549671828689946, -0.9063476625153466, 0.011487754843866122, 1.0894517131843502, 0.7474250753835197, 0.5567729147022034], [-1.6727606709931004, -1.1996495657041009, 1.1138855052353247, 1.7392083508412397, -1.4230388709789872, -0.020511726001346507], [-0.08795982790008591, 0.9912176057120541, 0.9128092120885378, -0.7133237150722973, -1.3523063110186109, 1.6745537391931493]], "biases": [[0.31499073102398384, -0.028027356320468627, -0.3570958792912446, -0.07663678714460767, -0.42441287939395744, 0.10301374460950502]]}, "layer2": {"weights": [[-0.8680473126639145, -0.3146306966660906, 0.11451045739602383, 0.46388125825936144, 0.630944443883489, -0.08903188699877795], [-1.9750260404190008, 0.45954815792683534, 0.617918022206483, -0.149724153857014, -2.7387842531209103, -0.8153799630897645], [1.3191829495710012, 1.0857091513879786, -0.3470613512242185, -0.5927577473110632, -0.22459381398778872, -0.8176541519909032], [0.49359824845940836, -2.61545967084233, 0.03331835633040256, -0.6288317888193171, 2.163257597599178, 0.579395615623651], [-0.6529257216514244, -1.8354784235676278, -0.7850533506361823, -0.2152591017569, 0.24510534577225213, 1.8492108461386079], [0.11500993072300478, -1.4178865147200463, 2.24291209686233, 0.23293628119484733, -0.7583579219792225, -0.36985149864236533]], "biases": [[0.026371070390266912, 0.014641303880138373, 0.48563279097456247, 0.2083819494837934, -0.1218288942506141, 0.3527296607704619]]}, "layer3": {"weights": [[0.5834834882674929, 1.0275966792288742, -0.8081919987318801], [0.998062036131459, -0.876836217324573, 1.9870968990030424], [1.5980540152884224, 0.6381929275745788, -0.31294732858378715], [0.08685882647070711, -3.7012701317067194, 1.241936410235134], [-1.1163770903499621, 0.3065244171992116, 2.0954839043738867], [-1.533196727985385, -1.6513273793903196, -1.0964223472372914]], "biases": [[-0.1125429067755181, -0.31047354049941833, 0.01927123128622154]]}}, {"layer1": {"weights": [[-0.10910816293870118, 0.562028289041957, 1.0928197810422589, 1.1479273988515577, -1.0766053994225269, -0.19135116678436148], [-0.34313641291612246, 1.3040748141636656, -1.0175023129553458, 1.5035762407273459, -2.3829214306689366, 1.4331743923581113], [-1.7432787400895653, -0.906615836068294, 0.0077501159650715905, 1.0943172619971577, 0.759268049299395, 0.5567729147022034], [-1.6246762216863972, -1.1604605928854297, 1.113512033671262, 1.7725421761117595, -1.4137774000959138, -0.020469610737632243], [-0.08799062884540408, 1.0021081476019258, 0.9473949641309644, -0.716899178391327, -1.3523330120374366, 1.674412298500108]], "biases": [[0.32825274433459684, -0.02535406904588059, -0.35709604853815613, -0.07668336369027408, -0.5379868274039631, 0.10304140093534504]]}, "layer2": {"weights": [[-0.8755767797718828, -0.3086296235384055, 0.11729040007191757, 0.4640865763346991, 0.6305613756288428, -0.13870279734266605], [-1.9750577966220415, 0.4352386773012383, 0.6179803766356822, -0.20845442245347304, -2.701323632120144, -0.8150355614170572], [1.3188346302557932, 1.0949092789767334, -0.37897309324814765, -0.5967880391769322, -0.22447425234793528, -0.6814106556886967], [0.4937045463475852, -2.6152187816338843, 0.03336799387428613, -0.629128800914857, 2.168131813320638, 0.5840585389754546], [-0.6596471229512955, -1.8357206137909468, -0.7847679732909192, -0.10548116909948295, 0.21260185024424752, 1.906026192473473], [0.12512625571318964, -1.4186288594359109, 2.403885122980756, 0.23275524284438925, -0.7583587534095149, -0.3517313991570319]], "biases": [[0.03629335170214186, 0.015194588697446477, 0.48570201084541653, 0.20839641414881574, -0.11026513340575389, 0.34454557192803703]]}, "layer3": {"weights": [[0.5781198651743804, 1.0276507484021127, -0.8096043966112499], [1.0040850364042961, -0.8886565324027836, 1.9827330445729976], [1.5805649817985383, 0.6380856070852472, -0.31295237827359756], [0.06760902611433486, -3.7019937722283487, 1.2295136815373164], [-1.1612802470953647, 0.3095994600918437, 2.0951526647561725], [-1.5156029174050694, -1.7192451171203584, -1.0948992035275014]], "biases": [[-0.07191808435352226, -0.31047354049941833, 0.0030900776485804898]]}}, {"layer1": {"weights": [[-0.12402649505293173, 0.5627164668382116, 1.1141676777100822, 1.1480920254152565, -1.0999757124925447, -0.17685664536372392], [-0.35524522905386813, 1.3023904514895306, -1.0203443444689044, 1.5062155067291663, -2.3059336157146566, 1.3718481012001356], [-1.7695236851793452, -0.9064649884447611, 0.0117743978407193, 1.0952302608227877, 0.7507326121497667, 0.5567729147022034], [-1.6774872070703832, -1.2080222692898417, 1.1137221114260472, 1.755345743636917, -1.4307496954780818, -0.019393114378136702], [-0.16070272630852633, 1.0305217345064368, 0.8873643847413561, -0.7346491549884501, -1.3482958195510248, 1.6849332038321236]], "biases": [[0.31245885099930326, -0.020845527108850643, -0.3696754070758481, -0.07661876177096796, -0.4247005551363956, 0.0922515434563347]]}, "layer2": {"weights": [[-0.842078756802309, -0.31826672729946304, 0.09617778348040583, 0.41889243680995236, 0.6203011479494085, -0.09664826882573951], [-1.9724937491071595, 0.42953396841607094, 0.6511899066138345, -0.13826152457423815, -2.693869186914993, -0.8152292873579551], [1.318337883981167, 1.1085819308915763, -0.3442261265470896, -0.5939066901761889, -0.2208996754404942, -0.7866049322569064], [0.47508703249052703, -2.6137402828490117, 0.033808003118718, -0.6287113934658816, 2.167748324185756, 0.5699201253954627], [-0.6752242963880997, -1.8281076562535135, -0.830346654073703, -0.1964246985259784, 0.2531703106514392, 1.8645222252702067], [0.12778580086371336, -1.4175335268775593, 2.3230601684772165, 0.2328789545976227, -0.7858773012121482, -0.36670837343624785]], "biases": [[0.03882555868627973, 0.01488336598771067, 0.48566307466806113, 0.20838827777474067, -0.10726634919027596, 0.3527296607704619]]}, "layer3": {"weights": [[0.5964403824921072, 1.0277016959932346, -0.8099672761451246], [0.9923882303612692, -0.8712586705742134, 1.9861869285833658], [1.6009951671104634, 0.6381329515578442, -0.3124658007313179], [0.0777090653411364, -3.706356946159863, 1.242323615581515], [-1.1081292969003251, 0.3118458295203218, 2.09674191969155], [-1.5337963021919467, -1.6516697945108936, -1.0954025158326761]], "biases": [[-0.11255571552193058, -0.31047354049941833, 0.019251149906617974]]}}, {"layer1": {"weights": [[-0.13948315829641095, 0.563041785367182, 1.0928183797454039, 1.1479639825323797, -1.122492395761205, -0.18631893656879034], [-0.3676704216094695, 1.3006148697480333, -1.0224008149584014, 1.5119046918956158, -2.296311681793393, 1.3717803388799426], [-1.784080187489696, -0.9065823143741756, 0.012061040837572479, 1.1010088084612253, 0.7540401489160138, 0.5567729147022034], [-1.682213743147666, -1.2163949728755825, 1.1135587176167698, 1.7714831364325945, -1.4384605199771765, -0.018274502754926897], [-0.087968213583368, 1.0698258633008195, 0.8619195573941745, -0.7559745949046028, -1.3442853280834388, 1.7020928522997265]], "biases": [[0.30992697097462263, -0.013663697897232657, -0.3822549348604516, -0.07660073639732826, -0.4249882308788338, 0.08148934230316437]]}, "layer2": {"weights": [[-0.8161102009407035, -0.3219027579328354, 0.07784510956478782, 0.3739036153605433, 0.609657852015328, -0.10426465065270107], [-1.9699614577953182, 0.3995197789053065, 0.6844617910211859, -0.16775695401030194, -2.6489541207090754, -0.8150786116261457], [1.3174928183913328, 1.1314547103951742, -0.3413909018699608, -0.5950556330413145, -0.21720553689319966, -0.584651308440802], [0.49369125911156314, -2.612020894855693, 0.034297649907033434, -0.628590998112446, 2.172239050772334, 0.5604446351672743], [-0.697522871124775, -1.820736888939399, -0.8756399575112237, -0.17759029529505682, 0.26123527553062625, 1.8798336044018056], [0.14056167100442193, -1.4171805390350722, 2.403208240092103, 0.23282162800039807, -0.7520701776128405, -0.36356524823013037]], "biases": [[0.05128004698229255, 0.015125428095282965, 0.4856933583615598, 0.20839460606568794, -0.09270380412993781, 0.3527296607704619]]}, "layer3": {"weights": [[0.6093972767167216, 1.0278067127575952, -0.8117425535583691], [0.9867144245910795, -0.8656811238238539, 1.9852769581636893], [1.6039363189325044, 0.6380729755411098, -0.31198427287884867], [0.0685593042115657, -3.7114437606130064, 1.2427108209278959], [-1.0998815034506881, 0.31716724184143197, 2.097999935009214], [-1.5343958763985084, -1.6520122096314676, -1.0943826844280609]], "biases": [[-0.11256852426834307, -0.31047354049941833, 0.01923106852701441]]}}, {"layer1": {"weights": [[-0.08624896496250216, 0.563041785367182, 1.0928183797454039, 1.1479639825323797, -1.086326575843933, -0.1930187443326115], [-0.34503025138748744, 1.304086216547086, -1.0220923182482453, 1.5052899199690981, -2.3196517572236406, 1.3717803388799426], [-1.745621827139536, -0.9065823143741756, 0.01258001447258088, 1.092024512995787, 0.7671916145336912, 0.5567729147022034], [-1.519311718948932, -1.205516695336393, 1.1135587176167698, 1.7714831364325945, -1.397786185778477, -0.018274502754926897], [-0.087968213583368, 0.9932462118129689, 0.9210114843121806, -0.681661433487062, -1.337268454279986, 1.6744299785867383]], "biases": [[0.31654569014157796, -0.011734379865780905, -0.3530125300669536, -0.07660073639732826, -0.4249882308788338, 0.10447451733404509]]}, "layer2": {"weights": [[-0.8682163258768086, -0.3219027579328354, 0.118904909500291, 0.4646968125913, 0.6324097024084966, -0.27392206791170404], [-1.9699614577953182, 0.4472214201042375, 0.6460043931881077, -0.15034009276597432, -2.7195115074217076, -0.8150786116261457], [1.3174928183913328, 1.0923638749876827, -0.34599683329100805, -0.5981228266626542, -0.21720553689319966, -0.6395862636511864], [0.49369125911156314, -2.612020894855693, 0.033285566318382545, -0.628590998112446, 2.164400738735534, 0.576983009598816], [-0.652607292751502, -1.837341083158539, -0.7729167043859853, -0.15166033276928703, 0.28475095143151197, 1.9006170936751443], [0.12027473016917099, -1.4208328761280424, 2.403208240092103, 0.23282162800039807, -0.7520701776128405, -0.37766885249083293]], "biases": [[0.03171618460300934, 0.015125428095282965, 0.4856933583615598, 0.20839460606568794, -0.11609678798399764, 0.3199933054007624]]}, "layer3": {"weights": [[0.5814286764303396, 1.0278067127575952, -0.808777208562871], [1.1661196006951913, -0.8656811238238539, 1.9830826119637313], [1.5918299559392348, 0.6380729755411098, -0.31198427287884867], [0.054413907554266235, -3.6976395641214532, 1.2427108209278959], [-1.1627122494420679, 0.3119800742600328, 2.0978343152003567], [-1.5203665424721775, -1.6520122096314676, -1.0970845392112503]], "biases": [[-0.11256852426834307, -0.31047354049941833, 0.01923106852701441]]}}, {"layer1": {"weights": [[-0.17687826017342523, 0.5595320889672084, 1.0928071693705648, 1.1482566519789552, -1.1071334741081322, -0.19128479725001418], [-0.4023675748147221, 1.1759564377802891, -1.0071081857010882, 1.4938603242551456, -2.6316166307646904, 1.371935224183241], [-1.7537821431087963, -0.9063141408212283, 0.011447560083292674, 1.0938971857820583, 0.7646408094282071, 0.5567729147022034], [-1.6683802366273617, -1.1959339513138585, 1.1139321891808325, 1.7787551920269054, -1.475643249372834, -0.027118107581319682], [-0.08648320599112459, 1.012358142133989, 0.8878951668484614, -0.7407962932250896, -1.39748663378155, 1.698778604057641]], "biases": [[0.34348088694773404, -0.014142822337877177, -0.3610834938895443, -0.07686138075061194, -0.4225784896529287, 0.09870056725048487]]}, "layer2": {"weights": [[-0.8387087337993309, -0.3201678657895367, 0.09808360144232653, 0.46194789045188983, 0.5969419843886061, -0.1416713798569038], [-1.9902991787976503, 0.4357546698306364, 0.6402116375799207, -0.1517740393917307, -2.7029509377166026, -0.8154230132988528], [1.3233825448219867, 1.0887452995607534, -0.34495158389184144, -0.586738238920963, -0.24645974117192226, -0.6089332326415864], [0.49358496122338624, -2.625173775781127, 0.03354082022617153, -0.6302966911787804, 2.1720137134937607, 0.5677203828223896], [-0.6706845116008691, -1.8304959203531914, -0.8207498460236158, -0.16887028055045064, 0.200491039070315, 1.8776701166062746], [0.12450634485996828, -1.420490677154766, 2.405921829213624, 0.23282764490204994, -0.8079231415051927, -0.3740470012518567]], "biases": [[0.03514143103172699, 0.01457214327797486, 0.4856241384907057, 0.20838014140066558, -0.11011581093831299, 0.3510371353671613]]}, "layer3": {"weights": [[0.5762388660461714, 1.0271017515758076, -0.8099673639373317], [1.0311548061673101, -0.8606674663069313, 2.1892383170092558], [1.5730036096112752, 0.6382844824516568, -0.3158491199231285], [0.07728174694141796, -3.7139709357665898, 1.241825780136168], [-1.1567563636429057, 0.29784505324832805, 2.0981137986278036], [-1.5335036111936695, -1.6515893727364896, -1.0906279120409397]], "biases": [[-0.11253924713368596, -0.31047354049941833, 0.019276968823251132]]}}, {"layer1": {"weights": [[-0.18313544103755292, 0.563041785367182, 1.0928183797454039, 1.1479639825323797, -1.0855465653626861, -0.1930187443326115], [-0.34503025138748744, 1.304086216547086, -1.0214161499133687, 1.5052899199690981, -2.3196517572236406, 1.3717803388799426], [-1.745621827139536, -0.9065823143741756, 0.01258001447258088, 1.092024512995787, 0.7671916145336912, 0.5567729147022034], [-1.5849338460406437, -1.205516695336393, 1.1135587176167698, 1.7714831364325945, -1.397786185778477, 0.02956208026162893], [-0.087968213583368, 0.9932462118129689, 0.9210114843121806, -0.6872928177797056, -1.337268454279986, 1.6744299785867383]], "biases": [[0.31654569014157796, -0.011734379865780905, -0.3530125300669536, -0.07660073639732826, -0.4249882308788338, 0.10447451733404509]]}, "layer2": {"weights": [[-0.8828794664909076, -0.3088701315504067, 0.118904909500291, 0.5339728049277322, 0.6376685598933198, -0.1818967803427166], [-1.9699614577953182, 0.4472214201042375, 0.6114044322508396, -0.15034009276597432, -2.7195115074217076, -0.8150786116261457], [1.3174928183913328, 1.0923638749876827, -0.34599683329100805, -0.5981228266626542, -0.21720553689319966, -0.6891668689271873], [0.49369125911156314, -2.612020894855693, 0.033285566318382545, -0.628590998112446, 2.164400738735534, 0.5863892739850546], [-0.652607292751502, -1.837341083158539, -0.866497781638299, -0.15166033276928703, 0.46071964262056486, 1.7980044930074133], [0.12027473016917099, -1.4190067075815573, 2.403208240092103, 0.23282162800039807, -0.8019011679514567, -0.3552233716083013]], "biases": [[0.03171618460300934, 0.015125428095282965, 0.4856933583615598, 0.20839460606568794, -0.11609678798399764, 0.33636148308561215]]}, "layer3": {"weights": [[0.5814286764303396, 1.0278067127575952, -0.808777208562871], [1.0875223174751159, -0.8900456835824156, 1.9830826119637313], [1.5918299559392348, 0.6380729755411098, -0.31198427287884867], [0.07250231844278351, -3.6976395641214532, 1.2755808097343653], [-1.1627122494420679, 0.29001362804144537, 2.0978343152003567], [-1.2477814230836364, -1.6520122096314676, -1.0970845392112503]], "biases": [[-0.11256852426834307, -0.31047354049941833, 0.01923106852701441]]}}]