[{"layer1": {"weights": [[-0.3287821021238835, 0.2704135059502579, 0.8009844854109284, 1.2855471985466602, -0.9807993877844166, -0.4185289044638285], [-0.07227351094419729, 0.8513286171550787, -0.9475719119554267, 1.9032134185651104, -1.672225161124109, 1.7872083163310326], [-0.9886498828636636, -0.5660281407306407, -0.15127253950593583, 1.227501779049586, 0.4511629074959306, 0.7940297875437121], [-1.7293670905454768, -1.11924892754588, 0.6806213864027357, 1.6610539769130988, -1.3751502390379313, -0.3710756491227307], [0.4128379281002662, 1.3941010575127435, 0.5205913442191, -0.46262498689207937, -1.2685058316306175, 1.6206272057278204]], "biases": [[0.1957144144605531, -0.08847889071447398, -0.21481366769406893, -0.23824873873125196, -0.0068824489495926625, -0.12014226416921611]]}, "layer2": {"weights": [[-0.6592501984582212, -0.5806144552817118, 1.4740725574527382, 0.7750925935979107, 0.18944628298228416, -0.46070586018922705], [-1.978486361100974, 0.6396616319703012, 0.5217674531170701, 0.381560502135777, -1.735817908426784, -0.7448387569913238], [1.4033837425981157, 0.5989458666794873, 0.08012954116524285, -0.28668120669807257, 0.18468407360651098, -0.7234876387027838], [0.7194840760275781, -2.203521823416276, -0.3688051408563604, -0.30307688562801827, 1.952263574999614, -0.7251650239046404], [-0.7792847297243094, -1.2670109935110296, -0.13011658867312628, 0.17428958777464262, -0.21829627248947178, 1.6534357618800455], [-0.02436831468320339, -1.553399271427538, 2.3500159730939743, -0.04212385733187131, -0.33536058573048444, -1.1949766355028881]], "biases": [[0.14942558848214804, 0.021384271274001013, 0.18751557295242186, -0.03463309113359335, -0.027871430150201326, 0.1938910156467007]]}, "layer3": {"weights": [[0.9201963955958037, 0.9176698443774608, -1.1084571728500079], [0.8962502258774631, -0.5691746636822669, 1.311683639129578], [1.2703138800497196, 1.0747534474779052, -0.37417490384000873], [0.14518399036169566, -3.146217169009224, 0.9142105211054526], [-1.349180804609428, 0.39441168105714386, 1.994065403708845], [-0.9054355947865711, -1.0842962532720255, -1.1337292199312619]], "biases": [[-0.19154337486940848, -0.23353174564129017, -0.11362235861584687]]}}, {"layer1": {"weights": [[-0.3287698689423869, 0.26560533965127353, 0.7751088766765206, 1.2855795092384632, -0.9843261415029166, -0.40579257229763777], [-0.10612925924636232, 0.851410897826991, -0.9476339618246501, 1.8860598468805971, -1.672301108871005, 1.740775309801932], [-0.9861826768835593, -0.5663719227667721, -0.14692775597605107, 1.2315259604453797, 0.450008779896271, 0.7940297884537384], [-1.7185226711769568, -1.1224626456429312, 0.6803779139878707, 1.6617219090358026, -1.24619134829052, -0.3514477842968944], [0.4094483392483017, 1.3533414172002567, 0.49864796422105173, -0.45662700705944426, -1.2719529407474108, 1.6208644549180047]], "biases": [[0.1957181659677444, -0.08977643520432756, -0.21472646408422386, -0.2350695049088365, -0.006880570836685827, -0.12132263790770365]]}, "layer2": {"weights": [[-0.6607001270933881, -0.6065428227729204, 1.433568510748779, 0.7683004728585261, 0.18079082059508533, -0.4584249975547071], [-1.884680415070027, 0.6134199045897398, 0.5376409308258212, 0.37912463601138924, -1.7341768245104467, -0.7486312863113749], [1.4043590820115974, 0.5843291811043518, 0.10292784570793327, -0.30222538792537545, 0.18045208057870196, -0.7443221863080274], [0.7194862243994821, -2.325141683679893, -0.35878939906843166, -0.3018105387338577, 1.9535004614477174, -0.7255811654080729], [-0.9023173397964546, -1.279527201530014, -0.06342512724651751, 0.23178518718877889, -0.23246855693180127, 1.6536263410970282], [-0.024367165476293213, -1.6688729719266842, 2.3441989860409436, -0.04360668211692752, -0.4070506590442333, -1.1992347847607365]], "biases": [[0.1494257131114244, 0.022389311616668486, 0.1860166943325297, -0.03457770080938055, -0.07798907002860272, 0.19331247533236431]]}, "layer3": {"weights": [[0.941292295125052, 0.9180708053753993, -1.1087433382272271], [0.9321011811460169, -0.5834757776263506, 1.3086425932350227], [1.2724153577608424, 1.0747493998553495, -0.3741749588462763], [0.08578888052360822, -3.1630853758382074, 0.8881387689778969], [-1.349814193876133, 0.31525524620976203, 1.9940840950816023], [-0.9061793927034947, -1.0842973135521217, -1.150652768550493]], "biases": [[-0.1910992401986341, -0.23353137330844434, -0.11644163157573333]]}}, {"layer1": {"weights": [[-0.2288300861342178, 0.26560533965127353, 0.7751088766765206, 1.2855795092384632, -0.9843261415029166, -0.40579257229763777], [-0.10612925924636232, 0.851410897826991, -0.9476339618246501, 1.8860598468805971, -1.672301108871005, 1.740775309801932], [-1.0472442088734615, -0.5663719227667721, -0.14692775597605107, 1.2315259604453797, 0.450008779896271, 0.7940297884537384], [-1.7185226711769568, -1.1224626456429312, 0.6803779139878707, 1.6617219090358026, -1.24619134829052, -0.37107565591701086], [0.4094483392483017, 1.3533414172002567, 0.49864796422105173, -0.45662700705944426, -1.2719529407474108, 1.6208644549180047]], "biases": [[0.1957181659677444, -0.08977643520432756, -0.21472646408422386, -0.2350695049088365, -0.006880570836685827, -0.12132263790770365]]}, "layer2": {"weights": [[-0.6607001270933881, -0.6065428227729204, 1.433568510748779, 0.7683004728585261, 0.18079082059508533, -0.4584249975547071], [-2.010293597779417, 0.6134199045897398, 0.5376409308258212, 0.37912463601138924, -1.7341768245104467, -0.6033656461839809], [1.4043590820115974, 0.5843291811043518, 0.10292784570793327, -0.30222538792537545, 0.18045208057870196, -0.8718192282278128], [0.7194862243994821, -2.201935980749173, -0.35878939906843166, -0.3018105387338577, 1.9535004614477174, -0.7255811654080729], [-0.8455807663876251, -1.279527201530014, -0.06342512724651751, 0.23178518718877889, -0.23246855693180127, 1.6536263410970282], [-0.024367165476293213, -1.6688729719266842, 2.3441989860409436, -0.04360668211692752, -0.3390629729805854, -1.1992347847607365]], "biases": [[0.1494257131114244, 0.022389311616668486, 0.1860166943325297, -0.03457770080938055, -0.027447674591619682, 0.19331247533236431]]}, "layer3": {"weights": [[0.941292295125052, 0.9180708053753993, -1.1087433382272271], [0.8847443335936763, -0.5834757776263506, 1.3086425932350227], [1.2724153577608424, 1.0747493998553495, -0.3741749588462763], [0.06715958329911598, -3.178510106943151, 0.8881387689778969], [-1.1989327567043628, 0.39446203130646673, 1.9940840950816023], [-0.9133005888051087, -1.0842973135521217, -1.150652768550493]], "biases": [[-0.1910992401986341, -0.23353137330844434, -0.11644163157573333]]}}, {"layer1": {"weights": [[-0.3287691220387997, 0.2790444572663109, 0.8011338601955953, 1.2855824313392166, -0.9827623764594786, -0.41827343222212715], [-0.0877875674180977, 0.8514165819860793, -1.0394613471898408, 1.887438513890118, -1.6723080589486243, 1.7630314122214], [-0.9864215330885624, -0.566291107171786, -0.14673490434785508, 1.2317008160134313, 0.4313786885337862, 0.7945169804833195], [-1.7238431752618102, -1.1205799568410364, 0.6803596572655772, 1.6632559020191526, -1.2946234240751864, -0.3710756494912023], [0.4090296542905587, 1.3566015207837692, 0.5329024364416673, -0.458007659879596, -1.2736884507235502, 1.7897814993871237]], "biases": [[0.1957187472989224, -0.0904594389045157, -0.21471192948155782, -0.2349670171344559, -0.006880253149634981, -0.12155830424585719]]}, "layer2": {"weights": [[-0.7809719537456552, -0.5833866128843763, 1.4310033193157947, 0.764230291926796, 0.18193001713946794, -0.45831695027056596], [-1.9819583291322496, 0.6315282996686598, 0.5216795795505748, 0.37512736818642367, -1.6260403491189148, -0.7486409780870082], [1.405694559548118, 0.5888325335967548, 0.08021161375502353, -0.30153734973976054, 0.18077179882707423, -0.7422369809158225], [0.7194865824608752, -2.202316195262192, -0.3632150936891399, -0.3026611361756272, 1.953397659894533, -0.7213576926841663], [-0.8067423672167509, -1.2764151666164771, -0.05902685063782284, 0.20590354734252725, -0.21822060448373254, 1.6567608606576836], [-0.024366973452030247, -1.6551408545127932, 2.344772165170287, -0.0430793972023165, -0.3386612689231377, -1.199916104258629]], "biases": [[0.14942573485635002, 0.022278876793755276, 0.18679297242891751, -0.03456846886834248, -0.027427648031895954, 0.19337003499906752]]}, "layer3": {"weights": [[0.9442917600478211, 0.8233258406033307, -1.108790749778327], [0.8839390534722742, -0.5829887615284941, 1.2994692498646838], [1.266254438275313, 1.0747491154699218, -0.374174971350566], [0.14297974378310607, -3.1633056497931302, 0.9055031390784829], [-1.349743782310295, 0.39446594752932074, 1.99408721025828], [-0.907128581406125, -1.0842974344747005, -1.1262975758053972]], "biases": [[-0.19107422141957242, -0.23353141022002938, -0.10396367111651558]]}}, {"layer1": {"weights": [[-0.328756141953716, 0.28767540858236385, 0.8012832349802621, 1.285617664131773, -0.9847253651345407, -0.4180179599804258], [-0.10330162389199811, 0.8515045468170798, -0.947727995826646, 1.8716636092151255, -1.6723909567731399, 1.7388545081117672], [-0.9841931833134612, -0.5665540736129313, -0.14219726918977432, 1.2358998529772767, 0.4498190494769876, 0.795004173422927], [-1.7183192599781436, -1.121910986136193, 0.6800979281284187, 1.6654578271252065, -1.2140966091124414, -0.37107564985967384], [0.40522138048085116, 1.3191019840547948, 0.5057783515953787, -0.4533903328671126, -1.278871069816483, 1.6211805803904737]], "biases": [[0.19572308013729176, -0.09243998709455742, -0.21461019126904674, -0.2316852955376598, -0.006878057349677298, -0.12297434432249826]]}, "layer2": {"weights": [[-0.6618673485796069, -0.5861587704870408, 1.3879340811788514, 0.7533679902556814, 0.1744137512966517, -0.4559280403519048], [-1.9854302971635254, 0.6233949673670183, 0.5215917059840794, 0.36869423423707026, -1.726744607230283, -0.7524431991826926], [1.4080053764981202, 0.5787192005140221, 0.08029368634480422, -0.31639349278144857, 0.1768595240476375, -0.7705413440706852], [0.7194890888941723, -2.2011105671081084, -0.3576250465219194, -0.30224538672323614, 1.954531744789452, -0.7175503614636922], [-0.8342000047091924, -1.2858193397219246, -0.005499375129435158, 0.23751750691041185, -0.21814493647799327, 1.6600859594353214], [-0.0243656322208571, -1.7568824375980485, 2.3395283572466004, -0.0440349370727617, -0.34196195211579095, -1.20485557301437]], "biases": [[0.149425881230552, 0.02317348231350954, 0.18607037190541315, -0.03450384660309161, -0.02698386591359058, 0.19284905435143437]]}, "layer3": {"weights": [[0.9683871244998387, 0.9207588956791755, -1.1091243267066457], [0.8716278810670854, -0.5968028593747214, 1.2872548605997896], [1.2621949965009065, 1.0747447834619384, -0.3741750388611233], [0.1407754972045165, -3.1803941305770365, 0.8967957570515133], [-1.350306760011162, 0.39452021400149756, 1.9941090168077151], [-0.9088215680256787, -1.0842986156773757, -1.1188659316795326]], "biases": [[-0.19060506796973636, -0.23353107479876856, -0.11644195159435633]]}}]