[{"layer1": {"weights": [[-0.3820349304571027, -0.6215291436499712, 0.09156998626551935, 0.5384471669596462, -0.20263409816156772, -0.3092859181712968], [1.0513505856952872, 0.3020741678003329, 0.35576862419789723, 0.7446015560596904, 0.02822473820456858, 0.621070854040897], [0.9114407707916587, 0.17673959451873028, 0.1939835455703661, -0.8216203714998876, 0.48052578988815287, 0.3441447983051812], [-1.1684658539639892, -0.14574961848092682, 0.06539989977047606, 0.20566401364716877, 0.026334996663302617, 0.017093271262430675], [-0.7436159162383575, 0.18821350561580558, -0.014810772257176471, 1.8590044521887399, -0.939567875254839, 0.10575223148985838]], "biases": [[-0.011622457761219802, 0.005253698601068465, 0.12342734371740766, -0.08485765743234502, -0.09388210918305284, -0.04495090932847896]]}, "layer2": {"weights": [[-0.8685189563686091, 0.14122924530053926, 0.29653248787741915, 0.18888870601299695, -0.13055931203435905, 0.5084007846468961], [-0.16855777755283835, 0.863626990005611, -0.5756058598512646, -1.4477357084357894, -0.002239066790847165, -0.23530162690027737], [0.8328313623033358, 0.016393394009979242, 0.07650641386896183, -0.7956347092164355, 0.16533961226748992, -0.7133146551986104], [0.4910326281689805, -0.4210566525077416, 0.6578581357664117, -0.2763704735767723, -0.1719253342479724, 0.5679643312943363], [1.3763094873485415, 0.3607431348870688, 0.24162136549888877, -0.4826638329956796, -0.04415566464199738, 0.3495886795880502], [-0.08178792629119382, -0.07716583985259928, 0.11410539248640214, 0.1826592390990614, 0.1657575117443335, -0.38241112412129724]], "biases": [[-0.013775609398560425, -0.06575059349664708, -0.08346877166412633, -0.05741663275566733, 0.009108089017187161, -0.11541592714987972]]}, "layer3": {"weights": [[-0.220226668700268, 0.4748541875600458, -1.1732114457291], [-0.28785163997166463, -0.09298467810286627, -0.36939758276092116], [-1.4875804670830104, 0.7081456953707668, -0.29207196779937095], [-0.6048881289380046, -0.32774724115831966, -0.30020049240287455], [0.7326141813224786, 0.4281331479148688, -0.6518470408576327], [-0.14274027090078545, 0.8907076739026709, 0.471879430154533]], "biases": [[0.19067687701302308, 0.0012786335966000705, -0.0896039728231049]]}}, {"layer1": {"weights": [[-0.24168864558275646, -0.7728709079813652, 0.05034639760664092, 0.524560265598855, -0.20323767007863142, -0.3800065396364183], [1.098234674775929, 0.3050620070389526, 0.3617237211252041, 0.7144785079604111, 0.02699401140709772, 0.615790442869425], [0.8958814265294736, 0.12045918846192813, 0.19552904480655026, -0.8232154343248224, 0.4753224652639966, 0.318378262861269], [-1.1399451939772371, -0.14574329076176906, 0.08009519681208283, 0.20637229142391766, 0.041843527982938375, 0.04430939172298979], [-0.7795838834062303, 0.1689302196802488, -0.020483751092762445, 1.950559771969655, -0.939428871357423, 0.10702215495408507]], "biases": [[-0.011589726086771201, 0.003978040344639122, 0.12962052076447597, -0.1605545941694206, -0.09378969456090974, -0.044969405559913564]]}, "layer2": {"weights": [[-0.8265561480236598, 0.08980654049437212, 0.20177459483642934, 0.18102410622817083, -0.12309164036597328, 0.5037683084345013], [-0.1323338832290042, 0.8807248061993707, -0.49956871402990993, -1.4479315904467842, 0.014513001375773995, -0.17026028782985553], [0.8350837022777611, 0.01667379912990196, 0.07409334172491285, -0.7930563197485541, 0.19625203413014825, -0.71603851817138], [0.49277289599012103, -0.4163204038224017, 0.6282780954965053, -0.30313229559878796, -0.19671025022898672, 0.6339301838083828], [1.3807397096791096, 0.3686253108117461, 0.32687557277731843, -0.5230211157099321, -0.1384862597587119, 0.38767654574205135], [-0.0809662369477301, -0.3878524919374033, 0.12931555382989493, 0.21316082428801592, 0.18162061637433338, -0.3848379405999728]], "biases": [[-0.013610440463013688, -0.06576386535674386, -0.08327312001243596, -0.056181533477140375, 0.011780671329796565, -0.11541578121138292]]}, "layer3": {"weights": [[-0.22568358781441872, 0.4569450383670837, -1.174513533597691], [-0.3379524389502802, -0.09260913472326548, -0.36809865471520964], [-1.4913843842634213, 0.7383456069078093, -0.2866417919086922], [-0.6075283263338938, -0.29942662787249463, -0.2394170124653954], [0.7766181494737452, 0.3928463129472568, -0.6620373493769665], [-0.14663202013782667, 0.8964557300357605, 0.42047362834567065]], "biases": [[0.19092782302819925, 0.001138711830042425, -0.08959631342902649]]}}, {"layer1": {"weights": [[-0.24213187380204657, -0.595331591756061, 0.05033074635626531, 0.5315037162792506, -0.2946900656774476, -0.37779239593058295], [1.0676302523103398, 0.2968414426932743, 0.3587461726615507, 0.704974238168012, 0.03284658982615626, 0.7447099274242138], [0.8357592762816671, 0.2498044803232183, 0.19475629518845816, -0.822417902912355, 0.4779241275760747, 0.3438204636329175], [-1.1369138640742342, -0.14574645462134794, 0.07274754829127944, 0.2618775204588099, 0.0340892623231205, 0.05522859543324524], [-0.7515654090848456, 0.17857186264802716, -0.01764726167496946, 1.8698550426642522, -0.9394983733061311, 0.10638719322197172]], "biases": [[-0.0116060919239955, 0.004615869472853794, 0.11852694637081648, -0.15159849585735102, -0.09383590187198129, -0.044960157444196264]]}, "layer2": {"weights": [[-0.8679121978127284, 0.08995743814652232, 0.2934804502805498, 0.10104918354113662, -0.11430228629002678, 0.5060845465406987], [-0.15044583039092127, 0.8721758981024909, -0.5438928248640393, -1.4478336494412867, 0.015508134677610575, -0.2585150532840098], [0.8339575322905484, 0.0165335965699406, 0.11688942369596977, -0.7943455144824948, 0.18476067909711902, -0.7146765866849951], [0.49190276207955075, -0.38012021929262735, 0.6616899536805562, -0.29551607434408156, -0.17109352914118497, 0.598575821846623], [1.3785245985138257, 0.3598012144130594, 0.3356286628504473, -0.4761599121037752, -0.1305267503797706, 0.3989526653578019], [-0.08137708161946196, -0.38795155530982517, 0.1288029917281292, 0.1459549716395756, 0.16343929544732205, -0.4602941317505922]], "biases": [[-0.013693024930787057, -0.06575722942669547, -0.08337094583828114, -0.08755233011383927, 0.010444380173491863, -0.1269724749602636]]}, "layer3": {"weights": [[-0.24972065975967936, 0.45211707710975113, -1.1738624896633956], [-0.3166236492982637, -0.10924482689222521, -0.3687481187380654], [-1.4817308778276224, 0.7384625506158107, -0.2900909609160023], [-0.6062082276359492, -0.3265864173974293, -0.2729382962234481], [0.7754045339872869, 0.40014581085406364, -0.6569421951172996], [-0.14112282926824238, 0.850627423151984, 0.4713840673100621]], "biases": [[0.19800432690959607, 0.0012086727133212476, -0.12093014275732025]]}}, {"layer1": {"weights": [[-0.24391115154818857, -0.5248372535260138, 0.05006024426892004, 0.5555059460945986, -0.20233231220303588, -0.23294773090794596], [0.8940393121996748, 0.3073068929073915, 0.36937583105783084, 0.7292495192494886, 0.023602886582980907, 0.6174170837493049], [0.8711391412647758, 0.22860450605898994, 0.19321079595227403, -0.7641062036521733, 0.4756810661416535, 0.3611342920303098], [-1.2916971940251274, -0.1457527823405057, 0.05805225124967268, 0.1425741733462663, 0.018580731003484736, 0.019833633291728353], [-0.7047446111023735, 0.2171837434374897, -0.027694842744473494, 1.8613155910357384, -0.828071472866427, -0.13031835580280965]], "biases": [[-0.011638823598444101, 0.005891527729283137, 0.12832774106399883, -0.09698966355785998, -0.09392831649412439, -0.04494166121276165]]}, "layer2": {"weights": [[-0.8587974668391556, 0.12401157764592632, 0.2995845254742885, 0.21056521100422826, -0.17047158018601213, 0.5107170227530935], [-0.14348649281232329, 0.8550780819087312, -0.5442337879181204, -1.4558308476632686, -0.002080708575603444, -0.24735499574407235], [0.8317051923161232, 0.1044637808186186, 0.048287969763846375, -0.7974655926411107, 0.11917486706909272, -0.7119527237122256], [0.49016249425841024, -0.4507092153431811, 0.6540263178522673, -0.12132907684938021, -0.15115523547834103, 0.6602339658398997], [1.3740943761832574, 0.34320987726352753, 0.4059280718080089, -0.48916775388758404, 0.010109039918634592, 0.36379938479488527], [-0.08117105605908426, -0.388149682054669, 0.1284045449560503, 0.13255946621533127, 0.16400244062299457, -0.3811977158819595]], "biases": [[-0.013858193866333794, -0.0657439575665987, -0.08356659748997153, -0.050521845296542724, -0.00563914789682759, -0.11541600011912811]]}, "layer3": {"weights": [[-0.31400079402215164, 0.4965677190883018, -1.1725604017948046], [-0.2952163690148645, -0.04417793639734806, -0.39757342959216], [-1.4856785084928048, 0.7064026662710281, -0.2934379966702677], [-0.5189686981910113, -0.39890753293747483, -0.29629418898244764], [0.7959599011605877, 0.47184156288914997, -0.580308471016437], [-0.14079439628226484, 0.929927842788229, 0.46652283989006565]], "biases": [[0.18334942711645008, 0.0013485944798788932, -0.08960780252014411]]}}, {"layer1": {"weights": [[-0.24302151267511757, -0.5248567691983999, 0.016512186396276038, 0.5435048311869246, -0.20263409816156772, -0.3732907642272694], [0.9285623157587923, 0.30880081252670133, 0.3579002500149526, 0.7293947756297696, 0.14463324388421606, 0.6239505557967486], [0.8510200358463458, 0.13528734130797893, 0.1939835455703661, -0.7649037350646406, 0.48052578988815287, 0.3608099573580461], [-1.2553557052795594, -0.14574961848092682, 0.07702427788654248, 0.14945111865228147, 0.026334996663302617, -0.015217675185984936], [-0.7327630854237581, 0.19787780304275843, -0.030531332162266483, 1.9458281177827415, -0.8280019709177191, 0.10501793698425008]], "biases": [[-0.011622457761219802, 0.005253698601068465, 0.13260555441559269, -0.09623824945502987, -0.09388210918305284, -0.04495090932847896]]}, "layer2": {"weights": [[-0.8633548323259419, 0.09010833579867253, 0.13813340333331872, 0.19776080856240608, -0.16743331305829823, 0.5084007846468961], [-0.1469661616016223, 0.863626990005611, -0.5440633063910798, -1.4518322485522777, -0.002657454334143595, -0.22018543552497497], [0.8328313623033358, 0.016393394009979242, 0.04708143369182188, -0.7959055535618027, 0.179255487522126, -0.7133146551986104], [0.4910326281689805, -0.4080439246336027, 0.6187843237747408, -0.2763704735767723, -0.1719253342479724, 0.6509728668839054], [1.3763094873485415, 0.3607431348870688, 0.3707783673292281, -0.5296974341921593, -0.045466475843855256, 0.35461294979145275], [-0.0812740688392731, -0.3880506186822471, 0.12860376834208975, 0.16523474895443496, 0.17690052007165116, -0.38241112412129724]], "biases": [[-0.013775609398560425, -0.06575059349664708, -0.08346877166412633, -0.05772540752179959, -0.00363058879564761, -0.12633740935314652]]}, "layer3": {"weights": [[-0.23239574403451282, 0.5019074698066537, -1.1732114457291], [-0.15163936112103724, -0.04399016470754767, -0.23791973482796658], [-1.4875804670830104, 0.7385794943238122, -0.29176447879313505], [-0.4865957739832498, -0.32691051108501057, -0.44899216825176036], [0.7914278671104916, 0.446337606448606, -0.5854036252761039], [-0.14274027090078545, 0.92888057322292, 0.471879430154533]], "biases": [[0.22335143752770173, 0.0012786335966000705, -0.0896039728231049]]}}]