[{"layer1": {"weights": [[-0.2523846682640821, 0.2980643871368334, 0.7985924539491198, 1.2565231453603931, -0.9975726018325664, -0.3759841137737946], [-0.1798844544209662, 0.8344254506820629, -0.9233071983184022, 1.8312862395119602, -1.6452014822799355, 1.7395627410076726], [-0.9211199274931056, -0.49441108099060416, -0.22555071157494977, 1.2232666375465835, 0.4973279824101865, 0.797932755423586], [-1.65109149746582, -1.1435609092395567, 0.7142370948050574, 1.7446663448874236, -1.2597229832101866, -0.38927715718184264], [0.4144921255025402, 1.361534006303995, 0.5001630288166325, -0.4180816312917284, -1.3756954620035924, 1.599700509929658]], "biases": [[0.1867973351959292, -0.13566837097522805, -0.22537521788997297, -0.26013890231667686, -0.0066881489070491715, -0.09747349259304502]]}, "layer2": {"weights": [[-0.5922957127671931, -0.6076286412203464, 1.5369349779876968, 0.6450323897623107, 0.21304524735048458, -0.46611539169522204], [-2.0317749262689797, 0.6215810260382337, 0.4491987057776159, 0.4029588761282872, -1.7000373491240204, -0.7018739410690213], [1.4068355933395729, 0.5428620596347065, 0.06545016994398065, -0.2701523701611124, 0.16126340754785518, -0.6643248082338611], [0.7192248499429112, -2.2267037473640277, -0.36299782131755853, -0.2346563100948858, 1.9397948822240172, -0.6735146327359275], [-0.8320250149623158, -1.3030193420942935, -0.120532989317765, 0.29812844956937967, -0.18469577748942445, 1.6807035390504304], [-0.027516397832476266, -1.5668952443475541, 2.3419532039039366, -0.06587491410298932, -0.3557306244267764, -1.245652519076332]], "biases": [[0.14895014726443467, -0.007267852628085632, 0.18880559694431498, -0.03297295870173503, -0.009572668987680333, 0.20866039105572004]]}, "layer3": {"weights": [[0.9746654701184964, 0.9152255451470451, -1.1049603544494597], [0.9387594014752729, -0.6696362193448984, 1.2084955599451643], [1.2010931826020839, 1.0753684136813968, -0.3738817071692207], [0.1368214115826718, -3.114900036778617, 0.918435455361084], [-1.350980617968788, 0.38471749032989944, 1.9918109298937035], [-0.8829064396676681, -1.0830120520355493, -1.0899735971972058]], "biases": [[-0.20989638628887147, -0.23303288865923605, -0.1185154483783606]]}}, {"layer1": {"weights": [[-0.2523846682640821, 0.2980643871368334, 0.7985924539491198, 1.2565231453603931, -0.9975726018325664, -0.3759841137737946], [-0.1798844544209662, 0.8766000520225112, -0.9233071983184022, 1.8312862395119602, -1.6452014822799355, 1.7395627410076726], [-0.9211199274931056, -0.387609142736809, -0.22555071157494977, 1.2232666375465835, 0.4973279824101865, 0.797932755423586], [-1.65109149746582, -1.1435609092395567, 0.7142370948050574, 1.7446663448874236, -1.2597229832101866, -0.38927715718184264], [0.4144921255025402, 1.361534006303995, 0.5001630288166325, -0.4180816312917284, -1.3433078168556458, 1.6723575650505147]], "biases": [[0.1867973351959292, -0.13566837097522805, -0.22537521788997297, -0.26013890231667686, -0.0066881489070491715, -0.09747349259304502]]}, "layer2": {"weights": [[-0.5922957127671931, -0.6076286412203464, 1.5369349779876968, 0.6450323897623107, 0.21304524735048458, -0.46611539169522204], [-2.0317749262689797, 0.6215810260382337, 0.4491987057776159, 0.2220073222833291, -1.7000373491240204, -0.7018739410690213], [1.4068355933395729, 0.5428620596347065, 0.06545016994398065, -0.2701523701611124, 0.16126340754785518, -0.6643248082338611], [0.7192248499429112, -2.2267037473640277, -0.36299782131755853, -0.2346563100948858, 1.9397948822240172, -0.6735146327359275], [-0.8320250149623158, -1.3030193420942935, -0.120532989317765, 0.29812844956937967, -0.16439431915053426, 1.6807035390504304], [-0.027516397832476266, -1.5668952443475541, 2.3419532039039366, -0.024160134780306347, -0.3557306244267764, -1.245652519076332]], "biases": [[0.14895014726443467, -0.007267852628085632, 0.18880559694431498, -0.03297295870173503, -0.03396299219013439, 0.20866039105572004]]}, "layer3": {"weights": [[0.9746654701184964, 0.9152255451470451, -1.1049603544494597], [0.8056011224656683, -0.7260800644150197, 1.2084955599451643], [1.166466420340463, 1.0753684136813968, -0.3738817071692207], [0.1368214115826718, -3.20125345123555, 0.918435455361084], [-1.350980617968788, 0.38471749032989944, 1.9918109298937035], [-0.8829064396676681, -1.0830120520355493, -1.0899735971972058]], "biases": [[-0.20989638628887147, -0.23303288865923605, -0.1185154483783606]]}}, {"layer1": {"weights": [[-0.2523834767593652, 0.29835010532848516, 0.7980333774571299, 1.2580352398738646, -1.0158124181675452, -0.3759841150730361], [-0.17980119947011586, 0.8334034981634308, -0.916803745692183, 1.831640171428262, -1.598442527710381, 1.7449762067148034], [-0.9084150024596547, -0.4942952366092723, -0.22582443560504262, 1.24104391828619, 0.4976853976190624, 0.7979302704452942], [-1.650979096280805, -1.1432631602149823, 0.714211158810493, 1.751183074772568, -1.2583365255345385, -0.3892152405012258], [0.4143791297975786, 1.361514072016175, 0.5001323021671216, -0.4215919127033737, -1.3598040861270104, 1.5988535345026056]], "biases": [[0.18643754238766178, -0.14783437627525553, -0.22536974815849986, -0.2572021635866164, -0.006649906741968697, -0.09747254168198818]]}, "layer2": {"weights": [[-0.6034905661641671, -0.5079268200280956, 1.538057898203276, 0.6684647978881805, 0.21307042929685654, -0.4641675344549696], [-2.0388631047362384, 0.6216395308691929, 0.4496575372145497, 0.26716786771362355, -1.6979954504169978, -0.7230545870070044], [1.3503379277622929, 0.5429845380405611, 0.06545971358458974, -0.26131696029798823, 0.16144224874330265, -0.6565779493591806], [0.7192248451024599, -2.2267151945456094, -0.36292013104970566, -0.24292202551432246, 1.9398170906012693, -0.668947116247598], [-0.8312954829344196, -1.2944303728870308, -0.15253593985816366, 0.29795603554211003, -0.18643747635029792, 1.6834035934662197], [-0.027512385571620057, -1.5668310698665195, 2.364298560345186, -0.04456939710889404, -0.355300913079371, -1.2475618439989478]], "biases": [[0.14895812118965507, -0.012066333106471702, 0.15825719837696983, -0.03297115370978111, -0.024419245179969663, 0.2086383508238573]]}, "layer3": {"weights": [[0.9750548120751295, 0.9156218765761479, -1.1026446526938667], [0.8306943444138144, -0.761469568761755, 1.2089069518659445], [1.2010053346351037, 1.0785650822548885, -0.3739090404201579], [0.13753908383883212, -3.1088928182176865, 0.8123349020100681], [-1.3510666313982713, 0.38471852197530915, 1.991810502966482], [-0.883532170682052, -1.0825550140437803, -1.0893795917085778]], "biases": [[-0.21003101445118388, -0.23384362680929954, -0.11847432630250215]]}}, {"layer1": {"weights": [[-0.2550334565586474, 0.29761997124159334, 0.7875660494361539, 1.3245411287140112, -0.9728185390792023, -0.3699572774802049], [-0.17346996528497766, 0.8336740176652473, -0.9231971493410165, 1.8305627979624486, -1.7224603748754486, 1.739569599944672], [-0.9780906026390052, -0.4937927039268819, -0.22098399734038732, 1.187704311558233, 0.4972803032150873, 0.7979228155104184], [-1.650483050272941, -1.060567614181431, 0.7444732782592607, 1.7368340623994858, -1.2478715466550128, -0.38891385374888], [0.4200860051376813, 1.371972909050866, 0.5000401222185888, -0.41183566879726763, -1.2227025140190735, 1.6000297514059891]], "biases": [[0.20512680962050744, -0.10864565654962621, -0.22535333896408058, -0.2600957137284636, -0.00690170998705579, -0.09746968894881769]]}, "layer2": {"weights": [[-0.7383086730494448, -0.6073923378885009, 1.4445757017492848, 0.6451655273467352, 0.2134089799959386, -0.46675163684632087], [-1.9317823696008982, 0.6222948142975977, 0.5066404495082975, 0.23172806701771487, -1.6719693617573628, -0.6972945721365087], [1.4044251120819737, 0.5546722379476094, 0.06548834450641702, -0.28690679294305305, 0.16237529378982307, -0.6642943423786902], [0.7192248305811059, -2.229233755607765, -0.36253238220457285, -0.23341609327004326, 1.9450108099271546, -0.6741744514981526], [-0.8262714127251787, -1.3206186106090587, -0.1203887368268204, 0.33020240436909365, -0.1847314281814419, 1.675375921627397], [-0.02110665087534702, -1.5659873645867104, 2.286339990744742, -0.02173350019256127, -0.35315234020835395, -1.2528243769269634]], "biases": [[0.14991082946106782, 0.06534863583615692, 0.19483449109990109, -0.04549928082812364, -0.03396278015214799, 0.20257944213982945]]}, "layer3": {"weights": [[0.9765560510779497, 0.9176046227456519, -1.10504233589137], [0.8168346213275024, -0.600645238435964, 1.210570304954697], [1.2053088832679792, 1.0726660816632272, -0.37446447225882074], [0.13868663584395735, -3.199703840393757, 0.9510945184146782], [-1.3515595778274623, 0.3847216169115383, 1.991809222184818], [-0.8767588747838496, -1.0858391260661586, -1.090270013191957]], "biases": [[-0.15743393770511366, -0.2337225954644232, -0.12004385901352896]]}}, {"layer1": {"weights": [[-0.2537138284302326, 0.29669930642260633, 0.7953155576605966, 1.2570510790595408, -0.9974750839912805, -0.37297069043003367], [-0.17758274311961628, 0.835465769026269, -0.9104103420433495, 1.8295087910719967, -1.6247927080153264, 1.7254693039229203], [-0.9461271656914596, -0.49456526998407013, -0.22217245833729715, 1.223269225716296, 0.4966131519924347, 0.7979377253801698], [-1.6512368786094394, -1.1441564072887056, 0.714288966794186, 1.736800256382102, -1.2581499486604386, -0.38934317218782855], [0.41774104813995727, 1.3588853877914158, 0.5002244821156545, -0.40937410017718945, -1.3431907000606347, 1.5991518128030429]], "biases": [[0.18751692081246402, -0.13429545600594178, -0.22367181808832234, -0.24810719064079878, -0.00674050898565203, -0.09747539441515868]]}, "layer2": {"weights": [[-0.6345026735727167, -0.6077467928862693, 1.5411289229377756, 0.6439004271806139, 0.08124168507059243, -0.4780414342833922], [-2.015159040184911, 0.6217039008440791, 0.45871047719373326, 0.22200538154874752, -1.7043823817722807, -0.7433292205968289], [1.3938646410616085, 0.5482772351677394, 0.06543108266276244, -0.23560993760790958, 0.16110398588704924, -0.648861556339671], [0.719224859623814, -2.2279229627595685, -0.3620507582490745, -0.23747595316853812, 1.9423140125665768, -0.6794694299814171], [-0.8193391632387095, -1.2779363086998783, -0.14983570211003422, 0.2995555259868925, -0.18121237976767757, 1.6798213834239957], [-0.027305479581119115, -1.5665023841798411, 2.3785804009016944, -0.024739326817448948, -0.3545349830015736, -1.2456719461258374]], "biases": [[0.14939859266186978, -0.007598645143736218, 0.1277174910023736, -0.03396281539697904, -0.0339630982091276, 0.20875403466852815]]}, "layer3": {"weights": [[0.974053392771691, 0.9161767306120546, -1.1095917579606456], [0.8235329119723012, -0.6712771761949202, 1.1851733439437555], [1.203552424802952, 1.0694212215864254, -0.37406375671027203], [0.13372593553850415, -3.104435210498549, 0.8914548730274998], [-1.3662222840078533, 0.38471542703908, 1.9918117837481462], [-0.8213934587847445, -1.0834836459169646, -1.0950197177847052]], "biases": [[-0.20976195534734335, -0.22712883573282644, -0.11944414199937853]]}}]