[{"layer1": {"weights": [[-0.006036567687189584, 0.5069427405241105, 1.0136758136843036, 1.2061807118450174, -0.9258404478667831, -0.2975352404948419], [0.05533837703472236, 1.2266561088526817, -1.1929334312543118, 1.436827264293753, -2.0752919389944173, 1.597059360912858], [-1.17064304815947, -0.6247055855990296, -0.08271000923703198, 1.3054193076321485, 0.4678106869805857, 0.7981746597981736], [-1.4388575580347653, -1.2810333725127137, 0.9821868855410973, 1.5906970429644538, -1.2321362630297852, -0.25657112856422293], [0.5067291810201244, 1.0439112655707858, 1.0780557783754836, -0.7555458147181128, -1.591951918339409, 1.8850591841300566]], "biases": [[0.22695664782173144, 0.08134401223297769, -0.27934601561434697, -0.24549163778942285, -0.05305094326786393, -0.08208798823755878]]}, "layer2": {"weights": [[-1.045789414430772, -0.3590598166595461, 0.7524119337970429, 0.969584137981887, 0.25253904783882763, -0.3304033507758579], [-1.948956547294927, 0.37611017293318927, 0.36506790786339666, 0.6311261961135028, -2.2333304693735068, -0.7135960013698832], [1.225793914933957, 0.2832400747318948, -0.18969285854106102, -0.5908687404903685, 0.18800031588018373, -0.7402697925928061], [0.633968508813024, -2.259924039963109, -0.16760991836195033, -0.4432733097329683, 2.240103966422203, -1.0090627633628615], [-1.074226706811789, -1.259514579387151, -0.4224043854159312, 0.15644739567277005, 0.28244895666525127, 1.5763339187739243], [-0.10532965882391021, -1.8921593966177856, 2.2529565256311495, 0.4305454189602248, -0.42513273708053445, -0.9078765796097386]], "biases": [[0.11595121922275314, 0.02163709870590567, 0.24656845043453673, -0.12050546313564756, -0.09216904012250254, 0.0762769221273422]]}, "layer3": {"weights": [[0.4501057638492645, 0.880661386154054, -1.0611005768276827], [1.2156933507296381, -0.34153706808627005, 1.840105760865692], [1.3751606831021128, 0.9613569537944718, -0.3770462938006781], [0.22710652227868333, -2.7011713266334665, 0.9058266247504438], [-1.5955867905236079, 0.41326411825219034, 2.0826676976145952], [-1.3032160468729719, -1.5699244225523086, -1.192159814624394]], "biases": [[-0.09999083449635958, -0.18367007846158975, -0.22744722350696422]]}}, {"layer1": {"weights": [[-0.06661571733558165, 0.4969010506795524, 1.013483910569652, 1.20603544375982, -0.8610788227066077, -0.2975349650706881], [0.010830731390766195, 1.22697252599065, -1.1929557806622082, 1.4364355443168773, -2.089377798129103, 1.5967191532373808], [-1.1707905618635068, -0.6246981440114828, -0.04689190150672095, 1.30560645406652, 0.5227238792882656, 0.7981746443397367], [-1.4514529329980237, -1.1987451880064657, 0.9821786045385126, 1.5952503118193744, -1.2611332940931799, -0.25657050630504075], [0.5115184917390996, 1.0401970174440183, 1.0780540749120755, -0.7557418474261429, -1.5934644289683266, 1.8039885532475366]], "biases": [[0.2270377415661018, 0.09759722548250967, -0.28032884401575153, -0.24548986345422266, -0.06445248549066357, -0.08208197887364971]]}, "layer2": {"weights": [[-1.0462719971115397, -0.10754900845075671, 0.7203819116337684, 1.1141867954147235, 0.21540432394089148, -0.534726674360865], [-1.9485990382399372, 0.4106844671651215, 0.27437115776938886, 0.6066359018863288, -2.233016558304768, -0.8092133376918621], [1.225972176967871, 0.2591231764336115, -0.189553804685762, -0.5446713021784065, 0.21896539995599812, -0.7593268348844915], [0.6339797496783195, -2.259924645338629, -0.16756042571683644, -0.4431924038422142, 2.2401040580732445, -1.0101027334942636], [-1.089436082604521, -1.2573370189781894, -0.44459859343319497, 0.18185211508761945, 0.25803714907837316, 1.6660640414083283], [-0.10532357863071992, -1.6958633925160171, 2.2529758697720133, 0.4305430484021709, -0.424968722869857, -0.92788466514655]], "biases": [[0.11595155628493964, 0.04211855328779726, 0.28885208697789266, -0.12050354662966892, -0.03804472766504067, 0.07628087756797755]]}, "layer3": {"weights": [[0.5146806079914243, 0.9286302926371008, -1.0610973659002703], [1.2156329218781405, -0.3412755250240633, 1.8402558046884803], [1.3983047449031618, 0.9614584639535969, -0.3770464346924814], [0.1902238968396502, -2.704050268041989, 0.9058927150991153], [-1.6005198883612592, 0.41326274601839674, 2.0826639374819287], [-1.2682485581956626, -1.5405442131478986, -1.1876624799673274]], "biases": [[-0.08934655756037377, -0.18366958608114112, -0.2939818353011896]]}}, {"layer1": {"weights": [[-0.005792754659207497, 0.49820853285487904, 1.0090701389326624, 1.2026942778002843, -0.8494330405810043, -0.29752863031515037], [0.017952189633480907, 1.2342501201639275, -1.1934698170438232, 1.425235770150855, -2.1625738220994037, 1.588894376701401], [-1.1741833770563532, -0.6245269874979071, -0.08306530838086393, 1.3099108220570654, 0.5409220420681993, 0.7981742887956889], [-1.4580869343434162, -1.1700627282128173, 0.981988141479063, 1.5986206050384666, -1.2342389255776132, -0.256556194343851], [0.5121107985426155, 1.0428855189822919, 1.0780148952536899, -0.7602505997108373, -1.5980563592179025, 1.8757416961744666]], "biases": [[0.22890289768661953, 0.10961070992671126, -0.279620187707751, -0.24544905374461884, -0.0834244453758843, -0.08194376350374116]]}, "layer2": {"weights": [[-1.0573713987691993, -0.349821643543771, 0.7325305859546833, 1.06312837258631, 0.24693444744832826, -0.3205410926972333], [-1.9438970786871774, 0.37643257046908574, 0.39437997195827734, 0.6310756275697271, -2.22579660372378, -0.7135494082732898], [1.2300722037478962, 0.2786451497157823, -0.1863555660138843, -0.5238224002618375, 0.1881810526315647, -0.7511143229224004], [0.6342382895801166, -2.259938568975582, -0.16642209487921694, -0.44133156835487075, 2.24010616604719, -1.034022046516513], [-1.074300614367007, -1.2835025345487567, -0.46154145799097357, 0.20123196089841522, 0.28287180897862674, 1.7232913777777457], [-0.10518373418734298, -1.6309192306769218, 2.2534207850118806, 0.43048852556693007, -0.4211963960242744, -0.920435465737435]], "biases": [[0.11595930871522886, 0.06767764754497307, 0.24657381650707189, -0.12045946699216026, -0.08786657397947054, 0.07637185270259024]]}, "layer3": {"weights": [[0.45119297665656627, 0.8808473880064194, -1.0610235145697815], [1.2142430582936963, -0.33526003459330667, 1.8437068126126104], [1.3812018646746589, 0.9620822182334984, -0.3770496752039568], [0.23152352521976716, -2.7702659204380087, 0.90741279311856], [-1.5249152891546416, 0.4132311846411438, 2.082577454430605], [-1.3092908863744777, -1.5699169671100202, -1.1928976509527485]], "biases": [[-0.0910526348474333, -0.18365826133082278, -0.22753641278122438]]}}, {"layer1": {"weights": [[-0.005975614430194062, 0.5237938989076117, 1.0125243949963934, 1.2053091033338341, -0.8524050814659844, -0.38876752070824083], [0.0030997868712095266, 1.1637001183635236, -1.1930675277016896, 1.4340206497037737, -2.125047945352954, 1.6716107399792899], [-1.1715281303836909, -0.624660936073749, -0.08182728619030608, 1.3065421862383777, 0.45825990122891463, 0.7981745670475524], [-1.4564703068210332, -1.1847632929138405, 0.9821371995255888, 1.596637108890929, -1.2227443307571377, -0.27408620247654386], [0.5119875082483513, 1.039983320238082, 1.078045557595035, -0.7567220109662939, -1.5934780285590324, 1.882729812141159]], "biases": [[0.22744321028795347, 0.10254390619918585, -0.22507240150905747, -0.24548099177822183, -0.07014679970264914, -0.08205193205410438]]}, "layer2": {"weights": [[-1.0486849105153788, -0.3567502733806023, 0.721352085377523, 1.0407150425878835, 0.1928047529578679, -0.322236928819798], [-1.9475449822799895, 0.4107516333184333, 0.37239592388711684, 0.6311135539775589, -2.231447002961075, -0.7135843530957349], [1.2268634871374418, 0.2799470250192999, -0.18885853540926684, -0.5334160546809483, 0.1663624224380192, -0.7673310172642063], [0.6340359540047971, -2.259927672216228, -0.16731296249126698, -0.4427878743884439, 2.24010451632845, -1.0153025841512744], [-1.0742451837005935, -1.2623345096368572, -0.4321886535596918, -0.053097219434175974, 0.28603853842686117, 1.6865423330017346], [-0.10529317766476841, -1.6117138009063243, 2.4076190538807722, 0.4305311956119011, -0.42414865181646944, -0.9251356031228257]], "biases": [[0.11595324159587207, 0.05113687928231524, 0.24414354819576845, -0.12049396409977574, -0.09309617189359178, 0.07630065477115422]]}, "layer3": {"weights": [[0.4503775670510899, 0.8807078866171454, -1.0610813112632074], [1.2153307776206528, -0.3399678097130292, 1.887020769235141], [1.3766709784952493, 0.961573915307978, -0.3684365063778783], [0.2282107730139543, -2.718444975084602, 0.9062231668424728], [-1.549981788336659, 0.41325588484942866, 2.0826451368185976], [-1.311305677671182, -1.5405426599307552, -1.1880992007339064]], "biases": [[-0.087833489696486, -0.18366712417889802, -0.22746952082552924]]}}, {"layer1": {"weights": [[-0.1272355024886374, 0.48859281829422074, 1.0140596199136072, 1.2064712480154116, -0.8380296398697176, -0.29753579134314956], [-0.02721450493017519, 1.2260232745767443, -1.1928887324385191, 1.437975740030485, -2.0577124731794942, 1.5977397762638128], [-1.1703480207513963, -0.6247204687741231, -0.01101457725243793, 1.3050450147634054, 0.535813625264755, 0.7981746907150473], [-1.4552932232273, -1.1715000674296132, 0.9822034475462669, 1.5974272068865005, -1.2897798813986032, -0.25657237308258724], [0.5128022509725902, 1.0366537270819998, 1.0780591853022996, -0.7551537493020524, -1.5914432149328679, 1.885835641459689]], "biases": [[0.22679446033299078, 0.10537046390501278, -0.28126597706825546, -0.24549518645982316, -0.06825778245338512, -0.08210000696537692]]}, "layer2": {"weights": [[-1.0448242490692363, -0.359829664419194, 0.7121139322878722, 1.0509124975473143, 0.13633980830469944, -0.32172377655507034], [-1.9490847739529058, 0.44520502847440435, 0.3626252358554899, 0.6311304101588174, -2.2339582915109837, -0.7135998841279327], [1.225437390866129, 0.23621139763217983, -0.18997096625165907, -0.520499214105143, 0.2499003612399157, -0.7393660817320067], [0.6339460270824329, -2.25992282921207, -0.1677089036521781, -0.4434351215144764, 2.240103783120121, -1.0069828231000573], [-1.1046331404713834, -1.2511614660422936, -0.4602699560212849, 0.18634205694746273, 0.28938145633900203, 1.7117095076816005], [-0.10534181921029083, -1.6303596500416786, 2.252917837349422, 0.43055016007633273, -0.4254607655018895, -0.9243376164607678]], "biases": [[0.11595054509838017, 0.052632763008693365, 0.2417155157480213, -0.12050929614760483, 0.015362507101915876, 0.07626901124607154]]}, "layer3": {"weights": [[0.579074249999034, 0.8806458859996902, -1.061106998682508], [1.2158142084326333, -0.3420601542106837, 1.8398056732201153], [1.3746572513044006, 0.9612965150912196, -0.37704601201707155], [0.22673843870025967, -2.695413443816421, 0.9056944440531007], [-1.6480857573693986, 0.41326686271977753, 2.0826752178799275], [-1.3140994065140914, -1.5111652463172036, -1.1841741920482223]], "biases": [[-0.08158820881776314, -0.183671063222487, -0.36050158221637163]]}}]