[{"layer1": {"weights": [[-0.05999897701488961, 0.4656014709439792, 0.9149777346688369, 1.176728606358412, -0.8251262015867948, -0.31117021232925474], [-0.1347630495438757, 1.5078715247267405, -1.0426923403047552, 1.406734867998085, -2.1060843654527983, 1.3642894888168473], [-1.3750584446517897, -0.8758728198928957, -0.12614727561638184, 1.198582880005365, 0.5977830200273518, 0.7035002975196316], [-1.5542528874739496, -1.2086818854835584, 1.1398972347605745, 1.7283460428847295, -1.3730585287456343, -0.2393020423199238], [-0.17749504817743, 1.1307609341148186, 0.8824754369085944, -0.9437648360697369, -1.353832227972394, 1.6781315633241236]], "biases": [[0.22956306718214325, 0.06611080350861206, -0.2032087074133349, -0.12232303463763883, -0.212516889457373, 0.08861154130837161]]}, "layer2": {"weights": [[-0.9809258032387289, -0.05018245729339348, 0.6527163821458764, 0.6786198223720288, 0.5575474753689373, -0.3607304616940341], [-2.0063397048151415, 0.4636993463013481, 0.5937154167259355, 0.29938227602164014, -2.309864925983825, -0.8599868742036465], [1.3127272026520338, 1.3187894980376966, -0.14351218629104012, -0.6628066468474741, 0.13909367456174768, -0.9158143030575191], [0.48361327750914057, -2.5931714848682526, -0.049789713147135164, -0.8334907891791149, 2.2200164401479205, -0.5644881876156744], [-0.7461278593750942, -1.5668945687970566, -0.5853541324111342, -0.31235617514196934, 0.38263003419702507, 1.940940478972742], [-0.07786339830295025, -1.3691567266288929, 2.5942807242736077, 0.2002923390784058, -0.7307154547895441, -0.458857292141087]], "biases": [[0.20062166163028355, -0.03630839054336132, 0.4009886640820204, 0.009896822007809562, 0.06572339395940091, 0.20167712570290758]]}, "layer3": {"weights": [[0.7373993210728091, 0.8075938338130857, -1.0682407536934182], [1.0785600926674563, -0.6811102563381332, 1.9028093955621266], [1.5233833238088779, 0.7468499937731832, -0.3439601920169012], [-0.2863831682172465, -3.1531022937338173, 0.9209291528348148], [-1.1465724204012484, 0.3892389410933732, 2.0261369936905824], [-1.5976983392511814, -1.4149147742539776, -1.0172408109296516]], "biases": [[-0.2653538105471378, -0.24042956406094773, -0.08840026916483561]]}}, {"layer1": {"weights": [[-0.13640243626225193, 0.46677153462952864, 0.9064540014191793, 1.1785815583224766, -0.8119332494721581, -0.3111702119731068], [-0.1329426711832541, 1.4131104444849307, -1.044877134901085, 1.4138549704499677, -2.09424494288589, 1.3632065004605223], [-1.3858966443823801, -0.8758656888690922, -0.12915443875586935, 1.1976512657637075, 0.6050138002402262, 0.7035027211650364], [-1.6505239714757276, -1.2137038930050459, 1.1647546411892198, 1.7385176705986578, -1.3518438233126135, -0.23871518233054864], [-0.17911297454512365, 1.1346042043666056, 0.8829601653607204, -0.9355818439645806, -1.353819184744927, 1.6791960207820962]], "biases": [[0.22904250218927102, 0.06611079023419816, -0.20320870788746687, -0.11435803297249955, -0.2257617556853904, 0.0886069186209758]]}, "layer2": {"weights": [[-0.9273048202429127, -0.019244318805317434, 0.6555105007183311, 0.6787458413844062, 0.47010842717141504, -0.36517222712577824], [-2.0258210211735745, 0.4209821401113145, 0.649822248183299, 0.2952943093316226, -2.3125502287638975, -0.8601292324727335], [1.3180135283100118, 1.3169350712106391, -0.15929207527653083, -0.6415830131668921, 0.1487968734368686, -0.915824222797113], [0.48301555641304705, -2.595618428689472, -0.05817400576166639, -0.9722954486779544, 2.2200164265641567, -0.507557677339456], [-0.7445588089788935, -1.5829599590242256, -0.5455832520289858, -0.3267511483117592, 0.34789172337054947, 1.9573308666610512], [-0.06863473209968671, -1.3598176921507819, 2.561555348512819, 0.31705333174006145, -0.7302724942210594, -0.42641064883877955]], "biases": [[0.15808345314318656, -0.03683840738711974, 0.40098866582617637, 0.002426544774323574, 0.04532748380282319, 0.19919580278019347]]}, "layer3": {"weights": [[0.7165160984257913, 0.819852867075722, -1.0794653064294102], [1.117688389145425, -0.7151954550167269, 1.822829395132194], [1.5186841050973918, 0.7469562711883184, -0.3480821624079241], [-0.2938917069035284, -3.338177237836401, 0.9266365554326479], [-1.1518922551150879, 0.41324211969475877, 2.029496399938587], [-1.462628781773069, -1.4547256515960494, -1.028225923832244]], "biases": [[-0.2625148539352573, -0.24068738402231218, -0.08939974242636771]]}}, {"layer1": {"weights": [[-0.11658564450129456, 0.4663815134010122, 0.9092952458357318, 1.1779639076677884, -0.8163309001770369, -0.3111702120918228], [-0.13354946397012796, 1.4374004756628445, -1.0441488700356416, 1.4120924025537542, -2.1596623419479553, 1.3636829661996501], [-1.3811432789420939, -0.8758680658770267, -0.12815205104270685, 1.1979618038442599, 0.6026035401692681, 0.7035019132832349], [-1.6102695540008478, -1.2120298904978832, 1.156468839046338, 1.7351271280273484, -1.3540107284723075, -0.23575625489769442], [-0.17857366575589245, 1.2641834513516341, 0.8827985892100118, -0.9383095079996326, -1.353823532487416, 1.6788412016294387]], "biases": [[0.22921602385356177, 0.0661107946590028, -0.20320870772942287, -0.11701303352754597, -0.22437124201763092, 0.0886084595167744]]}, "layer2": {"weights": [[-0.9485213043698062, -0.021684935125231272, 0.6545791278608462, 0.678703835046947, 0.5465386576679883, -0.36369163864853016], [-2.025127164390921, 0.42436656528203676, 0.6356712537685822, 0.2966569648949618, -2.3116551278372066, -0.8237398451055262], [1.3162514197573525, 1.3175532134863248, -0.15403211228136726, -0.6486575577270861, 0.1455624738118283, -0.9158209162172484], [0.48321479677841156, -2.5948027807490655, -0.05537924155682265, -0.9756869602968621, 2.220016431092078, -0.5265345140981954], [-0.7310979431226807, -1.5776048289485027, -0.5572334775735857, -0.31744453600081113, 0.34855028165335766, 1.9569282912926154], [-0.07171095416744122, -1.3609886649971594, 2.5593367804709874, 0.27165937176822524, -0.7304201477438876, -0.43722619660621537]], "biases": [[0.15808731766291167, -0.036661735105866934, 0.40098866524479104, 0.0020965935163178764, 0.05212612052168243, 0.20002291042109815]]}, "layer3": {"weights": [[0.7263386819707875, 0.8149474030879773, -1.075723788850746], [1.1159366857610022, -0.7009557518342455, 1.8528126468966177], [1.5202505113345537, 0.7469208453832733, -0.34670817227758316], [-0.29138886067476777, -3.2929415929634223, 0.9247340879000369], [-1.3037178733974233, 0.41324211823396584, 2.0283765978559187], [-1.462629223942522, -1.4388499005497208, -1.0255446460427602]], "biases": [[-0.26346117280588416, -0.24068099434168783, -0.08906658467252368]]}}, {"layer1": {"weights": [[-0.05713526921842247, 0.4652114497154627, 0.9178189790853895, 1.1761109557037237, -0.8295238522916737, -0.3111702124479707], [-0.13536984233074956, 1.5102705691965859, -1.0419640754393118, 1.4068046988651137, -2.1100308396417677, 1.3651123634170335], [-1.3668831826212353, -0.8758751969008302, -0.12514488790321934, 1.1988934180859174, 0.5953727599563937, 0.70349948963783], [-1.4895063015762087, -1.207007882976396, 1.1316114326176927, 1.72495550031342, -1.36051144395139, -0.2268794725991318], [-0.1769557393881988, 1.1314492065744992, 0.8823138607578858, -0.946492500104789, -1.353836575714883, 1.677776744171466]], "biases": [[0.22973658884643397, 0.0661108079334167, -0.20320870725529092, -0.12497803519268524, -0.22019970101435257, 0.0886130822041702]]}, "layer2": {"weights": [[-1.012170756750487, -0.029006784084972786, 0.6517850092883914, 0.6785778160345696, 0.4613308910419892, -0.35924987321678603], [-2.0230455940429617, 0.43451984079420347, 0.5932182705244319, 0.30074493158497934, -2.308969825057134, -0.8599394214472842], [1.3109650940993745, 1.3194076403133823, -0.13825222329587655, -0.6698811914076681, 0.13585927493670738, -0.9158109964776544], [0.4838125178745051, -2.592355836927846, -0.04699494894229142, -0.9858614951535849, 2.220016444675842, -0.5834650243744139], [-0.7466508761738276, -1.5615394387213337, -0.5921841542073851, -0.28952469906796674, 0.35052595650178214, 1.9559056856181307], [-0.08093962037070476, -1.3645015835362917, 2.5526810763454924, 0.13547749185271657, -0.7308631083123724, -0.4696728399085228]], "biases": [[0.15809891122208705, -0.03613171826210851, 0.40098866350063506, 0.001106739742300782, 0.07252203067826016, 0.2025042333438123]]}, "layer3": {"weights": [[0.7558064326057762, 0.8002310111247428, -1.064499236114754], [1.110681575607734, -0.6582366422868016, 1.9427624021898886], [1.5249497300460397, 0.746814567968138, -0.34258620188656025], [-0.2838803219884859, -3.1572346583444855, 0.9190266853022038], [-1.149778524822441, 0.41324211385158693, 2.025017191607914], [-1.4626305504508812, -1.3912226474107348, -1.0175008126743093]], "biases": [[-0.26630012941776465, -0.24066182529981467, -0.08806711141099158]]}}, {"layer1": {"weights": [[-0.0967688527403372, 0.4659914921724957, 0.9121364902522844, 1.1773462570131001, -0.8207285508819159, -0.31117021221053875], [-0.13415625675700182, 1.4616905068407582, -1.0434206051701984, 1.4103298346575408, -2.102137891263829, 1.364159431938778], [-1.3763899135018076, -0.8758704428849612, -0.12714966332954436, 1.1982723419248125, 0.60019328009831, 0.7035011054014333], [-1.570015136525968, -1.2103558879907208, 1.1481830369034562, 1.731736585456039, -1.3561776336320017, -0.23279732746484022], [-0.17803435696666123, 1.1330267054705523, 0.8826370130593031, -0.9410371720346848, -1.3538278802299049, 1.678486382476781]], "biases": [[0.2293895455178525, 0.06611079908380743, -0.20320870757137888, -0.1196680340825924, -0.22298072834987148, 0.088610000412573]]}, "layer2": {"weights": [[-0.9697377884966998, -0.02412555144514511, 0.6536477550033613, 0.6786618287094879, 0.6229688881645615, -0.36221105017128213], [-2.024433307608268, 0.427750990452759, 0.6215202593538655, 0.298019620458301, -2.3107600269105157, -0.8600343269600088], [1.3144893112046931, 1.3181713557620107, -0.1487721492862037, -0.6557321022872802, 0.142328074186788, -0.9158176096373837], [0.48341403714377607, -2.593987132808659, -0.05258447735197891, -0.9790784719157697, 2.2200164356199994, -0.5455113508569349], [-0.7176370772664679, -1.5722496988727797, -0.5688837031181855, -0.308137923689863, 0.3492088399361658, 1.9565257159241798], [-0.07478717623519573, -1.3621596378435368, 2.5571182124291556, 0.226265411796389, -0.7305678012667159, -0.4480417443736512]], "biases": [[0.1580911821826368, -0.036485062824614126, 0.4009886646634057, 0.0017666422583121782, 0.05892475724054168, 0.20085001806200287]]}, "layer3": {"weights": [[0.7361612655157838, 0.8100419391002325, -1.0719822712720821], [1.1141849823765795, -0.6867160486517643, 1.8827958986610414], [1.5218169175717158, 0.7468854195782282, -0.3453341821472422], [-0.28888601444600714, -3.2477059480904433, 0.9228316203674258], [-1.1508353899687644, 0.41324211677317285, 2.0272567957732504], [-1.462629666111975, -1.422974149503392, -1.0228633682532766]], "biases": [[-0.264407491676511, -0.24067460466106344, -0.08873342691867964]]}}]