[{"layer1": {"weights": [[0.15673137324316117, 0.4461468018425575, 1.0452865615991764, 1.1461835787940262, -0.815685690901673, -0.3189939406082871], [0.051678699927515635, 1.2481920578542574, -1.1421712268328694, 1.2796243937637437, -2.205941619926927, 1.5211386489666863], [-1.2465967390112507, -0.6437077623557026, -0.09086377838929297, 1.3290779583663115, 0.6375468737821166, 0.7869753841023304], [-1.6653810785274896, -1.291664100838771, 0.9677759886149827, 1.5602203750455461, -1.155993666199157, -0.2883097474716735], [0.4076766849554969, 1.3192728824969353, 1.0307178370360477, -0.9028111125642777, -1.584616884849085, 1.7386955472277164]], "biases": [[0.19229036128253135, 0.08417242414172552, -0.26667742509805253, -0.2246758903023185, -0.05239620332862545, -0.08901062950432095]]}, "layer2": {"weights": [[-0.7067638725958838, -0.33459016702332056, 0.564157086272413, 1.0595964841458954, 0.3391151793599455, -0.41763577187081513], [-1.9796010043690426, 0.3163018457945337, 0.5109801680884027, 0.43946645974322873, -2.1526408327766937, -0.7439142336419479], [1.2850513434177149, 0.2818919216400326, -0.051253758101757196, -0.4411296911992333, 0.2577291572771774, -0.6221842989493342], [0.5976809094444921, -2.3421844533029534, -0.18099651428391156, -0.44418859668314714, 2.2093944970932613, -0.985840953596167], [-1.3012300194010502, -1.343619755658963, -0.3919173276926342, 0.19290105598118168, 0.3776453499539463, 1.6307828418075854], [-0.1628287350163365, -1.5969303612853483, 2.319242891955689, 0.5214886085973742, -0.4465291389995843, -1.0657718926100161]], "biases": [[0.08446157897657251, 0.07497946453187579, 0.32581486884100763, -0.05253686727484313, -0.08400717669902581, 0.0157320245458279]]}, "layer3": {"weights": [[0.2956820731430311, 0.8670152229732316, -1.0909061282820476], [1.2696167396024978, -0.5245533168944188, 1.8813545858264367], [1.2005303086843147, 0.9661244151646746, -0.3912146485132942], [0.1316757335008587, -2.874445636338124, 0.9128008621450401], [-1.3740829412137134, 0.41901303848473004, 2.1033509232263503], [-1.3248872275859245, -1.6643763198648087, -1.1442503483104252]], "biases": [[-0.16926455940995772, -0.2211963948441304, -0.22763733420598237]]}}, {"layer1": {"weights": [[0.11439976396225299, 0.446488434088771, 1.0448678741347388, 1.146046899181176, -0.8153152781155201, -0.3198408548147773], [0.0523993664576823, 1.2215918040753784, -1.1413840839768254, 1.2833859233248925, -2.2069339917009367, 1.5213398634629156], [-1.2597296913598872, -0.6460534611891924, -0.09089107982931538, 1.329078685560349, 0.6452033966062072, 0.7870301319652355], [-1.640838232873652, -1.2409706279670352, 1.0561966635599227, 1.6070109519152167, -1.10779568559246, -0.2854014096200749], [0.4032616856701681, 1.31918123828005, 1.0304467334877723, -0.9026549431602542, -1.652376978203861, 1.7360954624434588]], "biases": [[0.1914645784300762, 0.08417110974970071, -0.2705761185285195, -0.22495252210605512, -0.025052787116156286, -0.08582042113297461]]}, "layer2": {"weights": [[-0.7113669234237707, -0.3326490937000135, 0.5748971583314924, 1.059938344434413, 0.25754005254561907, -0.4277273874452245], [-1.9796105450015826, 0.3181405744322621, 0.5067361915119729, 0.4479765732160962, -2.1476522767462773, -0.741553481090971], [1.2836902405498787, 0.2821482479391671, -0.051322525673687155, -0.5424336462881802, 0.25766970566752784, -0.6440893971712263], [0.5976833865509801, -2.3205752790056575, -0.1809965266360354, -0.44072605208856086, 2.2093945031547904, -0.9862805875936472], [-1.2735283145892264, -1.2911345343524383, -0.40027663933574636, 0.18761821623305863, 0.3999107511370904, 1.6284063347949842], [-0.16282715556445518, -1.5781755421831773, 2.3192238780891516, 0.5214886687414058, -0.4469933138936236, -1.0657399793502949]], "biases": [[0.08569133480430557, 0.07505480146789759, 0.32421896793844285, -0.10710691617940231, -0.07815929912541413, 0.0044932130817752595]]}, "layer3": {"weights": [[0.331827813497399, 0.8672489817064339, -1.0907096407584895], [1.2584745367568582, -0.47725902288659205, 1.8534335138590983], [1.221686892762695, 0.9659885759952436, -0.39121461999614127], [0.13383983386759896, -2.975288506744957, 0.9318271363950802], [-1.3796568342787916, 0.4200774408043674, 2.1035018553634184], [-1.3246199164495134, -1.652400700629832, -1.1806046563734824]], "biases": [[-0.15822215565978118, -0.22120110693527906, -0.22774632834626587]]}}, {"layer1": {"weights": [[0.13556556860270708, 0.44631761796566427, 1.0450772178669576, 1.1461152389876013, -0.8155004845085965, -0.3194173977115322], [0.05203903319259896, 1.2348919309648179, -1.022868279279997, 1.2843479780183051, -2.206437805813932, 1.521239256214801], [-1.253163215185569, -0.6448806117724475, -0.09087742910930417, 1.3290783219633302, 0.6413751351941619, 0.787002758033783], [-1.653109655700571, -1.266317364402903, 1.0119863260874526, 1.7466371648344525, -1.1318946758958086, -0.2868555785458742], [0.4054691853128325, 1.3192270603884926, 1.03058228526191, -0.902733027862266, -1.618496931526473, 1.7373955048355876]], "biases": [[0.19187746985630377, 0.22349471007057892, -0.268626771813286, -0.2248142062041868, -0.03872449522239087, -0.08741552531864778]]}, "layer2": {"weights": [[-0.7090653980098273, -0.33361963036166703, 0.5331848004380785, 1.1254158414090139, 0.2983276159527823, -0.4226815796580198], [-1.9796057746853126, 0.3172212101133979, 0.5088581798001879, 0.44372151647966246, -2.1501465547614855, -0.7427338573664595], [1.2843707919837968, 0.28202008478959983, -0.051288141887722176, -0.49178166874370677, 0.25769943147235264, -0.6331368480602803], [0.5976821479977361, -2.3313798661543057, -0.1809965204599735, -0.442457324385854, 2.209394500124026, -0.9860607705949072], [-1.2873791669951382, -1.3173771450057008, -0.3960969835141903, 0.19025963610712016, 0.38877805054551834, 1.6295945883012848], [-0.16282794529039585, -1.5875529517342628, 2.3192333850224203, 0.52148863866939, -0.446761226446604, -1.0657559359801554]], "biases": [[0.08507645689043905, 0.07501713299988669, 0.32501691838972524, -0.07982189172712272, -0.08108323791221997, 0.01011261881380158]]}, "layer3": {"weights": [[0.31375494332021503, 0.8671321023398328, -1.1428804852452146], [1.2640456381796779, -0.5009061698905054, 1.9803256208388424], [1.2111086007235048, 0.9424197422556674, -0.3912146342547177], [0.13275778368422883, -2.9248670715415406, 0.9223139992700602], [-1.3768698877462526, 0.4195452396445487, 2.103426389294884], [-1.3247535720177188, -1.6583885102473204, -1.162427502341954]], "biases": [[-0.16374335753486946, -0.22119875088970473, -0.22769183127612413]]}}, {"layer1": {"weights": [[0.08718855138589049, 0.4475432550751348, 1.0480785318132728, 1.146901910708022, -0.8165975076394121, -0.3179904120200579], [0.046471149604441625, 1.2661466903591847, -1.139804912110379, 1.2959669694401186, -2.197231880788775, 1.5149929002306783], [-1.3477626628404307, -0.6507483685608519, -0.09070042694526709, 1.3290733528040741, 0.6617529546044818, 0.786687506356958], [-1.635667394862208, -1.2676351268540518, 0.9552760370593858, 1.596948757300476, -1.1086746780041858, -0.2795877806533946], [0.37781949437177276, 1.3251506290255062, 1.0155438821361726, -0.9022181870416467, -1.5169021836111998, 1.7359395841267506]], "biases": [[0.19203063895011013, 0.08416996226220358, -0.2784143218634064, -0.22477143375581057, -0.08760259997225486, -0.09330448686113609]]}, "layer2": {"weights": [[-0.7081154136932267, -0.3241668728876721, 0.5964578059719113, 1.0480336625590922, 0.2612504056432243, -0.40238322371287166], [-1.9795405803629555, 0.3205209140884212, 0.49724355961090216, 0.36115828512716075, -2.147129549574908, -0.7356257703214444], [1.2774917586563084, 0.28120171090174767, -0.05146005600930419, -0.3396422784627644, 0.25804175767856874, -0.5545603756862797], [0.5976661341554615, -2.37099453110609, -0.18099643605379373, -0.43374463291621623, 2.209394458703577, -0.9746145919891965], [-1.2177528785615426, -1.2988230403342163, -0.3795241768032362, 0.20465138073386846, 0.35960600419313776, 1.6264567620389512], [-0.16283873821158493, -1.601469995260928, 2.3194175921501987, 0.5214882276851743, -0.4482897970055655, -1.0659642831982226]], "biases": [[0.08815084846987037, 0.07463335656963511, 0.321281334047995, -0.10667547415886625, -0.13800112784240118, 0.03909255426025312]]}, "layer3": {"weights": [[0.4163738009481203, 0.8675633341185376, -1.0919336183737134], [1.237440683217144, -0.4528712661587203, 1.8443945433087228], [1.262270444753479, 0.9668387268594318, -0.3912148291219294], [0.32511875647940014, -2.7677549879476877, 0.8933485918707369], [-1.3641186329295838, 0.4092311416148008, 2.102730398634374], [-1.3224312138908945, -1.6284536157801481, -1.2643331993685303]], "biases": [[-0.1363931765788143, -0.2211739255470352, -0.22907581310096284]]}}, {"layer1": {"weights": [[0.10079415767407174, 0.44701584458195287, 1.0464732029740058, 1.1464744049445992, -0.815956392877466, -0.3189156334174176], [0.04943525803106196, 1.1971903902315417, -1.1405944980436022, 1.2896764463825057, -2.2020829362448557, 1.518166381846797], [-1.3037461771001588, -0.6484009148750222, -0.09079575338729123, 1.3290760191822115, 0.6534781756053445, 0.7868588191610968], [-1.63825281386793, -1.2543028774105434, 1.0057363503096544, 1.6019798546078463, -1.302666378815992, -0.28249459513673475], [0.3905405900209704, 1.3221659336527782, 1.0229953078119725, -0.9024365651009505, -1.5846395809075304, 1.7360175232851047]], "biases": [[0.19174760869009316, 0.08417053600595215, -0.27449522019596295, -0.22486197793093285, -0.056327693544205575, -0.08956245399705534]]}, "layer2": {"weights": [[-0.7097411685584987, -0.3284079832938428, 0.5856774821517019, 1.0539860034967528, 0.21179785171841176, -0.4150553055790481], [-1.979575562682269, 0.3193307442603417, 0.5019898755614376, 0.40456742917162847, -2.1473909131605926, -0.7385896257062077], [1.2805909996030935, 0.2816749794204574, -0.05139129084149567, -0.4410379623754723, 0.2578557316730483, -0.599324886428753], [0.5976747603532209, -2.345784905055874, -0.18099648134491458, -0.43723534250238855, 2.2093944809291837, -0.9804475897914219], [-1.2456405965753845, -1.2949787873433274, -0.3899004080694913, 0.19613479848346355, 0.3797583776651141, 1.6274315484169677], [-0.16283294688802005, -1.5898227687220525, 2.319320735119675, 0.52148844821329, -0.44764155544959455, -0.9762886931948543]], "biases": [[0.08692109163708797, 0.07484407901876636, 0.29585015138300286, -0.10689119516913428, -0.10808021348390764, 0.021792883671014188]]}, "layer3": {"weights": [[0.3741008072227596, 0.8674061579124858, -1.0913216295661015], [1.2479576099870011, -0.4650651445226562, 1.8489140285839105], [1.241978668758087, 0.9664136514273377, -0.39121472455903533], [0.22947929517349955, -2.871521747346322, 0.9125878641329086], [-1.3718877336041877, 0.4146542912095841, 2.1031161269988963], [-1.323525565170204, -1.64042715820499, -1.2224689278710064]], "biases": [[-0.14730766611929774, -0.22118751624115712, -0.22841107072361436]]}}]