[{"layer1": {"weights": [[-0.41122186637003255, 0.3905980685098224, 0.931723384579624, 1.1121318933306161, -0.8468444738343394, -0.3633846424015552], [-0.007154884380881146, 1.3475348683161728, -1.0250163595808424, 1.2611550606981003, -2.1843055247203047, 1.4418574903286587], [-1.5768795888364084, -0.8145545715357122, -0.005943466863830118, 1.2675651464990003, 0.6839777867764913, 0.7580225347945881], [-1.6307753815607693, -1.144254093080873, 0.9909712208592331, 1.686675136248271, -0.7908700354658134, -0.2339844675851861], [0.14494460468287085, 0.9406705787303358, 0.9691787909617122, -1.0727773099575106, -1.767899890586196, 1.50886540866952]], "biases": [[0.25856409092469024, 0.10672363341070329, -0.23923968729984746, -0.22119550425290413, -0.08534623512538325, -0.06902316550927351]]}, "layer2": {"weights": [[-1.14741731128397, -0.4301973181943143, 0.7929332022101334, 1.0220604037336873, 0.3270388324147604, -0.45437999092019593], [-2.040367679492814, 0.12275011365112695, 0.5984621974747167, 0.15401423269792522, -2.2372904163498033, -0.9034847713224368], [1.2846307191832818, 0.2696806689508734, -0.04174408226647944, -0.7394577096313167, 0.2749230071536899, -0.9190699121431121], [0.519421840772373, -2.5806389890683823, -0.10022264585884627, -0.6466771610629121, 2.2242094377331663, -0.8084691838570937], [-1.326245183692081, -1.051593282497435, -0.4826480849312149, 0.23592234941455503, 0.2731754038486642, 1.5528171045955386], [-0.08743549729231188, -1.6257122342435153, 2.3667784500602473, 0.6228036005803004, -0.6616037287886332, -0.7689571602051878]], "biases": [[0.13108650245112624, 0.05867156657522782, 0.3946719310583895, -0.04661292756472562, -0.09316537755641098, 0.04334292847042838]]}, "layer3": {"weights": [[0.7297071157999827, 0.8744393173919746, -1.1433338483498252], [1.021943038664494, -0.4540688330657632, 1.804115935694212], [1.4101631210243548, 0.8304015416449131, -0.34310348653546113], [0.0687581238739093, -2.745238193604923, 1.147183170942592], [-1.3040367542487799, 0.38153838820654706, 2.0759333931042048], [-1.1778478286200031, -1.5980799659762221, -1.1892370464674549]], "biases": [[-0.1664174567486804, -0.17438640754590948, -0.08809927927383042]]}}, {"layer1": {"weights": [[-0.4125885093775791, 0.3892669874036302, 0.931628416957964, 1.116854171082013, -0.8584011205517617, -0.3633846432369993], [-0.13403736698958954, 1.3474919305212745, -1.0242673418135548, 1.2701085542076425, -2.179676794309767, 1.4413474011318521], [-1.6043171933012201, -0.8091708632243431, -0.006273472085104041, 1.2675652261810446, 0.6850532915793066, 0.7580675695962413], [-1.6259106051367604, -1.147081274253354, 0.9842886659748071, 1.686272702347832, -0.8006916899964212, -0.2331186266205237], [0.10465756842291277, 0.9648619963744246, 0.9739492272583296, -1.093244086929227, -1.7676550572206686, 1.4737386622745043]], "biases": [[0.26015050527867445, 0.1067161235806202, -0.23923930673682678, -0.22119533344769945, -0.08535066875345272, -0.06902422174388079]]}, "layer2": {"weights": [[-1.1435015185561088, -0.45171004827969646, 0.7925848219429115, 1.0258986956829443, 0.34631418569713457, -0.482932366264228], [-2.0430271666317967, 0.119446350757435, 0.7013278298937832, 0.16757171882576846, -2.2372077526094705, -0.9071214827451155], [1.2846382973126602, 0.2750889368802253, -0.04112421471739615, -0.7268220479959329, 0.27447516970594227, -0.9015446237609289], [0.5191328169187643, -2.579841836332168, -0.09450333912818241, -0.646204372886553, 2.224210247235243, -0.8284895254523821], [-1.3351609531598658, -1.0396610496347027, -0.4831043553476394, 0.21615692036522338, 0.27292969310866344, 1.5525264443066331], [-0.0874339811927703, -1.625525671692125, 2.3667782820320227, 0.6269997835051673, -0.6613120023063812, -0.7704634450270178]], "biases": [[0.13108406387506719, 0.05831134741514505, 0.38315624717828556, -0.04703611997694426, -0.09661401501562875, 0.043880241650364096]]}, "layer3": {"weights": [[0.730042829744648, 0.8743865931275072, -1.1431641631647191], [1.024474878208664, -0.45518440541166755, 1.810237188015213], [1.36421581167903, 0.830397097919565, -0.34395127996074326], [0.06877886461574304, -2.7568391624021307, 1.14838930941526], [-1.224915069373798, 0.37691008095962886, 2.0759334056110585], [-1.1353618487220527, -1.5844992711838777, -1.19098882203494]], "biases": [[-0.1664360056090825, -0.16696827469233183, -0.08921870587208788]]}}, {"layer1": {"weights": [[-0.4125885093775791, 0.3892669874036302, 0.931628416957964, 1.0971025230069134, -0.8075668134839351, -0.3633846432369993], [-0.1657956331031769, 1.3474919305212745, -1.0242673418135548, 1.2701085542076425, -2.209710592522747, 1.4413474011318521], [-1.495081359646725, -0.8411113303800839, -0.006273472085104041, 1.2675652261810446, 0.6850532915793066, 0.7580675695962413], [-1.622943742769972, -1.1301452253775195, 0.9842886659748071, 1.686272702347832, -0.8006916899964212, -0.2331186266205237], [0.10465756842291277, 0.9254419289709758, 0.9739492272583296, -1.0113547164436496, -1.7676550572206686, 1.634307314728527]], "biases": [[0.2507297747641346, 0.09828810648020775, -0.23923930673682678, -0.22119533344769945, -0.11443307960793687, -0.06902422174388079]]}, "layer2": {"weights": [[-1.168729217865023, -0.45171004827969646, 0.7925848219429115, 1.1453752318988735, 0.3730224566253346, -0.482932366264228], [-2.0430271666317967, 0.0903113198498163, 0.6977782209927463, 0.16757171882576846, -2.2372077526094705, -0.8438984783927076], [1.2846382973126602, 0.1859769265283943, -0.04112421471739615, -0.7188927586606999, 0.27447516970594227, -0.9015446237609289], [0.5191328169187643, -2.5152579137625963, -0.062608845589662, -0.646204372886553, 2.224210247235243, -0.8163364855553512], [-1.3299076591294319, -1.0396610496347027, -0.5338411908128876, 0.1552425245114823, 0.27292969310866344, 1.5525264443066331], [-0.0874339811927703, -1.625525671692125, 2.3667782820320227, 0.6269997835051673, -0.6613120023063812, -0.8000729581623087]], "biases": [[0.13108406387506719, 0.05831134741514505, 0.38315624717828556, -0.04703611997694426, -0.09661401501562875, 0.043880241650364096]]}, "layer3": {"weights": [[0.7451959280660589, 0.8743865931275072, -1.1431641631647191], [1.024474878208664, -0.45518440541166755, 1.810237188015213], [1.36421581167903, 0.830397097919565, -0.34395127996074326], [0.06877886461574304, -2.7104354794109318, 1.14838930941526], [-1.224915069373798, 0.3398518422258776, 2.0759334056110585], [-1.3060441588301739, -1.5844992711838777, -1.19098882203494]], "biases": [[-0.1664360056090825, -0.196637898620328, -0.08921870587208788]]}}, {"layer1": {"weights": [[-0.40712193734739266, 0.3945913118283991, 0.9320082874446045, 1.0979650600764257, -0.8630088407498991, -0.36338463989522274], [-0.1451614207116201, 1.347663681700868, -1.0272634128827054, 1.2342945801694742, -2.168157917738937, 1.4433877579190786], [-1.4945667754419731, -0.7987652293140789, -0.004953451200008348, 1.2675649074528672, 0.6807512723680456, 0.7578874303896284], [-1.648336573199584, -1.152708598439263, 1.0110188855125108, 1.6878824379495883, -0.7754882840940768, -0.23658199047917333], [0.09953784016220743, 0.8680963257980694, 0.9548674820718599, -1.0113769790423617, -1.768634390682778, 1.5942199140844315]], "biases": [[0.26322557837727745, 0.12278359110389697, -0.23924082898890942, -0.22119601666851807, -0.05625052338669073, -0.06901999680545168]]}, "layer2": {"weights": [[-1.133936990158639, -0.3656591279381677, 0.6297758738763577, 0.9264544899648719, 0.37235183367964686, -0.38440089442217384], [-2.032389218075865, 0.1617964332398215, 0.7041734537457093, 0.11334177431439547, -2.2751203625428937, -0.9562958002983011], [1.284607984795147, 0.3425678755146486, -0.04360368491372929, -0.7852939838727013, 0.2762665194969327, -0.9716457772896616], [0.5202889123331986, -2.6476143698465973, -0.17004233119857826, -0.6480955255919896, 2.224207009226935, -0.8125852685388417], [-1.3573140167697297, -1.1953310526055076, -0.43054243821669314, 0.2706849483275151, 0.27391253606866645, 1.5536890854622551], [-0.08744004559093665, -1.6262719218976862, 2.3667789541449213, 0.6102150518056995, -0.6346026204181832, -0.7348287926044068]], "biases": [[0.1310938181793035, 0.0597522240554761, 0.3834963726092615, -0.04534335032806969, -0.08281946517875767, 0.041730988930621236]]}, "layer3": {"weights": [[0.7135468756445759, 0.8745974901853765, -1.1912417319922093], [1.014347520031985, -0.45072211602805, 1.785752178731209], [1.366728539787157, 0.8304148728209575, -0.34056010625961475], [0.05313798903313029, -2.4240553953721937, 1.1435647555245878], [-1.2240522198205048, 0.4139703567705626, 2.0759333555836434], [-1.305305768313855, -1.5842082389042091, -1.1839817197649993]], "biases": [[-0.16636181016747403, -0.19664080610664242, -0.08474099947905804]]}}, {"layer1": {"weights": [[-0.4098552233624859, 0.39192914961601466, 0.9318183522012842, 1.1074096155792192, -0.8352878271169171, -0.36338464156611106], [0.11972759822782725, 1.3475778061110713, -1.0257653773481301, 1.2522015671885582, -2.1889342551308424, 1.4423675795254653], [-1.5494419843715965, -0.8199382798470813, -0.005613461642556194, 1.2675650668169558, 0.6829022819736761, 0.7579774999929348], [-1.6356401579847781, -1.1414269119083915, 0.997653775743659, 1.6870775701487102, -0.7810483809352056, -0.2348503085498485], [0.1852316409428289, 0.916479161086247, 0.9644083546650948, -1.0523105329857945, -1.7681447239517234, 1.5439921550645355]], "biases": [[0.256977676570706, 0.10673114324078636, -0.2392400678628681, -0.22119567505810878, -0.0853418014973138, -0.06902210927466623]]}, "layer2": {"weights": [[-1.151333104011831, -0.40868458810893205, 0.7932815824773554, 1.0182221117844303, 0.3077634791323862, -0.4258276155761639], [-2.037708192353831, 0.1260538765448189, 0.4955965650556503, 0.14045674657008198, -2.2373730800901366, -0.8998480598997581], [1.2846231410539035, 0.2642724010215215, -0.04236394981556272, -0.7520933712667006, 0.27537084460143746, -0.9365952005252953], [0.5197108646259815, -2.5814361418045966, -0.10594195258951014, -0.6471499492392713, 2.2242086282310893, -0.7884488422618051], [-1.3173294142242962, -1.0635255153601673, -0.4821918145147904, 0.2556877784638867, 0.2734211145886649, 1.553107764884444], [-0.08743701339185347, -1.6258987967949055, 2.366778618088472, 0.6186074176554334, -0.661895455270885, -0.7674508753833578]], "biases": [[0.13108894102718532, 0.05903178573531058, 0.4061876149384935, -0.046189735152506975, -0.08971674009719321, 0.04280561529049266]]}, "layer3": {"weights": [[0.7293714018553175, 0.8744920416564419, -1.1435035335349313], [1.0194111991203245, -0.45295326071985875, 1.797994683373211], [1.3654721757330934, 0.8304059853702612, -0.342255693110179], [0.06873738313207556, -2.7336372248077154, 1.1459770324699239], [-1.3831584391237615, 0.38616669545346527, 2.075933380597351], [-1.2203338085179538, -1.6116606607685666, -1.1874852708999697]], "biases": [[-0.16639890788827827, -0.18180454039948712, -0.08697985267557296]]}}]