[{"layer1": {"weights": [[0.10205521415606786, 0.44039281714045864, 1.011909612918447, 1.1792017062365387, -0.8491373131570923, -0.32994833217131975], [-0.11713620834389783, 1.1366661348337224, -1.1601144090108315, 1.3686486082061533, -2.1350251665573774, 1.5493136355210804], [-1.0660212059847032, -0.5151232408088214, -0.08174669114264033, 1.3279044600315926, 0.5221025802675963, 0.8007094282172186], [-1.4314633745323888, -1.1721292621226913, 0.9965429788088933, 1.597713283015314, -1.6439909234096675, -0.2602329759858137], [0.6341831855839235, 1.0989490852872312, 1.0517607640793654, -0.8066080609121018, -1.6672867227747132, 1.815932388753831]], "biases": [[0.22742204094153176, 0.11044159234455922, -0.2845651039771847, -0.25313740836957427, -0.05868386399058992, -0.0930794037831976]]}, "layer2": {"weights": [[-0.8807372077287743, -0.3494192593435943, 0.8082782044723937, 1.0560805828058752, 0.29766974867739876, -0.31588323136345964], [-2.0496375462664482, 0.3147906664591006, 0.3368107640002936, 0.6433505757861351, -2.2304043426937934, -0.6560245693104435], [1.2563130251353445, 0.230422913029115, -0.19247992473147885, -0.537838146711627, 0.22261846836425675, -0.7683690460251685], [0.6337183149677508, -2.160778826780541, -0.1666433281797132, -0.48965603644220174, 2.226162179837682, -0.8219834870414484], [-1.0866629552264402, -1.3930505585208803, -0.317822144715169, 0.45715971594758487, 0.2726077653398993, 1.716012625351644], [-0.06717259659639246, -1.5955465530566668, 2.2673259378695327, 0.4508309135538738, -0.4190917777722671, -0.9856739886002374]], "biases": [[0.140117275511274, 0.02112256598224618, 0.2555689032617575, -0.05627379115474106, -0.08786674142038978, 0.08430775532163087]]}, "layer3": {"weights": [[0.5292553740631556, 0.8289778259545977, -1.0945304160243854], [1.1446592302608196, -0.40004641446788447, 1.835507542783641], [1.4114665704027751, 1.0015266946961354, -0.3808634520357135], [0.2787072816765605, -2.8546153693628753, 0.8367154289812949], [-1.5315585460912517, 0.39567380776746736, 2.0825841352121657], [-1.3276636479576012, -1.5422626295076247, -1.2272357997433425]], "biases": [[-0.09986743099226277, -0.18800410819319363, -0.2303115137933822]]}}, {"layer1": {"weights": [[0.10427625613611262, 0.4457713354207263, 1.0106032713263382, 1.1761688117730509, -0.923324349256036, -0.32991219657549264], [-0.1635632286612462, 1.132809114717467, -1.1593264960001062, 1.3729802269184779, -2.158668212555993, 1.550350476506668], [-1.0672156108403792, -0.5151200813998487, -0.08167144262207526, 1.3313113962146352, 0.5220391990169587, 0.8003233574430573], [-1.4325191478405916, -1.184777921323764, 0.9953999323735376, 1.5996449512048079, -1.3868247748370828, -0.2573623530253235], [0.5921579784708491, 1.181807853647006, 1.112963876245904, -0.7668029577815647, -1.6667114313645472, 1.818889978878469]], "biases": [[0.22823426684732376, 0.11183555051314786, -0.2928529327910279, -0.22958525599615637, -0.058982671916459, -0.09783248648316684]]}, "layer2": {"weights": [[-0.880808600710779, -0.3501142964416255, 0.8110962482650076, 1.05551159179768, 0.324773487085892, -0.3149664957621191], [-1.963598376828892, 0.38695776333776793, 0.30743655402155834, 0.6432942772122607, -2.2050942464640735, -0.6444770530618689], [1.2563320021304383, 0.2301477300882313, -0.19264056856091202, -0.520438730935868, 0.22075436441681887, -0.7847508855547134], [0.6333552226938644, -2.1607515988042243, -0.16758522253900082, -0.47561980399984827, 2.22616217785915, -0.8153653106419122], [-1.0248694101947264, -1.3747691864941265, -0.3665833204519188, 0.26253483212160467, 0.2383309721963307, 1.7045715933690326], [-0.06517195702701409, -1.5937370280374368, 2.2811220937565793, 0.42330884612570724, -0.423093840460337, -0.9498126216454412]], "biases": [[0.14029163749301232, 0.017850180770950033, 0.2651973927616269, -0.05623459873957493, -0.0878665329729488, 0.08335773213846062]]}, "layer3": {"weights": [[0.5285006012605482, 0.8289782712762334, -1.1026337178392622], [1.1622049236994634, -0.3906752990634209, 1.8282792229901228], [1.4038037186402912, 0.9881138719839611, -0.3874080023333591], [0.23171439541181313, -2.8548710013530587, 0.8789686599573374], [-1.5670130324917624, 0.3959169846368265, 2.0825758182976015], [-1.322892713203173, -1.5425268857902799, -1.2283547028193067]], "biases": [[-0.084065242102633, -0.185670931940605, -0.230355646639893]]}}, {"layer1": {"weights": [[0.10333966650797485, 0.4389228139714015, 0.9952693344529855, 1.17920170629068, -0.8488978230498533, -0.3081113793134754], [-0.0718824629354275, 1.1332782524061011, -1.1496040427865737, 1.3590358677431986, -2.1586940731873296, 1.5496813786063093], [-1.0664619527179944, -0.5151221876724972, -0.08219446751138346, 1.3263341420819734, 0.5221024712308362, 0.7964391306685245], [-1.4314844152999018, -1.170619917368406, 0.9968506697721318, 1.5977698001242455, -1.3913273644058628, -0.2602867787831613], [0.6040424435603546, 1.0161894004157623, 1.0531933905953708, -0.7541425876536214, -1.6664862117380732, 1.8129937361401602]], "biases": [[0.20332281438365973, 0.11044161344343847, -0.2845638488852786, -0.25313741154026026, -0.0587570201024926, -0.0930745540539413]]}, "layer2": {"weights": [[-0.8808086005155139, -0.34855259483049467, 0.8066070790820409, 1.05584800408391, 0.29766757688246126, -0.3254406380999531], [-1.9806297866216884, 0.399177457447383, 0.33681913933035085, 0.6433318095948437, -2.2059816948723405, -0.6622190799169358], [1.2563193508003758, 0.23033118538215377, -0.19254253204220603, -0.5390539493573862, 0.22261846807822713, -0.7847508965429852], [0.6323797222162753, -2.160715533285722, -0.16612062121519872, -0.4896288213829256, 2.2261621791781714, -0.8409545408193448], [-1.08679955281081, -1.4042338485506118, -0.43728143671749337, 0.3020629689876398, 0.27226923913478834, 1.7246184075622768], [-0.06308408690442639, -1.5952848635473882, 2.267199128889851, 0.44898574189148943, -0.4195474425257043, -0.909698927973192]], "biases": [[0.14011690234855034, 0.02112176571300725, 0.25562877999658534, -0.05626750981333284, -0.08786667193790945, 0.08407636156197797]]}, "layer3": {"weights": [[0.5326834766604981, 0.8289779743951429, -1.0945530561809125], [1.1463784106530621, -0.4008027492743812, 1.8330981028524682], [1.4219264604264807, 1.0015267454040842, -0.37039250964315734], [0.23051374665023286, -2.85407526136485, 0.8941465752013592], [-1.5313766718364417, 0.3958391069664984, 2.082581362907311], [-1.3269952194969563, -1.5424568926438298, -1.22964301668558]], "biases": [[-0.09968786728008783, -0.18800410458376354, -0.23033043713740312]]}}, {"layer1": {"weights": [[0.10812961319183359, 0.4440743403218087, 1.010600491216286, 1.176168811935475, -0.8478857018013212, -0.3298760609796656], [-0.2097555943838904, 1.1226454674346034, -1.1550060761393448, 1.3825616967234833, -2.1423650541906616, 1.5514537057623548], [-1.0685378510402521, -0.5151169219908759, -0.08187990962686909, 1.3328817141639147, 0.5220388719066785, 0.8000820490424362], [-1.4325822701431306, -1.1802498870609077, 0.9963230052632532, 1.5998145025316024, -1.404970633275397, -0.25752376141736644], [0.6276547126793555, 1.0171479028434531, 1.0487707720892276, -0.7749827039773968, -1.664309898254627, 1.8218475690031068]], "biases": [[0.2282378843744552, 0.10507064001952245, -0.29284916751530954, -0.25313742739369033, -0.05920214025216702, -0.09781793729539796]]}, "layer2": {"weights": [[-0.8810227790709979, -0.3507933815661569, 0.7736458750044752, 1.0548138556317848, 0.3247669717010795, -0.361612076811971], [-1.9635784836266992, 0.3771195456825023, 0.3006685240365183, 0.6432379786383864, -2.209387701787349, -0.6390081901576292], [1.256350979125532, 0.22987254714734762, -0.19282839049309353, -0.5075598780720709, 0.22075436355873004, -0.7847508690723055], [0.6332350468168442, -2.1605617183197667, -0.1660171016454574, -0.47553815882201994, 2.2261621758806185, -0.8002366288722658], [-1.0486528456460364, -1.365971174224201, -0.36504879125250866, 0.004721078271104018, 0.23731539358099804, 1.6934629969658546], [-0.06621063112755948, -1.5929519595096007, 2.280741666817533, 0.4397598835795677, -0.42446083472064866, -0.9497680110213491]], "biases": [[0.1402905180048413, 0.017847779963233244, 0.26537702296611027, -0.05621575471535027, -0.08786632452550783, 0.08266355085950194]]}, "layer3": {"weights": [[0.4316087762275867, 0.828978716597869, -1.1027016383088437], [1.167859318098007, -0.3929443034829112, 1.8210509031966047], [1.4157490984496912, 0.9881140241078072, -0.3874080059343795], [0.23150016368148196, -2.8539959933266674, 1.114947869900121], [-1.5304583658788946, 0.3964128822339196, 2.0825675013830374], [-1.3208874278212388, -1.5431096751988949, -1.2355763536460187]], "biases": [[-0.08352655096610817, -0.18567092111231476, -0.23041241667195578]]}}, {"layer1": {"weights": [[0.1049184823120661, 0.4450363338361977, 1.0022831320936074, 1.1761688118001214, -0.9237164580915516, -0.27863192239291834], [-0.14093635595701104, 1.1311151735036564, -1.1540713128879774, 1.3681738566870005, -2.170502665870969, 1.5100658904235187], [-1.0674359842070247, -0.5580736960686865, -0.08189533080644683, 1.3633690608716402, 0.5220391444985787, 0.7981882086687102], [-1.432529668224348, -1.2071461682000075, 0.9955537778551569, 1.5996732097592736, -1.3311219968011045, -0.2573892544239973], [0.5542562061176425, 1.1404280112112715, 1.1136801895039068, -0.7636950250800001, -1.6663111758462272, 1.8174206525716337]], "biases": [[0.21618465356838773, 0.11183556106258749, -0.2928523052450749, -0.24136133852423733, -0.05901924997241034, -0.07961063236230596]]}, "layer2": {"weights": [[-0.8808442971041488, -0.34968096418507566, 0.8102606855698311, 1.0553953024366973, 0.3247724011884232, -0.24179946121805249], [-1.9635950612951931, 0.3921394096618688, 0.3880935700237313, 0.643284894116615, -2.313657761846425, -0.647574308365115], [1.256335164962954, 0.2301018662647507, -0.19267187221627563, -0.5210466322587476, 0.22075436427380407, -0.7847508828076455], [0.6326859263181266, -2.1607199520568146, -0.1673238690567436, -0.4756061964702102, 2.2261621775293947, -0.8576441761714948], [-1.0228776101702963, -1.3094575489070326, -0.40084478732762074, 0.2604521332357108, 0.23816170909377526, 1.708874484474349], [-0.06312770218103105, -1.5936061832827975, 2.281058689266738, 0.4333795365150218, -0.4233216728370556, -0.931334199299108]], "biases": [[0.1402914509116505, 0.017849780636330567, 0.2652273311290408, -0.056231458068870824, -0.08786649823170864, 0.08324203525863418]]}, "layer3": {"weights": [[0.5302146525592194, 0.8289783454965061, -1.1026450379175259], [1.1630645138955846, -0.3910534664666693, 1.8270745030245363], [1.4090336636521439, 0.9881138973379354, -0.3781859743748891], [0.2979618416662377, -2.8546009473540463, 0.8247355939774084], [-1.5489175734401386, 0.395999634236342, 2.082574432145174], [-1.5068076726080704, -1.5426240173583823, -1.2295583112904254]], "biases": [[-0.08397546024654552, -0.18567093013588995, -0.23036510831190346]]}}]