[{"layer1": {"weights": [[-0.16181662533456073, 0.536277480334141, 0.9188821424927811, 1.1866722277063948, -0.8109372373864074, -0.26997116350493156], [-0.1756951335301068, 1.4555718742768051, -1.067878866867798, 1.3757775650577568, -2.318312600771745, 1.2597218244504842], [-1.395145607503706, -0.8783692359490651, -0.12799326839990624, 1.0948331773917732, 0.7942752888684474, 0.6479694966094474], [-1.5225288420462508, -1.165789038946313, 1.1400614749996045, 1.7078960598970219, -1.4147292777660652, -0.19920354426079054], [-0.06751348383550826, 1.162389811225939, 0.9167045576045911, -0.9191296162054676, -1.4760652040404683, 1.660512406364873]], "biases": [[0.28061205985912246, 0.0664868709751811, -0.24192926289122668, -0.10878005266750988, -0.235516889836656, 0.0905771938813095]]}, "layer2": {"weights": [[-0.8246096237265009, -0.04978579591326626, 0.3402778637702939, 0.6409296122127246, 0.5308022219871287, -0.33071928190538047], [-1.922021337901132, 0.40232511112382346, 0.7393652259202703, 0.2819706132470647, -2.462069348981386, -0.8759252888697194], [1.461085609730791, 1.3599156276723117, -0.15174327883904434, -0.5753840179677379, 0.07593864843495957, -0.9825172401090585], [0.44985957046267655, -2.590453215065576, -0.02460051710192316, -0.7557433397324775, 2.219529730399615, -0.45198608947734814], [-0.6359780528018009, -1.5071088134981812, -0.532072657783414, -0.3186593584297843, 0.3976098879250361, 1.8358843395892697], [0.0746997267738201, -1.4409506205040672, 2.6023057909139107, 0.3332532351843461, -0.712235032723614, -0.42601566412543646]], "biases": [[0.11601840875445273, -0.03962705041917816, 0.3941486573999293, 0.019175075114450123, 0.058556294092308656, 0.18862193827195683]]}, "layer3": {"weights": [[0.9773676273062439, 0.811517853888347, -1.068361583509098], [1.1811894913665348, -0.7325224272910285, 1.8118612713910383], [1.6064034756506902, 0.662226336118122, -0.3036314272825967], [-0.3715403225000483, -3.272708124458478, 0.8289913856437906], [-1.152228083243711, 0.39516779204395425, 2.060412415905962], [-1.4291004305749961, -1.5734212264103238, -1.132756577943229]], "biases": [[-0.2416850514080419, -0.28599737633056255, -0.06358892581929085]]}}, {"layer1": {"weights": [[-0.1528489660045988, 0.6139308394209859, 0.9191085343401604, 1.1957668029441404, -0.8671685012493588, -0.2699744583386765], [-0.16485567552497776, 1.4427460514827093, -1.2444784608830153, 1.3757671225245536, -2.101607160515961, 1.2926541172687014], [-1.3974463422225372, -0.8788736504623933, -0.1279932766840357, 1.1391152090508285, 0.7923914491966056, 0.6479473434312479], [-1.509420156976495, -1.1753634562628554, 1.1212152110258784, 1.7230931554607556, -1.360013852983076, -0.19826739610098965], [-0.07879929165764318, 1.029838562879756, 0.8664706424471869, -0.9438662387653287, -1.4349485315273949, 1.6787849996402606]], "biases": [[0.27993582917052695, 0.06489799032625278, -0.23954622639132778, -0.11332733448431377, -0.23559108053926164, 0.09006416088913387]]}, "layer2": {"weights": [[-0.824334604703229, -0.057393763688273834, 0.5888584221627519, 0.6253349774892552, 0.5262079758976823, -0.32873442388316], [-1.9204565822923685, 0.4399401979294061, 0.6596331059266834, 0.27977154432882967, -2.461667271337035, -0.8766550067608595], [1.459734596156556, 1.361130914024625, -0.15207957330292746, -0.5834731157393718, 0.07570811433370776, -0.8752732455140065], [0.45017388645355993, -2.496395493634605, -0.025315479889060827, -0.7577598833133392, 2.2137940953217115, -0.44572354538840553], [-0.6365596768908336, -1.5243091724214344, -0.5295107320396863, -0.27817369014660775, 0.3951537467636279, 1.826209072603557], [0.07443996134135174, -1.3803203039964678, 2.602490861795488, 0.39370994160411193, -0.7328450452190226, -0.42963650240213835]], "biases": [[0.1159726002938353, -0.04065918907678681, 0.39490152480166996, 0.0188485138493504, 0.05855657304641339, 0.18850480899029573]]}, "layer3": {"weights": [[0.8195475082778156, 0.8113793737914616, -1.0683651950917286], [1.1959871337707817, -0.7384825772746442, 1.8541775390504693], [1.5702328332090498, 0.6707471489954098, -0.33918431287067197], [-0.4413807697879185, -3.2758227788294647, 0.8464058780147719], [-1.1513796570016557, 0.39493019987361183, 2.060270460199563], [-1.4349095580942182, -1.4981204177279004, -1.1428619007827983]], "biases": [[-0.23882035316054812, -0.28583481169556724, -0.06336805809473654]]}}, {"layer1": {"weights": [[-0.16107642551720025, 0.5327544883330136, 0.9230768300038072, 1.233590812758083, -0.8712287268052206, -0.22969529167618413], [-0.11241946552003496, 1.4527384056637396, -1.1135326253377724, 1.3753813084206683, -2.2123463231086538, 1.2736444805649039], [-1.3966420004639029, -0.8734638795882621, -0.1279933837810149, 1.1167339277367005, 0.7950728788760841, 0.6476295059645203], [-1.515366341064583, -1.1710849538681045, 1.12683491240059, 1.7127963154983825, -1.386226144624093, -0.20192290707825894], [-0.07104027801520402, 1.1511219253364464, 0.8919665621215527, -0.9502223733923392, -1.4674382669041903, 1.6787850375498028]], "biases": [[0.2748863986780341, 0.06674858764349542, -0.23625537872235947, -0.09367226674637558, -0.23746397806702185, 0.0947039098522752]]}, "layer2": {"weights": [[-0.8189453194919711, -0.04006401638964051, 0.5798230508618223, 0.6055107009438743, 0.6361887598684206, -0.30920627910248977], [-1.9118094651808977, 0.4218193387231562, 0.6884950095691302, 0.23669521755484868, -2.4684849432335008, -0.8722961011424442], [1.45917997478788, 1.4169771559719724, -0.15645276854460172, -0.5812109008244621, 0.0739347246455697, -0.9337690829068896], [0.4489664163501931, -2.6065895905316356, -0.045275133287219174, -0.7847070153087852, 2.2166619128601606, -0.4393840193686515], [-0.6321115875543533, -1.5245493679999056, -0.5234809987714392, -0.29903172708668446, 0.4042906028617819, 1.8076368393893607], [0.06746567153291336, -1.4725793901317044, 2.6069401488157817, 0.3626385767280594, -0.6861616899404732, -0.4146818023102013]], "biases": [[0.11603934175872459, -0.04060840554723963, 0.39149361511406183, 0.05646582979445826, -0.038205455439434724, 0.18834564642330015]]}, "layer3": {"weights": [[0.7429752905881426, 0.8102758320690537, -1.0684161514615331], [1.1909255758861095, -0.7263235460784303, 1.8323269479527016], [1.5944264393712348, 0.6702598234633447, -0.3208429093807186], [-0.4620898333137518, -3.2751901111777504, 0.8333121287157238], [-1.175982127070884, 0.39421766113765044, 2.058362758836923], [-1.4098254235161651, -1.5082177495156284, -0.9865727353099307]], "biases": [[-0.24609514208918737, -0.2853001157818904, -0.058820128700355585]]}}, {"layer1": {"weights": [[-0.16329990688260557, 0.5365682353070831, 0.9246430693090739, 1.2113399925747275, -0.8601942158683943, -0.24977276128978576], [-0.1551751703779364, 1.45429159155725, -1.1305837533315648, 1.3758671399078546, -2.1779972638623413, 1.2935108858252176], [-1.5119152527834712, -0.8795919372547925, -0.1279932436140877, 1.128114998037173, 0.7942824778313126, 0.6480430904911023], [-1.5128641060809567, -1.168061180642985, 1.134147147602849, 1.7188193859077008, -1.352360094881293, -0.1827379124249394], [-0.19388975276699988, 1.1583937908974828, 0.8787195652813433, -0.9272458013955595, -1.4668466528837723, 1.67878498793436]], "biases": [[0.28179033556527405, 0.06642935611408593, -0.24244927994518584, -0.11297131295437696, -0.23508240200993621, 0.08955330182801707]]}, "layer2": {"weights": [[-0.8258589650760992, -0.04550952240550261, 0.5813323727181597, 0.6418357632853443, 0.5862202327426743, -0.3209145490296156], [-1.9246715037763007, 0.42258008725052754, 0.6832547160499234, 0.2649661840758783, -2.4604049818080096, -0.8768743708270391], [1.461292936764936, 1.3897464709630039, -0.1507311463398131, -0.5757858874738401, 0.0763477006173228, -0.9074907697230034], [0.4501148269440146, -2.5860533264886394, -0.034325975413109125, -0.7495058778073206, 2.2183391723351136, -0.4553597103859043], [-0.6369533881674534, -1.5002052024414625, -0.5351158938838123, -0.30304244105664674, 0.3957721985352216, 1.8516525872787826], [0.07631139537424497, -1.4277803678557872, 2.6012737436967823, 0.3485828084536525, -0.7093447197895266, -0.42921119476457326]], "biases": [[0.11600221488830231, -0.03926791785095267, 0.39490622071428183, 0.04046562438678143, 0.010177657508766154, 0.1886600287387668]]}, "layer3": {"weights": [[0.6749635879020022, 0.8118380083089031, -1.0683497856627193], [1.1863522408601672, -0.7341258324395508, 1.8226245601942717], [1.57771606630222, 0.6626218854088044, -0.33046079814273444], [-0.3801034591771445, -3.2717423280841653, 0.8557513822864988], [-1.1466791861177295, 0.395398265039354, 2.06085400398993], [-1.4345484127181671, -1.4513563934000482, -1.0579339303616067]], "biases": [[-0.24047788667026104, -0.28735222765101076, -0.06464338901751757]]}}, {"layer1": {"weights": [[-0.1554794142128547, 0.5730519089040578, 0.9153317553556911, 1.190011042982779, -0.8700205286460487, -0.2700332772225761], [-0.15915753367467675, 1.4490225112927795, -1.1204556246719632, 1.3754846406225132, -2.1334641696827505, 1.2493602375420694], [-1.3982099139730448, -0.8749460637196005, -0.12799335501834383, 1.0946427477483647, 0.7442409899705058, 0.6477148308162293], [-1.5220579849858331, -1.170952063368808, 1.1299393891099896, 1.70702140946889, -1.4354891816883564, -0.2004842991555247], [-0.06094177490626244, 1.0947431777935437, 0.9172035946076176, -0.9389281208887421, -1.4604119503724886, 1.6787850273685663]], "biases": [[0.23743043014707108, 0.06588080384596925, -0.23738078550288447, -0.0993085403284776, -0.23696201712986154, 0.09340792742399695]]}, "layer2": {"weights": [[-0.8203906207480017, -0.05380532694141771, 0.5659636128292767, 0.614516688143945, 0.5257803571275058, -0.33253946001056517], [-1.9134828578614642, 0.41062479219957704, 0.8482537757727447, 0.37373867317907117, -2.4667404744586445, -0.8735264719943321], [1.4592499584380727, 1.3592231917076067, -0.1552783034229958, -0.5819401387758147, 0.07441236730727549, -0.9795476345965033], [0.44931489492053844, -2.555892430660057, -0.025569848276954035, -0.7774709112362193, 2.2164185621554378, -0.2504089521199394], [-0.633360296856941, -1.5313328812673888, -0.5234526293051643, -0.3042196259897837, 0.4015598642025194, 1.801154708306946], [0.06934114783670768, -1.439620099712366, 2.6745852922062063, 0.3628446858967792, -0.7123936805138352, -0.41896362171703305]], "biases": [[0.11602216489243035, -0.04099292988023871, 0.3924400066435134, 0.016366622549573023, 0.05855419538703183, 0.18838713723998796]]}, "layer3": {"weights": [[0.8247988494375169, 0.8913049162918443, -0.9307569132779981], [1.188293605334813, -0.7307996565280148, 1.832488954698352], [1.6110170456386124, 0.6701079369386947, -0.3031842402655575], [-0.4431721648737389, -3.27647224137792, 0.8130990067225397], [-1.1692297891622514, 0.39434345751023137, 2.058875021434275], [-1.4169195086620205, -1.518951315718497, -1.1395399656279865]], "biases": [[-0.2436649123626486, -0.28421261241828066, -0.060039630199319335]]}}]