[{"layer1": {"weights": [[0.069763323700711, 0.47558973771869106, 0.9948510136959763, 1.1792017307304805, -0.8640312937636342, -0.30852146678365344], [-0.25102042815568, 1.0790542928386215, -1.1016090348754062, 1.4112577794314314, -2.134183404604695, 1.5314574408653503], [-1.1011701032041965, -0.5146467941347159, -0.10793522414846243, 1.3200528702454997, 0.522053251229665, 0.7901970475124043], [-1.442880300652842, -1.2594892507703843, 0.9670460962616826, 1.576579576141965, -1.3998536903108127, -0.2677548563588339], [0.595054633323215, 1.1836264660745055, 1.0982355232224474, -0.7101164067831255, -1.6731047247224327, 1.8269044172879396]], "biases": [[0.2023624952419551, 0.09748132666108533, -0.2809526353284686, -0.25313884281141147, -0.06251802202187991, -0.09235662235336756]]}, "layer2": {"weights": [[-0.8776673662668643, -0.3609645650092611, 0.8120412719042379, 0.9898145485484136, 0.32859442623705143, -0.3903721709540443], [-1.9805838311381456, 0.3071478356160425, 0.3317535381447685, 0.634860611837057, -2.172158021624697, -0.6554898235189592], [1.2854576258217119, 0.21709983351865242, -0.19781454716433172, -0.5316394903955209, 0.2098602300992759, -0.841587148036089], [0.6330583990237963, -2.1123487365231832, -0.16565970824047085, -0.5103755606664702, 2.2261618814702, -0.957188139443447], [-1.0777973728702617, -1.3249178839400702, -0.4696635665572323, 0.41511613989284124, 0.15118730846270845, 1.6610694728123607], [-0.01656309478120669, -1.6179280085088783, 2.242830971711137, 0.352770640772485, -0.41238849494814583, -0.8941326796255821]], "biases": [[0.1231022328196239, 0.020760518250634463, 0.22349976275503153, -0.05067347555091327, -0.08783530703160507, 0.09069188656507995]]}, "layer3": {"weights": [[0.5365200509046701, 0.8290449815568265, -1.094114453081614], [1.0545327367811617, -0.41126574838709795, 1.71017679569291], [1.4046197407340166, 1.0015496353477626, -0.3703930514855851], [0.21775497366868043, -2.9017430371662565, 1.139810343124396], [-1.4098474526108788, 0.39238128502275327, 2.081329923960265], [-1.2677579463667619, -1.5269303033155552, -1.1969576255180971]], "biases": [[-0.07311078974476684, -0.1880024752602898, -0.23433442105647986]]}}, {"layer1": {"weights": [[0.1037043886773183, 0.47558973771869106, 0.9948510136959763, 1.1792017307304805, -0.836069242494391, -0.29097932874568777], [-0.25102042815568, 1.0790542928386215, -1.1116504872254822, 1.3834659072725202, -2.134183404604695, 1.5314574408653503], [-1.1011701032041965, -0.5146467941347159, -0.10793522414846243, 1.3200528702454997, 0.522053251229665, 0.7901970475124043], [-1.4218369322810394, -1.2017038169422658, 0.9670460962616826, 1.576579576141965, -1.3998536903108127, -0.25761263801630047], [0.5858039888559357, 1.1836264660745055, 1.1380554386296082, -0.806450843396888, -1.6731047247224327, 1.8269044172879396]], "biases": [[0.19784855927322226, 0.09748132666108533, -0.29008660264869385, -0.25313884281141147, -0.06251802202187991, -0.09677043838227573]]}, "layer2": {"weights": [[-0.8776673662668643, -0.3629653555625438, 0.8120412719042379, 1.0411714846675197, 0.274080014664251, -0.4187417063557549], [-1.971741758761833, 0.3071478356160425, 0.3003949332768174, 0.634860611837057, -2.172158021624697, -0.7019392673416478], [1.236788226747478, 0.21709983351865242, -0.19781454716433172, -0.5252969060313611, 0.2266433004550018, -0.7847484164493252], [0.6199872891837128, -2.1361832617439713, -0.16565970824047085, -0.5103755606664702, 2.2261618814702, -1.002824987241287], [-1.0777973728702617, -1.3249178839400702, -0.45768756444255, 0.41190873166862346, 0.15118730846270845, 1.6545146842475487], [-0.022945232904446874, -1.5663569061453495, 2.2514989131909298, 0.35906297282138233, -0.41238849494814583, -0.9722813217197285]], "biases": [[0.1231022328196239, 0.020760518250634463, 0.25401085153578495, -0.04738408261289439, -0.08783530703160507, 0.06821993236931273]]}, "layer3": {"weights": [[0.49430265121727274, 0.8290449815568265, -1.094114453081614], [1.0500740201463103, -0.41126574838709795, 1.71017679569291], [1.4135131064095097, 1.0015496353477626, -0.3703930514855851], [0.20111802236157544, -2.9017430371662565, 0.9045419830250576], [-1.4786254909926235, 0.39238128502275327, 2.081329923960265], [-1.2681086883115236, -1.471191333331453, -1.1969576255180971]], "biases": [[-0.07311078974476684, -0.1880024752602898, -0.23433442105647986]]}}, {"layer1": {"weights": [[0.09392429807373136, 0.4776927084323423, 0.9959756883403537, 1.1792016650229509, -0.8470138340312837, -0.31729249736435994], [-0.2510198409539608, 1.0785648208394885, -1.10654279079716, 1.3973705886849341, -2.136158239840773, 1.529579180624069], [-1.0915637162538396, -0.5159249115818785, -0.10663566528935643, 1.3200528703485694, 0.522185581472394, 0.7902029065189606], [-1.4307962619805739, -1.1957488990172958, 0.966824235767922, 1.5765973845796555, -1.405234365951679, -0.2192770910270729], [0.5988054920630144, 1.1836629885391923, 1.077432490778417, -0.8066013652197419, -1.6916307934720332, 1.8211586361825876]], "biases": [[0.20240369452730705, 0.0974557204360662, -0.2855205078270576, -0.25313499477292434, -0.06251812955972902, -0.09677112546484687]]}, "layer2": {"weights": [[-0.8776672477770942, -0.35881987719814, 0.8085188823328322, 1.0154666906111234, 0.2790659948319487, -0.4132903383825582], [-1.985684133549225, 0.27662771139701514, 0.3304352766422535, 0.6576358176236631, -2.1729026000923723, -0.6661684801665415], [1.2654427171277298, 0.2157224739716087, -0.19777160185611095, -0.526365348115061, 0.22664364758900588, -0.7847550842954898], [0.6395936407568659, -2.116083291562278, -0.16566045890277303, -0.5103727443422632, 2.2261626818718083, -1.0001430487832326], [-1.0778017704216776, -1.3026651262629292, -0.4619068422745333, 0.411411822573018, 0.14864476338645624, 1.6409071572216325], [-0.02245080690467892, -1.5761280795634889, 2.256564742974448, 0.3578552309992392, -0.4123533749660241, -0.9210333309832592]], "biases": [[0.12355511415774319, 0.021731748710679698, 0.2548425654258265, -0.05056194749610807, -0.08791963302846942, 0.06851154533779463]]}, "layer3": {"weights": [[0.49411636233819134, 0.8288648297128773, -1.0927485551897322], [1.0558438215955863, -0.4112073389492901, 1.7029766801923238], [1.4504172298252056, 1.001488094678706, -0.37039159471723315], [0.2626795520057873, -2.8353106646616806, 0.8931725626798592], [-1.5259216843489165, 0.3962421881242925, 2.0846944752744117], [-1.2734754892209055, -1.5536989663425989, -1.1964980179987679]], "biases": [[-0.07311738227848531, -0.1880068557715786, -0.23437378429252448]]}}, {"layer1": {"weights": [[0.1037043886773183, 0.47558973771869106, 0.9948510136959763, 1.1792017307304805, -0.8640312937636342, -0.30852146678365344], [-0.25102042815568, 1.0790542928386215, -1.1016090348754062, 1.4112577794314314, -2.134183404604695, 1.5314574408653503], [-1.1011701032041965, -0.5146467941347159, -0.10793522414846243, 1.3200528702454997, 0.522053251229665, 0.7901970475124043], [-1.442880300652842, -1.175744783969967, 0.9670460962616826, 1.576579576141965, -1.3998536903108127, -0.2677548563588339], [0.595054633323215, 1.1836264660745055, 1.0982355232224474, -0.806450843396888, -1.6731047247224327, 1.8269044172879396]], "biases": [[0.20687643121068794, 0.09748132666108533, -0.2809526353284686, -0.25313884281141147, -0.06251802202187991, -0.08794280632445939]]}, "layer2": {"weights": [[-0.8776673662668643, -0.3584967186698266, 0.8120412719042379, 0.9898145485484136, 0.2776053528873493, -0.4187417063557549], [-1.9805838311381456, 0.3071478356160425, 0.3607022713981183, 0.634860611837057, -2.172158021624697, -0.6205175502126667], [1.2564557867567863, 0.21709983351865242, -0.19781454716433172, -0.5258819813953299, 0.2266433004550018, -0.7847484164493252], [0.6330583990237963, -2.088514211302395, -0.16565970824047085, -0.5103755606664702, 2.2261618814702, -0.911551291645607], [-1.0777973728702617, -1.3249178839400702, -0.4816395686719146, 0.41511613989284124, 0.15118730846270845, 1.6610694728123607], [-0.01656309478120669, -1.6351183759633878, 2.242830971711137, 0.34647830872358765, -0.41238849494814583, -0.8683389480178025]], "biases": [[0.1231022328196239, 0.020760518250634463, 0.22349976275503153, -0.05067347555091327, -0.08783530703160507, 0.11316384076084716]]}, "layer3": {"weights": [[0.49430265121727274, 0.8290449815568265, -1.094114453081614], [1.058991453416013, -0.41126574838709795, 1.71017679569291], [1.4046197407340166, 1.0015496353477626, -0.3703930514855851], [0.23439192497578543, -2.9017430371662565, 0.8952511341426386], [-1.5083604358096623, 0.39238128502275327, 2.081329923960265], [-1.2532208710741586, -1.562016790229149, -1.1969576255180971]], "biases": [[-0.07311078974476684, -0.1880024752602898, -0.23433442105647986]]}}, {"layer1": {"weights": [[0.09392429807373136, 0.4776927084323423, 0.9959756883403537, 1.1792016650229509, -0.8470138340312837, -0.31729249736435994], [-0.2510198409539608, 1.0785648208394885, -1.0907756129602713, 1.3973705886849341, -2.136158239840773, 1.529579180624069], [-1.0915637162538396, -0.5159249115818785, -0.10663566528935643, 1.3200528703485694, 0.522185581472394, 0.7902029065189606], [-1.4307962619805739, -1.1957488990172958, 0.966824235767922, 1.597447527314931, -1.405234365951679, -0.2798760204284787], [0.5988054920630144, 1.1836629885391923, 1.077432490778417, -0.8066013652197419, -1.6717996533827226, 1.8211586361825876]], "biases": [[0.20240369452730705, 0.0974557204360662, -0.2855205078270576, -0.25313499477292434, -0.0400050948876359, -0.09677112546484687]]}, "layer2": {"weights": [[-0.8776672477770942, -0.35881987719814, 0.8085188823328322, 1.0154666906111234, 0.2790659948319487, -0.4132903383825582], [-1.985684133549225, 0.27662771139701514, 0.3304352766422535, 0.6576358176236631, -2.1729026000923723, -0.6661684801665415], [1.279322396638944, 0.2157224739716087, -0.19777160185611095, -0.526365348115061, 0.22664364758900588, -0.7847550842954898], [0.6395936407568659, -2.116083291562278, -0.16566045890277303, -0.41127728844084166, 2.2261626818718083, -1.0001430487832326], [-1.0778017704216776, -1.3026651262629292, -0.39421415658184367, 0.44334922896353063, 0.14864476338645624, 1.6409071572216325], [-0.02245080690467892, -1.5761280795634889, 2.256564742974448, 0.3578552309992392, -0.4123533749660241, -0.9210333309832592]], "biases": [[0.12355511415774319, 0.021731748710679698, 0.2548425654258265, -0.05056194749610807, -0.08791963302846942, 0.06851154533779463]]}, "layer3": {"weights": [[0.49411636233819134, 0.8288648297128773, -1.0927485551897322], [1.0558438215955863, -0.4112073389492901, 1.7029766801923238], [1.4504172298252056, 1.001488094678706, -0.37039159471723315], [0.2626795520057873, -2.8353106646616806, 0.8931725626798592], [-1.5259216843489165, 0.3962421881242925, 2.0846944752744117], [-1.2677475308315327, -1.5536989663425989, -1.1964980179987679]], "biases": [[-0.07311738227848531, -0.1880068557715786, -0.23437378429252448]]}}]