[{"layer1": {"weights": [[-0.005369607856509886, 0.4515496122325324, 0.9363849111908581, 1.173773698395146, -0.879646836087882, -0.3111703675360773], [-0.0915594092396933, 1.4648671172921903, -1.03054353233692, 1.461246707634217, -2.080072519414941, 1.3706383774673765], [-1.3398296472837337, -0.8754584966231337, -0.11161834625274597, 1.2027995528097337, 0.5560349098072539, 0.7024440897123498], [-1.6034451175639801, -1.169667631894028, 1.1841264587812463, 1.6970237328267248, -1.3649371831577577, -0.23213121880242607], [-0.15370575991844238, 1.1120242916804992, 0.9210421545718697, -0.9723764193122933, -1.2797782676297427, 1.5560744788407892]], "biases": [[0.2200279096793099, 0.06611658840584766, -0.20320850078992486, -0.11301330481333924, -0.22252503955418085, 0.0906260763176339]]}, "layer2": {"weights": [[-1.0199993093075381, -0.07220805211899545, 0.6665112122930918, 0.696399165932085, 0.48752166682316617, -0.5170105376670517], [-1.9766810047086323, 0.4156252002550339, 0.5897419132400443, 0.30861732168146366, -2.302375532524758, -0.8257914749469599], [1.2988717703119814, 1.2870593975380076, -0.2072025377705829, -0.6821536798439678, 0.10658315249815196, -0.9145063833212862], [0.4963237383052353, -2.572579987676312, -0.036212491999188724, -0.9356703131029434, 2.2200223598578868, -0.5890135297281073], [-0.7403691481074024, -1.6170803956691446, -0.5533168098290318, -0.27440625776214755, 0.33816246678013095, 1.9604951191050048], [-0.0586865014961898, -1.4241096390888655, 2.4880172516671846, 0.258912166962985, -0.7308345572790228, -0.3751132988445257]], "biases": [[0.15742155947775427, 0.04073003417063642, 0.40833441579389124, 0.0011065948002263219, 4.1549036388825114e-06, 0.20372930000527595]]}, "layer3": {"weights": [[0.7469513868484322, 0.8182689658181677, -1.0366959493043586], [1.0956563332804263, -0.7308813958309375, 1.7709853435895888], [1.5200723697373064, 0.7466880233328181, -0.34199665940234925], [-0.27574782073398174, -3.095456840487524, 0.9246588034871881], [-0.8715709396853037, 0.41324020550213225, 2.0250282202438386], [-1.4632081913964488, -1.4575911333704, -1.0782719126470186]], "biases": [[-0.25133771933810034, -0.24129941835909652, -0.07625687986861034]]}}, {"layer1": {"weights": [[-0.0001922238048166474, 0.4663092081139298, 0.8871865096588979, 1.1748866075375586, -0.9052433104685643, -0.31117019163653953], [-0.32172421017086467, 1.4552054534655654, -1.0305216964273074, 1.3905059729607723, -2.079986468477561, 1.3646567020947211], [-1.3445138592474963, -0.8754584970750974, -0.11161861563066625, 1.19836924988365, 0.5857720933748496, 0.7036411148301817], [-1.565827295446019, -1.1720366069016972, 1.1360081791541994, 1.715419606493731, -1.3663936122793736, -0.22422062963851103], [-0.17906438950055062, 1.1120495565205974, 0.9106388624821162, -0.9723760004055246, -1.3530743975533361, 1.6785709423261501]], "biases": [[0.2295571174807129, 0.06611003224592597, -0.20320873496108896, -0.11843616941448704, -0.22252453031366634, 0.08834295647112893]]}, "layer2": {"weights": [[-1.0112283099794153, -0.06545233835849097, 0.6780487475004527, 0.6737005209694716, 0.4586679645817011, -0.3602598576273359], [-2.008542833767022, 0.42722944738271235, 0.5934503483154141, 0.2798367046593183, -2.3098547198972543, -0.8516605195227727], [1.2988708785195204, 1.2747267349076363, -0.19549353722806, -0.6230366308720895, 0.10649344332637066, -0.9163906543043631], [0.4837579281959308, -2.5899485910203195, -0.03621249243094163, -0.9939618687464655, 2.220015650911531, -0.6040721739352977], [-0.729667338070881, -1.5476288521840036, -0.5878365599711943, -0.2852386910866844, 0.3518099667403278, 1.9400185881006924], [-0.058903561631868814, -1.4128273570285126, 2.4873466770096626, 0.2671968725892913, -0.7308669396046553, -0.46015423499526253]], "biases": [[0.15742144411201392, -0.03613167566571899, 0.4009887654200116, 0.0011067591922255733, 3.1245189392354664e-06, 0.20473430787307498]]}, "layer3": {"weights": [[0.7654316206051252, 0.8182677171192541, -1.0367205797631367], [1.1391409591976291, -0.7409979268680629, 1.8084755285650838], [1.5200654364224575, 0.746719812645864, -0.340798036007485], [-0.2795875022576578, -3.0977502651621274, 0.9071436768901369], [-0.9343572876866452, 0.4132423699349465, 2.025015711664012], [-1.4625530362232873, -1.4532386984869636, -1.0339710707357057]], "biases": [[-0.2691013957050856, -0.23987275673855787, -0.07619884724655666]]}}, {"layer1": {"weights": [[-0.014620832088867284, 0.45257739032513733, 0.8892168062964851, 1.1747814851840845, -0.9053565231241236, -0.3111703134131426], [-0.09156591714835786, 1.4610067422676638, -1.0164323232878272, 1.4566690339979393, -2.0800460422034397, 1.371221370107076], [-1.3644877641780462, -0.8788450100662277, -0.11161842913825992, 1.201436382678631, 0.6045435615624672, 0.7028124051332212], [-1.5366167510523212, -1.221700866738601, 1.135866947514124, 1.716168730433291, -1.3648116604213836, -0.2321316480891766], [-0.15393898307360154, 1.1096496451432194, 0.921042320885817, -0.972376290417903, -1.3536957331020119, 1.6735311636307384]], "biases": [[0.22002786960232026, 0.06611457112587175, -0.20320857284259075, -0.11784813685938847, -0.22252488286479177, 0.08992357790332468]]}, "layer2": {"weights": [[-1.016138935406866, -0.0676662769809872, 0.6742774715880193, 0.6972786589272729, 0.3515588334180221, -0.36256655627843815], [-2.0022935993710615, 0.41621476156480486, 0.5897631632306131, 0.2841528356376378, -2.3046768209470647, -0.9603566180648673], [1.298871495914301, 1.3018906349022827, -0.20719946414138857, -0.6816015105573202, 0.10655554967606541, -0.9119938166781961], [0.4840773558008453, -2.6006534383456525, -0.03621249213203577, -0.9413276013816623, 2.2200202955667003, -0.623961316167007], [-0.730192577662908, -1.5467589147448584, -0.5879800536273154, -0.2991726342197193, 0.33816234950455815, 1.9590220803769802], [-0.05875328923024488, -1.4200689407809237, 2.49939436092618, 0.26719665267101544, -0.7308445210715251, -0.5508168225341563]], "biases": [[0.1629271775021252, -0.036131924915449684, 0.4009881690460597, 0.0011066453823799377, 3.837862192837267e-06, 0.20373497705323435]]}, "layer3": {"weights": [[0.6675332840003422, 0.8446327760831853, -1.019989693770218], [1.0954464383987692, -0.7416374607187763, 1.8591703779042605], [1.5200702364096608, 0.7466978046599092, -0.34162785220392944], [-0.27733112269916727, -3.0897485451487037, 0.9298449562245141], [-0.9073238576076484, 0.4132408714814597, 2.0250243714500455], [-1.4630066051893222, -1.4562519226370347, -1.033964048933882]], "biases": [[-0.25321953856528256, -0.21991016510461306, -0.07623902367720921]]}}, {"layer1": {"weights": [[-0.01605312108566923, 0.46219809574351045, 0.8907959259034974, 1.1737386576106545, -0.9312045811838268, -0.31117040812827834], [-0.07380612189846504, 1.4668008802262231, -1.0305485713929845, 1.3905043657114347, -2.0800923773235676, 1.3623247315359241], [-1.3778691848317322, -0.8788450098228626, -0.11161828408861053, 1.2038219304080606, 0.5663590318426223, 0.7021678531466964], [-1.6010856986531303, -1.1984801662315885, 1.1221705315863464, 1.7169192920834604, -1.3631669471952064, -0.22421891249150894], [-0.19728426599666346, 1.1120184613327844, 0.9314458624464913, -0.9723765159830862, -1.3648414816463093, 1.6707018494279655]], "biases": [[0.21540152726722567, 0.06611810136582959, -0.20320844675042546, -0.12164857049289547, -0.22252515707122267, 0.09115295012836583]]}, "layer2": {"weights": [[-1.0216361844500217, -0.06938822924292873, 0.6675379215724728, 0.7262889088550543, 0.48760639013209284, -0.36436065522929545], [-1.999979176665992, 0.409370125550152, 0.5933653483531389, 0.287509826398553, -2.300649566208028, -0.877529430039405], [1.2988719761102416, 1.306203061546934, -0.21890385424011996, -0.7016753064057113, 0.10660385461471689, -0.911365752017044], [0.4843257994935567, -2.6183710422554154, -0.03621249189955344, -0.9980711482509109, 2.2200239080762767, -0.5812659506414464], [-0.7306010973455956, -1.5437674778958685, -0.5880916598042987, -0.3409693856176668, 0.3518104358426189, 1.9471624783136854], [-0.05863641069564848, -1.4302499851850903, 2.4997554395879225, 0.2671964816234675, -0.7308270844346461, -0.4601544224839532]], "biases": [[0.16292723962213923, -0.036132118776351335, 0.40098770519965266, 0.00110655686361111, 4.392684723416445e-06, 0.20471159968124147]]}, "layer3": {"weights": [[0.7658525222630768, 0.8182692539794554, -1.019976431215491], [1.0810914930141398, -0.6648315490163098, 1.8896547593484199], [1.5200739697330408, 0.7466806873374999, -0.34227326480116405], [-0.2749956942144849, -3.088513624170071, 0.9523484088128975], [-0.9465368174820636, 0.4132397060176366, 2.025031106839183], [-1.4633593810517938, -1.4585955414204235, -1.0339585875324637]], "biases": [[-0.23945155953986186, -0.24162864796383618, -0.07627027201216119]]}}, {"layer1": {"weights": [[0.015668673476035934, 0.4704203204843491, 0.8835770934142984, 1.1760345574644626, -0.8792820397533019, -0.3111699751448007], [-0.21584543644562032, 1.4436100267049077, -1.0304948214616303, 1.39050758021011, -2.0798805596315546, 1.3669886726535183], [-1.3111585336632603, -0.8720719843273321, -0.11161894717272197, 1.1929165693592394, 0.605185154907077, 0.7051143765136669], [-1.6262528337021935, -1.145593047571806, 1.1498458267220522, 1.7139199209040017, -1.3696202773635409, -0.22422234678551314], [-0.16084451300443778, 1.1120806517084105, 0.889831862517741, -0.9723754848279631, -1.341307313460363, 1.686440035224335]], "biases": [[0.2437127076942001, 0.06610196312602236, -0.20320902317175246, -0.11522376833607861, -0.22252390355611001, 0.08553296281389203]]}, "layer2": {"weights": [[-1.0008204355088088, -0.06151644747405321, 0.6885595734284327, 0.621112133083889, 0.4297295390313094, -0.35615906002537645], [-2.017106490868052, 0.4450887692152727, 0.5935353482776892, 0.2721635829200837, -2.3190598735864807, -0.8257916090061403], [1.2988697809287992, 1.2432504082683389, -0.17208322021600003, -0.5443979553384677, 0.10638303203802443, -0.9214155565916822], [0.4831900568983048, -2.561526139785223, -0.036212492962329826, -0.9898525892420202, 2.2200073937467852, -0.626878397229149], [-0.7287335787961664, -1.5514902264721386, -0.5875814601380899, -0.2295079965557021, 0.35180949763803665, 1.9328746978876996], [-0.05917071256808914, -1.3954047288719351, 2.4749379144314028, 0.26719726355511514, -0.7309067947746646, -0.4601540475065719]], "biases": [[0.15191564860188864, -0.03613123255508664, 0.4009898256403706, 0.0011069615208400365, 1.856353155054488e-06, 0.20475701606490848]]}, "layer3": {"weights": [[0.7650107189471735, 0.8182661802590527, -1.0534647283107823], [1.1971904253811183, -0.8171643047198159, 1.7272962977817476], [1.5200569031118745, 0.746758937954228, -0.3393228072138059], [-0.28417931030083077, -3.1069869061541837, 0.8619389449673762], [-0.9221777578912267, 0.4132450338522564, 2.0250003164888404], [-1.461746691394781, -1.4478818555535038, -1.0339835539389477]], "biases": [[-0.2987512318703094, -0.23811686551327957, -0.07612742248095214]]}}, {"layer1": {"weights": [[-0.003937318859707941, 0.4419289068141593, 0.8885400407506228, 1.1748165259685759, -0.8795587818002246, -0.31117027282094156], [-0.10931920448958612, 1.459072979333631, -1.0164272842317625, 1.5274113759207215, -2.0800261842948133, 1.3795350160385285], [-1.2573157738016663, -0.8754584968664988, -0.11161849130239536, 1.200414005080304, 0.5677033617424606, 0.7030886416988746], [-1.538976169963171, -1.1709432338212344, 1.197822874709024, 1.7154152933619031, -1.366581896383935, -0.24004395440009374], [-0.11036047699538046, 1.1096554754909342, 0.9106386130111954, -0.9723761937471102, -1.2855480075491414, 1.676846860369697]], "biases": [[0.2246542520144045, 0.06611305816588983, -0.20320862688209013, -0.11356086116910785, -0.22252476534774995, 0.08939670409259276]]}, "layer2": {"weights": [[-1.0145020602643826, -0.06692829744015512, 0.6732507623086382, 0.6673889160043036, 0.451337190851383, -0.36179765672807074], [-2.0046072269679374, 0.4224698362696868, 0.5861397281175185, 0.28271412531153134, -2.3501907706778242, -0.6500185038707516], [1.2988712901160409, 1.2827469708933563, -0.19549814767185147, -0.6620798839955766, 0.10653484755950049, -0.9151344479824384], [0.4960752946125239, -2.5830056345490404, -0.036212492231671056, -0.9338725033197485, 2.2200187473483104, -0.631708895253668], [-0.7399606284247148, -1.6200718325181347, -0.5879322224086083, -0.26356874643645384, 0.32451438044207026, 1.9189764775015843], [-0.058803380030786195, -1.413928594684699, 2.4876561730054423, 0.258912338010533, -0.7308519939159018, -0.4601543053035216]], "biases": [[0.15742149735774025, -0.03613184183220612, 0.4083348796402983, 0.0011066833189951495, 3.6000811083033336e-06, 0.20275267737726882]]}, "layer3": {"weights": [[0.6674543649394762, 0.8446324879218975, -1.0367092118590853], [1.1100112786650558, -0.8275975972857859, 1.8384675616209656], [1.5200686364139262, 0.7467051406552274, -0.34135124680511464], [-0.2780832492186641, -3.018582951278136, 1.0570989638509327], [-0.9389246113599271, 0.41324137096595537, 2.025021484854701], [-1.4628554155339772, -1.4552475145870112, -1.03396638953449]], "biases": [[-0.26510569836352105, -0.23273944905071628, -0.07622563153365836]]}}, {"layer1": {"weights": [[-0.0001922238048166474, 0.4663092081139298, 0.8871865096588979, 1.1748866075375586, -0.8794833066965185, -0.31117019163653953], [-0.020147144298411163, 1.4552054534655654, -1.0305216964273074, 1.3905059729607723, -2.079986468477561, 1.3646567020947211], [-1.3111610028040368, -0.8754584970750974, -0.11161861563066625, 1.19836924988365, 0.5768953763186714, 0.7036411148301817], [-1.613669266177662, -1.1720366069016972, 1.1360081791541994, 1.6962774843083834, -1.3663936122793736, -0.22422062963851103], [-0.17906438950055062, 1.1120495565205974, 0.9106388624821162, -0.9723760004055246, -1.33615890908964, 1.6785709423261501]], "biases": [[0.2295571174807129, 0.06611003224592597, -0.20320873496108896, -0.11408817942521145, -0.22252453031366634, 0.08834295647112893]]}, "layer2": {"weights": [[-1.0112283099794153, -0.15144558397564262, 0.6780487475004527, 0.6737005209694716, 0.4586679645817011, -0.3602598576273359], [-1.9829310342127866, 0.42722944738271235, 0.5934503483154141, 0.3023829102683355, -2.3098547198972543, -0.8257915350424546], [1.2988708785195204, 1.2747267349076363, -0.19549353722806, -0.6230366308720895, 0.10649344332637066, -0.9163906543043631], [0.4837579281959308, -2.561805340237828, -0.03621249243094163, -0.9939618687464655, 2.220015650911531, -0.6040721739352977], [-0.5392067618257164, -1.5476288521840036, -0.5531095412146344, -0.2542794510144306, 0.3518099667403278, 1.9400185881006924], [-0.058903561631868814, -1.4128273570285126, 2.4873466770096626, 0.2671968725892913, -0.7308669396046553, -0.3751131465099645]], "biases": [[0.15742144411201392, -0.03613167566571899, 0.4009887654200116, 0.0011067591922255733, 3.1245189392354664e-06, 0.20473430787307498]]}, "layer3": {"weights": [[0.7654316206051252, 0.8182677171192541, -1.0367205797631367], [1.1391409591976291, -0.7210876371156809, 1.7522250030367412], [1.5200654364224575, 0.746719812645864, -0.340798036007485], [-0.2795875022576578, -3.0977502651621274, 0.9071436768901369], [-0.8616750717265262, 0.4132423699349465, 2.025015711664012], [-1.4625530362232873, -1.4502326753953374, -1.0339710707357057]], "biases": [[-0.2691013957050856, -0.23987275673855787, -0.07619884724655666]]}}, {"layer1": {"weights": [[-0.01605312108566923, 0.46219809574351045, 0.8907959259034974, 1.1737386576106545, -0.905444577411781, -0.31117040812827834], [-0.07380612189846504, 1.4668008802262231, -1.0305485713929845, 1.3905043657114347, -2.0800923773235676, 1.3623247315359241], [-1.3445163283882728, -0.8788450098228626, -0.11161828408861053, 1.2038219304080606, 0.557482314786444, 0.7021678531466964], [-1.6010856986531303, -1.1984801662315885, 1.1221705315863464, 1.6977771698981128, -1.3631669471952064, -0.22421891249150894], [-0.19728426599666346, 1.1120184613327844, 0.9314458624464913, -0.9723765159830862, -1.4574483927119712, 1.6707018494279655]], "biases": [[0.21540152726722567, 0.06611810136582959, -0.20320844675042546, -0.11730058050361988, -0.21157912477219168, 0.09115295012836583]]}, "layer2": {"weights": [[-1.0216361844500217, -0.1553814748600804, 0.6675379215724728, 0.7262889088550543, 0.48760639013209284, -0.36436065522929545], [-1.9743673771117565, 0.409370125550152, 0.5933653483531389, 0.31005603200757015, -2.300649566208028, -0.8516604455590869], [1.2988719761102416, 1.306203061546934, -0.21890385424011996, -0.7016753064057113, 0.10660385461471689, -0.911365752017044], [0.4843257994935567, -2.590227791472924, -0.11908940321244627, -0.9980711482509109, 2.2200239080762767, -0.5812659506414464], [-0.7306010973455956, -1.5437674778958685, -0.5533646410477389, -0.31001014554541295, 0.3518104358426189, 1.9471624783136854], [-0.05863641069564848, -1.4302499851850903, 2.4997554395879225, 0.2671964816234675, -0.7308270844346461, -0.3751133339986552]], "biases": [[0.16292723962213923, -0.036132118776351335, 0.40098770519965266, 0.00110655686361111, 4.392684723416445e-06, 0.20471159968124147]]}, "layer3": {"weights": [[0.7658525222630768, 0.8182692539794554, -1.019976431215491], [0.9411486736722089, -0.6449212592639277, 1.8334042338200773], [1.5200739697330408, 0.7466806873374999, -0.34227326480116405], [-0.2749956942144849, -3.088513624170071, 0.9523484088128975], [-0.8738546015219446, 0.4132397060176366, 1.979085554527235], [-1.4633593810517938, -1.477440373021682, -1.0339585875324637]], "biases": [[-0.23945155953986186, -0.24162864796383618, -0.07627027201216119]]}}, {"layer1": {"weights": [[0.0012400651919852977, 0.4566885026955566, 0.8856073900518856, 1.1759294351109886, -0.8326819575342838, -0.3111700969214038], [-0.1625855744219355, 1.449411315507006, -1.0164054483221499, 1.456670641247277, -2.079940133357433, 1.373553340665873], [-1.3311324385938101, -0.8754584973184625, -0.11161876068031563, 1.1959837021542203, 0.5885638282538781, 0.7042856668167065], [-1.5492003185768528, -1.1733122088289036, 1.149704595081977, 1.7146690448435618, -1.3680383255055508, -0.23213336523617872], [-0.1357191065774887, 1.1096807403310325, 0.8740271593719326, -0.9723757748403414, -1.3419286490090387, 1.681400256528923]], "biases": [[0.23418345981580746, 0.06610650200596814, -0.20320886105325425, -0.11463573578098005, -0.22252425610723545, 0.08711358424608778]]}, "layer2": {"weights": [[-1.0057310609362595, -0.06373038609654945, 0.6847882975159991, 0.6446902710416903, 0.4224834886099179, -0.3584657586764787], [-2.0108572564720917, 0.4340740833973652, 0.5898481631928882, 0.2764797138984032, -2.313881974636291, -0.8257915674015671], [1.2988703983235799, 1.270414308262985, -0.1837891471293286, -0.6029628350236984, 0.10644513838771918, -0.9170187189655152], [0.4835094845032194, -2.572230987110556, -0.03621249266342397, -1.0472341909316145, 2.2200120384019546, -0.6467675394608583], [-0.7742490719731856, -1.5506202890329934, -0.5877249537942111, -0.2434419396887369, 0.338161880402267, 1.9518781901639874], [-0.05902044016646521, -1.4031542177065328, 2.4869855983479203, 0.26719704363683927, -0.7308843762415344, -0.46015415296896045]], "biases": [[0.113777621612171, -0.03613148180481734, 0.40098922926641867, 0.001106847710994401, -0.019582098223354057, 0.20375768524506785]]}, "layer3": {"weights": [[0.6671123823423906, 0.844631239222984, -1.0367338423178634], [1.1534959045822584, -0.8178038385705293, 1.7545419786408045], [1.5200617030990775, 0.7467369299682732, -0.34015262341025043], [-0.2819229307423402, -3.127538127750388, 0.8846402243017535], [-0.9290287434011496, 0.4132435353987696, 2.025008976274874], [-1.4622002603608157, -1.450895079703575, -1.0727254157903083]], "biases": [[-0.28286937473050633, -0.23131278743017764, -0.07616759891160468]]}}]