[{"layer1": {"weights": [[0.011284702036849496, 0.6000404362881766, 1.186451556287631, 1.2612229258078516, -1.2250087207143978, -0.23446018493505105], [-0.45618308367413546, 1.4502891882092908, -1.1725125668554859, 1.3773804234482423, -2.082180656050574, 1.3005954409909695], [-1.9817857912482126, -0.8623221869227912, 0.05040175425151393, 0.9730717473013843, 1.0078712904808418, 0.5473220294685247], [-1.5742794361528818, -1.159369878129819, 1.010669017202086, 1.7482013284603672, -1.312212986531783, 0.07115693643066315], [-0.23130720864226237, 1.073974707074106, 0.8080585258202508, -0.8301059289955912, -1.3521753028868568, 1.803450795641925]], "biases": [[0.31935506684813253, 0.03637741450743756, -0.3457559688610333, -0.042255238203674717, -0.39306667254179767, 0.08302824240642859]]}, "layer2": {"weights": [[-0.9956583161167953, -0.3382584907972097, 0.1662503744229672, 0.2812961620301788, 0.7114185164336806, -0.08862385377690196], [-1.9836582160262193, 0.4258976691567301, 0.44465371898878797, -0.055809850155802226, -2.767604925382413, -0.7643604153427279], [1.289209509775838, 1.1501962097133807, -0.2786065475893468, -0.4624327420356367, -0.14840502627747848, -0.5572840562991712], [0.41031754568415657, -2.6185967677465527, 0.062239693899175164, -0.4282986988062768, 2.131146881740615, 0.6385939524637092], [-0.46155066606502665, -1.8323118817176507, -1.1689810225082393, -0.2112605416755322, 0.3391337360893511, 1.7017474774583157], [0.16544835902886118, -1.4793095521716317, 2.375472182521794, 0.24599159274229992, -0.906032629530116, -0.4919684978773596]], "biases": [[0.05515123151641885, 0.06113014116430988, 0.46326865784503146, 0.17848789566042542, -0.15447516298719227, 0.3824129160986627]]}, "layer3": {"weights": [[0.7010486577444697, 1.016022242987923, -0.8513054678838357], [0.9855889233500754, -1.0308876227550625, 2.059471737678864], [1.7753534915414146, 0.5855182857360286, -0.23005715478106428], [0.3157324997792964, -3.5137683768527372, 1.2522580766789049], [-1.2508793165347094, 0.31531066185182977, 2.1661013141363785], [-1.567386216920557, -1.566540505615626, -1.040234742115874]], "biases": [[-0.13711208506775882, -0.2549323382862776, 0.201341557574943]]}}, {"layer1": {"weights": [[0.007856614032741887, 0.5999787402461464, 1.1668561373728659, 1.2539465508744234, -1.233712764928212, -0.2350803014188157], [-0.4488357439724659, 1.4354164156568272, -1.1722171652212874, 1.3790494000199098, -2.078902801325259, 1.3104196311049918], [-1.994762008422115, -0.8623216466373439, 0.050301913864253825, 0.9780319142692813, 1.0071357762271342, 0.5473588796717221], [-1.5686472521866164, -1.1635031130683333, 1.014923900323143, 1.7509309512222129, -1.415884176917459, 0.07004925092127186], [0.01865756665456573, 1.0736167208680234, 0.755193855314926, -0.82646606841015, -1.3609707472764574, 1.783595459116723]], "biases": [[0.31954586944097463, 0.03590578481456677, -0.34575362946262456, -0.041715173400788674, -0.39170428210799396, 0.08302663101363508]]}, "layer2": {"weights": [[-1.0004382952515987, -0.335657557381479, 0.15534693879841321, 0.30338594176146627, 0.7098025672473249, -0.1374598407411386], [-1.9999725027410096, 0.5019976294833457, 0.5106599468693483, -0.0020717600556149247, -2.675485625401516, -0.7694129202377719], [1.341864682750019, 1.1774511775629062, -0.28051110225752784, -0.4609058423397586, 0.040912440178404424, -0.5958288617079952], [0.4103071569973782, -2.591880823414762, 0.06234391169057593, -0.4782205889104795, 2.1295332680553862, 0.6281801871985225], [-0.40183119057192834, -1.8331546031734436, -1.1017628646656266, -0.21418502426689598, 0.33535147208168076, 1.696725190681226], [0.16533488623599607, -1.5183195659228954, 2.3291772424968196, 0.23367842532379157, -0.9066058723750453, -0.4777481514580757]], "biases": [[0.05683365444302148, 0.0649865140672135, 0.4669502860102548, 0.17848798704129434, -0.1687577994021523, 0.38292959235201884]]}, "layer3": {"weights": [[0.7035803294785656, 1.016242204882471, -0.8572984948087167], [0.97511443512227, -1.028669370003413, 2.0576632827952803], [1.7422508881200145, 0.584725320943535, -0.3223868231038566], [0.3508187274848268, -3.516491470726039, 1.2493085848751997], [-1.243561561275151, 0.32456082007654835, 2.1788208099258735], [-1.566261455979387, -1.5723600961545237, -1.0358767343131827]], "biases": [[-0.1357324999951091, -0.3275078472392536, 0.10057960308202044]]}}, {"layer1": {"weights": [[0.01027256879576008, 0.5999916156290046, 1.1689777472358402, 1.2585156904272243, -1.2554852092079771, -0.23508981805588075], [-0.4410308045657323, 1.4311576827356771, -1.218624931004453, 1.3765137944007173, -2.08246656547645, 1.3065203092812288], [-1.995971079197729, -0.8623219579222678, 0.050470855672462275, 0.9741205699286037, 1.0078902851323337, 0.5473359464983334], [-1.5746828057972726, -1.165894871205809, 1.010657643437507, 1.7484975592020602, -1.4282501564972723, 0.07170746448667592], [0.01834378295883863, 1.1724916196740793, 0.7896249686748035, -0.8290835709487366, -1.3368017586948047, 1.7487993733496467]], "biases": [[0.3190233083134317, 0.037305392055107814, -0.3457557489056621, -0.042671318429385936, -0.39403632503997954, 0.08302797481476663]]}, "layer2": {"weights": [[-0.9994813341500994, -0.34536732471048914, 0.1556172490327591, 0.18923032100334897, 0.7070092968402238, -0.13275673350304548], [-1.983284727690401, 0.4975467928244467, 0.5128196356826338, 0.04081887541607465, -2.7671618340313744, -0.7625328811818438], [1.3444070693871715, 1.1704187399164354, -0.27758868826599975, -0.4675113142644525, -0.14479844051121538, -0.597464002273315], [0.4103212871160737, -2.563254320202477, 0.06294906988891284, -0.4428973959113912, 2.130931393279966, 0.6384308775143623], [-0.7211933575166378, -1.832693849335221, -1.0991685389510097, -0.21068206791941818, 0.3385979977101011, 1.6988597770022813], [0.16546640365871956, -1.4789294524784133, 2.3251925352710074, 0.2527581308432019, -0.9062965496951689, -0.48408506549859615]], "biases": [[0.05536632213149839, 0.055403548266221146, 0.46112871607805567, 0.17848786563709113, -0.17026530456541197, 0.38370543431731385]]}, "layer3": {"weights": [[0.7030664390589427, 1.0161096094819189, -0.8577000653469471], [0.9798335699046761, -1.031583338199708, 2.0618732375683004], [1.746010153031605, 0.5854647602421796, -0.23006044263013115], [0.35937552649756943, -3.51449742338406, 1.2564918506599108], [-1.2564615648276365, 0.3163726852831581, 2.164025291421586], [-1.5890397610499185, -1.5734879945130218, -1.0306893292704122]], "biases": [[-0.13744687516224516, -0.25499895971817016, 0.10157547652457814]]}}, {"layer1": {"weights": [[-0.010824201612786263, 0.5992294724868948, 1.1607357509133576, 1.1700580058309136, -1.2526845565866678, -0.24177511652477518], [-0.4568173430567223, 1.4278529200127452, -1.171312753167906, 1.3776604267505745, -2.0600197376895393, 1.3196635185765133], [-2.0024338156870476, -0.8623124771439594, 0.05071063196825028, 1.032137904963573, 1.0077255359667123, 0.5476987728568625], [-1.5411250257129585, -1.1582970673277808, 0.9913990065472763, 1.7687223421820601, -1.4230753552918016, 0.06022887016471955], [0.02247014521600727, 1.0824982552045128, 0.7202533531911928, -0.7897595547492279, -1.326570655524692, 1.8282142228261637]], "biases": [[0.31887355077507223, 0.03726016114875158, -0.34574180492977774, -0.04019392366469615, -0.394973038176734, 0.08302273623756641]]}, "layer2": {"weights": [[-1.0310280910040894, -0.3637224173105389, 0.15079488482901582, 0.3337041990402534, 0.7014566533374373, -0.18604588520319798], [-1.9874547564496727, 0.5137951265680591, 0.4801900363213173, 0.041089185609145776, -2.76224006608668, -0.7648160819133354], [1.328860676159413, 1.1689109817283023, -0.2727793244729373, -0.4739845376823272, -0.14907315796549828, -0.5974273877178512], [0.41033834231624106, -2.5451388613727417, 0.07521793235811411, -0.4736891167239988, 2.1252860978251658, 0.6429887327203418], [-0.4532885922777213, -1.8392966361098606, -1.0981749881984082, -0.22390116163554713, 0.32677986572402873, 1.7142051181667428], [0.1648159379826051, -1.4532791170921637, 2.3326742065318626, 0.20890793143609065, -0.9104246967018956, -0.4595438741883776]], "biases": [[0.06602437191314156, 0.05495510988900082, 0.4785353568444838, 0.1784898626845947, -0.16315458951660525, 0.383405745655499]]}, "layer3": {"weights": [[0.7100739341192306, 1.0175575167238184, -0.8503389864971395], [0.981828864154507, -1.0478480319657166, 2.0712866508173264], [1.6600779786217053, 0.5812053255547316, -0.23016670704724962], [0.4040233782848554, -3.5261183700506598, 1.23242218154072], [-1.2430936604173595, 0.34985010875038725, 2.2070109636078454], [-1.5812384230644185, -1.5649517568078388, -1.079170249889501]], "biases": [[-0.12675450919014314, -0.2549844380584178, 0.10179787284145515]]}}, {"layer1": {"weights": [[0.02653742967827004, 0.6007280080053979, 1.1729765238323742, 1.337835095917933, -1.2147409732697563, -0.22838548631285624], [-0.4408541448882095, 1.4429799113009092, -1.1731215772746688, 1.3804383732892453, -2.097785864960978, 1.3011757436334705], [-1.9870902011571823, -0.8623308161307284, 0.049893195760257365, 0.9239259235749896, 1.0065460164875561, 0.5470189864865818], [-1.5961694786602743, -1.168709158808886, 1.0384487940990095, 1.7331395602623654, -1.423814694013874, 0.07986963167782417], [0.014844988093124185, 1.064735186531534, 0.7901343574386592, -0.8631725820710722, -1.3953708390282227, 1.7389766954072818]], "biases": [[0.3202181881068771, 0.03455140848038197, -0.34576545399547143, -0.0432364231368812, -0.3884355260392539, 0.08303052578970377]]}, "layer2": {"weights": [[-0.9698484994991078, -0.30759269745241913, 0.15989899276781058, 0.2730676844826791, 0.7181484811572125, -0.08887379627907921], [-2.0124902490323464, 0.4902001323986323, 0.5411298574173794, -0.045232705720375625, -2.772908086374475, -0.7740097585622083], [1.3548686893406248, 1.1859913733975098, -0.28824288004211834, -0.44782714699719006, -0.151893501728134, -0.5942303356981393], [0.41027597167851526, -2.638622785456782, 0.049469891023037754, -0.42024381802999355, 2.133780438285607, 0.6133716416767032], [-0.5569234002562257, -1.8270125702370268, -1.105350741132845, -0.20446888689824483, 0.3439230784393328, 1.679245263195709], [0.16585383448938706, -1.5008744816171362, 2.3256802784617765, 0.2584489192114925, -0.902787048048195, -0.4959524287277738]], "biases": [[0.04764293697290139, 0.07501791824542617, 0.45536521517602585, 0.17848611139799397, -0.17436100928769932, 0.3824534390485387]]}, "layer3": {"weights": [[0.6970867248379008, 1.014926893041124, -0.8642580031202939], [0.9684000060900331, -1.0094907080411097, 2.0440399147732347], [1.8244237976183237, 0.5882453163323385, -0.22999602408899095], [0.2976140766847981, -3.5068645714014175, 1.2661949882096795], [-1.2440294621329426, 0.29927153140270946, 2.1506306562439015], [-1.5512844888943556, -1.5797684355012083, -0.9925832187368642]], "biases": [[-0.1447104908000751, -0.25424692834150653, 0.09936133332258573]]}}, {"layer1": {"weights": [[-0.08646126784826817, 0.6002501944559098, 1.1489094976866678, 1.281005587956935, -1.2175890817452264, -0.2326225010401769], [-0.4479781250126751, 1.436661538826764, -1.1723966356338564, 1.3788425188203708, -2.0861697993626294, 1.3049193917951623], [-1.90291063773232, -0.862324471099404, 0.050268470333506815, 0.9605309006332139, 1.007057519666364, 0.5472304916232243], [-1.5810937623051493, -1.1667224620287664, 1.0040075208462775, 1.7437676692434585, -1.4257617951176667, 0.07365725420569444], [0.017078957024961015, 1.2134924689304887, 0.78378461898658, -0.8383077326417093, -1.3640365052900556, 1.7526190326830318]], "biases": [[0.31969684001895166, 0.03571895335326695, -0.34575872693155996, -0.04275720937480789, -0.41177037273683553, 0.08302917018801692]]}, "layer2": {"weights": [[-0.9870695450900868, -0.3277965005890977, 0.15529140530768637, 0.2903259130893279, 0.742999585960099, -0.11448325221035341], [-1.9793002522510736, 0.4974594091445535, 0.5658252203602988, -0.03816113121742147, -2.7689716492863012, -0.7661809388799765], [1.3173235438218902, 1.1793510133085707, -0.2759582405734132, -0.45763795817005726, -0.14994411981012165, -0.6366413730726221], [0.4103101998911831, -2.7055112365974328, 0.05922727763810687, -0.43525759998559366, 2.1348055590914616, 0.633807509324204], [-0.45928437691515656, -1.83089468617145, -1.1175541216009361, -0.2086974074978096, 0.30228422066403204, 1.687110707370541], [0.1656303998473113, -1.4685026757222097, 2.3253058294593356, 0.2535700963874795, -0.9052886243417365, -0.48772743121252865]], "biases": [[0.05295572732916615, 0.04916428501543983, 0.4597668023237004, 0.22163289148130316, -0.17096292402116045, 0.3832826904699657]]}, "layer3": {"weights": [[0.7008768254924427, 1.0157605627004083, -0.85969533591516], [0.9775085380774703, -1.0236372476448152, 2.0553134186445927], [1.7691676962879646, 0.5863510294503651, -0.23003708050115507], [0.4179742088369021, -3.452794390775014, 1.2582991020885474], [-1.236799002606987, 0.3097028581703529, 2.1598090346723327], [-1.5527323270942648, -1.5750877470844113, -1.0197525246699664]], "biases": [[-0.13888717194142353, -0.2549078146104222, 0.1003108232065529]]}}, {"layer1": {"weights": [[-0.04420251348533019, 0.5998503501726047, 1.1679827673131924, 1.2355154072079797, -1.1959562864585536, -0.23594905917788167], [-0.4748973528447714, 1.4662615074458318, -1.1715897248975407, 1.3774491252613301, -2.124729113107498, 1.296542396781556], [-2.1063252899885674, -0.8623192434076522, 0.0505202901171903, 0.9903254132032772, 1.0081080474187538, 0.5474138650070373], [-1.5663382083309285, -1.164581989255621, 0.9985609194201994, 1.7532191522092206, -1.428643864526248, 0.0675002196385855], [-0.023463706835217285, 1.0764002194909663, 0.8233172137396587, -0.8186958623277645, -1.3518816802098255, 1.755158992289343]], "biases": [[0.31942615133887065, 0.036033209396209784, -0.3457528252844489, -0.04159955109692684, -0.4133799158235037, 0.08302783219724713]]}, "layer2": {"weights": [[-1.0475955698791795, -0.34125155845226957, 0.21498134490227983, 0.30590479677205734, 0.724265280320729, -0.05729570201639553], [-1.9674367059714013, 0.5044545544839109, 0.5223957569074112, -0.03450126475585313, -2.766079798189365, -0.762273539662496], [1.3409106203681018, 1.1266534994658566, -0.27348208717834116, -0.4622595753932545, -0.15103692108473538, -0.5985743377352843], [0.4103309183585733, -2.829011080727187, 0.06640901121697204, -0.4212068926789625, 2.131874930604191, 0.6519872810835821], [-0.42207063576676984, -1.833870972067292, -1.107314265447623, -0.21395327573142858, 0.31595328904754205, 1.708567900001766], [0.16531859707796492, -1.463503748917387, 2.327580383874052, 0.23678564322939144, -0.9281411957289123, -0.4957394314985004]], "biases": [[0.05759253607947168, 0.04337531759874044, 0.4676093931858445, 0.2000613157254143, -0.1483567734377002, 0.3815350235907251]]}, "layer3": {"weights": [[0.7009259267572675, 1.0163517113235696, -0.8133331589659982], [0.9958985427891933, -1.0372651771122698, 2.0627069897251062], [1.7770687793860445, 0.5846246677888909, -0.23007439513807948], [0.36105039984221965, -3.4860042400082136, 1.244076359637333], [-1.2416818384788044, 0.31946430180432317, 2.172766526065387], [-1.593937517973041, -1.557252672509832, -1.0633648079278872]], "biases": [[-0.1338656355439467, -0.25519615998884293, 0.1006971072524373]]}}, {"layer1": {"weights": [[-0.11281577552927011, 0.600540691065585, 1.1714464272174971, 1.3168629596570556, -1.2194839211843702, -0.2300591900893461], [-0.4428495446592736, 1.4410890373898888, -1.1728954742613236, 1.3800911299719116, -2.0930650990520485, 1.303486715501351], [-1.9890081529734154, -0.8623285237573822, 0.049995375286256485, 0.9374524212485624, 1.0066934564224508, 0.5471039597828669], [-1.5892889220418598, -1.1674076473737478, 1.0325675706550428, 1.7375874080023272, -1.423722276673615, 0.0774145364886861], [0.01579813273348457, 1.0705664132754884, 0.7813992319077259, -0.8539959536558417, -1.3867708160902814, 1.7501313863346422]], "biases": [[0.3200501084404015, 0.03489000256392817, -0.3457624978622597, -0.042856110702858066, -0.38925271505643894, 0.0830295520956866]]}, "layer2": {"weights": [[-0.9774959484372305, -0.3146089124346841, 0.15876097927546123, 0.2806472488023759, 0.7560777661816731, -0.10102030739459406], [-2.009360812459512, 0.4931495066698106, 0.5939793663974493, -0.04259272320623542, -2.7715745838385004, -0.7728605489810992], [1.3516176876929733, 1.183856324438859, -0.28630993559597073, -0.4510968208328322, -0.15154095875780454, -0.5946299672006032], [0.41028376800823096, -2.726901436997484, 0.0526883961899223, -0.42692448036674424, 2.132718645728052, 0.617073778057158], [-0.5420005713091222, -1.828548078471131, -1.1251889790763072, -0.20689792124040762, 0.29320703908048174, 1.6836152450670883], [0.16572409742603933, -1.4728973517426525, 2.3265545194705375, 0.25225629573956726, -0.9037417541299075, -0.49140135941034924]], "biases": [[0.04994061634043141, 0.072510067200873, 0.4582614828845831, 0.17848658030881906, -0.17296020681631258, 0.3825724773744087]]}, "layer3": {"weights": [[0.698710125998067, 1.0152557210014606, -0.8625181260423995], [0.9700786133480923, -1.0142853735316857, 2.047445756778746], [1.8038805702437464, 0.5873653174851377, -0.23001735945877327], [0.31091523938480525, -3.5092712962325727, 1.2619733873760595], [-1.2263306841772241, 0.3055938535711692, 2.1576781946643946], [-1.5550287306656134, -1.577916350664537, -1.0034065976309439]], "biases": [[-0.1424659930988336, -0.25433911705612045, 0.09966590076244441]]}}, {"layer1": {"weights": [[-0.005992292086749878, 0.5992552232526112, 1.1649789706393063, 1.1791962849365158, -1.296229445146198, -0.2417941497989053], [-0.4412074642432551, 1.419335454170445, -1.1730242987113817, 1.3725892155121893, -2.0671472659919212, 1.311864874928987], [-2.0048519572382757, -0.8623130997138074, 0.051048515584667185, 1.0243152162822178, 1.0092345537771112, 0.5476529065100849], [-1.5531961329342707, -1.1630805836027323, 0.9828664927760047, 1.763855558141755, -1.4326856189806705, 0.06354529729552766], [0.021842577824553074, 1.0871086599147721, 0.7891155799109477, -0.7949945598264011, -1.2782326783613867, 1.7586220512920114]], "biases": [[0.3178284285199863, 0.040059375629833666, -0.3457460438158527, -0.042106213721890676, -0.3996371240407051, 0.0830254238398295]]}, "layer2": {"weights": [[-1.029114168801091, -0.3831419519685591, 0.15133550529770756, 0.3198718240519217, 0.7038461287389385, -0.17663967072701175], [-1.9540792063484556, 0.5048934532502611, 0.48450941394788816, 0.12687045655252494, -2.761415581688274, -0.7510560038014793], [1.3339454494337182, 1.1548461064353608, -0.26693449648988116, -0.487195481531715, -0.13770337929429677, -0.6006976688484906], [0.4103666025536321, -2.5591022292651893, 0.07642824875478793, -0.4655509737927889, 2.1280823482743245, 0.6634901133520213], [-0.34749896912927214, -1.838375128433415, -1.0929863367691746, -0.21689524894059153, 0.33327291698086936, 1.7184742908088535], [0.16507897282805206, -1.4569844233396907, 2.3247047920802384, 0.24706734247491138, -0.9098060513421429, -0.4722177022694185]], "biases": [[0.06308970729009539, 0.035789178287016124, 0.4668922169800855, 0.17848961987618828, -0.16616959984312463, 0.384957429586089]]}, "layer3": {"weights": [[0.7090461532799848, 1.017292325922714, -0.8511421275736002], [0.9912671337193191, -1.0536759683583061, 2.0797065603633667], [1.6675965084448863, 0.5826842041520208, -0.23012486117127134], [0.42113697631034075, -3.5221302753667025, 1.246788713110142], [-1.2688936675223301, 0.33347383916360673, 2.1774199265992706], [-1.6267950332054815, -1.5672075535248355, -1.0687954398039603]], "biases": [[-0.13018325952441523, -0.2557509910948338, 0.10378961972657055]]}}, {"layer1": {"weights": [[-0.09963852168876913, 0.6003954427607474, 1.1709079789120977, 1.2989342738069953, -1.2185365014647984, -0.2313408455647615], [-0.44541383483597435, 1.4388752881083264, -1.1726460549475899, 1.3794668243961412, -2.089617449207339, 1.3042030536482567], [-1.9904573255688986, -0.8623264974283931, 0.05013192280988165, 0.9489916609408882, 1.0068754880444075, 0.5471672257030455], [-1.5851913421735047, -1.167065054701257, 1.0233887108305608, 1.7406775386228928, -1.4247420358956409, 0.07553589534719027], [0.01643854487922279, 1.0720235284694186, 0.782591925447153, -0.8461518431487756, -1.3754036606901685, 1.7513752095088368]], "biases": [[0.3198734742296766, 0.03530447795859756, -0.3457606123969098, -0.042806660038832975, -0.39008420286676715, 0.08302936114185176]]}, "layer2": {"weights": [[-0.9822827467636587, -0.28749171506306803, 0.1570261922915738, 0.2854865809458519, 0.749538676070886, -0.10775177980247373], [-1.8168345813589835, 0.49402609374927786, 0.5890422280932872, -0.04031057278037149, -2.770273116562401, -0.7695207439305378], [1.3499725863989223, 1.2121046362573642, -0.281134088084692, -0.4540876404492282, -0.1481551888478887, -0.5962200160579502], [0.41029698394970704, -2.6994334296562297, 0.05595783691401458, -0.43109104017616895, 2.132360357850818, 0.6284529635374565], [-0.5006424741121394, -1.8297213823212903, -1.1213715503386217, -0.24071830941487513, 0.2977456298722569, 1.6853629762188147], [0.16567724863667532, -1.470700013732431, 2.3259301744649363, 0.25291319606352336, -0.9045151892358221, -0.4895643953114389]], "biases": [[0.05144817183479878, 0.08925327536778932, 0.45901414260414175, 0.17848702245215875, -0.13544256302403065, 0.3829275839221872]]}, "layer3": {"weights": [[0.6997934757452549, 1.0155081418509344, -0.8611067309787798], [0.9737935757127814, -1.0189613105882505, 2.0513795877116694], [1.7865241332658555, 0.5868581734677514, -0.23002721997996417], [0.2855374572173362, -3.5103679001837325, 1.2601362447323035], [-1.2476391571818506, 0.30764835587076106, 2.1587436146683636], [-1.522593991372005, -1.5765020488744743, -1.0115795611504552]], "biases": [[-0.14067658252012855, -0.25462346583327133, 0.13145553396807466]]}}, {"layer1": {"weights": [[0.027996734193922512, 0.5989402703802109, 1.1735757995436775, 1.2078990590169305, -1.2163279323495868, -0.24958142806969869], [-0.5372743208874153, 1.496459005328544, -1.098798472188677, 1.537799164058521, -2.0664190243504246, 1.305285306152051], [-2.0405069649758723, -0.8464198527577612, 0.052722476036672516, 1.0094408787814577, 1.0117514864212724, 0.5482645484948792], [-1.5403910517279753, -1.1678361033119706, 0.9860886685451931, 1.7585555792531946, -1.4396689061223402, 0.04915521138473728], [0.028698761663043682, 1.0103711709417336, 0.7848574582558157, -0.8464565257897274, -1.3996942225308362, 1.8946443890660858]], "biases": [[0.321458861081808, 0.03482195260624647, -0.34574034946016285, -0.042312174633520896, -0.39132260061119184, 0.08301094385459559]]}, "layer2": {"weights": [[-0.943221958255807, -0.35328522168544557, 0.12844941235006918, 0.32604562016714556, 0.7199820587241994, -0.07327836502343833], [-2.1447203974387445, 0.5145388513522279, 0.4907004357626056, 0.015870507173805108, -2.7519579570161303, -0.780988363057201], [1.3387609813523211, 1.17887289050847, -0.29057949601988775, -0.44974575099061675, -0.16788806014299212, -0.584338041390534], [0.41038893948605876, -2.58046006831123, 0.03890478135899111, -0.4857236260855259, 2.1243980770223807, 0.6203355336132712], [-0.5687565452645038, -1.8843400996410993, -1.1008935338950372, -0.21710291746175386, 0.30605850432910536, 1.734164116296299], [0.16559784172555841, -1.4464053035574023, 2.3121071667949105, 0.3375912394833071, -0.9115341867375721, -0.43952800401741116]], "biases": [[0.06820493336911876, 0.06998436862947835, 0.46643688754099144, 0.1784863303421812, -0.17584791202041733, 0.3747980097758628]]}, "layer3": {"weights": [[0.7227470737620678, 1.0075242505064754, -0.8512314295881835], [0.9709644039123488, -1.0359609555231335, 2.047979258856473], [1.6890392583659601, 0.5808521009774834, -0.2302757864377178], [0.3424346738574845, -3.505375630102351, 1.3513394691260432], [-1.2197261771247352, 0.304736594523227, 2.151850016543313], [-1.5536468504251686, -1.5557355625570914, -1.0685065707865218]], "biases": [[-0.12416114396530763, -0.25707533923204573, 0.0995181075671728]]}}, {"layer1": {"weights": [[-0.07850914450730015, 0.6001955206190949, 1.1697145972653447, 1.2761891834325176, -1.2512284013837753, -0.2330041246336139], [-0.4588734487520225, 1.4309798054252123, -1.172242599579432, 1.3787701276166209, -2.108897106079773, 1.3000145561414533], [-2.0476667214809914, -0.8623238835825172, 0.05025783270172339, 0.9638889172259197, 1.0074007519206023, 0.5472589123949521], [-1.577813565186394, -1.1659948183146844, 1.0155642450376212, 1.745403280105774, -1.4261830705999317, 0.07245737806363581], [-0.003832787050866357, 1.0734833163832274, 0.8023582228236923, -0.8363459079918031, -1.3693262481500534, 1.7526451893119925]], "biases": [[0.31973812988963607, 0.03546160598006898, -0.3457576615733543, -0.04222783089989245, -0.4013163154399713, 0.08302869214646687]]}, "layer2": {"weights": [[-1.012545759158205, -0.3279302354434768, 0.218498223363295, 0.29327602278721665, 0.7401715232512011, -0.0776870949601711], [-1.9883987592154568, 0.49880203057686073, 0.5581875616524303, -0.038546993981044275, -2.7688271910139326, -0.7675670443217977], [1.3462641540305376, 1.1552549119523579, -0.2798960113871559, -0.45667819811304333, -0.15128893992126996, -0.5966021524679438], [0.4103073431834021, -2.7779562588623357, 0.07491595144714915, -0.42406568652285337, 2.1322967881661214, 0.63453052957037], [-0.482035603537946, -1.8312095252692115, -1.1162516222619652, -0.2104255984859181, 0.3045801640640119, 1.696091572534427], [0.16552134725200213, -1.5384805755976954, 2.3270674516722947, 0.24452096948447935, -0.9159414749294099, -0.4935703954544248]], "biases": [[0.053766576209951546, 0.05794269239980672, 0.4629354380352138, 0.18927394801711667, -0.1606584901270064, 0.3820537504825669]]}, "layer3": {"weights": [[0.6998180263776672, 1.015803716162515, -0.8379256425041989], [0.9829885780686428, -1.0257752753219778, 2.055076373251926], [1.7904746748148954, 0.5859949926370143, -0.23004587729842638], [0.33598281961351245, -3.497637768120393, 1.0480237805901926], [-1.2340062613280143, 0.3125290776877462, 2.165222360364891], [-1.5744831243193271, -1.5675845115871845, -1.0333857027794155]], "biases": [[-0.13816581432139013, -0.2547676385224817, 0.10018150400744086]]}}, {"layer1": {"weights": [[0.027996667978168438, 0.6000766591016893, 1.2148391920918784, 1.275752074776338, -1.2175638328013276, -0.2334301525078257], [-0.4869687367970789, 1.4387802382668071, -1.1716715042947263, 1.3582885617079845, -2.084681017119154, 1.304978398603375], [-1.9915011376724363, -0.8623228597661355, 0.05036445910616566, 0.9645125038290145, 1.0074990012395317, 0.5473100505734073], [-1.6457162819348825, -1.1668946279851606, 1.0263747022100498, 1.7359894313010944, -1.4266080743464644, 0.07038368722101979], [0.04539165668206686, 1.0747570060871123, 0.7856748800850718, -0.8369151829884216, -1.3821213388673719, 1.720706109740096]], "biases": [[0.33528818212455913, 0.05381531274682215, -0.35720772483508056, -0.04047205687832003, -0.39055146572394284, 0.08302926393974105]]}, "layer2": {"weights": [[-0.9855284191632366, -0.3268808801900155, 0.2546615791793486, 0.2778166173080591, 0.7837650144319086, -0.134458339844786], [-2.035848356439578, 0.4994691509155754, 0.5179426349527869, -0.0423925776717319, -2.7686843722973715, -0.7691243129292367], [1.340086427745568, 1.178976898112432, -0.28677243481356085, -0.45459268375988715, -0.15240350118950313, -0.4783901100118338], [0.41030740893857753, -2.6676187344238396, 0.05834166369048648, -0.4415400746277652, 2.1329979001882577, 0.6188099843529078], [-0.5392189659176305, -1.9419208979894786, -1.1187197198867183, -0.21310911220085832, 0.2872678546751341, 1.6879207975558859], [0.16513223005513591, -1.4819422384672667, 2.334724350956485, 0.16009914400921835, -0.9042255846192235, -0.5215035143319586]], "biases": [[0.04778688685667641, 0.07018948675103193, 0.47218007662104766, 0.1784877411590982, -0.16370847262251853, 0.36848426297165104]]}, "layer3": {"weights": [[0.6949309218343587, 0.9736169538602726, -0.8603713651501959], [1.0011327913814396, -1.0291166408939358, 2.067164327184667], [1.8114187111066333, 0.5860023885581314, -0.23004024110236293], [0.3260686518865139, -3.254422566035098, 1.2310196439710412], [-1.2228840761689, 0.3085535280894933, 2.159022832181445], [-1.553301275336507, -1.575071704107281, -1.0129782265254117]], "biases": [[-0.13804650192752949, -0.23560942063581952, 0.09995805303556034]]}}, {"layer1": {"weights": [[-0.0068801759537603325, 0.5993717277468411, 1.1631281631383403, 1.173360468977196, -1.2228645103562885, -0.24073568994077993], [-0.45883522614427497, 1.4255499954312456, -1.1719321359181878, 1.374931593958716, -2.0632943619399295, 1.3127387371037411], [-2.0016928445386877, -0.8623131123191403, 0.0508234536269708, 1.0297451233396548, 1.0093908357662018, 0.547625180824348], [-1.5506384567288254, -1.1274427186624554, 0.9138265884471087, 1.7650009739221706, -1.437368866839396, 0.061714274619522363], [0.021442611977499658, 1.0828826704196362, 0.8055342410063695, -0.791853479837983, -1.3062615015701633, 1.7593161071229924]], "biases": [[0.31855089317235197, 0.03808134155568588, -0.3457446215651683, -0.04208305382532303, -0.4210874405427791, 0.08444895102094496]]}, "layer2": {"weights": [[-1.0267407427986601, -0.3664471680730916, 0.14444357122138757, 0.3337417886775075, 0.703678460666155, -0.1647039143566005], [-1.9329119254536902, 0.5297714028922527, 0.4774358037070511, 0.018043121403115273, -2.7619789482150257, -0.7536640526146539], [1.336380926802296, 1.165518829044124, -0.2571759187391364, -0.4764682059561388, -0.14654528937196404, -0.6027788963206269], [0.41036030250500444, -2.518757611134054, 0.076392790295356, -0.46530724017138414, 2.1268608936287716, 0.6781133868107445], [-0.32167982603519363, -1.8387557258991372, -1.0961267424457926, -0.2180464883175114, 0.33405300248097314, 1.7069404867778455], [0.16524958972631984, -1.4552711391752378, 2.3235642754142347, 0.24216663287017862, -0.9105902849978356, -0.46617793637265803]], "biases": [[0.06391170913565261, 0.04896857802888596, 0.4674746181131141, 0.178489911195167, -0.16479258168720973, 0.38267581363384756]]}, "layer3": {"weights": [[0.8850667269043822, 1.017553672960595, -0.8503960909921888], [0.9927317487468695, -1.0553583238399968, 2.0762587032929596], [1.6636367369040665, 0.5822518264382059, -0.2301334045961087], [0.38383883277851655, -3.545061310207296, 1.2498021964218067], [-1.2585752015962697, 0.3380494752351652, 2.1894591119311015], [-1.5713379094833297, -1.56570689381824, -1.0745754170472597]], "biases": [[-0.12798363680956318, -0.2557815476167213, 0.10231860773277524]]}}, {"layer1": {"weights": [[0.015223159922063325, 0.5997531148426531, 1.2593795294274173, 1.2503702920912785, -1.2120865334823245, -0.2355458370939379], [-0.5295913791065862, 1.437889594576991, -1.1706171115881383, 1.3804494432963128, -2.079837509617956, 1.304736852804489], [-1.9925556585092825, -0.8623189150548984, 0.050656908281575506, 0.981427713154287, 1.0081939661054415, 0.547452411391734], [-1.5636424608326913, -1.167357742172927, 1.0154123024860349, 1.7524452283655898, -1.4295631850245079, 0.06519415934520702], [0.01918961757858402, 1.0745741788407703, 0.7965018724106177, -0.8267168836324243, -1.3839218788479184, 1.68291481495003]], "biases": [[0.31963451550174615, 0.03451751295799822, -0.3457553432240116, -0.03837323737929933, -0.391237324628558, 0.0830297060543084]]}, "layer2": {"weights": [[-0.9878253031856508, -0.3338906867086482, 0.17320479139985004, 0.30721875567849566, 0.8430289441666974, -0.1587864889583418], [-2.0235284033081307, 0.5035767644579565, 0.49296925169868855, -0.04417241902283353, -2.7667942876582234, -0.7662499840632058], [1.3309934190339012, 1.1850597243159355, -0.28868464236576175, -0.4556362913102105, -0.15353045084894884, -0.5137353319413442], [0.41032520262163735, -2.635926225122177, 0.06158105231588726, -0.4511451721362232, 2.1340734990666306, 0.6177695883633164], [-0.5476294822364665, -2.054142086332248, -1.0973717822395324, -0.21749852740468695, 0.33905296174932265, 1.6889488636411494], [0.1646376654817433, -1.473398750816643, 2.342238501685862, 0.19388420089801253, -0.903993385547255, -0.5550189712416362]], "biases": [[0.056026263519354275, 0.06974979458460571, 0.4839264695760943, 0.17848855032625854, -0.1662273635245136, 0.3543067698244909]]}, "layer3": {"weights": [[0.6899341668005257, 0.931731565748832, -0.8595295120664127], [1.0309280139712427, -1.0403519091382543, 2.0577628849520115], [1.7374709778030852, 0.5852994587665258, -0.2300471212186158], [0.3312461923632172, -3.311168896021338, 1.203232101191238], [-1.2327115516273648, 0.3067714609814727, 2.155081815883125], [-1.5487656386789572, -1.5736161211775284, -1.0291196338666966]], "biases": [[-0.13531038403215648, -0.25464516286507627, 0.10002177972878226]]}}, {"layer1": {"weights": [[-0.0732840140077672, 0.6001049461510721, 1.1591010658412837, 1.2630769021068748, -1.2166416620256546, -0.2339041565155923], [-0.4505424151893758, 1.4344477895452017, -1.172147216320123, 1.3782182132446006, -2.0827221495179202, 1.3056357299420678], [-1.9590774088992138, -0.862322444770415, 0.05040501785713198, 0.9720701403255396, 1.0072395512883205, 0.5472937575434031], [-1.576996182436794, -1.166379869356276, 0.999929826101696, 1.7468577998640242, -1.4267815543396924, 0.07177861306419861], [0.017719369170699238, 1.1449436714908492, 0.7849773125260071, -0.8304636221346431, -1.352669349889943, 1.7538628558572267]], "biases": [[0.3195202058082267, 0.03613342874793633, -0.34575684146621005, -0.042707758710782806, -0.40217451951729355, 0.08302897923418208]]}, "layer2": {"weights": [[-0.9918563434165149, -0.22139440468267366, 0.15355661832379894, 0.29516524523280396, 0.736460495849312, -0.12121472461823309], [-1.9642699721468544, 0.49705763206611653, 0.5517481473417236, -0.03594533522301449, -2.7676701820102014, -0.7628411338294151], [1.3342442186364638, 1.1770983577434269, -0.2707823930621345, -0.4603490287342368, -0.1439709994641314, -0.6188157678513065], [0.4103234158326592, -2.66127032211495, 0.06249671836219915, -0.43942415979501837, 2.1330455266552892, 0.6481990146512782], [-0.41792627971817375, -1.8942209107691854, -1.1137366928632506, -0.20959715062651058, 0.3068228114558072, 1.6888584385222671], [0.16558355105794725, -1.5229511005496614, 2.324681484453735, 0.25422699671143567, -0.906062059447651, -0.4858904671136184]], "biases": [[0.054463282823533514, 0.05459740192073874, 0.460519462043259, 0.20006062018174053, -0.16996428262358437, 0.38363779701774425]]}, "layer3": {"weights": [[0.7019601752396305, 1.016012983549882, -0.8582839408515401], [0.9812235004421592, -1.0398680358145875, 2.059247249577516], [1.6181713403717186, 0.5858438854329788, -0.23004694102234596], [0.32395116467982715, -3.4832260514061124, 1.2564619594447914], [-1.2420331618218685, 0.3117573604699448, 2.1608744546763017], [-1.5515841253085902, -1.5736734452943484, -1.0279254881894775]], "biases": [[-0.13709776136271848, -0.2551921633875731, 0.10063328442860714]]}}, {"layer1": {"weights": [[-0.059404033808009994, 0.5998979571590981, 1.1682126989284018, 1.2480296222967857, -1.2578566831652842, -0.2359266699441257], [-0.44202850445126435, 1.430212245780167, -1.1729598864863526, 1.3763401727420503, -2.080106182521985, 1.365379709638386], [-1.9969300551058455, -0.8623208117355948, 0.05052194543546183, 0.9808838187653901, 1.007964005099781, 0.5473784331464759], [-1.5712425274880653, -1.16524411548824, 1.0077170317155237, 1.750721483072041, -1.4282039478271429, 0.07047991689210688], [0.018820355279018822, 1.0788375365951302, 0.7852574059093368, -0.8244952567411215, -1.332501747225834, 1.7543767188133268]], "biases": [[0.3189392684801939, 0.03747468909688092, -0.3457542708390562, -0.04248116221237437, -0.394444919548572, 0.08302748796775805]]}, "layer2": {"weights": [[-1.0033050586191608, -0.3488754322016216, 0.1550482422865844, 0.3002595364271488, 0.7299619474603058, -0.29965962507747945], [-2.049927338796415, 0.4990214799600359, 0.5392443901726687, 0.04213886667314476, -2.766495082763387, -0.7619582763912893], [1.3427815685633457, 0.9697272283794058, -0.2766222160429259, -0.4691461511822736, -0.14462216902605066, -0.5976638180245469], [0.41032518528093154, -2.6430018331313367, 0.06455832247235511, -0.4462377270797666, 2.1304004970011885, 0.6402819457045896], [-0.44474977021919715, -1.753294976784704, -1.1090876579227409, -0.21189658509049958, 0.31323997803067555, 1.6803154409254388], [0.1654015351270457, -1.4649408875411716, 2.430494321445297, 0.24966181910723934, -0.9067739027360252, -0.25610093392293876]], "biases": [[0.0565151618152634, 0.05414962274394456, 0.4625768499323343, 0.17848810009250365, -0.1695649033297186, 0.38376495348024886]]}, "layer3": {"weights": [[0.7038781396390259, 1.0162740234620873, -0.8568301268079999], [0.9806728735337057, -1.033980670944996, 2.063576158571056], [1.7357385393443163, 0.5850247608185792, -0.2300711103150223], [0.366026107847573, -3.5157007857996376, 1.2543810502431008], [-1.2476121758497771, 0.31953384636738796, 2.1675490606318326], [-1.5909118819355474, -1.5725619520946863, -1.036101018717452]], "biases": [[-0.1363246263116244, -0.2550450540754771, 0.10172776024450748]]}}, {"layer1": {"weights": [[-0.06010676016726623, 0.5999596978462345, 1.1692926339958998, 1.2451482162568148, -1.2156942423060828, -0.2351858119910077], [-0.45310670536607656, 1.4322340402636393, -1.1718977970063893, 1.3775939076688302, -2.0792744996732107, 1.3063520680889735], [-1.9948048433553487, -0.8623204184414259, 0.050541565380757145, 0.9836093800178652, 1.0074215829102773, 0.5473570234635818], [-1.5728986025684386, -1.1660372766837852, 0.9958521313571145, 1.7499479304845897, -1.4278013135617182, 0.06989997192270277], [0.018359781316437458, 1.0763948740512095, 0.7861700060654341, -0.822619511627577, -1.34130219448983, 1.7551066790314214]], "biases": [[0.3193435715975018, 0.036547904142605725, -0.34575495600086015, -0.042658308046757715, -0.3925786662977516, 0.08302878828034724]]}, "layer2": {"weights": [[-0.996643141742943, -0.20614012294821984, 0.1518218313399115, 0.30000457737627995, 0.7299214057385248, -0.12794619702611276], [-1.9492396920426354, 0.4966558549876795, 0.5376710743231483, -0.03372953922860752, -2.766368714734102, -0.7595013287788537], [1.3450372825167691, 1.1748457021782828, -0.2656065455508558, -0.46306009929841624, -0.13799787911814113, -0.6009901626299909], [0.4103366317741352, -2.617029407632467, 0.06576615908629144, -0.4435907196044431, 2.1312854942191164, 0.6625905199783522], [-0.3765681825211909, -1.8332412938717688, -1.1099192641255653, -0.21049689375521158, 0.31136140224758235, 1.6906061696739936], [0.16553670226858325, -1.464107999701767, 2.3240571394481337, 0.2548838970353918, -0.9068354945535655, -0.48405350301470806]], "biases": [[0.05597083831790088, 0.06003051882603764, 0.4612721217628177, 0.17848834888217788, -0.16896564122600832, 0.38399290356552274]]}, "layer3": {"weights": [[0.7030435249868182, 1.0162654043993558, -0.8568725457879204], [0.9849384628068483, -1.0329891217579446, 2.0631810805104394], [1.7344548223321825, 0.5853367414155926, -0.2300568015435369], [0.3456296410426719, -3.513657712037211, 1.2546248168010352], [-1.2472673210367502, 0.31381186276953665, 2.161939874680271], [-1.550435923522916, -1.5722591435042856, -1.0360984517089888]], "biases": [[-0.13530835078401343, -0.25547651216472406, 0.10095574565066137]]}}, {"layer1": {"weights": [[-0.0610401609056853, 0.6001259245525956, 1.1926220303118782, 1.273346763990521, -1.216213444679501, -0.23335333505361716], [-0.43599128591806474, 1.4369685527643208, -1.1719517546224267, 1.3792442499393562, -2.071911125071062, 1.3048737570474938], [-1.9959536349744367, -0.8623230820882777, 0.05036557982052399, 0.9657551037634822, 1.0073416312761334, 0.5472859715653517], [-1.5767309369370348, -1.1668812820648067, 1.0145104638760678, 1.7459370590239913, -1.426712142594377, 0.07154148049057259], [0.017606622163366767, 1.0737540274577042, 0.7869639323425894, -0.8354100203893882, -1.5713710641728766, 1.7351929782497812]], "biases": [[0.31968125888965027, 0.035418593254449765, -0.34575788100467286, -0.041661216375930746, -0.390996099164961, 0.08302930415458978]]}, "layer2": {"weights": [[-1.010833359114077, -0.2956090556701625, 0.15976975183072728, 0.1741224704024394, 0.7680069255117485, -0.1255590613973505], [-1.990357290015338, 0.4298959170845421, 0.5476112281948962, 0.06344495594290131, -2.768427308879282, -0.7661982001757839], [1.3439939685871287, 1.181078465347078, -0.27913984102150036, -0.3700126649476745, -0.14825335213375404, -0.5864992087111401], [0.37876608636938247, -2.662955623016776, 0.059815721307551965, -0.43922949302325104, 2.086826381833443, 0.6343165088541454], [-0.48137065324548406, -1.8867065362116495, -1.1125085367605851, -0.24381833252029544, 0.3807434352666261, 1.6201045103929377], [0.1653822162559193, -1.469726694495818, 2.329538997515967, 0.23864862251511276, -0.9155256637516553, -0.5045503162198055]], "biases": [[0.05372336137671318, 0.0827267616673642, 0.46580671913679883, 0.18927409274963966, -0.16977903389699872, 0.37603871030859704]]}, "layer3": {"weights": [[0.6000972263329278, 0.9947533134625142, -0.8450056910268935], [0.9908634070509135, -1.027815913018175, 2.055925785221447], [1.7612435166667448, 0.5860881367794053, -0.23003959068052027], [0.3035021371468761, -3.4467230737665338, 1.24453235186422], [-1.2518514536518266, 0.30897000887313286, 2.1586272299750306], [-1.5721409996610518, -1.5747198406076905, -1.0220943019691489]], "biases": [[-0.13799297496410676, -0.25484215167408575, 0.2370470681069711]]}}, {"layer1": {"weights": [[-0.06010676016726623, 0.5999596978462345, 1.1692926339958998, 1.2451482162568148, -1.2156942423060828, -0.2351858119910077], [-0.45310670536607656, 1.4322340402636393, -1.1718977970063893, 1.3775939076688302, -2.0792744996732107, 1.3063520680889735], [-2.025883617145986, -0.8623204184414259, 0.050541565380757145, 0.9836093800178652, 1.0074215829102773, 0.5473570234635818], [-1.5728986025684386, -1.1660372766837852, 0.9958521313571145, 1.7499479304845897, -1.4278013135617182, 0.06989997192270277], [0.018359781316437458, 1.0763948740512095, 0.7861700060654341, -0.822619511627577, -1.34130219448983, 1.7551066790314214]], "biases": [[0.3193435715975018, 0.036547904142605725, -0.34575495600086015, -0.042658308046757715, -0.3925786662977516, 0.08302878828034724]]}, "layer2": {"weights": [[-0.996643141742943, -0.3409840887435114, 0.1518218313399115, 0.30000457737627995, 0.7299214057385248, -0.12794619702611276], [-1.9492396920426354, 0.5017693116192964, 0.5376710743231483, -0.03372953922860752, -2.766368714734102, -0.7595013287788537], [1.3450372825167691, 1.1748457021782828, -0.2656065455508558, -0.46417909550728237, -0.14834728086243876, -0.678652778944641], [0.4103366317741352, -2.617029407632467, 0.06576615908629144, -0.4435907196044431, 2.1368924724548712, 0.6625905199783522], [-0.3765681825211909, -1.8332412938717688, -1.1099192641255653, -0.21049689375521158, 0.31136140224758235, 1.6906061696739936], [0.16553670226858325, -1.464107999701767, 2.3240571394481337, 0.2548838970353918, -0.9068354945535655, -0.48405350301470806]], "biases": [[0.05597083831790088, 0.02581850283000666, 0.4612721217628177, 0.2647792026537873, -0.16896564122600832, 0.38399290356552274]]}, "layer3": {"weights": [[0.7030435249868182, 1.0162654043993558, -0.8568725457879204], [0.9849384628068483, -1.0329891217579446, 2.0631810805104394], [1.7344548223321825, 0.5853367414155926, -0.2300568015435369], [0.41397077286430073, -3.3963174853174554, 1.2546248168010352], [-1.2472673210367502, 0.31381186276953665, 2.161939874680271], [-1.550435923522916, -1.5722591435042856, -1.0360984517089888]], "biases": [[-0.13530835078401343, -0.25547651216472406, 0.10095574565066137]]}}, {"layer1": {"weights": [[-0.08646126784826817, 0.6002501944559098, 1.1703695306066986, 1.281005587956935, -1.2175890817452264, -0.2326225010401769], [-0.4479781250126751, 1.436661538826764, -1.1723966356338564, 1.3788425188203708, -2.0861697993626294, 1.3049193917951623], [-1.991906498164382, -0.862324471099404, 0.050268470333506815, 0.9605309006332139, 1.007057519666364, 0.5472304916232243], [-1.5810937623051493, -1.1667224620287664, 1.0142098510060786, 1.7437676692434585, -1.4257617951176667, 0.07365725420569444], [0.017078957024961015, 1.0734806436633488, 0.78378461898658, -0.8383077326417093, -1.3640365052900556, 1.7526190326830318]], "biases": [[0.31969684001895166, 0.03571895335326695, -0.34575872693155996, -0.04275720937480789, -0.3909156906770953, 0.08302917018801692]]}, "layer2": {"weights": [[-0.9870695450900868, -0.260374517691452, 0.15529140530768637, 0.2903259130893279, 0.742999585960099, -0.11448325221035341], [-1.9793002522510736, 0.49490268082874506, 0.5658252203602988, -0.03816113121742147, -2.7689716492863012, -0.7661809388799765], [1.3483274851048712, 1.1958569807575572, -0.2759582405734132, -0.45707846006562425, -0.14476941893797285, -0.5978100649152971], [0.4103101998911831, -2.6719654223149756, 0.05922727763810687, -0.43525759998559366, 2.132002069973584, 0.6398321490177551], [-0.45928437691515656, -1.83089468617145, -1.1175541216009361, -0.27453869758934263, 0.30228422066403204, 1.687110707370541], [0.1656303998473113, -1.4685026757222097, 2.3253058294593356, 0.2535700963874795, -0.9052886243417365, -0.48772743121252865]], "biases": [[0.05295572732916615, 0.10599648353470564, 0.4597668023237004, 0.17848746459549847, -0.17096292402116045, 0.3832826904699657]]}, "layer3": {"weights": [[0.7008768254924427, 1.0157605627004083, -0.85969533591516], [0.9775085380774703, -1.0236372476448152, 2.0553134186445927], [1.7691676962879646, 0.5863510294503651, -0.23003708050115507], [0.26015967504986715, -3.5114645041348918, 1.2582991020885474], [-1.2689476301864773, 0.3097028581703529, 2.1598090346723327], [-1.4901592520783964, -1.5750877470844113, -1.0197525246699664]], "biases": [[-0.13888717194142353, -0.2549078146104222, 0.1003108232065529]]}}, {"layer1": {"weights": [[-0.001943759122392212, 0.5994505058892996, 1.1655960040196862, 1.1900252264590243, -1.1743234911718805, -0.23927561731558644], [-0.5018165806768677, 1.4958614760648998, -1.1707828141612246, 1.3760557317022892, -2.0660036282884193, 1.2881654017679496], [-1.9481108054402108, -0.8623140157159004, 0.05077210990087379, 1.0201199257733404, 1.0091585751711438, 0.5475972383908503], [-1.551582654356708, -1.162441516482476, 0.9829119878343202, 1.7626706351749828, -1.4315259339348292, 0.06134318507147657], [-0.06400637069539558, 1.0793197953185838, 0.8628498084927374, -0.7990839920138197, -1.3397268551295953, 1.7576989518956543]], "biases": [[0.3191554626587897, 0.036347465439152626, -0.34574692363733783, -0.0404418928190458, -0.3957585140479777, 0.08302649420647733]]}, "layer2": {"weights": [[-1.0138220966678748, -0.3547066163154414, 0.19386800685854, 0.32148368045478676, 0.705530974681359, -0.00010815182243764654], [-1.955573159691729, 0.5114496998232682, 0.47896629345452374, -0.030841398294284783, -2.763187947092428, -0.7583661404450155], [1.3334937556313327, 1.0739559856231424, -0.2710059337832691, -0.4668811926164518, -0.1521297223593491, -0.5605073023979465], [0.41035163682596354, -2.638039270807458, 0.07359074479583722, -0.4071561853723313, 2.1289443021169197, 0.6641424131494091], [-0.3848568946183831, -1.836847257963134, -1.0970744092943097, -0.2192091439650476, 0.3354158704978695, 1.7300250926329908], [0.16500679430861853, -1.4585048221125643, 2.3298549382887686, 0.2200011900713034, -0.908750370681931, -0.5037514317844722]], "biases": [[0.06222934482977721, 0.058695549879371055, 0.4754519840479886, 0.17848973996952544, -0.12575062285424, 0.37978735671148445]]}, "layer3": {"weights": [[0.7009750280220923, 1.016942859946731, -0.825563737721155], [1.0142885475009165, -1.0508931065797247, 2.0701005608056198], [1.7849698624841246, 0.5828983061274167, -0.2301117097750039], [0.35965779355988625, -3.5192140892414128, 1.2298536171861185], [-1.2465646743506218, 0.32922574543829347, 2.1857240174584414], [-1.540180856688035, -1.5394175979352525, -1.106977091185808]], "biases": [[-0.1288440991464699, -0.25548450536726364, 0.10108339129832172]]}}, {"layer1": {"weights": [[0.040770176034273554, 0.6004002033607254, 1.1702988547563393, 1.3011338574613975, -1.2230411321203307, -0.2313144679217135], [-0.4443460944875717, 1.4396708819566233, -1.1727258970013144, 1.336127680119656, -2.089524524620351, 1.305219944402261], [-1.99044661683559, -0.8623268044773726, 0.05007200993075582, 0.9475972945037421, 1.0068040363736217, 0.5471676897550807], [-1.5841285045780489, -1.1664315137973942, 1.037337101934065, 1.719533634236599, -1.4236529636684208, 0.07557321509683254], [0.0715936957855497, 1.0749398333334543, 0.774847887759526, -0.8471134823444187, -1.3803207988868254, 1.7584974045301622]], "biases": [[0.3509418487473721, 0.03514394812658782, -0.3686601064461496, -0.04257087637734072, -0.3898656068193277, 0.08302882182517371]]}, "layer2": {"weights": [[-0.9832315351408225, -0.3198710736713828, 0.15790746915619924, 0.24841447893762256, 0.7245010846971198, -0.11013019073123019], [-2.0481683095710252, 0.4953615373731944, 0.5429160182068853, -0.04061273632063027, -2.7705744569365196, -0.7719986417952674], [1.3491794364572347, 1.1728940719089285, -0.28486022726135996, -0.4535490762095638, -0.15127655153005742, -0.5949296908274513], [0.41028961525551777, -2.6993112437255022, 0.05510227506508571, -0.4319349771193072, 2.1319223013098854, 0.6198503803424991], [-0.5308084495987946, -1.8296997096467091, -1.140067657533904, -0.20871969699702972, 0.2354827476009456, 1.6868927314706226], [0.16562679462852853, -1.4904857261178903, 2.327210200227108, 0.24761182813562332, -0.904457783691192, -0.4879880574222809]], "biases": [[0.03954751019399854, 0.07062917891745812, 0.460433683666001, 0.17848693199193788, -0.16118958172052344, 0.38266175611881126]]}, "layer3": {"weights": [[0.6999276768681917, 1.0155023419717133, -0.8612132182339789], [0.9713375687916368, -1.0178813726496174, 2.0765657694173223], [1.7884731497128135, 0.586705318349737, -0.23003336098611002], [0.32089111140981064, -3.5110763398559395, 1.2588071867508446], [-1.213056600710435, 0.31033559519751397, 2.162963848479764], [-1.5578369119940567, -1.5765272870370337, -1.0115241318015036]], "biases": [[-0.14078261982290247, -0.21657367840656278, 0.09989432634233841]]}}, {"layer1": {"weights": [[-0.03561905396310242, 0.6000016546492815, 1.2148745300170578, 1.2656879400241068, -1.2148378076137756, -0.2340841690670574], [-0.4240044468234544, 1.4372755667018775, -1.1715068736109973, 1.3796459810583417, -2.057652450779494, 1.3048281222998255], [-2.0000007717844914, -0.8623216930771512, 0.050462689307541164, 0.9709793068937504, 1.0076257428859028, 0.5473414515074791], [-1.5723681115689203, -1.1670401021008467, 1.0148110767460568, 1.7481064488045241, -1.4276624900710873, 0.06942570677545074], [0.018134287301772516, 1.0740274112520596, 0.7901432456985988, -0.8325123081370669, -1.373979192068987, 1.717766923816531]], "biases": [[0.31966567776034893, 0.03511823315563259, -0.34575703507778577, -0.04056522337705361, -0.39107650765282664, 0.08302943812116266]]}, "layer2": {"weights": [[-1.0345971731380674, -0.33084359364887295, 0.1642480983537682, 0.2987723343839118, 0.7930142650633982, -0.1366348705843476], [-2.001414327779602, 0.3648891533403392, 0.5293972360294936, -0.0411667751201275, -2.7678829684722626, -0.7662154614715911], [1.3396604520693862, 1.1822053688122531, -0.2823214414695875, -0.2829468698297247, -0.15173728532953523, -0.5751883525069832], [0.4103177012564102, -2.6539458237185762, 0.06040416497699706, -0.4432013860609084, 2.134439529079046, 0.6288008686905358], [-0.5034569295758116, -1.942518386251849, -1.1074629519202341, -0.21309796745124826, 0.32066859120667734, 1.5530983134153344], [0.1651340326645273, -1.4709507132694264, 2.333772165572599, 0.223727148642746, -0.9257627031615743, -0.5213732012270824]], "biases": [[0.05449099542426021, 0.05945703980002277, 0.47184663594989734, 0.20006072090378085, -0.16859514377283702, 0.3687947301472283]]}, "layer3": {"weights": [[0.6954054961464842, 0.9737460642246201, -0.830316046138627], [1.0042182760243565, -1.0319945783915347, 2.056538151798302], [1.753319337045525, 0.5858252441084455, -0.23004210085988544], [0.3468445992438851, -3.381981643398176, 1.2307656016398927], [-1.234755277117176, 0.3082371595759128, 2.1574454252777286], [-1.6541227472437072, -1.57435193413097, -1.0244360792683316]], "biases": [[-0.13709877798679, -0.2547764887377493, 0.10016630146766758]]}}, {"layer1": {"weights": [[-0.02383717533071863, 0.599996635139143, 1.191926138626449, 1.2621018152256656, -1.2351615084108762, -0.23458699356146906], [-0.43251762569459334, 1.4342166247187773, -1.195065902307725, 1.3780798877295295, -2.0700595081279722, 1.305674215790527], [-1.9979859254911103, -0.8623218254997096, 0.05046677249000172, 0.9725499384111771, 1.0077580140091182, 0.5473386990029063], [-1.5735254586830965, -1.1664674866533278, 1.0127343600917817, 1.7483020040032922, -1.4279563232841799, 0.07056658563106333], [0.018239035130305573, 1.1232595154630696, 0.7898841071867011, -0.8307979395429017, -1.355390475381896, 1.7332831485830889]], "biases": [[0.3193444930368903, 0.0362118126053702, -0.3457563919917239, -0.041618270903219776, -0.3925564163464031, 0.08302870646796465]]}, "layer2": {"weights": [[-1.0170392536440835, -0.33810545917968104, 0.15993267369326364, 0.2440013276936304, 0.750011780951811, -0.13469580204369652], [-1.9923495277350016, 0.5614542188074266, 0.5211084358560637, -0.00017394985202642474, -2.7675224012518185, -0.7643741713267175], [1.2096698030901656, 1.1257280664174012, -0.27995506486779365, -0.4694445742835406, -0.1482678629203753, -0.5863261773901491], [0.4103194941862419, -2.823713993883794, -0.03174043187563601, -0.4430493909861498, 2.1326854611795056, 0.633615873102449], [-0.6123251435462247, -1.8876061177935348, -1.103315745435622, -0.21189001768533322, 0.4665253827233231, 1.6259790452088079], [0.16530021816162344, -1.4749400828739199, 2.329482350421803, 0.23824263974297397, -0.9160296264283716, -0.5027291333628393]], "biases": [[0.0549286587778793, 0.057430294033121956, 0.4664876760139765, 0.189274293270436, -0.1694302241691245, 0.3762500822322711]]}, "layer3": {"weights": [[0.6992359676027134, 0.9949278368532695, -0.844008055742787], [0.9920259229645163, -1.0317889582956212, 2.0592056946833015], [1.749664745038565, 0.5856450021753126, -0.23005127174500828], [0.35311006287072727, -3.448239533391118, 1.2436287261499017], [-1.245608420972406, 0.42069362096882706, 2.1607353583496574], [-1.6215812541468129, -1.5739199643219959, -1.0275627042693718]], "biases": [[-0.13727282657451756, -0.2548877242279597, 0.10087088899612287]]}}, {"layer1": {"weights": [[-0.046670721901014255, 0.5998109611013754, 1.156018830412504, 1.2271830284670655, -1.2202267960507576, -0.23667909549047841], [-0.442557070487565, 1.4311057671290048, -1.1721643857760222, 1.3768870563895432, -2.0747320806512795, 1.3088290644494518], [-1.952301741135504, -0.8623187917092722, 0.05054596198023881, 0.9951380119864344, 1.0082241777162828, 0.5474278362237861], [-1.5658661095169872, -1.1470825903456108, 0.9589170546466932, 1.7543843215828145, -1.4315653309785312, 0.0676857644126084], [0.019260784501230338, 1.1481875696750623, 0.7946594299964748, -0.8150806062398461, -1.3351490034301094, 1.755967569903012]], "biases": [[0.31912386659565184, 0.03690014745447641, -0.3311283355177218, -0.042420131600065455, -0.4164289066398073, 0.08373906060448094]]}, "layer2": {"weights": [[-1.0069051439443735, -0.34712183433109467, 0.14986748826453697, 0.31203385088341773, 0.7233390233131269, -0.13959358328347696], [-1.956106088852382, 0.5687974999184555, 0.5216305120336749, -0.0073892892743916486, -2.7654752987506637, -0.593131576547903], [1.326852235312093, 1.1724349211763474, -0.2665670796562748, -0.46705308206309804, -0.14824470459104283, -0.557609761675778], [0.4103352511980938, -2.6121344238657436, 0.06781003396673144, -0.4716805843081733, 2.1308332263601164, 0.6559604480674743], [-0.3904821014751751, -1.8348252060352936, -1.1068404320233642, -0.2133719479076605, 0.3181686115725026, 1.6970255970741932], [0.16543999478681556, -1.4618869074487237, 2.324435052436785, 0.24786836462882905, -0.9079394546697861, -0.47695268379259337]], "biases": [[0.05843371823240938, 0.0490664315221629, 0.46362071021840723, 0.20006140133823508, -0.1678777528541851, 0.38297925205190664]]}, "layer3": {"weights": [[0.7929717761984124, 1.0166571178305017, -0.8550457134536744], [0.9851201434121699, -1.0394977857424061, 2.065786060968776], [1.7164022165960156, 0.5843014279442855, -0.23008524254863189], [0.40090652080770933, -3.498927850491155, 1.254050649255177], [-1.2476871021016285, 0.3238761667027591, 2.174634073301717], [-1.5620351182887973, -1.5703973204513257, -1.047163970858613]], "biases": [[-0.13343540437549334, -0.2553446811135718, 0.10131471546966406]]}}, {"layer1": {"weights": [[0.0336538028562718, 0.6005641056830617, 1.1716376892943567, 1.3194844766896652, -1.2188910526950436, -0.2298499771172849], [-0.4426001196878906, 1.4413253966287662, -1.1729237371379915, 1.3582830267044508, -2.0936551947906645, 1.3031978440178658], [-1.9887684089963862, -0.8623288103040505, 0.049982602845506596, 0.9357616090393659, 1.0066750264305888, 0.5470933381208312], [-1.5901489916191616, -1.16757033630314, 1.037892948016537, 1.7263365972494822, -1.4237338288411474, 0.07772142338732835], [0.12731660729316147, 1.0698375099324942, 0.7824911225990926, -0.8551430322077455, -1.3913985424400226, 1.748737049968722]], "biases": [[0.3355800184271246, 0.0348476783034849, -0.3572127802208105, -0.04290364975711096, -0.3891505664292908, 0.08302967380743874]]}, "layer2": {"weights": [[-0.9765400173199652, -0.31373188556190096, 0.15890323096200493, 0.2607410817101508, 0.7213247829271662, -0.0995019935051547], [-2.030329279301686, 0.49278083488591334, 0.5420229378121324, -0.042922721020502944, -2.771741271655497, -0.7730042001787378], [1.3520240628989297, 1.1794427226532191, -0.2865515536517391, -0.45068811160337696, -0.15158502662909573, -0.5945800132627953], [0.435578667317893, -2.668967014591142, 0.05228608304406173, -0.42608939757465036, 2.1328513697977463, 0.6166110110096011], [-0.5295701703730814, -1.9050007249482843, -1.1227091993333744, -0.2575085228865852, 0.2897029130201392, 1.6830689973331658], [0.1657403145589578, -1.6345506664107758, 2.326445239344442, 0.2530303736735579, -0.9036224158696935, -0.49197024307502735]], "biases": [[0.043595223583449964, 0.07282354858144215, 0.45789944942101346, 0.17848652169496593, -0.16777529550411138, 0.38255759758367497]]}, "layer3": {"weights": [[0.6985072008530462, 0.9264716320626897, -0.8627356106771364], [0.9698687874408349, -1.0136860403453636, 2.1110796537196466], [1.8064484736655686, 0.5874753173410378, -0.2177802640146108], [0.3092525940473044, -3.5089704556286785, 1.262501087480262], [-1.228543031421689, 0.3048035633001117, 2.156797252361833], [-1.5545607004442061, -1.5781478612691209, -0.9895308918623625]], "biases": [[-0.14274655531148878, -0.23541030337403465, 0.09962782983246207]]}}]