[{"layer1": {"weights": [[-0.37970767233806646, 0.40184088489216385, 0.9416413787567653, 1.1299376326502792, -0.808069117877976, -0.3509325676866605], [-0.09002521039117738, 1.4536368700483562, -0.9772381559619194, 1.2782798801019046, -2.143003912260032, 1.4387916114016503], [-1.5433160279977949, -0.8129037653525215, -0.005781163270505821, 1.242365877306244, 0.6753855642815101, 0.7518552416757882], [-1.6578390268657965, -1.1196417440604585, 1.0294030431339323, 1.6917438936279976, -0.8292179802463227, -0.16239703963364183], [0.05539155102313731, 0.9041593446428429, 0.9785725760734426, -1.0634300929615645, -1.771657851728782, 1.52483178565347]], "biases": [[0.2609157626487244, 0.11854270239720219, -0.23448484007228648, -0.20825192370752513, -0.09810702946989854, -0.032573110024746374]]}, "layer2": {"weights": [[-1.1807152349000185, -0.3955473141373834, 0.8213381909196185, 0.9761561251350029, 0.3728446668868421, -0.42992805852637683], [-2.0214310457793903, 0.10997002186013748, 0.5599167388158216, 0.1983936962491194, -2.227026215488672, -0.8320834560534052], [1.259063139166369, 0.2977455420687557, -0.1567865434975909, -0.7037495489916763, 0.24980061698287553, -0.8441601960181893], [0.5052128424099807, -2.6194653319208943, -0.11220923612100647, -0.6872983441763416, 2.230660682341812, -0.8590977713507906], [-1.3293677843045686, -1.0584184486060197, -0.4410000262220735, 0.258439184772739, 0.24206728198766367, 1.5962476665255463], [-0.0849234286251877, -1.562550910685247, 2.353970748587258, 0.5876127114148239, -0.7026035588962729, -0.8176796502563672]], "biases": [[0.13878490364091528, 0.06264382842197012, 0.3722973813797116, -0.05544404861383857, -0.07685742231227179, 0.057154233606421856]]}, "layer3": {"weights": [[0.7045145845104042, 0.8750942318427708, -1.15587890948213], [0.9774549043305376, -0.4918211639872625, 1.74036656363469], [1.3647980962572275, 0.8272025949930062, -0.33902849549722686], [0.14840305749675528, -2.6694299344065686, 1.1922702661224844], [-1.0394386024669764, 0.37918013868529693, 2.064060964797055], [-1.3384043402620633, -1.57038175640022, -1.1844329403620644]], "biases": [[-0.15255731647423879, -0.1568295181348593, -0.07442617705551965]]}}, {"layer1": {"weights": [[-0.36553284152730225, 0.40274363602948904, 0.9122267108588639, 1.1309345821603538, -0.8121874176201967, -0.3492031129081416], [-0.09513711895588897, 1.3946578127880622, -0.9861744138169732, 1.2759535260455879, -2.1064729092440926, 1.4277514978697772], [-1.5223753417911359, -0.8128852861858477, -0.00577560410051854, 1.2466191904018973, 0.6020150500611681, 0.752106038637054], [-1.6855637214075312, -1.1470042812363466, 1.049213787614946, 1.6943216476110043, -0.8371844803993955, -0.2007199840271532], [0.05981073450705607, 0.9013817671524778, 0.9205501808987278, -1.069628980180187, -1.770970448385673, 1.5181964977640565]], "biases": [[0.2603635706422429, 0.0829945678033321, -0.22972981208658177, -0.19702680755792293, -0.10221613869807217, -0.01884921735544231]]}, "layer2": {"weights": [[-1.143279338918991, -0.39412767564835827, 0.8379418429560974, 1.0225515838536403, 0.37183765280362735, -0.43150743811726133], [-2.0354252011453404, 0.10899481159922564, 0.5926677256967634, 0.2098754824102389, -2.2337095972037186, -0.8329629274572837], [1.2811402019639517, 0.30751617711733814, -0.0701121168663239, -0.7184516263838002, 0.24895989324686885, -0.848027797812218], [0.5046828858865993, -2.6133600089727023, -0.11247670539619399, -0.7295192630141243, 2.222279498818069, -0.8394162573567406], [-1.3622969429107188, -1.055438705105534, -0.44147256860857176, 0.24567259431519908, 0.22158896006908285, 1.6172137939295186], [-0.08217104956866844, -1.5698085262022896, 2.3334240989561357, 0.5794380810306852, -0.6884114229147332, -0.8875816179259008]], "biases": [[0.14373618920413156, 0.05600395746953585, 0.3707490301534361, -0.054260884681573585, -0.07707422430185701, 0.15903927882472357]]}, "layer3": {"weights": [[0.7407003126443505, 0.875153630116364, -1.1555832970076683], [0.9853704647926058, -0.48798035583613275, 1.8386706811260418], [1.400315831923644, 0.8374200120879531, -0.33900260103299085], [0.12157972500716883, -2.664481042389335, 1.2206187249069305], [-1.280131793893241, 0.38108639181048676, 2.07111269776014], [-1.3482598557352732, -1.5852973854907355, -1.1823864291193606]], "biases": [[-0.15304169659106096, -0.16480309780414232, -0.07324474905483314]]}}, {"layer1": {"weights": [[-0.3602435282349, 0.4022601080627305, 0.9076597704442431, 1.1392939674999898, -0.8093072654521589, -0.35024078578159623], [-0.0974362865915488, 1.4079532393196144, -0.9686791404805041, 1.2608900794878457, -2.1971288579440715, 1.4284827272617382], [-1.5264769012223502, -0.8128972155244261, -0.005781445257389234, 1.2451951996154726, 0.6611610062277217, 0.7519630897023164], [-1.6408834505748295, -1.1179285728279826, 1.0443753679059193, 1.6894779835364542, -0.8324929520507082, -0.237642893579349], [0.05976483322291906, 0.9148153694428525, 0.8475314260146997, -1.0754472841830638, -1.7724917340558366, 1.532112743804152]], "biases": [[0.2614815231758291, 0.12150228390505094, -0.23923987414365472, -0.1752972468618309, -0.1043133218959783, -0.03966793445707753]]}, "layer2": {"weights": [[-1.1562019090624949, -0.39241476058221747, 0.8335512728477563, 0.9465852709447666, 0.3727533401629437, -0.4359823576611696], [-2.0400521676955634, 0.10941516861072169, 0.6111820562412811, 0.2342577231527455, -2.2228326887293615, -0.8519181958010956], [1.2784487653885788, 0.32569079264117173, -0.06683963229817544, -0.7091583577151082, 0.22547633849465698, -0.8416783852109491], [0.5051234578857866, -2.6341131526120876, -0.11219235283314075, -0.643708018758435, 2.215736206609785, -0.834671959365366], [-1.3871502671010982, -1.0588032844300592, -0.439525187730859, 0.25415466468574466, 0.25410190440993097, 1.614710961513509], [-0.08255628265390584, -1.5676125247214414, 2.362780731000419, 0.5802550853241909, -0.6922410375005508, -0.84900557482201]], "biases": [[0.15333746549105967, 0.056082936032094376, 0.37169962288004055, -0.05191129285985088, -0.08392788516281359, 0.0603505630593861]]}, "layer3": {"weights": [[0.6975986372838666, 0.875079559266227, -1.1562871692335575], [1.0007725754534218, -0.4949333633196231, 1.8354880799961628], [1.3972430081478477, 0.8314539912692307, -0.33901760714220297], [0.17352049182702844, -2.6706191996812136, 1.1569451350427284], [-1.2807439937764222, 0.3774338898822457, 2.071465431321678], [-1.3534072689916878, -1.5686048123266079, -1.186165913464604]], "biases": [[-0.1524684014726641, -0.14859184745786552, -0.07483219668644395]]}}, {"layer1": {"weights": [[-0.36553284152730225, 0.40274363602948904, 0.9122267108588639, 1.1309345821603538, -0.8121874176201967, -0.3492031129081416], [0.015550702275920175, 1.4890981751286159, -0.9861744138169732, 1.2759535260455879, -2.1064729092440926, 1.4277514978697772], [-1.5223753417911359, -0.8128852861858477, -0.00577560410051854, 1.2466191904018973, 0.6807359617102362, 0.752106038637054], [-1.6855637214075312, -1.1470042812363466, 1.049213787614946, 1.6943216476110043, -0.8371844803993955, -0.2007199840271532], [0.05981073450705607, 0.9037666469043193, 0.9205501808987278, -1.039539142282867, -1.770970448385673, 1.5181964977640565]], "biases": [[0.2603635706422429, 0.11563021086567797, -0.22972981208658177, -0.19702680755792293, -0.10221613869807217, -0.01884921735544231]]}, "layer2": {"weights": [[-1.143279338918991, -0.39412767564835827, 0.8379418429560974, 0.9614327934613649, 0.37183765280362735, -0.43150743811726133], [-2.0354252011453404, 0.10899481159922564, 0.623081850926734, 0.2098754824102389, -2.2337095972037186, -0.8329629274572837], [1.2811402019639517, 0.30751617711733814, -0.0701121168663239, -0.7018862026538031, 0.22677350813648425, -0.848027797812218], [0.5046828858865993, -2.6133600089727023, -0.11247670539619399, -0.7295192630141243, 2.222279498818069, -0.8394162573567406], [-1.3622969429107188, -1.055438705105534, -0.44147256860857176, 0.24567259431519908, 0.22158896006908285, 1.6172137939295186], [-0.08217104956866844, -1.5698085262022896, 2.3334240989561357, 0.5794380810306852, -0.7177890863438918, -0.8875816179259008]], "biases": [[0.14373618920413156, 0.05600395746953585, 0.3707490301534361, -0.054260884681573585, -0.07707422430185701, 0.060229834599541204]]}, "layer3": {"weights": [[0.7407003126443505, 0.875153630116364, -1.1555832970076683], [0.9853704647926058, -0.48798035583613275, 1.8386706811260418], [1.3369232016514712, 0.8374200120879531, -0.33900260103299085], [0.12157972500716883, -2.664481042389335, 1.2206187249069305], [-1.280131793893241, 0.38108639181048676, 2.07111269776014], [-1.3482598557352732, -1.5852973854907355, -1.1823864291193606]], "biases": [[-0.15304169659106096, -0.16480309780414232, -0.07324474905483314]]}}, {"layer1": {"weights": [[-0.4020026029032804, 0.4021739375481116, 0.9144625176700245, 1.1210202949968044, -0.8084392100703328, -0.35041373124962716], [-0.03827262414172981, 1.44698917250687, -0.9947015801126793, 1.297701721823381, -2.141571069416856, 1.4441246316892873], [-1.4546389212542332, -0.8128978227646966, -0.005778121840549011, 1.242956794477635, 0.6741909856743731, 0.7518188901062779], [-1.663154418609246, -1.119592410090495, 1.0257688291357567, 1.6963105895267652, -0.8315235381146717, -0.20298511293147886], [0.05425417934881579, 0.9045613354746354, 0.9998535949025168, -1.1371335191970153, -1.7701197312373433, 1.52509331843692]], "biases": [[0.25979911291166047, 0.11264253621429156, -0.2344848435796727, -0.20816876985313415, -0.08340505131930967, -0.03146217193163395]]}, "layer2": {"weights": [[-1.1601365155641834, -0.3953083251448214, 0.8268013444299148, 0.9581744355618622, 0.37237020896629874, -0.4296926614426085], [-2.030932366521929, 0.10920902301866225, 0.6046085097680411, 0.2009649641626848, -2.2305367290160105, -0.8410044790071707], [1.2410538153846158, 0.3292464388953918, -0.07050945297271796, -0.7138416055167808, 0.2497368622386829, -0.8503981070016291], [0.5049035246985142, -2.602423140689903, -0.11235418602694186, -0.6882260917972453, 2.225551158262394, -0.8374070636484412], [-1.321785727446576, -1.0525313580128406, -0.444122887436178, 0.2586751445825701, 0.2137219750631456, 1.6149649074321575], [-0.08684111736657096, -1.5636630151562612, 2.3798853721243427, 0.5845115234420267, -0.6986637088284795, -0.8586392249429476]], "biases": [[0.1387287410778659, 0.06913091383748594, 0.371795391244413, -0.05544265458848591, -0.07610531254219485, 0.05793434690415451]]}, "layer3": {"weights": [[0.7574962247303911, 0.8751166590519699, -1.1594661911952742], [0.9773935545186794, -0.4857865023090181, 1.8138243044044347], [1.365193755113212, 0.8265243047850164, -0.3390090691835133], [-0.037961628436560146, -2.663842479800693, 1.2252161216863928], [-1.2808561265949179, 0.3827684602494913, 2.071524220085751], [-1.4465120493776427, -1.5780453519580215, -1.1805255553185174]], "biases": [[-0.10697108943004474, -0.17283114100151314, -0.07396669378524194]]}}, {"layer1": {"weights": [[-0.4188220903602457, 0.4015129503941657, 0.9167178597999317, 1.1158436528169116, -0.8048064421210743, -0.35162434959141875], [-0.09315740939827977, 1.4048801541608342, -0.99451295892586, 1.2816714621295358, -2.1797095887317637, 1.45479913052518], [-1.5800318685531902, -0.8129103372620812, -0.013918256512059527, 1.2394154767751941, 0.693396083963856, 0.7516395676123808], [-1.6577698594838624, -1.0988955902421287, 0.8814541694231155, 1.6961546675810335, -0.7916269449116294, -0.20208834131338493], [0.04985794650696554, 0.7770697335400598, 1.057874679318814, -1.0703459702029867, -1.7700464917453709, 1.5320906348359962]], "biases": [[0.2597923286513488, 0.04637478989985143, -0.23923987493339732, -0.2193107320857946, -0.07824735049218297, -0.034776706050120405]]}, "layer2": {"weights": [[-1.2460135122262108, -0.3821516801389675, 0.8123929774476064, 0.9525517658090628, 0.42061914045357074, -0.4258758220797698], [-2.0299237373402486, 0.10997405477382607, 0.6254056737724494, 0.19027363586950935, -2.229291801538143, -0.8375730745230817], [1.2203224708747196, 0.2884486316552445, -0.0671786036568179, -0.720351586189, 0.1822463558362345, -0.8497052115082349], [0.5052131952223019, -2.5987285128928406, -0.11222889303328099, -0.6466730309383151, 2.226704609581983, -0.8253804695041407], [-1.3257693756845548, -1.0538288118510637, -0.4479468762037091, 0.26720069985483724, 0.21794382481130237, 1.614386050073608], [-0.10429201166332905, -1.5575034003796429, 2.365816449648836, 0.5922776516794126, -0.6815633740879519, -0.8281333963289067]], "biases": [[0.13393995725771368, 0.07573129550864097, 0.37286844610738634, -0.057800614431612246, -0.07513766371128971, 0.054798381681112715]]}, "layer3": {"weights": [[0.7757046639100049, 0.8750942962034451, -1.1107130595361623], [0.9696143762161484, -0.48615080671840266, 1.8011923818396525], [1.3869983603018485, 0.8192898980994308, -0.33902746059314326], [0.11852897990898834, -2.6657222931719877, 1.2148703021679785], [-1.2820883047668694, 0.382688458088422, 2.049907533421694], [-1.4901826911577767, -1.57147600944957, -1.2161379604680098]], "biases": [[-0.1522736902641666, -0.17296318650536852, -0.07435439797012305]]}}, {"layer1": {"weights": [[-0.4188220903602457, 0.4015129503941657, 0.9167178597999317, 1.1158436528169116, -0.8483176354125157, -0.35162434959141875], [-0.09315740939827977, 1.346709637478809, -0.99451295892586, 1.2816714621295358, -2.1797095887317637, 1.45479913052518], [-1.5800318685531902, -0.8129103372620812, -0.013918256512059527, 1.2394154767751941, 0.693396083963856, 0.7516395676123808], [-1.6577698594838624, -1.0988955902421287, 1.008377294509256, 1.6961546675810335, -0.7916269449116294, -0.20208834131338493], [0.04985794650696554, 0.8399397878398362, 1.057874679318814, -1.0703459702029867, -1.7700464917453709, 1.5320906348359962]], "biases": [[0.2597923286513488, 0.11261899122612928, -0.23923987493339732, -0.2193107320857946, -0.07824735049218297, -0.034776706050120405]]}, "layer2": {"weights": [[-1.2460135122262108, -0.3821516801389675, 0.706716260509598, 0.9525517658090628, 0.42061914045357074, -0.4258758220797698], [-2.0299237373402486, 0.10997405477382607, 0.6254056737724494, 0.19027363586950935, -2.229291801538143, -0.8375730745230817], [1.2203224708747196, 0.2884486316552445, -0.04643785637693974, -0.720351586189, 0.27263217018559904, -0.8497052115082349], [0.5052131952223019, -2.5987285128928406, -0.11222889303328099, -0.6466730309383151, 2.226704609581983, -0.8253804695041407], [-1.3257693756845548, -1.0538288118510637, -0.4479468762037091, 0.26720069985483724, 0.21794382481130237, 1.614386050073608], [-0.10429201166332905, -1.5989857783183348, 2.365816449648836, 0.5922776516794126, -0.6815633740879519, -0.8281333963289067]], "biases": [[0.13393995725771368, 0.07573129550864097, 0.37286844610738634, -0.057800614431612246, -0.07513766371128971, 0.054798381681112715]]}, "layer3": {"weights": [[0.7757046639100049, 0.8750942962034451, -1.1165695157757907], [0.9696143762161484, -0.48615080671840266, 1.8011923818396525], [1.3869983603018485, 0.8192898980994308, -0.33902746059314326], [0.11852897990898834, -2.6657222931719877, 1.2148703021679785], [-1.2820883047668694, 0.382688458088422, 2.049907533421694], [-1.4901826911577767, -1.57147600944957, -1.2161379604680098]], "biases": [[-0.1522736902641666, -0.17296318650536852, -0.07435439797012305]]}}]