[{"layer1": {"weights": [[-0.19368624357525116, 0.42509807878674183, 0.9870361817650133, 1.1075966418809668, -0.8013067948254413, -0.3470349616766562], [-0.030754124967119115, 1.3056486139764703, -1.1373508019327239, 1.2969133606800054, -2.128830740950974, 1.409543457236492], [-1.402969557554409, -0.7929553574958342, -0.060299072215692445, 1.2736074701372186, 0.6318503137972638, 0.7728325476132647], [-1.7221766496513053, -1.1429099492860733, 0.9993473218522864, 1.6354572716744786, -0.8798060050883187, -0.2784665809546276], [0.16379295082062859, 0.9987173537832124, 0.9682928033388267, -0.8980229950682821, -1.4976259061080193, 1.6261995348629368]], "biases": [[0.2966203440270358, 0.10977676116466976, -0.25131560261509145, -0.20536361029474284, -0.009657518523406069, -0.09199275016196656]]}, "layer2": {"weights": [[-0.8451168595852352, -0.3390896872188761, 0.722694841248818, 0.9451865803573176, 0.27284498041844857, -0.6524383216603951], [-2.0521553782740227, 0.027798934233288372, 0.6418067250123007, 0.4606545566095999, -2.249899101100997, -0.7353996597454355], [1.212697862835323, 0.37200116517352017, -0.12539138218138715, -0.7236761097137361, 0.34691289642969864, -0.857943778743317], [0.5406014316545315, -2.6046564308404925, -0.20318969106505885, -0.5044203516616371, 2.20260404506288, -0.794352872305093], [-1.2698196981332754, -1.0675701179525632, -0.3753292794302229, 0.11303228265987014, 0.37693544763594, 1.6130398820182172], [-0.08100980541157185, -1.6025103238465945, 2.4152462574665674, 0.5205900748138705, -0.6039203993633865, -0.9016471437087528]], "biases": [[0.1372725944096148, 0.07026895971933125, 0.3356307488416965, -0.07218157796879408, -0.09487811519980105, 0.08607773459996296]]}, "layer3": {"weights": [[0.5187670167381142, 0.9635000456807802, -1.1466098065568788], [1.2689133126089045, -0.5397282562321455, 1.8040700351353933], [1.1589440546375507, 0.8793882526531815, -0.46929198486859647], [-0.13286436066049007, -2.7699426849919826, 1.0414704471123573], [-1.4407979915363736, 0.39199323601356273, 2.090709397838559], [-1.275571288801387, -1.6009393934586744, -1.427640485099775]], "biases": [[-0.15284847410459682, -0.1926706503455023, -0.09740434838724524]]}}, {"layer1": {"weights": [[-0.2879452804332109, 0.4210371413832752, 0.9905245859061059, 1.1072001214477643, -0.8072817236534424, -0.34518555091949205], [-0.04353606518506724, 1.3024041817293688, -1.1308377325480707, 1.29494536595501, -2.129145228763533, 1.4809398203510695], [-1.3910449209141502, -0.7929089466407531, -0.06012453481207157, 1.2759271822829197, 0.6268449265193197, 0.7728105378681963], [-1.722308152096716, -1.1397824337869085, 0.998114383168888, 1.63562519364218, -0.8783364393576473, -0.25170893095487945], [0.2359316445670321, 1.0021118845824448, 0.9705218235811788, -0.8914780242869236, -1.6343093966983897, 1.6241942347365428]], "biases": [[0.2963893471600649, 0.1098546028532649, -0.2511056450904473, -0.205363414994862, -0.03293170675584077, -0.09091215692992653]]}, "layer2": {"weights": [[-0.8946208822051034, -0.3398622793377081, 0.730477630281647, 0.9610555782496182, 0.2991091740230101, -0.6537924639332229], [-2.2063017535249596, 0.043500237514114415, 0.6810267905708951, 0.5809735236913849, -2.250432042334549, -0.6851521377707264], [1.2129791082680073, 0.3821330595738893, 0.04621969506854939, -0.7237867052642399, 0.3459962758066086, -0.879433680717148], [0.5406014246612713, -2.7747213061879688, -0.20319531077365288, -0.49866522568454774, 2.202613732369119, -0.653194208919442], [-1.3035324132630717, -0.94204058642268, -0.38948831466329537, 0.008335073450421962, 0.37880516503971745, 1.617669070022496], [-0.08100674640554137, -1.6035842286261992, 2.358632224857374, 0.5050887654889832, -0.5814441617990362, -0.9055678100154081]], "biases": [[0.1372709752255147, 0.07177851803259637, 0.33567506154473137, -0.07080273229579455, -0.1412538336738965, 0.11416638928282502]]}, "layer3": {"weights": [[0.5257566633952581, 0.9758188492254206, -1.1459353822881515], [1.2955510914242603, -0.5408377156908688, 1.8011944972937628], [1.2495872633792355, 0.8794394137319326, -0.4164824596027558], [-0.107034091118903, -2.825265591001299, 1.124070381584737], [-1.4405361860003847, 0.40551031789919295, 2.0906615582512185], [-1.2754498973341821, -1.6011487992401658, -1.3965828878766449]], "biases": [[-0.15022381190527048, -0.19267178194839563, -0.08758525364471592]]}}, {"layer1": {"weights": [[-0.2460091910989396, 0.4210371413832752, 0.9905245859061059, 1.1072001214477643, -0.8072817236534424, -0.34518555091949205], [-0.008465072958520947, 1.236065037578936, -1.1308377325480707, 1.29494536595501, -2.129145228763533, 1.4337339098011663], [-1.3910449209141502, -0.7929089466407531, -0.06012453481207157, 1.2759271822829197, 0.6268449265193197, 0.7728105378681963], [-1.722308152096716, -1.178626090914567, 0.998114383168888, 1.63562519364218, -0.8783364393576473, -0.25170893095487945], [0.08409649626434962, 1.0021118845824448, 0.9705218235811788, -0.8914780242869236, -1.6343093966983897, 1.6032745795300003]], "biases": [[0.2963893471600649, 0.1098546028532649, -0.2511056450904473, -0.205363414994862, -0.03293170675584077, -0.09091215692992653]]}, "layer2": {"weights": [[-0.8946208822051034, -0.3398622793377081, 0.730477630281647, 0.9070033140686912, 0.2991091740230101, -0.6537924639332229], [-2.057875879528913, 0.043500237514114415, 0.6400739791871486, 0.46995809156169666, -2.250432042334549, -0.7343359530745949], [1.1992895105355388, 0.3821330595738893, -0.03753258814061643, -0.7237867052642399, 0.3459962758066086, -0.879433680717148], [0.5406014246612713, -2.5757095374144434, -0.20319531077365288, -0.5781047911021251, 2.202613732369119, -0.789523305553486], [-1.3035324132630717, -1.0832238331628452, -0.38948831466329537, 0.21814022899806665, 0.37880516503971745, 1.617669070022496], [-0.08100674640554137, -1.5321685705999275, 2.358632224857374, 0.553617360676752, -0.5814441617990362, -0.9055678100154081]], "biases": [[0.1372709752255147, 0.07177851803259637, 0.39882013830361784, -0.07080273229579455, -0.09487744007622778, 0.11416638928282502]]}, "layer3": {"weights": [[0.5900948304004738, 0.9634960291051183, -1.1459353822881515], [1.2955510914242603, -0.5408377156908688, 1.8011944972937628], [1.1589441199234576, 0.8794394137319326, -0.4164824596027558], [-0.107034091118903, -2.825265591001299, 1.124070381584737], [-1.4405361860003847, 0.40551031789919295, 2.0906615582512185], [-1.2754498973341821, -1.6011487992401658, -1.3965828878766449]], "biases": [[-0.15022381190527048, -0.19267178194839563, -0.09097046203554722]]}}, {"layer1": {"weights": [[-0.245467767235468, 0.4145703649303161, 0.9934252952691434, 1.1057787173180134, -0.8069721137527205, -0.3455808352352703], [0.021824416371155897, 1.3000183845718762, -1.1302611394502515, 1.2912215016382596, -2.128519743475996, 1.4798562226754495], [-1.3861729065406632, -0.7925559868188539, -0.06037831694503963, 1.2682051376633643, 0.6276413098427913, 0.7728594474210828], [-1.633423847223554, -1.1369932051646854, 0.9986341746231362, 1.6353349459606343, -0.8772183165911375, -0.25301199501670124], [0.0030708576453357117, 1.040753236249404, 0.9623670671001008, -0.875858021873732, -1.6395165394206674, 1.6251644325392807]], "biases": [[0.29641604650482933, 0.10967415114861107, -0.2515934338197754, -0.20536386976311727, -0.047880690079260046, -0.09161671658344206]]}, "layer2": {"weights": [[-0.8981579724536342, -0.3404555074916928, 0.7108175884407681, 0.8706380683647558, 0.2994596473902184, -0.6541897539704609], [-2.084271061550219, 0.04825093914166335, 0.6399484207866333, 0.45206007374278145, -2.249649817251748, -0.7343068960307677], [1.2136704578462871, 0.39224479217209657, -0.03941068650148355, -0.6840063629049515, 0.3460592010761746, -0.8890770299775814], [0.5406014465644933, -2.545045978070336, -0.20316824669079342, -0.49523765865779695, 2.2025797145924226, -0.8188740973059511], [-1.3273547708715268, -1.035619631341086, -0.39440274025102495, 0.13042645559158517, 0.36842470928954285, 1.6179869468107717], [-0.08101385839911711, -1.60276541941649, 2.358640051951361, 0.586739189268113, -0.5705206664249703, -0.904743049413748]], "biases": [[0.13727678189072706, 0.047451063724388086, 0.3865441472372598, -0.07067976601315462, -0.09488222116581094, 0.13884892362531032]]}, "layer3": {"weights": [[0.5249730149088236, 0.9635162211594523, -1.1265900883585884], [1.305125272610704, -0.536679944453671, 1.7989670948824916], [1.158943894179635, 0.8785899893366991, -0.41689632719745107], [-0.10835988530129566, -2.833027739136724, 1.1243078268911844], [-1.4391520027408569, 0.41302646325383374, 2.0907342823811863], [-1.2723924939688414, -1.6009931993720221, -1.2211959998802673]], "biases": [[-0.14832439672468323, -0.19266784056588981, -0.09157804969320454]]}}, {"layer1": {"weights": [[-0.24655061496241118, 0.4275039178362342, 0.9876238765430685, 1.1086215255775151, -0.8075913335541645, -0.3447902666037138], [-0.03875456228819779, 1.3047899788868613, -1.1314143256458902, 1.2986692302717606, -2.129770714051069, 1.4820234180266894], [-1.3959169352876375, -0.7932619064626523, -0.05987075267910351, 1.283649226902475, 0.626048543195848, 0.7727616283153098], [-1.811192456969878, -1.1425716624091313, 0.9975945917146398, 1.6359154413237256, -0.8794545621241571, -0.2504058668930577], [0.16512213488336352, 0.9634705329154853, 0.9786765800622568, -0.9070980267001151, -1.6291022539761122, 1.6232240369338051]], "biases": [[0.2963626478153004, 0.11003505455791872, -0.2506178563611192, -0.2053629602266067, -0.017982723432421487, -0.090207597276411]]}, "layer2": {"weights": [[-0.8910837919565725, -0.3392690511837233, 0.7501376721225259, 0.9433685597726266, 0.29875870065580185, -0.6533951738959848], [-2.0314806975076074, 0.03874953588656549, 0.6401995375876639, 0.4878561093806119, -2.2512142674173505, -0.734365010118422], [1.2122877586897274, 0.372021326975682, -0.03565448977974931, -0.7635670476235284, 0.34593335053704255, -0.8697903314567146], [0.5406014027580492, -2.606373096758551, -0.20322237485651232, -0.5020927927112986, 2.2026477501458155, -0.7601725138010211], [-1.2797100556546166, -0.9795200064345712, -0.3845738890755658, 0.10364702555007664, 0.38918562078989205, 1.6173511932342206], [-0.08099963441196562, -1.6044030378359084, 2.3586243977633874, 0.5204955320853911, -0.592367657173102, -0.9063925706170683]], "biases": [[0.13726516856030235, 0.09610597234080465, 0.3358274802604861, -0.07092569857843448, -0.09487265898664464, 0.08948385494033974]]}, "layer3": {"weights": [[0.5265403118816925, 0.9634758370507843, -1.1652806762177144], [1.2859769102378165, -0.5449954869280668, 1.8034218997050342], [1.15894434566728, 0.8802888381271662, -0.41606859200806057], [-0.10570829693651032, -2.817503442865874, 1.1238329362782897], [-1.4419203692599125, 0.39799417254455216, 2.0905888341212506], [-1.278507300699523, -1.6013043991083094, -1.5719697758730224]], "biases": [[-0.15212322708585774, -0.19267572333090144, -0.0903628743778899]]}}, {"layer1": {"weights": [[-0.3804161516869374, 0.44978229581051393, 0.9910006399078888, 1.1067868097077906, -0.8026457220820806, -0.3467702511452543], [-0.01880486535676772, 1.2094655018978988, -1.135434238037651, 1.294559429840381, -2.1285966202603457, 1.4815230692916064], [-1.3975523912076009, -0.7927672748711143, -0.060382328931271254, 1.266817446291833, 0.6309971586395136, 0.7728514999534408], [-1.6328177944665647, -1.1407334561001705, 0.9992989829085609, 1.6353541283256314, -0.878879552272396, -0.25171855043166363], [0.1935871267083945, 1.0407716281963324, 0.9698334887034561, -0.8885767511663467, -1.632601293417447, 1.6261833087327071]], "biases": [[0.29657594448267527, 0.10970599573449163, -0.25150700759859446, -0.20536378885390028, -0.0401578116149325, -0.09207488168071432]]}, "layer2": {"weights": [[-0.8978985503504138, -0.34217948294015355, 0.7081459375074317, 1.0313592536031209, 0.300584999701347, -0.652975502247221], [-2.079941246922824, 0.03409961086726934, 0.7279157867617656, 0.44371555465250634, -2.249641223867984, -0.6880638957486398], [1.2131138489826343, 0.38465949581792447, -0.03754183726810301, -0.8255253734334692, 0.34671520390870914, -0.8711477017858944], [0.5406014408578275, -2.610656845615104, -0.20317756395077763, -0.4974564038286544, 2.2025894580010914, -0.8206608256774178], [-1.303939243439085, -0.9600907012997024, -0.3813262510323558, 0.07732210075581732, 0.39327471358646365, 1.6143561174134247], [-0.08101259665685209, -1.6023693954366411, 2.358638044836585, 0.5255411791309657, -0.5884021933008426, -0.9022149299845865]], "biases": [[0.13727509294619597, 0.04687823190668747, 0.3483209937616486, -0.07177538340922424, -0.13396139494719178, 0.1155743486529863]]}, "layer3": {"weights": [[0.520122604159183, 0.9635091375640317, -1.1270280594300601], [1.338426087113942, -0.5684925843951487, 1.80223744946935], [1.1589439580871161, 0.8789763307252525, -0.4175304301264406], [-0.12706969036628965, -2.8800484495494243, 1.1244199498622849], [-1.442429212474572, 0.39913057916229067, 2.090733800006708], [-1.2746399655177827, -1.6009139449699754, -1.2535813938010636]], "biases": [[-0.15124260096447162, -0.1893288732357922, -0.0927144622373181]]}}, {"layer1": {"weights": [[-0.29138945856786447, 0.44978229581051393, 0.9910006399078888, 1.1067868097077906, -0.8026457220820806, -0.3467702511452543], [-0.01880486535676772, 1.2094655018978988, -1.135434238037651, 1.294559429840381, -2.1285966202603457, 1.4815230692916064], [-1.3975523912076009, -0.7927672748711143, -0.060382328931271254, 1.266817446291833, 0.6309971586395136, 0.7728514999534408], [-1.6328177944665647, -1.1407334561001705, 0.9992989829085609, 1.6353541283256314, -0.878879552272396, -0.25171855043166363], [0.1935871267083945, 1.0407716281963324, 0.9698334887034561, -0.8885767511663467, -1.632601293417447, 1.6261833087327071]], "biases": [[0.29657594448267527, 0.10970599573449163, -0.25150700759859446, -0.20536378885390028, -0.0401578116149325, -0.09207488168071432]]}, "layer2": {"weights": [[-0.8978985503504138, -0.34217948294015355, 0.7081459375074317, 1.0313592536031209, 0.300584999701347, -0.652975502247221], [-2.079941246922824, 0.03409961086726934, 0.7279157867617656, 0.44371555465250634, -2.249641223867984, -0.6880638957486398], [1.2705519717993907, 0.38465949581792447, -0.03754183726810301, -0.6840536422155383, 0.34671520390870914, -0.8711477017858944], [0.5406014408578275, -2.610656845615104, -0.20317756395077763, -0.4974564038286544, 2.2025894580010914, -0.8206608256774178], [-1.303939243439085, -0.9600907012997024, -0.3813262510323558, 0.07732210075581732, 0.27702069873028257, 1.6143561174134247], [-0.08101259665685209, -1.6621719106630646, 2.358638044836585, 0.5255411791309657, -0.5884021933008426, -0.9022149299845865]], "biases": [[0.13727509294619597, 0.04687823190668747, 0.3483209937616486, -0.07177538340922424, -0.09488033696369931, 0.1548852579054055]]}, "layer3": {"weights": [[0.4771063934865745, 0.9635091375640317, -1.1270280594300601], [1.2803598479059652, -0.5684925843951487, 1.80223744946935], [1.1589439580871161, 0.8789763307252525, -0.4175304301264406], [-0.12706969036628965, -2.816863774759433, 1.1244199498622849], [-1.442429212474572, 0.39913057916229067, 2.090733800006708], [-1.2746399655177827, -1.6009139449699754, -1.2535813938010636]], "biases": [[-0.15124260096447162, -0.1893288732357922, -0.0927144622373181]]}}, {"layer1": {"weights": [[-0.1408218721880911, 0.42269223973724945, 0.986448486986958, 1.1065717581844186, -0.7950222560967183, -0.3492796567495986], [-0.022753687646040438, 1.3065072490660792, -1.1432872782195576, 1.29515749108825, -2.1278907678508796, 1.4828563500843743], [-1.4100221798211807, -0.7926488085290162, -0.06072739175228138, 1.2635657133719624, 0.6376520843986795, 0.7729034669112195], [-1.6331608423327324, -1.1432482361630152, 1.001100051989933, 1.634999102025232, -0.8801574480524804, -0.2513002282056967], [0.16246376675789365, 1.0406594576856678, 0.9579090266153967, -0.888947963436449, -1.6280187403751163, 1.6291750327920684]], "biases": [[0.2968780402387712, 0.10951846777142081, -0.25201334886906374, -0.205364260362879, -0.001332313614390651, -0.09377790304752213]]}, "layer2": {"weights": [[-0.7991499272138979, -0.3389103232540289, 0.6952520103751101, 0.9470046009420086, 0.3029278847095056, -0.6514814694248054], [-2.072830059040438, 0.016848332580011255, 0.6434139124369375, 0.4334530038385879, -2.2485839347846435, -0.736434309372449], [1.2131079669809188, 0.3719810033713583, -0.036931219693624937, -0.6837851718039437, 0.3478924423223547, -0.8460972260299193], [0.5406014605510137, -2.6029397649224335, -0.20315700727360536, -0.5067479106119757, 2.2025603399799447, -0.828533230809165], [-1.2599293406119343, -0.9865501047991, -0.36608466978488, 0.12241753976966364, 0.36468527448198795, 1.6087285708022139], [-0.08101997641117809, -1.6006176098572806, 2.4718681171697474, 0.5206846175423501, -0.6154731415536709, -0.8969017168004372]], "biases": [[0.13728002025892727, 0.04443194709785785, 0.3354340174229069, -0.07343745735915369, -0.09488357141295747, 0.08267161425958616]]}, "layer3": {"weights": [[0.5109937215945359, 0.963524254310776, -1.1279389368960435], [1.2518497149799925, -0.5344610255362241, 1.8047181705657525], [1.1589437636078213, 0.8784876671791968, -0.41913909180101677], [-0.16002042438446984, -2.722381927118091, 1.1249234152227152], [-1.4396756138128346, 0.38599229948257324, 2.0908299615558676], [-1.2726352769032512, -1.6005743878090395, -1.2833111943265276]], "biases": [[-0.1535737211233359, -0.19266557736010315, -0.10444582239660058]]}}, {"layer1": {"weights": [[-0.2254980758421747, 0.41863130233378276, 0.9899368911280506, 1.1531360439293818, -0.8009971849247194, -0.34743024599243444], [-0.00046463563744227054, 1.3032628168189777, -1.1367742088349044, 1.2931894963632549, -2.128205255663438, 1.481356286379912], [-1.398097543180922, -0.792602397673935, -0.060552854348660506, 1.2658854255176633, 0.4977506171689515, 0.7728814571661511], [-1.6332923447781433, -1.1401207206638504, 0.8756837616229949, 1.635167023992933, -0.7419796915289714, -0.252156111611199], [0.08276731220161468, 1.040706346967536, 0.9601380468577487, -0.8824029926550905, -1.6337676398978918, 1.6271697326656747]], "biases": [[0.29664704337180026, 0.10959630946001594, -0.25180339134441954, -0.2395010637113226, -0.02460650184682535, -0.0926973098154821]]}, "layer2": {"weights": [[-0.848653949833766, -0.3396829153728609, 0.7030347994079391, 0.9088213346533822, 0.30119376604986203, -0.6528356116976332], [-2.0785505602953283, 0.0325496358608373, 0.6416811666117854, 0.44275653879068466, -2.2491168760181957, -0.672970030001486], [1.213389212413603, 0.3821128977717274, -0.03817095309755424, -0.6838957673544477, 0.34697582169926466, -0.8675871280037504], [0.5406014535577535, -2.573992871496385, -0.17434293387848887, -0.5009927846348863, 2.2025700272861837, -0.823703664057558], [-1.2936420557417305, -1.011084868070093, -0.38024370501795246, 0.1264219976806244, 0.3665549918857654, 1.613357758806493], [-0.060348149615234575, -1.6016915146368853, 2.415254084560554, 0.5852697295868492, -0.5929969039893206, -0.9008223831070925]], "biases": [[0.13727840107482717, 0.04594150541112297, 0.36098908233008337, -0.07205861168615416, -0.0948828962893842, 0.11076026894244824]]}, "layer3": {"weights": [[0.5179833682516798, 0.9635202377351142, -1.127264512627316], [1.2784874937953483, -0.5355704849949475, 1.8018426327241222], [1.1589438288937282, 0.8785388282579479, -0.4180177094992339], [-0.04934926904694047, -2.7777048331274075, 1.1246156210569498], [-1.4394138082768457, 0.39950938136820346, 2.0907821219685268], [-1.2725138854360463, -1.600783793590531, -1.2522535971033975]], "biases": [[-0.15094905892400956, -0.19266670896299648, -0.09801193604490256]]}}]