[{"layer1": {"weights": [[-0.2874311304841497, 0.22105665916400885, 0.8225147406614318, 1.110720015068021, -0.9202620212411592, -0.336858330297907], [-0.02136223078103172, 1.3888589759873207, -0.9860968469313605, 1.24018315483064, -2.158382179251979, 1.4032100748890453], [-1.213854699972538, -0.8045971167920445, -0.02327763688966391, 1.20407544847236, 0.5882884885922119, 0.734087918358253], [-1.7327081951627201, -1.0603236915550034, 1.0709133422165547, 1.7370794968478038, -0.8944076297416526, -0.2590787580305645], [0.1851764807500229, 0.8716983392205152, 0.9025363695022964, -1.0940060941867693, -1.7697400946169302, 1.6049835317756687]], "biases": [[0.2878729513053749, 0.12332628225534756, -0.22477524371418595, -0.1826234541469208, -0.005279333540024845, -0.020881717822053364]]}, "layer2": {"weights": [[-1.2368958311343325, -0.3717395748892822, 0.7970357707645905, 0.7758513428685674, 0.15616357850293278, -0.3761533944807587], [-2.0332437438741113, -0.019022350522495166, 0.5120523204583032, 0.18785949776831984, -2.164682625541678, -0.7337295783901403], [1.224894650516822, 0.32103401359783845, -0.11387493258140781, -0.7770999913259562, 0.1847796107642224, -0.8515586019430575], [0.539472555313292, -2.4136630300994826, -0.1252741326926227, -0.5464852149613355, 2.2019675167616506, -0.7762393155524867], [-1.2547818632508192, -1.1957537607442965, -0.49728620030235876, 0.15949790910554268, 0.23735132110351487, 1.65973713357475], [-0.09664271732356526, -1.5216588243258973, 2.3475115815849814, 0.5786720405960186, -0.6763506034570361, -0.7157753049746]], "biases": [[0.15387247019367245, 0.044084709273240597, 0.38578916768640376, -0.028176673804458006, -0.06215041503674132, 0.1326706065165518]]}, "layer3": {"weights": [[0.6427729510212206, 0.8498556906326558, -1.093270243868258], [0.9472594555646447, -0.46783506890340526, 1.8100079708375874], [1.453386552930884, 0.8258185209233143, -0.31585399276748727], [-0.07251596391621962, -2.8382985451359675, 0.9077300512447539], [-1.2390999550705009, 0.4031147446891968, 2.070233866427568], [-1.3216438830599726, -1.4759467182539314, -1.2076090697719932]], "biases": [[-0.18449390924365427, -0.1563340318652974, -0.08575848662554605]]}}, {"layer1": {"weights": [[-0.28743069944258864, 0.3970575729174559, 0.8760121870868414, 1.1107435664935488, -0.9203994397097346, -0.3233213436030614], [0.07333480998267629, 1.4304146682371122, -0.9762762038576177, 1.2512544812843278, -2.1552232184647657, 1.4087384184336806], [-1.208381339559793, -0.8493278119369998, -0.03147030980679663, 1.2141191151012565, 0.5884872318469854, 0.7286489488632197], [-1.7276370117795148, -1.0329925418694512, 1.077176949161038, 1.7460473643834318, -0.9290657025062808, -0.23476332198794228], [0.15998468419501768, 0.8376397038239969, 0.9042976013615254, -1.0941976730506782, -1.7792261865908785, 1.6204967615159704]], "biases": [[0.2878726710358884, 0.12596345854258467, -0.22457950856205608, -0.1868233024378617, -0.0031375737037372354, -0.02088125822549109]]}, "layer2": {"weights": [[-1.2266146123787212, -0.3717218935638099, 0.7453883011429882, 0.6592812773304148, 0.17782934078212187, -0.3557410571677241], [-2.0332594568753586, -0.03374028678526595, 0.5295212586022262, 0.2375287763808732, -2.1638867668054793, -0.6055745873088916], [1.2259353174527585, 0.277723601563585, -0.1890060183011149, -0.741923615134132, 0.19882433604539107, -0.8183380253752064], [0.5401707188443092, -2.4754929220596633, -0.12089611184889579, -0.5419449657592555, 2.203004496483092, -0.8341884242901192], [-1.2547853110713034, -1.2010945654674097, -0.496718250275454, 0.2227724713964681, 0.24576346714731973, 1.6636051704523984], [-0.10475058076356691, -1.517736491333518, 2.3486489169665363, 0.5798203364132466, -0.6684258334601626, -0.8739298195126581]], "biases": [[0.15387247237402507, -0.043249555793806946, 0.3920723393370318, -0.03330879790787159, -0.06215049050915038, 0.13271648586634452]]}, "layer3": {"weights": [[0.6431603607266358, 0.8438929147230682, -1.0932384991262225], [0.8903906870124568, -0.4802234367930602, 1.7795422254366233], [1.4361688174501916, 0.8276559692497708, -0.31585357664879316], [-0.06087627371759903, -2.895861799914972, 0.9084764590273158], [-1.2318929399326284, 0.40312602038075596, 2.0694120917339864], [-1.3123409942343942, -1.5084716355044505, -1.2070079841486132]], "biases": [[-0.18439684994522534, -0.1563340309238959, -0.07937946044423638]]}}, {"layer1": {"weights": [[-0.2874312502179167, 0.39682150918196063, 0.8760029906184426, 1.1107134730053745, -0.9202238494443328, -0.3480936534534257], [-0.04200241101369306, 1.4514839892183231, -0.9798941606629459, 1.2416274448629032, -2.1326866858123257, 1.4115054492487427], [-1.2139323509874063, -0.8177276014579764, -0.0024916678593882233, 1.2095701752596733, 0.5886512053079829, 0.7216985682918664], [-1.7275327692519782, -1.0686939327721827, 1.0758561956981016, 1.737078647058937, -0.8818125792858187, -0.24047462024662514], [0.161790760813406, 0.8817364707207591, 0.8992125537014545, -1.0939528778356835, -1.796641059184029, 1.7952752579963056]], "biases": [[0.28787302915801005, 0.12277038040757057, -0.22397483316497507, -0.18262341070102292, -0.008484626197601344, -0.02088184548776511]]}, "layer2": {"weights": [[-1.224611530132461, -0.34220855177585474, 0.7781736324076567, 0.779144893938132, 0.15617110482723146, -0.34237650274870296], [-2.0332393791515426, -0.0166278197367437, 0.4824706451833777, 0.13187155356053984, -2.1639308447541987, -0.6343264496147559], [1.2246283504504583, 0.30479250853392115, -0.03289959613113033, -0.7708301768568737, 0.18331288085188818, -0.822180108982735], [0.5404124706444494, -2.423750791668227, -0.126211617197033, -0.5476627508353973, 2.2017438987804505, -0.7983275670624428], [-1.2363696480875834, -1.2042194478208885, -0.49744396419872117, 0.22349530151425132, 0.27001971100312727, 1.6530735288180618], [-0.09490539636781584, -1.6738064437779696, 2.347220255462547, 0.5902128155763335, -0.7045873489028263, -0.7712424837728474]], "biases": [[0.15387246958801895, 0.04408512810795674, 0.3844435880438454, -0.03472222025588589, -0.06215039407218324, 0.13265786225272047]]}, "layer3": {"weights": [[0.6426600689684138, 0.8506853654131132, -1.093279061852157], [0.9595281121112558, -0.4491842651087231, 1.787669420395745], [1.4389823513885895, 0.8254243249035855, -0.31585410835601346], [-0.08651570939781272, -2.854909064002082, 0.9075227157495979], [-1.3011176104653874, 0.3262593571262653, 2.0704099610047644], [-1.3198660347865974, -1.4749597638653378, -1.2077749899547188]], "biases": [[-0.18452087015988455, -0.1563340321267978, -0.08343808044519305]]}}, {"layer1": {"weights": [[-0.2874312502179167, 0.39682150918196063, 0.8760029906184426, 1.1107134730053745, -0.9202238494443328, -0.3480936534534257], [-0.04200241101369306, 1.417198488192469, -0.9798941606629459, 1.2416274448629032, -2.1326866858123257, 1.5517730632062576], [-1.2139323509874063, -0.8046229134342552, -0.033094610184175886, 1.2095701752596733, 0.5886512053079829, 0.7216985682918664], [-1.7275327692519782, -1.0686939327721827, 1.0758561956981016, 1.737078647058937, -0.8818125792858187, -0.24047462024662514], [0.161790760813406, 0.8817364707207591, 0.8992125537014545, -1.0939528778356835, -1.796641059184029, 1.6430418778208582]], "biases": [[0.28787302915801005, 0.12277038040757057, -0.22397483316497507, -0.18262341070102292, -0.008484626197601344, -0.02088184548776511]]}, "layer2": {"weights": [[-1.222638162548777, -0.37174448636858015, 0.7781736324076567, 0.779144893938132, 0.15617110482723146, -0.34237650274870296], [-2.0332393791515426, -0.0166278197367437, 0.4824706451833777, 0.13187155356053984, -2.1639308447541987, -0.6343264496147559], [1.2246283504504583, 0.30479250853392115, -0.15610703045103125, -0.7708301768568737, 0.18331288085188818, -0.822180108982735], [0.5404124706444494, -2.423750791668227, -0.126211617197033, -0.5476627508353973, 2.2017438987804505, -0.7983275670624428], [-1.2547809055229067, -1.2042194478208885, -0.49744396419872117, 0.053819097587591735, 0.27001971100312727, 1.6530735288180618], [-0.09490539636781584, -1.5566412891869867, 2.347220255462547, 0.5902128155763335, -0.6617410788549477, -0.7712424837728474]], "biases": [[0.15387246958801895, 0.04408512810795674, 0.3844435880438454, -0.03472222025588589, -0.06215039407218324, 0.13265786225272047]]}, "layer3": {"weights": [[0.6426600689684138, 0.8506853654131132, -1.093279061852157], [0.9595281121112558, -0.4491842651087231, 1.787669420395745], [1.4389823513885895, 0.8254243249035855, -0.31585410835601346], [-0.08651570939781272, -2.854909064002082, 0.9075227157495979], [-1.246054768375037, 0.40311161255265254, 2.0704099610047644], [-1.3198660347865974, -1.4749597638653378, -1.2077749899547188]], "biases": [[-0.18452087015988455, -0.1563340321267978, -0.08343808044519305]]}}, {"layer1": {"weights": [[-0.2874314657386972, 0.39672913641589724, 0.8759993920003735, 1.1107016972926105, -0.9201551402100451, -0.36302948995478757], [-0.07333433052438125, 1.4290803425881793, -0.9830875642832643, 1.2356665252086523, -2.119166140980061, 1.4139459379528287], [-1.2296535730918254, -0.8046693473902344, -0.033896264571373555, 1.2159300034845364, 0.5888478725255988, 0.7219521833319185], [-1.7274919786977248, -1.0329576377892047, 1.0785648140205015, 1.7460419257346849, -0.830760034002061, -0.23670888729768486], [0.16223023831714728, 0.8936986278612307, 0.893646463462582, -1.093857088403729, -1.7772383120619242, 1.620872657378597]], "biases": [[0.2878731692927533, 0.11986196817585215, -0.22356024502126895, -0.18010351736698166, -0.011691254690969646, -0.02088207528604625]]}, "layer2": {"weights": [[-1.227181999238699, -0.3717533270313163, 0.7309439401484421, 0.8120964748413934, 0.17787750925763354, -0.30299708064108466], [-2.0332315226509188, -0.006111206356000333, 0.45380899579307565, 0.13181600880817257, -2.1638137344794854, -0.6506996469105348], [1.223903050239921, 0.3210338937923055, -0.15602057723461019, -0.7642473503057965, 0.17812575847766804, -0.8256654510697312], [0.5398994630716266, -2.4899456941797293, -0.13090831918852086, -0.5506856755750825, 2.2006455214469276, -0.7783197707088145], [-1.2547791816126643, -1.206971712492913, -0.4977279392121735, 0.22377814808207952, 0.28415275081092983, 1.6452028442897118], [-0.08621769464955573, -1.611358770473984, 2.3464301844197877, 0.605671787666792, -0.7332217359407402, -0.7712546159247775]], "biases": [[0.15387246849784264, 0.04408588201044581, 0.3777042898749866, -0.03621867312776489, -0.062150356335978714, 0.1326349225778241]]}, "layer3": {"weights": [[0.6425137783274291, 0.8611066201177591, -1.0932949342231748], [0.9317159616325836, -0.4304598045241729, 1.7796931003395686], [1.4245703796826632, 0.8234597441017752, -0.31585431641536055], [-0.10169118701111911, -2.812515699448186, 0.9071495118583169], [-1.2578255236577405, 0.4031059747068729, 2.071290433890738], [-1.3258349275418992, -1.470338108115608, -1.2080849651803298]], "biases": [[-0.18456939980909903, -0.15633403259749856, -0.08584395053422127]]}}, {"layer1": {"weights": [[-0.287431146448652, 0.39686598495821335, 0.8760047232864017, 1.1107191427930014, -0.9202569316682491, -0.32369034824301957], [-0.01829384990395102, 1.4286575288585541, -0.9541274569824261, 1.231815085122617, -2.1876874568191362, 1.3918249396603026], [-1.2294465037188431, -0.8046005563443392, -0.03544260871069894, 1.2012773987183678, 0.5878806279502098, 0.7264142130853932], [-1.7275524091484704, -1.0329721811559742, 1.0653838714030428, 1.7460441918383294, -0.864346835217618, -0.24863400769636138], [0.22459215814812572, 0.8669302771939135, 0.9025099722648273, -1.0939989986732912, -1.787073155540519, 1.5942992961641678]], "biases": [[0.28787296168572624, 0.12134437310325744, -0.22569467315249786, -0.18010363322270936, -0.003143807604098981, -0.020881734844148264]]}, "layer2": {"weights": [[-1.2504686272465753, -0.37174022975318866, 0.7812429757669322, 0.8033136719892209, 0.17785743905950369, -0.39306879192656663], [-2.033243161911102, -0.03401092144697735, 0.532693463192877, 0.13670597548580832, -2.165818483246097, -0.726213788596384], [1.224613183750224, 0.36434457396275166, -0.1561486560737525, -0.780966855556683, 0.1820370382438926, -0.8238785824618224], [0.53739302218854, -2.463044996663076, -0.12840836051009336, -0.5475455799109181, 2.2012418360634607, -0.719417766682265], [-1.254781735553764, -1.184396546955334, -0.4973072354885404, 0.2233591161297414, 0.2711225970865698, 1.6629724569742133], [-0.09085055053155419, -1.5180721975110791, 2.347207054079612, 0.5748963877192854, -0.6579237480853, -0.7712366423663626]], "biases": [[0.15387247011291866, 0.04408476511786942, 0.3812925022551423, -0.01876388259062388, -0.062150412241466904, 0.1326689072813743]]}, "layer3": {"weights": [[0.6428147971349139, 0.8588941540365391, -1.0932714195994446], [0.8989995441749543, -0.480195281309992, 1.801013578790354], [1.4629815837954485, 0.8245109334877188, -0.31585400817929077], [-0.06435853239353749, -2.76822098247188, 0.9077024065120665], [-1.2392793548456442, 0.4031143270709909, 2.070820848351547], [-1.3305758562708996, -1.4729699864851906, -1.2076425113597287]], "biases": [[-0.184497504032485, -0.15633403190016412, -0.09203170034849595]]}}, {"layer1": {"weights": [[-0.28743109057289407, 0.3968899334531187, 0.8760056562614567, 1.11072219575557, -0.9202747451734348, -0.3284240825975417], [-0.014482170703477943, 1.4169870813276564, -0.9654141070125268, 1.2397017248198856, -2.166947343731864, 1.4004449501024796], [-1.2138288163009152, -0.8045885179113076, -0.033867782253838574, 1.202243872876589, 0.5881675830202884, 0.7239295831686038], [-1.727562984477351, -1.0687012044555675, 1.0692657243893722, 1.7370797801107594, -0.8986059798935973, -0.2464371804459634], [0.1929717207288952, 0.8683522953871006, 0.9036443081025771, -1.1901259997814755, -1.8015584809233263, 1.6016618616238651]], "biases": [[0.2878729253544965, 0.12351158287127322, -0.22504204723058954, -0.1826234686288868, -0.004210902654166012, -0.02088167526681612]]}, "layer2": {"weights": [[-1.236254844136399, -0.3717379377295163, 0.8033231502169018, 0.7747534925120458, 0.15616106972816654, -0.38741235839144395], [-2.0332451987816342, 0.002797154012313112, 0.5219128788832783, 0.1343165368993577, -2.1649332191375046, -0.6720835204576805], [1.2249834172056098, 0.3264478486191442, -0.15617106987060242, -0.7791899294823169, 0.1852685207350005, -0.73722358393508], [0.5391592502029061, -2.3996892580049347, -0.12496163785781925, -0.546092703003315, 2.2020420560887173, -0.768876565049168], [-1.2547821824934564, -1.192931865052099, -0.4972336123369046, 0.22328578553808226, 0.26350463414094727, 1.6619583351603127], [-0.09722182430881507, -1.5099980027055342, 2.3476086902924593, 0.5748251156025803, -0.6669383549751061, -0.77123349699364]], "biases": [[0.10013126313976844, 0.04408456966166855, 0.3862376942339232, -0.025994824987315382, -0.06215042202492734, 0.13267485460449557]]}, "layer3": {"weights": [[0.6428105783721562, 0.8495791323725033, -1.0932673045402919], [0.9431699033824411, -0.4740520035016327, 1.7983296596211378], [1.4581879534449822, 0.8259499195965573, -0.3158539542379786], [-0.06784938208902191, -2.832761705513929, 0.9077991630764726], [-1.2367816839689887, 0.40311578873471154, 2.070175168235169], [-1.3222364991510975, -1.4762757030501292, -1.046886820730751]], "biases": [[-0.18448492227157753, -0.1563340317781306, -0.0865319553523304]]}}]