[{"layer1": {"weights": [[0.038556785464943136, 0.23794523493284608, 1.0587273580321301, 1.0923835718835035, -1.0991023807342926, -0.35632196017209644], [-0.05278748083151425, 1.0412799773820223, -0.831535186973235, 1.4917692830418423, -1.7912502545599085, 1.5148862039963653], [-1.1632874525295547, -0.45667769957968163, -0.22970999311795065, 1.3572288960209415, 0.4946268109214459, 0.8140019198866217], [-1.5616050516078819, -0.9525724052646949, 0.8335126891801572, 1.5625663616213172, -1.3331121172426874, -0.28558426209641885], [0.5596963774465418, 1.173940718815279, 0.8035471907167706, -0.7782243904058539, -1.569008306676677, 1.6998453161149927]], "biases": [[0.18201787076603798, -0.014977074165781604, -0.2872475045622791, -0.28656656382023526, -0.13567891792373116, -0.08425022788394534]]}, "layer2": {"weights": [[-0.7111695465036971, -0.6025217109121537, 1.12473786916574, 0.822988901194804, 0.06880421890626057, -0.28960036330822125], [-2.0400113224022514, 0.26664822390124987, 0.3723712376300003, 0.6928058531760934, -1.9683745327930793, -0.448816550622824], [1.2415238022084325, 0.33217420589822044, -0.2163127819917301, -0.45093810711567134, 0.10665601883054006, -0.649970137873576], [0.7149667397291992, -2.0655195066853858, -0.240464445914769, -0.45204590110818355, 2.1886247541356934, -0.8903171986673978], [-1.1646854413615046, -1.5006418730450333, -0.263281779961857, 0.34264483602219986, -0.20681948509980186, 1.6044547579599289], [0.015037665935599034, -1.490945040935606, 2.223211448419239, 0.351140950094911, -0.47477269453523663, -1.229682600074865]], "biases": [[0.12443448997777795, -0.019577274284441004, 0.30568819351166976, -0.024497171285365927, -0.16131841800979227, 0.10474049793467252]]}, "layer3": {"weights": [[0.6738910587028852, 0.8452415636856508, -1.0847457886480556], [1.333282918839697, -0.3696457974401479, 1.5172920416233224], [1.3516657371320906, 0.9002694811672527, -0.3927702320909764], [0.2205442148371295, -3.0215190192543835, 0.9359778873131381], [-1.425088209455116, 0.37172919450460484, 2.062108850299178], [-1.0546825124965087, -1.5628092117971946, -1.2228305758926725]], "biases": [[-0.12976421826981627, -0.19353756082019036, -0.19201767241042805]]}}, {"layer1": {"weights": [[0.037508940174830654, 0.35249215604681106, 1.0587273528924137, 1.0923879887887287, -1.0982238522492036, -0.3515273339779109], [-0.08971085065097562, 1.0417062963252937, -0.8300586143452635, 1.4917678964804568, -1.7892515793367183, 1.5148860902034356], [-1.1674330308591978, -0.456785995913917, -0.22974448838320846, 1.370485633056637, 0.5205658131514935, 0.8140046025791848], [-1.5645350433060559, -0.94837190742185, 0.8296552887888058, 1.558570072888917, -1.359397906321379, -0.2855835587419415], [0.5600102658244589, 1.195644857416681, 0.8731371603143651, -0.7444355599960674, -1.5699198930617557, 1.699157450574026]], "biases": [[0.17553547887386983, -0.014903414548921193, -0.2872474965889042, -0.28648308283985363, -0.1404295181877444, -0.06948943399400828]]}, "layer2": {"weights": [[-0.6689175206031759, -0.516897022839128, 1.153566463168136, 0.7531935992506211, 0.06996584166079328, -0.2857304060381831], [-2.044366105985485, 0.2692113751437203, 0.4024209529639061, 0.6747833684052001, -1.9683745336082263, -0.4559494027835821], [1.2421934035679387, 0.33028157189893104, -0.19745566220140442, -0.4539919997057771, 0.23757413542728714, -0.649960747188636], [0.7149667387893142, -2.030842188729882, -0.24046187403789077, -0.4580168888388707, 2.1886248009639457, -0.9948529394496559], [-1.156856763072963, -1.5021082889461315, -0.2604805891749154, 0.25592873554731704, -0.17696853778257338, 1.6045157638940815], [0.022611504495191552, -1.4837972389630574, 2.2231860439744353, 0.3512280691364909, -0.4762467806956533, -1.2297038370588447]], "biases": [[0.12443423198032198, -0.018904949445270183, 0.27800745353124534, -0.024062052445302705, -0.16469984284645278, 0.10606095786789962]]}, "layer3": {"weights": [[0.6733830244893295, 0.845241585287499, -1.1281423550383216], [1.3089002290135332, -0.3696343273775237, 1.4928998275255596], [1.4190518187630015, 0.9002694750303235, -0.392769798180456], [0.17414858528223237, -2.9676831731646045, 0.9348344856643469], [-1.425049391441373, 0.3718436523589569, 2.061986738055752], [-1.055460299994321, -1.5573029043310447, -1.223069225097896]], "biases": [[-0.12980124465341786, -0.19297931704141638, -0.19464155227913546]]}}, {"layer1": {"weights": [[0.0390662083458153, 0.29516655904817324, 1.058727358778218, 1.0923791675151187, -1.0995733343404526, -0.3515819416328523], [-0.05264019426234474, 1.0410672010068152, -0.8322753636539089, 1.4917702544703224, -1.7921571586710219, 1.329708718564718], [-1.163631159504617, -0.45666980540336694, -0.2296531347060614, 1.283924046770942, 0.5449407611961199, 0.8064218887143397], [-1.5616127112274873, -0.9530444732913985, 0.8354391505726472, 1.5711378767668989, -1.3248634763667428, -0.2855843641962624], [0.5595395207987999, 1.1630891956243548, 0.8563377258132241, -0.7947440362032128, -1.5688829456178848, 1.6998834788480552]], "biases": [[0.18201672146032152, -0.014984118398775063, -0.2619395228199368, -0.22047430049971936, -0.14018996098160869, -0.08424489693697242]]}, "layer2": {"weights": [[-0.7118108841336669, -0.47979902389013473, 1.110323644304413, 0.8246873007780846, 0.06808153559951013, -0.3056981131058074], [-2.026772292418402, 0.265677625732022, 0.35735385004616765, 0.7021759633037555, -1.9683745326747517, -0.36532498154681375], [1.2146209914043395, 0.33248933993014645, -0.22554205537250313, -0.4479285612954914, 0.16758911851490937, -0.6499964332219828], [0.7149667398656341, -1.9855417195011127, -0.18775391254010468, -0.4520460690022139, 2.188624747338044, -1.089948989461221], [-1.164707822005296, -1.5237961369003195, -0.2645783528288617, 0.2559273078913339, -0.1926701018814956, 1.5375363676619753], [0.015037557506127577, -1.4633759204332735, 2.2232241941205073, 0.3510937591323047, -0.4740346374800043, -1.2467832572911908]], "biases": [[0.12443452742902156, -0.01870594189546166, 0.27800718780513817, -0.02457378626778524, -0.159627705591462, 0.11987681731365854]]}, "layer3": {"weights": [[0.6741490280128958, 0.8642669450607404, -1.1064573264148359], [1.3250875080288425, -0.36963753590948856, 1.5294971694392219], [1.4363274400619683, 0.9002694820580973, -0.3911043167807361], [0.06829152458172863, -3.001590707017259, 1.0127731983857846], [-1.4212740980010667, 0.3717864269663933, 2.0620463916476934], [-1.0544884418656855, -1.541196715678595, -1.2427377964546285]], "biases": [[-0.14041800574256563, -0.1932584387927113, -0.19414753258119488]]}}, {"layer1": {"weights": [[0.03960463075505562, 0.12339831381888108, 1.0587273631718466, 1.0923791549782784, -1.0999809092193815, -0.35160077424684905], [-0.015864111012052883, 1.0408536584387507, -0.8330117596012065, 1.4917706696032278, -1.7932489297830985, 1.5148863177892948], [-1.1591418741999115, -0.4565694032454463, -0.2296754978526928, 1.3439721589852462, 0.5027779408274302, 0.8139992371940588], [-1.558675059909708, -0.9567729031075398, 0.8373700895715086, 1.5665626503537176, -1.306826328163996, -0.28558496545089623], [0.5593824890686248, 1.1522365802138772, 0.7339572211191763, -0.8120132208156403, -1.568096720291598, 1.7005331816559595]], "biases": [[0.18850026265820616, -0.015050733782642012, -0.28724751253565406, -0.28665004480061684, -0.13092831765971788, -0.09901102177388242]]}, "layer2": {"weights": [[-0.7534215724042184, -0.49650270707711835, 1.0959092751633441, 0.8927842031389868, 0.06764259615172785, -0.29347032057825945], [-2.0356565388190173, 0.2640850726587794, 0.34232152229609447, 0.7108283379469869, -1.9683745319779324, -0.4416836984620659], [1.240854200848926, 0.3340668398975099, -0.23516990178205574, -0.4411599287036625, -0.024262097766207025, -0.649979528558516], [0.7149667406690842, -2.0291259990392416, -0.24046701779164728, -0.4460749133774964, 2.188624707307441, -0.9954779135367255], [-1.1725141196500461, -1.53102272567526, -0.2660829707487986, 0.25593081285859975, -0.23667043241703034, 1.6043937520257763], [0.007463827376006515, -1.4980928429081546, 2.223236852864043, 0.3510538310533311, -0.4732986083748199, -1.2296613630908855]], "biases": [[0.1244347479752339, -0.02024959912361183, 0.2780069894462131, -0.02493229012542915, -0.15793699317313176, 0.1034200380014454]]}, "layer3": {"weights": [[0.6743990929164411, 0.8452415420838026, -1.0413492222577894], [1.357665608665861, -0.36965726750277206, 1.5416842557210853], [1.4204479773856706, 0.900269487304182, -0.39277066600149674], [0.17432365006095174, -3.075354865344162, 0.9371212889619294], [-1.425127027468859, 0.37161473665025285, 2.0622309625426043], [-1.0539047249986964, -1.5683155192633442, -1.222591926687449]], "biases": [[-0.12972719188621465, -0.19409580459896436, -0.18939379254172067]]}}, {"layer1": {"weights": [[0.04164232227854425, 0.35228361028018973, 1.058727366156198, 1.0923615375047389, -1.1018647236440218, -0.3516723243287383], [-0.015274964735374843, 1.0400025529379229, -0.8359724663239021, 1.4917745553171486, -1.7968765462275527, 1.5148867005123958], [-1.1605167021001608, -0.4565378265401875, -0.22944806420513586, 1.3442072985207494, 0.5083100863265695, 0.7836791125049305], [-1.5587056983881293, -0.9586611752143546, 0.8450759351414686, 1.6008487109360447, -1.2738317646602173, -0.28558537385027016], [0.5587550624776567, 1.10883048745018, 0.9451193615049898, -0.8780918040050757, -1.5675952760564296, 1.7006858325882095]], "biases": [[0.18849566543534024, -0.015078910714615854, -0.2872475171653556, -0.28673351567778393, -0.1489724898912281, -0.09898969798599067]]}, "layer2": {"weights": [[-0.7559869229240973, -0.5385072229537181, 1.0382523757180362, 0.8995778014721094, 0.0647518629247261, -0.3578613197686039], [-2.03084677821835, 0.26020267998186825, 0.2822519719607639, 0.748308778457635, -1.9683745315046213, -0.4415764677372446], [1.2395095661663589, 0.3353273760252138, -0.27208699530514796, -0.4425703170667491, 0.21947030097127018, -0.650084709952143], [0.7149667412148238, -2.02928902822846, -0.2103486688373037, -0.4460755849536178, 2.1886246801168427, -0.9959287870169152], [-1.1726036422252117, -1.5599452440337547, -0.27126926221681746, 0.2559209476121018, -0.18007289954380531, 1.604462548192478], [0.007463393658120692, -1.6191074537665404, 2.2232878356691144, 0.3508650672029059, -0.4703463801538907, -1.263099304045617]], "biases": [[0.12443489778020835, -0.016764269567694442, 0.27800685471184894, -0.02523875005510639, -0.1511741434998107, 0.10342003784756708]]}, "layer3": {"weights": [[0.6754309701564831, 0.8688893802362541, -1.1281953733249108], [1.3248839654224425, -0.36962422138013484, 1.5905047669846835], [1.4867581453361995, 0.9002694908675603, -0.3861070047605356], [0.17450252206586758, -2.9956416163956656, 0.9374473588450111], [-1.4098705816526615, 0.37184366649740663, 2.0619811279366655], [-1.053128442475404, -1.58213002040291, -1.2221050740151276]], "biases": [[-0.12967306497018855, -0.19297931648904804, -0.19791323322478793]]}}]