[{"layer1": {"weights": [[0.04725560998401625, 0.3803615678372567, 1.0396516012750743, 1.0876843902181201, -0.9109345869491937, -0.3552948167872074], [-0.025271607647887554, 1.0726815343597034, -0.8330794424277057, 1.4963537569571028, -1.7437556842821966, 1.5326218826204057], [-1.1894637969409823, -0.47223547267728694, -0.2473101447153833, 1.3469485132102228, 0.5314756170185908, 0.8210992090826927], [-1.4888854357511123, -1.004995523675155, 0.8698216715742713, 1.544888713344366, -1.2737260560014898, -0.29852891679677396], [0.663735592576524, 0.9631439872564038, 0.8627549606109379, -0.734712547024871, -1.6163291631686523, 1.746225123233346]], "biases": [[0.16271656026207731, 0.013988895439781334, -0.2383367293479882, -0.2381638811922533, -0.14600297019363312, -0.0584053097266476]]}, "layer2": {"weights": [[-0.6724910763329905, -0.5571527852231499, 0.9819286714919231, 0.9997488385012157, 0.22137525513474987, -0.31839412724669586], [-2.032676721924367, 0.10511705512510103, 0.3778007023722534, 0.6697851319653194, -2.057277801027386, -0.7144199073821597], [1.2181723785687821, 0.3738982708909385, -0.2726330173890557, -0.6253769820151132, 0.18749874691755444, -0.7119978540669841], [0.7068940797025434, -2.0925015162219878, -0.2362184599513003, -0.532323931831458, 2.16960385613247, -1.0346303107613108], [-1.1455468242734592, -1.5682238809467415, -0.28584939719560654, 0.2054903308310641, -0.1865129430920029, 1.636249041054856], [0.040650327518000864, -1.5355557457086162, 2.2141564676234684, 0.3545695506378757, -0.41230153157128596, -1.1539525207473516]], "biases": [[0.2009404152160692, -0.009004397479673154, 0.27800632554533955, -0.02618394614433174, -0.13845010705021335, 0.13647980584297256]]}, "layer3": {"weights": [[0.4959931925983619, 0.8155676977355844, -1.1067229678425328], [1.5044503834638083, -0.3504032568004809, 1.5457589824663467], [1.3971647856644447, 0.9227659786830803, -0.3501247703596296], [0.09901894445198256, -2.94934351077797, 0.8815858970231911], [-1.4804092565716858, 0.38893517053287824, 2.0387618815570345], [-1.087546960739918, -1.5076026452935865, -1.2436597852967126]], "biases": [[-0.1529470296853407, -0.16849957473949417, -0.21111866462019718]]}}, {"layer1": {"weights": [[0.047409792356759475, 0.38082073065477984, 1.0256400269887243, 1.089321864099486, -0.9142090671816109, -0.35558049771957895], [-0.025810241541297782, 1.0675836416715117, -0.8333613064348774, 1.4789659724308004, -1.7415618295284352, 1.5079253454964654], [-1.1811493940829227, -0.47235914290484277, -0.2552450793468168, 1.3473824680698345, 0.5284489281137668, 0.8573118393626432], [-1.5094645119371835, -1.0352814173744949, 0.8877158450147404, 1.5433432966432061, -1.2739342256184925, -0.29866911110503425], [0.6639551235333664, 0.9353382793712146, 0.8563584399924327, -0.7383741584535841, -1.5966803992104586, 1.729609187774349]], "biases": [[0.16269035404304782, 0.015787647648342305, -0.2382353890328344, -0.24116873470376382, -0.1465877192286227, -0.05840570645848785]]}, "layer2": {"weights": [[-0.6988743952981604, -0.573797725222188, 0.978697615166404, 0.980267708003624, 0.22354715335913167, -0.3235335275000441], [-2.0116899642698796, 0.14221577162783694, 0.3817501814763238, 0.6729950011837733, -2.0270692349154196, -0.7219632718290565], [1.2180076222195848, 0.36585500207385857, -0.22916462674231153, -0.6164837529212175, 0.2064322887360659, -0.7156722912317232], [0.7068938883935778, -2.0962030421953712, -0.2722356524828289, -0.5221219160463287, 2.1784903039713432, -1.0346457522137518], [-1.1654924356412997, -1.4866983309517385, -0.2528161922975489, 0.2663096332382062, -0.18272126587622953, 1.6743197718870224], [0.04149314132237114, -1.5694265141114947, 2.224944298296614, 0.3576537327661685, -0.4194216637004297, -1.1537127467367783]], "biases": [[0.1733898798126619, -0.009000886441902793, 0.2907070541523878, -0.08887967446299438, -0.13847357094598672, 0.13632733902183972]]}, "layer3": {"weights": [[0.49990090153179534, 0.8155752949172241, -1.1041647281217015], [1.250978113472456, -0.3495711618655605, 1.545202649681509], [1.3891882573536067, 0.9248411157224261, -0.3491374282069249], [0.10270211711836312, -2.904764585334071, 0.8869091389260334], [-1.4796837616928447, 0.3889344437364103, 2.038753381921107], [-1.1166426278861794, -1.4319577652213507, -1.1989934535397708]], "biases": [[-0.1389050976403694, -0.16849956639160485, -0.28126589228728377]]}}, {"layer1": {"weights": [[0.04784861910995174, 0.3829077734113455, 0.9901169578243058, 1.0944004517256065, -0.9235287416892599, -0.3558561132984299], [-0.027343276468696116, 1.0594937644305458, -0.8723573558365234, 1.486856396400384, -1.715127593851665, 1.5388013456058895], [-1.1589301629622375, -0.46666502404787924, -0.24256167843394866, 1.3486175703625758, 0.525425149568137, 0.8196542270450506], [-1.5794425899272424, -1.046539005520728, 0.8773406692120995, 1.5406295153423728, -1.2918838420629006, -0.29906812567469826], [0.664579942410533, 1.016991874348292, 0.8608729076532583, -0.7465862491644403, -1.603995976258061, 1.7313723160973304]], "biases": [[0.16261576711196388, 0.018022693931026963, -0.23794695890508893, -0.23809883194561796, -0.14825200494359303, -0.06836600440034707]]}, "layer2": {"weights": [[-0.6791040014143959, -0.5810113631354665, 0.9717762610499594, 0.9143660212324538, 0.22523502920729493, -0.3323034744965513], [-2.070120771734592, 0.1455243810718363, 0.3917087452935245, 0.7068619451393834, -2.014629476710783, -0.727711090598567], [1.2178410244626519, 0.3771030456775578, -0.22401326342035718, -0.5823868981077329, 0.18714743484676666, -0.7267141836304432], [0.7068933438988295, -2.073526198757202, -0.23860078638047247, -0.5037111183478195, 2.177809839545662, -1.034689700963007], [-1.1716705920225545, -1.4883642177434353, -0.2914292689508096, 0.19951892983876035, -0.17370896694574797, 1.6704475808990558], [0.036151462748114205, -1.5571333476371798, 2.246518104348561, 0.3672496834760662, -0.4345611352201064, -1.1530303130143775]], "biases": [[0.15606489400788334, -0.008990893488248688, 0.2962399680777671, -0.029162176757856907, -0.13967942105479833, 0.1358933949924616]]}, "layer3": {"weights": [[0.5454139576672122, 0.8155969176649682, -1.1080137812637474], [1.2487779753104982, -0.3178622384801306, 1.5457182503610518], [1.3800008334178004, 0.9357172438266096, -0.3469433389831803], [0.11005859334883705, -2.9077134081853235, 0.9033180437686128], [-1.4776188916530664, 0.38893237516184775, 2.0387423057366654], [-1.1277855247310804, -1.4375336606397575, -1.2043023530099073]], "biases": [[-0.1249359850790959, -0.16849954263222763, -0.21112264584046525]]}}, {"layer1": {"weights": [[0.0474335127217969, 0.3809563873163667, 1.024767399224296, 1.0896086235782154, -0.9147128333712136, -0.3555796589401189], [-0.02589310829413012, 1.06758381049185, -0.8336085360962142, 1.505784461228376, -1.739563740389575, 1.5147875332967549], [-1.1801749751056763, -0.4703628013101054, -0.25281833128905074, 1.3474492303559287, 0.5284491706436997, 0.8206177772837664], [-1.513581095420849, -0.9824311897842225, 0.887134941788056, 1.5433432972726946, -1.279751962942857, -0.29869067946015126], [0.6639888975267267, 0.9778473620983532, 0.8736172502850318, -0.7387533650604294, -1.6101249458130646, 1.7297132767120478]], "biases": [[0.16268632231704327, 0.01582400548785261, -0.2382197982151184, -0.2382186128772153, -0.1466776806186211, -0.058405767494155575]]}, "layer2": {"weights": [[-0.6744749538574122, -0.5650580103852605, 0.9783900903504934, 0.9718762052092093, 0.22350681816111345, -0.32383607306197404], [-2.04517107834615, 0.14239702427330023, 0.3822509385357513, 0.6767555948046031, -2.078072496065573, -0.7218119824069178], [1.2180074687689402, 0.37518649401408544, -0.31280001358029724, -0.6110006840144422, 0.1877509099040171, -0.7162862458345549], [0.7068938589614293, -2.0964507626052633, -0.23696841580471129, -0.5224046059825331, 2.16020246224173, -1.0346481278218196], [-1.1657353282394118, -1.4867059695173037, -0.28748470130174064, 0.235212088204826, -0.1822862140666705, 1.6728755051472182], [0.034465809339991264, -1.5426765933504167, 2.2249439609703696, 0.35819638014796895, -0.4195851559297732, -1.1536758584274593]], "biases": [[0.21809580857260186, -0.009000346282245815, 0.2910232328758224, -0.027174392059153372, -0.13895403998102301, 0.13630388258781928]]}, "layer3": {"weights": [[0.5033680137986273, 0.8155764637143995, -1.1036566747119758], [1.2455891590425925, -0.3844654665619387, 1.5452919774702074], [1.3891943367496804, 0.9260043921151053, -0.3490368659510049], [0.10270032273612908, -2.924477465206397, 0.8878329441710116], [-1.4795721470960999, 0.3889343319215691, 2.0387531672087307], [-1.099279445560677, -1.4365145888136865, -1.2002557450500275]], "biases": [[-0.13891116593067754, -0.1684995651073142, -0.2111198589862776]]}}, {"layer1": {"weights": [[0.047801178379876894, 0.38263646008817176, 0.9918622133531623, 1.0938269327681474, -0.9225212093100545, -0.35585779085735003], [-0.02717754296303143, 1.059493426789869, -0.8718628965138496, 1.433219418805233, -1.7191237721293855, 1.5250769700053104], [-1.1608790009167307, -0.470657707237354, -0.24741517454948078, 1.3484840457903875, 0.5254246645082713, 0.8930423512028043], [-1.5712094229599112, -1.0452526040873316, 0.8785024756654685, 1.5406295140833959, -1.2802483674141711, -0.2990249889644643], [0.6645123944238123, 0.9319737088940145, 0.8608413024119976, -0.7458278359507498, -1.5771068830528483, 1.7311641382219332]], "biases": [[0.16262383056397295, 0.017949978252006348, -0.23797814054052088, -0.24399907559871498, -0.14807208216359624, -0.06836588232901161]]}, "layer2": {"weights": [[-0.7279028842958926, -0.5984907928093215, 0.9723913106817803, 0.9311490268212831, 0.22531569960333137, -0.3316983833726915], [-2.003158543582051, 0.14516187578090972, 0.39070723117466943, 0.6993407578977238, -2.0159743154356087, -0.7280136694428445], [1.2178413313639411, 0.3584400617971042, -0.2246220749150012, -0.5933530359212834, 0.22451019251086424, -0.7254862744247796], [0.7068934027631266, -2.073030757937418, -0.3091352597367077, -0.5031457384754108, 2.1778834032673573, -1.0346849497468713], [-1.1711848068263304, -1.4883489406123052, -0.29061724065024674, 0.22168939236129026, -0.174579070564866, 1.6733361143786643], [0.03615145128172203, -1.6106331891593357, 2.2465187790010495, 0.36616438871246537, -0.43423415076141947, -1.1531040896330156]], "biases": [[0.1629946079692291, -0.008991973807562646, 0.2956076106308979, -0.014425036650482954, -0.13871848298472572, 0.13594030786050249]]}, "layer3": {"weights": [[0.5384797331335482, 0.8155945800706175, -1.109029888083199], [1.2595558841702252, -0.24807362908737413, 1.545539594783655], [1.3799886746256536, 0.9333906910412513, -0.34714446349502026], [0.11006218211330512, -2.8682876484406723, 0.9014704332786566], [-1.4778421208465558, 0.3889325987915302, 2.0387427351614176], [-1.1625118893820854, -1.428420013455086, -1.201777769989394]], "biases": [[-0.1249238484984796, -0.16849954520080895, -0.1979509991674017]]}}]