[{"layer1": {"weights": [[0.04481241238516202, 0.43316059797488726, 1.047041345678417, 1.0919699481005354, -0.8590466694201209, -0.3559634770693157], [-0.01673633210615627, 1.0594721554272333, -0.8629820491111351, 1.4871189196169095, -1.7178094924436538, 1.5604998196509463], [-1.342862432910157, -0.46422967187447134, -0.24200109845163897, 1.3400719977425286, 0.5253941057367333, 0.8196893830572398], [-1.5797703750798413, -1.0668693318127571, 0.8797642570371066, 1.5647605476830717, -1.2877845019126957, -0.2963073762197257], [0.6602568712604074, 1.0136901231243196, 0.8574157282062267, -0.7587293446741721, -1.6577541805962803, 1.7426272357394117]], "biases": [[0.1631318280405447, 0.013368890473707623, -0.23994258357273318, -0.2234727713914091, -0.13673694702379835, -0.06835819183487762]]}, "layer2": {"weights": [[-0.6452458249976004, -0.5772113979251482, 1.0111394374864955, 0.9398857230901534, 0.2303979345536255, -0.30063783266520744], [-2.0709183742232713, 0.12945436198398008, 0.29914912749674494, 0.7068009500903949, -2.1006991550996217, -0.525497224296564], [1.2178606661451643, 0.3354867101687524, -0.2220049961120092, -0.6338280687745255, 0.18542592705843924, -0.6378285556428797], [0.7068971112138444, -2.0963765342966996, -0.21884397601615452, -0.4615921705200278, 2.1813442678337953, -1.034385623130322], [-1.1405803394641985, -1.4873864813511082, -0.20891574859160272, 0.19966503057484686, -0.22939559856930195, 1.6942846418871933], [0.0361507288990149, -1.5422475398497197, 2.2465612821078276, 0.3434852508431008, -0.4136341298641395, -1.1577520166072046]], "biases": [[0.15607153959166173, -0.009060033924341956, 0.30639188478380347, -0.028809261861970754, -0.14493280412875253, 0.13889581854707767]]}, "layer3": {"weights": [[0.5047267060217286, 0.8154473116265224, -1.1095474492916575], [1.2254540620366736, -0.3118710844966919, 1.5342842934076617], [1.379222670720406, 0.8343138275838766, -0.37148952265634094], [0.11028827427479351, -2.9158410834360344, 0.8941097227338752], [-1.4874465165086226, 0.38894668746152394, 2.0392244452717208], [-1.0215905175643627, -1.5280955727375127, -1.1275665736554763]], "biases": [[-0.12415924391965241, -0.16849970702143224, -0.21110226199269277]]}}, {"layer1": {"weights": [[0.04633051574755688, 0.36070237162045243, 1.0459651347477177, 1.0707603649227717, -0.8912877055546904, -0.3559097951838728], [-0.022039804287426194, 1.0594829599288895, -0.8565346575109626, 1.4869876580086467, -1.7180037111297848, 1.549650582628418], [-1.245747032268894, -0.46544734796117526, -0.24657643354095285, 1.3443447840525522, 0.5254096276524352, 0.8196718050511452], [-1.5796064825035419, -0.9848421560461638, 0.938894162859686, 1.5647605879703326, -1.2898341719877982, -0.297687750947212], [0.6624184068354702, 1.0153409987363058, 0.8584270959265665, -0.7101807180891598, -1.658235766520016, 1.7209344995458118]], "biases": [[0.1628737975762543, 0.015695792202367293, -0.23894477123891106, -0.22346264367070667, -0.1424944759836957, -0.06836209811761235]]}, "layer2": {"weights": [[-0.6621749132059982, -0.5791113805303074, 0.9914578492682274, 0.9615128782639543, 0.22781648188046022, -0.3058803684373519], [-2.070186185864012, 0.13249814785589656, 0.2992195558029144, 0.7068314476148891, -2.0576643159052024, -0.5479290364696007], [1.217850845303908, 0.3353496173261373, -0.2230091297661832, -0.5770591703665954, 0.18628668095260295, -0.689480976814231], [0.7068952275563369, -2.049449694017625, -0.23013269818468596, -0.626786326341249, 2.181337528540272, -1.0345376620466644], [-1.1561254657433766, -1.4878753495472719, -0.25233035227640777, 0.1995919802068036, -0.20155228275752496, 1.8091310844986985], [0.03615109582356455, -1.60791233729203, 2.2465396932281942, 0.3435331280398035, -0.42409763254212296, -1.155391164810791]], "biases": [[0.15606821679977254, -0.009025463706295322, 0.26587997111682166, -0.02898571930991383, -0.1455953404716541, 0.13739460676976964]]}, "layer3": {"weights": [[0.5046050325866144, 0.8155221146457453, -1.1087806152777024], [1.237116018673586, -0.31486666148841125, 1.5400012718843568], [1.3796117520691031, 0.8557343274917562, -0.384417107067419], [0.11017343381181528, -2.9870254746698746, 0.822386758025523], [-1.489221269372507, 0.38893953131168585, 2.0392107036796485], [-1.0204345208933552, -1.528052937176934, -1.1716026854662043]], "biases": [[-0.12454761449937415, -0.16849962482682995, -0.211112453916579]]}}, {"layer1": {"weights": [[0.04557146406635945, 0.42397823569633497, 1.0465032402130672, 1.0919401168399396, -0.8751671874874056, -0.3559366361265942], [-0.01938806819679123, 1.0976148324783959, -0.8597583533110489, 1.487053288812778, -1.7170293629397906, 1.5550752011396822], [-1.2737076699203116, -0.4648385099178233, -0.2418344545116336, 1.296181347217974, 0.5254018666945842, 0.8196805940541925], [-1.5796884287916915, -1.0669197511412198, 0.8605778356688376, 1.5647605678267023, -1.288809336950247, -0.29699756358346885], [0.6613376390479389, 1.0145155609303127, 0.8607903000791005, -0.7587276478560353, -1.6579949735581483, 1.7393331167202266]], "biases": [[0.1630028128083995, 0.014532341338037458, -0.24600613424254678, -0.22346770753105788, -0.153656059764084, -0.06836014497624499]]}, "layer2": {"weights": [[-0.6537103691017994, -0.5781613892277278, 1.0012986433773614, 0.9552774233148422, 0.22910720821704286, -0.31737948074264966], [-2.0718858285033206, 0.15009422573982523, 0.42006581702432605, 0.706816198852642, -2.1584879841314244, -0.5254650870565927], [1.2178557557245362, 0.3354181637474448, -0.2225070629390962, -0.6231855127560083, 0.1858563040055211, -0.6617623967681532], [0.7068961693850906, -2.0893579111701346, -0.23012960504591012, -0.46182657305502395, 2.178993598386309, -1.0344616425884932], [-1.1483529026037875, -1.48763091544919, -0.25685107254678197, 0.19962850539082522, -0.21547394066341347, 1.6592069986885987], [0.03615091236128973, -1.4756133666268352, 2.246550487668011, 0.34350918944145215, -0.41886588120313123, -1.193783183131495]], "biases": [[0.15606987819571713, -0.009042748815318639, 0.3063850452725775, -0.028897490585942293, -0.14526407230020333, 0.13814521265842367]]}, "layer3": {"weights": [[0.5319529349813129, 0.8154847131361338, -1.10916403228468], [1.2312850403551296, -0.31336887299255156, 1.5371427826460091], [1.3794172113947547, 0.856090531944589, -0.31353213391517015], [0.1102308540433044, -2.9154154024253853, 0.9018637405086826], [-1.4378178375641177, 0.3889431093866049, 2.0383082617738633], [-1.0210125192288588, -1.5280742549572235, -1.1722575180948904]], "biases": [[-0.12435342920951328, -0.1684996659241311, -0.2111073579546359]]}}, {"layer1": {"weights": [[0.04633051574755688, 0.4147958734177827, 1.0459651347477177, 1.091910285579344, -0.8912877055546904, -0.3559097951838728], [-0.022039804287426194, 1.0594829599288895, -0.8565346575109626, 1.4869876580086467, -1.7162492334359274, 1.549650582628418], [-1.2045529069304663, -0.46544734796117526, -0.24166781057162826, 1.3443447840525522, 0.5254096276524352, 0.8196718050511452], [-1.5796064825035419, -1.0669701704696823, 0.8413914143005687, 1.5647605879703326, -1.2898341719877982, -0.297687750947212], [0.6624184068354702, 1.0153409987363058, 0.8641648719519743, -0.7587259510378985, -1.658235766520016, 1.7360389977010418]], "biases": [[0.1628737975762543, 0.015695792202367293, -0.23894477123891106, -0.22346264367070667, -0.1424944759836957, -0.06836209811761235]]}, "layer2": {"weights": [[-0.6621749132059982, -0.5791113805303074, 0.9914578492682274, 0.9222134427180678, 0.22781648188046022, -0.3341211288200918], [-2.07285328278337, 0.1382024034810527, 0.5409825065519072, 0.7068314476148891, -2.0576643159052024, -0.5254329498166213], [1.217850845303908, 0.3353496173261373, -0.2230091297661832, -0.6125429567374912, 0.18628668095260295, -0.6812414257541515], [0.7068952275563369, -2.0823392880435696, -0.24141523407566576, -0.46206097559002, 2.176642928938823, -1.0345376620466644], [-1.1561254657433766, -1.4878753495472719, -0.30478639650196127, 0.1995919802068036, -0.20155228275752496, 1.624129355490004], [0.03615109582356455, -1.4089791934039506, 2.2465396932281942, 0.3435331280398035, -0.42409763254212296, -1.155391164810791]], "biases": [[0.15606821679977254, -0.009025463706295322, 0.3063782057613515, -0.02898571930991383, -0.1455953404716541, 0.13739460676976964]]}, "layer3": {"weights": [[0.5591791639408972, 0.8155221146457453, -1.1087806152777024], [1.237116018673586, -0.31486666148841125, 1.5400012718843568], [1.3796117520691031, 0.8778672363053013, -0.37150806120744717], [0.11017343381181528, -2.9149897214147362, 0.9096177582834899], [-1.471385095261407, 0.38893953131168585, 2.0373920782760058], [-1.0204345208933552, -1.528052937176934, -1.2169484625343046]], "biases": [[-0.12454761449937415, -0.16849962482682995, -0.211112453916579]]}}, {"layer1": {"weights": [[0.04936672247234659, 0.3780664243035735, 1.0438127128863193, 1.0917909605369613, -0.9557697778238294, -0.355802431412987], [-0.03264674864996604, 1.0595045689322018, -0.8436398743106175, 1.4867251347921213, -1.7131287154204742, 1.527952108583361], [-1.0927103563247949, -0.46788270013458316, -0.2410012348116068, 1.3528903566725994, 0.5254406714838389, 0.8196366490389562], [-1.5792786973509432, -1.0671718477835328, 0.8645385498440715, 1.5647606685448543, -1.2939335121380031, -0.3004485004021845], [0.6667414779855957, 1.0186427499602781, 0.8604498313672462, -0.7587191637653514, -1.6591989383674872, 1.7342578835712343]], "biases": [[0.16235773664767345, 0.020349595659686633, -0.2369491465712668, -0.22344238822930185, -0.15400953390349034, -0.06836991068308178]]}, "layer2": {"weights": [[-0.6960330896227936, -0.5829113457406258, 0.9520946728316912, 0.8868688819738967, 0.22265357653412962, -0.3446062003643808], [-2.068721809145493, 0.15569848647519796, 0.36331645940963814, 0.7068924426638775, -1.971594637516364, -0.5253044008567357], [1.2178312036213956, 0.33507543164090703, -0.22501739707453117, -0.5699727326634225, 0.18800818874093034, -0.768067165976695], [0.7068914602413221, -2.081157906483807, -0.24142760663076906, -0.46299858573000446, 2.1766294503517765, -1.0348417398793497], [-1.1872157183017324, -1.4888530859395988, -0.3043001635124347, 0.19944587947071712, -0.14586565113397099, 1.6242649418037605], [0.03615182967266385, -1.6058209299263693, 2.246496515468927, 0.343628882433209, -0.4450246378980899, -1.150669461217964]], "biases": [[0.15606157121599415, -0.008956323270202052, 0.30635084771644755, -0.029338634205799984, -0.14692041315745724, 0.13439218321515356]]}, "layer3": {"weights": [[0.5589358170706686, 0.8156717206841912, -1.1072469472497923], [1.2604399319474107, -0.32085781547184994, 1.5514352288377466], [1.3803899147664975, 0.8764424184939701, -0.3715451383096596], [0.10994375288585882, -2.9132869973721403, 0.9406338293827193], [-1.4749346009891757, 0.3889252190120096, 2.039183220495504], [-1.0181225275513404, -1.5279676660557766, -1.21432913201956]], "biases": [[-0.12532435565881764, -0.16849946043762531, -0.21113283776435152]]}}]