[{"layer1": {"weights": [[-1.2467896359487363, -1.2996103030184092, -1.5789483981837993, -1.2724565533533259, 1.1571433699654228, 1.1734361112884075], [-0.4418206869310227, -0.8320359865753191, -0.9497137408876893, 0.27766756772309253, 0.1741915366634278, -1.0286524291474597], [0.8206174028878068, -1.0735641156186402, -0.7365703444665785, 0.10348184290041827, 1.289477248828335, 0.018179305001864744], [-0.1252438860237219, 0.21855716382421803, 0.7320640906261696, 0.6016577425160635, -0.3658806094235449, 0.69790662406972], [-0.0005959722237970887, -0.39133504517997486, 0.9335016159071557, -0.4315703024302918, 1.0364273017594348, 0.11951717180096365]], "biases": [[0.14185267235098792, -0.2504298071297488, -0.07513739748188744, 0.08593944700048864, -0.053344494196664996, -0.02504666470869789]]}, "layer2": {"weights": [[1.053879645595829, -1.0377319197062778, -0.35464627033865637, -0.9637690883283887, -0.5883335557783083, 0.9524065009194572], [-0.08550638586783726, -1.027413628829895, -0.289820665364081, 0.28217681755188584, -0.20429240741514343, 0.7629766058151666], [0.3978914803828698, 0.007358216567938727, -0.283924983125589, -0.30004293932250564, -0.25123731203816185, 0.5514158954225281], [-0.015180547230770041, -0.010401975114796281, 0.022538982692827135, 0.32737045027634964, 1.7228309832816386, -0.20099437879142223], [1.0743227389329404, 1.0289867770736856, 1.015116002878938, -0.41100628774425396, 0.261250420097641, 0.9511353913191902], [0.3052358365548652, 1.07241683375434, -0.8902520598621138, -0.9405248443006577, -0.33107407252349597, 0.9871126743519334]], "biases": [[0.0278335393858041, -0.021900110328657116, -0.1529814503791928, 0.010358514657256724, 0.07907930729201118, 0.02985430915879282]]}, "layer3": {"weights": [[0.6923652523983975, 0.1373397499561575, 0.3676448805381202], [0.030592141835140682, 0.16357962890004796, 1.652419499984222], [0.5494332144767673, -0.27499097926973126, -0.5643409149601939], [-1.6694994738232807, 0.5592177834648299, -0.3668795062391845], [-0.6247346773904076, 0.2666055443640093, 0.7563485472257798], [-0.7469624899903626, -0.31982017594562645, -0.31916824212355005]], "biases": [[-0.08154645813710992, -0.13606284524171047, -0.08021011117524614]]}}, {"layer1": {"weights": [[-1.23473822073003, -1.309665784774319, -1.655920769685088, -1.2673758262220696, 1.1527563767756346, 1.2084815509372318], [-0.4325609356182969, -0.8413294167251089, -0.9255183514323593, 0.43759860050953625, 0.15374209489689722, -1.0325754723843774], [0.771342006345817, -1.06367498730827, -0.750182646215565, 0.10357292292844597, 1.3898407082426052, 0.019081829417929956], [-0.11569548426828878, 0.21807105083035547, 0.6924704980049949, 0.6179066682355275, -0.3639409510502385, 0.6904824081743316], [0.028031442262639067, -0.3914892057148117, 0.9533172046642514, -0.42838111499821313, 1.0441807089419142, 0.14212735249814173]], "biases": [[0.16645667720965396, -0.26071179773077546, -0.08621332397939269, 0.0828620697793808, -0.011513913830667412, -0.03888280337349777]]}, "layer2": {"weights": [[1.0538798297993823, -1.0646120176061893, -0.35952298413125355, -0.917650455101549, -0.6587321887780516, 0.9508677927674561], [-0.054896204351436745, -0.8743011255279448, -0.3024143595331046, 0.30812802238382886, -0.15830161966620154, 0.7996876200201919], [0.38851484866685365, 0.006934023810196897, -0.15218487684505339, -0.22632209977585874, -0.202965984174252, 0.5210610741066416], [-0.01406716557843615, -0.024324335649500928, -0.09673846440991846, 0.4053059357267003, 1.7379993386046728, -0.20554038851760698], [1.0735535503435483, 1.0257809973630923, 0.9556500110785107, -0.417494779538351, 0.26209918308067226, 0.8679808437912799], [0.23262453480052478, 1.0790772453451882, -0.8302353382655876, -1.0293864683619849, -0.3369102556748539, 0.9536999599762899]], "biases": [[0.022919175852217276, 0.04802473947235997, -0.15305581103276783, -0.014323054199369818, 0.07899809048557016, 0.017417848807386258]]}, "layer3": {"weights": [[0.7121743251233732, 0.09115699118343148, 0.42076075600413865], [0.03377594624465659, 0.07681845588566266, 1.5954153508729672], [0.5607634236620164, -0.16994847971391647, -0.7905254113526705], [-1.5528238384221817, 0.57983452031334, -0.36897730228505254], [-0.4587956417995671, 0.28379282470894596, 0.7563702405150047], [-0.7442932962970629, -0.3431084518063142, -0.2770622909748322]], "biases": [[-0.08155553324163761, -0.18644336463786526, -0.07787650251715907]]}}, {"layer1": {"weights": [[-1.037255308781376, -1.3898588175393916, -1.6602723865022684, -1.2577825892389711, 1.046554818234648, 1.2079709115841508], [-0.4298291934159475, -0.8476797311608859, -0.9512072279357566, 0.45101599764851813, 0.14193539196048605, -1.0373315686537399], [0.8675387915396369, -1.061468443437717, -0.7564418805103463, 0.10366223846972324, 1.521865968740142, 0.007662211636486291], [-0.19546551233252876, 0.24291237467670423, 0.6924644162474717, 0.6131081292475897, -0.3673885121663133, 0.7011098154033015], [0.027327153698851726, -0.3821919961193476, 0.9866584551739954, -0.42845330381518887, 1.0365162417908667, 0.14526831710970584]], "biases": [[0.16678453842222551, -0.2607122983390902, -0.0928064926199321, 0.08139758498123209, -0.011441436341328135, -0.11710668195084997]]}, "layer2": {"weights": [[1.0538862708793326, -1.077980735178973, -0.3589766982571496, -0.913733087914973, -0.5876631091268212, 0.9470609852552792], [-0.0554761819580945, -1.0213672132120535, -0.31339761001954447, 0.3081143457653392, -0.1573118166016434, 0.9874034848893753], [0.38878657039375725, 0.12470727321570863, -0.28397283440946486, -0.22799755167261965, -0.20297813168267967, 0.5055279859695861], [-0.0625048531281798, -0.04405429413959076, -0.09879663987024453, 0.44295660831229305, 1.7345991187065026, -0.2055810156733618], [1.010144615958211, 1.0257833721513958, 0.9549276179380378, -0.4176230284964141, 0.2466064676808911, 0.8730091902340642], [0.2425812528567709, 1.071119292416673, -0.8015158286739436, -0.9501522928633057, -0.3391012522610829, 1.0203779667076487]], "biases": [[0.034000750662105284, 0.014420110523807638, -0.1529814405802381, -0.014964163395935716, 0.08112029748227122, 0.011199701071786099]]}, "layer3": {"weights": [[0.7122206446518137, 0.13326044965482395, 0.42084259196376894], [0.033763676039383184, 0.07509595086876002, 1.5560847746850675], [0.5522971728438586, -0.21197155435034337, -0.7885585381890229], [-1.555911963240313, 0.5324605286972137, -0.3688852213270073], [-0.5857154135011757, 0.28632320835569713, 0.7521989168221113], [-0.7417659549380677, -0.352663064138256, -0.3257696252936734]], "biases": [[-0.08153868547110399, -0.15333478638068176, -0.08227228694199837]]}}, {"layer1": {"weights": [[-1.23473822073003, -1.309665784774319, -1.6502060093823443, -1.2673758262220696, 1.1527563767756346, 1.2084815509372318], [-0.4325609356182969, -0.8413294167251089, -0.9496890638209105, 0.43759860050953625, 0.15374209489689722, -1.0325754723843774], [0.8121505935185415, -1.06367498730827, -0.750182646215565, 0.10357292292844597, 1.2995634005524894, 0.019081829417929956], [-0.11569548426828878, 0.21807105083035547, 0.6924704980049949, 0.6179066682355275, -0.3639409510502385, 0.6904824081743316], [0.028031442262639067, -0.3914892057148117, 0.9533172046642514, -0.42838111499821313, 0.985358094277241, 0.14212735249814173]], "biases": [[0.16645667720965396, -0.26071179773077546, -0.08621332397939269, 0.0828620697793808, -0.05334443264265339, -0.03888280337349777]]}, "layer2": {"weights": [[1.0538798297993823, -1.0646120176061893, -0.35952298413125355, -0.9567843261538921, -0.5879811269105609, 0.9508677927674561], [-0.054896204351436745, -1.1388735065300275, -0.39479674213312327, 0.30812802238382886, -0.1999244818961241, 0.7753430354207433], [0.38851484866685365, 0.006934023810196897, -0.2837345242510336, -0.30083023933941205, -0.202965984174252, 0.5210610741066416], [-0.01406716557843615, -0.030903054707825582, -0.04575342043592364, 0.4431019665219639, 1.7379993386046728, -0.20554038851760698], [1.0735535503435483, 1.0257809973630923, 0.890576741163471, -0.417494779538351, 0.26209918308067226, 0.9510768289703935], [0.23262453480052478, 1.0790772453451882, -0.8302353382655876, -0.9421871925184153, -0.3369102556748539, 1.0116360907900614]], "biases": [[0.022919175852217276, -0.03802725931539635, -0.1919656520407752, -0.014323054199369818, 0.07899809048557016, 0.017417848807386258]]}, "layer3": {"weights": [[0.7121743251233732, 0.13331471640784326, 0.36974318907991927], [0.03377594624465659, 0.07681845588566266, 1.4824339548630452], [0.539429391742311, -0.21197935596818535, -0.9757428705702756], [-1.5528238384221817, 0.57983452031334, -0.36897730228505254], [-0.6152979128358991, 0.28379282470894596, 0.7123398700496537], [-0.7442932962970629, -0.3191146561524972, -0.318987323549038]], "biases": [[-0.10051864600886079, -0.13593731149915805, -0.07787650251715907]]}}, {"layer1": {"weights": [[-1.2288273508493994, -1.3898588175393916, -1.6602723865022684, -1.2577825892389711, 1.046554818234648, 1.2079709115841508], [-0.4298291934159475, -0.7151951081468715, -0.9512072279357566, 0.45101599764851813, 0.14193539196048605, -1.0566100678892296], [0.8675387915396369, -1.061468443437717, -0.7564418805103463, 0.10366223846972324, 1.4002765118947709, 0.007662211636486291], [-0.1774608215722207, 0.24291237467670423, 0.6924644162474717, 0.6131081292475897, -0.3673885121663133, 0.7011098154033015], [0.027327153698851726, -0.3821919961193476, 0.9562835199145399, -0.42845330381518887, 1.0365162417908667, 0.14526831710970584]], "biases": [[0.16678453842222551, -0.2607122983390902, -0.0928064926199321, 0.08139758498123209, 0.04159349423221337, -0.0388800435099063]]}, "layer2": {"weights": [[1.0538862708793326, -1.077980735178973, -0.3589766982571496, -0.913733087914973, -0.8054167999172487, 0.9470609852552792], [-0.0554761819580945, -1.0213672132120535, -0.31339761001954447, 0.3081143457653392, -0.1578829605594421, 0.8341553548148576], [0.3581182261411022, -0.022772477357245587, -0.28397283440946486, -0.22799755167261965, -0.20297813168267967, 0.5055279859695861], [-0.0625048531281798, -0.04405429413959076, -0.09879663987024453, 0.44295660831229305, 1.7345991187065026, -0.2055810156733618], [1.076901038113888, 1.0257833721513958, 0.9549276179380378, -0.6112280311671004, 0.2466064676808911, 0.8730091902340642], [0.2425812528567709, 1.071119292416673, -0.8015158286739436, -0.9501522928633057, -0.3614992104511064, 1.0203779667076487]], "biases": [[0.024533108433030457, 0.014420110523807638, -0.1529814405802381, -0.014964163395935716, 0.08112029748227122, 0.011199701071786099]]}, "layer3": {"weights": [[0.7122206446518137, 0.13326044965482395, 0.42084259196376894], [0.033763676039383184, 0.07509595086876002, 1.5560847746850675], [0.5522971728438586, -0.21197155435034337, -0.7885585381890229], [-1.555911963240313, 0.5324605286972137, -0.3688852213270073], [-0.5857154135011757, 0.28632320835569713, 0.7521989168221113], [-0.7417659549380677, -0.352663064138256, -0.3257696252936734]], "biases": [[-0.08153868547110399, -0.15333478638068176, -0.08227228694199837]]}}]