[{"layer1": {"weights": [[-1.547894242392037, -1.4121291281074178, -1.1453930131941115, -1.49093082470011, 1.2324265739496036, 1.1143906262068368], [-0.12986005579179974, -0.7214881072384131, -1.0412867739089013, 0.48062535833202735, 0.31221288056919017, -0.6653996661013287], [0.8714191241821547, -0.5358846002145188, -0.6442015241451624, 0.134242924684598, 1.6243323563089187, -0.007960979609307528], [-0.9663741691110093, 0.20562263083241114, 0.5229007991768035, 0.6021983676791111, -0.7313546587028223, 1.0089231630536375], [-0.34374098053213764, -0.23210800600458287, 1.7817847288487454, -0.49014606088166474, 0.7930759698581122, 0.09454409113484857]], "biases": [[0.20211602353638136, -0.04025561568366914, -0.1982138539838384, 0.005002241519997577, 0.07896343377891071, -0.0025492901158677013]]}, "layer2": {"weights": [[1.3972048678503353, -1.0082228020385056, -0.713266223354465, -0.8534602145650346, -0.41721736151068267, 1.292101162374498], [-0.07260800955688146, -0.637425200068104, -0.30868577757814014, 0.5610260523864332, 0.12045571485823797, 0.7347367875137363], [0.22952608374560476, -0.2696464930777851, 0.0326522941173014, -0.15553145090835097, -0.4374107247684872, 0.4610027584671672], [-0.18903584184199884, -0.2779510524300471, 0.08398179304100886, 0.5592292267966805, 1.6078984982547642, -0.42304087086537234], [1.1603725815296735, 1.0806255667771862, 1.191032723160816, -0.5703018274822332, 0.44376281361749015, 0.3624113050445505], [0.13242889398929003, 1.143896175361158, -0.9497327480960731, -0.81403733611316, -0.5872594978549064, 0.7760407143024386]], "biases": [[0.10002247866328712, -0.046621427218039094, -0.1063736558279241, 0.1512705360612423, 0.14473716425558028, -0.005653819189979703]]}, "layer3": {"weights": [[0.9740800956675864, 0.22229734763331863, 0.4660403597380772], [0.232529874151449, 0.4064281464410738, 1.658171473255484], [0.405793354811702, -0.6632517589586809, -1.266687022152543], [-1.4369767060928986, 0.5820050776912327, -0.250342879936537], [-0.8438018285539678, 0.30330508513069027, 1.0365845605404662], [-1.005389785293237, -0.4059152920146212, -0.4356007685301513]], "biases": [[-0.18953168333270498, -0.15434492858038845, 0.030980501265434623]]}}, {"layer1": {"weights": [[-1.5219979916630617, -1.4114132360929412, -1.1287007113210958, -1.4561687292127516, 1.2175034522780572, 1.1280004739453955], [-0.09376789599110688, -0.7157266664151509, -1.151559969041992, 0.4774015881541609, 0.18764683731562992, -0.5256982032101526], [0.9510099275630055, -0.5449311139848112, -0.6487251694702506, 0.18816084038531894, 1.6257349671112864, -0.006042368272401467], [-0.9814753953586197, 0.17604038081637144, 0.5344911786440363, 0.624881088306406, -0.7393161973396185, 1.0088942497041054], [-0.34379989237933684, -0.30438733511042787, 1.8183462520347204, -0.4901251559042491, 0.807840328373784, -0.13775108701525]], "biases": [[0.2023890783368679, -0.040255660237065144, -0.19821449362966526, 0.009013335181733114, 0.0674920490253019, -0.003989341463129402]]}, "layer2": {"weights": [[1.3970840663680162, -1.0773691845898035, -0.7086030928360654, -0.9241164343383195, -0.41722104535352955, 1.293522541518344], [-0.08208277378998904, -0.655078307915788, -0.3086052607010868, 0.5699804002401107, 0.13993138485144027, 0.683220306634532], [0.22564302284841922, -0.2747497813935848, 0.06307054450590957, -0.15557647510022282, -0.49004178807505916, 0.4609558436614698], [-0.18978920665834342, -0.23575013407465056, 0.08225608001661325, 0.5591119751429862, 1.6078516874309468, -0.4229227807224136], [1.160038939157923, 1.0312794598437902, 1.219826421446401, -0.6342763776924609, 0.4438009697097102, 0.36143752517390115], [0.1593739604295385, 1.163752893929545, -0.9498061164899282, -0.7949495229371732, -0.5684255937310418, 0.6911952221622346]], "biases": [[0.09404123076909805, -0.046623314427879585, -0.10637350825716245, 0.12332833150639858, 0.1441272899125966, -0.0277422412040087]]}, "layer3": {"weights": [[0.9745804360312643, 0.22702266496878962, 0.5171736197360324], [0.22990696611743272, 0.4285100302554041, 1.6593584168579858], [0.5082400995320082, -0.5863295879496104, -1.1794716265657175], [-1.4347305440066183, 0.4708868091587708, -0.31565052864433407], [-0.8509717967089316, 0.32112021064643165, 1.0873130355242235], [-1.0092697329209521, -0.6074603983806401, -0.3868513184225827]], "biases": [[-0.18895863828015444, -0.1543455493135566, 0.013724526795094451]]}}, {"layer1": {"weights": [[-1.5349461170275494, -1.4117711821001795, -1.1370468622576038, -1.4484668249676453, 1.2249650131138305, 1.1211955500761162], [-0.11181397589145331, -0.7186073868267819, -1.1706953506912745, 0.4790134732430941, 0.18002336837215904, -0.5353706313558213], [0.9510088652832414, -0.540407857099665, -0.6464633468077066, 0.18997824287670614, 1.9035797367995126, -0.0070016739408544975], [-0.9739247822348145, 0.2105407304477318, 0.519726045694045, 0.6135397279927586, -0.7353354280212204, 1.0089087063788713], [-0.34377043645573724, -0.26025433011926713, 1.9661232055419728, -0.4901356083929569, 0.8004581491159481, -0.13718254723007028]], "biases": [[0.20225255093662464, -0.040255637960367144, -0.19821417380675183, 0.0070077883508653455, 0.0732277414021063, -0.0032693157894985517]]}, "layer2": {"weights": [[1.3971444671091757, -1.0427959933141544, -0.7109346580952651, -0.9196343425345808, -0.44852736487854, 1.292811851946421], [-0.07734539167343525, -0.5877797645964125, -0.30864551913961347, 0.565503226313272, 0.1301935498548391, 0.6877938758133344], [0.227584553297012, -0.272198137235685, 0.03456749307054027, -0.1555539630042869, -0.47055416983572096, 0.4609793010643185], [-0.18941252425017113, -0.2568505932523488, 0.08311893652881105, 0.5591706009698334, 1.6078750928428556, -0.422981825793893], [1.1602057603437983, 1.0559525133104883, 1.2054295723036086, -0.6022891025873471, 0.44378189166360016, 0.3619244151092258], [0.14590142720941426, 1.1538245346453515, -0.9497694322930006, -0.8044934295251667, -0.5778425457929741, 0.7336179682323366]], "biases": [[0.09404068887327482, -0.046622370822959336, -0.10637358204254327, 0.1537448792573485, 0.14443222708408843, -0.0166980301969942]]}, "layer3": {"weights": [[0.9743302658494253, 0.22294751282991948, 0.4916069897370548], [0.23121842013444086, 0.39147480297292514, 1.6587649450567348], [0.4570167271718551, -0.5863104086276972, -1.179319952739016], [-1.4358536250497584, 0.5264459434250017, -0.28299670429043555], [-0.8473868126314497, 0.31221264788856096, 1.0619487980323448], [-1.0073297591070944, -0.5629531298463593, -0.2428694771513145]], "biases": [[-0.18924516080642972, -0.17220781259175788, 0.018838131309164598]]}}, {"layer1": {"weights": [[-1.5110433447818743, -1.4108783511643668, -1.1355915664453056, -1.3461235835184615, 1.2184125928836878, 1.1280681381231745], [-0.08109170479900368, -0.7237503006613397, -1.1492037556823003, 0.477320166234511, 0.20264441154982987, -0.5346288236133498], [0.9496303639529179, -0.5435008770155059, -0.651029453380243, 0.1930241705909767, 1.6304886615981142, -0.008230934098208926], [-0.9957315002952238, 0.16204774666730282, 0.5452735267095111, 0.6406738668209639, -0.7432938054449851, 1.0088200422770206], [-0.34385880422653603, -0.20756796096763708, 1.818493140781146, -0.4884816236502937, 0.8132099205891811, -0.13888816658560943]], "biases": [[0.20266213313735443, -0.04025570479046115, -0.20342903370935672, -0.008318130391692317, 0.0674920482069534, 0.01052314865079087]]}, "layer2": {"weights": [[1.4668961117735637, -1.0354684050872496, -0.7101394345277386, -0.9241100665399572, -0.37794564867363906, 1.29494392066219], [-0.09151749992068342, -0.6478171482050805, -0.3096423605031381, 0.5854849842499843, 0.12452792969668859, 0.6840979393024345], [0.22387377987285084, -0.28646437510007094, 0.06919972647568381, -0.03706146509161057, -0.5155005753211344, 0.4609089288557724], [-0.20826917064141348, -0.2387217099167299, 0.0841279311291413, 0.5589947234892918, 1.6078048766071293, -0.4232968817215534], [1.1597052967861725, 1.0065993645182085, 1.2169076656647912, -0.6425719338744439, 0.4425090159996288, 0.3604637453032518], [0.14586313004584456, 1.1429026459897211, -0.9498794848837833, -0.7977691025914583, -0.5590219843612986, 0.6733503551155414]], "biases": [[0.0940423145607445, -0.046625201637720076, -0.10679242818514575, 0.12810761032410414, 0.1438210003813366, -0.0343179614760735]]}, "layer3": {"weights": [[0.9748396250620195, 0.22845598182348986, 0.5274654658076505], [0.22216721808489986, 0.4270073268856647, 1.658857444565058], [0.5108049104117747, -0.5929594325872605, -1.1968735930766403], [-1.4337255099505173, 0.52795692506791, -0.3156331361230068], [-0.856340392815299, 0.3293440952895563, 1.1133502239461084], [-1.011261483179413, -0.610817701653551, -0.3537455034527151]], "biases": [[-0.19219989164926926, -0.15434617004672474, 0.013726274499083937]]}}, {"layer1": {"weights": [[-1.547894242392037, -1.3984814412716209, -1.1433349045036014, -1.5298339306126345, 1.2324265739496036, 1.1143906262068368], [-0.12986005579179974, -0.7214881072384131, -1.1730730414031245, 0.48062535833202735, 0.1723998994286882, -0.34965625805638545], [0.9510078030034772, -0.5358846002145188, -0.6442015241451624, 0.19179564536809335, 1.6243323563089187, -0.007960979609307528], [-0.9663741691110093, 0.13303574232966398, 0.5687199758833907, 0.6021983676791111, -0.7313546587028223, 1.0089231630536375], [-0.34374098053213764, -0.23210800600458287, 1.7817847288487454, -0.49014606088166474, 0.7930759698581122, -0.16905180323698107]], "biases": [[0.20211602353638136, -0.04025561568366914, -0.1982138539838384, 0.005002241519997577, 0.07896343377891071, -0.0025492901158677013]]}, "layer2": {"weights": [[1.4165542733392718, -1.0082228020385056, -0.6938744688821769, -0.8534602145650346, -0.41721736151068267, 1.292101162374498], [-0.07260800955688146, -0.5827716000399907, -0.30868577757814014, 0.5610260523864332, 0.12045571485823797, 0.6923674449921366], [0.22952608374560476, -0.2696464930777851, -0.018778845199419577, -0.15553145090835097, -0.4510665515963827, 0.524521851729629], [-0.10054884528972319, -0.2779510524300471, 0.053748516517703224, 0.5592292267966805, 1.6078984982547642, -0.42304087086537234], [1.1603725815296735, 1.1169884563966148, 1.191032723160816, -0.5703018274822332, 0.44376281361749015, 0.3624113050445505], [0.13242889398929003, 1.143896175361158, -0.9497327480960731, -0.81403733611316, -0.5872594978549064, 0.7760407143024386]], "biases": [[0.09404014697745161, -0.046621427218039094, -0.1063736558279241, 0.1512705360612423, 0.14473716425558028, -0.03316483157763881]]}, "layer3": {"weights": [[0.9740800956675864, 0.22229734763331863, 0.4660403597380772], [0.232529874151449, 0.4064281464410738, 1.658171473255484], [0.405793354811702, -0.586291229305784, -1.1791682789123143], [-1.4369767060928986, 0.5820050776912327, -0.250342879936537], [-0.8438018285539678, 0.30330508513069027, 1.0365845605404662], [-1.0033563859872898, -0.561274478209904, -0.40244826984237625]], "biases": [[-0.18953168333270498, -0.15434492858038845, 0.023951735823234746]]}}]