[{"layer1": {"weights": [[-0.14599044027321395, -0.4339561049661738, 0.9666592822251383, 0.30868818747114823, 0.22456704503284902, 0.5196429327161232, 0.13217703231635602, -0.568992569908289, -0.5502799519468193, -0.9083000856253928, 0.2834858114379135, 0.17245090765197335], [-0.0029926219202865145, -1.0912588254147275, -0.05014100672143686, -0.4389442383114939, -0.18971936449450638, 0.23002762447169703, -0.4999526404996927, 0.5045393549788195, -0.570621733890254, -0.09786144133357519, -1.2369869657858288, 0.43114103449846186], [-0.34558943022969835, -0.6479439303299039, 0.496814319248725, -0.09644167129835798, -0.5259808937645303, 0.4929070234571676, 0.3049964533437026, -0.16381261846556755, -0.3186551344755608, 0.3409063773295271, -0.3418018525858356, -0.5524424257912386], [0.2711037409288146, 0.35311765646617044, 0.1498962489528611, 0.3520709728657492, -0.2730638201959478, -0.09203096083859476, 0.7330497819401094, -0.41589074252293035, -0.631188090947568, -1.3094522126349866, -0.3213222093480199, -0.03887653814634534], [-0.1430411850587726, -0.20497324949898138, 0.15706734728948057, -0.3288080968721204, -0.18443704351927243, 0.10148211468262319, 0.9858292763980656, 1.0253746885140609, -0.38538719627466445, -0.14853667990723216, 0.8167634457984558, -0.2648683645669986]], "biases": [[0.011931435974213676, -0.011008551021652083, 0.046546223328653935, 0.12172651045637953, -0.024657752972588466, -0.17592739504165253, -0.08789801850218563, 0.12471184052395277, 0.08584695921476024, 0.059206237232519304, -0.03341785772646332, 0.005984713545886545]]}, "layer2": {"weights": [[-0.8594920737942134, -0.07830805176027489, -0.25002142230794544, 0.28295228648383874, 0.33622439083500855, 0.8238126877765324, -0.6915073766170854, 1.0342138538997967, -0.08970221288270597, -0.6221958057491104, -0.48575933234833196, 0.1269201510489552], [0.3985566948171877, 0.6495977452878933, 0.17289670217697584, -0.07796228664571737, 0.031535100218185015, 0.2594857635591479, -0.08249219192665386, 0.6594142277637586, 0.5761441832781737, -0.2467717327074898, -1.3608612958384243, 0.3978567900773471], [0.2751334991063584, 0.47854164877222066, -0.4876345989312038, -0.37312703665689845, -0.7041465549487002, -0.6724098630519815, -0.08652779899290527, -0.42724002019267787, 0.3170025840702801, -0.41195383218686366, -0.28649779321170443, -0.19418465148958836], [-0.6101275686903953, 0.4091471577525876, -0.23892547629317668, -0.3572543481065833, -0.1098944081993126, 1.0583331636486741, -1.092751504834443, -0.22296111502585003, -0.2948448671515349, -0.19602914871445049, -1.0639862364621024, 0.04009628864793944], [0.8460347053176078, -0.1722887810343527, 0.16984017063415074, 0.6412608055588971, 0.23391283394044915, -0.39203960369275315, 0.5154243861255163, 0.18354930961154398, 0.5654501423961028, -0.17706218321720651, 0.09577179316658878, 0.2026616528983112], [0.09547257915846619, 0.11045938237985796, -0.2386573465149271, 0.2710888389666234, -0.19298701702188756, -0.09688744010467609, -0.6601434690684571, -0.03310796391350523, 0.22692069113032232, -0.3096967968171263, 0.18131783214677866, 0.32238850091654936], [0.13950550442282847, 0.27007684678750443, -0.3792779266609376, 0.79981202553991, 0.03166414335851096, -0.8708638083583071, 0.37282663584235504, -0.1908113664317946, -0.5826805564190218, 0.5132570514759034, 0.005121476149027089, -0.15754626676129047], [0.4196993712744397, 0.11038152168356676, 0.28606923312961924, 0.6513849222092762, 0.4404123232738625, -0.6319130094444975, -0.3800853235898831, 0.3968172938556155, 0.0615726326441105, -0.6733555696776052, 0.6179096299095215, -0.13930874635074292], [0.6080913871931373, 0.7816324634367612, -0.712934491122585, -0.18901398474362424, 0.4134728222404357, -0.46827287470146295, 0.7751993921318663, 0.6150182488535569, 0.5930878116556604, -0.026687021092588175, -0.5380790143731572, -0.37875322036468173], [-0.6859966833486268, 0.19784543359206092, 0.17473717836995395, -0.2084004261196068, -0.2888819802679066, -0.9878334550400466, -1.1373940157627431, -0.03336719650194767, 0.11366185818618954, -0.30157974752007505, -0.7247412173423589, 0.3987652532499823], [-0.022611791389512872, -0.34980612990452975, -0.12069343201970786, 0.07786440532955413, 0.6506382491851727, -0.24391516892181317, -0.04622062792501759, 0.1967331176868335, -0.31856348397355794, -0.46588033809527946, -0.22167530757387444, 0.04321269537144357], [-0.7150521169898999, -0.10762370688121028, 0.005348106766070404, -0.07073971090921423, -0.22635921666260264, 0.5149910991055745, 0.8203992681064007, -0.7967702638975163, 0.1812420584288973, -0.7162784465219232, -0.4653954598415574, -0.35719705127975987]], "biases": [[-0.028050189170354213, 0.02801841653923456, -0.05663719201985171, 0.11206014206014656, -0.017854749647453094, 0.058474586553248456, 0.02135089579436486, 0.06309942351318076, 0.03277754174269089, 0.004912993781334888, 0.025049279943015704, 0.06225784483579619]]}, "layer3": {"weights": [[0.34607725858662974, 0.3493076445974639, -0.3095100302343537, 0.2447745278035081, -1.1817738198005996, -0.04448458283411594, -0.6161195973599778, -0.11722669671118066, -0.02335976999667317, -0.41448395036147034, 0.2915581761819264, 0.33091378544365024], [0.04945768552258653, -0.8814813528878085, 0.2765283939237266, 0.5572575724469883, -0.8463420548380408, -0.5884787836112454, 0.17411681246423005, -0.3507263208559854, -0.8568576497570728, 0.552728971694475, -0.053997007919799646, -0.3217724746503869], [-0.21278355911895264, -0.5743496796096854, 0.5138672465861244, -1.171945786016355, 0.1165698329627887, 0.252337068809782, -0.5022565503548009, -0.4519106335745715, 0.4228646005790998, 0.05723972358594393, 0.3428183854790002, 0.3951480684079757], [-0.8067795692562317, -0.19158618356517854, 0.5224856378363485, 0.5638866502514692, -0.17005116568934778, 0.5635278531591947, -0.0053049115744679175, 0.08406600629396802, -0.022844787954827046, -0.9131905810089422, 0.7376335621718428, 0.1129300668777796], [0.8813569334743759, -0.22165982197851442, -0.3457719347338396, -0.055256724974165415, -0.27409302144587966, -0.2802452724021391, -0.07363431851007021, 1.1594259950571557, -0.7709938677778777, 0.5051014361127468, -0.002489338001942662, -0.8348866527953326], [-0.6179985903787355, -0.11024322198808623, -0.4145574989624414, 0.05975712251702575, -0.6516499679639596, 0.6813976033922402, -0.208511789906235, -0.8238005724699048, -0.866732791849925, -0.2999296820236397, 0.33674944285250896, 0.3254166405458695], [0.0994460021288757, -0.41870973238238907, -0.020479268353158362, 0.18573708179974355, -0.9299223736750691, -0.09087889757286532, 0.16276749216626055, 0.5469842225594255, -0.7409603400951539, 0.2581927900278163, -0.32203583416653847, 1.0895978449770025], [-0.253994761001097, 0.16299681598466348, -0.14105247628845913, -0.8732989359491781, -0.1560531922578875, 0.023124469032321446, -0.22982921491157612, -0.7167248345789914, -0.5185557993773817, 0.4331593610565889, 0.12081268044929995, -0.13633883366461363], [0.44039732146216126, -0.0526004094608529, -0.7921036405072432, -0.4791110839083026, 0.07352054615237914, -0.4997848778686203, 0.12448817354836904, -0.6246147826737001, -0.30260242073545723, -0.031495806605540286, 0.17591555744621074, -0.6328984598799907], [-0.02729446459203541, -0.27801452914035407, 0.1919952640970667, 0.018036750185137063, 1.328805809583288, 0.20914063100892277, 0.22695671490692676, -1.0328585671669326, -0.961772431312548, 0.20168649524893353, -0.3073169836873414, -0.5589209843322991], [0.10364477341144415, 0.3474587288850993, 1.0157138281107314, -0.7588395578716838, 0.26885842562661816, 0.31034641482196323, -0.18050825936702694, 0.00940863183798905, -0.8154294640096061, -0.8958911237073627, -0.24050071536923778, 0.8614053216991273], [0.2558815542922741, 0.010624741904460978, 0.35779041245051524, -0.6298227320034586, 0.7913755478349354, -0.6975338565267986, 0.40387267188121206, 0.10447563976152932, 0.926826739322559, 0.19030334188358178, -0.4372516487236201, 0.17886208162859107]], "biases": [[0.047609946117986496, -0.07353222926221478, 0.017991048356890582, 0.13791493956070888, -0.2455918186619505, 0.031677567785017846, 0.02564322932119668, -0.07608338719434703, -0.04394848491296512, -0.08394814920878538, 0.13403906114534442, -0.031222769372133044]]}, "layer4": {"weights": [[-0.9773605593796647, -2.5666783259892547, 1.5149269061784165, -1.216861688416862, -0.1958232395461655, 0.4911201721642603, -0.34224805265590136, 0.45826358787493826, 0.6316836895733784, -0.7994235780663278, 0.7400698506070109, -0.03997049449339102], [0.8484351995741798, 1.0107464786920606, -0.15341638745043792, 0.9650527836282102, -1.8958988057907427, 0.786510491456159, 1.3609568707414077, 0.5616633784307027, -2.08411388637387, -1.4024140008940267, 0.19472608661826932, 1.3660951126072167], [-0.8852859989452248, 0.4166090469698519, 0.43131342548620016, 0.02941729985168092, -0.4491234771838499, 0.9627311734019346, 0.4296322795918239, -0.1344217958835417, 1.8719301023869255, 1.3614042288365955, -0.39888400832631044, 0.7550732151227009], [0.6426623715913843, 0.2152521935805493, 1.639404527150902, 1.2907210910784435, 0.04167636502943634, 0.9560702812041699, -0.03670853259366883, 1.9704845309860457, 0.6125247733402429, 0.22154745867979037, -0.823907464100324, 0.6865616217483221], [0.5903021956403798, -0.944808332278202, 0.49789226991412716, 1.5228828703413697, -1.6917801889077175, -0.15292712217834029, 1.4425898457900623, -0.4393064997007601, 1.3193145078882185, -1.4180248609937203, -0.6659931227910144, 1.3165446565695011], [-2.7812073572953815, -1.183403087529364, 0.30252723557619304, -0.5531292543273354, 0.03614028013841174, 0.363206628845746, 1.4348112751138564, -0.680537171033872, 0.21996088362222266, 0.4162526487762524, 0.3455067488851819, 0.7504026502901516], [-1.434319600439621, -0.9530474007138984, 0.8677046867998768, -0.16806718954048294, -1.5820488220560294, -0.5998195634762907, -0.03138144232031562, -1.0235892500059143, -0.4605906696642094, 0.7879774259523636, 0.7630952397118645, -0.30000042265934984], [-1.6376178763610287, 0.49701697384524474, 0.5174058578521707, -0.25499763051738733, 0.1498540617234759, 0.018080329564091058, 1.1913510354989771, -0.08140040426330601, 0.3900359110565766, 0.03859659677306308, 1.9214563179521076, 0.7091373514699603], [1.1513077254447368, -1.922981732265124, -0.1707084882062499, 2.419918929213006, -1.3287129809152691, -1.8778514140724742, 0.20794992274122895, -0.9925700957787786, -1.1951244065315398, -0.2577266356087616, 0.1403180609643049, -0.6834844819293834], [0.42671261847341596, 1.4040538289112465, 0.252732859515152, 1.083603490345147, 0.32260997106003336, -0.7362892682577287, 0.7736453196706073, 0.1643300235601947, -0.017403249010480216, -1.3617229351306877, 1.3832200388110454, 0.46806421902759054], [-0.6622519211084906, -0.39986986158141546, -0.3485584810728251, 0.2306121434008644, 0.03880721062675128, -0.06832951790170866, 0.001240796203657682, 0.8408511402966519, 0.31701552380736664, -0.16492834804636614, -1.9562222081954919, 1.045430803429414], [-1.8422504533582071, 1.7146250288251639, -1.1745345691940812, -0.22044734163243312, 1.864682412671029, -0.2359043015701032, 1.748054794357659, 2.105724854459707, -0.20893318013740322, -1.1821852475161485, 2.1056272445159707, -0.595836982746241]], "biases": [[-0.09369117167772895, -0.007633161944145781, 0.009859262029937125, 0.0740869812988846, -0.10062431392426983, 0.0002528131524320727, 0.03072591228802934, -0.14989780709123393, -0.08757173972111484, -0.0975650474362483, -0.14909271514649372, -0.007717045013011382]]}, "layer5": {"weights": [[-0.11154427528043616, -0.07150057175430907, -1.5490401881621239], [-0.010485047662878512, -0.049019964762537394, 2.199957536089161], [2.0080561699922335, -0.5537761811786289, 0.3909045876436858], [0.3393962179221865, -1.48784837386222, 3.806534066204811], [-0.40132957301152555, -0.5889080276481683, 0.1706551781715808], [-1.8449010670461599, 0.21176672221188414, -0.2086334137889874], [1.2810770001816247, 0.6113154197107734, -1.1727870440205839], [-1.4821194449087836, -0.44029906474964803, 0.6365102530791659], [1.0847039384455186, -0.7242768897247664, 0.37603521836752096], [0.3644510080743896, -0.007758889942086945, -0.6669488296352895], [-1.1638670870183403, -1.3220949847408512, -0.5420093888229112], [0.07223268539711275, -1.0038617799681138, -0.7360782206179057]], "biases": [[0.14056340968625977, 0.09860289501445528, -0.09271388015665516]]}}, {"layer1": {"weights": [[-0.14599044027321395, -0.4349276918048074, 0.9666592822251383, 0.30868818747114823, 0.22456704503284902, 0.6284594569108455, 0.17193594162774958, -0.568992569908289, -0.5502799519468193, -0.9083000856253928, 0.2834858114379135, 0.17245090765197335], [0.07337481732053602, -1.0912588254147275, -0.05014100672143686, -0.4389442383114939, -0.2534170211969059, 0.23002762447169703, -0.3664859495793861, 0.5045393549788195, -0.570621733890254, -0.09786144133357519, -1.322066278954944, 0.43114103449846186], [-0.34558943022969835, -0.6479439303299039, 0.26082840881639524, -0.09644167129835798, -0.5259808937645303, 0.3894792885565633, 0.3049964533437026, -0.16381261846556755, -0.3186551344755608, 0.3409063773295271, -0.3418018525858356, -0.5524424257912386], [0.2711037409288146, 0.35311765646617044, 0.1498962489528611, 0.3520709728657492, -0.2730638201959478, -0.09203096083859476, 0.7330497819401094, -0.41589074252293035, -0.631188090947568, -1.3094522126349866, -0.3213222093480199, -0.03887653814634534], [-0.1430411850587726, -0.20497324949898138, 0.15706734728948057, -0.3288080968721204, -0.18443704351927243, 0.22255392263406037, 0.9858292763980656, 0.9497132731565785, -0.38538719627466445, -0.06468925030757489, 0.8167634457984558, -0.2648683645669986]], "biases": [[0.011931435974213676, -0.011008551021652083, 0.046546223328653935, 0.12172651045637953, -0.024657752972588466, -0.17592739504165253, -0.08789801850218563, 0.12471184052395277, 0.08584695921476024, 0.059206237232519304, 0.004670055438982507, 0.005984713545886545]]}, "layer2": {"weights": [[-1.0502443008128886, -0.07830805176027489, -0.25002142230794544, 0.28295228648383874, 0.33622439083500855, 0.8238126877765324, -0.6915073766170854, 1.0342138538997967, -0.016129872157497158, -0.6221958057491104, -0.4139421731523454, 0.1269201510489552], [0.3985566948171877, 0.6495977452878933, 0.17289670217697584, -0.07796228664571737, 0.031535100218185015, 0.2594857635591479, -0.08249219192665386, 0.6594142277637586, 0.5761441832781737, -0.20351934701715346, -1.3608612958384243, 0.3978567900773471], [0.2751334991063584, 0.47854164877222066, -0.4876345989312038, -0.37312703665689845, -0.7041465549487002, -0.6724098630519815, -0.08652779899290527, -0.42724002019267787, 0.3170025840702801, -0.41195383218686366, -0.28649779321170443, -0.23811495664397103], [-0.6101275686903953, 0.4091471577525876, -0.23892547629317668, -0.3572543481065833, -0.08961562910342971, 1.0583331636486741, -1.092751504834443, -0.22296111502585003, -0.2948448671515349, -0.19602914871445049, -1.0639862364621024, 0.06016766133326059], [0.8460347053176078, -0.29967466661019737, 0.16984017063415074, 0.6412608055588971, 0.23391283394044915, -0.39203960369275315, 0.5154243861255163, 0.18354930961154398, 0.5654501423961028, -0.17706218321720651, 0.09577179316658878, 0.04701646836518067], [0.09547257915846619, 0.11045938237985796, -0.2386573465149271, 0.2710888389666234, -0.19298701702188756, -0.09688744010467609, -0.6601434690684571, -0.03310796391350523, 0.22692069113032232, -0.3096967968171263, 0.18131783214677866, 0.32238850091654936], [0.13950550442282847, 0.27007684678750443, -0.3792779266609376, 0.79981202553991, 0.03166414335851096, -0.8708638083583071, 0.37282663584235504, -0.1908113664317946, -0.5826805564190218, 0.5132570514759034, 0.005121476149027089, -0.15754626676129047], [0.4196993712744397, 0.1255600734360415, 0.28606923312961924, 0.6513849222092762, 0.4404123232738625, -0.6319130094444975, -0.3522769130370013, 0.3968172938556155, 0.26213417540947725, -0.5366596712402586, 0.6197242543481132, -0.13930874635074292], [0.6080913871931373, 0.7830190332262358, -0.7319634053776611, -0.18901398474362424, 0.4134728222404357, -0.46827287470146295, 0.7751993921318663, 0.6150182488535569, 0.5930878116556604, -0.026687021092588175, -0.5380790143731572, -0.37875322036468173], [-0.6859966833486268, 0.19784543359206092, 0.17473717836995395, -0.17537687902711535, -0.2888819802679066, -0.9878334550400466, -1.0914888635585005, -0.03336719650194767, 0.11366185818618954, -0.30157974752007505, -0.7247412173423589, 0.4670520885345557], [-0.022611791389512872, -0.34980612990452975, -0.20845801091357966, 0.07786440532955413, 0.6506382491851727, -0.24391516892181317, -0.04622062792501759, 0.1967331176868335, -0.31856348397355794, -0.3269993571573919, -0.22167530757387444, 0.04321269537144357], [-0.7150521169898999, -0.10762370688121028, 0.005348106766070404, -0.07073971090921423, -0.22635921666260264, 0.5149910991055745, 0.8203992681064007, -0.7967702638975163, 0.1812420584288973, -0.6533131090418438, -0.4653954598415574, -0.35719705127975987]], "biases": [[-0.028050189170354213, 0.02801841653923456, -0.05663719201985171, 0.11206014206014656, -0.017854749647453094, 0.058474586553248456, 0.02135089579436486, 0.08968795531714585, 0.03277754174269089, 0.004912993781334888, 0.025049279943015704, 0.06225784483579619]]}, "layer3": {"weights": [[0.47030582249175656, 0.3493076445974639, -0.3095100302343537, 0.2447745278035081, -1.1817738198005996, -0.04448458283411594, -0.6161195973599778, -0.1478491027355786, -0.02335976999667317, -0.41448395036147034, 0.2915581761819264, 0.33091378544365024], [0.04945768552258653, -0.8814813528878085, 0.2765283939237266, 0.5572575724469883, -0.8463420548380408, -0.5884787836112454, 0.17411681246423005, -0.2423372465528161, -0.8768810867743937, 0.552728971694475, -0.20793699853215972, -0.3217724746503869], [-0.21278355911895264, -0.5743496796096854, 0.5138672465861244, -0.9556898117516339, 0.1165698329627887, 0.252337068809782, -0.5022565503548009, -0.4519106335745715, 0.19824846513526867, 0.05723972358594393, 0.3428183854790002, 0.3951480684079757], [-0.8067795692562317, -0.031103853124153813, 0.5224856378363485, 0.5638866502514692, -0.10445381989228116, 0.5635278531591947, -0.0053049115744679175, 0.08406600629396802, -0.022844787954827046, -0.9131905810089422, 0.7376335621718428, 0.1129300668777796], [0.8813569334743759, -0.22165982197851442, -0.3457719347338396, -0.055256724974165415, -0.27409302144587966, -0.2802452724021391, -0.07363431851007021, 1.1594259950571557, -0.5145456611577262, 0.5051014361127468, -0.002489338001942662, -0.8348866527953326], [-0.6179985903787355, -0.11024322198808623, -0.4145574989624414, 0.05975712251702575, -0.6516499679639596, 0.6813976033922402, -0.208511789906235, -0.8238005724699048, -0.866732791849925, -0.2999296820236397, 0.33674944285250896, 0.22787935450100041], [0.0994460021288757, -0.41870973238238907, -0.020479268353158362, 0.18573708179974355, -0.9299223736750691, -0.09087889757286532, 0.16276749216626055, 0.5469842225594255, -0.7409603400951539, 0.2581927900278163, -0.32203583416653847, 1.0895978449770025], [-0.253994761001097, 0.16299681598466348, -0.14105247628845913, -0.8732989359491781, -0.1560531922578875, 0.023124469032321446, -0.22982921491157612, -0.7167248345789914, -0.5185557993773817, 0.4331593610565889, 0.12081268044929995, -0.13633883366461363], [0.24179590788988867, -0.0526004094608529, -0.7921036405072432, -0.4791110839083026, 0.07352054615237914, -0.37043993490370836, 0.12448817354836904, -0.6246147826737001, -0.30260242073545723, 0.013115515598003932, 0.17591555744621074, -0.6328984598799907], [-0.02729446459203541, -0.2536812334605139, 0.1919952640970667, -0.08547672192241723, 1.328805809583288, 0.20914063100892277, 0.22695671490692676, -1.0328585671669326, -0.8523819664804221, 0.20168649524893353, -0.3073169836873414, -0.5515349005905856], [0.10364477341144415, 0.3474587288850993, 1.0157138281107314, -0.7588395578716838, 0.26885842562661816, 0.31034641482196323, -0.18050825936702694, 0.00940863183798905, -0.8154294640096061, -0.8958911237073627, -0.24050071536923778, 0.8614053216991273], [0.3664728224439381, 0.010624741904460978, 0.4243739301514004, -0.6298227320034586, 0.7913755478349354, -0.6975338565267986, 0.5037640322029866, 0.10447563976152932, 0.9502323631723295, 0.19030334188358178, -0.4372516487236201, 0.17886208162859107]], "biases": [[0.047609946117986496, -0.07353222926221478, 0.017991048356890582, 0.13791493956070888, -0.2455918186619505, 0.031677567785017846, 0.02564322932119668, -0.07608338719434703, -0.04394848491296512, -0.08394814920878538, 0.13403906114534442, -0.031222769372133044]]}, "layer4": {"weights": [[2.307126308046432, -1.3460448328769343, -0.4244003904427384, 0.9172635242597639, 0.25034752843912317, 1.3771325913396162, 1.4598392283583503, -0.5683202126938237, 1.0277583742032335, 3.0315762375446593, -0.8966292072845999, -0.4201721923100843], [1.8219785590495652, -0.6955838604381919, 2.205370801907193, -0.31461824109829994, 1.7437967164868957, -1.9012823229588163, 0.4008313368008577, -1.6142305240114834, -0.2791980190816109, 0.17864866563254672, -1.063190996313678, 0.37689130890993067], [0.15793661427233505, -1.7088542939253313, 0.6562463830056114, 1.2050047369116068, -0.1120948405340173, 1.1470463406827651, -1.0402633570387974, -0.24598130112640645, -0.12696546789655483, 0.08630548919720273, 0.5882248339474411, -0.12202646132087952], [-0.01769834992559908, 0.8036076713600223, -0.6932420430189078, 2.163895470182611, -0.8516941443018649, -1.2040882110819506, 1.563619810106535, 1.4181055423354274, 1.7705368173501683, -1.0024784317452842, 0.06707560592438393, -0.8768469418952746], [-1.8593693552414317, -0.19581485161466933, 0.36678973119145836, -0.006471576098936494, -0.31233628444129374, -0.015570281176642166, 1.0226671790326596, -0.031242099736157658, 0.006683190572751692, -0.10963659497080304, -1.4906399465883988, -0.875559643990329], [-0.15000565076093594, 0.5461975138845451, -0.6367741379162778, 1.0342524586608084, 0.7939047790353495, -0.10542227438946958, 1.1411390023251822, -1.8676163217348882, 0.06372775314435893, 1.401730370382402, -0.27159762647187335, 0.06492313644042264], [1.692011879565844, -2.9666810601500355, 0.46039806093019614, 0.3615366386173425, -1.2994111572822689, 2.204866355015613, -0.2784687478784877, -0.3504824920807245, -0.7175150245723003, 1.4278467144698048, 1.151120855501401, -0.9371666739511632], [0.5584586092938751, 1.5647764733109255, -0.3957814345072595, 1.7637987994579276, -0.5001265499769049, 0.33658592607469867, 0.6880947980116916, 1.114455663657899, 1.1420419691624537, 2.4423934590420604, -1.2588967995091644, -1.0542457356648811], [0.3794120646444085, 0.33420181186767844, 0.40356246780507127, -0.7775560173684088, -1.751159330110887, -1.014329985266649, -0.34002956004002727, -1.0445967409157328, 1.5186084895489635, 0.8605090778649775, -1.872556277833823, 0.14534827723620322], [-1.0668723888617904, 2.1720530686657566, -0.22605246788590783, -1.724536734986434, -0.5270454659407857, -0.8047905796017408, 0.2167893663155526, 0.5681436795771249, 0.9632475454749156, 0.13080833224999464, 2.7576430510794925, 0.42563647445322594], [-0.034021870653733015, -0.2631124798305578, -2.4796514853273086, 0.45145521848597325, 1.335128325300084, 0.7106610887361464, 0.2809148385308062, -1.091336040633956, -0.2916370173871958, -0.933476267716177, -1.3618695325891321, 0.11408052326070031], [0.15461563847095583, -1.8082335123090565, 0.8029246592590505, 0.1825844201181854, 0.7175248277504799, 0.2407890219394048, -1.4249341685071861, -0.30286174936598675, 0.19180609717638236, 0.146907731207046, -0.43771530158015814, -1.2996911947199685]], "biases": [[0.008661378006006514, -0.04777153686013407, -0.14265170792069617, 0.03708896677233914, -0.07345064834821649, 0.2642471562710972, 0.141059126033874, -0.03221045770712064, 0.009972285962866442, 0.07000838198274538, 0.11087850608562684, 0.025785369150065147]]}, "layer5": {"weights": [[-1.121452208827674, 0.3188192799359849, -0.10486784541617285], [-0.1766982401187777, 0.3161563693360816, 0.3452943956378401], [1.9397540265109787, 0.36577968202765515, -0.5824222302577862], [-0.2933194731229275, -0.12704237153880157, 0.9007852459629436], [0.4373538052214592, 1.1314929696135902, -0.8968391538018381], [1.5175609429334476, -2.2098787851421635, -0.7253428727305772], [-0.2822541626713012, 0.9581717579984619, -0.6941190444283146], [0.030052784464837695, -0.4875858422252645, 0.8119390002404903], [-0.4049634175342772, 0.7211983040004015, 2.560605213965028], [1.0342815127414409, -0.33161471795866576, -1.5834958561402956], [-0.8759662245040777, 1.3993368340197103, 0.3469479166121409], [-0.6409274744141656, 1.7595577497943375, -1.5093211513923175]], "biases": [[-0.012079473222124434, 0.0178103361649578, 0.05325246432376921]]}}, {"layer1": {"weights": [[-0.1547104932266509, -0.44018358079283026, 0.9631893165084947, 0.3051566559430886, 0.3070262935630658, 0.6820662892941505, 0.18773482160324206, -0.5162359932885687, -0.5449851489579574, -0.9181942715826459, 0.2834858114379135, 0.18277791356678058], [0.0870601479318584, -1.0913395899445537, -0.0501233887319419, -0.4191978077509073, -0.06737140450161035, 0.2798556536098744, -0.26992624284000055, 0.5045393549788195, -0.5825897712941484, -0.09786144133357519, -1.279986122997341, 0.43114103449846186], [-0.38991955978411263, -0.6492154142535339, 0.26326976303336014, -0.11186202269078882, -0.5259808937645303, 0.3757596533474208, 0.3049964533437026, -0.17455785245033822, -0.3135056097465226, 0.2517464425481565, -0.2730373098177641, -0.5535737721747003], [0.2646641303638053, 0.35311765646617044, 0.2377275803677932, 0.33259717881236955, -0.2710133531005569, -0.09203096083859476, 0.6335395777796381, -0.31295421391588896, -0.631188090947568, -1.2317026057034646, -0.3213222093480199, -0.05911231059174503], [-0.1336890661888611, -0.1959476306170963, 0.19781420976253206, -0.32350988522060453, -0.2317951303851683, 0.11234351383020082, 0.9832687232289481, 0.9672087170388557, -0.37085560876322116, -0.06468925030757489, 0.8598183045693302, -0.314885357633082]], "biases": [[-0.0007461415798291921, -0.011008551021652083, 0.051798408123257283, 0.12345249625039101, -0.02628102480509375, -0.1736522859588427, -0.06238126209653149, 0.12163482496021324, 0.08584695921476024, 0.059206237232519304, 0.03147634194966527, 0.005984713545886545]]}, "layer2": {"weights": [[-1.101396910828642, -0.08545810115723829, -0.2497009639111216, 0.28295228648383874, 0.33622439083500855, 0.8259687969956457, -0.6887047027019011, 1.0358550361136647, -0.01583679596380877, -0.6233097323017177, -0.4139421731523454, 0.0756843860191251], [0.40692555613532455, 0.6084790553554129, 0.18402593777051737, -0.07796228664571737, 0.22867767623307306, 0.25900954470087156, -0.08249219192665386, 0.6580238413052788, 0.5775611463613188, -0.24712979761750403, -1.3662028525408227, 0.36163930453058457], [0.2655348771265226, 0.514572473717837, -0.5563599218840063, -0.37191398291923766, -0.7108996714942587, -0.6545884099829011, -0.08547157166389296, -0.4454114359340847, 0.3192139637175171, -0.3377004719919031, -0.19827482527717719, -0.23811495664397103], [-0.6707940274005684, 0.29549491654773474, -0.20915899322196385, -0.36143326918917773, -0.08961562910342971, 1.0862957824508086, -1.0927258118269538, -0.23249720581098626, -0.2935712590386317, -0.18367978715670208, -1.085849766817313, 0.015237607733425702], [0.8277967499364849, -0.1722887810343527, 0.15228473680325352, 0.5932901184067833, 0.2199263825692624, -0.3293812966276135, 0.5207376585854531, 0.18354930961154398, 0.5617221658683271, -0.22505767199867183, 0.08688228973600676, 0.21690707607310095], [0.21310447085756942, 0.06729191081671557, -0.33469927683273615, 0.2714777608608038, -0.1344670925811829, -0.09688744010467609, -0.6652829385830071, 0.03858317795842217, 0.19646732574352083, -0.3096967968171263, 0.09279338288688846, 0.32238850091654936], [0.3306381585360596, 0.2839162389255109, -0.3792779266609376, 0.800114154225542, 0.03166414335851096, -0.8716122556096519, 0.37778039843776, -0.1901464334103543, -0.47725338210379187, 0.4878882516705177, -0.07801587598104007, -0.15754626676129047], [0.26252862451534537, 0.1716165687222479, 0.2821179868071291, 0.6339603374234946, 0.4404123232738625, -0.6319130094444975, -0.3800853235898831, 0.39624558288183387, 0.24828501499258285, -0.6751082317227557, 0.6238623495758564, -0.13930874635074292], [0.6075673673664572, 0.7720308601407535, -0.7159468938661672, -0.194337117052498, 0.4134728222404357, -0.4486440392649922, 0.8542938770292996, 0.654883029764602, 0.5809006973085367, 0.09409247035334936, -0.49525336557022204, -0.3795695313164557], [-0.7229906828135948, 0.22997765242722545, 0.17314136626796717, -0.2213438244458305, -0.27459655713411324, -0.9866895866497243, -1.1416598321190663, -0.04436229673867317, 0.1173755983528135, -0.32400731755527623, -0.7202025726853276, 0.47040966479632673], [-0.0193677753324695, -0.35338752175129773, -0.06174190600116271, 0.058298019138127335, 0.6364031662626782, -0.23796225045008387, -0.0423268123632987, 0.18092325361335487, -0.32762816798349004, -0.4649559229367459, -0.248269696823738, 0.0642456542893035], [-0.7151336656034207, -0.10762370688121028, -0.0217979195394403, -0.07073971090921423, -0.014678519234987475, 0.5382736803971372, 0.8057957269456293, -0.8976208448858269, 0.1781215998567951, -0.6567925028256778, -0.4491225127614921, -0.36084576783084754]], "biases": [[-0.03097762055679029, 0.02801841653923456, -0.05663719201985171, 0.11206014206014656, -0.01995987968740745, 0.06860190329504506, 0.021501249456964064, 0.029066511350439597, 0.09580993254067591, 0.003500712430339798, 0.025049279943015704, 0.06225784483579619]]}, "layer3": {"weights": [[0.45074655368148864, 0.4017353369742873, -0.30895688641329466, 0.3961404075480137, -1.1840619241068335, -0.04448458283411594, -0.6921709556096827, -0.10014309566350005, 0.08433063491894088, -0.385471995108157, 0.26981820507002574, 0.3310078112019873], [0.01774853269525042, -0.881303042299307, 0.4256646466386131, 0.6073832777709978, -0.8947854673943019, -0.5884787836112454, 0.2083359040868309, -0.24215002894394483, -0.7366795188490867, 0.6451086424423256, -0.053997007919799646, -0.331507527724334], [-0.1946149357494052, -0.5743496796096854, 0.4931975299386462, -0.9616863160489061, 0.11150641537554562, 0.25659580248750113, -0.5272074957158797, -0.4519106335745715, 0.23181400353878134, 0.05723972358594393, 0.3404452436718251, 0.3731981030478721], [-0.7930534326695629, -0.19158618356517854, 0.5228656252445021, 0.5170683055283891, -0.17027618172718398, 0.5506917066660562, -0.012347467542608712, 0.24576037176716325, -0.016546921425191714, -0.8400720314243453, 0.5968392554312367, 0.11980671628306494], [0.9454671380631281, -0.2673744660848779, -0.34496881436457894, -0.055256724974165415, -0.28423487253753266, -0.28003167120810357, -0.07735186371502947, 1.1481671823082555, -0.6247338164199923, 0.5036263633421902, 0.0054440413654051195, -0.776507482708935], [-0.5799682382414737, -0.11017650841179022, -0.4145574989624414, 0.02581056922361187, -0.6497928077814562, 0.6377929030713465, -0.1889157462267276, -0.8238005724699048, -0.8466122475425286, -0.3839628496324722, 0.33674944285250896, 0.3543367885710432], [0.0994460021288757, -0.4687126938854679, -0.011677981889495063, 0.18900353149887292, -0.9327486097118296, -0.02653312145986949, 0.08399748912934168, 0.5441597776501653, -0.742225171517253, 0.2598095505877246, -0.3390228094502453, 1.1258453135418771], [-0.23934109666852096, 0.24719416334619643, -0.12500055208131713, -0.8700512050380049, -0.1560531922578875, 0.07186348348326979, -0.16883950727681382, -0.8023913815023993, -0.5203515603859419, 0.41092022139683615, 0.12059051717051533, -0.13917197124483272], [0.44039732146216126, -0.04279534267265965, -0.768117562328923, -0.4895919176219793, 0.07380087199370398, -0.5000125355027989, 0.12448817354836904, -0.6260358257938193, -0.34999857977799254, -0.020776182881307406, 0.19222575168824585, -0.6331313544391782], [-0.027766474150153993, -0.27801452914035407, 0.1919952640970667, -0.11480104657259974, 1.3215711240673138, 0.2248839037541029, 0.24303712179321163, -1.0081620863263514, -0.9636868283771749, 0.23175205194653742, -0.3073169836873414, -0.5515349005905856], [0.12733574529864883, 0.3490387328791279, 1.0157138281107314, -0.8274672393449662, 0.2706721421399464, 0.2725051854105951, -0.18166260356220362, -0.030732116526480432, -0.8401966947950505, -0.8830846864135273, -0.2343748601495383, 0.8469187845086551], [0.36589722391972057, 0.05983565569153512, 0.36256813114699965, -0.640187854295748, 0.7833958566361654, -0.8305894521248687, 0.48538483625679063, 0.04966526051175513, 1.073146451387851, 0.1382941105371169, -0.4386450169957258, 0.14326450534263846]], "biases": [[0.047609946117986496, -0.07353222926221478, 0.059478410304053396, 0.1262741660466873, -0.2555773935536174, 0.031677567785017846, 0.02564322932119668, -0.07608338719434703, -0.04394848491296512, -0.08394814920878538, 0.13403906114534442, -0.039884682081981995]]}, "layer4": {"weights": [[1.3325838854908283, -1.3023862906701464, -0.687051601742488, -0.3259433075521394, -0.2073897596711247, -0.9201765697844095, 0.367188480915502, 0.2096168252591005, 0.14266818679795493, -0.8047551638497882, -0.05775543471221676, -1.6715444082440307], [-1.0712364627283908, 0.835548350797539, -0.808409667968412, -0.47376129846628556, 1.1283396272605335, 0.6532125258758412, 0.9940721573940114, 2.051025882396761, 1.291403386249604, -0.3462810116912986, -0.8446072137736758, -0.016762038703851814], [1.3537116722910247, 0.802390444907994, 0.18073828465233524, -0.9278377864682807, -0.8957478148373974, -1.0178057758735253, -0.10815250914492024, -0.4998392913801739, 0.21770730906749022, -1.506174318433507, -2.673152403000727, 0.229002173727504], [-0.5549339414648281, 0.43772001014150813, 0.5499176556213887, 0.9930591768615563, -0.16384945336445286, -0.3318725986127182, 0.04340880959105851, -0.3185609960999563, -0.6918802984272818, -0.1273690625908586, 0.7832632203101134, -0.6077766769214992], [0.286958084340969, -0.408765748657994, -0.37999241126539063, -1.5470566339282756, -0.7934745332490823, 0.08389112397982872, -0.49826838589832945, 0.9305169398259803, 1.48151954266071, 0.36803384279476814, 1.7841997754131598, 0.02545958027893558], [1.1042706258049002, 1.906744622666015, -0.8254868799099688, -0.49188304246579434, 0.25949383003600807, -3.0141254504824144, -0.9870569050425734, 0.06810299585438635, -0.6997815825736915, 0.508281854966314, 0.1859099425992031, 1.4404947946854827], [-0.787646046463936, -0.06332895947467056, -0.2999078760418784, 0.5823895293039703, 0.9888388205240191, 0.4448330809005794, -0.9023422733140822, -1.1224649842396097, -0.7058862686957627, -0.6208660607773054, -1.0937844200919289, -0.8380366231847514], [0.22698183101973143, -1.5632056932813674, 0.17962091085962376, -1.3599922913097773, 0.5719929787024495, 1.0027922096301294, -0.8084746009934943, 0.7581357035746127, -0.1362429596702657, -0.01006087666113257, -1.112706574818835, 0.13291310241393522], [-0.15743286767858528, -1.3453023839638023, -2.0465086675491144, 0.7451423690275792, -0.3434722068035665, -1.065382920806317, 0.554654862528401, -0.41589680415054553, 2.2935048320373546, -0.7190832812381106, -1.0687822922307242, 0.39174646237030447], [-0.15421199015783357, -0.42295908374954, 0.5025917206511228, 0.07646724269587306, 0.2272478125156999, 0.912496629472595, -2.034185072347412, -0.6477464124375296, -1.5071779371189775, -0.321999320671269, 0.8868302929098035, 0.12347569382010654], [-1.3599594234932224, -1.8788761180563207, 0.8078269659664601, -0.3606397909578887, -0.5567982158056524, -0.3029380265757109, 0.6853691148003873, 0.07114034991311492, 0.2874000635260374, 0.0524665565656212, 0.9530641891538557, -0.39603331191598706], [0.027617581185351906, -0.36258010903161414, 1.4260337610736327, 0.6906562492982382, 0.7236034420908941, -0.5248255866172791, -0.323656370579969, -0.5150715030979122, 1.009121362143016, -0.03814748522534575, -0.5004502800530612, -1.3932990087970683]], "biases": [[-0.055555520131701314, -0.04842835159017362, 0.06939678115358726, 0.1102492821897994, 0.012605379307616807, 0.027205762988546114, 0.02317952553371994, 0.11082798302905456, 0.04435625546513927, 0.0510020041618284, -0.037756507923311214, -0.04420226646361854]]}, "layer5": {"weights": [[0.8774319631292631, 0.5394965913396519, 0.09605232924627792], [0.8658475827884059, 0.1960748768841578, 0.26368445345734315], [-1.0434709710750885, 0.29226408522713593, 0.4108234282303799], [0.5455264308711814, -1.2683130803448024, 1.1846764940338725], [2.1542465874028185, -1.4242429143361945, 0.735105141019573], [1.2419514325048033, 1.6651687749666246, 0.39727884808137187], [-0.34331458642431717, 0.9543047505218325, 0.7526054274911865], [-1.1879978639572766, -0.4740347784805148, 0.10652134743528771], [-1.3858173235602433, -1.1266668001716493, -0.7361143884341179], [-0.37350339976856256, 0.22977629180345985, -0.0010288516430658867], [0.03011792366535536, -0.7011448732549347, -0.009656234227230567], [-0.34217389553723765, -0.3861451711208209, -0.2818773712639474]], "biases": [[0.17041210229930648, 0.1320548667014448, -0.02863439792554652]]}}, {"layer1": {"weights": [[-0.17956143199512078, -0.4314237658127922, 0.9689725927029007, 0.31104254182318797, 0.22814508208011813, 0.6268448411438055, 0.09513850612509869, -0.6189923901112843, -0.5449851489579574, -0.9031770891308731, 0.2834858114379135, 0.16702918617358542], [-0.05422839223530544, -1.0912049823948435, -0.050152752047766834, -0.4191978077509073, -0.2349996044943416, 0.2545677429395006, -0.4363184824032161, 0.5045393549788195, -0.567744340046762, -0.09786144133357519, -1.3208361433781362, 0.43114103449846186], [-0.34558943022969835, -0.6470962743808173, 0.25920083933841864, -0.08616143703673741, -0.5259808937645303, 0.3757596533474208, 0.3049964533437026, -0.15372874887279617, -0.2877579861013314, 0.2517464425481565, -0.3390843546010132, -0.5516881948689307], [0.3237550797905572, 0.35311765646617044, 0.06314207211425862, 0.3650535022346689, -0.27443079825954175, -0.09203096083859476, 0.678958320056554, -0.46177306161930687, -0.631188090947568, -1.2317026057034646, -0.3213222093480199, -0.06897598580241825], [-0.08479280750184214, -0.2109903287535714, 0.1299027723074463, -0.33234023797313106, -0.1848772445678108, 0.11787669217832235, 0.9704659573833606, 0.949847479772248, -0.37085560876322116, -0.06468925030757489, 0.8566783784074179, -0.30557267496035356]], "biases": [[-0.0007461415798291921, -0.011008551021652083, 0.04304476679891836, 0.12057585326037186, -0.02357557175091828, -0.1774441344301924, -0.05856285179305037, 0.13701990277891088, 0.08584695921476024, 0.059206237232519304, -0.008733087816358875, 0.005984713545886545]]}, "layer2": {"weights": [[-1.0161425608023864, -0.07354135216229928, -0.25023506123916134, 0.28295228648383874, 0.33622439083500855, 0.8223752816304568, -0.693375825893875, 1.0445524746174417, -0.13894582416197077, -0.617740099538681, -0.4139421731523454, 0.09497885801705656], [0.39297745393842975, 0.6579587987938728, 0.18402593777051737, -0.07796228664571737, 0.044468201933227355, 0.2598032427979988, -0.08249219192665386, 0.6603411520694118, 0.5751995412227435, -0.26808273953996165, -1.3463282494343978, 0.4591284723545748], [0.28153258042624896, 0.45452109880847646, -0.5608151770534914, -0.3739357391486723, -0.7007699966759209, -0.6724098630519815, -0.1260663964906459, -0.4314950943304356, 0.3155283309721221, -0.31640935661373903, -0.2592935333041575, -0.23811495664397103], [-0.6101275686903953, 0.4076927609965918, -0.20915899322196385, -0.3544684007181871, -0.08961562910342971, 0.9761246976341675, -1.0927686335061022, -0.23651927926245242, -0.29569393922680376, -0.2042620564196161, -1.0639862364621024, -0.015950199835957315], [0.7717817268235616, -0.1722887810343527, 0.17643211885790405, 0.5937045310917292, 0.24323713485457363, -0.4246850250855261, 0.5154243861255163, 0.18354930961154398, 0.5430822832294491, -0.1628102560136978, 0.0887242926996453, 0.20067245768463435], [0.12854956226046457, 0.11737132702870032, -0.23564504600889158, 0.27877764671060107, -0.13541744190037602, -0.09688744010467609, -0.5928188628380886, -0.06029450327438443, 0.17096003607678234, -0.3096967968171263, 0.31482946340626566, 0.32238850091654936], [0.182450528245786, 0.3995055256237501, -0.3792779266609376, 0.7996106064161554, 0.03166414335851096, -0.8657846801335118, 0.3695241274454184, -0.19153927727304176, -0.5201053374532393, 0.4878882516705177, 0.004568213363191543, -0.15754626676129047], [0.41641959619073354, 0.10350416433113946, 0.2887033973446127, 0.6513849222092762, 0.4404123232738625, -0.6319130094444975, -0.3800853235898831, 0.3971984345048033, 0.32399896751664403, -0.6721871283141716, 0.6193420086387191, -0.13930874635074292], [0.6084407337442574, 0.8226451483364363, -0.7138246845445777, -0.22095277859686674, 0.4134728222404357, -0.4486440392649922, 0.7751993921318663, 0.5950858583980343, 0.6720413221008696, -0.02940661263827851, -0.4983996708989761, -0.3782090130634991], [-0.6859966833486268, 0.17642395436861785, 0.1758010531046118, -0.2213438244458305, -0.27459655713411324, -0.9881362200461032, -1.1070941655812079, -0.04635229597515381, 0.09997975012941968, -0.32400731755527623, -0.7044785635446096, 0.46481370436004166], [-0.024774468760875117, -0.3354805625174578, -0.1573672679466801, 0.09090866279050534, 0.6537546836060779, -0.24788378123629937, -0.04881650496616352, 0.1967331176868335, -0.31252036130026983, -0.46649661486763516, -0.22167530757387444, 0.0642456542893035], [-0.7503278251237078, -0.10762370688121028, 0.004331986843952129, -0.07073971090921423, -0.325365025010772, 0.5393435767890431, 0.8301349622135816, -0.8976208448858269, 0.1833223641436321, -0.6509935131859546, -0.4491225127614921, -0.39067660504036017]], "biases": [[-0.016340463624609912, 0.02801841653923456, -0.05663719201985171, 0.11206014206014656, -0.01645132962081686, 0.06860190329504506, 0.022253017769960068, 0.07976816582424447, -0.009244052122632462, 0.005854514681998282, 0.025049279943015704, 0.06225784483579619]]}, "layer3": {"weights": [[0.4833453350319351, 0.34794368743113424, -0.30987879278172636, 0.19200470314895002, -1.1802484169297771, -0.04448458283411594, -0.7027425378839829, -0.16076545560753958, -0.0764717186392833, -0.41026801573181493, 0.22731685944144456, 0.33085110160475883], [0.01761949531704914, -0.8816002266134761, 0.3446352985867158, 0.6078274818954356, -0.8386226925484541, -0.5884787836112454, 0.17492403418712002, -0.19464355221133217, -0.7348056233114523, 0.6451086424423256, -0.053997007919799646, -0.2828322623545984], [-0.21720272591605405, -0.5743496796096854, 0.5939309604762166, -0.9556898117516339, 0.11994544468761739, 0.24884174470614961, -0.48972461113501153, -0.4519106335745715, 0.2781035322978141, 0.05723972358594393, 0.3444004800171169, 0.4153647379064171], [-0.7882354294905326, -0.19158618356517854, 0.5222323128975795, 0.563894849270246, -0.16990115499745698, 0.569945926405764, -0.012064143081933685, 0.12992024336424957, -0.0270433656412506, -0.8400720314243453, 0.6825015843087758, 0.1129300668777796], [0.8386167970818745, -0.22391262709253784, -0.34630734831334675, -0.055256724974165415, -0.26733178738477764, -0.28334638198620543, -0.0630014992763537, 1.0778025115309937, -0.6293162848910804, 0.5060848179597845, -0.007778257580174516, -0.8348866527953326], [-0.5799682382414737, -0.11028769770561692, -0.4145574989624414, 0.06112544921555464, -0.6528880747522952, 0.7194280125407265, -0.20686912965502477, -0.8238005724699048, -0.8466122475425286, -0.463155851188029, 0.33674944285250896, 0.3519661266292209], [0.0994460021288757, -0.39370669798580965, -0.027115316904288804, 0.18355944866699064, -0.9327486097118296, -0.02332651536817397, 0.1631375649659525, 0.5488671858322656, -0.7401171191470877, 0.2571149496545441, -0.3107111839774005, 1.1258453135418771], [-0.25410699821250216, 0.16299681598466348, -0.1344104495225884, -0.8524339374518279, -0.1560531922578875, 0.11355734176883796, -0.23113207494038918, -0.8032353814552153, -0.517358625371675, 0.44798545416309077, 0.12096078930182302, -0.1766235100902347], [0.44039732146216126, -0.07104725672593046, -0.7606792259139471, -0.47212386143251817, 0.06098266167864977, -0.5000125355027989, 0.12448817354836904, -0.6236674205936206, -0.3917730937691526, -0.07065774575120547, 0.19222575168824585, -0.6327431968405324], [-0.026979791553289695, -0.27801452914035407, 0.1919952640970667, -0.06592717215562888, 1.3865865351760402, 0.2248839037541029, 0.21623644364940348, -1.0081620863263514, -0.9604961666027967, 0.1536993239436254, -0.3073169836873414, -0.5515349005905856], [0.10856971097479025, 0.34640539288908023, 1.0157138281107314, -0.8111980273657113, 0.2706721421399464, 0.2725051854105951, -0.1797386965702425, 0.028748146165884406, -0.7957717007553831, -0.8830846864135273, -0.24356364297908756, 0.980975364912995], [0.350770291179426, 0.009107730663155233, 0.35460526665285896, -0.6298227320034586, 0.7966953419674487, -0.6619836483233137, 0.35302875123183675, 0.1050181831562528, 0.9142043191246058, 0.18252881951261274, -0.43632273654221637, 0.22304031957622938]], "biases": [[0.047609946117986496, -0.07353222926221478, 0.017991048356890582, 0.1262741660466873, -0.23089532507358418, 0.031677567785017846, 0.02564322932119668, -0.07608338719434703, -0.04394848491296512, -0.08394814920878538, 0.13403906114534442, -0.031222769372133044]]}, "layer4": {"weights": [[0.5670083012254392, -0.1526517077252693, -1.20712408536864, 0.10955443625899564, 0.4784959183035465, -0.3751451776658216, 1.0960666931134413, -0.4871969731645639, 0.797655101719894, -0.37089583826185557, -0.16425452475055868, 0.8950767703403175], [-0.3792384488215858, 0.1392751529475105, 1.455257401990803, 1.4981700603751302, 1.3652103371623538, 0.5934303298394034, 0.4021155563616144, -1.1341286983519576, -0.22945134289718355, -0.3761476684984026, -1.7599908165735954, 1.2185909618939363], [0.20159574957211018, -0.26171789562165, -0.5844629217680658, -1.5857173431983205, 0.6231980898001348, 0.19231648732363096, -0.6739453107789252, -0.7892841061897209, 0.5027556141989429, 0.44309539040518553, 2.730460537450724, 0.9594248558327154], [0.4246884651365948, 0.9386262881440954, -0.6209323429856454, 0.3271435579955521, -0.6366951066913986, -1.5592652707527317, -1.132147228705506, -0.45854604463229415, -1.2402221766666757, 1.5464023366278827, 0.05633253819596917, 0.38415446025647443], [-0.8780872317223013, -0.286967092913839, -0.13669561154805393, -0.9586237049938251, -1.4748418587076, 1.0048368567068122, 0.6944624338795115, -2.1250341147044063, 0.5284502374017173, -0.3316140055669173, -1.24558326630236, -1.215384159750838], [0.41610516056771213, 0.37444746545612967, 0.15505591850081804, -0.6970713757025068, 0.8012924151385873, -0.7806816270020837, 0.30944231461658334, 0.07083349337759913, -0.786067193664626, 0.1316999452234403, -1.2390115985898524, 0.5666677319673613], [0.18781929546286852, -1.443603631103465, -0.9934512716645063, 1.397584371453138, 1.1187396427540774, 0.7461365144946118, 1.559288603862099, -1.2629802439781097, 0.8571796230062694, -0.9562207038688344, -0.7663571083940747, -0.008237145100364659], [-1.4688890857517078, -0.5417961949239016, 0.6133684677238539, 1.4394723649136736, -0.05617445303350515, -1.9608028778629132, -0.8702517875370201, -1.188139923383977, -0.9813410295021441, 0.6081093437114661, -0.5409492439285867, 0.9211527486207951], [0.02680316851537649, -0.2103358174722637, -1.4873535727653389, -0.5277582006803898, 1.0715837465402418, 0.641167386765348, 1.1622617405450175, -1.1072997690007564, -0.06660104726347513, 0.8514117724064647, -0.7910239840326375, -0.4506842560483565], [0.3187204222648909, -1.5790234534798382, 0.020445662201231816, 1.7003708500233885, -1.4847583782832547, -0.829830265608518, 0.1726438568003855, 1.03087613078271, -0.3427933119762286, -0.028210138622794482, 1.022490850850392, 0.8153395973795549], [2.4408593711062943, 0.4436578344641765, -0.6455745647818054, -0.6053556389751371, 1.0730610719125733, -2.397166006761006, 0.021503279498197064, -0.49421347143446176, 1.6588072251581316, 0.7326539452907099, -0.4769437799382423, 0.12684207614070891], [-0.6730599674781795, 0.5716615741468337, -0.2602186010151544, 0.25201433988408245, -0.1854099100445272, -0.10890991181363488, -0.23569148438792062, -0.6017664333102108, 0.7058848698407658, -0.5850963105369056, -0.021202284580741283, -0.7447341662431017]], "biases": [[0.018294164890665245, 0.05487806995074454, 0.05844731053127327, 0.15306608485207474, -0.014102024491238617, 0.18215315800462267, 0.01979856992635343, -0.005837564508402194, -0.08263469998421119, 0.06575233305512465, -0.0674134217386655, -0.08900225945924375]]}, "layer5": {"weights": [[-0.08433818638716171, 0.7099114718147548, 1.5615638070864937], [-0.5657215432357002, 1.1408247001351992, 0.3831914522945498], [-0.16031234729094218, 1.0016728299687263, 0.16909367522444754], [0.9910661308110587, -0.8495223043728453, -0.35343878647891275], [0.11799431918969423, 0.2830863727900603, -1.3153655441130105], [1.5905219107401645, -0.6368255257817991, -0.19379553288181117], [0.2143643720485079, 0.4869139176186977, -1.1523214939104571], [0.7131552574833472, -1.809448914018036, 1.1742321719659856], [0.35113719115782366, 0.04735876368065434, -0.33187101974444766], [0.026641108345994795, 0.053641182136803835, -0.4381151835460045], [-0.07533895564032234, 0.06894914606551944, -0.17689410465939864], [0.5662710610382508, -1.3887285973740628, 0.19072480442872078]], "biases": [[-0.02247465621972294, -0.05666821263084049, 0.11988976718779043]]}}, {"layer1": {"weights": [[-0.1559308157806019, -0.4314237658127922, 0.9689725927029007, 0.31104254182318797, 0.22814508208011813, 0.6268448411438055, 0.09513850612509869, -0.5876745382410878, -0.5555747549356813, -0.9031770891308731, 0.2834858114379135, 0.16702918617358542], [-0.05422839223530544, -1.0912049823948435, -0.050152752047766834, -0.45869066887208043, -0.2349996044943416, 0.2560551615904269, -0.3697615865779299, 0.5045393549788195, -0.567744340046762, -0.09786144133357519, -1.3208361433781362, 0.43114103449846186], [-0.34558943022969835, -0.6470962743808173, 0.25920083933841864, -0.08616143703673741, -0.5259808937645303, 0.40319892376570576, 0.3049964533437026, -0.15372874887279617, -0.30835608501748435, 0.3624244034614307, -0.3390843546010132, -0.5516881948689307], [0.29797941599924516, 0.35311765646617044, 0.08786637594587739, 0.3650535022346689, -0.27443079825954175, -0.09203096083859476, 0.9361956842031958, -0.451709510046702, -0.631188090947568, -1.2317026057034646, -0.3213222093480199, -0.06897598580241825], [-0.2013536215105171, -0.2109903287535714, 0.1299027723074463, -0.33234023797313106, -0.1848772445678108, 0.11787669217832235, 0.9807081700598306, 0.9356900767276228, -0.3999187837861077, -0.06468925030757489, 0.8566783784074179, -0.2167139080354608]], "biases": [[-0.0007461415798291921, -0.011008551021652083, 0.04304476679891836, 0.12057585326037186, -0.02357557175091828, -0.1774441344301924, -0.05856285179305037, 0.13086587165143182, 0.08584695921476024, 0.059206237232519304, -0.008733087816358875, 0.005984713545886545]]}, "layer2": {"weights": [[-1.0161425608023864, -0.07354135216229928, -0.25023506123916134, 0.28295228648383874, 0.33622439083500855, 0.8223752816304568, -0.693375825893875, 1.04568582203286, -0.13894582416197077, -0.6199679526438957, -0.4139421731523454, 0.09497885801705656], [0.39297745393842975, 0.6381669014184888, 0.23092862528418756, -0.07796228664571737, 0.044468201933227355, 0.2598032427979988, -0.08249219192665386, 0.6603411520694118, 0.5751995412227435, -0.26808273953996165, -1.3529114545958543, 0.41320758490475784], [0.28153258042624896, 0.45452109880847646, -0.5608151770534914, -0.3739357391486723, -0.7007699966759209, -0.6724098630519815, -0.10276572892360646, -0.4567032504179733, 0.3155283309721221, -0.3249258027650047, -0.35416663716754127, -0.23811495664397103], [-0.6101275686903953, 0.4076927609965918, -0.2686919593643895, -0.3544684007181871, -0.08961562910342971, 1.1334424458994756, -1.0927686335061022, -0.22412747518701553, -0.29569393922680376, -0.2042620564196161, -1.0639862364621024, 0.0034925639150695034], [0.8236286960724386, -0.1722887810343527, 0.17643211885790405, 0.6891486101740218, 0.24323713485457363, -0.4246850250855261, 0.5154243861255163, 0.18354930961154398, 0.5579941893405516, -0.1628102560136978, 0.0887242926996453, 0.20067245768463435], [0.0623955960564678, 0.11737132702870032, -0.23564504600889158, 0.2692399399024835, -0.13541744190037602, -0.09688744010467609, -0.5928188628380886, -0.07265903640662787, 0.246740430101137, -0.3096967968171263, 0.24956957334361668, 0.32238850091654936], [0.09388311153394285, 0.3995055256237501, -0.3792779266609376, 0.7996106064161554, 0.03166414335851096, -0.8669658798326282, 0.3695241274454184, -0.19153927727304176, -0.6736943080584799, 0.4878882516705177, 0.004568213363191543, -0.15754626676129047], [0.40417985670524503, 0.10350416433113946, 0.2887033973446127, 0.6513849222092762, 0.4404123232738625, -0.6319130094444975, -0.3800853235898831, 0.3971984345048033, 0.29241975641910173, -0.6721871283141716, 0.6193420086387191, -0.13930874635074292], [0.6084407337442574, 0.8018781787150343, -0.7138246845445777, -0.19966024936137175, 0.4134728222404357, -0.48790171013793376, 0.7751993921318663, 0.5950858583980343, 0.623667187545327, -0.02940661263827851, -0.4983996708989761, -0.3782090130634991], [-0.6859966833486268, 0.17642395436861785, 0.1758010531046118, -0.19545702779338311, -0.27459655713411324, -0.9886879967510931, -1.0810497060981974, -0.039859746238550736, 0.10670351889683201, -0.32400731755527623, -0.7184516136860717, 0.46481370436004166], [-0.024774468760875117, -0.3426433462109938, -0.1573672679466801, 0.09090866279050534, 0.6537546836060779, -0.24788378123629937, -0.04881650496616352, 0.1967331176868335, -0.31252036130026983, -0.46649661486763516, -0.22167530757387444, 0.0642456542893035], [-0.7643658498986878, -0.10762370688121028, 0.004331986843952129, -0.07073971090921423, -0.18083195867972135, 0.5393435767890431, 0.8301349622135816, -0.6959196829092057, 0.1833223641436321, -0.6509935131859546, -0.4491225127614921, -0.3691293861635649]], "biases": [[-0.022195326397482062, 0.02801841653923456, -0.05663719201985171, 0.11206014206014656, -0.01645132962081686, 0.04834726981145185, 0.021651603119563264, 0.07976816582424447, -0.009244052122632462, 0.005854514681998282, 0.025049279943015704, 0.06225784483579619]]}, "layer3": {"weights": [[0.4833453350319351, 0.34794368743113424, -0.30987879278172636, 0.19200470314895002, -1.1802484169297771, -0.04448458283411594, -0.7027425378839829, -0.1685054375544412, -0.04178792375548109, -0.40009860508581735, 0.28779733991667833, 0.33085110160475883], [0.0811926458255629, -0.8816002266134761, 0.3446352985867158, 0.5070430262980912, -0.8386226925484541, -0.5884787836112454, 0.17492403418712002, -0.19464355221133217, -0.6902567913032578, 0.6451086424423256, -0.053997007919799646, -0.30230236850249265], [-0.22181867518561219, -0.5743496796096854, 0.5541606188011525, -0.9556898117516339, 0.11994544468761739, 0.24884174470614961, -0.48972461113501153, -0.4519106335745715, 0.2781035322978141, 0.05723972358594393, 0.3444004800171169, 0.30704251974156127], [-0.8214693064787066, -0.19158618356517854, 0.5222323128975795, 0.563894849270246, -0.16990115499745698, 0.569945926405764, -0.02524741491134059, 0.07556009521441365, -0.0270433656412506, -0.8400720314243453, 0.7154611011466625, 0.1129300668777796], [0.8386167970818745, -0.22391262709253784, -0.34630734831334675, -0.055256724974165415, -0.26733178738477764, -0.28157115671337984, -0.0630014992763537, 1.1312801267462511, -0.6293162848910804, 0.5060848179597845, -0.007778257580174516, -0.8348866527953326], [-0.5799682382414737, -0.11028769770561692, -0.4145574989624414, 0.06112544921555464, -0.6528880747522952, 0.7248768211358398, -0.1929171979517884, -0.8238005724699048, -0.8466122475425286, -0.4326079277693796, 0.33674944285250896, 0.3519661266292209], [0.0994460021288757, -0.39370669798580965, -0.02537898287739978, 0.18355944866699064, -0.9270961376383087, -0.026796591590478137, 0.1631375649659525, 0.5488671858322656, -0.7401171191470877, 0.2571149496545441, -0.3107111839774005, 1.053350376412128], [-0.26569524502487685, 0.16299681598466348, -0.12286138249342379, -0.8824190893890769, -0.1560531922578875, 0.0968797984546107, -0.20723524014048716, -0.6389770178121527, -0.517358625371675, 0.44798545416309077, 0.12096078930182302, -0.1766235100902347], [0.44039732146216126, -0.07104725672593046, -0.7811588820325767, -0.47212386143251817, 0.06725160391551446, -0.5000125355027989, 0.12448817354836904, -0.6236674205936206, -0.24685135889468993, -0.031262327152820665, 0.19222575168824585, -0.6327431968405324], [-0.026979791553289695, -0.27801452914035407, 0.1919952640970667, -0.06592717215562888, 1.3548119740267786, 0.19339735826374269, 0.21623644364940348, -1.0081620863263514, -0.9604961666027967, 0.17046540404776872, -0.3073169836873414, -0.5515349005905856], [0.09613835968190072, 0.34640539288908023, 1.0157138281107314, -0.7792634892315613, 0.2706721421399464, 0.3481876442333314, -0.1797386965702425, -0.002307905167719719, -0.7957717007553831, -0.908697561001198, -0.24356364297908756, 0.9211903433060611], [0.350770291179426, 0.009107730663155233, 0.35460526665285896, -0.6298227320034586, 0.7966953419674487, -0.6207437342758387, 0.3536232441957651, 0.1050181831562528, 0.9840978240134162, 0.18252881951261274, -0.43632273654221637, 0.21077240732202743]], "biases": [[0.047609946117986496, -0.07353222926221478, 0.017991048356890582, 0.1495557130747305, -0.2405426574662902, 0.031677567785017846, 0.02564322932119668, -0.07608338719434703, -0.04394848491296512, -0.08394814920878538, 0.13403906114534442, -0.031222769372133044]]}, "layer4": {"weights": [[1.716501817473056, 0.34846878477345583, 0.1841245737151997, 1.4293268060454, -0.04873938641085921, 0.32907306138301273, 0.0624290992200076, 0.3152058728459806, -1.1402249354315837, 0.3358611767709491, 1.6843317752530171, -0.7157200493309281], [-0.38302444832161203, -0.9840825861149202, -0.12994317578388556, 0.39161702984100594, -0.4695279259584027, 0.9910912707910072, 0.6381889255510067, 0.010354624334447787, -1.026636667415313, 0.21695661624322957, 1.2889797493341413, -1.7678768187312541], [0.22493254125386533, 1.6164558053752753, 0.45798281356437054, 0.5123536757579213, 0.3428792685233806, 0.4775625396468696, -0.08971716849711485, 0.2924212127014159, 0.8388653154002352, 0.5110196469389532, 0.022640220455463954, 1.1023445348590513], [-1.417733265809037, 0.7038799107687977, 0.17080147993583658, 1.1576493256112654, -0.12367690165885459, 1.0885685666864506, 0.5156313056784191, -0.3661989847376315, -0.02300590070763728, -0.6024511809364432, 0.25097280106582426, -0.5733805171172092], [-0.7268867758186611, 0.4349931337371912, 0.013252171148657595, 0.09527053921184797, -2.659643804428917, 0.5477691101682446, -0.5660359195270996, 0.8208820457505187, -0.9795182938773306, 0.12798016470269924, 1.4466317146882643, 0.6733026905794237], [-0.04959845804423416, -1.6041580341773485, -2.518842121120339, -0.07036189799787632, 0.7392043792230956, 0.48840708153814505, -1.858707349094916, 1.3407785688887726, -1.5107020644012614, 1.3029062251986305, 1.2750908153089435, -0.9511735905123719], [-0.7945644702817306, -0.9226584615599271, 0.1370858442261348, 0.9335990427768505, -0.44754821464795375, 0.8310264031124209, -1.8999262316140761, -1.191711036964182, -1.491004748923198, 0.010349107017353214, -1.1485142648238489, 0.8462212402470121], [0.49987062732423976, -0.7337345844866664, 1.0856307824125841, 1.9921364550439185, 0.6790729283885172, 0.6158914030417773, -0.759530472377616, 0.22637999443813264, 0.008524507753330647, -1.6605703514396548, -0.8296365180413825, 0.4755481767200188], [1.1270559026772051, -0.06268937344760495, -0.3828890106991384, -1.8502102631820987, -2.5215730671316754, -0.1966003674394108, -1.7095612965489122, 0.8723737823672593, -1.3085074199227809, 0.7858029482015828, 0.7476453864071274, 1.003209483987973], [-0.0783884042680587, 1.6379874286000178, -0.32487208856026867, 1.5619233819480758, -0.28040630444834813, -0.30717932434268824, -1.3738855065373365, -0.3764123108141665, 1.7373399377878578, -1.2851549022509376, 0.7181378916299676, -0.98129252798991], [1.0504705392590568, 0.2430316330278907, 0.4933462549224497, 0.8380861422885613, 3.1536515198594466, 0.5046065246299611, 0.27711126134050296, 1.0308000272491467, 0.8229126227878094, -0.9783340318300465, 2.630888774047242, -1.5579859472983197], [0.483093518895672, 1.7485863248799876, -0.46144924717657565, 1.1594138576507151, -0.037452483989146294, -0.2285682851783492, -0.02788753177283326, 1.0099245117444033, -0.6479314473488412, 1.7719010893056821, -0.12500993006370445, -1.7794095371464858]], "biases": [[0.11420753231557819, -0.04279013456252076, 0.11596266221429996, 0.042473667406056494, 0.0002298926663450088, -0.09635251801904608, -0.0855288582690653, 0.08006163938017452, 0.0008469442496225215, 0.11516452921470258, -0.02363468167959717, 0.210184442070818]]}, "layer5": {"weights": [[0.380581972140987, -1.0201582929438715, 0.4339730968206077], [0.7252175143776352, -2.3891056532195356, 0.29680259500455947], [0.29270495536393937, -0.6033124488037844, 0.7564311601855004], [-0.019016204567102766, 0.27301453155810046, -0.5269843992043788], [-0.6460149219203843, -0.46368957053414595, 0.6008429821928458], [0.13322203892396636, 1.661452352143862, -0.07866855799324209], [-1.101794181599993, 1.690986476987327, 0.2258793653153049], [0.4009818260218556, 0.7213008517873581, 0.2729513745990383], [0.04016947219816053, -0.38811057224607187, -0.2836377805863147], [2.1894939531748663, -0.60961946211932, 0.7930751971527255], [0.5378302375000652, -2.2151662048685035, 1.0064762756548944], [0.5431021766020755, -0.16400549439919138, -0.23893414189938222]], "biases": [[0.12383751608203147, -0.14261220492178267, -0.0805500630585887]]}}, {"layer1": {"weights": [[-0.16713596261088584, -0.4358036733028112, 0.9660809546056977, 0.3080995988831383, 0.267585687821592, 0.654455565218978, 0.19902823705030118, -0.5676141916999264, -0.6162688061002494, -0.9106856803567596, 0.2834858114379135, 0.174903549870183], [0.01641587784827648, -0.9352339264837342, -0.050138070389854364, -0.4191978077509073, -0.15118550449797596, 0.2672116982746875, -0.35312236262160834, 0.5045393549788195, -0.5751670556704551, -0.09786144133357519, -1.3004111331877386, 0.4752496960270808], [-0.3677544950069055, -0.6481558443171755, 0.27075479220165644, -0.09901172986376311, -0.5259808937645303, 0.3757596533474208, 0.37376552057611656, -0.16414330066156718, -0.300631797923927, 0.2517464425481565, -0.3060608322093886, -0.5526309835218155], [0.35404355923661074, 0.35311765646617044, 0.15043482624102592, 0.3488253405235192, -0.27272207568004936, -0.09203096083859476, 0.656248948918096, -0.3873636377675979, -0.631188090947568, -1.2317026057034646, -0.3213222093480199, -0.06404414819708164], [-0.1092409368453516, -0.20346897968533384, 0.16385849103498917, -0.3279250615968678, -0.20833618747648955, 0.11511010300426158, 0.9768673403061543, 0.9585280984055519, -0.37085560876322116, -0.06468925030757489, 0.858248341488374, -0.3102290162967178]], "biases": [[-0.0007461415798291921, -0.011008551021652083, 0.04742158746108782, 0.12201417475538143, -0.024928298278006016, -0.17554821019451755, -0.06047205694479093, 0.12932736386956206, 0.08584695921476024, 0.059206237232519304, 0.011371627066653196, 0.005984713545886545]]}, "layer2": {"weights": [[-1.0587697358155141, -0.07949972665976879, -0.24996801257514145, 0.28295228648383874, 0.24222610738161285, 0.8241720393130513, -0.6910402642978881, 1.0402037553655532, -0.07739131006288977, -0.6205249159201993, -0.4139421731523454, 0.08533162201809083], [0.39995150503687715, 0.6212823998099536, 0.18402593777051737, -0.07796228664571737, 0.1365729390831502, 0.2594063937494352, -0.08249219192665386, 0.6591824966873453, 0.5522443913344597, -0.2576062685787328, -1.3562655509876103, 0.41038388844257967], [0.27353372877638576, 0.5948966552819573, -0.5585875494687489, -0.37292486103395495, -0.8503251799380093, -0.8367207606873144, -0.10576898407726944, -0.43845326513226013, 0.3173711473448196, -0.3270549143028211, -0.22878417929066736, -0.23811495664397103], [-0.6404607980454818, 0.35159383877216327, -0.20915899322196385, -0.3579508349536824, -0.08961562910342971, 0.9785953259008351, -1.092747222666528, 0.008364304263350053, -0.2946325991327177, -0.19397092178815908, -1.0749180016397077, -0.0003562960512658066], [0.7997892383800232, -0.1722887810343527, 0.1643584278305788, 0.5934973247492562, 0.231581758711918, -0.3770331608565698, 0.5180810223554847, 0.18354930961154398, 0.5524022245488881, -0.09743444261600363, 0.08780329121782603, 0.20878976687886763], [0.170827016559017, 0.09233161892270794, -0.28517216142081386, 0.2751277037857024, -0.13494226724077946, -0.09688744010467609, -0.6290509007105478, -0.01085566265798113, 0.18371368091015158, -0.3096967968171263, 0.20381142314657708, 0.32238850091654936], [0.2565443433909228, 0.3417108822746305, -0.3792779266609376, 0.7998623803208487, 0.03166414335851096, -0.9076358781114724, 0.3736522629415892, -0.19084285534169804, -0.43857559186880674, 0.4878882516705177, -0.03672383130892426, -0.15754626676129047], [0.3394741103530394, 0.13756036652669368, 0.2854106920758709, 0.6426726298163854, 0.41869449346010823, -0.6319130094444975, -0.3800853235898831, 0.3967220086933186, 0.2861419912546134, -0.6736476800184636, 0.6216021791072878, -0.13930874635074292], [0.6080040505553573, 0.8543133996131845, -0.7148857892053724, -0.20764494782468237, 0.4134728222404357, -0.4486440392649922, 0.8257457902033931, 0.6249844440813181, 0.823323848283298, 0.032342928857535425, -0.49682651823459906, -0.37888927218997737], [-0.6446981236533662, 0.20320080339792165, 0.17447120968628949, -0.2213438244458305, -0.27459655713411324, -0.9874129033479138, -1.124376998850137, -0.04535729635691349, 0.10867767424111659, -0.32400731755527623, -0.7123405681149686, 0.4676116845781842], [-0.28140894522464954, -0.3444340421343778, -0.1095545869739214, 0.07460334096431634, 0.645078924934378, -0.24292301584319162, -0.1010358648291104, 0.18882818565009418, -0.32007426464187994, -0.46572626890219054, -0.23497250219880622, 0.0642456542893035], [-0.7327307453635643, -0.10762370688121028, 0.007314580549502393, -0.07073971090921423, -0.17002177212287975, 0.5388086285930902, 0.8179653445796055, -0.8976208448858269, 0.1807219820002136, -0.6538930080058162, -0.4491225127614921, -0.37576118643560386]], "biases": [[-0.0236590420907001, 0.02801841653923456, -0.05663719201985171, 0.11206014206014656, -0.018205604654112154, 0.06860190329504506, 0.021877133613462066, 0.05441733858734203, 0.04328294020902172, 0.00467761355616904, 0.025049279943015704, 0.06225784483579619]]}, "layer3": {"weights": [[0.4670459443567119, 0.3748395122027108, -0.3094178395975105, 0.29407255534848187, -1.1821551705183053, -0.04448458283411594, -0.6974567467468328, -0.10850304613411088, 0.003929458139828791, -0.39787000541998596, 0.24856753225573514, 0.33092945640337307], [0.01768401400614978, -0.8814516344563916, 0.3851499726126645, 0.6076053798332166, -0.866704079971378, -0.5884787836112454, 0.16288554217050705, -0.2183967905776385, -0.8326967414124065, 0.6451086424423256, -0.053997007919799646, -0.30716989503946623], [-0.26786707730108106, -0.5743496796096854, 0.5558783674888399, -0.95868806390027, 0.1157259300315815, 0.2527187735968254, -0.5084660534254456, -0.4519106335745715, 0.25495876791829775, 0.05723972358594393, 0.342422861844471, 0.3942814204771446], [-0.7906444310800478, -0.19158618356517854, 0.5225489690710408, 0.6913671782576638, -0.17008866836232048, 0.5603188165359101, -0.012205805312271199, 0.1196730655897978, -0.021795143533221158, -0.8400720314243453, 0.6396704198700063, 0.11636839158042227], [0.8920419675725013, -0.24564354658870788, -0.34563808133896284, -0.055256724974165415, -0.2757833299611552, -0.2816890265971545, -0.07017668149569159, 1.1129848469196246, -0.6270250506555364, 0.5048555906509874, -0.0011671081073846984, -0.8056970677521338], [-0.5799682382414737, -0.11023210305870357, -0.4145574989624414, -0.06468214412019006, -0.6513404412668757, 0.6786104578060366, -0.3349733572461525, -0.8238005724699048, -0.8807307778193013, -0.4235593504102506, 0.33674944285250896, 0.35315145760013206], [0.0994460021288757, -0.43120969593563874, -0.019396649396891934, 0.18628149008293177, -0.9327486097118296, -0.02492981841402173, 0.12356752704764709, 0.5465134817412154, -0.7411711453321703, 0.25846225012113433, -0.3248669967138229, 1.1258453135418771], [-0.24672404744051157, 0.20509548966542995, -0.12970550080195276, -0.8612425712449164, -0.1560531922578875, 0.09271041262605387, -0.21381996819463356, -0.8028133814788073, -0.5188550928788085, 0.42945283777996346, 0.027425791501161242, -0.1578977406675337], [0.35171493898364914, -0.056921299699295054, -0.7643983941214351, -0.4808578895272487, 0.06739176683617687, -0.5000125355027989, 0.12448817354836904, -0.62485162319372, -0.37088583677357256, -0.045716964316256437, 0.19222575168824585, -0.6329372756398552], [-0.027373132851721844, -0.3094089982877328, 0.1919952640970667, -0.0903641093641143, 1.354078829621677, 0.2248839037541029, 0.22963678272130755, -1.0081620863263514, -0.9620914974899858, 0.1927256879450814, -0.3073169836873414, -0.5515349005905856], [0.11795272813671953, 0.34772206288410407, 1.0157138281107314, -0.8193326333553388, 0.2706721421399464, 0.2725051854105951, -0.18070065006622305, -0.0009919851802980134, -0.8179841977752168, -0.7168965040492367, -0.23896925156431292, 0.913947074710825], [0.21800399680035842, 0.03447169317734518, 0.35858669889992933, -0.6350052931496033, 0.7900455993018071, -0.7462865502240912, 0.5575707641845824, 0.07734172183400397, 0.9936753852562283, 0.1604114650248648, -0.43748387676897105, 0.18315241245943392]], "biases": [[0.047609946117986496, -0.07353222926221478, 0.027138257524135713, 0.1262741660466873, -0.2432363593136008, 0.031677567785017846, 0.02564322932119668, -0.07608338719434703, -0.04394848491296512, -0.08394814920878538, 0.13403906114534442, -0.03555372572705752]]}, "layer4": {"weights": [[1.1972055560428747, -0.5877178387390083, 1.6131932258992407, -0.23044722161972142, 0.2704179838717497, -0.5305941163049133, -0.47240338337965176, -0.38685609204885246, -0.15708491429811833, 1.4034548746765414, 0.17019175769773215, 0.22130597110695605], [0.22609627079739072, -0.7213345341361924, -1.1626549407964522, 0.001306947107644152, 1.440599581629102, 0.09740549473137715, -0.9752870946697256, 1.563198621454277, -1.7219175622537761, -1.9217809950762594, -1.5952615517014703, 2.310877664233562], [2.25436538366208, -0.26295291313633234, 0.24468187167362487, -1.5989668633112744, -0.26458408923688614, -0.9537611272021257, -0.3142769189010149, 0.7021350549319257, 1.329982385056865, 0.511841201658222, 0.17196687528833318, 1.009005131291853], [-0.2909066598340058, -1.6316840340149552, 0.5274199973119935, -2.633069361076678, -0.6465404686422939, -0.17318527189416022, 1.494796606516372, -1.2090619438874641, -1.0457687599822032, -0.6471804192771502, 0.7816089562728122, -0.07507613300028493], [0.6355176642144814, 0.4223446207722186, -1.1315432206176996, 1.4569821111926833, -0.16772627563096876, 0.7240885447805667, -0.9214682301473885, 0.44539849215787713, 0.8272194579565976, 0.8028902628496009, -0.5404057247819302, -0.042718756491605385], [-0.42919439668806203, 0.35926557979498597, -0.12000900485159724, 1.5340849178841423, 1.76047874981377, 2.586841862964212, -0.30362277249442676, -0.7749354471695553, -0.2675422289453768, -3.12084299722744, -0.01746521784817934, -0.13559310658258475], [0.27543998209831116, -0.8119009724409878, 0.27098512397957303, -0.008338614184027418, 0.10744331457957784, -0.07892573175304053, 0.43211635258344466, 0.5441322070515361, -0.14063221218887753, -0.5194365175773709, -0.5132633579138506, -0.7120903256922718], [2.045587183354986, 1.1205470881033217, -0.6348349195930224, 0.1290525059332752, 0.9223842640159693, -0.32841808025115443, -0.28639851035481595, 0.7889192425084047, 0.9250371595980502, 0.5492936767220692, -1.2124844481166237, 1.6068629015811375], [0.37800200245360344, -0.5262224467535189, -0.19189963709681643, 1.037349395100958, 0.8484315804265552, -0.6852903260976019, -0.7877624764091248, -0.7734655280588375, -0.06312497057928146, 0.04996470746830383, -0.15454210438935814, 2.0743015587557982], [0.7077207447915382, -0.3180690907049986, 0.6483516275432333, 0.8143978665889362, -0.4985371501912837, -0.7007292229739507, 0.8815471605850218, -1.1644101727657368, 1.4102230488823437, -0.23791906361067738, 0.7546481539660327, -0.8888767468572535], [-1.8754642273937396, -0.5377281894607568, -1.0566820364151703, 0.6413425380219873, -0.745139699941471, 0.027227805776891958, 1.1752199631821532, 1.0348131538600795, 0.392904986427594, -0.7756435765921794, -0.5742554792993657, 0.6603272105132708], [0.8792749457802511, -0.9760991218061289, 0.4185981956105419, -1.1033523316825409, 2.2560180860674, -0.6471422990549531, -2.2719946543178526, 0.7031151982286119, -0.7192722381870297, 0.11707458653591636, 0.3923628447772902, -0.49935540996347444]], "biases": [[-0.12114277227114059, 0.23221960141676654, -0.04732212497188717, 0.007388094967373766, 0.030124443291837708, -0.18373200036699183, 0.04841701006782606, 0.13027986712075962, -0.01707405086709843, 0.055467319329724776, -0.012682975614962448, 0.04625995308866952]]}, "layer5": {"weights": [[2.2423862111384634, -0.9630630786708024, -0.7306479870071835], [-0.4442516636982577, -1.1857215846278408, -1.400935227429814], [-0.7865908897891147, -0.3017488509864318, 1.4915027545281188], [0.23003768301595676, -0.648662096409503, -0.16923844160188253], [-0.7755077042541905, -0.10207465440776568, -1.3089815581491668], [-1.500646948612014, 1.1346075966476528, -1.6864520951473163], [-1.0071653659128288, -0.62544716083422, 1.1368876329242976], [-0.21404380094907954, -0.7102677862127151, -0.36241812085073805], [-0.2979204678692948, -1.241806879744063, -1.733033072862581], [-0.2663143548168707, -0.324524234733748, 0.3794036066687194], [0.11733884141440493, 0.16390285369311658, -1.6170921345375275], [0.09311050987537192, 1.3335582946313467, -1.5004619146088232]], "biases": [[-0.046351763818127126, -0.006203637745042859, -0.04024235098707331]]}}, {"layer1": {"weights": [[-0.14599044027321395, -0.4349276918048074, 0.9666592822251383, 0.30868818747114823, 0.22456704503284902, 0.6284594569108455, 0.13217703231635602, -0.568992569908289, -0.5502799519468193, -0.9083000856253928, 0.2834858114379135, 0.17245090765197335], [-0.0029926219202865145, -1.0912588254147275, -0.05014100672143686, -0.4389442383114939, -0.18971936449450638, 0.23002762447169703, -0.3664859495793861, 0.5045393549788195, -0.570621733890254, -0.10793328454983989, -1.322066278954944, 0.43114103449846186], [-0.34558943022969835, -0.6479439303299039, 0.26082840881639524, -0.09644167129835798, -0.5259808937645303, 0.3894792885565633, 0.3049964533437026, -0.16381261846556755, -0.3186551344755608, 0.3409063773295271, -0.559464779834537, -0.5524424257912386], [0.2711037409288146, 0.35311765646617044, 0.1498962489528611, 0.3520709728657492, -0.2730638201959478, -0.08789537508462256, 0.7330497819401094, -0.41589074252293035, -0.48469915001628816, -1.3094522126349866, -0.3213222093480199, -0.03887653814634534], [-0.1430411850587726, -0.20497324949898138, 0.15706734728948057, -0.3288080968721204, -0.18443704351927243, 0.10148211468262319, 0.9858292763980656, 0.9497132731565785, -0.38538719627466445, -0.06468925030757489, 0.8167634457984558, -0.27492040059834655]], "biases": [[0.011931435974213676, -0.011008551021652083, 0.046546223328653935, 0.12172651045637953, -0.024657752972588466, -0.17592739504165253, -0.08789801850218563, 0.09438892270634666, 0.08584695921476024, 0.059206237232519304, 0.004670055438982507, 0.005984713545886545]]}, "layer2": {"weights": [[-1.0502443008128886, -0.15979436647035844, -0.25002142230794544, 0.28295228648383874, 0.33622439083500855, 0.8238126877765324, -0.6915073766170854, 1.0342138538997967, -0.08970221288270597, -0.6221958057491104, -0.4139421731523454, 0.1269201510489552], [0.3985566948171877, 0.6495977452878933, 0.17289670217697584, -0.07796228664571737, 0.031535100218185015, 0.2594857635591479, -0.08249219192665386, 0.6594142277637586, 0.5761441832781737, -0.2467717327074898, -1.3608612958384243, 0.326132601022495], [0.2751334991063584, 0.47854164877222066, -0.4876345989312038, -0.37312703665689845, -0.7041465549487002, -0.6724098630519815, -0.08652779899290527, -0.42724002019267787, 0.3170025840702801, -0.3799910825726411, -0.28649779321170443, -0.23811495664397103], [-0.6101275686903953, 0.4091471577525876, -0.23892547629317668, -0.3572543481065833, -0.08961562910342971, 1.0583331636486741, -1.092751504834443, -0.22296111502585003, -0.2948448671515349, -0.19602914871445049, -1.0639862364621024, 0.01596768694282271], [0.8313359714886431, -0.1722887810343527, 0.16984017063415074, 0.6412608055588971, 0.23391283394044915, -0.39203960369275315, 0.5154243861255163, 0.18354930961154398, 0.5654501423961028, -0.17706218321720651, 0.09577179316658878, 0.007340873784193125], [0.09547257915846619, 0.11045938237985796, -0.2386573465149271, 0.25726957863308536, -0.19298701702188756, -0.09688744010467609, -0.6601434690684571, -0.03310796391350523, 0.22692069113032232, -0.3096967968171263, 0.18131783214677866, 0.32238850091654936], [0.13950550442282847, 0.27007684678750443, -0.3792779266609376, 0.79981202553991, 0.03166414335851096, -0.8708638083583071, 0.37282663584235504, -0.1908113664317946, -0.5826805564190218, 0.5132570514759034, 0.005121476149027089, -0.15754626676129047], [0.46726663175162453, 0.186828692862842, 0.28606923312961924, 0.6513849222092762, 0.4404123232738625, -0.6319130094444975, -0.3800853235898831, 0.3968172938556155, 0.26213417540947725, -0.6733555696776052, 0.6197242543481132, -0.13930874635074292], [0.6080913871931373, 0.7816324634367612, -0.712934491122585, -0.18901398474362424, 0.4134728222404357, -0.46827287470146295, 0.7751993921318663, 0.6150182488535569, 0.5930878116556604, -0.026687021092588175, -0.5380790143731572, -0.37875322036468173], [-0.6859966833486268, 0.19784543359206092, 0.17473717836995395, -0.2649541587115137, -0.2888819802679066, -0.9878334550400466, -0.9477612816489186, -0.03336719650194767, 0.11366185818618954, -0.30157974752007505, -0.7247412173423589, 0.4670520885345557], [-0.022611791389512872, -0.34980612990452975, -0.12069343201970786, 0.07786440532955413, 0.6506382491851727, -0.24391516892181317, -0.04622062792501759, 0.1967331176868335, -0.31856348397355794, -0.360907150158828, -0.22167530757387444, 0.04321269537144357], [-0.7150521169898999, -0.10762370688121028, 0.005348106766070404, -0.07073971090921423, -0.22635921666260264, 0.5149910991055745, 0.8203992681064007, -0.7967702638975163, 0.1812420584288973, -0.6533131090418438, -0.4653954598415574, -0.35719705127975987]], "biases": [[-0.028050189170354213, 0.02801841653923456, -0.05663719201985171, 0.11206014206014656, -0.017854749647453094, 0.058474586553248456, 0.02135089579436486, 0.06309942351318076, 0.03277754174269089, 0.004912993781334888, 0.025049279943015704, 0.06225784483579619]]}, "layer3": {"weights": [[0.47030582249175656, 0.3493076445974639, -0.3095100302343537, 0.2447745278035081, -1.1817738198005996, -0.06646902342943235, -0.6118165010448238, -0.04603991682096728, 0.06510927282083928, -0.47107719702339035, 0.2915581761819264, 0.33091378544365024], [0.04945768552258653, -0.9409732865940126, 0.27241260643896714, 0.5572575724469883, -0.7583584057529726, -0.5884787836112454, 0.17411681246423005, -0.2123401967112308, -0.7125312073073551, 0.552728971694475, -0.053997007919799646, -0.3217724746503869], [-0.21278355911895264, -0.5743496796096854, 0.5138672465861244, -0.9556898117516339, 0.1165698329627887, 0.252337068809782, -0.5022565503548009, -0.4519106335745715, 0.19824846513526867, 0.05723972358594393, 0.3428183854790002, 0.3951480684079757], [-0.8067795692562317, -0.19158618356517854, 0.5224856378363485, 0.5638866502514692, -0.17005116568934778, 0.5635278531591947, -0.0053049115744679175, 0.08406600629396802, -0.022844787954827046, -0.9131905810089422, 0.7376335621718428, 0.1129300668777796], [0.8813569334743759, -0.22165982197851442, -0.3457719347338396, -0.055256724974165415, -0.27409302144587966, -0.2802452724021391, -0.07363431851007021, 1.1594259950571557, -0.6274832975026452, 0.5051014361127468, -0.002489338001942662, -0.8348866527953326], [-0.6179985903787355, -0.11024322198808623, -0.4145574989624414, 0.05975712251702575, -0.6516499679639596, 0.6813976033922402, -0.208511789906235, -0.8238005724699048, -0.866732791849925, -0.2999296820236397, 0.33674944285250896, 0.3254166405458695], [0.0994460021288757, -0.41870973238238907, -0.020479268353158362, 0.18573708179974355, -0.9299223736750691, -0.09087889757286532, 0.16276749216626055, 0.5469842225594255, -0.7409603400951539, 0.2581927900278163, -0.32203583416653847, 1.0895978449770025], [-0.270669545906977, 0.16299681598466348, -0.14105247628845913, -0.8732989359491781, -0.158309847750587, 0.023124469032321446, -0.22982921491157612, -0.7167248345789914, -0.5185557993773817, 0.4331593610565889, 0.12081268044929995, -0.01481928181773362], [0.38258617341230083, -0.0526004094608529, -0.7921036405072432, -0.4791110839083026, 0.07352054615237914, -0.5206088514824613, 0.12448817354836904, -0.6246147826737001, -0.30260242073545723, -0.031495806605540286, 0.17591555744621074, -0.6328984598799907], [-0.02729446459203541, -0.27801452914035407, 0.1919952640970667, -0.08547672192241723, 1.328805809583288, 0.2472526296199384, 0.22695671490692676, -1.0328585671669326, -0.961772431312548, 0.20168649524893353, -0.3073169836873414, -0.5515349005905856], [0.10364477341144415, 0.2571209279413727, 1.0157138281107314, -0.7588395578716838, 0.1011320516833766, 0.31034641482196323, -0.18050825936702694, 0.00940863183798905, -0.8154294640096061, -0.8958911237073627, -0.24050071536923778, 0.8614053216991273], [0.3664728224439381, 0.010624741904460978, 0.35779041245051524, -0.6298227320034586, 0.7913755478349354, -0.6975338565267986, 0.5037640322029866, 0.10447563976152932, 0.9502323631723295, 0.19030334188358178, -0.4372516487236201, 0.17886208162859107]], "biases": [[0.047609946117986496, -0.07353222926221478, 0.017991048356890582, 0.13791493956070888, -0.2455918186619505, 0.031677567785017846, 0.02564322932119668, -0.07608338719434703, -0.04394848491296512, -0.08394814920878538, 0.13403906114534442, -0.031222769372133044]]}, "layer4": {"weights": [[0.8116855168860219, -0.8955258918516712, -0.16866062263698273, 2.235854700497526, -1.2788082064297217, 0.0734142095725939, -1.114494883114921, -0.8550617977996339, -0.4517474171869041, 0.008940905920548073, 0.45648287341125743, -0.47047768491785746], [0.5435342933502543, -1.0199619625651595, 0.32068207811192584, -0.5460183215223537, -0.25533707326934507, -0.9647991296223626, 0.838539656962268, 0.5066676752870158, 0.4556809826182451, -1.057131156954018, 1.5294954780342522, 0.3541136794065073], [0.19877371170467528, -0.08315302570036576, -1.1226176690609957, -0.5441148004469675, -0.5483048266746264, -1.9771419018609275, -0.35708414319207743, -1.3887176739782652, 0.06210013497534351, 1.322376943301037, -0.6046225308615394, -0.6306105198290497], [0.246624474445174, 0.3753828034049846, 0.30425021751736425, 0.06399227782658833, 1.024010351274905, -0.02848036198491929, 1.283588189221779, 0.47121391044556876, 0.9851184881661188, -1.3796130985648167, -1.009819408604016, 0.38870894154779323], [-1.144550824519837, 0.20908074183416506, 2.157117299110781, -0.08775743472585072, -1.5007630586600988, 0.8166802925733762, 0.40252706856265646, 0.7566911933348577, -0.36478692975260024, 0.45496108164507393, 0.10457635147094264, 2.66938717114895], [-0.5321129241402653, 1.0441160264030285, -0.9443844864243185, -0.28710444814587616, 0.3459782181275643, -0.08988660722000055, 0.8927042469441513, -1.0413485458304215, -0.48298054566929044, 0.7079960661491634, 1.25696316354017, 0.21573994839792607], [0.3172720117183201, 1.2846098451262764, 0.5373518181558691, 1.5924621233163567, 0.8485938596769671, -0.8450264749208791, 0.9937182733419022, 1.1055028931893383, 0.49408149794686046, -0.39360945079333026, 0.6620289459894768, 1.0020727529040654], [0.317973219433684, 1.4762120554616756, 1.067036926145505, -0.7211585688913474, -1.184087413187018, -0.29733487288279403, -1.1268202315478355, 1.387060896422065, -1.9210052742906947, 0.47265219110970336, -0.9759402687785044, 1.5656166886870793], [0.6187905424317002, -0.3380092337428763, 0.17280670918031657, 0.9088425581866815, -0.1566326931878496, -1.1363319251643478, -0.0003744605365704814, 0.554744090678504, -0.21564441698562695, -1.733533574617025, 1.4966989081077984, 0.38531940512461565], [-0.6920564161647407, -1.3356277340330802, 0.11774524686157295, 1.5493746177700682, 0.7532685450491772, -0.8644710661297158, 0.1870642736140005, 1.428234448417505, 0.08926536083521171, 0.3144810877613757, 3.1075546830418457, -0.8316215332404958], [0.026381763911824622, 0.027322395046761445, -0.037413100569332294, 0.15462213168018202, -0.6510203111852048, 0.8680532869524022, -1.269475599704859, -0.24966607907040567, 1.3608920278036072, 0.5420309037504673, 0.1494553540235125, 0.44069609845054075], [-1.090398492383949, 0.7717236936240319, -0.6225001408982185, 0.23805074295713527, 1.5080278811536278, 1.4526423883414366, 0.41259304335395264, 1.2378356538923048, -1.907520753066668, 0.9300314699729486, -0.6110323644064023, -0.12203730787048693]], "biases": [[0.03263647036062851, -0.24301894054704398, 0.08783378268444375, 0.10453604707137952, 0.24290693152773116, 0.1095490796744481, 0.0050739282894017475, 0.028721067619478086, -0.11628946343387535, 0.12326974743846678, -0.14293308490901108, 0.03742753862862435]]}, "layer5": {"weights": [[-1.2428845411443759, 1.717873589949086, 1.2355531005135811], [0.18803861375497555, -0.18682348145240926, -0.803276329260964], [-1.9626523791445385, 0.548871526547779, -1.1791051708625964], [-0.2951501327435448, 0.7448963059977782, 0.2517718618508611], [-0.6354848177119263, -0.17454280513556816, 0.4632298636824024], [-1.8084399731450698, -0.47523329518968793, -0.48208180315691135], [-1.137563490632587, -1.7748112994415215, 1.8371366088343757], [0.9429500279574542, 0.8583463236682966, 0.9729630333057461], [0.9237063306708828, -1.5106821122975687, 0.6912370155416752], [0.22871888539621646, -0.03292765621599225, 0.30580299642062175], [1.9578030480161281, -1.6758653392440788, -1.1079484418480772], [0.7199435174437476, -0.07067814538009712, 0.750229975245112]], "biases": [[0.02681785268605551, 0.02013112117020799, 0.03729731135594155]]}}]