[{"layer1": {"weights": [[-0.05367097134054048, -0.19984908544515645, 1.2798631315148707, 0.8986378459364341, 0.5153217801112567, 1.1608003975206378, -0.06958444080339427, 0.028801938696943762, -0.5052028750751463, -0.6428544676071668, 0.27623866261124097, 0.003798274338608229], [-0.061116158285617984, -1.5064926798560472, 0.21959870825033717, -0.9576140022861748, -0.1471091418733691, 0.8427856208674546, -0.12835744738251234, 0.02432633688346172, -0.8604550039510517, 0.02266801466759365, -1.196538898546045, 0.553851237820971], [-0.04791291911489421, 0.15316583060483624, 0.6855341345756818, 0.03291325726689237, -0.3817519614983299, 0.7035445177806195, 0.5565840286965638, -0.003738554908479789, -0.20934546359761813, 0.37102411905878163, -0.2092076732000334, -0.5764434316545751], [0.09640467246896639, 0.26029659181289977, -0.1854050440958008, 0.4351368611210057, -0.0021629893908334473, 0.608883220662951, 0.603921314624743, -0.6976471861789254, -0.5268092557637343, -1.3101055298360644, -0.5974600451227634, -0.657429953766531], [-0.27285437806005985, -0.474324714005339, -0.24156554945853798, -1.323303169658605, 0.0429127998921982, -0.012784571982361749, 1.359877302071407, 1.0744929009104083, -0.41522015202128854, -0.17486205296593985, 1.2565303543962991, -0.43071271099022973]], "biases": [[-0.10771002781381381, 0.1425816754518146, 0.20117867457278196, -0.07201924938549611, -0.07308668230268398, -0.164257954214605, 0.21228646645672022, 0.07111907664359846, 0.1058485457148402, 0.15955554087853038, 0.23255802167573342, -0.12613408304691542]]}, "layer2": {"weights": [[-1.2641605044448743, -0.010073693009193262, -0.04332013862293704, 0.1271939498655299, 0.3489990375826805, 1.2446999083058368, -0.7315164964204841, 1.370545940231837, 0.5185255846642487, -0.7448863499495838, -1.017993100729224, 0.049179561017797684], [0.1841259418955822, 0.33226573384115304, 0.15116543677940225, 0.2868646257282226, -0.08321348211634677, 0.39497711175324035, 0.18464556453167186, 0.8043536487642469, 0.11811232723673666, 0.21821748775259242, -1.6895168640350156, 0.37334563157886935], [0.35849783893183873, 0.2313182750425185, 0.4825079481194176, -0.6227376439055424, -0.6172102695338502, -1.0951157511076783, -0.33216771389185434, -0.5098475674130819, 0.10735165188780996, -0.14130916995521975, 0.3178162356988149, -0.08720073287968874], [-0.5768519468757894, 0.17229040197276263, 0.1464297439066419, 0.1253806579513291, 0.3578726187895892, 1.2105251231129701, -1.1333700080319988, 0.18601606432211037, -0.09715937948400362, -0.5152266168191767, -1.6556987323119228, 0.16827573842544735], [1.0987771175342997, -0.12521053717246408, 0.555588651662754, 0.7616044197882373, -0.2702737212086055, 0.5643654107587232, 0.9326529679153643, 0.47309905504737626, 0.5706325813729426, -0.30577021514534364, 0.19932770284262397, 0.2852799569327651], [0.3257458655362683, -0.4411094722062922, -0.3290205928466774, 0.1981836468779032, -0.5569112645636531, 0.2940499847202186, -0.7904891661389404, 0.10379292536419095, -0.08179174441718756, -0.33483833621915726, -0.13168911361110078, 0.3494965895880797], [0.17083630284777354, 0.5099859198497934, 0.17015403752138947, 0.43824628160328655, 0.02518366636434046, -1.1408429403917029, 0.3850599741024134, -0.3951767292336545, -0.7020987510390975, 0.07341777292179605, 0.045228714747746326, -0.6516463218209785], [0.10244500147373305, 0.4421550993642361, 0.03286326501531555, 0.6217292097654492, 0.65550101218001, -0.8908094483351325, -0.7599235098444694, 0.2924619814222371, 0.19648242321749, -1.078955134709108, 0.4647201949281047, -0.06105335252826912], [0.8742567248008435, 0.9683100173462651, -0.4888506287349822, -0.1709922494651716, 0.8148929811759775, -0.7235358797877773, 1.0013306848145624, 1.2037192572113025, 0.2856732956694203, -0.05517390119003112, -0.5150003700421792, -0.007428172414327468], [-0.6219705584010972, 0.12274797342615094, 0.2872815041094765, -0.12464014952363155, -0.2994969653661521, -1.2043749721610786, -1.319691627280857, -0.405523404370711, 0.10689960252654235, -0.5468468992039623, -0.4747195346870571, 0.7068023437375056], [0.27737862907228694, -0.7090212502472532, 0.3257536085046629, -0.08075617212841925, 1.1611175441616113, -0.30861928621782875, -0.3515264123197277, 0.7886402808714322, -0.48212688854798286, -0.023907301835172562, -0.6765122188500082, -0.4641395621613781], [-0.37685266922016936, -0.07816092999038905, 0.1114714894735521, -0.0429745213091697, -0.35430295268280376, 0.3771380671989464, 0.4326029377541464, -0.9690150131002828, 0.4416176204328096, -0.7642623349783221, -0.12386072975156025, -0.6037221163231973]], "biases": [[-0.10031697605353049, 0.1479112819424413, 0.04196500350749331, 0.1647596921208357, 0.1399840449305128, 0.1468691217471334, 0.198325421467574, 0.02354844523246743, -0.20891191419021188, -0.057900714575781775, 0.1725421013905507, 0.3410043346272057]]}, "layer3": {"weights": [[-0.10602787668197747, 0.45296005295766445, -0.67904816537845, 0.5395982069797772, -1.288874678556152, -0.16079916753875168, -0.7769148556011423, 0.540587490312524, -0.009215013446101613, 0.20935799140718186, 0.1895434985774227, 0.29929585134881365], [-0.45262683499099676, -1.2457932504992053, 0.45119643528287534, 1.1300967242860613, -0.6742888047250041, 0.28503313595152324, -0.18249660787845845, -0.0033024500631891112, -1.2365565371245797, -0.20535922907587906, 0.26951105547132226, -0.22182830536398077], [-0.29078231133602206, -0.5358600430952613, 0.7373858466525622, -0.9748598726401636, 0.15404877146841914, 0.19026385294606601, -0.3876754385475732, -0.19743856494676448, -0.06971695351016989, 0.08194116155484875, -0.21977000254765308, 0.48992153219487555], [-0.6675530472220284, -0.7445602371984856, 0.468826203771864, 1.1338300998777409, 0.3616562057348177, 0.7463290703597267, -0.748517073902197, 0.2784032301371442, -0.09153366679641257, -1.045086374613165, 0.6968532952948157, 0.33906755981769204], [0.626376039773166, -0.9912730681591513, -0.37429943730314086, 0.020522496442582805, -0.29953688469273293, -0.2265407433620007, -0.09289474280377459, 1.5627966061468839, -0.27256546769342616, 0.7925496882286032, -0.6214614489059822, -1.384367807487619], [-0.40100391538325103, -0.296489593398302, -0.035506124420706525, -0.4789281372390583, -0.40799137288362164, 0.4206222682484398, -0.48951313389097795, -1.0730032776407887, -1.2602538835338037, 0.11718950247222401, 0.7882302336522982, -0.09120271456474222], [0.02772560940694173, -1.2021534782320384, 0.32883928824866177, -0.22790168046160117, -1.072781496047147, -0.10082162235712869, -0.28107995923486934, 0.12522846933733425, -0.5803738422093183, 0.6898466641613435, -0.47571918328465823, 0.7749753503667093], [-0.022883127262779315, 0.5528721781606725, -0.14926164014531268, -0.7763292550425411, 0.4288727434755121, -0.6680471121825811, -1.201082961945423, -0.17036622291699693, -0.5918899091689143, 0.6459039649404917, 0.38484069999571546, -0.2560682174350567], [0.3490644541656201, 0.8304631383409573, -1.1201075658462887, -0.28642314527164825, 0.1407281601017459, -0.7594770044017954, 0.39750805676268197, -0.10764689796700704, -0.1313834782515027, -0.1989509825891192, 0.10587649045438119, -0.7305231111183148], [0.4709418608951018, -0.27079939978265277, 0.37730359205940284, 0.012230212148617789, 1.0536925709442706, 0.19912686386396766, 0.4805876912598453, -1.5107607882357657, -1.1833099757163221, 0.12482914865762691, -0.3663421236735913, -0.6335996490608793], [0.4766570038316653, 0.3653399657361093, 1.219775156593605, -0.5815314803751894, 0.2512798093966744, 0.03314333086292243, 0.08207179088870428, 0.4443840503579304, -0.7885681935240747, -0.9706231402072327, -0.44413006450271086, 0.5702392815136428], [0.270389664029161, 0.16418750712070085, 0.06755567806629366, -0.6179428849937152, 0.5543816754637538, -0.7514050789229704, 0.5754400871825068, -0.6797536992347084, 0.9970748568764921, 0.12756727995638756, -0.47758184585491026, -0.053994471802450844]], "biases": [[0.09993660616622868, 0.09961145415049304, -0.052623738299948424, 0.1492158949447665, -0.05155812968514662, 0.21413964827418458, -0.03342013874303237, -0.08730621359584903, -0.11454402979512834, -0.05803275530690999, 0.212713372763384, -0.06093452107933694]]}, "layer4": {"weights": [[1.3415300868577695, -0.5531905673540023, 0.45802999398851796, 0.24180563108772146, -0.48770016546423445, 0.2962152106926309, 0.5941654583559204, -0.14277101746360585, 0.831378125222481, 2.375725193773827, -0.5332055711548842, -0.07424389036786636], [1.2901749766008845, -0.16289074276859028, 0.12660819810285293, 0.13817894591867247, 1.8767375212195134, -0.8124475382597616, -0.15855197061603304, -0.058170620146158515, -0.7862860613414229, -1.3735860023777953, -1.4456973147483807, 1.586449174692967], [1.0722319387641837, -0.9518822850274473, 0.3792397132967954, -0.3620922698988065, -0.0006115413477783068, 0.02182408593871439, -0.8524689246216408, 0.03725319074726384, 0.29845623797275306, 0.3280683623519577, 0.27424551675344966, -0.03038533883620117], [0.02490843970213752, -0.5655638885140528, -0.05879870268309896, -0.21725979048421742, -1.049504179927703, -0.9514376597649039, 0.9037006571489673, 0.13647729372798478, 0.7799336964415856, -0.7029739802865697, 0.48399202740140285, -0.5225534122887259], [-0.7002524115643048, 0.05179981568193632, -0.73460417786196, 0.5760754108877989, -0.554410735743937, 0.03379930316809742, 0.0806426119176437, 0.37633587912625727, 1.1366852881374183, 0.7889367981444751, -0.5706176316359877, -0.3356725922958841], [-0.09040368379188261, 0.9354820210006487, -0.6190106629659856, 2.019113584462734, 0.634913217565656, 0.6846704811260782, 0.8153004006376188, -1.5459338944860814, -0.6117409470633487, -0.2210219150772879, -0.4032288914022509, 0.007623300728056466], [1.0857963010815246, -1.6324786398359716, 0.6716623272350336, 0.5463501915981338, -0.14111826366512026, 0.6140406641547697, -0.34312212611488646, -0.22093044165960557, -0.10028712572161319, 0.622131959461506, -0.2497045962989457, -0.8148624526239454], [1.2271203209004504, 0.6479428071054792, -0.34220306613131035, 0.12164091338003455, 0.2522561460980857, 0.41044915315621694, 0.005156239141753174, 0.8376474119235838, 0.9476205546147043, 1.1071467210125596, -1.0439982470856022, 0.21123587942972236], [-0.2463037380116625, -0.6468263108646324, -0.663709741969168, -0.5415743550959581, -0.33983392896009185, -0.8641107277963027, -0.41858787500483374, -1.0808122609243602, 0.15561808100862806, 0.4035035975081849, -1.2032685366173466, 1.1049819272952832], [0.13091177115871455, 0.4789157343870819, 0.008208419881705403, -0.2650794364405996, -0.25489147397766393, -0.803074138375221, 0.4069276160583053, -0.20337908249515116, 0.5577083862812824, -0.07945485450687736, 1.9203218895018987, 0.047398775796336105], [-0.9981032149598371, -0.21852777889517325, -1.5865333685360692, 0.5083251968892294, 0.11134002253970464, 0.16573739059066817, 1.1847182622138006, -0.7225185629953694, 0.40475879655748265, -0.6314505463757276, -0.8660612411688229, -0.17398394862973607], [-0.038619635547673455, -1.4817220468223034, 0.8246278158790352, -0.7404679934443468, 1.4434447206207974, -0.290997622392563, -1.712625209032756, 0.6044696766730542, -0.4394438246964738, -0.11247223875912975, 0.08982939302875455, -0.4904309620287361]], "biases": [[0.013759529618491617, -0.0682463727867996, -0.11639790217235603, 0.2715145644436179, 0.004542179105137774, 0.02629353043416601, -0.06949630726253958, 0.16371147136484326, 0.15880325727122632, -0.20616942142069544, 0.09050339231877311, -0.010656170456280931]]}, "layer5": {"weights": [[0.8546940693944793, -0.0658323860459308, -0.9171308205839614], [-0.038594157341623914, -0.30024278227546575, -0.6478685092895657], [0.2628108599675971, -0.04873879691375666, 0.5799236765641617], [0.10352982404052172, -0.10446845736556817, 0.6613997627832988], [0.246837882311398, 0.8411495452703698, -0.9661064447403621], [0.10477981182584051, -1.0089607496249264, -1.2610960355026717], [-0.8111383654558417, -0.23888377852920029, 0.5335256564105174], [-0.6876241409149074, -0.7297999621099621, -0.16830110710978743], [-0.8342198313153165, 0.17876054551119175, 0.48763902361390443], [0.7519396788245989, -0.30415536159063894, -0.31736384349239655], [-0.034641164824623344, 0.6802085841525096, -0.3584333316976124], [-0.0608240016334505, 1.0241377910052156, -2.2399995370593233]], "biases": [[-0.1271910109597569, 0.28219019203476076, -0.12695253506745446]]}}, {"layer1": {"weights": [[-0.06428141500522087, -0.19439902698799333, 1.369101718000303, 0.8982783100573462, 0.5052077969806181, 1.160971895808785, -0.019511352053422755, -0.015216383779294209, -0.5064566821749081, -0.5969326698748352, 0.32151315880839704, 0.008166464050412704], [-0.06111869377130379, -1.492380931465764, 0.2762565159787391, -0.7585897738086722, -0.1481605960598918, 0.8424027324004457, -0.13998015568369968, 0.02458460627291326, -0.8605772153491245, 0.02586778807596448, -1.442902339821239, 0.5183692695366644], [-0.06535822374533574, 0.13986495265656002, 0.69155986618855, 0.03349299727530345, -0.38153679421190223, 0.5404318731457078, 0.5474378257865989, -0.008975778435869521, -0.23150180718175958, 0.36030972516994425, -0.1732500442412963, -0.5754658816236411], [0.04799892095184799, 0.26765523744867337, -0.1665101938106576, 0.4669356785313242, -0.0021637844189374223, 0.6089121430999107, 0.611740144215303, -0.6977643239028264, -0.5585530697310924, -1.3041117527675388, -0.7190606020965753, -0.6466538682045371], [-0.2727158881210366, -0.4730847690532109, -0.23366394316628739, -1.3235712575265184, 0.054702371255778405, -0.013374926460098222, 1.4197343954943364, 1.0736431563598177, -0.3553045294089821, -0.045091708765032185, 1.265589002505839, -0.37240132363881384]], "biases": [[-0.10825670250483033, 0.14368679066298576, 0.20117867457278196, -0.06268480051330835, -0.0652289727377945, -0.16754981817713893, 0.22216278878072043, 0.0711218324788439, 0.10609877769888776, 0.15965050689736104, 0.19233868855305236, -0.13070947533583735]]}, "layer2": {"weights": [[-1.262655616167441, -0.02542649079495677, -0.05442235064041079, 0.13686022045194324, 0.3689955914252605, 1.2562782329300748, -0.7277805130881692, 1.3705412806690769, 0.5164247660915107, -0.7192150010416789, -0.8560859433098378, 0.05176194518406503], [0.23797783209567142, 0.33038260101325884, 0.15136220618094035, 0.18591367263604433, -0.06762396675175383, 0.3949775518318772, 0.13670454646260644, 0.8049346090379351, 0.10869311181376208, 0.22584966284549585, -1.688332148536809, 0.3570997385847178], [0.36359264098831867, 0.17948484782835675, 0.49134288153069683, -0.6141550407549095, -0.5923236769185369, -1.0951141250708296, -0.3295906853299613, -0.5160766925665288, 0.10261132836162089, -0.13708935077654755, 0.3462068995295015, -0.08562422339075326], [-0.5448423980479539, 0.1623547811483106, 0.18369905962104066, 0.025622954979351575, 0.202636462028839, 1.1886100288048551, -1.128590961048662, 0.18628540048580597, -0.14715379102726098, -0.5160616040428754, -1.6533687707930607, 0.15180004636322847], [1.0458701117873075, -0.12479305489112821, 0.5754411925836336, 0.7610433246337018, -0.3359776849332482, 0.5642176879174674, 0.9724125140612554, 0.4677928789876237, 0.5289038531928882, -0.2988622532819625, 0.1631454654529998, 0.35498667118221816], [0.3138204336978153, -0.31125466676123426, -0.3690517618008433, 0.33830829395559214, -0.5559098213068085, 0.3928915101916066, -0.7795675225807338, -0.12311726889653521, -0.06030507879548238, -0.3379039178463696, -0.1461397074850062, 0.3105042578486439], [0.17083713830353658, 0.6249003359968619, 0.14462731620097796, 0.43837515616780753, -0.002665226600822971, -1.2260534141963777, 0.38726991894371293, -0.3951774640164859, -0.7020950249149374, 0.08196651798801313, 0.04805650935015993, -0.674445564989105], [0.10223171001569831, 0.44422934660393093, 0.03743756334369506, 0.6488099663302356, 0.6909942920033458, -0.850318566813306, -0.7558848011219139, 0.3623604374591428, 0.2702026379594035, -1.1342846351345837, 0.46470293850913286, -0.028656947641565005], [0.8619697257260455, 0.9679598625504675, -0.48882518672540015, -0.1768773929587631, 0.5050165053423279, -0.7239501598675617, 0.9621448607188559, 1.2024226195773038, 0.2933279222908699, -0.1176085665249801, -0.49821117299726725, 0.011389352619033483], [-0.606795974960645, 0.24185257339888888, 0.32240965405321986, -0.12505746639449072, -0.3776322192813585, -1.0713422326230915, -1.4478591466609727, -0.4063624597541068, 0.1066976758175333, -0.547028228916945, -0.45510186471664926, 0.7024862715691118], [0.2773819935428243, -0.6522722852702618, 0.3180937121622645, -0.09118897636739134, 1.1695283616090717, -0.37811272608467483, -0.3676121157433835, 0.79820565128668, -0.48114620932128693, -0.023906661705249552, -0.6807579680327963, -0.4632799517460454], [-0.3740673675021262, -0.2592391941747261, 0.1093260403446715, -0.11597031317646311, -0.3618364492748115, 0.3797435956074451, 0.385077019279065, -0.9690135175291221, 0.4508791542094206, -0.7655484796580616, -0.12386898492947526, -0.6037329517691296]], "biases": [[-0.06642238840159118, 0.14693055148455364, 0.04196484472051089, 0.13655346022758655, 0.138809134194911, 0.14275597993006445, 0.1983166859622477, 0.01067887723186002, -0.2024113130409202, -0.05588591196473204, 0.17947252049416895, 0.3480364862186335]]}, "layer3": {"weights": [[-0.10601771380342417, 0.4467957776030021, -0.687389934017907, 0.5396024055592648, -1.2888815264419073, -0.12862429231416536, -0.7332474858522487, 0.556830872644097, -0.03396342200349206, 0.2669273681163746, 0.19686888557070098, 0.33591005105071037], [-0.45224131900042, -1.2435227435778569, 0.4492094122109594, 1.1238002013738886, -0.6767165096473533, 0.2829626137958845, -0.17974897889964103, -0.0036175446212639312, -1.2296579045550309, -0.10025604326687479, 0.2721463272004181, -0.2218271080620116], [-0.4662668625722919, -0.5360371153636507, 0.7235787119039085, -0.9748706388046008, 0.15043500920186814, 0.1902716287224504, -0.385321671698919, -0.20829668154836706, -0.12512647697959806, 0.10103532299898099, -0.2689867872329652, 0.4900474989489999], [-0.693507751379705, -0.7860596244280629, 0.46493284830079884, 1.1689259543711734, 0.2589336475862134, 0.7471192163177685, -0.7445173918359648, 0.1455241702190322, -0.2873611684045732, -1.0454766362794983, 0.5576632128440158, 0.34680990630198305], [0.6641049821388478, -0.9902295525436555, -0.401956047072871, 0.02174373304744386, -0.29726877166782667, -0.21807619892587315, -0.09252439894968235, 1.5577405503939274, -0.27223558511714313, 0.7914795413475167, -0.6207039216745656, -1.3751410719926223], [-0.32701993279011815, -0.2968581646528166, -0.0102352122706295, -0.472774246398228, -0.4130000305104694, 0.4215106572037469, -0.4814555697837054, -1.0769778056873758, -1.2124897577879885, 0.1172936350871303, 0.9652171404317381, -0.07047867754803783], [0.045216859898215084, -1.185328561442407, 0.32576741197745523, -0.2250918084385108, -0.9855100431071879, -0.10613324072715655, -0.26609719577053803, 0.09584629610824733, -0.5616163786122708, 0.7434956008916275, -0.4643887346352838, 0.8015116993676121], [-0.03619615796657602, 0.5772148269717814, -0.14778189992318583, -0.795571656059088, 0.4221108751673197, -0.6625856862848267, -1.2010232982525197, -0.17076744434892815, -0.5817533920114154, 0.6553333620540123, 0.39599519965184427, -0.3766128382079448], [0.35081936037890366, 0.8012305904406267, -1.115733577020431, -0.18148790035330414, 0.0750758868987389, -0.7156223251562241, 0.4253652616164084, -0.14510767595494478, -0.13169937507915064, -0.20258614592163107, 0.1146624393126523, -0.7705940325881661], [0.4706709648967007, -0.28035722187012746, 0.38426069899094933, 0.01720671652040169, 1.2311546902404777, 0.1762737636308308, 0.4875779177930962, -1.538569609151377, -1.1922201032902806, 0.1235028803984642, -0.3723236435810095, -0.6331528208549577], [0.43394349224654183, 0.3742561266347575, 1.2186118164462412, -0.5499177078757325, 0.2486732582946266, 0.08832237716008556, 0.08320492342111846, 0.4976460734731472, -0.8096580491167036, -0.9706970124153631, -0.4325881744368974, 0.4211698026419315], [0.27038796758078665, 0.18927570986764203, 0.06389786201950907, -0.5941600080212313, 0.6020772682088236, -0.7551844675447491, 0.5744988068251813, -0.7662463335345497, 1.1123178729107994, 0.11167327286678447, -0.4828398494058589, -0.05316552239267404]], "biases": [[0.10562949606363568, 0.09091606707480955, -0.052623795919500976, 0.15074215034901206, -0.05145590380402394, 0.21518334068434897, -0.0460002142825696, -0.08712686801329902, -0.11454435375833703, -0.05803217510125209, 0.2119384215094512, -0.06257517827780641]]}, "layer4": {"weights": [[1.2946324393057949, -0.4886692845018986, 0.44981628379036387, 0.2739834712742484, -0.4934700079731027, 0.30057144447553824, 0.5915637806612335, -0.12566010645608383, 0.7493057866147406, 2.3904036478671538, -0.6112443437894288, -0.0741766895383157], [1.3066609308192718, -0.1861925488702348, 0.134892393121601, 0.19412177364301578, 1.8563621498070413, -0.8142516201393712, -0.14361105869801435, -0.05797258895355778, -0.7853605380306956, -1.4123432892300711, -1.4567325732443168, 1.3935543287917702], [1.084050148232322, -0.9429868187977729, 0.3834961668475775, -0.3756426456697587, -0.0005883726290757356, 0.019102205786181395, -0.8468777503058349, 0.16815726410121198, 0.25543366997818884, 0.3282171777575089, 0.26730119410652553, -0.030437215791141836], [0.07171532505313363, -0.5828657310920513, -0.058661817365564195, -0.20838344620742463, -1.0530640272195413, -0.9486903111758033, 0.8939883247027224, 0.12266478738466424, 0.7782638534541195, -0.746709146629507, 0.47786692132809977, -0.5216560778173169], [-0.6996492205127416, 0.04098944922548158, -0.7197390279422048, 0.5579402251840675, -0.5579730470736448, 0.12493308449028522, 0.06590230016181414, 0.3763377251872207, 1.1342382384225216, 0.7917631220161193, -0.531495046841326, -0.31602168605395176], [-0.08586987927973015, 0.9302214111988325, -0.6194790301405566, 2.054720468438896, 0.6337508991280907, 0.6864291742174093, 0.91894686207142, -1.5461490895055028, -0.6346800822646546, -0.09299315882674544, -0.4032623634708047, -0.1341351039866409], [1.0860413857417015, -1.383367565914808, 0.6829446104023751, 0.6668280157465556, -0.14732510878335275, 0.6141888886441587, -0.09298995009635683, -0.22506470294065872, -0.07272465310297062, 0.6522796618326778, -0.24978558584839317, -0.8112181262034346], [1.228561745648991, 0.6765164313930093, -0.29051126248500614, 0.13323222061284973, 0.22368344868331186, 0.22130134348893013, 0.005083792761663843, 0.769863280047254, 0.9468114556684472, 1.1093212063474724, -1.034917714041153, 0.26969825458564795], [-0.24506174620983961, -0.6485274962141669, -0.7675219966569323, -0.5406764782852749, -0.34027240536764325, -0.8990933771799475, -0.4141550316444811, -1.0519729659474015, 0.13417282629718583, 0.3984248538999329, -1.1877836788739609, 1.2054925785115254], [0.1309097426206558, 0.48312966031975196, 0.006126860216894249, -0.2673256887514377, -0.2563293066442792, -0.710636243971628, 0.40533974189371647, -0.2124444362171759, 0.5577094480913857, -0.07796068931269232, 1.9311449914321988, -0.024877222901282366], [-1.0086504093707167, -0.22695171292805413, -1.5479072312788107, 0.48594461895325936, 0.20463603145678888, 0.16842888668770395, 1.193184373335054, -0.7051058542099711, 0.402458524490344, -0.618980837672068, -0.8035667276708968, -0.22748388497755076], [-0.03866855859035899, -1.4683212479327197, 0.718687339579868, -0.7073366141810933, 1.4502995654654285, -0.312728117265883, -1.7038942702719653, 0.6306231820801237, -0.4357252985688466, -0.09758110873374976, 0.05922941281576907, -0.4909705650367129]], "biases": [[0.013601345566692985, -0.0682464601833893, -0.11890053317411874, 0.2795135128848646, 0.004597832552771543, 0.022127641219487855, -0.07369273403466223, 0.16369810485501304, 0.15903730795695434, -0.17632562180561942, 0.09049689816111389, -0.010981128685402096]]}, "layer5": {"weights": [[0.8610591771645105, -0.06583062919678392, -0.9177646167581477], [-0.11494537673364108, -0.30214053182606515, -0.6487654283140719], [0.2627904979956131, -0.045123645367185966, 0.5740570307130239], [0.09412235521912213, -0.08814730482685523, 0.6587954433432128], [0.10832074514739805, 0.8206314230015384, -1.0328752356335866], [-0.013122185166823643, -0.8792653049443566, -1.1423138526924492], [-0.8151251381079166, -0.24119110123757675, 0.46056969182456853], [-0.6403954817582002, -0.7615845030816449, -0.17065733201497985], [-0.906444064394176, 0.16553392998053015, 0.5024148105814434], [0.6706164630118832, -0.3902778447990539, -0.3059838174172801], [0.023616589845825677, 0.6801138853512172, -0.3563801879047641], [-0.056463489950750186, 1.03390174579853, -2.2873685231418808]], "biases": [[-0.1552836354457845, 0.2821905229206183, -0.12695371993324772]]}}, {"layer1": {"weights": [[-0.06823492036920661, -0.1955493220341962, 1.283494468073942, 0.947014679899596, 0.5111377539668751, 1.2111819314822343, 0.028989955763019902, -0.015216383779294209, -0.5400839266287941, -0.5953687346959784, 0.31262006059639175, 0.0036215168733869096], [-0.06111869377130379, -1.4883365097963994, 0.21456997930010416, -0.7475652716213856, -0.14753306285054665, 0.8424027324004457, -0.1565482140404999, 0.010950685353681119, -0.8884992960076523, 0.02586778807596448, -1.2321484368761044, 0.5440441185924141], [-0.04166551158187467, 0.07332788576328775, 0.6352002543973179, -0.1339050006321394, -0.38994461039807227, 0.7817605180669306, 0.5141192627801218, -0.008975778435869521, -0.20936271386104638, 0.37127492776343723, -0.16918560795158671, -0.658085571630513], [0.07957025350531695, 0.20258814646355472, -0.13253046263619145, 0.43603381646932604, -0.0021637844189374223, 0.5313575288595115, 0.6036808072710352, -0.6977643239028264, -0.5267676237027625, -1.324727621554385, -0.7145355342407769, -0.6466538682045371], [-0.3115230785981981, -0.4728497207160077, -0.1366930364880832, -1.3235712575265186, 0.08643270750650796, -0.0008572034396693443, 1.3586459869013836, 1.0342522711189188, -0.41517663877967026, -0.10765306025628651, 1.2575607665334334, -0.43733000358450447]], "biases": [[-0.10642321524008902, 0.14313419181838233, 0.2253692078616744, -0.06895325577539974, -0.0652289727377945, -0.16429234478117527, 0.21228909679106794, 0.0711218324788439, 0.10018753505466099, 0.15965050689736104, 0.2620373761985177, -0.13070947533583735]]}, "layer2": {"weights": [[-1.262655616167441, -0.021186663226768238, -0.05029867931351738, 0.11089050978569084, 0.34900183018771525, 1.2625096597632526, -0.726085367760352, 1.370610101649659, 0.5169845104822324, -0.7448854295346599, -0.9065293305627602, 0.08113594377824064], [0.1841245201959245, 0.43958873511745605, 0.17115576325974985, 0.2855348768742597, -0.07548894263853945, 0.3172176791633365, 0.2397177907947729, 0.8054859464339084, 0.10551597675070351, 0.062433023519052916, -1.688924162424414, 0.373445655928778], [0.3615256973304226, 0.19662199446336814, 0.4921635470419925, -0.6257059833257653, -0.6185235894927616, -1.0951141250708296, -0.3504122024875948, -0.5128136345848708, 0.09473312313711638, -0.13919887770857617, 0.3177005009809133, -0.08562422339075326], [-0.5768516311896603, 0.17229283530698375, 0.1594795532301226, 0.02562295497935158, 0.35787270578639735, 1.2122515416634014, -1.131009743184862, 0.186285400485806, -0.10771731109004506, -0.5122080053233126, -1.658589511877555, 0.08832708692407845], [1.0900813566040066, -0.12364668884566499, 0.5894561364953883, 0.7610433246337018, -0.27025344412611496, 0.5642176879174674, 0.9327020990094523, 0.6043282528210114, 0.6097017809682408, -0.2983060743584791, 0.19226908319396988, 0.5708486525062143], [0.31403631782963654, -0.3553638846414727, -0.3093337922130507, 0.25619833818687887, -0.5564054946603192, 0.29361276044979706, -0.7935531031980062, -0.11134477773351212, 0.028013498298648534, -0.33663017230046133, -0.15942584174347413, 0.33606928306613065], [0.1708371383035366, 0.471340728836899, 0.1542086677744263, 0.5091408090417279, 0.1541682263873456, -1.159457217276283, 0.43906645294426405, -0.3951774640164859, -0.7020950249149374, 0.0830404402249771, 0.09878459113179724, -0.6709409115640327], [0.10223171001569831, 0.44397198119531534, 0.11048015720971532, 0.6441141934469643, 0.6429566736459887, -0.8850542696840142, -0.7558848011219139, 0.20104635734352905, 0.2015205374128531, -1.1355842676614987, 0.46470293850913286, -0.06121254266085494], [0.875821406735039, 0.9352339216334609, -0.48882518672540015, -0.16245549646330787, 0.5241427796274695, -0.7239501598675617, 1.0183100442030848, 1.157433136171854, 0.28614878673827904, -0.10627192830717713, -0.49821117299726725, 0.041733791326974315], [-0.6214976365455591, 0.12260303543391081, 0.28891856583543135, -0.1248548357732938, -0.35417087699627675, -1.201021607906462, -1.3183698769522034, -0.40551701142890517, 0.10688857557912018, -0.5471988017513512, -0.46133689201171657, 0.7038911123581839], [0.3450843415142688, -0.746404009400147, 0.3178620668038298, -0.09118897636739134, 1.15100623476667, -0.3086209721417457, -0.4000404499901938, 0.7934234605337708, -0.4676313820490663, -0.043498067094861086, -0.6783378655035581, -0.46413305903391033], [-0.3772947345492881, -0.16953880665679105, 0.1093260403446715, -0.04328746461357873, -0.35490342192987323, 0.36038771100366096, 0.42978437445427187, -0.9010878898667947, 0.4916938392313903, -0.783624121101914, -0.14953737988512666, -0.6037329517691296]], "biases": [[-0.10427940506932185, 0.14751680179466964, 0.04196484472051089, 0.1647494724703754, 0.13976103908241688, 0.14685933481887423, 0.1983166859622477, 0.02519330124278607, -0.20784673874740334, -0.06453725305557863, 0.17588377750655057, 0.34078632069222753]]}, "layer3": {"weights": [[-0.10601771380342417, 0.4889717415314486, -0.67870623840592, 0.5396024055592648, -1.2612798210425922, -0.1617060429788923, -0.8012500684672842, 0.5352001676737026, -0.02198317479906438, 0.24158058019455247, 0.196868885570701, 0.2905603285222744], [-0.4526634740722795, -1.243522743577857, 0.4514007276164389, 1.127373441899485, -0.697441607014759, 0.2829626137958845, -0.19101115701929192, -0.0031779704214413597, -1.2567260366952073, -0.14248997299581095, 0.2743340619763965, -0.2218271080620116], [-0.5143077608205052, -0.5360371153636507, 0.7285269188503789, -0.9748706388046008, 0.14770397292583737, 0.17737207341066138, -0.3874368053806381, -0.20589260401629622, 0.03670296830963202, 0.139332319247452, -0.2122552595883721, 0.4900338846344003], [-0.6693479331942319, -0.797496412898917, 0.47120908952902096, 1.1338617447094388, 0.3772216827456957, 0.6672475813167099, -0.7485591506193888, 0.21957249209501367, -0.06826488472669272, -1.05086905302824, 0.6977341062535649, 0.3466666813108317], [0.6257341946024161, -1.033667227194735, -0.3691730659556327, 0.01988469948169369, -0.29999638060131245, -0.22510881143424522, -0.09276023115873681, 1.5525662854743565, -0.2828793718239001, 0.7933764585511132, -0.608993761215594, -1.3906038309594932], [-0.3270199327901182, -0.2968581646528166, -0.017300813516638223, -0.47039661451640247, -0.4052251530892338, 0.400294870453759, -0.48427005316723176, -1.076419450079264, -1.1756098937665718, 0.1172936350871303, 0.7880036089436757, -0.07047867754803783], [0.04906226753553749, -1.1929324118618385, 0.19954821995143873, -0.24431717581530987, -0.989417994186849, -0.1040451324816482, -0.19900759568588494, 0.10749821317736616, -0.5765477891280132, 0.7278581887905682, -0.4921167507488491, 0.7749876529473523], [-0.023568903368674034, 0.38783792292437047, -0.14778189992318583, -0.7762992293201378, 0.446100929495919, -0.6653713891552477, -1.2010232982525197, -0.17054183302561104, -0.6403292648662047, 0.6503288069389417, 0.3904352371522769, -0.38772254762021485], [0.35992828199439025, 0.8265296945638929, -1.1196879849158796, -0.286498029787112, 0.18894638612591777, -0.7594139507838176, 0.4168377265668371, -0.10503614669686981, -0.13150315528632261, -0.20156990993853685, 0.11191190552759582, -0.8768318801929769], [0.44431573557549864, -0.28035722187012746, 0.3823134828277795, 0.011840961177189174, 1.2834689388629856, 0.26219707120100566, 0.4847895660880377, -1.511154963764358, -1.1839421170457343, 0.18007572349993914, -0.3640962221755254, -0.5256224904727288], [0.47438476882052183, 0.33375590524949794, 1.2186118164462412, -0.5848720772482805, 0.25646457669383993, 0.11394422846011666, 0.02933885736718868, 0.6633152285426452, -0.8216646627505689, -0.9042638499611799, -0.44537274685981654, 0.4685948117119255], [0.3249311012943491, 0.27526937582976263, 0.06389786201950907, -0.6122936855864589, 0.6230321352156095, -0.7510460431473893, 0.6125751574544379, -0.9295606162131067, 1.0878114154588048, 0.11521416556952488, -0.508549725705328, 0.00241248752489847]], "biases": [[0.10562949606363568, 0.08602881096822321, -0.052623795919500976, 0.15023339747099268, -0.06957244580021209, 0.21803292956804793, -0.0460002142825696, -0.0867970956767346, -0.11454435375833703, -0.0886863846906597, 0.2119384215094512, -0.06093624391449325]]}, "layer4": {"weights": [[1.3481820419245156, -0.5531208900470841, 0.4378150848695286, 0.24108463011539075, -0.4910006428881987, 0.30057144447553824, 0.5915637806612335, -0.14312738896407348, 0.8336363056025452, 2.3797508557409124, -0.5331543019757665, -0.0741766895383157], [1.2862663891167945, -0.1629138048826801, 0.13489239312160098, 0.1599536450301486, 1.8563621498070413, -0.8126280601641915, -0.1764750819059574, -0.05797258895355778, -0.7862639766792645, -1.3828915658445018, -1.4510275297314428, 1.3935543287917702], [1.0441046401861183, -0.9456673881158557, 0.3838384399751614, -0.35334821492277435, -0.06364173359836449, 0.019102205786181395, -0.846877750305835, 0.10757921740415403, 0.28915382079690605, 0.3281410012413456, 0.30680916198148445, -0.030437215791141836], [0.025119134829155704, -0.5792004107192876, -0.03383371286108012, -0.03869523545436851, -1.0513926169248309, -0.9332919650263802, 0.9026218217353682, 0.14057235013831432, 0.7782638534541195, -0.6284896881950095, 0.5119473918540756, -0.47515574622066714], [-0.699846839829263, 0.04262912918437968, -0.7179807623076644, 0.5563944592277663, -0.5561356163718342, 0.027737609659322482, 0.05536354592411158, 0.37630304903946854, 1.1289574903188062, 0.7870836887433339, -0.5368737365577345, -0.31602168605395176], [-0.09020755254607093, 0.9498163303610483, -0.5696627359468532, 2.0590264935258675, 0.37017374242742584, 0.6531694495656708, 0.7693670179460147, -1.5461490895055028, -0.6412883340366838, -0.2309006562201963, -0.3528448011971726, 0.019415294934571562], [0.9075441577854888, -1.6055129438238385, 0.6717583269268415, 0.6330013859395638, -0.14732510878335275, 0.6140467164768973, -0.13343550616272853, -0.22264110324614558, -0.0978527379183597, 0.6209857856716481, -0.24961588481852484, -0.8148894484193653], [1.2280805127962182, 0.6765164313930093, -0.34022552651545035, 0.2068496707488885, 0.24683312949633843, 0.3013290011268076, 0.005083792761663843, 0.6153463665337182, 0.9468114556684472, 1.1289857395548493, -1.0445473737143844, 0.20825707336117383], [-0.24506174620983961, -0.6546979161598343, -0.704444157014005, -0.5553760471530368, -0.34004780638620546, -0.8641115977836107, -0.5791296144015141, -1.0748883050134568, 0.13431609668237615, 0.6235930572007677, -1.2055669709065264, 1.1588540140653603], [0.1309097426206558, 0.42217062300684566, -0.021960457226083373, -0.352909458020196, -0.25054954285729386, -0.7055524583697825, 0.4068372886359871, -0.17920081023129864, 0.5577094480913857, -0.07921884156413632, 1.849462139719348, 0.07761964286151163], [-1.046580074575591, -0.22871012555893053, -1.4741690263372709, 0.4974119876252726, 0.11018194164016441, 0.15282518903235023, 1.191431409525513, -0.633736821889064, 0.4032532382870796, -0.6023466038117341, -0.7327470565249186, -0.1513651422335014], [0.026095191715605367, -1.476256394014912, 0.7900244066488318, -0.7333139006419276, 1.4502995654654285, -0.30360515779938907, -1.737661670450476, 0.6101412328049833, -0.48329786448150325, -0.14166129243660672, 0.058159691608196076, -0.4909705650367129]], "biases": [[0.010246216326317526, -0.0682464601833893, -0.11720424091989673, 0.2778222949215665, 0.004597832552771543, 0.022127641219487855, -0.07212880869514968, 0.16370674846432492, 0.15903730795695434, -0.20620906880699982, 0.09049689816111389, -0.010825663644506505]]}, "layer5": {"weights": [[0.8269105374483847, -0.2037807355323824, -0.931532080322581], [-0.04429709271396433, -0.3011458497800706, -0.6194583346071406], [0.2627904979956131, -0.06739700632664351, 0.572763686679242], [0.10329703542095978, -0.10119925965681353, 0.6596571645720088], [0.1025251749232219, 0.8173101048712618, -0.9727157708294103], [0.08598892872340363, -1.0281732749223786, -1.1242470064300425], [-0.7545222857540099, -0.239976003941952, 0.535382656961957], [-0.690342769629551, -0.6604722821526474, -0.16146478328429859], [-0.906444064394176, 0.18562187453703233, 0.48772207320490496], [0.749326313486806, -0.28963888718991737, -0.34405063491373605], [0.0257494329361126, 0.6801138853512172, -0.3563801879047641], [-0.056463489950750186, 1.0339017457985298, -2.240387021959326]], "biases": [[-0.1271998410847902, 0.2821905229206183, -0.12695371993324772]]}}, {"layer1": {"weights": [[-0.05367097134054048, -0.19984908544515645, 1.3382778067121417, 0.8986378459364341, 0.5153217801112567, 1.1608003975206378, -0.06958444080339427, 0.028801938696943762, -0.5052028750751463, -0.49116663056257354, 0.3153643318966348, 0.003798274338608229], [-0.061116158285617984, -1.5064926798560472, 0.2812852449289721, -0.747822743317838, -0.1471091418733691, 0.8413443027419774, -0.1561706999586181, 0.02432633688346172, -0.8518540299392783, 0.02266801466759365, -1.247646222900485, 0.5178056739317285], [-0.04791291911489421, 0.15316583060483624, 0.6855341345756818, 0.03291325726689237, -0.3817519614983299, 0.7035445177806195, 0.5565840286965638, -0.003738554908479789, -0.20934546359761813, 0.37102411905878163, -0.16934106725810683, -0.5764434316545751], [0.09640467246896639, 0.26029659181289977, -0.25720212035214096, 0.4351368611210057, -0.0021629893908334473, 0.608883220662951, 0.603921314624743, -0.6976471861789254, -0.5268092557637343, -1.3101055298360644, -0.7145824804727169, -0.657429953766531], [-0.27285437806005985, -0.474324714005339, -0.3497101552245241, -1.2005959823924908, 0.0429127998921982, -0.012784571982361749, 1.359877302071407, 1.0744929009104083, -0.41522015202128854, -0.17486205296593985, 1.2646961689513465, -0.43071271099022973]], "biases": [[-0.10771002781381381, 0.1425816754518146, 0.20117867457278196, -0.10678353043202457, -0.07308668230268398, -0.164257954214605, 0.21228646645672022, 0.07111907664359846, 0.1058485457148402, 0.15955554087853038, 0.23255802167573342, -0.12613408304691542]]}, "layer2": {"weights": [[-1.2641605044448743, -0.010073693009193262, -0.04332013862293704, 0.1271939498655299, 0.36493853767292506, 1.2446999083058368, -0.7133115915515109, 1.370545940231837, 0.5185255846642487, -0.7448863499495838, -0.8701189068556587, 0.049179561017797684], [0.2055702262325611, 0.33226573384115304, 0.15116543677940225, 0.22103958968899579, -0.08321348211634677, 0.39497711175324035, 0.19341883166740398, 0.8043536487642469, 0.11811232723673666, 0.21821748775259242, -1.6895168640350156, 0.4230923273366821], [0.35849783893183873, 0.2313182750425185, 0.4825079481194176, -0.6227376439055424, -0.6172102695338502, -1.0951157511076783, -0.33216771389185434, -0.5098475674130819, 0.10735165188780996, -0.14130916995521975, 0.46500810617576444, -0.08720073287968874], [-0.544842713734083, 0.17229040197276263, 0.1464297439066419, 0.025544627888628966, 0.3578726187895892, 1.2105251231129701, -1.1333700080319988, 0.18601606432211037, -0.09879399643519714, -0.5152266168191767, -1.6556987323119228, 0.15028979146465626], [1.0987771175342997, -0.12521053717246408, 0.6950693745181687, 0.7616044197882373, -0.33599796201573867, 0.5643654107587232, 0.9326529679153643, 0.47309905504737626, 0.5706325813729426, -0.4106866269858195, 0.19932770284262397, 0.2764182143847551], [0.3257458655362683, -0.32269756827235097, -0.38852203008549085, 0.1981836468779032, -0.5569112645636531, 0.2940499847202186, -0.7904891661389404, -0.11196496718734293, -0.08179174441718756, -0.4393548941071614, -0.13168911361110078, 0.3494965895880797], [0.17083630284777354, 0.5099859198497934, 0.17015403752138947, 0.4117551729553791, 0.02518366636434046, -1.1982833375596498, 0.3746752293531852, -0.4373912357538555, -0.7020987510390975, 0.07341777292179605, 0.045228714747746326, -0.6516463218209785], [0.10244500147373305, 0.4421550993642361, 0.03286326501531555, 0.6217292097654492, 0.6842504096948359, -0.8908094483351325, -0.6908931564047148, 0.2924619814222371, 0.19648242321749, -1.078955134709108, 0.4647201949281047, -0.028497757508979184], [0.8742567248008435, 0.9683100173462651, -0.4888506287349822, -0.1709922494651716, 0.4986708054315402, -0.5140147272596162, 1.0277757517591009, 1.2037192572113025, 0.2856732956694203, -0.10602389839357715, -0.5150003700421792, -0.1288627284226741], [-0.6219705584010972, 0.12274797342615094, 0.31238831974025794, -0.12464014952363155, -0.30850451871096396, -1.2043749721610786, -1.319691627280857, -0.2666115854189741, 0.10689960252654235, -0.6002617156212257, -0.4747195346870571, 0.7068023437375056], [0.4469855724755075, -0.746398159734325, 0.3257536085046629, -0.08075617212841925, 1.1555921360036887, -0.30861928621782875, -0.3515264123197277, 0.8205193482761849, -0.4073216611650879, -0.023907301835172562, -0.6765122188500082, -0.4641395621613781], [-0.3837491912790659, -0.1610594710287602, 0.1114714894735521, -0.016746121399907034, -0.35430295268280376, 0.3771380671989464, 0.4326029377541464, -0.9690150131002828, 0.4416176204328096, -0.7642623349783221, -0.10706186388778177, -0.6037221163231973]], "biases": [[-0.10031697605353049, 0.1479112819424413, 0.04196500350749331, 0.1647596921208357, 0.1399840449305128, 0.1468691217471334, 0.198325421467574, 0.02354844523246743, -0.20891191419021188, -0.057900714575781775, 0.1725421013905507, 0.3410043346272057]]}, "layer3": {"weights": [[-0.10602787668197747, 0.45296005295766445, -0.67904816537845, 0.5395982069797772, -1.288874678556152, -0.12704347281578898, -0.7491471461527364, 0.5666708402678066, -0.009215013446101613, 0.20935799140718186, 0.13403038661264616, 0.29929585134881365], [-0.45262683499099676, -1.2457932504992053, 0.45119643528287534, 1.1807364047861657, -0.6742888047250041, 0.28503313595152324, -0.18249660787845845, -0.0033024500631891112, -1.2365565371245797, -0.20535922907587906, 0.26951105547132226, -0.22182830536398077], [-0.45493510765018724, -0.5358600430952613, 0.8482595034509097, -0.9748598726401636, 0.23399730569540442, 0.19026385294606601, -0.3876754385475732, -0.19743856494676448, -0.06971695351016989, 0.08194116155484875, -0.21977000254765308, 0.48992153219487555], [-0.6675530472220284, -0.7445602371984856, 0.4625499625436419, 1.1338300998777409, 0.38807694495724887, 0.8601249353405496, -0.748517073902197, 0.21957286986154995, -0.09153366679641257, -1.1512800003016634, 0.6968532952948157, 0.33906755981769204], [0.626376039773166, -0.8484757450555852, -0.4110697953822007, 0.17496104904440346, -0.29953688469273293, -0.2265407433620007, -0.09289474280377459, 1.5627966061468839, -0.27256546769342616, 0.7925496882286032, -0.6214614489059822, -1.3634419947085994], [-0.33603511192647484, -0.3101753203170743, -0.035506124420706525, -0.4509854940703969, -0.40799137288362164, 0.4206222682484398, -0.48951313389097795, -1.1316575901683903, -1.2602538835338037, 0.11718950247222401, 0.7882302336522982, -0.11377120099707252], [0.02772560940694173, -1.2021534782320384, 0.32883928824866177, -0.22790168046160117, -0.9876529660153068, -0.006968227569510446, -0.2682975915870458, 0.12522846933733425, -0.5803738422093183, 0.6680339830747483, -0.464511773748665, 0.7749753503667093], [-0.022883127262779315, 0.38621615063379744, -0.14926164014531268, -0.7763292550425411, 0.4288727434755121, -0.6680471121825811, -1.201082961945423, -0.17036622291699693, -0.5918899091689143, 0.6081295425929928, 0.38484069999571546, -0.3630099976380625], [0.3490644541656201, 0.8304631383409573, -1.2634203696454192, -0.28642314527164825, 0.1407281601017459, -0.715685378774202, 0.39750805676268197, -0.10764689796700704, -0.13533074866397093, -0.1989509825891192, 0.10587649045438119, -0.7608007830974908], [0.4709418608951018, -0.27079939978265277, 0.3754116191834024, 0.012230212148617789, 1.2384588764429858, 0.19912686386396766, 0.4805876912598453, -1.5107607882357657, -1.1833099757163221, 0.12482914865762691, -0.3663421236735913, -0.6335996490608793], [0.46397663084810953, 0.3653399657361093, 1.219775156593605, -0.5582774351696331, 0.23261869389603398, 0.03314333086292243, 0.08207179088870428, 0.4443840503579304, -0.7885681935240747, -0.9706231402072327, -0.39352270861258853, 0.49169798362586176], [0.270389664029161, 0.16418750712070085, 0.06755567806629366, -0.6179428849937152, 0.49970343483225166, -0.7469487367971891, 0.585189785266898, -0.6065531397040624, 1.0758183346746741, 0.12756727995638756, -0.6063085579504061, -0.053994471802450844]], "biases": [[0.09993660616622868, 0.09961145415049304, -0.052623738299948424, 0.1492158949447665, -0.05155812968514662, 0.21413964827418458, -0.03342013874303237, -0.08730621359584903, -0.11454402979512834, -0.05803275530690999, 0.212713372763384, -0.06093452107933694]]}, "layer4": {"weights": [[1.3415300868577695, -0.5531905673540023, 0.45802999398851796, 0.24180563108772146, -0.48770016546423445, 0.312052987734846, 0.5941654583559204, -0.14277101746360585, 0.7532177921967538, 2.375725193773827, -0.39964927621633556, -0.07424389036786636], [1.3105695183033617, -0.16289074276859028, 0.12660819810285293, 0.19164932119215106, 1.8767375212195134, -0.8472821175047857, -0.15855197061603304, -0.058170620146158515, -0.7862860613414229, -1.3735860023777953, -1.4456973147483807, 1.3638273992799257], [1.0773015423072114, -0.9518822850274473, 0.35082050399714126, -0.3620922698988065, -0.0006115413477783068, 0.02182408593871439, -0.8524689246216408, 0.11135222367737278, 0.29845623797275306, 0.3280683623519577, 0.28765918311951777, -0.0440929307764863], [0.07150462992611545, -0.5655638885140528, -0.05879870268309896, -0.21725979048421742, -1.049504179927703, -0.9162979484515674, 0.9037006571489673, 0.11856973097433468, 0.7799336964415856, -0.7029739802865697, 0.48399202740140285, -0.5225534122887259], [-0.6998251149750812, 0.05179981568193632, -0.73460417786196, 0.5582704584210922, -0.5778009679166093, 0.03379930316809742, 0.0806426119176437, 0.3953620910712939, 1.1366852881374183, 0.7889367981444751, -0.5393040104117939, -0.3356725922958841], [-0.08606163522392862, 0.869698565422284, -0.6318187162790442, 2.058537983416797, 0.634913217565656, 0.6846704811260782, 0.798509863027196, -1.5459338944860814, -0.6117409470633487, -0.204377667919696, -0.4032288914022509, 0.007623300728056466], [0.9754915629372718, -1.6324786398359716, 0.747712416001642, 0.6003106972323566, -0.14111826366512026, 0.6140406641547697, -0.162300211879294, -0.22093044165960557, -0.10028712572161319, 0.7094322038224821, -0.2497045962989457, -0.8148624526239454], [1.3412487452339348, 0.6479428071054792, -0.3099736370908971, 0.12164091338003455, 0.2522561460980857, 0.36939065354837325, 0.005156239141753174, 0.7712222856074098, 0.9476205546147043, 1.184501094045352, -1.0439982470856022, 0.21123587942972236], [-0.253318974472148, -0.6468263108646324, -0.663709741969168, -0.6243509536557297, -0.33983392896009185, -0.8641107277963027, -0.41858787500483374, -1.033525058476122, 0.15561808100862806, 0.4035035975081849, -1.181143252395902, 1.1743532598712916], [0.13091177115871455, 0.4789157343870819, 0.008208419881705403, -0.3154213948677069, -0.25489147397766393, -0.7055505125941869, 0.4069276160583053, -0.20337908249515116, 0.5577083862812824, -0.06181236686227056, 1.9203218895018987, 0.047398775796336105], [-1.0022097269807695, -0.21852777889517325, -1.527891096072266, 0.5083251968892294, 0.11134002253970464, 0.16573739059066817, 1.4928703874336369, -0.7225185629953694, 0.3639258626443443, -0.6314505463757276, -0.7841053733661305, -0.12601279165526588], [-0.038619635547673455, -1.4691522995409851, 0.8246278158790352, -0.6996427587673318, 1.4434447206207974, -0.290997622392563, -1.6319411336136516, 0.6187493529149934, -0.4394438246964738, -0.09709395498349274, 0.058730108387208366, -0.4904309620287361]], "biases": [[0.013759529618491617, -0.0682463727867996, -0.11639790217235603, 0.2715145644436179, 0.004542179105137774, 0.02629353043416601, -0.06949630726253958, 0.16371147136484326, 0.15880325727122632, -0.20616942142069544, 0.09050339231877311, -0.010656170456280931]]}, "layer5": {"weights": [[0.8546940693944793, -0.0658323860459308, -0.9171308205839614], [-0.1255055039703346, -0.30024278227546575, -0.7089211079284561], [0.2628108599675971, -0.04873879691375666, 0.5799236765641617], [0.10352982404052172, -0.10446845736556817, 0.6383777442314073], [0.09866900478609233, 0.8411495452703698, -0.9762765517145335], [0.06794926784869179, -0.9289467977197969, -1.2610960355026717], [-0.8111383654558417, -0.2776251135091055, 0.4526301304301915], [-0.6876241409149074, -0.7588584378721539, -0.16830110710978743], [-0.9062728037800001, 0.17876054551119175, 0.48763902361390443], [0.7519396788245989, -0.30415536159063894, -0.33134657856810423], [0.005139713680254939, 0.6802085841525096, -0.3584333316976124], [-0.0608240016334505, 1.0241377910052156, -2.261753702469057]], "biases": [[-0.1271910109597569, 0.28219019203476076, -0.12695253506745446]]}}, {"layer1": {"weights": [[-0.14637049213744374, -0.19009926357703305, 1.2871258046330132, 0.946655144020508, 0.5010237708362365, 1.1611433940969325, -0.051988758575629006, -0.05923470625553218, -0.5413377337285559, -0.5969414273441223, 0.3202832868493457, 0.007989706585191384], [-0.0611212292569896, -1.4742247614061161, 0.2712277870285061, -0.9226486128231884, -0.14858451703706932, 0.842019843933437, -0.1403576697655815, 0.011208954743132656, -0.8605739079287313, 0.02906756148433531, -0.9962482948664084, 0.23551869160231048], [-0.0591108162123162, 0.06002700781501152, 0.6412259860101861, 0.03386172467983505, -0.3897294431116446, 0.7911092727961929, 0.504973059870157, -0.014213001963259253, -0.23151905744518783, 0.36056053387459985, -0.1730945849347762, -0.6571080215995788], [0.03116450198819854, 0.20994679209932832, -0.11363561235104824, 0.4678326338796446, -0.002164579447041397, 0.5313864512964712, 0.522457131038157, -0.6978814616267275, -0.5258043214197086, -1.3234170852675098, -0.741322708994634, -0.6358777826425431], [-0.2725773981820133, -0.47160977576387964, -0.1287914301958326, -1.323839345394432, 0.09822227887008816, -0.0014475579174058192, 1.3955192444596745, 1.0334025265683282, -0.4086490877923346, -0.10810303085602795, 1.2666194146429732, -0.3790186162330886]], "biases": [[-0.10696988993110554, 0.1442393070295535, 0.2253692078616744, -0.059618806903211974, -0.057371263172905036, -0.16758420874370922, 0.22216541911506815, 0.07112458831408935, 0.10043776703870856, 0.15974547291619168, 0.25616456565350787, -0.13528486762475928]]}, "layer2": {"weights": [[-1.0929520238479287, -0.03653946101253175, -0.06140089133099112, 0.1205567803721042, 0.17991541420543444, 1.2740879843874908, -0.7223493844280371, 1.3704445029502623, 0.5148836919094943, -0.7192140806267551, -0.8892159377938744, 0.08371832794450798], [0.23797641039601375, 0.3701488153088396, 0.17135253266128792, 0.2084790251401656, -0.05989942727394651, 0.3949779919105141, 0.2254836965047486, 0.8060669067075966, 0.09609676132772893, 0.21822089923033533, -1.6877394469262077, 0.3571997629346264], [0.36662049938690255, 0.19938026737421188, 0.5009984804532718, -0.8248104427616154, -0.5936369968774484, -1.095112499033981, -0.34783517392570173, -0.5190427597383178, 0.08999279961092731, -0.13497905852990397, 0.3175847662630117, -0.1074495385662443], [-0.5448420823618247, 0.1623572144825317, 0.19674886894452137, 0.02570128207007419, 0.4771945187238563, 1.1903364473552862, -1.1262306962015254, 0.18655473664950156, -0.1577117226333024, -0.5130429925470112, -1.6562595503586932, 0.1519836850385363], [1.0371743508570144, -0.12322920656432912, 0.5337391464994639, 0.7604822294791662, -0.33595740785075767, 0.5640699650762117, 0.9327512301035403, 0.4711049364022114, 0.5679730527881864, -0.29139811249509795, 0.15608684580434568, 0.3227860465767125], [0.30211088599118363, -0.31302211349160636, -0.34572164486786977, 0.22149163335400415, -0.5554040514034746, 0.39245428592118514, -0.7544098230206735, -0.12249707944270441, -0.05976943891733333, -0.33969575392767365, -0.17387643561737956, 0.25218512318460506], [0.17083797375929966, 0.47887841488770183, 0.12868194645401482, 0.5092696836062489, -0.07182531644224947, -1.2446676910809578, 0.42853327925830964, -0.3951781987993173, -0.7020912987907773, -0.08727412396532798, 0.04754873164023561, -0.6937401547321592], [0.10201841855766357, 0.4460462284350102, 0.11505445553809485, 0.6711949500117508, 0.6990275954149425, -0.8445633881621877, -0.7518460923993586, 0.2709448133804347, 0.21258321725673385, -1.1909137680869746, 0.46468568209016103, -0.028816137774150825], [0.8635344076602411, 0.9348837668376633, -0.4887997447158181, -0.16834063995689938, 0.5304884795382572, -0.7243644399473461, 0.9791242201073782, 1.201125981943305, 0.2938034133597287, -0.11785659643858007, -0.48142197595235525, 0.06055131636033527], [-0.6063230531051069, 0.13809942641543788, 0.32404671577917477, -0.12527215264415298, -0.4323061309114832, -1.1761154192187044, -1.30643973588317, -0.40635606681230096, 0.10668664887011113, -0.5473801314643338, -0.44171922204130876, 0.6995750401897901], [0.2773853580133616, -0.7068576093617956, 0.3102021704614314, -0.15127788514104062, 1.1594170522141305, -0.31649583800453085, -0.4161261534138495, 0.8029888309490185, -0.48031680289765855, -0.04349742696493808, -0.6825836146863462, -0.4632734486185777], [-0.37384205867275794, -0.2592455649248884, 0.1071805912157909, -0.05567304291251425, -0.3624369185218811, 0.3629932394121597, 0.38225845597919045, -0.9690120219579614, 0.5009553730080014, -0.7849102657816536, -0.1605881911526347, -0.6037437872150618]], "biases": [[-0.07038481741738253, 0.14653607133678195, 0.041964685933528464, 0.13654324057712627, 0.13858612834681508, 0.14274619300180527, 0.19830795045692137, 0.012323733242178662, -0.20134613759811165, -0.0625224504445289, 0.1828141966101688, 0.3478184722836553]]}, "layer3": {"weights": [[-0.10600755092487088, 0.48280746617678627, -0.687048007045377, 0.5396066041387523, -1.2612866689283475, -0.034087380986850185, -0.716598866117399, 0.5253072384050477, -0.04673158335645483, 0.2588782272471486, 0.20419427256397932, 0.30204218687323225], [-0.4522779580817027, -1.2412522366565084, 0.44941370454452295, 1.121076918987312, -0.6998693119371082, 0.28089209164024576, -0.1882635280404745, -0.0034930649795161797, -1.2498274041256585, -0.09740539232862348, 0.27696933370549226, -0.3020079478555622], [-0.4407919527231547, -0.5362141876320402, 0.7147197841017252, -0.974881404969038, 0.14409021065928634, 0.1902794044988348, -0.38508303853198395, -0.21151461155615167, -0.008927192130448486, 0.15842648069158427, -0.2614720442736842, 0.49015985138852464], [-0.6953026373519086, -0.8389958001284944, 0.4673157340579558, 1.1689575992028713, 0.37518586262321424, 0.6018464093089821, -0.7486090767355216, -0.009831572248547388, -0.10148939413693685, -1.0512593146945735, 0.7150976861304212, 0.35440902779512273], [0.6634631369680979, -1.0326237115792392, -0.3968296757253629, 0.021105936086554745, -0.2977282675764062, -0.21664426699811767, -0.09238988730464458, 1.5475102297214, -0.2609501964591476, 0.7923063116700269, -0.6082362339841774, -1.3813770954644966], [-0.3180047536537615, -0.29722673590733123, -0.21338164069645243, -0.49218536684423364, -0.4102338107160816, 0.4011832594090661, -0.4762124890599593, -1.080393978125851, -1.1649830512066952, 0.11739776770203658, 0.7877769842350534, -0.04975464053133344], [0.06655351802681085, -1.176107495072207, 0.1964763436802322, -0.2605617416115526, -0.9764053159587965, -0.10935675085167607, -0.1840248322215536, -0.011824995348008169, -0.5577903255309657, 0.743788052920085, -0.4807863020994746, 0.8015240019482551], [-0.03688193407247074, 0.36062420339262763, -0.14630215970105898, -0.7955416303366846, 0.41860166767545504, -0.6599099632574935, -1.2009636345596164, -0.17094305445754227, -0.6285991696976463, 0.6597582040524622, 0.40158973680840576, -0.3735436721680696], [0.3616831882076738, 0.7972971466635623, -1.115313996090022, -0.29779976349905174, 0.12329411292291076, -0.7155592715382462, 0.44469493142056354, -0.14249692468480757, -0.13181905211397055, -0.20520507327104875, 0.25935340982563393, -0.7803872820788413], [0.44404483957709756, -0.2899150439576022, 0.48131745735926645, 0.016817465548973076, 1.196811003929168, 0.2393439709678688, 0.4917797926212886, -1.5115491392929503, -1.1928522446196927, 0.17874945524077643, -0.37201565069234194, -0.6327059926490362], [0.43167125723539834, 0.3426720661481462, 1.2174484762988773, -0.5532583047488235, 0.258309005723739, 0.16912327475727978, 0.030471989899602855, 0.4696035285528393, -0.8427545183431977, -0.9707708846234934, -0.48536919791371347, 0.49999831036738557], [0.32492940484597477, 0.30035757857670387, 0.16453740876001066, -0.5885108086139751, 0.6707277279606793, -0.7592817738949493, 0.6116338770971124, -0.7659835856868671, 1.2028735248105393, 0.2620770141119113, -0.4880978529568075, 0.0032414369346752715]], "biases": [[0.11132238596104269, 0.07733342389253972, -0.05262385353905353, 0.15175965287523824, -0.06947021991908942, 0.21907662197821232, -0.05858028982210683, -0.0866177500941846, -0.11454467772154572, -0.0886858044850018, 0.21116347025551838, -0.06257690111296273]]}, "layer4": {"weights": [[1.3637244235812531, -0.5533956201738977, 0.4296013746713746, 0.27326247030191764, -0.49677048539706703, 0.3049276782584456, 0.5889621029665466, -0.12601647795655146, 0.7515639669948049, 2.3798498722403143, -0.5638370833389208, -0.07410948870876505], [1.302752343335182, -0.18621561098432454, 0.14317658814034906, 0.16242609748101333, 1.8394315497172449, -0.8144321420438012, -0.1347529703887505, -0.057774557760957045, -0.7853384533685372, -1.3073820171474966, -1.462062788227379, 1.3936280495589612], [1.055922849654257, -0.9367719218861813, 0.3880948935259436, -0.36163639273775566, 0.014166887899053465, 0.1244274050673841, -0.8412865759900292, 0.10380621113093529, 0.24613125280234183, 0.3282898166468968, 0.2998648393345603, -0.030489092746082504], [0.07192602018015182, -0.5965022532972861, -0.10381710915236753, -0.1981831011299518, -1.1776762291190703, -0.9305446164372797, 0.8929094892891233, 0.1267598437949938, 0.7765940104666534, -0.7443588516310521, 0.5058222857807725, -0.4742584117492583], [-0.6996709453669234, 0.03181876272792494, -0.7031156123879092, 0.5382592735240348, -0.7095526404168112, 0.08500278630931113, 0.04062323416828202, 0.37630489510043197, 1.1265104406039095, 0.7899100126149781, -0.5290647729872666, -0.2963707798120194], [-0.08567374803391847, 0.8990137122904273, -0.6196645217123002, 2.0486632729218535, 0.6301192200712247, 0.7098947056587093, 0.8598492298349644, -1.5463642845249241, -0.6642274692379897, -0.35701237085768234, -0.3528782732657264, 0.0333565760186236], [0.9974346172180173, -1.5405602926432929, 0.6830406100941828, 0.6304537200432487, -0.15353195390158525, 0.6141949409662864, -0.16676580087695597, -0.2267753645271987, -0.07029026529971713, 0.7537543374046886, -0.24969687436797233, -0.8112451219988543], [1.2295219375447586, 0.7050900556805394, -0.3382479868995903, 0.12149634982463181, 0.21826043208156456, 0.22268551556622174, 0.005011346381574512, 0.7696012956345024, 0.94600235672219, 1.1248744409891474, -1.0354668406699354, 0.20527826729262533], [-0.24381975440801673, -0.6496460681159836, -0.8082564117017692, -0.560694847107404, -0.3404862827937569, -0.8990942471672555, -0.3759823897786074, -1.0511351616662998, 0.1128708419709339, 0.4436587686725755, -1.190082113163141, 1.189993332705594], [0.13090771408259702, 0.4263845489395157, -0.024042016890894528, -0.3551557103310341, -0.2519873755239092, -0.7106381897472236, 0.4052494144713982, -0.21225752165742384, 0.557710509901489, -0.1984183887229673, 1.860285241649648, -0.026159243192931662], [-1.0571272689864708, -0.2371340595918114, -1.5669761168597747, 0.4750314096893026, 0.13647109563386572, 0.155516685129386, 1.1998975206467661, -0.6163241131036656, 0.4009529662199409, -0.5898768951080745, -0.905761645839224, -0.20486507858131608], [0.02604626867291983, -1.4628555951253284, 0.6840839303496646, -0.7001825213786741, 1.4571544103100593, -0.2334989683092326, -1.7289307316896854, 0.6362947382120527, -0.47957933835387606, -0.14214844618686373, 0.05865899603675678, -0.4915101680446896]], "biases": [[0.010088032274518894, -0.068246547579979, -0.11970687192165944, 0.2858212433628132, 0.004653486000405313, 0.0179617520048097, -0.07632523546727234, 0.1636933819544947, 0.15927135864268235, -0.2062487161933042, 0.09049040400345468, -0.01115062187362767]]}, "layer5": {"weights": [[0.8332756452184159, -0.20377897868323552, -0.9321658764967673], [-0.053335272065896826, -0.30304359933066993, -0.6487184494220883], [0.2627701360236291, -0.06378185478007281, 0.5668970408281043], [0.0938895665995602, -0.08487810711810059, 0.6570528451319229], [0.11217691528452761, 0.7967919826024303, -1.0293144547484634], [-0.03191306826926052, -0.8984778302418088, -1.1128502739103991], [-0.7585090584060848, -0.24228332665032848, 0.4624266923760081], [-0.5905808540075527, -0.7540298931923779, -0.16382100818949102], [-0.906615325008352, 0.1723952590063707, 0.5024978601724439], [0.6680030976740903, -0.2745894608375116, -0.33267060883861954], [0.044226309101683334, 0.6800191865499248, -0.35432704411191585], [-0.05210297826804987, 1.0436657005918442, -2.2877560080418835]], "biases": [[-0.12720867120982352, 0.2821908538064759, -0.12695490479904098]]}}]