[{"layer1": {"weights": [[-0.05105591139524755, 0.18100985329491895, 0.4506485293421975, -0.12508055207930313, 2.1906112849471113, -0.2302991027384156], [1.2713466771883877, 1.3143538405865534, -0.8713133378902896, -0.5641360643662988, -0.9594100115953628, 0.8448149316378648], [0.05015114832149789, -1.0150378422933506, -1.076790800626116, 1.1300342581963523, 0.47895624121804276, -0.5630741418706231], [1.1237898308260856, -0.2473536786027118, -0.15064795935802125, -1.0260950926244203, -0.10107921036873967, 0.3008836660837816], [0.2832561669891873, -2.0738778786824414, 0.09999728374192632, 1.2649219656954234, -0.6836690710087989, 0.35401266603754145]], "biases": [[-0.11498850421949017, -0.053116584378847004, -0.35333248160737446, 0.05896579031293358, 0.0788515615295346, 0.07874785261735358]]}, "layer2": {"weights": [[1.4611890773296423, 0.2234517152382088, 1.2049050337070688, -1.062233048856104, -1.055779057891881, -0.6762107511818573], [0.56107849157028, 0.9242980137920653, 0.8899818056119615, -0.195943000927265, -0.08775892597668393, 0.612963860695503], [-0.05113194728653288, 1.2141678117077033, 1.1162699773883369, -1.7696429016416846, -0.4638313019549509, -1.103599457756188], [0.03451225794573726, 0.798028708581001, 0.3469245589403447, -0.0468427200269482, 1.0446871780707094, -0.6360096581435835], [-0.8565927171734298, -0.44051003766198127, 0.15096836033576366, -1.2737762162682889, -0.340080941113884, 0.21571443252361122], [-0.12334551260002366, -0.6763921240649295, -2.2797196729067037, -0.648392093274337, -1.4995851808677787, -1.8237699169843702]], "biases": [[0.039230721639784305, 0.03959469812006496, -0.23217692879705443, -0.11727684568131082, -0.15880408815475783, 0.3311306896886313]]}, "layer3": {"weights": [[-0.43124258150916794, -1.5120242893456584, 0.48551345890653885], [0.2839670064151505, -0.008158961390199185, -0.7289274126529445], [0.37621226875483993, -1.5417360886833187, -0.008998188484500486], [1.644404172700015, 0.27984100656798, -0.668536668875958], [-0.10154948272165426, -0.2919286749702332, 1.1213697833990695], [0.2414056067907182, -0.653172532037388, -0.352297591810269]], "biases": [[0.23200752412354073, 0.0378665432762081, 0.07380803872353206]]}}, {"layer1": {"weights": [[-0.0378959299825174, 0.4482903745992546, 0.42853291286848055, -0.09941047761409316, 2.365608663854209, -0.23015033563382803], [1.2627681504982888, 1.3533306693590075, -0.8756641565331367, -0.568759623440462, -0.9549190726988287, 0.8564814721634959], [0.07592740881922616, -0.8109018525886009, -1.0319892640439416, 1.0386855212981307, 0.24330685730958101, -0.5825205491033467], [1.1240188413188181, -0.2660759808852097, -0.2721620072572514, -1.039539984246121, -0.10104052557457643, 0.22538929131111635], [0.286544506369117, -2.06658364429901, 0.1219075539200723, 1.2896888056466147, -0.6897796909272476, 0.36007906272725054]], "biases": [[-0.11764712593324857, -0.061188951484409934, -0.3533873968876327, 0.0671418128721823, 0.08379274761171973, 0.07824986269613547]]}, "layer2": {"weights": [[1.4818707033783913, 0.2176779125077218, 1.2033027939903629, -1.068926938444307, -1.057856554391126, -0.8670595286013818], [0.5747174806346929, 0.89926467676817, 0.8857004194554368, -0.1894374053682219, -0.08702149989067683, 0.8492850306257499], [0.0014638396625109443, 1.2126453409036424, 1.2126276308187545, -1.73656374811413, -0.4633688919223287, -1.0324932815560548], [0.10342183132731098, 0.8785349278899404, 0.532294366333279, 0.04459910901743119, 1.0500817848166197, -0.6476900314581626], [-0.8677945923570445, -0.4530062179774602, 0.11346031114184311, -1.300970546626092, -0.33897787346123587, 0.19707585844301206], [-0.12008906592309614, -0.6880488138692971, -2.280843821225237, -0.6699636001712973, -1.5200444163365696, -1.8432107338962163]], "biases": [[0.008560884988681034, 0.058247359172870786, -0.24735626300110183, -0.1171429017846559, -0.1404901759269953, 0.33231579010696427]]}, "layer3": {"weights": [[-0.4550503258511239, -1.521499815594333, 0.5383079222989693], [0.26659728724165194, 0.12103201058158956, -0.7177666835166481], [0.3896272302762951, -1.6228773012021906, 0.12799962140578647], [1.5920191710790177, 0.2509465375744806, -0.6599731279854719], [-0.10839421616063691, -0.2434185348157134, 1.1149018987137909], [0.23384262504743586, -0.6661217592821866, -0.38733092238517475]], "biases": [[0.17505734809894347, 0.009260406054879329, 0.074137745784074]]}}, {"layer1": {"weights": [[0.022550994109308962, 0.199626052660538, 0.4666743034686587, -0.127072759659276, 2.185302104942075, -0.22848069411319039], [1.2739145832498397, 1.2882979974272932, -0.8817993970028541, -0.5507729342892904, -0.7876955091256732, 0.830401222501373], [0.05197436001140738, -0.973987376280628, -0.9864517790848027, 1.1261126551827774, 0.26787202318098785, -0.6624596774838679], [1.1242545895684408, -0.2088156336148777, -0.1763606461137785, -1.0764567657124788, -0.1278322113752163, 0.30917653200364514], [0.28935230637709014, -2.046167918809094, 0.09576202380500647, 1.2744679930353051, -0.7175403366368123, 0.3518395001730369]], "biases": [[-0.12918085755054498, -0.04807141426978975, -0.35375085706628084, 0.06935657523013664, 0.09370518419903527, 0.07623195486523432]]}, "layer2": {"weights": [[1.451669371100305, 0.22104253502558088, 1.2001250300006843, -1.0662092404664518, -1.042078054055013, -0.631122325293222], [0.5643989276380185, 0.9265664662272518, 0.8728321904249722, -0.1253015178378622, -0.08464535737143211, 0.5943686231619423], [-0.034842097924043317, 1.2706536285378203, 1.2336007793122477, -1.7768596589150403, -0.4532685560900773, -1.1342123601644456], [0.07684412266586589, 0.8017467229875084, 0.36328766333328066, 0.02303199129517594, 1.0450771826106526, -0.641102981655377], [-0.865717634505485, -0.4036503898870729, 0.10472869047221844, -1.3214125019814134, -0.3365229931721724, 0.17757481021728638], [-0.10338617287443466, -0.671511067003181, -2.1477561760075825, -0.690517876412278, -1.5213226077680981, -1.7988329243912486]], "biases": [[0.06499965918834172, 0.033432899292208836, -0.22331984209298916, -0.11701248849604332, -0.1381125335578922, 0.339327276142935]]}, "layer3": {"weights": [[-0.460277407316981, -1.5055258671184801, 0.4853475477274336], [0.3041967780275985, 0.1146646240978805, -0.7127919220185184], [0.43447754268960903, -1.540809578685204, 0.08037460965502097], [1.6741003174192577, 0.29640392316411324, -0.6751101694114328], [-0.12086866973222415, -0.22055424593257844, 1.119050543969382], [0.22515037672346946, -0.6892741143998334, -0.35566844110349316]], "biases": [[0.23305771788718627, 0.03381640567430112, 0.07400898400437117]]}}, {"layer1": {"weights": [[0.03890718395208563, 0.23222934882819277, 0.48874128716559506, -0.10058436631196699, 2.185871852757573, -0.22953925468183956], [1.2600453722783822, 1.3261993257414662, -0.7653232548673905, -0.5512669327540531, -0.9517243976369743, 0.8494937806932354], [0.04100069615126087, -1.0349006228033066, -1.0254390035733116, 1.0938002384672516, 0.2725505328376084, -0.5692859795323711], [1.1754701328784765, -0.25736771840344813, -0.21048976777690337, -1.0557946410153922, -0.10102303077042431, 0.23103755377715152], [0.20150239344067677, -2.135508053627734, 0.2267785368248879, 1.2970495391783547, -0.6979991538781034, 0.3614510029974003]], "biases": [[-0.12062573756506859, -0.0632081834595427, -0.3535374151270192, 0.07306071192661712, 0.08874319650655438, 0.07728444471859602]]}, "layer2": {"weights": [[1.535134609462173, 0.23885953064741178, 1.229716564779276, -1.079093370312029, -1.0782825567276615, -0.6909111599840062], [0.5821030689715975, 0.9006647371089652, 0.8803791340596467, -0.23205758777845908, -0.08557508259008942, 0.6578160912312581], [-0.010021338266469611, 1.2113649222107494, 1.2257515328199478, -1.7378538132026933, -0.2438332902077064, -1.109200362673714], [0.09661107082742075, 0.8040237762139056, 0.35941637694530104, -0.06784251393123993, 1.050280253884282, -0.6551793413269935], [-0.8716908775392298, -0.5353720298873725, 0.11583778746505627, -1.393760281715456, -0.33782128338766026, 0.19273166357576227], [-0.11368280959739156, -0.6901009769177366, -2.2809668042615954, -0.6904061969715739, -1.504637396844184, -1.8302871232443112]], "biases": [[0.03934314686450055, 0.06190676562109083, -0.22486338515557736, -0.11701010446127635, -0.15721002476699744, 0.3352194087529167]]}, "layer3": {"weights": [[-0.48197119263826194, -1.565206999778453, 0.5432734323733892], [0.21036381521781214, 0.0030078881533061597, -0.7073934391001043], [0.43049545244016685, -1.622461621693558, 0.1304260563082451], [1.6650783947383259, 0.2564717491036662, -0.6595628288625994], [-0.11662643344700047, -0.26317126094998927, 1.1126785829817352], [0.22625516882886074, -0.6783352332537687, -0.21228966445652414]], "biases": [[0.22995104210175904, 0.0072395308482117275, 0.07421982824258841]]}}, {"layer1": {"weights": [[0.006710912974372775, 0.1697927307621424, 0.45567081848028546, -0.12390666338142928, 2.1929236100979947, -0.14747312830423057], [1.274069455408294, 1.3414851842040947, -0.8652193128238388, -0.5816287550527077, -0.9626046866572173, 0.8518026231081252], [0.05275081989224154, -1.0301797891469175, -1.0926845845924396, 1.1334981915414652, 0.19352178155088653, -0.5763087114415987], [1.140339631668025, -0.25606194108447333, -0.16737465503093524, -1.0098404358551492, -0.1010967051728918, 0.2952354036177464], [0.27921234855845894, -2.0057366169048167, 0.1230030134938131, 1.2575612321636833, -0.6754496080579431, 0.3526407257673917]], "biases": [[-0.11200989258767016, -0.05109735240371425, -0.353182463367988, 0.05304689125849876, 0.07390111263469995, 0.07971327059489303]]}, "layer2": {"weights": [[1.4623173788027237, 0.226106968169269, 1.206110252296693, -1.052066616988382, -1.0353530555553454, -0.6707414405129339], [0.5536929032333754, 0.9228979534512701, 0.8953030910077516, -0.11375101269423699, -0.08920534327727134, 0.6172748199891555], [0.014074404305473319, 1.2154482304005962, 1.2012555410431598, -1.7683528365531216, -0.4656672170934876, -1.0939013870438907], [0.11544167172256105, 0.8029416934032066, 0.34214726022861797, -0.02076847230363496, 1.0444887090030472, -0.6285203482747526], [-0.8526964319912443, -0.4310155655315492, 0.1485908840125505, -1.272316411375928, -0.3412375311874596, 0.22005862739086102], [-0.12975176892572823, -0.67433996101649, -2.2795966898703455, -0.6279494964740604, -1.6237755229836761, -1.9340003438885056]], "biases": [[0.02459854673609623, 0.050851219043795436, -0.2358349805478273, -0.19731669843694433, -0.14208423931475567, 0.32822707104267884]]}, "layer3": {"weights": [[-0.40432171472203, -1.5090895019799078, 0.4805479488321189], [0.2836975312924012, 0.10986516103808422, -0.7393006570694882], [0.39194709154588386, -1.3612364255468121, 0.12559254917199147], [1.5713449490407068, 0.27431579503879444, -0.6689469679988306], [-0.0933172654352907, -0.2721759488359574, 1.1235930991311252], [0.24899306300929333, -0.640959058065806, -0.35801733982244566]], "biases": [[0.23161276701985178, -0.010874401333316047, 0.07372595626501764]]}}, {"layer1": {"weights": [[0.045331435029003775, 0.1631276472436753, 0.4399648821457289, -0.07496738798949322, 2.17934262987718, -0.17155909987650203], [1.2810090758392132, 1.3606215971909597, -0.8640977405329587, -0.5549021697947158, -0.9628478063131845, 0.893316877798812], [0.026531066188892956, -0.9493363034413498, -1.0023044958514549, 1.0029876367261565, 0.21101219434471652, -0.5868478134983421], [1.1243956537986208, -0.23585830652679451, -0.18542197107702657, -1.068600824783132, -0.19337532271853697, 0.32243228812159797], [0.28131219558079434, -2.0187395550136884, 0.1205689383411502, 1.2397890480845932, -0.6825324737135088, 0.3616834171461386]], "biases": [[-0.1020093356085297, -0.05511350037845296, -0.3534942305009253, 0.06929401614218295, 0.09367838034905249, 0.07743116582717255]]}, "layer2": {"weights": [[1.3542923713985018, 0.26431459124256107, 1.1941172175423986, -1.0829960806982943, -1.0793706305696174, -0.6011815274789686], [0.5728393827556778, 0.9279653015274911, 0.8759815585237697, -0.2255526408281116, -0.08545209973825461, 0.59249037809111], [0.007712245191884272, 1.2098797954973548, 1.2245501494072308, -1.719386289796442, -0.46030158050920805, -1.0944204479093531], [0.09377879564160888, 0.8102706214340979, 0.3430430056959079, 0.020244248198052386, 1.0506164325360912, -0.5990135471970384], [-0.8803618457425273, -0.2905269887460486, 0.07667649345959052, -1.3287183405050769, -0.32110674332875083, 0.17617170308506652], [-0.11902959756981156, -0.6994621305034663, -2.2824818113605305, -0.7279320065748474, -1.740341792810256, -1.8497914924447414]], "biases": [[0.026530147145516273, 0.048676911895220935, -0.2155555203063065, -0.11697268959161926, -0.1389385089189793, 0.3388644989177293]]}, "layer3": {"weights": [[-0.5037194985707854, -1.5236678535114487, 0.5892257804710251], [0.23947697885010324, 0.13191156389732137, -0.6911855924224154], [0.4340166710490488, -1.5404633720177747, 0.1308966266049044], [1.6604028573054768, 0.2973182863953869, -0.6540230506614], [-0.13674683658957112, -0.19890637703252592, 1.09440427392829], [0.20545519746077767, -0.6914064028312851, -0.3494473330535959]], "biases": [[0.2323018889077231, -0.021465725849046505, 0.07479564070648115]]}}, {"layer1": {"weights": [[-0.06215639657591856, 0.18100985329491895, 0.6570919070818988, -0.12508055207930313, 2.1906112849471113, -0.2302991027384156], [1.2713466771883877, 1.3767604739752526, -0.8713133378902896, -0.5641360643662988, -0.9594100115953628, 0.8448149316378648], [0.05015114832149789, -1.0150378422933506, -1.0423288311299357, 1.028526880722597, 0.30362685916297505, -0.5630741418706231], [1.1237898308260856, -0.2473149370210344, -0.1885973260218441, -1.0260950926244203, -0.28066721419009577, 0.40261218930923115], [0.2832561669891873, -2.0738778786824414, 0.09999728374192632, 1.2649219656954234, -0.6836690710087989, 0.35401266603754145]], "biases": [[-0.11498850421949017, -0.053116584378847004, -0.35333248160737446, 0.05896579031293358, 0.0788515615295346, 0.07874785261735358]]}, "layer2": {"weights": [[1.4611890773296423, 0.2567560582843146, 1.2049050337070688, -1.062233048856104, -1.0300408824085379, -0.6762107511818573], [0.5233021135878123, 0.9242980137920653, 0.8901248914474558, -0.17021654521622087, 0.016957703085168543, 0.612963860695503], [0.0025892263764927623, 1.1035424015477306, 1.214379443044353, -1.7696429016416846, -0.3450548541718367, -1.103599457756188], [0.10863091122267082, 0.798028708581001, 0.3469245589403447, -0.011239806756593087, 1.0446871780707094, -0.5477168905768537], [-0.8565927171734298, -0.44051003766198127, 0.02310822214058328, -1.2737762162682889, -0.340080941113884, 0.21383051129937364], [-0.12334551260002366, -0.674196484378549, -2.2797196729067037, -0.648392093274337, -1.5395726703906096, -1.8953288766972403]], "biases": [[0.039230721639784305, 0.05451062549201548, -0.23814792766742393, -0.11727684568131082, -0.11520424767100991, 0.3311306896886313]]}, "layer3": {"weights": [[-0.43124258150916794, -1.5120242893456584, 0.48551345890653885], [0.2839670064151505, 0.11105713897317496, -0.7289274126529445], [0.37621226875483993, -1.5417360886833187, 0.12801898407445012], [1.580272582194849, 0.27984100656798, -0.668536668875958], [-0.3142793959870672, -0.2919286749702332, 1.1213697833990695], [0.2414056067907182, -0.653172532037388, -0.28417521322902484]], "biases": [[0.23200752412354073, 0.0378665432762081, 0.04295265198172856]]}}, {"layer1": {"weights": [[0.0405555688583708, 0.1641134470750817, 0.4770223673825633, -0.13126863424073623, 2.1859821141533553, -0.22869885473818294], [1.2747595526792372, 1.3188226123623839, -0.8827765338007723, -0.5641452732475053, -0.9438779909629846, 0.7864825083525656], [0.04144242673128978, -0.9739033414434302, -1.0144840834343902, 1.097860784080049, 0.3378819941377389, -0.582164330756741], [1.1242166814155512, -0.019553813231309086, -0.16208198955565933, -1.07973228506949, -0.10109033547592544, 0.31606516016919084], [0.2830031422374661, -2.068806291883093, 0.04295025848360262, 1.0531542017040185, -0.6924296997043576, 0.3463816422230813]], "biases": [[-0.14065048508465053, -0.04094630359550162, -0.3536799409983458, 0.015746574969270104, 0.09370179683379519, 0.07676223417473983]]}, "layer2": {"weights": [[1.4532704009388935, 0.24137947091243842, 1.2198632570528516, -1.0581508028415596, -1.1400609436442135, -0.5774316246810318], [0.5457441591507954, 0.987316833568606, 0.8721676271173127, -0.21740864665632714, -0.08848799944372733, 0.5899756875237834], [0.16878648428576887, 1.1980248585303257, 1.2330250512569387, -1.7375004649889556, -0.45010647470527027, -1.1199624243787802], [0.09173812059007458, 0.8024381998401, 0.3682551046012247, 0.03011582775885198, 1.0312853254485455, -0.6403379799309414], [-0.8696116044484934, -0.45455290939634696, 0.15007123562079, -1.3639732215233265, -0.19276248123875903, 0.18365457716654413], [-0.10417407641202181, -0.6516199877455067, -2.272626445111591, -0.7238921643391304, -1.5481467787661267, -1.926189279107798]], "biases": [[0.024073837572115647, 0.049224642622733114, -0.2201040360666155, -0.11712149613857972, -0.1386517760033225, 0.3406746569962287]]}, "layer3": {"weights": [[-0.434645525389355, -1.485245634500969, 0.4657898130134266], [0.26030452981359015, 0.12811485410339676, -0.7001579077240003], [0.414566660789328, -1.5285228644099713, 0.09078409069241605], [1.6964896776652187, 0.29657409250243827, -0.6944014432461479], [-0.13082125159914024, -0.20472508617565782, 1.1212997523685582], [0.22768297466158677, -0.6890141798741041, -0.38469122589891014]], "biases": [[0.23276628587764062, 0.030779771983710163, 0.0742981127044109]]}}, {"layer1": {"weights": [[-0.07120177859360734, -0.10527375379845996, -0.22863194349010438, -0.28625354587704993, -1.1512384582317006, -0.2660292591602416], [-0.30619480555313, 0.4350247476089664, 0.466893140612165, -1.281948341663891, 0.024184365401293793, -0.9462329710334005], [0.4538673002595362, -0.17912677011223893, 1.6223384988412057, -0.11719361652841695, -1.2157849526073643, 2.2498132694283326], [-1.0620776782982357, -0.7495577135135945, 1.2730429153035714, 1.0618649104767794, -0.6759101080830849, -1.8649813443577365], [-0.3249071228690277, 0.8614207077145486, 1.8782778549150345, 0.8936019880288782, -1.0594798033752242, -0.3400002312349613]], "biases": [[-0.02938101118060701, 0.02609855226804282, -0.08180902340572349, -0.05072099242438421, -0.004919078947126218, 0.05952584631540212]]}, "layer2": {"weights": [[-2.1844796030338367, 3.079118938515992, 1.2976961199850163, 1.3165439418658675, -0.4518242073153213, -0.7640485837095526], [-0.4208015282410447, 0.714872167916702, 1.1040356261037312, -1.5190471435478263, 0.4607741665114125, 0.3251141600745212], [1.2599631842714334, 2.1125943264904703, 0.33475686813444977, -0.8177824922943988, -0.28165303452156937, -0.47269916083322977], [0.6873507242682875, 1.033809731294287, 1.3133548860547484, 1.4954475630295256, -0.41790047860000024, -0.15001256305502356], [-0.034237370648441096, -0.8856309467269237, -0.19718591332861815, 1.4508356045826207, -1.9354368094442727, -0.13567543377692576], [0.20267502326028658, 1.093638655317912, -0.5083493170048815, -0.9020139157693919, -0.25882449312233174, 1.485218846608033]], "biases": [[-0.05370222846817289, -0.158091472002514, 0.052263690622440295, 0.10613448772201235, 0.07530706092687528, -0.017273048820872525]]}, "layer3": {"weights": [[-1.635373884125525, -0.616317342623027, -0.09909813769197386], [-0.3214441595052857, 1.0603120608450407, 0.2848876877432342], [0.9994811807809381, -2.3555083164931934, 2.0432330425227185], [-1.5212231294470044, 1.2187439161740166, 0.434384507292344], [-0.28053673840149995, 0.5236426394053572, -0.16793407410893407], [-0.6949453887467578, 0.4642173729065336, 1.239023289280801]], "biases": [[0.10295644610848183, -0.10048015456806295, -0.05914661329302543]]}}, {"layer1": {"weights": [[-0.05105591139524755, 0.18100985329491895, 0.4506485293421975, -0.12508055207930313, 2.1906112849471113, -0.2302991027384156], [1.2713466771883877, 1.3143538405865534, -0.9932086102139068, -0.5641360643662988, -0.9594100115953628, 0.8448149316378648], [0.05015114832149789, -1.0150378422933506, -1.076790800626116, 1.2871562447080076, 0.30362685916297505, -0.5630741418706231], [1.1237898308260856, -0.2473536786027118, -0.15064795935802125, -1.0173401498659411, -0.10107921036873967, 0.3008836660837816], [0.2832561669891873, -2.25727206991365, 0.09999728374192632, 1.2649219656954234, -0.6836690710087989, 0.32340813469706936]], "biases": [[-0.11498850421949017, -0.053116584378847004, -0.35333248160737446, 0.05896579031293358, 0.04187199264447978, 0.07874785261735358]]}, "layer2": {"weights": [[1.4611890773296423, 0.2234517152382088, 1.2049050337070688, -1.062233048856104, -1.055779057891881, -0.6762107511818573], [0.56107849157028, 0.8265658234365622, 0.8899818056119615, -0.195943000927265, -0.08775892597668393, 0.612963860695503], [0.0025892263764927623, 1.2141678117077033, 1.214379443044353, -1.7696429016416846, -0.6275713082571258, -1.103599457756188], [0.10863091122267082, 0.798028708581001, 0.3469245589403447, -0.0468427200269482, 1.0446871780707094, -0.6657438642605159], [-0.8565927171734298, -0.44051003766198127, 0.15096836033576366, -1.2737762162682889, -0.340080941113884, 0.21571443252361122], [-0.12334551260002366, -0.6763921240649295, -2.2797196729067037, -0.6593181962120609, -1.4475458049406873, -1.8237699169843702]], "biases": [[0.039230721639784305, 0.05451062549201548, -0.23217692879705443, -0.11727684568131082, -0.15880408815475783, 0.3311306896886313]]}, "layer3": {"weights": [[-0.43124258150916794, -1.5120242893456584, 0.48551345890653885], [0.16951021331897748, -0.07853211973830454, -0.7289274126529445], [0.37621226875483993, -1.5417360886833187, 0.12801898407445012], [1.6457929612853097, 0.27984100656798, -0.668536668875958], [-0.10154948272165426, -0.2919286749702332, 1.1213697833990695], [0.2414056067907182, -0.653172532037388, -0.352297591810269]], "biases": [[0.23200752412354073, 0.0378665432762081, 0.07380803872353206]]}}, {"layer1": {"weights": [[0.0399980932491181, 0.21628098078102198, 0.424846698152543, -0.09453194560844237, 2.18511859393795, -0.22993721197901318], [1.2523554192635218, 1.354784002385104, -0.9019890551289662, -0.5554286737794233, -0.9484429305365205, 0.8433813884922223], [0.02431763945580996, -1.0285944820734856, -1.0045557313038092, 1.1221842922373058, 0.270869927343069, -0.5736319201540665], [1.1241294909054482, -0.100721635615547, -0.22583176446029274, -1.1143931036155812, -0.09171321506610808, 0.19385502370749766], [0.2987267111334835, -2.005432788343132, 0.11748055344812094, 1.2097874714388288, -0.797652782440665, 0.36662164900986627]], "biases": [[-0.1282419673652183, -0.06522754638089856, -0.3671115436374344, 0.07897547877273982, 0.09367997562086702, 0.07784371628208392]]}, "layer2": {"weights": [[1.480943020128604, 0.2364481370640381, 1.201141680685666, -1.0269875002894397, -0.9995107909163402, -0.4894778762093192], [0.5669776569610409, 0.9000307164842327, 0.8423839630981609, -0.22049052670604993, -0.0862086808968866, 0.6138993646329814], [-0.005589125115031879, 1.212627969563369, 1.237456863781528, -1.7077352400894972, -0.46354809869804403, -1.1005621480901635], [0.09762510481699435, 0.8101592773615325, 0.36815064622432253, 0.06105495401130682, 1.0502101527480496, -0.6635017538697378], [-0.7658362351392534, -0.4624016680282762, 0.11340925750078222, -1.3511878998218383, -0.3399045928705905, 0.17812420851576752], [-0.11574101806009628, -0.7466792297166608, -2.2816143996800187, -0.7139645302771177, -1.5031614412974719, -1.8174822402557624]], "biases": [[0.02424312221180555, 0.057873273774082024, -0.2299351264857281, -0.11707018341545992, -0.14046559862397517, 0.3342773815975413]]}, "layer3": {"weights": [[-0.4703441995552827, -1.5247269069100753, 0.5435558211380128], [0.3284107084046062, 0.1380034966540628, -0.705260737882813], [0.4335033257335188, -1.6226424675984097, 0.18699381323724668], [1.6023174432844596, 0.26257535519341946, -0.6611728143577262], [-0.15906211434775974, -0.22354785249411546, 1.1178703689144043], [0.20522106439305002, -0.6270304663849624, -0.4147930521386607]], "biases": [[0.22970547943321537, 0.005270796414184067, 0.07512609156571728]]}}, {"layer1": {"weights": [[0.042669530481354495, 0.18938733398416513, 0.45630201465524856, -0.12993542620683043, 2.184828211823908, -0.22858235731031656], [1.268968947603953, 1.2827454901536708, -0.8758903468045394, -0.5379016327772886, -0.946851988686392, 0.7609326263542533], [0.04189728017027835, -0.9717576715880398, -1.0217967660807679, 1.108751621120531, 0.3378594725759375, -0.6146760741944464], [1.1243039021414845, -0.1269043117636945, -0.16740419296457948, -1.0772956740008621, -0.10105853071610438, 0.316946806825539], [0.16852047741696552, -2.0542676931071844, 0.03696517648493432, 1.170079183997331, -0.700378579782862, 0.35225506453553607]], "biases": [[-0.13228741209980038, -0.05006029194987345, -0.35373123866193984, 0.04623453122275407, 0.09370235252391684, 0.07630691642973753]]}, "layer2": {"weights": [[1.455537286924646, 0.2284327136787333, 1.2105763174955237, -1.0754415736504144, -1.0770826533061644, -0.6350251539348295], [0.5644897078658946, 0.9579075141915285, 0.8730927882709519, -0.16650005254118577, -0.08595383675932451, 0.5950033351691646], [0.06846008843765998, 1.318835822158228, 1.2734053807248866, -1.7555067809481648, -0.4924790197604001, -1.1263280471359298], [0.08996837515653737, 0.8064988647798524, 0.3647557798383748, 0.023731008821692257, 1.0382839553611207, -0.6494077838405089], [-0.8689465885842397, -0.4617731817248123, 0.15408601246309656, -1.321064426234349, -0.2646868260659581, 0.19316821254420302], [-0.10415041001746587, -0.6626930211051163, -2.2763575335636848, -0.7168060240071485, -1.52074919533979, -1.8555941820682262]], "biases": [[0.0536005419614821, 0.05735674372970436, -0.22065340480567563, -0.19065130732013433, -0.13824346405531032, 0.3402581013113587]]}, "layer3": {"weights": [[-0.4733253536299685, -1.5030371429719398, 0.4830999010716127], [0.30221948857212216, 0.12137396344092198, -0.6989827935636568], [0.4566917980178916, -1.534505957283696, 0.11304118973712107], [1.6788668287315014, 0.29649536682898747, -0.6808536073767442], [-0.07231169241622741, -0.2197340305711003, 1.1179997942857303], [0.22316310639828985, -0.7271114417811663, -0.3599147868363246]], "biases": [[0.2329790406561241, 0.031291844819957726, 0.07417619940174308]]}}, {"layer1": {"weights": [[0.03890718395208563, 0.23222934882819277, 0.4235106237303926, -0.05242473292083594, 2.185871852757573, -0.22953925468183956], [1.2600453722783822, 1.3261993257414662, -0.8714625549589197, -0.5512669327540531, -0.9517243976369743, 0.8494937806932354], [0.04100069615126087, -1.0349006228033066, -1.0254390035733116, 1.0938002384672516, 0.21183150633144165, -0.5692859795323711], [1.1242192719992623, -0.25736771840344813, -0.35249505416294136, -0.9784567898771703, -0.10102303077042431, 0.23103755377715152], [0.2905883247998454, -2.0154386212346154, 0.09890182416818552, 1.2970495391783547, -0.6979991538781034, 0.3614510029974003]], "biases": [[-0.12062573756506859, -0.0632081834595427, -0.3535374151270192, 0.07306071192661712, 0.08874319650655438, 0.07728444471859602]]}, "layer2": {"weights": [[1.48074240190531, 0.23885953064741178, 1.2577517920119643, -1.079093370312029, -1.0782825567276615, -0.6909111599840062], [0.5821030689715975, 0.9006647371089652, 0.8803791340596467, -0.23205758777845908, -0.08557508259008942, 0.5819875741934507], [-0.010021338266469611, 1.2113649222107494, 1.2257515328199478, -1.7378538132026933, -0.461532976783792, -1.109200362673714], [0.09661107082742075, 0.8040237762139056, 0.35941637694530104, 0.018524861294117956, 1.050280253884282, -0.6551793413269935], [-0.8716908775392298, -0.48976414856140943, 0.11583778746505627, -1.3024303515184528, -0.33782128338766026, 0.19273166357576227], [-0.11368280959739156, -0.6901009769177366, -2.2809668042615954, -0.6904061969715739, -1.504637396844184, -1.8302871232443112]], "biases": [[0.03934314686450055, 0.1778864740360818, -0.22486338515557736, -0.11701010446127635, -0.15721002476699744, 0.3352194087529167]]}, "layer3": {"weights": [[-0.48197119263826194, -1.5244346029600837, 0.5549672322575558], [0.26686676236440127, 0.0030078881533061597, -0.7073934391001043], [0.43049545244016685, -1.622461621693558, 0.1304260563082451], [1.6650783947383259, 0.2564717491036662, -0.6595628288625994], [-0.11662643344700047, -0.3317319132683762, 1.1126785829817352], [0.22625516882886074, -0.6783352332537687, -0.3816111743729981]], "biases": [[0.22995104210175904, -0.060002984068500256, 0.07421982824258841]]}}, {"layer1": {"weights": [[0.0399980932491181, 0.21628098078102198, 0.424846698152543, -0.09453194560844237, 2.18511859393795, -0.22993721197901318], [1.2523554192635218, 1.354784002385104, -0.9019890551289662, -0.49609564326094496, -0.9484429305365205, 0.8433813884922223], [0.02431763945580996, -1.0285944820734856, -1.0045557313038092, 1.0942229064940125, 0.270869927343069, -0.5736319201540665], [1.1241294909054482, -0.27618985813240043, -0.22583176446029274, -1.1143931036155812, -0.10102568506163195, 0.19385502370749766], [0.2987267111334835, -2.005432788343132, 0.11748055344812094, 1.193452214090885, -0.6924627888982231, 0.36662164900986627]], "biases": [[-0.1282419673652183, -0.06522754638089856, -0.3671115436374344, 0.07271716161075287, 0.09367997562086702, 0.1058194276209757]]}, "layer2": {"weights": [[1.480943020128604, 0.2364481370640381, 1.201141680685666, -1.0540548841372313, -0.9995107909163402, -0.6401115454011708], [0.5669776569610409, 0.9000307164842327, 0.8423839630981609, -0.22049052670604993, -0.0862086808968866, 0.6138993646329814], [-0.005589125115031879, 1.212627969563369, 1.237456863781528, -1.7077352400894972, -0.6476131290546085, -1.1005621480901635], [0.09762510481699435, 0.8101592773615325, 0.36815064622432253, 0.06105495401130682, 1.0502101527480496, -0.6635017538697378], [-0.8778865939055013, -0.4624016680282762, 0.11340925750078222, -1.3511878998218383, -0.3399045928705905, 0.17812420851576752], [-0.11574101806009628, -0.6897204351141496, -2.2816143996800187, -0.7139645302771177, -1.5031614412974719, -1.8174822402557624]], "biases": [[0.02424312221180555, 0.057873273774082024, -0.2299351264857281, -0.11707018341545992, -0.14046559862397517, 0.3342773815975413]]}, "layer3": {"weights": [[-0.4703441995552827, -1.5247269069100753, 0.5435558211380128], [0.3284107084046062, 0.05500471352974007, -0.6939196817675596], [0.4335033257335188, -1.5735435951197556, 0.18699381323724668], [1.6023174432844596, 0.26257535519341946, -0.6611728143577262], [-0.12332053465256428, -0.22354785249411546, 1.1178703689144043], [0.20522106439305002, -0.6917038032445759, -0.4147930521386607]], "biases": [[0.22970547943321537, 0.005270796414184067, 0.09145432427430356]]}}, {"layer1": {"weights": [[0.042669530481354495, 0.18938733398416513, 0.45630201465524856, -0.12993542620683043, 2.184828211823908, -0.22858235731031656], [1.268968947603953, 1.2827454901536708, -0.8758903468045394, -0.5379016327772886, -0.946851988686392, 0.8051671827898247], [0.04189728017027835, -0.9838501114238816, -1.0217967660807679, 1.108751621120531, 0.3378594725759375, -0.6146760741944464], [1.0640179160729377, -0.1269043117636945, -0.16740419296457948, -1.0772956740008621, -0.10105853071610438, 0.316946806825539], [0.2891953822594193, -1.944828587106977, 0.03696517648493432, 1.170079183997331, -0.700378579782862, 0.35225506453553607]], "biases": [[-0.13228741209980038, -0.05006029194987345, -0.2710382590341069, 0.04623453122275407, 0.09370235252391684, 0.07630691642973753]]}, "layer2": {"weights": [[1.455537286924646, 0.2284327136787333, 1.2105763174955237, -1.0754415736504144, -1.0770826533061644, -0.6350251539348295], [0.5644897078658946, 0.9579075141915285, 0.8730927882709519, -0.2191531859850636, -0.08595383675932451, 0.5950033351691646], [0.050912212762800585, 1.204175707079675, 1.2433881001524356, -1.7555067809481648, -0.4542150156223056, -1.1609680131975373], [0.08996837515653737, 0.8064988647798524, 0.3647557798383748, 0.023731008821692257, 1.0382839553611207, -0.6494077838405089], [-0.8689465885842397, -0.4544304194734165, 0.15408601246309656, -1.321064426234349, -0.2646868260659581, 0.19316821254420302], [-0.10415041001746587, -0.6626930211051163, -2.2763575335636848, -0.7168060240071485, -1.4157352393106257, -1.8555941820682262]], "biases": [[0.0536005419614821, 0.05735674372970436, -0.22065340480567563, -0.11699997492487595, -0.13824346405531032, 0.3402581013113587]]}, "layer3": {"weights": [[-0.4733253536299685, -1.5030371429719398, 0.4830999010716127], [0.2725399807984943, 0.12137396344092198, -0.6989827935636568], [0.4566917980178916, -1.534505957283696, 0.11304118973712107], [1.6788668287315014, 0.29649536682898747, -0.6808536073767442], [-0.12853369308994256, -0.2197340305711003, 1.120451588593649], [0.22316310639828985, -0.6480982688809285, -0.3599147868363246]], "biases": [[0.2329790406561241, 0.031291844819957726, 0.07417619940174308]]}}, {"layer1": {"weights": [[0.027806698771414617, 0.23222934882819277, 0.4213366103158265, -0.10058436631196699, 2.185871852757573, -0.22953925468183956], [1.2600453722783822, 1.3261993257414662, -0.8714625549589197, -0.5512669327540531, -0.9517243976369743, 0.8494937806932354], [0.04100069615126087, -1.0349006228033066, -1.0254390035733116, 1.0938002384672516, 0.2725505328376084, -0.5692859795323711], [1.1242192719992623, -0.25732897682177075, -0.2484391344407262, -1.0557946410153922, -0.10102303077042431, 0.23103755377715152], [0.2905883247998454, -2.0154386212346154, 0.09890182416818552, 1.325486552702727, -0.6979991538781034, 0.3614510029974003]], "biases": [[-0.12062573756506859, -0.0632081834595427, -0.3535374151270192, 0.07306071192661712, 0.09966285830721792, 0.07728444471859602]]}, "layer2": {"weights": [[1.48074240190531, 0.30826026254205247, 1.2020975754007386, -1.079093370312029, -1.0525443812443185, -0.6909111599840062], [0.5821030689715975, 0.9006647371089652, 0.8805222198951409, -0.20633113206741494, 0.019141546471763055, 0.606520203777691], [0.16535044890959266, 1.2113649222107494, 1.2257515328199478, -1.7378538132026933, -0.3427565290006778, -1.109200362673714], [0.09661107082742075, 0.8040237762139056, 0.3942429325529474, 0.1953362340182404, 1.050280253884282, -0.6551793413269935], [-0.8716908775392298, -0.46250069010789235, 0.11583778746505627, -1.3024303515184528, -0.44014456339286856, 0.19084774235152469], [-0.11368280959739156, -0.687905337231356, -2.2809668042615954, -0.6904061969715739, -1.4417522427935718, -1.8302871232443112]], "biases": [[0.03934314686450055, 0.06190676562109083, -0.26334313069246484, -0.11701010446127635, -0.11361018428324954, 0.3352194087529167]]}, "layer3": {"weights": [[-0.48197119263826194, -1.5244346029600837, 0.5432734323733892], [0.26686676236440127, 0.12222398851668032, -0.7073934391001043], [0.43049545244016685, -1.622461621693558, 0.1304260563082451], [1.6650783947383259, 0.2564717491036662, -0.6595628288625994], [-0.04024979482170682, -0.26317126094998927, 1.1126785829817352], [0.22625516882886074, -0.6783352332537687, -0.3816111743729981]], "biases": [[0.22995104210175904, 0.0072395308482117275, 0.04336444150078492]]}}, {"layer1": {"weights": [[0.05206716536481577, 0.27223172182869004, 0.40139500725667565, -0.07491429184675703, 2.1834447457189183, -0.22939048757725197], [1.2514668455882834, 1.3651761545139203, -0.8758133736017668, -0.5558904918282164, -0.9472334587404401, 0.8611603212188665], [0.0344499155517675, -1.0699053501668296, -0.9899809904868309, 1.061030152083264, 0.21223053098421438, -0.5887323867650949], [1.1244482824919946, -0.276090020685946, -0.27996223387703834, -1.0692395326370927, -0.10098434597626108, 0.15554317900448625], [0.29387666417977504, -2.008144386851184, 0.1208120943463315, 1.321816379129546, -0.7041097737965519, 0.36751739968710934]], "biases": [[-0.12328435927882697, -0.07128055056510563, -0.35359233040727744, 0.08123673448586582, 0.09368438258873951, 0.07678645479737792]]}, "layer2": {"weights": [[1.501424027954059, 0.25692259898767494, 1.2004953356840327, -1.0857872599002318, -1.0803600532269064, -0.7001422581172319], [0.5957420580360104, 0.8756314000850698, 0.876097747903122, -0.22555199221941596, -0.08483765650408231, 0.6043875061535313], [-0.01114672498045143, 1.2098424514066886, 1.2239997205943491, -1.7047746596751387, -0.46107056675116986, -1.1051031968789427], [0.09140199093206089, 0.814931828669016, 0.36713089623853057, 0.10996669033849735, 1.055674860630192, -0.6668597146415726], [-0.8828927527228445, -0.4749968704233713, 0.07832973827113573, -1.3296246818762558, -0.33671821573501215, 0.1740930894951631], [-0.11042636292046404, -0.7017576667221042, -2.282090952580129, -0.7119777038685342, -1.485109142790144, -1.8497279401561573]], "biases": [[0.02482339718552872, 0.06564349930194613, -0.22120789326487317, -0.11687616056462144, -0.13889611253923492, 0.3364045091712497]]}, "layer3": {"weights": [[-0.5057789369802179, -1.5339101292087582, 0.5960678957658196], [0.24949704319090268, 0.1321988601250949, -0.6962327099638079], [0.44391041396162206, -1.7036028342124299, 0.13040669363958146], [1.6126933931173286, 0.2275772801101668, -0.6509992879721134], [-0.12347116688598311, -0.21466112079546942, 1.1062106982964566], [0.21869218708557836, -0.6912844604985672, -0.4166445049479039]], "biases": [[0.2274998029762884, -0.02136660637311704, 0.07454953530313035]]}}, {"layer1": {"weights": [[0.02864003228959216, 0.22369190522071683, 0.42800282769564074, -0.12149829785596043, 2.1478486956522835, -0.20437310586059165], [1.252429277298233, 1.3556888156775933, -0.8913135136983785, -0.5559551777641305, -0.9483534225575143, 0.8269526405144028], [0.018100850969597227, -0.8900874748071698, -1.0336306340986803, 1.098908700129949, 0.3307276603414214, -0.5813549287371242], [1.1238633280122754, -0.33021454054329136, -0.1712074577131179, -1.0864789721053003, -0.10105429433315265, 0.3222093500119789], [0.33093094302103937, -2.0014017609057957, 0.1143921685550917, 1.3169017402657865, -0.6821203212268465, 0.36312492092439674]], "biases": [[-0.11737729812199138, -0.06119446667317471, -0.36706207464819995, 0.10010047124063148, 0.08379631205946568, 0.07825626673699529]]}, "layer2": {"weights": [[1.4618074246364638, 0.21592103515808186, 1.2042072286797056, -1.033907890294076, -0.9888948504917725, -0.6214138930452839], [0.5461725797471001, 0.925640136465161, 0.8857269746556211, -0.1918479901669098, -0.08696526205551858, 0.6245960564024056], [0.003767543648427303, 1.2144618969098742, 1.2442238103027463, -1.66684646086859, -0.46679461688687995, -1.098811730705655], [0.07945308339385318, 0.8071755184910856, 0.2560744609103944, -0.003323960383235114, 1.0447783583418184, -0.6645273472361357], [-0.8671989690408259, -0.4516086369712397, 0.1484936691485232, -1.3599387275564427, -0.2715729716193087, 0.18007671394646851], [-0.11803111833741145, -0.6783618700403546, -2.2807469879995064, -0.7240509236186038, -1.5197228914487217, -1.7830162788530857]], "biases": [[0.02351323400884188, 0.04955746421839419, -0.23866216856076455, -0.1171676772393006, -0.1414905705720991, 0.33216491875226273]]}, "layer3": {"weights": [[-0.4137326184809419, -1.5237234430329196, 0.49606936858977463], [0.2939635852775708, 0.127598817200535, -0.6817715468383827], [0.42372924944712265, -1.5415552525470098, 0.17980359998686382], [1.5566326395197876, 0.2855814404941385, -0.6701710869651731], [-0.10414358016335268, -0.24870223070760816, 1.1294902056020035], [0.2449638183863368, -0.6662692169190813, -0.469956687382788]], "biases": [[0.23224744495233626, 0.03200731867741464, 0.07455576243536481]]}}, {"layer1": {"weights": [[0.0035147045443262573, 0.17719180759498493, 0.47671888174483457, -0.12472498226352832, 2.189926755243842, -0.2594510759301539], [1.2793601396896523, 1.328852126451347, -0.8799069735106202, -0.5857583156621082, -0.9718842400304359, 0.8443766054418937], [0.05717370315289469, -1.004271269987762, -1.0182393470174498, 1.1330405218730033, 0.2629056068578541, -0.5167860220239664], [1.1238537282075527, -0.21312875627639333, -0.22055028474469296, -1.0439474521739363, -0.12786720098352056, 0.29788000707157475], [0.28126466951563334, -2.0291716800958643, 0.14177348330878, 1.259746525971825, -0.7659973438586077, 0.3490956196327374]], "biases": [[-0.12322363428690496, -0.04403295031952424, -0.3534508205875079, 0.05751877712126701, 0.08380428640936599, 0.07816279082031322]]}, "layer2": {"weights": [[1.4443248916819034, 0.22635304088770128, 1.2025354671799329, -1.0458763767310084, -1.052702400348628, -0.6201837039553754], [0.5496277509642093, 0.9237663455456613, 0.8834747612165523, -0.1810474376109268, -0.08753819197260693, 0.6029905417492472], [-0.11349043974944723, 1.2732144659236062, 1.2073529753098613, -1.774279528737914, -0.4569403863671507, -1.1148162187398514], [0.09046564366564633, 0.7843029170266986, 0.3537330659098271, 0.003974660201092191, 1.044680244475328, -0.6261243619177151], [-0.8579250641411142, -0.3846614456262087, 0.1484827052058998, -1.3184928921966916, -0.3388361733193236, 0.18381048896963428], [-0.11619868552584381, -0.671798020279063, -2.1534951961056747, -0.6496326828117249, -1.552136646752869, -1.824680145695059]], "biases": [[0.03573530938096556, 0.026114086395768746, -0.23063594559453493, -0.11727808314280241, -0.14023707716162095, 0.3335200388510301]]}, "layer3": {"weights": [[-0.40643567374270506, -1.4996562923869785, 0.4754165275785936], [0.3036578277820998, 0.11228066822769901, -0.797353811551523], [0.3527410983618654, -1.5416409377024696, 0.07552173985010366], [1.7303197339807967, 0.2853535001057422, -0.6759307676571777], [-0.10440423515949707, -0.2974926720705448, 1.1234971754334937], [0.24032528916061968, -0.5526722205271972, -0.3671079371278465]], "biases": [[0.23226820367980835, 0.037858156087636326, 0.07384481908734236]]}}, {"layer1": {"weights": [[0.027806698771414617, 0.23222934882819277, 0.5334047766335848, -0.10058436631196699, 2.185871852757573, -0.22953925468183956], [1.2600453722783822, 1.3261993257414662, -0.8714625549589197, -0.5512669327540531, -0.9517243976369743, 0.8494937806932354], [0.04100069615126087, -1.0349006228033066, -1.0254390035733116, 1.0938002384672516, 0.2725505328376084, -0.5692859795323711], [1.1242192719992623, -0.25732897682177075, -0.2484391344407262, -1.0557946410153922, -0.10102303077042431, 0.23103755377715152], [0.2905883247998454, -2.0154386212346154, 0.09890182416818552, 1.2970495391783547, -0.6979991538781034, 0.3614510029974003]], "biases": [[-0.12062573756506859, -0.0632081834595427, -0.3535374151270192, 0.07306071192661712, 0.08874319650655438, 0.07728444471859602]]}, "layer2": {"weights": [[1.48074240190531, 0.23885953064741178, 1.2020975754007386, -1.079093370312029, -1.0525443812443185, -0.6909111599840062], [0.5821030689715975, 0.9520326332044997, 0.8805222198951409, -0.20633113206741494, 0.019141546471763055, 0.606520203777691], [-0.010021338266469611, 1.2113649222107494, 1.2257515328199478, -1.7378538132026933, -0.41035184367845773, -1.109200362673714], [0.09661107082742075, 0.8040237762139056, 0.35941637694530104, 0.05412777456447307, 1.0078440232696468, -0.6551793413269935], [-0.9447169403872179, -0.5670497176783038, 0.11583778746505627, -1.3024303515184528, -0.33782128338766026, 0.19084774235152469], [-0.11368280959739156, -0.6444738382034835, -2.2809668042615954, -0.6904061969715739, -1.6367483028922327, -1.8302871232443112]], "biases": [[0.03934314686450055, 0.10337526590486418, -0.23083438402594686, -0.11701010446127635, -0.11361018428324954, 0.3352194087529167]]}, "layer3": {"weights": [[-0.48197119263826194, -1.5244346029600837, 0.5432734323733892], [0.26686676236440127, 0.12222398851668032, -0.7073934391001043], [0.43049545244016685, -1.622461621693558, 0.052385484166936724], [1.6650783947383259, 0.15229733693532385, -0.6595628288625994], [-0.11662643344700047, -0.26317126094998927, 1.1126785829817352], [0.22625516882886074, -0.6783352332537687, -0.3816111743729981]], "biases": [[0.22995104210175904, 0.0072395308482117275, 0.04336444150078492]]}}, {"layer1": {"weights": [[0.044783492104338185, 0.15892962265115618, 0.43558166192793374, -0.12860221817292464, 2.183674309494461, -0.25556828236626505], [1.282019129721632, 1.3584210547506337, -0.8690041598083065, -0.5142929588782921, -0.9498259864097993, 0.8836565065936987], [0.042352133609266915, -0.9696120017326495, -1.0291094487271455, 1.145424969050356, 0.33783695101413613, -0.5876714594271107], [1.124391122867418, -0.23425481029607986, -0.1727263963734996, -1.074859062932234, -0.1010267259562833, 0.3178284534818872], [0.29538762228137255, -2.039729094331276, 0.13870767950424484, 1.2137464237208728, -0.7083274598613664, 0.3581284868479908]], "biases": [[-0.12392433911495021, -0.05917428030424528, -0.35378253632553386, 0.15896671959951605, 0.09370290821403851, 0.07585159868473523]]}, "layer2": {"weights": [[1.6463652186266655, 0.216357518063001, 1.201289377938196, -1.0524277372026225, -1.0816443897186594, -0.6926186831886272], [0.5687006537028344, 0.9284981948144512, 0.8740179494245912, -0.22089772531380003, -0.0834196740749217, 0.6000309828145458], [-0.03186630741044891, 1.2078256800679252, 1.2263274694494146, -1.773513096907374, -0.45832355653934087, -1.1326936698930794], [0.08819862972300016, 0.8105595297196049, 0.44983197986041157, 0.017346189884532535, 1.2003601542629223, -0.6165614265761147], [-0.868281572719986, -0.4686939099881786, 0.10073898718819914, -1.3260711453717933, -0.3366111708931572, 0.17658734875037596], [-0.10412674362290994, -0.9052603753124928, -2.2800886220157786, -0.7097198836751667, -1.4933516119134533, -1.7849990850286548]], "biases": [[0.024626240430591115, 0.06548884483667561, -0.22120277354473578, -0.11687845371117217, -0.13783515210729813, 0.33984154562648866]]}, "layer3": {"weights": [[-0.4656974518810022, -1.5208286514429106, 0.5004099891297988], [0.297962224349404, 0.1146330727784472, -0.6978076794033133], [0.42435463445348454, -1.5404890501574207, 0.09025325687377875], [1.661243979797784, 0.2964166411555366, -0.6673057715073405], [-0.13852424778540334, -0.2157504672619977, 1.1146998362029021], [0.21864323813499292, -0.689812953952134, -0.3402415325115795]], "biases": [[0.23319179543460758, 0.025733530883973135, 0.07405428609907527]]}}, {"layer1": {"weights": [[0.006710912974372775, 0.1697927307621424, 0.45567081848028546, -0.12390666338142928, 2.1929236100979947, -0.23091018369040409], [1.274069455408294, 1.327776625993066, -0.8652193128238388, -0.5816287550527077, -0.9626046866572173, 0.8518026231081252], [0.05275081989224154, -1.0301797891469175, -1.0926845845924396, 1.1334981915414652, 0.3279041183678686, -0.452491326967143], [1.1235894001456415, -0.24288105561911114, -0.26110567363532855, -1.0098404358551492, -0.1010967051728918, 0.2952354036177464], [0.27921234855845894, -2.0057366169048167, 0.1230030134938131, 1.2575612321636833, -0.6754496080579431, 0.3526407257673917]], "biases": [[-0.11200989258767016, -0.05109735240371425, -0.353182463367988, 0.05304689125849876, 0.07390111263469995, 0.07971327059489303]]}, "layer2": {"weights": [[1.4623173788027237, 0.226106968169269, 1.206110252296693, -1.052066616988382, -1.0353530555553454, -0.6707414405129339], [0.5536929032333754, 0.9228979534512701, 0.8953030910077516, -0.1533228185170278, -0.08920534327727134, 0.6172748199891555], [0.014074404305473319, 1.2154482304005962, 1.2012555410431598, -1.7683528365531216, -0.4656672170934876, -1.0939013870438907], [0.11544167172256105, 0.7756719177979856, 0.34214726022861797, -0.02076847230363496, 1.0444887090030472, -0.6285203482747526], [-0.8526964319912443, -0.4310155655315492, 0.1485908840125505, -1.272316411375928, -0.3412375311874596, 0.22005862739086102], [-0.12975176892572823, -0.67433996101649, -2.2795966898703455, -0.6279494964740604, -1.554979689882995, -1.8366935276362755]], "biases": [[0.02459854673609623, 0.050851219043795436, -0.2358349805478273, -0.11740964300469037, -0.14208423931475567, 0.32822707104267884]]}, "layer3": {"weights": [[-0.40432171472203, -1.5090895019799078, 0.4805479488321189], [0.2836975312924012, 0.10986516103808422, -0.7393006570694882], [0.3353440465909681, -1.5421517681919514, 0.12559254917199147], [1.7736828129208624, 0.27431579503879444, -0.6689469679988306], [-0.0933172654352907, -0.38861982724247546, 1.1235930991311252], [0.24899306300929333, -0.640959058065806, -0.35801733982244566]], "biases": [[0.23161276701985178, 0.0398874184828757, 0.07372595626501764]]}}, {"layer1": {"weights": [[0.026838111836387957, 0.17627860778052468, 0.44696231462625996, -0.12020202007365233, 2.187545700976605, -0.23008597908360073], [1.2609339459536208, 1.3158071736126498, -0.8976382364861191, -0.5391543262794164, -0.9529338694330547, 0.8317148479665912], [0.030868420055303332, -0.9935897547099626, -1.04001374439029, 1.1549543786212935, 0.33118992919646295, -0.5541855129213428], [1.1239004804127157, -0.25746755584990255, -0.15635929836015777, -1.100948211993881, -0.10106436985579519, 0.2693493984801629], [0.2954383717535538, -2.012727022726563, 0.09557028326997496, 1.3007203261272942, -0.6863521689797745, 0.36055525232015717]], "biases": [[-0.12558334565145993, -0.05715517927533563, -0.3670566283571762, 0.06454113905150416, 0.08873878953868188, 0.07834170620330203]]}, "layer2": {"weights": [[1.460261394079855, 0.16677035091217796, 1.202743920402372, -1.0473609945490283, -1.0767555690984474, -0.630880447267945], [0.6465321602111546, 0.9250640535081281, 0.8466653492546856, -0.22699612226509303, -0.0869461069828937, 0.6160320622571411], [-0.004463738401050061, 1.2141504403674297, 1.1174704870737608, -1.7408143936170517, -0.4748707560460419, -1.1046593138849348], [0.10283418471235421, 0.7992512249064221, 0.36043612693109295, -0.030386875033072573, 1.0448155460021393, -0.6518213805551587], [-0.8666847187218866, -0.44990548771279726, 0.15091730669470277, -1.3239935694640352, -0.3410076605232386, 0.1967627825963667], [-0.1189974647370238, -0.678063745309782, -2.280490251361485, -0.6923930233801574, -1.522689695351512, -1.7980414233439164]], "biases": [[0.03876287189077739, 0.054136540093226715, -0.23359061837643227, -0.11720412731211484, -0.1587795108517377, 0.3330922811792083]]}, "layer3": {"weights": [[-0.406857650610996, -1.5152513806614007, 0.3372444040175432], [0.34578042757810473, 0.008812524682274045, -0.705080410903856], [0.42008836421206364, -1.5415012550795377, 0.18701317590591032], [1.6547024449054568, 0.2914698241869188, -0.6697363552482123], [-0.11647580121358161, -0.2720579926486353, 1.1243382535996829], [0.2127840461363324, -0.6787545759997773, -0.3797597215637549]], "biases": [[0.232156718558686, 0.033876933635512835, 0.07479638450517534]]}}, {"layer1": {"weights": [[0.03890718395208563, 0.23222934882819277, 0.4235106237303926, -0.10058436631196699, 2.185871852757573, -0.22953925468183956], [1.2600453722783822, 1.3261993257414662, -0.8714625549589197, -0.5512669327540531, -0.9574221244935189, 0.8494937806932354], [0.04100069615126087, -1.0349006228033066, -1.0254390035733116, 1.0938002384672516, 0.2725505328376084, -0.5692859795323711], [1.1242192719992623, -0.2842333761854986, -0.21048976777690337, -1.0557946410153922, -0.10102303077042431, 0.23103755377715152], [0.2905883247998454, -2.0154386212346154, 0.12505714841809906, 1.2970495391783547, -0.6979991538781034, 0.3614510029974003]], "biases": [[-0.12062573756506859, -0.0632081834595427, -0.37035032312252525, 0.07306071192661712, 0.08874319650655438, 0.07728444471859602]]}, "layer2": {"weights": [[1.48074240190531, 0.22552155898496024, 1.2020975754007386, -1.079093370312029, -1.0782825567276615, -0.6909111599840062], [0.5821030689715975, 0.9006647371089652, 0.8803791340596467, -0.23205758777845908, -0.08557508259008942, 0.606520203777691], [-0.010021338266469611, 1.2113649222107494, 1.2257515328199478, -1.7378538132026933, -0.461532976783792, -1.109200362673714], [0.09661107082742075, 0.8040237762139056, 0.35941637694530104, 0.018524861294117956, 1.050280253884282, -0.6551793413269935], [-0.8716908775392298, -0.46250069010789235, 0.11583778746505627, -1.3024303515184528, -0.33782128338766026, 0.19273166357576227], [-0.11368280959739156, -0.7623162049472411, -2.2809668042615954, -0.6904061969715739, -1.504637396844184, -1.8302871232443112]], "biases": [[0.03934314686450055, 0.06190676562109083, -0.22486338515557736, -0.11701010446127635, -0.15721002476699744, 0.3352194087529167]]}, "layer3": {"weights": [[-0.48197119263826194, -1.5244346029600837, 0.5432734323733892], [0.26686676236440127, 0.0030078881533061597, -0.7073934391001043], [0.5123472097612854, -1.6530625208864682, 0.1304260563082451], [1.6650783947383259, 0.2564717491036662, -0.6595628288625994], [-0.11662643344700047, -0.26317126094998927, 1.1126785829817352], [0.22625516882886074, -0.6438746305507074, -0.3816111743729981]], "biases": [[0.22995104210175904, 0.0072395308482117275, 0.07421982824258841]]}}, {"layer1": {"weights": [[0.015737626655716944, 0.17627860778052468, 0.44696231462625996, -0.12020202007365233, 2.187545700976605, -0.23008597908360073], [1.2609339459536208, 1.3158071736126498, -0.8976382364861191, -0.5508051147052601, -0.9529338694330547, 0.8317148479665912], [0.0243916698088501, -0.9935897547099626, -1.04001374439029, 1.1549543786212935, 0.33118992919646295, -0.5541855129213428], [1.1239004804127157, -0.25742881426822517, -0.1943086650239806, -1.100948211993881, -0.10106436985579519, 0.2693493984801629], [0.2954383717535538, -2.012727022726563, 0.09557028326997496, 1.3007203261272942, -0.6863521689797745, 0.36055525232015717]], "biases": [[-0.12558334565145993, -0.05715517927533563, -0.3670566283571762, 0.06454113905150416, 0.08873878953868188, 0.07834170620330203]]}, "layer2": {"weights": [[1.460261394079855, 0.21838506872377494, 1.202743920402372, -1.0473609945490283, -0.9716951189337522, -0.630880447267945], [0.5533386678966279, 0.9250640535081281, 0.899972262228054, -0.2012696665540489, 0.017770522078958767, 0.6855727587540131], [-0.004463738401050061, 1.2141504403674297, 1.2392086760071264, -1.7408143936170517, -0.345234060947552, -1.1046593138849348], [0.10283418471235421, 0.7992512249064221, 0.36043612693109295, 0.005216038237282539, 1.0448155460021393, -0.6518213805551587], [-0.8666847187218866, -0.44990548771279726, 0.15091730669470277, -1.3239935694640352, -0.27484532053784766, 0.30974378457676477], [-0.1189974647370238, -0.7940583593155875, -2.280490251361485, -0.6923930233801574, -1.522689695351512, -1.7980414233439164]], "biases": [[0.03876287189077739, 0.054136540093226715, -0.2395616172468018, -0.11720412731211484, -0.1151796703679898, 0.3330922811792083]]}, "layer3": {"weights": [[-0.44653645521332674, -1.5152513806614007, 0.4907613577455824], [0.34578042757810473, 0.1280286250456482, -0.705080410903856], [0.42008836421206364, -1.662498088147711, 0.18701317590591032], [1.7125325401421376, 0.2914698241869188, -0.6697363552482123], [-0.20001387369985604, -0.2720579926486353, 1.1243382535996829], [0.2127840461363324, -0.6787545759997773, -0.3797597215637549]], "biases": [[0.232156718558686, 0.033876933635512835, 0.04394099776337185]]}}, {"layer1": {"weights": [[0.04700330642223352, 0.11463658808646845, 0.4034861839226542, -0.13505945526004232, 2.1836159102109347, -0.22966934623131835], [1.2551492506377433, 1.3152649860843006, -0.8997602958152369, -0.5569783010477983, -0.9431633686498493, 0.827222706794866], [0.04069714492052485, -0.9783895643793207, -1.0114773038493043, 1.066712890473066, 0.33333968792024204, -0.5844327765625975], [1.124314445292959, -0.27662669041390453, -0.174359545492727, -1.0707718820767416, -0.10103099559397256, 0.3192694930846663], [0.2814321879508438, -2.0333645437921346, 0.14418748663137115, 1.2565868517004102, -0.6942709247181573, 0.35774150909017943]], "biases": [[-0.13512349195831147, -0.07117980246528902, -0.3534912335537014, -0.019798114994682828, 0.09368164092201495, 0.07760844880064585]]}, "layer2": {"weights": [[1.4553523208141335, 0.2487648134142312, 1.2489564666837691, -1.0662324557577874, -1.198877092558129, -0.5943049639118305], [0.5458568550317333, 1.0511202036576675, 0.8748254699051521, -0.22322615598399925, -0.09089367284824404, 0.605960889202632], [-0.05228452427030559, 1.1884885605202182, 1.2286482514036592, -1.6903271039733971, -0.46098199487486147, -1.1041381916825705], [0.0945539197466265, 0.8079638730043734, 0.3637673657414562, 0.0070149181034754315, 1.017820026936798, -0.6539015429193589], [-0.8749072250130724, -0.45480783734928765, 0.15174726644180575, -1.4064982993877386, -0.33662773682113184, 0.17949744630257636], [-0.1133256629963211, -0.6360888315330809, -2.2679963529949005, -0.7267439918799476, -1.515572404912419, -1.7924775742455497]], "biases": [[0.025024045266540923, 0.049145168690409406, -0.21336240048692948, -0.11707036519189243, -0.13945466059649927, 0.33715234411568984]]}, "layer3": {"weights": [[-0.40173532331292705, -1.496867664283534, 0.4912167904934965], [0.2845633987494308, 0.14023338619843156, -0.6949785509570523], [0.43408718388132667, -1.51587108019633, 0.09232231435659397], [1.6075642647847033, 0.2972522415955184, -0.6872068954911232], [-0.1268537637312232, -0.2354304211925311, 1.1164459892959306], [0.22030634822837403, -0.6907925918907865, -0.402722117558975]], "biases": [[0.23224240857787443, 0.029585774044292773, 0.07479412150780437]]}}, {"layer1": {"weights": [[-0.06215639657591856, 0.18100985329491895, 0.5018772902196824, -0.12508055207930313, 2.0038387022747175, -0.2302991027384156], [1.2713466771883877, 1.3143538405865534, -0.9417172631092878, -0.5641360643662988, -0.9594100115953628, 0.8448149316378648], [0.05015114832149789, -1.0150378422933506, -1.076790800626116, 1.1300342581963523, 0.30362685916297505, -0.5630741418706231], [1.1237898308260856, -0.2473149370210344, -0.1885973260218441, -1.0260950926244203, -0.10107921036873967, 0.3008836660837816], [0.2832561669891873, -2.0738778786824414, 0.09999728374192632, 1.2649219656954234, -0.6836690710087989, 0.35401266603754145]], "biases": [[-0.11498850421949017, -0.053116584378847004, -0.35333248160737446, 0.05896579031293358, 0.0788515615295346, 0.07874785261735358]]}, "layer2": {"weights": [[1.4611890773296423, 0.2234517152382088, 1.2049050337070688, -1.062233048856104, -1.0300408824085379, -0.6762107511818573], [0.56107849157028, 1.0067837190012203, 0.8901248914474558, -0.17021654521622087, 0.016957703085168543, 0.612963860695503], [0.0025892263764927623, 1.2141678117077033, 1.214379443044353, -1.7696429016416846, -0.3450548541718367, -1.103599457756188], [0.10863091122267082, 0.798028708581001, 0.3469245589403447, -0.011239806756593087, 1.0446871780707094, -0.6360096581435835], [-0.8565927171734298, -0.44051003766198127, 0.15096836033576366, -1.2737762162682889, -0.340080941113884, 0.31736554039087606], [-0.12334551260002366, -0.674196484378549, -2.2797196729067037, -0.648392093274337, -1.5395726703906096, -1.7750549803385722]], "biases": [[0.039230721639784305, 0.05451062549201548, -0.23814792766742393, -0.11727684568131082, -0.11520424767100991, 0.3311306896886313]]}, "layer3": {"weights": [[-0.43124258150916794, -1.5120242893456584, 0.48551345890653885], [0.2839670064151505, 0.10978763717585399, -0.7289274126529445], [0.37621226875483993, -1.5417360886833187, 0.12801898407445012], [1.644404172700015, 0.27984100656798, -0.668536668875958], [-0.10154948272165426, -0.3871641715640908, 1.1213697833990695], [0.2414056067907182, -0.653172532037388, -0.352297591810269]], "biases": [[0.23200752412354073, 0.03667096773284728, 0.04295265198172856]]}}, {"layer1": {"weights": [[0.03890718395208563, 0.23222934882819277, 0.4235106237303926, -0.10058436631196699, 2.185871852757573, -0.22953925468183956], [1.2600453722783822, 1.3261993257414662, -0.8714625549589197, -0.5512669327540531, -0.9517243976369743, 0.8494937806932354], [0.04100069615126087, -1.0349006228033066, -1.0254390035733116, 1.0938002384672516, 0.2725505328376084, -0.5692859795323711], [1.1242192719992623, -0.25736771840344813, -0.21048976777690337, -1.0557946410153922, -0.10102303077042431, 0.23103755377715152], [0.2905883247998454, -2.0154386212346154, 0.09890182416818552, 1.2970495391783547, -0.6979991538781034, 0.23435450873199065]], "biases": [[-0.12062573756506859, -0.0632081834595427, -0.3535374151270192, 0.07306071192661712, 0.08874319650655438, 0.07728444471859602]]}, "layer2": {"weights": [[1.48074240190531, 0.23885953064741178, 1.2020975754007386, -1.079093370312029, -1.0782825567276615, -0.6909111599840062], [0.40715419223381755, 0.9006647371089652, 0.8803791340596467, -0.23205758777845908, -0.08557508259008942, 0.606520203777691], [-0.010021338266469611, 1.2113649222107494, 1.2257515328199478, -1.7378538132026933, -0.461532976783792, -1.109200362673714], [0.09661107082742075, 0.8040237762139056, 0.35941637694530104, 0.018524861294117956, 1.050280253884282, -0.6551793413269935], [-0.8716908775392298, -0.46250069010789235, 0.11583778746505627, -1.2766176619324834, -0.33782128338766026, 0.19273166357576227], [-0.11368280959739156, -0.6901009769177366, -2.2809668042615954, -0.6904061969715739, -1.504637396844184, -1.6605359702237301]], "biases": [[0.03934314686450055, 0.06190676562109083, -0.22486338515557736, -0.11701010446127635, -0.15721002476699744, 0.3352194087529167]]}, "layer3": {"weights": [[-0.48197119263826194, -1.5244346029600837, 0.5432734323733892], [0.26686676236440127, 0.0030078881533061597, -0.7073934391001043], [0.43049545244016685, -1.622461621693558, 0.1304260563082451], [1.6650783947383259, 0.2564717491036662, -0.6595628288625994], [-0.11662643344700047, -0.26317126094998927, 1.1126785829817352], [0.22625516882886074, -0.6783352332537687, -0.3816111743729981]], "biases": [[0.22995104210175904, 0.0072395308482117275, 0.07421982824258841]]}}, {"layer1": {"weights": [[0.006710912974372775, 0.1697927307621424, 0.45567081848028546, -0.12390666338142928, 2.1929236100979947, -0.23091018369040409], [1.274069455408294, 1.3414851842040947, -0.8652193128238388, -0.5816287550527077, -0.9626046866572173, 0.8518026231081252], [-0.04508160328117888, -1.0301797891469175, -1.0926845845924396, 1.1334981915414652, 0.3279041183678686, -0.635961271699032], [1.1235894001456415, -0.25606194108447333, -0.16737465503093524, -1.0098404358551492, -0.1010967051728918, 0.2952354036177464], [0.27921234855845894, -2.0057366169048167, 0.1230030134938131, 1.2575612321636833, -0.6754496080579431, 0.3526407257673917]], "biases": [[-0.11200989258767016, -0.05109735240371425, -0.353182463367988, 0.05304689125849876, 0.07390111263469995, 0.07971327059489303]]}, "layer2": {"weights": [[1.4623173788027237, 0.226106968169269, 1.206110252296693, -1.052066616988382, -1.0353530555553454, -0.6707414405129339], [0.5536929032333754, 0.9228979534512701, 0.7450390140026009, -0.1533228185170278, -0.08920534327727134, 0.6172748199891555], [0.014074404305473319, 1.2154482304005962, 1.2012555410431598, -1.7683528365531216, -0.4656672170934876, -1.0939013870438907], [0.11544167172256105, 0.8029416934032066, 0.34214726022861797, -0.02076847230363496, 1.0444887090030472, -0.6285203482747526], [-0.8526964319912443, -0.4310155655315492, 0.1485908840125505, -1.272316411375928, -0.3412375311874596, 0.17440505744312657], [-0.12975176892572823, -0.67433996101649, -2.2795966898703455, -0.6279494964740604, -1.554979689882995, -1.8366935276362755]], "biases": [[0.03584571816932263, 0.050851219043795436, -0.2358349805478273, -0.11740964300469037, -0.14208423931475567, 0.32822707104267884]]}, "layer3": {"weights": [[-0.40432171472203, -1.5090895019799078, 0.4805479488321189], [0.2836975312924012, 0.10986516103808422, -0.7393006570694882], [0.3353440465909681, -1.5421517681919514, 0.12559254917199147], [1.5713449490407068, 0.27431579503879444, -0.6689469679988306], [-0.0933172654352907, -0.2721759488359574, 1.1235930991311252], [0.24899306300929333, -0.640959058065806, -0.35801733982244566]], "biases": [[0.23161276701985178, 0.0398874184828757, 0.07372595626501764]]}}, {"layer1": {"weights": [[0.03629960299317045, 0.1602803426199781, 0.4145210906464839, -0.07104322752322971, 2.17102159962665, -0.2329092190271892], [1.2599074415767577, 1.294977032844434, -0.8461670946849165, -0.5428433310205475, -0.9329653850861118, 0.820923142906655], [0.01687670716069335, -1.0400300935811153, -1.0337357135601604, 1.084839003405432, 0.32106623527805783, -0.5766013012358104], [1.1241370412629554, -0.2809057197406186, -0.1569435786072605, -1.0591490473642255, -0.10103107469319014, 0.33127616581255837], [0.27598831739470103, -2.0407786809450865, 0.10121441715214897, 1.379344677589454, -0.6724757070504707, 0.3492414965485744]], "biases": [[-0.15187798326270804, -0.07440757289118509, -0.3527154251445562, 0.05897048410015815, 0.09362384128563131, 0.08223428811858305]]}, "layer2": {"weights": [[1.454212870554684, 0.21043976561179303, 1.1808199109062458, -1.1837872852012863, -1.0721497581341293, -0.6365701657895297], [0.5457409756197054, 0.9213818903317046, 0.877364220726187, -0.2302107993859014, -0.08690145445235578, 0.5927985573395227], [-0.004321881690865321, 1.215777618258151, 1.230292570941483, -1.5041913389734123, -0.46972629612338485, -1.0270274016855139], [0.11124298510795753, 0.7957568935337989, 0.2998890459425251, 0.007572637382678757, 1.0454854118279886, -0.6499217263950242], [-0.8162941175500235, -0.4578351124727869, 0.12176136413874196, -1.3320369241920484, -0.33669591285153233, 0.18614912536927414], [-0.15463390561532894, -0.5826027645090597, -2.2868292946072923, -0.7298351991789196, -1.5483549118837585, -1.786133208461008]], "biases": [[0.030739256737391, 0.05210507052743385, -0.20425665869258433, -0.1175495706070554, -0.14226231865687028, 0.39079162312208837]]}, "layer3": {"weights": [[-0.46232623757265623, -1.3704080726025951, 0.44165869776725863], [0.2737330957525693, 0.18511028648385863, -0.6788489165673567], [0.43369428407958655, -1.5410719360650291, 0.12852432861013124], [1.5823332404978663, 0.29950252436875924, -0.6028557846621839], [-0.12767909468372848, -0.24012793307664182, 1.0922596998271759], [0.18230743839793853, -0.6936095633740257, -0.40348353640691065]], "biases": [[0.22973053706986893, 0.01541805473898095, 0.07676752233064092]]}}, {"layer1": {"weights": [[0.0023286579704852074, 0.18209537119946448, 0.46227898729186834, -0.11264668892784717, 2.1863691796837266, -0.23068406373688136], [1.2693309551889147, 1.3278678576743048, -0.8819639451584835, -0.5684069336489432, -0.9731284796159008, 0.8285163457753912], [0.05675256499457164, -0.9916426354489448, -1.0026120990846936, 1.1537296634644578, 0.2589352275490263, -0.566450653907196], [1.1236478516732378, -0.016643656849835514, -0.1755824634490406, -1.0639569812569578, -0.12787887447286092, 0.2856720562516618], [0.1805857221367564, -2.0144575983941495, 0.12494557135707077, 1.312236985534495, -0.6925547339176954, 0.3462365313933605]], "biases": [[-0.1278185820520558, -0.03998815106890964, -0.34747356975104565, 0.05086031731769708, 0.09367484351814777, 0.07960368946218632]]}, "layer2": {"weights": [[1.444865204244506, 0.22479046903941063, 1.1974346186789708, -1.03080068748731, -1.0508582934461739, -0.4803566174664121], [0.5380281879861015, 0.9218932525053136, 0.8745559443314848, -0.17617733574375127, -0.08911261020328745, 0.4355722805224913], [0.011588932552506339, 1.2770096704547278, 1.2447506914387214, -1.7213481975721732, -0.3512552722465481, -1.0921984150879558], [0.09368211399956755, 0.7942433157044932, 0.35915765919655884, 0.12676475380454866, 1.044523585464908, -0.6414715372390181], [-0.8690510433834984, -0.3819038346606021, 0.14854527715365767, -1.3137355401033814, -0.31502297815410996, 0.1711348462124911], [-0.124616719775927, -0.77210999078765, -2.2633578347107175, -0.5986513913786649, -1.5553013376985214, -1.8318622201730692]], "biases": [[0.03563913801569804, 0.027075980432937463, -0.23795324177555305, -0.11744650556466849, -0.12744354548502249, 0.33286597941351903]]}, "layer3": {"weights": [[-0.49334125508777904, -1.4951197624383072, 0.4658090901957379], [0.3612248146308896, 0.1436960363885772, -0.5537465022891475], [0.391041123888768, -1.691087174651259, 0.14973386845878994], [1.6286525631671385, 0.29768897155860097, -0.6806626199920748], [-0.1182912158200895, -0.21986473712959798, 1.1279775351147485], [0.23752163899537618, -0.6916452776046429, -0.3973215143430974]], "biases": [[0.23820611654989696, 0.033871127481616276, 0.07578039843527551]]}}, {"layer1": {"weights": [[0.8099440881519997, 0.18063012482079627, -0.2986085057756204, 0.8948597345213433, -1.6761488566972191, -0.689687882462062], [0.7115109465428121, 0.6932277837229369, 0.501433478906062, 0.22356578824739573, 0.2885497328616374, 0.40824880252375906], [0.1412809280737988, 0.76083419802201, 1.458260172773253, 0.884712360785427, 0.4781159732770982, 0.1917269633459744], [-1.1675850628940687, -1.2543556645615328, -1.6831077098766378, 0.04052982243827489, 0.5850331684413996, 1.0528467309503056], [1.2503294280303359, 0.3789740236385882, 0.7957103407077863, 1.2083674274524812, -0.07842695231411852, -0.15511953828097289]], "biases": [[-0.13682186638804275, -0.05140363441173325, -0.09490384736767746, -0.11269049524422736, 0.213015243774148, -0.12342322883408481]]}, "layer2": {"weights": [[-0.007588828356533835, -1.024495776103892, 1.1251276400237702, 1.5520979712903011, -0.15114208284578032, -0.5493384946006223], [0.5332278688307787, -0.28081395943349186, -0.23494503043274456, -0.7694594222687743, -0.18444306327182647, -0.14368413832468674], [-0.2753978191241981, -0.4245967563589242, -1.471375618151867, -0.6280460389029912, -1.112607415249521, 0.6675996854294347], [1.5674960678656256, 1.7962486900820835, 2.7627691178925837, -0.2787462018235227, 0.38255628506756495, 0.0006342618125500569], [-0.09857341578865578, -1.5633139433422434, -1.1743526572169105, 0.48877301381810595, 1.3325306964987396, -1.731460269941116], [0.7002941920908254, -0.6655084291620572, -1.0969613639476823, 1.9911597004245238, -0.3628783971694361, 0.19091295068732678]], "biases": [[0.08449110983924996, 0.22545824051106994, -0.02793970560150489, 0.1256023699698156, -0.04874895441606472, -0.09373743063522898]]}, "layer3": {"weights": [[-1.6712114901617814, -0.04201448318430879, 1.1010280133237353], [-1.096957706509358, -0.7932179713637274, 0.5052626731010862], [-0.3895195705895932, -0.27482279926713016, -0.7144917177902919], [0.1384658523344078, 0.9194867758653928, 0.34620552176160896], [0.3388124377211566, 0.05675366828265384, -0.309229040725413], [-0.6374334651941291, -0.26552274445201146, 0.31839723062796055]], "biases": [[0.06192400104871418, -0.12813984529443245, 0.13119843176377452]]}}, {"layer1": {"weights": [[-0.0378959299825174, 0.22101222629541623, 0.42853291286848055, -0.09941047761409316, 2.1881841779084565, -0.23015033563382803], [1.2627681504982888, 1.3533306693590075, -0.8756641565331367, -0.568759623440462, -0.9549190726988287, 0.8564814721634959], [0.04360036772200452, -1.0500425696568736, -1.0413327875396352, 1.0972641718123646, 0.24330685730958101, -0.5825205491033467], [1.0952659091771244, -0.25585566436331203, -0.22012042545815622, -1.039539984246121, -0.10104052557457643, 0.22538929131111635], [0.286544506369117, -2.1309157405382373, 0.1219075539200723, 1.2896888056466147, -0.6897796909272476, 0.36007906272725054]], "biases": [[-0.11764712593324857, -0.061188951484409934, -0.3533873968876327, 0.0671418128721823, 0.08379274761171973, 0.07824986269613547]]}, "layer2": {"weights": [[1.4818707033783913, 0.24151478357847198, 1.2033027939903629, -1.068926938444307, -1.057856554391126, -0.6854418493150829], [0.4483375694999242, 0.89926467676817, 1.0596589521958233, -0.1894374053682219, -0.08702149989067683, 0.6108311630713434], [0.0014638396625109443, 1.2126453409036424, 1.2126276308187545, -1.73656374811413, -0.4633688919223287, -1.0995022919614166], [0.05314960009336964, 0.8089367610361113, 0.35463907823357427, 0.06721090366170605, 1.0500817848166197, -0.6476900314581626], [-0.8677945923570445, -0.4530062179774602, 0.11346031114184311, -1.300970546626092, -0.33897787346123587, 0.19707585844301206], [-0.12008906592309614, -0.6880488138692971, -2.280843821225237, -0.6699636001712973, -1.5117159869319658, -1.8432107338962163]], "biases": [[0.024710971960812476, 0.058247359172870786, -0.22852143690635024, -0.1171429017846559, -0.1404901759269953, 0.33231579010696427]]}, "layer3": {"weights": [[-0.4550503258511239, -1.521499815594333, 0.5383079222989693], [0.26659728724165194, 0.12103201058158956, -0.7177666835166481], [0.3896272302762951, -1.6228773012021906, 0.12799962140578647], [1.5920191710790177, 0.2509465375744806, -0.6599731279854719], [-0.10839421616063691, -0.2434185348157134, 1.1149018987137909], [0.23384262504743586, -0.6661217592821866, -0.38733092238517475]], "biases": [[0.2295562849980701, 0.009260406054879329, 0.074137745784074]]}}, {"layer1": {"weights": [[0.02574720253935548, 0.1922269758276955, 0.44562624020410957, -0.12625444077717696, 2.188298959796228, -0.22968802178642714], [1.2515679921746414, 1.2872224969690118, -0.8671117363160726, -0.5466433736798899, -0.9562153365335083, 0.8378272401676045], [0.04755147675075423, -0.9998958954397835, -1.1875117893077716, 1.1265703248512393, 0.33287053469100236, -0.5498395722996474], [1.1678148870473108, -0.08938019640459077, -0.2169160350044141, -1.0423497493936917, -0.10106171556458754, 0.2600622544846795], [0.28729998541991575, -2.022732855618046, 0.07699155399003955, 1.2722826992271634, -0.6918885339596548, 0.35538460630769125]], "biases": [[-0.11796711585131019, -0.055135816353979766, -0.35348249984676094, 0.0648846893673684, 0.08380201042436923, 0.07778243463981413]]}, "layer2": {"weights": [[1.460060775856561, 0.2207964623071486, 1.2036998151174445, -1.0723994807238257, -1.0247287092617303, -0.6055479755728508], [0.5684640799071845, 0.9256980741328606, 0.8846605202161715, -0.1871102719154139, -0.1574644004212499, 0.6086529014018507], [-0.008895951552487794, 1.2128873930148103, 1.2275033450455464, -1.7709329667302478, -0.4619953868164142, -1.1132975284684852], [0.10182015072278061, 0.7931157237587952, 0.35170185765207146, -0.0017111412095512125, 1.0448856471383716, -0.556111079503664], [-0.907756203312817, -0.4500045097924134, 0.1533458366589768, -1.2752360211606497, -0.36850503173538174, 0.21137023765636145], [-0.11693925627431909, -0.674053007740608, -2.279842655943062, -0.6697764896674961, -1.5241656508982242, -1.8108463063324651]], "biases": [[0.053862896543472386, 0.058170031940235525, -0.22851887704628154, -0.11714404835793127, -0.1399596957110269, 0.33403430833458375]]}, "layer3": {"weights": [[-0.45816344829630595, -1.457034148806772, 0.4904789689809589], [0.2842364815378998, 0.11224911690826571, -0.7185541682364007], [0.4170804909187117, -1.7274417304098852, 0.04719759634396467], [1.717463396359323, 0.28536621809716556, -0.6681263697530855], [-0.1097817000080178, -0.3116814011045091, 1.1191464676670138], [0.30544947674313133, -0.7131611176641222, -0.3638681145284744]], "biases": [[0.23240228122722967, 0.035845668069540496, 0.07389012118204646]]}}, {"layer1": {"weights": [[0.02792902113342043, 0.1603302397333539, 0.44829838904841035, -0.11414959937012771, 2.1867924421569818, -0.23048393638077436], [1.2532439929387602, 1.3443918502562877, -0.9281647366561656, -0.5549668557306302, -0.949652402332601, 0.825602455765578], [0.014185363359852429, -0.9872836139801415, -1.0191304721207874, 1.1833384323913476, 0.32950932370192354, -0.5585314535430381], [1.1238106993189017, -0.27628969557885485, -0.17170129504354711, -1.15954667459407, -0.10106702414700283, 0.23216686841050907], [0.30357675808719187, -2.0027211898350794, 0.11414901254991039, 1.3291579530274247, -0.6808158039998943, 0.36572589833262314]], "biases": [[-0.13319957545160965, -0.05917454219669149, -0.3806307568675914, 0.06419758873563991, 0.09367556865299452, 0.07890097776678992]]}, "layer2": {"weights": [[1.4604620123031493, 0.2159736751404013, 1.2017880256872995, -1.0223225083742307, -0.918661528605774, -0.5800808326851096], [0.5382132558860713, 0.9244300328833956, 0.8086701782931998, -0.2154290611926839, -0.08757970528969089, 0.6234112231124316], [-3.152524961232833e-05, 1.2154134877200493, 1.2509140069687066, -1.7106958205038554, -0.4660256306449182, -1.0960210993013844], [0.10384821870192781, 0.8053867260540489, 0.3691703962101145, 0.012143217684116291, 1.0447454448659073, -0.6601437930979029], [-0.872880435088158, -0.4498064656331811, 0.1484887767304287, -1.3727511177674205, -0.3430909700061688, 0.18215532753637192], [-0.12105567319972851, -0.677683203506195, -2.281137846779908, -0.7159513566857012, -1.5212137398047998, -1.7852365403553678]], "biases": [[0.02366284723808238, 0.05010304824621791, -0.238662359706583, -0.11726420626629841, -0.14203508470871545, 0.33215025402383286]]}, "layer3": {"weights": [[-0.4349094621303475, -1.5155436846113925, 0.49104374651020594], [0.40732437361830964, 0.14380813318303068, -0.6916066535713112], [0.42309623750541553, -1.5416821009843897, 0.24358093283491186], [1.5919414934515905, 0.2975734302766721, -0.6713463407433392], [-0.12316990241914544, -0.23243458419276153, 1.1295300395323518], [0.19174994170052168, -0.6921231459905846, -0.41294159932941754]], "biases": [[0.23191115589014233, 0.031908199201485174, 0.07570264782830421]]}}, {"layer1": {"weights": [[0.1153682794672798, 0.17719180759498493, 0.47671888174483457, -0.12472498226352832, 2.189926755243842, -0.22970285601716733], [1.2793601396896523, 1.328852126451347, -0.8799069735106202, -0.5857583156621082, -0.9718842400304359, 0.8443766054418937], [0.05717370315289469, -1.004271269987762, -1.0182393470174498, 1.1330405218730033, 0.2629056068578541, -0.5167860220239664], [1.1238537282075527, -0.21312875627639333, -0.22055028474469296, -1.0439474521739363, -0.12786720098352056, 0.29788000707157475], [0.353687583723069, -2.0291716800958643, 0.14177348330878, 1.259746525971825, -0.7011014107351006, 0.4512073910284659]], "biases": [[-0.12322363428690496, -0.04403295031952424, -0.3534508205875079, 0.05751877712126701, 0.08380428640936599, 0.07816279082031322]]}, "layer2": {"weights": [[1.4443248916819034, 0.22635304088770128, 1.1432984514459832, -1.0458763767310084, -0.955819387584341, -0.6201837039553754], [0.5496277509642093, 0.9051631446248692, 0.8834747612165523, -0.1810474376109268, -0.08753819197260693, 0.6029905417492472], [-0.011871742066082207, 1.2732144659236062, 1.2073529753098613, -1.774279528737914, -0.4569403863671507, -1.1148162187398514], [0.09046564366564633, 0.7843029170266986, 0.3537330659098271, -0.14589297312996213, 1.044680244475328, -0.6261243619177151], [-0.8579250641411142, -0.3846614456262087, 0.1484827052058998, -1.3184928921966916, -0.3388361733193236, 0.18626319995178597], [-0.11619868552584381, -0.671798020279063, -2.2618672144836705, -0.6496326828117249, -1.552136646752869, -1.824680145695059]], "biases": [[0.03573530938096556, 0.026114086395768746, -0.23063594559453493, -0.11727808314280241, -0.14023707716162095, 0.3335200388510301]]}, "layer3": {"weights": [[-0.40643567374270506, -1.4996562923869785, 0.4754165275785936], [0.3036578277820998, 0.11228066822769901, -0.7335384108516059], [0.3527410983618654, -1.5416409377024696, 0.07552173985010366], [1.7303197339807967, 0.2853535001057422, -0.6759307676571777], [-0.10440423515949707, -0.2974926720705448, 1.1234971754334937], [0.24032528916061968, -0.8059543949449566, -0.3671079371278465]], "biases": [[0.23226820367980835, 0.037858156087636326, 0.07384481908734236]]}}, {"layer1": {"weights": [[-0.011002492252835092, 0.1711550621507565, 0.42061411377827673, -0.10019177619984293, 2.1864617588582016, -0.23387303576424084], [1.2273195734317492, 1.3396475111126813, -0.8759234528958735, -0.5429295789350997, -0.9599988638520054, 0.8264981002706473], [-0.0010430388010842177, -1.0404615859924529, -1.086585661328035, 1.1745390368342643, 0.31708208722083375, -0.5677238716542241], [1.123357101956663, -0.2804581300813953, -0.18229249772139364, -1.0512527908583076, -0.10112433916904559, 0.3420630827648385], [0.3214084942484764, -1.9945470959661453, 0.09265451609716256, 1.362412162685266, -0.6635600715540189, 0.36287538915402534]], "biases": [[-0.09646109435776526, -0.051083529064619035, -0.3524527079647949, 0.038982005134670795, 0.09362009235755403, 0.08419403737140621]]}, "layer2": {"weights": [[1.2594841874426024, 0.2103177905991162, 1.2079622091564985, -1.0680169387131975, -0.9869435174173188, -0.5947654702125976], [0.5445010013158541, 0.9176737797667329, 0.8771218733888674, -0.17042791080251357, -0.09217511993433297, 0.5859258896727195], [0.005188076098397937, 1.2194988876770418, 1.4051183264265275, -1.711177612904037, -0.4561037639179842, -1.0271488883105657], [0.12466888252171614, 0.8043803939600648, 0.3354712254411317, 0.0228541180835162, 1.0445242953283713, -0.6515805821474059], [-0.8698123696576568, -0.3975127892129102, 0.1484873512533502, -1.294225893129797, -0.3888377252940918, 0.19412729130434803], [-0.14989710007251092, -0.6680461414773344, -2.2798829494082398, -0.7460228486654719, -1.5556068564265093, -1.7772787373822116]], "biases": [[0.02484000788648308, 0.054006585662096485, -0.22686214439223545, -0.11793825950662762, -0.14438261534903046, 0.309777453724517]]}, "layer3": {"weights": [[-0.5102411683688479, -1.4864636361683794, 0.5016395976818683], [0.269687245015821, 0.17315891166978897, -0.8791064375438318], [0.431481347315897, -1.5426969080205157, 0.14570795097081357], [1.5684237254776214, 0.25290083126715635, -0.6254260556163209], [-0.05383227036858612, -0.24033736167837447, 1.1272020999965575], [0.27719991526532706, -0.5916372739646171, -0.36084878210639615]], "biases": [[0.22920955971309456, 0.03122554578807462, 0.0791779051458565]]}}, {"layer1": {"weights": [[0.015737626655716944, 0.17627860778052468, 0.44696231462625996, -0.12020202007365233, 2.187545700976605, -0.23008597908360073], [1.2609339459536208, 1.3158071736126498, -0.8976382364861191, -0.5252070846219171, -0.9529338694330547, 0.8317148479665912], [0.030868420055303332, -1.0374189221108527, -1.04001374439029, 1.1549543786212935, 0.4257417045925724, -0.5541855129213428], [1.017830893403532, -0.25742881426822517, -0.1943086650239806, -1.100948211993881, -0.10106436985579519, 0.2693493984801629], [0.2954383717535538, -2.012727022726563, 0.09557028326997496, 1.3007203261272942, -0.6863521689797745, 0.36055525232015717]], "biases": [[-0.11171192795374871, -0.05715517927533563, -0.3670566283571762, 0.06454113905150416, 0.08873878953868188, 0.07834170620330203]]}, "layer2": {"weights": [[1.460261394079855, 0.21838506872377494, 1.202743920402372, -1.0473609945490283, -0.9716951189337522, -0.630880447267945], [0.5533386678966279, 0.9250640535081281, 0.8468084350901798, -0.2012696665540489, 0.017770522078958767, 0.6160320622571411], [-0.004463738401050061, 1.2141504403674297, 1.2392086760071264, -1.7408143936170517, -0.345234060947552, -1.1046593138849348], [0.10283418471235421, 0.7992512249064221, 0.36043612693109295, 0.005216038237282539, 1.0448155460021393, -0.6518213805551587], [-0.8666847187218866, -0.44990548771279726, 0.15091730669470277, -1.3239935694640352, -0.3410076605232386, 0.19487886137212906], [-0.1189974647370238, -0.6758681056234015, -2.280490251361485, -0.6923930233801574, -1.522689695351512, -1.7980414233439164]], "biases": [[0.03876287189077739, 0.054136540093226715, -0.2395616172468018, -0.11720412731211484, -0.1151796703679898, 0.3330922811792083]]}, "layer3": {"weights": [[-0.44653645521332674, -1.5152513806614007, 0.4907613577455824], [0.34578042757810473, 0.1280286250456482, -0.705080410903856], [0.42008836421206364, -1.5415012550795377, 0.18701317590591032], [1.6547024449054568, 0.2914698241869188, -0.6697363552482123], [-0.11647580121358161, -0.2720579926486353, 1.1243382535996829], [0.2127840461363324, -0.6787545759997773, -0.48848334924086406]], "biases": [[0.232156718558686, 0.033876933635512835, 0.04394099776337185]]}}, {"layer1": {"weights": [[0.08534189508516975, 0.08508637630596345, 0.4351737335381881, -0.11264668892784717, 2.1863691796837266, -0.23068406373688136], [1.2693309551889147, 1.3278678576743048, -0.8819639451584835, -0.4349679864873295, -1.043172176756892, 0.8285163457753912], [0.05675256499457164, -0.9889006589757598, -1.0026120990846936, 1.1537296634644578, 0.2589352275490263, -0.566450653907196], [1.1236478516732378, -0.1161690918152021, -0.1755824634490406, -1.0639569812569578, -0.12787887447286092, 0.2856720562516618], [0.30318818980165047, -2.0144575983941495, 0.12494557135707077, 1.312236985534495, -0.6925547339176954, 0.3462365313933605]], "biases": [[-0.1278185820520558, -0.03998815106890964, -0.34747356975104565, 0.05086031731769708, 0.09367484351814777, 0.07960368946218632]]}, "layer2": {"weights": [[1.444865204244506, 0.22479046903941063, 1.1974346186789708, -1.03080068748731, -1.0508582934461739, -0.5795442352650555], [0.5380281879861015, 0.9218932525053136, 0.8745559443314848, -0.2093665511925446, -0.08911261020328745, 0.6004851370711791], [0.011588932552506339, 1.2770096704547278, 1.2447506914387214, -1.7213481975721732, -0.6802542028334673, -1.0921984150879558], [0.09368211399956755, 0.7192372496823368, 0.35915765919655884, 0.02340402311179666, 1.044523585464908, -0.6414715372390181], [-0.8690510433834984, -0.3819038346606021, 0.14854527715365767, -1.3137355401033814, -0.3135285553520201, 0.31102095886159437], [-0.124616719775927, -0.674280447935331, -2.2633578347107175, -0.68871309347144, -1.5553013376985214, -1.8318622201730692]], "biases": [[0.03563913801569804, 0.027075980432937463, -0.23795324177555305, -0.11744650556466849, -0.1423336643491817, 0.33286597941351903]]}, "layer3": {"weights": [[-0.49334125508777904, -1.4951197624383072, 0.67551346124519], [0.30340840206951125, 0.1436960363885772, -0.7040673374158201], [0.391041123888768, -1.5420660537308633, 0.14973386845878994], [1.694336091393111, 0.29768897155860097, -0.6806626199920748], [-0.1182912158200895, -0.21986473712959798, 1.1279775351147485], [0.23752163899537618, -0.6916452776046429, -0.3973215143430974]], "biases": [[0.26594189142669233, 0.033871127481616276, 0.07578039843527551]]}}, {"layer1": {"weights": [[0.03890718395208563, 0.11193848040631599, 0.4235106237303926, -0.10058436631196699, 2.0482623911889113, -0.22953925468183956], [1.2600453722783822, 1.3261993257414662, -0.8714625549589197, -0.5512669327540531, -0.9517243976369743, 0.8494937806932354], [0.04100069615126087, -1.0349006228033066, -1.0254390035733116, 1.0938002384672516, 0.2725505328376084, -0.5692859795323711], [1.1242192719992623, -0.25736771840344813, -0.21048976777690337, -1.0557946410153922, -0.10102303077042431, 0.23103755377715152], [0.27597828436669064, -2.0154386212346154, 0.09890182416818552, 1.2970495391783547, -0.6979991538781034, 0.3614510029974003]], "biases": [[-0.12062573756506859, -0.0632081834595427, -0.3535374151270192, 0.07306071192661712, 0.08874319650655438, 0.07728444471859602]]}, "layer2": {"weights": [[1.48074240190531, 0.23885953064741178, 1.2020975754007386, -1.079093370312029, -1.0782825567276615, -0.580418734007959], [0.5821030689715975, 0.9006647371089652, 0.8803791340596467, -0.23205758777845908, -0.08557508259008942, 0.606520203777691], [-0.010021338266469611, 1.2113649222107494, 1.2076432415942298, -1.7378538132026933, -0.461532976783792, -1.1689057314041438], [0.09661107082742075, 0.8040237762139056, 0.35941637694530104, 0.018524861294117956, 1.0491314621404988, -0.6551793413269935], [-0.7161478056768535, -0.46250069010789235, 0.11583778746505627, -1.3024303515184528, -0.33782128338766026, 0.19273166357576227], [-0.11368280959739156, -0.6901009769177366, -2.2809668042615954, -0.6904061969715739, -1.504637396844184, -1.8114470012270287]], "biases": [[0.03934314686450055, 0.06190676562109083, -0.22486338515557736, -0.11701010446127635, -0.15721002476699744, 0.3352194087529167]]}, "layer3": {"weights": [[-0.48197119263826194, -1.582765975461429, 0.5432734323733892], [0.26686676236440127, 0.0030078881533061597, -0.7073934391001043], [0.43049545244016685, -1.622461621693558, 0.1304260563082451], [1.6650783947383259, 0.2564717491036662, -0.6595628288625994], [-0.11662643344700047, -0.26317126094998927, 1.1126785829817352], [0.22625516882886074, -0.6783352332537687, -0.3816111743729981]], "biases": [[0.22995104210175904, 0.0072395308482117275, 0.07421982824258841]]}}, {"layer1": {"weights": [[0.005524866400531725, 0.17469629436662196, 0.4412309240273192, -0.11182837004574812, 2.1893660345378794, -0.2318913914101181], [1.2640402709075562, 1.3267923572160234, -0.8672762844717021, -0.5642773730395427, -0.9638489262426821, 0.769711432743007], [0.052329681733918484, -1.0175511546081002, -1.0341739383996116, 1.1541873331329198, 0.3239337390590409, -0.5021559588503726], [1.1233835236113265, -0.2604869611607948, -0.2161378523396762, -1.0298499649381707, -0.10110837866223218, 0.2830274527978335], [0.3011358688444761, -1.9145823393344825, 0.10617510154210386, 1.3100516917263534, -0.6669029312405379, 0.34978163752801483]], "biases": [[-0.0982627949943613, -0.04705255315309964, -0.34720521253152575, 0.04638843145492883, 0.1007107976099822, 0.08115416923676613]]}, "layer2": {"weights": [[1.4628576913653264, 0.22454439632097836, 1.2595117298670804, -1.0369909277446836, -1.0335089486528912, -0.6301019718226142], [0.6022709249767296, 0.9210248604109226, 0.886384274122684, -0.1816419320986456, -0.09077976150795186, 0.6147694153110874], [0.03753507892406187, 1.2192434349317178, 1.23865325717202, -1.759221761219091, -0.4693129678010106, -1.0712835833919954], [0.11865814205648226, 0.7856123164757802, 0.3475718535153497, -0.00133910939293049, 1.0443320499926272, -0.6438675235960555], [-0.8638224112336286, -0.4282579545659426, 0.1486534559603084, -1.2675590592826178, -0.31742433602224596, 0.20493027365156616], [-0.1381698031758114, -0.7013132617535923, -2.4293293798197566, -0.6670299071337756, -1.5581443808286475, -1.8438756021142857]], "biases": [[0.024502375370828715, 0.05181311308096415, -0.24315227672884543, -0.11757806542655642, -0.1441808265023164, 0.3275730116051677]]}, "layer3": {"weights": [[-0.491227296067104, -1.5045529720312363, 0.4709405114492632], [0.28402062909924364, 0.14128052919896242, -0.7098295836337024], [0.37364407211787065, -1.5425768842203451, 0.19980467778067776], [1.6720156421072039, 0.28665126649165323, -0.6736788203337276], [-0.10720424609588314, -0.3109918923015286, 0.8656255587284427], [0.24618941284404983, -0.6874604834568966, -0.38823091703769663]], "biases": [[0.26528645476673574, 0.03590038987685565, 0.07136091349246236]]}}, {"layer1": {"weights": [[0.027806698771414617, 0.3045576299187965, 0.4235106237303926, -0.10058436631196699, 2.185871852757573, -0.22953925468183956], [1.2600453722783822, 1.3261993257414662, -0.8714625549589197, -0.5512669327540531, -0.9517243976369743, 0.8494937806932354], [0.04100069615126087, -1.0349006228033066, -1.0254390035733116, 1.0938002384672516, 0.2725505328376084, -0.5692859795323711], [1.1367550440080199, -0.25732897682177075, -0.2484391344407262, -1.0557946410153922, -0.10102303077042431, 0.23103755377715152], [0.2905883247998454, -2.0154386212346154, 0.09890182416818552, 1.2970495391783547, -0.6979991538781034, 0.3614510029974003]], "biases": [[-0.12062573756506859, -0.0632081834595427, -0.3535374151270192, 0.07306071192661712, 0.08874319650655438, 0.07728444471859602]]}, "layer2": {"weights": [[1.48074240190531, 0.23885953064741178, 1.2020975754007386, -0.9128184790173084, -1.0525443812443185, -0.6909111599840062], [0.5584126286748983, 0.9006647371089652, 0.8805222198951409, -0.20633113206741494, 0.019141546471763055, 0.606520203777691], [-0.010021338266469611, 1.2113649222107494, 1.2257515328199478, -1.6011019027889073, -0.3427565290006778, -1.109200362673714], [0.07709372786401872, 0.7858126151650712, 0.35941637694530104, 0.05412777456447307, 1.050280253884282, -0.6551793413269935], [-0.7815772912834916, -0.46250069010789235, 0.11583778746505627, -1.3024303515184528, -0.33782128338766026, 0.19084774235152469], [-0.11368280959739156, -0.687905337231356, -2.2809668042615954, -0.6904061969715739, -1.6182715638928582, -1.8302871232443112]], "biases": [[0.03934314686450055, 0.06190676562109083, -0.23527020380829133, -0.11701010446127635, -0.11361018428324954, 0.3352194087529167]]}, "layer3": {"weights": [[-0.48197119263826194, -1.5244346029600837, 0.5432734323733892], [0.26686676236440127, 0.1855363912161165, -0.7073934391001043], [0.43049545244016685, -1.622461621693558, 0.1304260563082451], [1.6650783947383259, 0.2564717491036662, -0.6595628288625994], [-0.11662643344700047, -0.26317126094998927, 1.1126785829817352], [0.2109075144067279, -0.6783352332537687, -0.3816111743729981]], "biases": [[0.22995104210175904, 0.0072395308482117275, 0.04336444150078492]]}}, {"layer1": {"weights": [[0.0023286579704852074, 0.18209537119946448, 0.4343124716362734, -0.11264668892784717, 2.1863691796837266, -0.23068406373688136], [1.2693309551889147, 1.3278678576743048, -0.8819639451584835, -0.5684069336489432, -0.9731284796159008, 0.8285163457753912], [0.05675256499457164, -0.9916426354489448, -1.0026120990846936, 1.1537296634644578, 0.2589352275490263, -0.566450653907196], [1.1236478516732378, -0.23073466181807697, -0.1755824634490406, -1.0639569812569578, -0.13312112718278707, 0.1552459690167308], [0.30318818980165047, -2.0144575983941495, 0.12494557135707077, 1.312236985534495, -0.6925547339176954, 0.3462365313933605]], "biases": [[-0.1278185820520558, -0.03998815106890964, -0.34747356975104565, 0.05086031731769708, 0.09367484351814777, 0.07960368946218632]]}, "layer2": {"weights": [[1.444865204244506, 0.22479046903941063, 1.1974346186789708, -1.03080068748731, -1.0508582934461739, -0.5795442352650555], [0.5380281879861015, 0.9218932525053136, 0.8745559443314848, -0.2093665511925446, -0.08911261020328745, 0.6004851370711791], [0.011588932552506339, 1.2770096704547278, 1.27990186584179, -1.7213481975721732, -0.4605861370746738, -1.0921984150879558], [0.09368211399956755, 0.7942433157044932, 0.35915765919655884, 0.02340402311179666, 1.044523585464908, -0.6414715372390181], [-0.8085607168278801, -0.3819038346606021, 0.11323577335947443, -1.3137355401033814, -0.2146982780651554, 0.1711348462124911], [0.009657933657532758, -0.674280447935331, -2.2633578347107175, -0.590253001821501, -1.5553013376985214, -1.8318622201730692]], "biases": [[0.03563913801569804, 0.027075980432937463, -0.23795324177555305, -0.11744650556466849, -0.1423336643491817, 0.33286597941351903]]}, "layer3": {"weights": [[-0.49334125508777904, -1.4951197624383072, 0.4658090901957379], [0.30340840206951125, 0.1436960363885772, -0.7040673374158201], [0.391041123888768, -1.5420660537308633, 0.14973386845878994], [1.6286525631671385, 0.29768897155860097, -0.6806626199920748], [-0.1182912158200895, -0.21986473712959798, 1.1279775351147485], [0.23752163899537618, -0.6916452776046429, -0.3973215143430974]], "biases": [[0.26594189142669233, 0.033871127481616276, 0.07578039843527551]]}}, {"layer1": {"weights": [[0.027806698771414617, 0.23222934882819277, 0.46428795337951284, -0.10058436631196699, 2.185871852757573, -0.22953925468183956], [1.2600453722783822, 1.3261993257414662, -0.8714625549589197, -0.5512669327540531, -0.9517243976369743, 0.8494937806932354], [0.04100069615126087, -1.0349006228033066, -1.0254390035733116, 1.1595315686595637, 0.2725505328376084, -0.5692859795323711], [1.1242192719992623, -0.25732897682177075, -0.2484391344407262, -1.0557946410153922, -0.10102303077042431, 0.23103755377715152], [0.2905883247998454, -2.0154386212346154, 0.09890182416818552, 1.2970495391783547, -0.6979991538781034, 0.3614510029974003]], "biases": [[-0.12062573756506859, -0.0632081834595427, -0.3535374151270192, 0.07924882744844879, 0.08874319650655438, 0.07728444471859602]]}, "layer2": {"weights": [[1.48074240190531, 0.23885953064741178, 1.2020975754007386, -1.079093370312029, -1.0525443812443185, -0.6909111599840062], [0.5821030689715975, 0.9006647371089652, 0.8805222198951409, -0.20633113206741494, 0.019141546471763055, 0.606520203777691], [-0.010021338266469611, 1.2113649222107494, 1.2257515328199478, -1.7378538132026933, -0.3427565290006778, -1.109200362673714], [0.09661107082742075, 0.8040237762139056, 0.35941637694530104, 0.05412777456447307, 1.0523881252658474, -0.6551793413269935], [-0.8716908775392298, -0.46250069010789235, 0.11583778746505627, -1.3024303515184528, -0.33782128338766026, 0.19084774235152469], [-0.11368280959739156, -0.5832511863359854, -2.2809668042615954, -0.6904061969715739, -1.504637396844184, -1.8302871232443112]], "biases": [[0.03934314686450055, 0.06190676562109083, -0.23083438402594686, -0.11701010446127635, -0.11361018428324954, 0.3352194087529167]]}, "layer3": {"weights": [[-0.48197119263826194, -1.5244346029600837, 0.5432734323733892], [0.26686676236440127, 0.12222398851668032, -0.7944088450746252], [0.43049545244016685, -1.622461621693558, 0.1304260563082451], [1.6650783947383259, 0.2564717491036662, -0.6595628288625994], [-0.11662643344700047, -0.26317126094998927, 1.1126785829817352], [0.2683833478990845, -0.6783352332537687, -0.3816111743729981]], "biases": [[0.22995104210175904, 0.0072395308482117275, 0.04336444150078492]]}}, {"layer1": {"weights": [[0.014646717358684471, 0.1922269758276955, 0.44562624020410957, -0.12625444077717696, 2.188298959796228, -0.22968802178642714], [1.1632200554890892, 1.2872224969690118, -0.8671117363160726, -0.5466433736798899, -0.9562153365335083, 0.8378272401676045], [0.04755147675075423, -0.9998958954397835, -1.0608970166597924, 1.1265703248512393, 0.33287053469100236, -0.5498395722996474], [1.1239902615065298, -0.23860667453927287, -0.17896666834059125, -1.0423497493936917, -0.10106171556458754, 0.3065319285498168], [0.28729998541991575, -2.022732855618046, 0.07699155399003955, 1.2722826992271634, -0.7485472544500378, 0.35538460630769125]], "biases": [[-0.11796711585131019, -0.055135816353979766, -0.35348249984676094, 0.0648846893673684, 0.08380201042436923, 0.07778243463981413]]}, "layer2": {"weights": [[1.460060775856561, 0.2207964623071486, 1.2036998151174445, -1.0723994807238257, -1.1731809011396752, -0.6816800618507806], [0.5684640799071845, 0.9256980741328606, 0.8848036060516656, -0.21283672762645806, 0.01840412038575595, 0.6086529014018507], [-0.008895951552487794, 1.2128873930148103, 1.2275033450455464, -1.7709329667302478, -0.34321893903330003, -1.2479195419881264], [0.10182015072278061, 0.7931157237587952, 0.35170185765207146, -0.03731405447990632, 1.0448856471383716, -0.6434989680124145], [-0.8604890023556151, -0.32421380225798485, 0.1533458366589768, -1.346796697770658, -0.3389243510403084, 0.20948631643212384], [-0.11693925627431909, -0.6762486474269884, -2.279842655943062, -0.5068429925132327, -1.5241656508982242, -1.8108463063324651]], "biases": [[0.053862896543472386, 0.058170031940235525, -0.23448987591665105, -0.11714404835793127, -0.13192409651101206, 0.33403430833458375]]}, "layer3": {"weights": [[-0.45816344829630595, -1.5149590767114092, 0.4904789689809589], [0.2842364815378998, -0.00696698345510844, -0.7185541682364007], [0.4170804909187117, -1.541320409174686, 0.13044541897690878], [1.717463396359323, 0.28536621809716556, -0.6681263697530855], [-0.1097817000080178, -0.3116814011045091, 1.1191464676670138], [0.2338181505721431, -0.66538600600897, -0.24247261744000942]], "biases": [[0.23240228122722967, 0.035845668069540496, 0.04303473444024297]]}}, {"layer1": {"weights": [[0.027806698771414617, 0.23222934882819277, 0.4235106237303926, -0.10058436631196699, 2.185871852757573, -0.22953925468183956], [1.2600453722783822, 1.3261993257414662, -0.8390839051132617, -0.5662993547151892, -0.9517243976369743, 0.8494937806932354], [-0.16390149836521611, -1.0349006228033066, -1.0254390035733116, 1.0938002384672516, 0.13362768149540777, -0.5692859795323711], [1.1242192719992623, -0.2198856709855794, -0.2484391344407262, 