[{"layer1": {"weights": [[-1.1767596695986078, -1.392598885843479, -1.5242888859334842, -1.21630801615549, 0.9313991677939721, 1.045015008398507], [-0.5144225937230358, -0.6634630157323854, -1.187437386794595, 0.3536609632617499, 0.3132376188556691, -0.8517403090527083], [0.7344343782532352, -0.8182250105553207, -0.6612358155518363, 0.21403954449079143, 1.2676635086172956, 0.22117956258219507], [-0.09266337328312464, 0.08168627485036027, 0.647931537482219, 0.319587690361076, -0.49012200172105175, 0.7904588884659894], [0.10553387180508661, -0.5152449925304411, 0.9729571459333846, -0.5740594692680385, 0.6346110078885951, 0.24079301241522377]], "biases": [[0.09557954469347889, -0.25506987213928023, -0.03548121803509153, -0.015218901357816617, -0.08103831023386879, 0.017048298813310298]]}, "layer2": {"weights": [[0.959718952800827, -0.7753456965863182, -0.34379609613367546, -0.9992908100628985, -0.5555516075351283, 1.1313601931177177], [-0.1903389879866647, -1.1913975821851026, -0.3933131659605781, 0.3064522277514051, -0.4093924094625168, 0.9807828589504075], [0.30004344188238874, 0.18772128169745195, -0.33536110000075403, 0.01452808125967361, -0.11123988293776704, 0.9080638658158553], [-0.35017840976519243, 0.17276023192553955, 0.18095262813651602, 0.3823828827521849, 1.6415184220681267, -0.3419450960171598], [1.1835610264320715, 1.0982773766733909, 0.9907279824625375, -0.3411230151403955, 0.22231137888157165, 0.5578367868575531], [0.17407947783559183, 1.0692336196485959, -0.8472248056213423, -0.9117815641008564, -0.30264403186488686, 1.0824385584280323]], "biases": [[0.019281389909398983, -0.09533333291272232, -0.19941819969763347, 0.010855198556389185, -0.019763240503245752, 0.0049091402360848975]]}, "layer3": {"weights": [[0.7333379852432055, 0.22396607146410824, 0.4901962793603928], [0.19354998942853435, 0.19920582169955925, 1.7229432865295387], [0.9111425765734235, -0.12964987629507463, -0.6513894282605847], [-1.5427122311660284, 0.26962526206355864, -0.21188546339872327], [-0.23453096346121996, 0.4943047957386881, 0.6791645677195073], [-0.8044860393764715, -0.3073487893775048, -0.7991897102813778]], "biases": [[-0.05231678428425093, -0.16593154904659196, -0.06867612526398606]]}}, {"layer1": {"weights": [[-1.1330242005560667, -1.4019325291071574, -1.5239718478418443, -1.218466431421695, 0.9467487293513297, 1.0555609589416957], [-0.40024971111867536, -0.6703017188939794, -1.218757255926614, 0.42603425470783496, 0.41629319117326796, -0.8639916967093377], [0.8270468025019766, -0.8587179048199316, -0.646168316720648, 0.22873550268786697, 1.2655070237514172, 0.22080359838269287], [-0.09115961756993941, 0.07352793901185932, 0.6521246840382338, 0.31357196460290504, -0.48739972215607197, 0.7930782473641095], [0.16372607762536845, -0.5202174401246769, 0.8110115078284433, -0.573297294530839, 0.6315541993117849, 0.2386821839377402]], "biases": [[0.09557719735986324, -0.2592551377300091, -0.03607971255422879, 0.001274654096566589, -0.0817954616290813, 0.00494985039837847]]}, "layer2": {"weights": [[1.0132087433398445, -0.7645321933338091, -0.34873779302350427, -1.0331790064531192, -0.5522434902453328, 1.1429974389851196], [-0.1946368297985727, -1.192906428921653, -0.4044453861119014, 0.30628852785321714, -0.47481065522845245, 0.9974372992751229], [0.3142928846543601, 0.1835285636818395, -0.33859794588294656, -0.06600896415774485, -0.2971878342662604, 0.856866852072488], [-0.36288521587669265, -0.12307367018107007, 0.20129202934304102, 0.3695093821118772, 1.637237833992649, -0.3458868524921083], [1.1849772314535492, 1.094270373744623, 0.9955416350159878, -0.33303015028181604, 0.2587503843786847, 0.5564613954510902], [0.18869440896575296, 1.0730861693354528, -0.8537869937619096, -0.8997553233872796, -0.3152018646404787, 1.0749049745692179]], "biases": [[0.019389232129427406, -0.09743791964838977, -0.19945901756286372, 0.010845621517733928, -0.01639332128539718, 0.0049164680669794136]]}, "layer3": {"weights": [[0.7356006658609565, 0.23786706513652786, 0.4901461679935768], [0.19496378183687776, 0.1265206404081387, 1.8205290349002383], [0.9128691622279556, -0.23921132800403355, -0.6725563199595475], [-1.507734733371931, 0.2858999790218685, -0.22019593547667027], [-0.23174491614736442, 0.49427333991117195, 0.7547300156960699], [-0.8363973408528373, -0.3061794025265381, -0.8000929680157609]], "biases": [[-0.05238918973876355, -0.16602567267238633, -0.06992314661218248]]}}, {"layer1": {"weights": [[-1.2007828381542986, -1.3813555925526304, -1.524521563129908, -1.2167848059934587, 0.923129707281848, 1.0304854638603267], [-0.3888929816311423, -0.6621724479887846, -1.1902875072012857, 0.35550425629006727, 0.3033939153620314, -0.8340789904861978], [0.4878174033295696, -0.8517597214885113, -0.6622384336440243, 0.212838956923296, 1.2636244881940417, 0.22123111060576206], [-0.1099774066713696, 0.08698343428601188, 0.647074304328642, 0.38936014801222063, -0.3951046875915967, 0.7898105266743849], [0.18278617567057004, -0.48304373537412026, 0.8131524803010334, -0.5743543011502796, 0.6795475815381167, 0.26870458836315825]], "biases": [[0.0955807183602867, -0.25633787631728283, -0.03535126117102877, -0.0007022649027388986, -0.08054020611199111, 0.019497096259338906]]}, "layer2": {"weights": [[1.0150571161576345, -0.7923270295672427, -0.2918778097036667, -0.9766128348113923, -0.5580327105311631, 1.138504636528316], [-0.2315806878288844, -1.193709516004041, -0.3868377432369857, 0.30643867883066844, -0.36004027486071294, 0.9806786484539917], [0.3989799042815817, 0.19095311956614813, -0.3335488573010884, 0.01439520090750365, -0.2700272321100718, 0.8470596621687366], [-0.22705123621958273, -0.12809467216775092, 0.1379848815851388, 0.46430966491136894, 1.6830530094029588, -0.3414218101843911], [1.1827761031999275, 1.0988908430929947, 0.9505670535211079, -0.3411659075773934, 0.2579983297234708, 0.5580300405819503], [0.17367051900494987, 1.0720091793752067, -0.8493769369161808, -0.9159862631108417, -0.2989919727411722, 1.0851878369249441]], "biases": [[0.019281391737238453, -0.08425551348352846, -0.22263926160781533, -0.00244540988507593, -0.019319371560071314, -0.09993530784532446]]}, "layer3": {"weights": [[0.731074589443437, 0.21701557462789842, 0.4894349817018624], [0.16865380322950205, 0.04623909595946707, 1.4445883211988009], [0.9304936961956943, 0.031599462249436175, -0.6348066753079591], [-1.5428037775211092, 0.26599075862435956, -0.19264086471932573], [-0.23079317333729954, 0.49430777973370293, 0.6642795067073611], [-0.8045612706716911, -0.1877723855496385, -0.7943703711437385]], "biases": [[-0.05219134358055259, -0.16581980884296801, -0.06864948599181103]]}}, {"layer1": {"weights": [[-1.2445183071968398, -1.372021949288952, -1.5248386012215478, -1.2146263907272536, 0.9077801457244903, 1.019939513317138], [-0.37808577995228393, -0.6553337448271906, -1.1858082470422013, 0.2831309648439822, 0.20033834304443252, -0.8218276028295683], [0.6293963261412387, -0.8112668272239004, -0.6773059324752126, 0.19814299872622043, 1.26578097305992, 0.22160707480526426], [-0.11148116238455483, 0.09514177012451283, 0.6428811577726272, 0.3953758737703916, -0.49694094899642766, 0.7871911677762649], [0.12459396985028821, -0.47807128777988445, 1.0899005946949423, -0.5751164758874792, 0.6386514122000027, 0.22987033158637749]], "biases": [[0.09558306569390235, -0.252152610726554, -0.03475276665189151, -0.017195820357122103, -0.0797830547167786, 0.03159554467427073]]}, "layer2": {"weights": [[0.9615673256186171, -0.8031405328197518, -0.3393243151596489, -0.9427246384211715, -0.5613408278209586, 1.1268673906609141], [-0.22728284601697643, -1.1922006692674905, -0.3757055230856624, 0.30660237872885643, -0.2946220290947773, 0.9640242081292762], [0.3847304615096103, 0.19514583758176055, -0.3303120114188959, 0.012255545458819937, -0.2347778086561133, 0.8982566759121038], [-0.3410291208570151, -0.13378548529574757, 0.11764548037861383, 0.39634630381913266, 1.6873335974784365, -0.33748005370944256], [1.1813598981784499, 1.1028978460217624, 0.9457534009676577, -0.34925877243597286, 0.22155932422635782, 0.5594054319884132], [0.15905558787478874, 1.0681566296883496, -0.8428147487756135, -0.9280125038244186, -0.28643413996558037, 1.0927214207837586]], "biases": [[0.01917354951721003, -0.08215092674786101, -0.22259844374258508, -0.002435832846420674, -0.022689290777919882, 0.004890855527469458]]}, "layer3": {"weights": [[0.7288119088256859, 0.2031145809554788, 0.4894850930686783], [0.16724001082115864, 0.24822581667240795, 1.6247703508603086], [0.9287671105411622, -0.10633633631308716, -0.6136397836089964], [-1.5777812753152065, 0.2497160416660497, -0.1843303926413787], [-0.2335792206511551, 0.49433923556121906, 0.6029910896532898], [-0.7726499691953254, -0.3096877230477083, -0.7934671134093554]], "biases": [[-0.052118938126039974, -0.16572568521717362, -0.06740246464361462]]}}, {"layer1": {"weights": [[-1.2007828381542986, -1.4015381361504713, -1.524521563129908, -1.2167848059934587, 0.923129707281848, 1.0304854638603267], [-0.10424492090098181, -0.6621724479887846, -1.1902875072012857, 0.35550425629006727, 0.3033939153620314, -0.8340789904861978], [0.637291757648772, -0.8517597214885113, -0.6622384336440243, 0.212838956923296, 1.2636244881940417, 0.22123111060576206], [-0.1099774066713696, 0.08698343428601188, 0.647074304328642, 0.38936014801222063, -0.4942186694314479, 0.7898105266743849], [0.18278617567057004, -0.48304373537412026, 0.9279549565900012, -0.5743543011502796, 0.6355946036231924, 0.22775950310889392]], "biases": [[0.0955807183602867, -0.25633787631728283, -0.03535126117102877, -0.0007022649027388986, -0.08054020611199111, 0.019497096259338906]]}, "layer2": {"weights": [[1.0150571161576345, -0.7923270295672427, -0.3442660120494777, -0.9766128348113923, -0.5580327105311631, 1.138504636528316], [-0.2315806878288844, -1.193709516004041, -0.3868377432369857, 0.30643867883066844, -0.36004027486071294, 0.9806786484539917], [0.3989799042815817, 0.19095311956614813, -0.3335488573010884, 0.01439520090750365, -0.2700272321100718, 0.8470596621687366], [-0.3537359269685153, -0.12809467216775092, 0.1379848815851388, 0.38347280317882504, 1.6830530094029588, -0.38852856589145884], [1.1827761031999275, 1.0988908430929947, 0.8008941389418416, -0.3411659075773934, 0.2579983297234708, 0.5580300405819503], [0.17367051900494987, 1.0720091793752067, -0.8493769369161808, -0.9159862631108417, -0.2989919727411722, 1.0851878369249441]], "biases": [[0.019281391737238453, -0.08425551348352846, -0.22263926160781533, -0.00244540988507593, -0.019319371560071314, 0.0048981833583639734]]}, "layer3": {"weights": [[0.731074589443437, 0.21701557462789842, 0.4894349817018624], [0.16865380322950205, 0.1755406353809874, 1.7223560992310083], [0.9304936961956943, -0.09400015375086372, -0.6348066753079591], [-1.5428037775211092, 0.26599075862435956, -0.19264086471932573], [-0.23079317333729954, 0.49430777973370293, 0.6785565376298525], [-0.8045612706716911, -0.3085183361967415, -0.7943703711437385]], "biases": [[-0.05219134358055259, -0.16581980884296801, -0.06864948599181103]]}}, {"layer1": {"weights": [[-1.1816070615092893, -1.3852594338277369, -1.524265553316717, -1.2178128483147201, 0.928104095521786, 1.0437519640025075], [-0.388271269528503, -0.6680894060039442, -1.2142879041234602, 0.35364463588332284, 0.30808010183648027, -0.8461275716217262], [0.6398967484648524, -0.7895489676173373, -0.6448629484509275, 0.21288567248493112, 1.2636274278186959, 0.22121392793123973], [-0.10922919558722571, 0.0843254910889838, 0.6475090185571387, 0.388380270790181, -0.3244239572802132, 0.790458304042934], [0.14452586958809724, -0.5151853398480111, 0.8815677923972914, -0.5738243618766576, 0.6345584271950395, 0.2933700249580333]], "biases": [[0.09558032713801742, -0.2550669405942978, -0.03539458012571635, -0.016201730184713665, -0.08052201187455307, 0.009851309206392466]]}, "layer2": {"weights": [[0.9604828927068739, -0.7964502883610829, -0.3459789401271988, -0.9879518207017695, -0.5461411647075854, 1.2190636727517965], [-0.23720383167773174, -1.192305514692842, -0.39234848701907155, 0.30644319513758067, -0.36003897251335626, 0.9958482312530255], [0.41304041489831234, 0.18929601765746717, -0.33540629421617674, 0.014439494358226971, -0.3029635415250127, 0.8818804713914942], [-0.35160591258272794, -0.12841559611827852, 0.042162744428367205, 0.38368781932650453, 1.6415282642958777, -0.344877193029029], [1.1831734553382782, 1.0966506794574096, 0.9891389702547657, -0.3411516100983941, 0.22154810194088664, 0.556513996366868], [0.11598532594022726, 1.0723049200079915, -0.8566015485495275, -0.9136888727626383, -0.2041225648566686, 1.0869907831118881]], "biases": [[0.019281391127958628, -0.08503517206957861, -0.22263924882697106, -0.0024470060581851397, -0.019467327874462793, 0.004901835650937615]]}, "layer3": {"weights": [[0.7310743510494311, 0.22396421423871243, 0.490002539030963], [0.16850180933023612, 0.2493983724030221, 1.7225518283305186], [0.9310412999516549, -0.10015803307683796, -0.6348453006152452], [-1.5428357862812325, 0.27532552937776833, -0.19515759548068767], [-0.23078894455370177, 0.49430678506869796, 0.6795367288892795], [-0.8045361935732847, -0.30900958616191965, -0.7946731889614191]], "biases": [[-0.05213901836925589, -0.16585705557750932, -0.06865326189398271]]}}]