[{"layer1": {"weights": [[-0.6930235336460816, 2.7690226905496593, -0.3884049783366347, 1.564196111329041, 0.054195587312544105, 1.7611341775726872], [-0.369138402159896, -0.16760411296140706, 0.5957420799070272, 0.40643871372854434, -0.10866727875150406, 0.6043585925391357], [-1.3527428074502559, -1.0832245135608012, 0.3574590654154683, -1.8979126296896227, 1.1575849128008753, -0.44759895039826936], [1.2613483936621745, -1.0609186487638458, -0.6071944133121849, -0.1178037085141406, 1.1049554259342709, -1.3451437500318812], [-0.22159962208476297, -0.9937131037186705, -2.9329487493390007, 0.43766874641045705, 2.129066190392872, -1.8978307913634087]], "biases": [[0.26643857674120064, 0.24549969388502854, -0.2017447582129656, -0.4291609106153077, 0.11641928208694963, 0.004798931196862189]]}, "layer2": {"weights": [[-1.370528737325777, -0.9923627465062471, -0.9207627594235336, 0.2119120663334245, 0.20801416538374223, -1.9000371074957343], [-0.9855703178674001, 1.3536840684499323, -0.21388860078471167, 2.5394581923048256, 1.0515829579826543, -0.8809167771423259], [-1.1900034524215783, -0.13448706985251274, 0.5760639740350093, -0.6943488230410088, 2.8824429077666935, -0.6548681353990243], [-0.46111017367315066, -0.09038946197448679, -1.6794854169435152, -0.9641461889012648, 1.2349305140413558, -0.4609853732635133], [0.3836930664342616, -1.406982345694957, -1.5934836732701994, 1.5558389703346547, 1.348864656547415, 0.741904010541919], [-1.492994480622642, -0.9285945214307879, 0.7323288155047647, -0.13703381628395914, -1.1254521201072327, 0.3866371463098782]], "biases": [[-0.7408814234748329, 0.39322530110118337, -0.6729119155802548, 0.36555102056597333, -0.544782325300292, -0.2218729417717631]]}, "layer3": {"weights": [[0.12538155744613264, 0.27113149852450985, -5.618827300592258], [-1.3099781024486201, -0.7880412774616933, 0.12081467608836376], [-1.3838451327507162, -0.43199737792261594, -1.2395881202318697], [1.4493192107721469, 1.8749698009117088, -1.0295885345232916], [-1.0193165922361551, 1.8952129173715277, -0.6093370183736941], [-0.7977870441044881, -0.8673583214103542, 0.6143064891360338]], "biases": [[-0.589433488227438, 0.43713942354838065, 0.25520613783001067]]}}, {"layer1": {"weights": [[-0.42981175232014446, 2.752281046959883, -0.3674234899621336, 1.3945260503669754, 0.02387126961695248, 1.7072593418598343], [-0.3727555630898119, -0.35970106390178097, 0.4850956968879733, 0.09599095475072134, -0.014963115247969713, 0.4172715125078302], [-1.4923172622838357, -1.1315413600137294, 0.2968221308962639, -1.8980951553007133, 1.266534244830114, -0.5537493685685021], [1.1619674801232809, -0.8066647034614314, -0.4955997605667793, 0.09121193593831496, 0.8970500162574779, -1.2488135820279078], [-0.22159962208476297, -0.8905339451122257, -2.9538434579053163, 0.6696463792887376, 2.046189040552508, -1.7399868317743747]], "biases": [[0.2574482847919148, 0.2722932482576237, -0.12552800665475838, -0.4205386227105671, 0.08712499384368505, -0.00985421231837062]]}, "layer2": {"weights": [[-1.375586414084743, -1.110796854839753, -0.9916368022936616, 0.28452467988273594, 0.3445465249196898, -1.7653438588852732], [-0.9360396680366408, 1.3088845372842384, 0.16185503333552564, 2.511161854127704, 1.0515829579826543, -1.085722452541755], [-0.8705467387420369, 0.08258465451972212, 0.6060187238868817, -0.649654038827045, 2.6252033194993154, -0.9021230243858795], [-0.27054701250734237, -0.09038946197448679, -1.869465137636412, -0.9262630439912886, 1.1059836738517697, -0.5708477274816885], [0.27300634315430505, -1.3409717015288871, -1.4654322172912002, 1.5558389703346547, 1.348864656547415, 0.8072482896819871], [-1.3750899325536567, -0.9285945214307879, 0.7323288155047647, -0.23898499019764355, -0.9224499822649728, 0.43390884723187517]], "biases": [[-0.7408814234748329, 0.39322530110118337, -0.6729119155802548, 0.3643561915339082, -0.6015588973563533, -0.1497320649229482]]}, "layer3": {"weights": [[-0.026320875717808626, 0.3332181159758157, -5.538024025893363], [-1.5069825314367467, -0.8052680698500364, 0.43671138513818963], [-1.2281973212922024, -0.28761957617671857, -1.2117284396694044], [1.3583656595949942, 1.8831183172420047, -0.903697491771183], [-0.8060161511828966, 1.8952129173715277, -0.7349063945008965], [-0.8939626261782674, -0.7632400325411094, 0.6143064891360338]], "biases": [[-0.589433488227438, 0.4452007806399026, 0.369522667386054]]}}, {"layer1": {"weights": [[-0.6105583066737217, 2.6763262476800196, -0.3970758827432257, 1.442809436421436, -0.0674948431418325, 2.2237944564791405], [-0.39986464123152954, 0.057092142159231876, 0.44140881202911975, 0.5036312989441414, 0.1342179631538692, 0.7079441104907546], [-1.201527451051357, -1.1699514038496523, 0.6735834842923896, -1.9266187659321194, 1.6341530216866003, 0.03261212294154536], [1.4289213601556268, -0.8833433707272731, -0.15444756357740652, 0.01111047225646369, 0.484741451878905, -1.0387676927520175], [-0.359404024421839, -1.1551222675601698, -2.923695569435039, 0.40968685059931004, 1.8653618566754242, -1.7755312605092293]], "biases": [[0.08533594574898107, 0.2551023894558428, -0.1782612221244341, -0.3448267629893421, 0.06342904419446932, -0.020786628259512017]]}, "layer2": {"weights": [[-1.308206988282349, -0.6335069752817312, -0.31321315648503334, 0.7923213193924881, 0.41467299916073685, -2.210790650248249], [-0.9563670807998413, 1.2095016484456034, 0.8958616001897649, 2.5150192037282166, 1.1230181979509282, -0.7125868350057499], [-0.7662417887247928, -0.7226146432626344, 0.49549169291451656, -0.6726044782173947, 2.6398405910655875, -0.5291033346333116], [-0.04359969187215658, 0.30145138016729883, -1.1607952582102503, -1.0348784301176794, 1.0410099051511317, -0.5394110193618612], [-0.02548205432313244, -0.7749426073922961, -1.9904543414340239, 1.756080110575209, 1.5212184015396757, 0.3886280923946893], [-1.5609712142732675, -1.1100951290285137, 0.8532289453196609, 0.1348215022069798, -0.9134764347749366, 0.27965836220534623]], "biases": [[-0.7453125074172555, 0.4057666059107627, -0.6862227254346398, 0.4140698992512094, -0.58408054305057, -0.3013295313069357]]}, "layer3": {"weights": [[0.15706955937422312, 0.30082900367894333, -6.023344913760443], [-1.7108825867882036, -0.8703987565531143, -0.07918492117960646], [-1.2716209892139196, -0.5482079194679064, -1.3505578005845902], [1.5794792591778632, 2.101473265026719, -0.9376261023635466], [-1.07209542161655, 2.119432362674128, -0.12925597949652146], [-1.0929643918053609, -1.105670699674887, 0.4364204702708616]], "biases": [[-0.5922902229890943, 0.4161096219721456, 0.36617536817223306]]}}, {"layer1": {"weights": [[-0.3400258383574796, 3.097511811531609, -0.3960271658952242, 1.5688963347362963, 0.05615379397192109, 1.769853295531897], [-0.272369456474351, -0.22836948260254858, 0.4850956968879733, 0.36973666437852604, -0.06512288137367961, 0.6968272611737425], [-1.409439778281249, -1.1245070831022648, 0.18621503071825235, -1.8166571979364627, 1.1947148225317186, -0.44759895039826936], [1.0728285060088711, -0.9298345937700602, -0.4775421522715874, 0.02523291591841134, 1.0434608526140952, -1.2488135820279078], [-0.29294441491637413, -0.9418143822853018, -2.7873373104253365, 0.6652400353761709, 2.0676730649119777, -1.962069191596881]], "biases": [[0.24517812088778976, 0.22464416915203586, -0.10109827140145494, -0.40399369147887754, 0.08712499384368505, 0.004798931196862189]]}, "layer2": {"weights": [[-1.1559966860437358, -0.8587473694498939, -1.1435757069120873, 0.38818441574167883, 0.5858429731346848, -1.9199923566841364], [-0.9784022625018588, 1.3088845372842384, 0.10801536721244193, 2.4443202688195242, 1.0515829579826543, -1.0356496615271134], [-1.034728756243834, -0.13448706985251274, 0.6060187238868817, -0.6943488230410088, 2.849078198353179, -0.6548681353990243], [-0.27054701250734237, -0.271919855581411, -1.8951792107478593, -1.0183919363842777, 1.1059836738517697, -0.7130595470441526], [0.4463968229131488, -1.3409717015288871, -1.5934836732701994, 1.65235443510988, 1.3566606863621724, 0.6097224572622281], [-1.3801743930161527, -0.8128349471303563, 0.7323288155047647, -0.14968155483675533, -1.0853380790618488, 0.37993228943328616]], "biases": [[-0.7408814234748329, 0.39322530110118337, -0.6729119155802548, 0.36555102056597333, -0.544782325300292, -0.1497320649229482]]}, "layer3": {"weights": [[0.2268357762147935, 0.22776345511593304, -5.523274633772628], [-1.5021692219778637, -0.9429146726846785, 0.3498717525461612], [-1.3087233339899618, -0.4337238131062341, -1.1973676466453085], [1.3795793898198747, 1.9574446147700013, -0.8026163287697297], [-0.7181996398391643, 1.8952129173715277, -0.6093370183736941], [-0.8007751618305201, -0.7014397398772803, 0.6990387783342502]], "biases": [[-0.4592457181463676, 0.45396392333714825, 0.25520613783001067]]}}, {"layer1": {"weights": [[-0.6105583066737217, 2.6763262476800196, -0.3970758827432257, 1.442809436421436, -0.0674948431418325, 2.2237944564791405], [-0.39986464123152954, 0.057092142159231876, 0.44140881202911975, 0.5036312989441414, 0.1342179631538692, 0.7079441104907546], [-1.201527451051357, -1.1699514038496523, 0.6735834842923896, -1.9266187659321194, 1.6341530216866003, 0.03261212294154536], [1.4289213601556268, -0.8833433707272731, -0.15444756357740652, 0.01111047225646369, 0.484741451878905, -1.0387676927520175], [-0.359404024421839, -1.1551222675601698, -2.923695569435039, 0.40968685059931004, 1.8653618566754242, -1.7755312605092293]], "biases": [[0.08533594574898107, 0.2551023894558428, -0.1782612221244341, -0.3448267629893421, 0.06342904419446932, -0.020786628259512017]]}, "layer2": {"weights": [[-1.308206988282349, -0.6335069752817312, -0.31321315648503334, 0.7923213193924881, 0.41467299916073685, -2.210790650248249], [-0.9563670807998413, 1.2095016484456034, 0.8958616001897649, 2.5150192037282166, 1.1230181979509282, -0.7125868350057499], [-0.7662417887247928, -0.7226146432626344, 0.49549169291451656, -0.6726044782173947, 2.6398405910655875, -0.5291033346333116], [-0.04359969187215658, 0.30145138016729883, -1.1607952582102503, -1.0348784301176794, 1.0410099051511317, -0.5394110193618612], [-0.02548205432313244, -0.7749426073922961, -1.9904543414340239, 1.756080110575209, 1.5212184015396757, 0.3886280923946893], [-1.5609712142732675, -1.1100951290285137, 0.8532289453196609, 0.1348215022069798, -0.9134764347749366, 0.27965836220534623]], "biases": [[-0.7453125074172555, 0.4057666059107627, -0.6862227254346398, 0.4140698992512094, -0.58408054305057, -0.3013295313069357]]}, "layer3": {"weights": [[0.15706955937422312, 0.30082900367894333, -6.023344913760443], [-1.7108825867882036, -0.8703987565531143, -0.07918492117960646], [-1.2716209892139196, -0.5482079194679064, -1.3505578005845902], [1.5794792591778632, 2.101473265026719, -0.9376261023635466], [-1.07209542161655, 2.119432362674128, -0.12925597949652146], [-1.0929643918053609, -1.105670699674887, 0.4364204702708616]], "biases": [[-0.5922902229890943, 0.4161096219721456, 0.36617536817223306]]}}, {"layer1": {"weights": [[-0.3400258383574796, 3.097511811531609, -0.3960271658952242, 1.5688963347362963, 0.05615379397192109, 1.769853295531897], [-0.272369456474351, -0.22836948260254858, 0.4850956968879733, 0.36973666437852604, -0.06512288137367961, 0.6968272611737425], [-1.409439778281249, -1.1245070831022648, 0.18621503071825235, -1.8166571979364627, 1.1947148225317186, -0.44759895039826936], [1.0728285060088711, -0.9298345937700602, -0.4775421522715874, 0.02523291591841134, 1.0434608526140952, -1.2488135820279078], [-0.29294441491637413, -0.9418143822853018, -2.7873373104253365, 0.6652400353761709, 2.0676730649119777, -1.962069191596881]], "biases": [[0.24517812088778976, 0.22464416915203586, -0.10109827140145494, -0.40399369147887754, 0.08712499384368505, 0.004798931196862189]]}, "layer2": {"weights": [[-1.1559966860437358, -0.8587473694498939, -1.1435757069120873, 0.38818441574167883, 0.5858429731346848, -1.9199923566841364], [-0.9784022625018588, 1.3088845372842384, 0.10801536721244193, 2.4443202688195242, 1.0515829579826543, -1.0356496615271134], [-1.034728756243834, -0.13448706985251274, 0.6060187238868817, -0.6943488230410088, 2.849078198353179, -0.6548681353990243], [-0.27054701250734237, -0.271919855581411, -1.8951792107478593, -1.0183919363842777, 1.1059836738517697, -0.7130595470441526], [0.4463968229131488, -1.3409717015288871, -1.5934836732701994, 1.65235443510988, 1.3566606863621724, 0.6097224572622281], [-1.3801743930161527, -0.8128349471303563, 0.7323288155047647, -0.14968155483675533, -1.0853380790618488, 0.37993228943328616]], "biases": [[-0.7408814234748329, 0.39322530110118337, -0.6729119155802548, 0.36555102056597333, -0.544782325300292, -0.1497320649229482]]}, "layer3": {"weights": [[0.2268357762147935, 0.22776345511593304, -5.523274633772628], [-1.5021692219778637, -0.9429146726846785, 0.3498717525461612], [-1.3087233339899618, -0.4337238131062341, -1.1973676466453085], [1.3795793898198747, 1.9574446147700013, -0.8026163287697297], [-0.7181996398391643, 1.8952129173715277, -0.6093370183736941], [-0.8007751618305201, -0.7014397398772803, 0.6990387783342502]], "biases": [[-0.4592457181463676, 0.45396392333714825, 0.25520613783001067]]}}, {"layer1": {"weights": [[-0.6930235336460816, 2.7690226905496593, -0.3884049783366347, 1.564196111329041, 0.054195587312544105, 1.7611341775726872], [-0.369138402159896, -0.16760411296140706, 0.5957420799070272, 0.40643871372854434, -0.10866727875150406, 0.6043585925391357], [-1.3527428074502559, -1.0832245135608012, 0.3574590654154683, -1.8979126296896227, 1.1575849128008753, -0.44759895039826936], [1.2613483936621745, -1.0609186487638458, -0.6071944133121849, -0.1178037085141406, 1.1049554259342709, -1.3451437500318812], [-0.22159962208476297, -0.9937131037186705, -2.9329487493390007, 0.43766874641045705, 2.129066190392872, -1.8978307913634087]], "biases": [[0.26643857674120064, 0.24549969388502854, -0.2017447582129656, -0.4291609106153077, 0.11641928208694963, 0.004798931196862189]]}, "layer2": {"weights": [[-1.370528737325777, -0.9923627465062471, -0.9207627594235336, 0.2119120663334245, 0.20801416538374223, -1.9000371074957343], [-0.9855703178674001, 1.3536840684499323, -0.21388860078471167, 2.5394581923048256, 1.0515829579826543, -0.8809167771423259], [-1.1900034524215783, -0.13448706985251274, 0.5760639740350093, -0.6943488230410088, 2.8824429077666935, -0.6548681353990243], [-0.46111017367315066, -0.09038946197448679, -1.6794854169435152, -0.9641461889012648, 1.2349305140413558, -0.4609853732635133], [0.3836930664342616, -1.406982345694957, -1.5934836732701994, 1.5558389703346547, 1.348864656547415, 0.741904010541919], [-1.492994480622642, -0.9285945214307879, 0.7323288155047647, -0.13703381628395914, -1.1254521201072327, 0.3866371463098782]], "biases": [[-0.7408814234748329, 0.39322530110118337, -0.6729119155802548, 0.36555102056597333, -0.544782325300292, -0.2218729417717631]]}, "layer3": {"weights": [[0.12538155744613264, 0.27113149852450985, -5.618827300592258], [-1.3099781024486201, -0.7880412774616933, 0.12081467608836376], [-1.3838451327507162, -0.43199737792261594, -1.2395881202318697], [1.4493192107721469, 1.8749698009117088, -1.0295885345232916], [-1.0193165922361551, 1.8952129173715277, -0.6093370183736941], [-0.7977870441044881, -0.8673583214103542, 0.6143064891360338]], "biases": [[-0.589433488227438, 0.43713942354838065, 0.25520613783001067]]}}, {"layer1": {"weights": [[-0.6930235336460816, 2.7690226905496593, -0.3884049783366347, 1.564196111329041, 0.054195587312544105, 1.7611341775726872], [-0.369138402159896, -0.16760411296140706, 0.5957420799070272, 0.40643871372854434, -0.10866727875150406, 0.6043585925391357], [-1.3527428074502559, -1.0832245135608012, 0.3574590654154683, -1.8979126296896227, 1.1575849128008753, -0.44759895039826936], [1.2613483936621745, -1.0609186487638458, -0.6071944133121849, -0.1178037085141406, 1.1049554259342709, -1.3451437500318812], [-0.22159962208476297, -0.9937131037186705, -2.9329487493390007, 0.43766874641045705, 2.129066190392872, -1.8978307913634087]], "biases": [[0.26643857674120064, 0.24549969388502854, -0.2017447582129656, -0.4291609106153077, 0.11641928208694963, 0.004798931196862189]]}, "layer2": {"weights": [[-1.370528737325777, -0.9923627465062471, -0.9207627594235336, 0.2119120663334245, 0.20801416538374223, -1.9000371074957343], [-0.9855703178674001, 1.3536840684499323, -0.21388860078471167, 2.5394581923048256, 1.0515829579826543, -0.8809167771423259], [-1.1900034524215783, -0.13448706985251274, 0.5760639740350093, -0.6943488230410088, 2.8824429077666935, -0.6548681353990243], [-0.46111017367315066, -0.09038946197448679, -1.6794854169435152, -0.9641461889012648, 1.2349305140413558, -0.4609853732635133], [0.3836930664342616, -1.406982345694957, -1.5934836732701994, 1.5558389703346547, 1.348864656547415, 0.741904010541919], [-1.492994480622642, -0.9285945214307879, 0.7323288155047647, -0.13703381628395914, -1.1254521201072327, 0.3866371463098782]], "biases": [[-0.7408814234748329, 0.39322530110118337, -0.6729119155802548, 0.36555102056597333, -0.544782325300292, -0.2218729417717631]]}, "layer3": {"weights": [[0.12538155744613264, 0.27113149852450985, -5.618827300592258], [-1.3099781024486201, -0.7880412774616933, 0.12081467608836376], [-1.3838451327507162, -0.43199737792261594, -1.2395881202318697], [1.4493192107721469, 1.8749698009117088, -1.0295885345232916], [-1.0193165922361551, 1.8952129173715277, -0.6093370183736941], [-0.7977870441044881, -0.8673583214103542, 0.6143064891360338]], "biases": [[-0.589433488227438, 0.43713942354838065, 0.25520613783001067]]}}, {"layer1": {"weights": [[-0.6951757398096469, 2.6204955054148926, -0.27041389127827686, 1.34092794651177, -0.19842433391185443, 2.034411478263891], [-0.6526125369423749, -0.21733758559493127, 0.16624860192358043, 0.3985668780264765, 0.2887032877467966, 0.5025404881699671], [-1.1959385527926092, -1.0008270247662487, 0.9226746991428764, -1.7572575686936207, 1.5761980065820242, -0.144554078164004], [1.3798160446788945, -1.1015441964121886, -0.10542954936148216, -0.14771086863108684, 0.8253567102939139, -1.0860714226074952], [-0.38425856105801215, -1.1939750077717486, -2.888741357194515, 0.5706491011328886, 1.9837969407892786, -1.6565725970742202]], "biases": [[0.1743315200638163, 0.1758919499143247, -0.13162875911455438, -0.2495793178581973, 0.06342904419446932, -0.020786628259512017]]}, "layer2": {"weights": [[-1.3098417813622854, -0.4552684835061243, -0.6891839290156876, 0.5639034910053179, 0.6106795997276592, -2.0942684691467828], [-0.8761293663089813, 1.3371867237481467, 0.7740327832826099, 2.360670380570812, 1.5099969939705151, -0.6727104557804809], [-0.7236617681269788, -0.6108785155943732, 0.46629631301991115, -0.754081276980417, 3.0475300382432446, -0.6680883880519084], [-0.19022486923641155, 0.16956434353557928, -1.7879623239878577, -1.0721516487532414, 1.1218269635543148, -0.49843201807735543], [-0.0057730237433895725, -0.7059085367396, -1.891586899575341, 1.549167791143455, 1.5103202271909544, 0.6624974498198192], [-1.5909244174542545, -1.073418385568608, 0.7907825461301681, 0.009819824040758485, -0.95333276286408, 0.06047006572366509]], "biases": [[-0.7614160812119584, 0.340428425569126, -0.6800013937579018, 0.3660880440480182, -0.5028489997829704, -0.28534053091961925]]}, "layer3": {"weights": [[0.1369928810425124, 0.4926739077925295, -5.919053375529411], [-1.8393124725962093, -0.9267343329650302, -0.03353723678526373], [-1.5917212156184342, -0.4540488208480975, -1.5098506956212958], [1.5383424902374312, 2.0681532881840727, -1.1667844387908066], [-1.2566691998049089, 2.082640341719604, -0.03681671990320816], [-0.9897659121214301, -0.9684543337613348, 0.29551840886451736]], "biases": [[-0.589433488227438, 0.4339381465353292, 0.36617536817223306]]}}]