[{"layer1": {"weights": [[-1.1830562796242148, -0.9966681073967569, 0.7070030910673268, 1.333407941634384, -0.5858819216569024, 0.3408596097538182], [0.5203106274307003, -0.9449519105718562, 0.16413978210624175, -1.01863628149924, -0.18962043741744375, 0.7606421068260427], [0.9654878310490846, 0.7411288685222333, 1.2263699521127411, 0.4699951677975439, -0.22091835978759872, 0.03727293989493821], [-0.22563955137879702, -0.07421022680219527, -0.1602082502156278, -2.372403173002565, 0.07022384816553554, 0.384549926906153], [0.5829393793760176, -2.053354708218688, 1.089024255470312, -0.19754262378478205, 1.7038116529008909, 0.09144191085615574]], "biases": [[-0.02283322312552302, 0.012333334778343905, -0.030305788357460006, -0.08101448241919369, -0.06495016883972882, -0.0493556976720229]]}, "layer2": {"weights": [[-0.11343288948564209, 1.5337480462074753, -1.4764043780474263, -0.6356560818703985, -0.1329546208547404, 0.3193556839996342], [-0.7146236284323002, -1.3751417445055056, 2.510276462735344, -0.03125299188533766, 0.8182807804922729, -0.07349928966364518], [-1.0245746590050377, 1.151788562215871, -1.1553875689916246, 1.2971569746595462, 0.4107867506333631, 0.052141016479826344], [-0.8904841546628853, -1.6963186577219276, -0.3239833153598751, -0.1546945425070373, 1.0940024326976694, -0.19814316309961236], [0.2624116755582498, -0.8537729841579117, 1.3760006243710103, -0.6469247182912998, 0.5075784193625725, 0.37780233896590937], [-1.3289188308044482, -0.043693176904640016, 0.501541338098738, 0.13446421937706166, -0.9679136843225731, -1.4069538493156595]], "biases": [[0.15460854378783084, 0.06672833545630871, -0.060635142232706066, -0.1652742028985626, -0.08635302066657204, -0.016168810887718637]]}, "layer3": {"weights": [[-1.4342073745065946, -0.6248198566597731, 0.14484398532929899], [-0.07161151810977685, -0.4206977479434164, 0.7927362504750767], [-0.9156140476452375, -1.5238021334024556, -0.5825383234364845], [0.6704528857011156, -1.5767080149726818, 1.031154413490237], [1.5399548642796934, -0.07317085066326978, 0.7261038043100082], [0.04608728693968847, 0.868166231218737, 1.3660369184563659]], "biases": [[0.021032232433862746, -0.011237095791240895, -0.005972097489915609]]}}, {"layer1": {"weights": [[-1.1583673524566818, -0.9966681073967569, 0.7071649443465018, 1.333407941634384, -0.5858819216569024, 0.38002681574808594], [0.5379252889650654, -0.952468908541499, 0.1626487064930105, -1.01863628149924, -0.22040909954891, 0.7568638024848233], [0.948331034939608, 0.7411288685222333, 1.2263699521127411, 0.4409469203813633, -0.24433903849376762, 0.02719765688733287], [-0.17720011796586316, -0.07421022680219527, -0.14891275860522402, -2.3699770316461066, 0.047056600842194915, 0.44130429597982634], [0.6185227044359225, -2.055277015708887, 1.1010291054569765, -0.20105435412468026, 1.7038116529008909, 0.09072189545854667]], "biases": [[-0.02668829716006323, 0.012333334778343905, -0.030305788357460006, -0.08101448241919369, 0.0019196454980477673, -0.0493556976720229]]}, "layer2": {"weights": [[-0.107941991128391, 1.5337480462074753, -1.4764043780474263, -0.6356560818703985, -0.17415687337018182, 0.3193556839996342], [-0.7146236284323002, -1.3751417445055056, 2.4529376517098873, -0.03125299188533766, 0.8223155011656401, -0.10551451619773033], [-0.9437569112676948, 1.1361708435125097, -1.1214682240566565, 1.2870046495183747, 0.4158986300597257, 0.05079803284539394], [-0.8165717079236707, -1.6801998023606326, -0.3239833153598751, -0.1546945425070373, 1.099902478100022, -0.20810217632616063], [0.2676319934435201, -0.8735606308073512, 1.3760006243710103, -0.6526147629294916, 0.5075784193625725, 0.37780233896590937], [-1.3199341298761007, -0.043693176904640016, 0.5012873325747922, 0.15123143097311456, -0.9543521448621985, -1.4069538493156595]], "biases": [[0.15460854378783084, 0.06672833545630871, -0.060635142232706066, -0.1652742028985626, -0.08635302066657204, -0.016168810887718637]]}, "layer3": {"weights": [[-1.4644573370798915, -0.6292401514235264, 0.14484398532929899], [0.12368879712566534, -0.4206977479434164, 0.7927362504750767], [-0.8700751393144679, -1.5609572470631234, -0.5825383234364845], [0.6704528857011156, -1.5828992551481735, 1.039097526159823], [1.522858631465844, -0.07317085066326978, 0.7273271077515711], [0.024133935230725004, 0.868166231218737, 1.3660369184563659]], "biases": [[0.021032232433862746, -0.04726713857496132, 0.006363812037543302]]}}, {"layer1": {"weights": [[-1.2595743512528819, -0.9958150473983228, 0.7064040073290012, 1.3415045240021257, -0.5858819216569024, 0.24923903122837437], [0.47291609188862377, -0.9070073248618105, 0.16874172213850058, -1.0186155033387685, -0.09636148232825421, 0.7725709724800974], [1.0594754777566384, 0.8109367177352882, 1.230036072404078, 0.4981368137530353, -0.24354445082039033, 0.06749878891775422], [-0.1753982352706361, -0.07183012849359016, -0.21847793964311807, -2.381123384323258, 0.18419093405556242, 0.44128842501445903], [0.5636907462002554, -2.0437564611464936, 1.064387995282635, -0.17997216848739828, 1.708964306977089, 0.10317392109003728]], "biases": [[-0.010776299868067942, 0.002464611567864842, -0.03030340946888991, -0.08198917292208277, -0.007208970250426823, -0.04844141986049446]]}, "layer2": {"weights": [[-0.16412049241611243, 1.5337852089622706, -1.4770813421263527, -0.6149462113172967, -0.11202680200018841, 0.3192071494467219], [-0.716093741975411, -1.3245374469523725, 2.4637504840391933, -0.01613756899952856, 0.8156512013164824, 0.03937185231036578], [-1.1587091108707936, 1.2035575842304824, -1.1637195481629885, 1.237540276371053, 0.3738936699897601, 0.0750146036110313], [-0.8187210280909233, -1.7240264719303013, -0.30991637640642933, -0.15290408189900576, 1.0852324221083318, -0.148348096966871], [0.308134209752138, -0.7547472784199274, 1.3356175618392339, -0.6056278674432627, 0.48570616308206715, 0.3871351471500299], [-1.3637718095029916, -0.1375168340539012, 0.5000429406527787, 0.11759647468718407, -0.9636927865566336, -1.4069538493156595]], "biases": [[0.15731514286234283, 0.06687913273064194, -0.084549017399451, -0.1652742028985626, -0.0863543607977029, -0.01871829355685546]]}, "layer3": {"weights": [[-1.3929152094527681, -0.6221868179452454, 0.1445339362126244], [0.12331984226912501, -0.42037712866039234, 0.7914000138372497], [-0.8657662528495229, -1.5333463860149483, -0.5819471814746202], [0.6800542126909419, -1.5560947411303974, 1.00602852510081], [1.5573000166870805, -0.07498064768141995, 0.7109080412451765], [0.044386707465773424, 0.8691704322528151, 1.366703984783073]], "biases": [[0.003852569578557237, 0.024769034934941522, -0.04297982607229234]]}}, {"layer1": {"weights": [[-1.1515612898448795, -0.9943485238401222, 0.7071011649075003, 1.3306580894603606, -0.5876205103616099, 0.3833020206740767], [0.5668940270745249, -1.0254988130400162, 0.1632006034131474, -1.016260131610418, -0.22059371261763455, 0.7576846603121461], [0.9287015977285438, 0.7786402700493712, 1.2196993386888542, 0.4974219176270351, -0.24398274549595173, 0.026838281087002147], [-0.22415407815959032, -0.07315698390358036, -0.0984957449563805, -2.3723568476711825, -0.15617476205519742, 0.4413294640738385], [0.5417805988531469, -2.07416227724423, 1.0342227052877542, -0.18310615165931857, 1.6394635510775242, 0.09495592437757662]], "biases": [[-0.033922843351312765, 0.007385308140190493, -0.030305788357460006, -0.07760647637671206, -0.007393740320373603, -0.04908565606148612]]}, "layer2": {"weights": [[-0.05526606993750283, 1.4978692918508898, -1.4451709538734223, -0.6252523330179451, -0.06627915629891518, 0.31900302918764123], [-0.7151228837922128, -1.3480586517234956, 2.44752590767791, -0.023695047899784782, 0.8273796150636799, 0.05408334838337802], [-1.1124975334422635, 1.162472845728435, -1.2491658224849227, 1.2550649469842696, 0.2517150763716626, -0.05573367655987184], [-0.8393602177325612, -1.6846330946272277, -0.3241264966937428, -0.14953325320582267, 1.0932870285735394, -0.2653275239789267], [0.2667189353086815, -0.6903131011904547, 1.246849076267004, -0.6399810648329153, 0.4963825860443715, 0.4027677498507749], [-1.3158833902303373, -0.1947347924790853, 0.5065722783581821, 0.13275231103900337, -0.8369943891862066, -1.4127004309290507]], "biases": [[0.15613329014105098, 0.06811354452365169, -0.06678596599269196, -0.1652742028985626, -0.059542757622594034, 0.016677910056455657]]}, "layer3": {"weights": [[-1.4429989601790174, -0.6348939772856697, 0.14483569683461792], [0.08747029242872399, -0.42048060339855964, 0.7922320776224585], [-0.8698730601660078, -1.4093442731504564, -0.5802125377247301], [0.6705933010842846, -1.5970640902238404, 0.9904913193998952], [1.4861468669613696, -0.07976325858330938, 0.7218058401474118], [0.0021930451947541965, 0.9043723019967512, 1.3621004367228169]], "biases": [[0.021032232433862746, 0.024573178137534738, 0.006355272029205503]]}}, {"layer1": {"weights": [[-1.1712171757642906, -0.9952015838385564, 0.7070528355291259, 1.3225615070926189, -0.5876205103616099, 0.330451134779926], [0.5181456514951077, -0.9524839090094208, 0.15688113573898588, -1.0162809097708898, -0.19069801918095913, 0.7608690120229686], [0.9442242150059107, 0.7437436088444701, 1.2160332183975173, 0.5004605095419019, -0.2213566544631601, 0.036913564094607484], [-0.22265274134780896, -0.07553708221218547, -0.16195584280998107, -2.3741532205528975, 0.025844826351196785, 0.38459096596553244], [0.7383984576826594, -2.0601185034935794, 1.065225783426596, -0.18311795525721128, 1.6343108970013258, 0.08610397573413137]], "biases": [[-0.02345874927037688, 0.017254031350669555, -0.030308167246030103, -0.076631785873823, -0.007760056890386625, -0.04999993387301456]]}, "layer2": {"weights": [[-0.10248566165544193, 1.5319632261465979, -1.4759259356932537, -0.6355089267747048, -0.08177856173273236, 0.3191515637405535], [-0.713652770249102, -1.3798943189186064, 2.4603555242449144, -0.03881047078559388, 0.7259069467042931, 0.04346068931207913], [-1.0928557805481733, 1.1526966830542515, -1.1539587084147942, 1.2817086888106655, 0.42750278044361023, 0.039028395758101395], [-0.8157434709812001, -1.6951380208421238, -0.33087242752845, -0.05145756895963757, 1.090256948358172, -0.19612200659241538], [0.2781105764886736, -0.8570800227750694, 1.3975068776740667, -0.6528276924899938, 0.5185807828032807, 0.39532536573889177], [-1.3212251745401589, -0.014511515964805877, 0.5080181650066393, 0.11608563253677509, -1.0008471105745027, -1.6842510533418589]], "biases": [[0.1547708983124074, 0.06796274724931846, -0.05660275597517026, -0.1572465724714746, -0.08604643317280976, -0.014887664303173113]]}, "layer3": {"weights": [[-1.4159622891843762, -0.623886694773642, 0.14514574595129254], [0.08783924728526432, -0.4208012226815837, 0.7935683142602854], [-0.9157664570682014, -1.437511547623438, -0.5808036796865944], [0.7039070705900736, -1.5929124033641582, 1.032691901876843], [1.5397786489977874, -0.11977316796980594, 0.7308850860044293], [0.023909482718180934, 0.9042852994603017, 1.3807962594062488]], "biases": [[0.029622063861515502, 0.024597090195072748, -0.005980637498253408]]}}]