[{"layer1": {"weights": [[-0.5733587382656069, 2.128336855417168, -0.5837362675488421, -0.22103098416877087, 0.24166207987440064, -0.6860888551324285], [0.18549347001545313, -0.508509159677903, -0.21602252391497787, 1.4433363164236337, -0.1598364066902025, -1.1746586781624297], [0.22769225400973692, 0.39199075268910666, 0.006754216031188039, -0.7792769048888329, -0.49769286292482656, -0.49924948493600385], [0.1975771466450087, 0.38138201673646077, -0.8455043014172983, -1.7002597281466376, 0.8437954831888886, -3.4110644063181224], [0.1513603384712176, 1.0255709431806888, -0.023758474932117524, -0.5620679100348976, -0.39161756396187475, 1.822543128776125]], "biases": [[-0.02980014298407429, -0.03431634222958127, -0.21046324692112256, -0.15930009103389067, -0.2011554883250678, -0.11164172066886022]]}, "layer2": {"weights": [[0.021672207028758942, -0.3024017733076003, 0.6940714944763854, 0.37566711151762666, 2.2295595540617175, 0.224736183489528], [1.2207106739576141, -0.30587274656731755, -1.7166795818288947, 0.6010752219012383, -0.04557014955764806, 0.6382301525755553], [0.5030799599523004, -0.06697604719948638, -0.6845982803695463, -0.6163392628734187, -0.23320569621015352, -0.42027197010052275], [-0.4232656511752797, 1.9774217725405807, 0.4863804273570593, -1.9412367026970179, -0.5671049605273222, 1.6570702586440924], [-1.484791630488284, -0.6156491492009208, -1.0500077928095293, 0.616021998837881, -1.205946216914681, -1.2123222767765893], [1.4328237139737996, -0.06885477977817872, 0.3926589674631053, 1.170347788974257, 1.4546972126590896, 1.4097443996283965]], "biases": [[0.0812868388360353, 0.20026154042946728, 0.18377061165923167, 0.013890687519633732, -0.06446711992507238, 0.012167880278603408]]}, "layer3": {"weights": [[-0.5317405154874184, 0.29402276893178164, -1.3306126711505828], [-0.9218066557595994, 0.3292751621317087, 0.9752337524278021], [-0.04901375900524017, 0.6544402285697086, 0.6988140293082616], [1.6546987636354014, -0.2980997941831664, 1.1161229533165664], [0.16977922448156346, 0.12215384911474816, -0.8937515450668221], [-0.5774128454404039, 0.3842152074955092, -0.1504404120912619]], "biases": [[-0.07404014206656206, 0.12053235588289544, 0.038538347923156996]]}}, {"layer1": {"weights": [[-0.5747119264149436, 2.0547315261070747, -0.5837362675488421, -0.16711139429091917, 0.24166207987440064, -0.6273772283985778], [0.1794269525856545, -0.508509159677903, -0.23815158424060537, 1.425612037959806, -0.1598364066902025, -1.158048201244097], [0.22769225400973692, 0.41830414773654157, 0.006754216031188039, -0.7288942412747794, -0.49769286292482656, -0.49723268711319657], [0.1975771466450087, 0.4020183370769322, -0.9285037300318637, -1.618890321951798, 0.8763246011783532, -3.3298641297929903], [0.16845702542922697, 1.1437706677111101, -0.06458902764990215, -0.5620679100348976, -0.39475998153694847, 1.9654491674450036]], "biases": [[-0.02980014298407429, -0.032513134751465306, -0.21046324692112256, -0.15930009103389067, -0.2011554883250678, -0.11164172066886022]]}, "layer2": {"weights": [[0.02463925912839799, -0.3334188609926829, 0.6940714944763854, 0.3410039918437503, 2.2379554059197306, 0.27939986367065484], [1.2207106739576141, -0.21928049454747, -1.8378731124468577, 0.5307995229806162, -0.024302494682611316, 0.5932030286302075], [0.5030799599523004, -0.09382933766489052, -0.6009767741718802, -0.5730091846189194, -0.23320569621015352, -0.42027197010052275], [-0.4232656511752797, 1.9873572646044053, 0.4863804273570593, -1.8830804199585982, -0.5671049605273222, 1.6530818101706213], [-1.583759486686544, -0.5983695999045885, -1.1000528432062964, 0.6321131960591224, -1.205946216914681, -1.2123222767765893], [1.4413401423345982, -0.07507716264200107, 0.3926589674631053, 1.1662000439521094, 1.537020635788592, 1.432655372178346]], "biases": [[0.0812868388360353, 0.2505883867929563, 0.1781962626280229, 0.013890687519633732, -0.06446711992507238, -0.006013863241820199]]}, "layer3": {"weights": [[-0.5317405154874184, 0.23483669867786813, -1.3306126711505828], [-0.9218066557595994, 0.3207364852215042, 0.967027513922019], [-0.0014796719459981324, 0.6479832737210396, 0.6988140293082616], [1.7483445719377149, -0.2686420093840213, 1.1161229533165664], [0.15710227052738665, 0.12215384911474816, -0.9119264314560849], [-0.5774128454404039, 0.3842152074955092, -0.1572458095588077]], "biases": [[-0.07404014206656206, 0.12053235588289544, 0.038538347923156996]]}}, {"layer1": {"weights": [[-0.1623510362607459, 0.34997526303772863, 0.04093880840223252, -0.554421829306688, 0.22684473088207857, -1.0100599674473854], [-0.16626619311202545, 0.4527978468275994, 0.5405428805818191, 0.5041875359181404, 0.17893325344341188, -0.9591751822134562], [-0.4884669346233008, 0.5150490471721525, -0.20836775259471643, 0.548007534145502, -0.30981574574963244, -0.8245477193953803], [-0.7856742640457729, 0.06581674702063753, -0.34914113338061203, -0.45649326633377335, 0.6946122906576693, -1.6154543941336863], [0.2758960020246385, 0.34432838264394405, 0.04073887582552107, 0.20994826317309956, 0.32130682026838164, 0.8365494447214936]], "biases": [[-0.009900680105948653, -0.09234787902839976, -0.20464224322742258, -0.029274110125091513, -0.10259945707061864, -0.015716704631012005]]}, "layer2": {"weights": [[-0.42672854588214876, 0.9214228830478508, 0.4176425221179678, 0.17857141196482995, 0.6322207942116913, 0.07589680694831316], [0.14001853702117623, 0.5821633308611633, -1.1049598377288783, -0.1587387555628404, -0.12854103575487985, 0.9434658120964441], [-0.021032191931500133, -0.08230436893418022, 0.3040713019661021, -0.83474022083067, -0.25582382832894285, 0.3449514695199662], [-0.4065823882019395, 1.1350627144961583, -0.13235826396136177, -1.6950503244719712, -1.2648197358648292, 0.7183033557781642], [-0.39226067161464373, 0.02103323145436592, -0.20910309550103223, 0.23050147656724135, -1.025269027966068, -1.1447518107615242], [0.27838904021133176, -0.2435711540474041, 0.4595141308305526, 1.0733239077355186, 0.7034499899601766, 0.7065567232375402]], "biases": [[0.07586279476718169, 0.1606508024170552, 0.16192151705312507, -0.03437656687193309, 0.04461987621907567, -0.05600769024127333]]}, "layer3": {"weights": [[0.09051030617425376, -0.24291603259612812, 0.3480995502468308], [-0.9025990325522265, 0.44543637603039615, 0.5605387312049437], [-0.21558553007066236, -0.09004209223573134, 0.7670445867342761], [0.969101853434833, -0.2959559543888558, 0.7140056784873448], [-0.10526626463411921, -0.04387067150901092, 0.05706597204379482], [-0.39240016000128447, 1.004442087485479, 0.28186203678144434]], "biases": [[0.013338357292591432, 0.0515693162252077, 0.007551732860874278]]}}, {"layer1": {"weights": [[-0.24823060428578594, 0.361512155554522, 0.04093880840223252, -0.6083414191845398, 0.22684473088207857, -0.9955181136944975], [-0.16019967568222682, 0.4527978468275994, 0.5626719409074465, 0.48646325745431296, 0.17893325344341188, -0.9757856591317888], [-0.3060235746328541, 0.4887356521247176, -0.20836775259471643, 0.5100422661786329, -0.30981574574963244, -0.8289243499187922], [-0.7856742640457729, 0.06387043997143324, -0.2661417047660466, -0.39676705926743966, 0.6622053089076665, -1.63716150328722], [0.21785300904576216, 0.34432838264394405, -9.167689226356746e-05, 0.20994826317309956, 0.32444923784345536, 0.8365494447214936]], "biases": [[-0.009900680105948653, -0.09415108650651573, -0.20464224322742258, -0.029274110125091513, -0.10259945707061864, -0.015716704631012005]]}, "layer2": {"weights": [[-0.4187765817434588, 0.9413710135248824, 0.4176425221179678, 0.21323453163870631, 0.6322207942116913, 0.049157569905027676], [0.14001853702117623, 0.49557107884131574, -1.1010972527801917, -0.062443016325917755, -0.12854103575487985, 0.9434658120964441], [-0.021032191931500133, -0.10915765939958434, 0.22044979576843604, -0.83474022083067, -0.17635366713983536, 0.36342871329310683], [-0.4065823882019395, 1.2240297167629597, -0.13235826396136177, -1.6702297270031203, -1.2648197358648292, 0.7800909923323388], [-0.4154264055650767, 0.021737446276671235, -0.17281220849486922, 0.2083479029438065, -1.1039834737301424, -0.9317333718122642], [0.27838904021133176, -0.36730616174696895, 0.4595141308305526, 1.0774716527576662, 0.7388668337455043, 0.7266727639510746]], "biases": [[0.07586279476718169, 0.1606508024170552, 0.15634716802191628, -0.03437656687193309, 0.04461987621907567, -0.03782594672084972]]}, "layer3": {"weights": [[0.09051030617425376, -0.24013880848790767, 0.3480995502468308], [-0.9025990325522265, 0.4567589024473586, 0.5523324926991606], [-0.24355487426663297, -0.12057068900366744, 0.7670445867342761], [0.969101853434833, -0.2664981695897107, 0.7245683670886054], [-0.08819191247197877, -0.05919612806299867, 0.07524085843305767], [-0.3382505910898771, 1.004442087485479, 0.3070864970804101]], "biases": [[0.013338357292591432, 0.06184656119671898, 0.007551732860874278]]}}, {"layer1": {"weights": [[-0.5747119264149436, 2.128336855417168, -0.5837362675488421, -0.16711139429091917, 0.24166207987440064, -0.6273772283985778], [0.1794269525856545, -0.508509159677903, -0.23815158424060537, 1.425612037959806, -0.1598364066902025, -1.158048201244097], [0.22769225400973692, 0.41830414773654157, 0.006754216031188039, -0.7288942412747794, -0.49769286292482656, -0.5036261154594157], [0.1975771466450087, 0.4020183370769322, -0.9285037300318637, -1.618890321951798, 0.8763246011783532, -3.3298641297929903], [0.16845702542922697, 1.1437706677111101, -0.06458902764990215, -0.5620679100348976, -0.39475998153694847, 1.8732309447916564]], "biases": [[-0.02980014298407429, -0.032513134751465306, -0.23181837770780006, -0.15930009103389067, -0.2011554883250678, -0.11164172066886022]]}, "layer2": {"weights": [[0.02463925912839799, -0.22902808562040416, 0.6940714944763854, 0.3410039918437503, 2.2379554059197306, 0.27939986367065484], [1.2207106739576141, -0.21928049454747, -1.8378731124468577, 0.5307995229806162, -0.024302494682611316, 0.5932030286302075], [0.5030799599523004, -0.09382933766489052, -0.6009767741718802, -0.6163392628734187, -0.23320569621015352, -0.42027197010052275], [-0.4232656511752797, 1.9873572646044053, 0.4863804273570593, -1.8830804199585982, -0.5671049605273222, 1.6530818101706213], [-1.583759486686544, -0.5983695999045885, -1.1000528432062964, 0.6321131960591224, -1.205946216914681, -1.2123222767765893], [1.4413401423345982, -0.07507716264200107, 0.3926589674631053, 1.1662000439521094, 1.537020635788592, 1.432655372178346]], "biases": [[0.0812868388360353, 0.2505883867929563, 0.1781962626280229, 0.013890687519633732, -0.06446711992507238, -0.006013863241820199]]}, "layer3": {"weights": [[-0.5317405154874184, 0.29402276893178164, -1.3306126711505828], [-0.9218066557595994, 0.3207364852215042, 0.967027513922019], [-0.0014796719459981324, 0.6479832737210396, 0.6988140293082616], [1.6546987636354014, -0.2686420093840213, 1.1161229533165664], [0.15710227052738665, 0.12215384911474816, -0.9119264314560849], [-0.5774128454404039, 0.3842152074955092, -0.1572458095588077]], "biases": [[-0.07404014206656206, 0.12053235588289544, 0.038538347923156996]]}}]